{"model_state":[{"clause_net":{"weight":[-0.035278976,-0.11288296,0.07011375,-0.065018535,0.05160663,-0.12389336,-0.16714367,-0.1462102,-0.22766683,0.022971055,0.00029396644,-0.001359094,0.1771409,-0.05895694,-0.1367776,0.1229114,0.0058638966,0.22169541,-0.08351351,-0.18996592,0.049656335,0.006887834,-0.18430957,-0.04100862,0.09270678,-0.14391099,-0.09162292,-0.15384503,0.10902134,-0.06518184,0.021926032,0.055352412,-0.0105342185,-0.19185503,0.038890157,0.20546784,-0.123255715,0.21427076,0.008512982,-0.1655401,0.024400255,0.06758902,0.07099604,0.15296875,-0.124643505,0.06331415,-0.20309967,0.14203721,-0.13854724,0.1647014,-0.14782833,0.045655258,-0.004208753,-0.0073825503,-0.061853778,-0.18324925,-0.021539913,0.1387124,-0.14055151,-0.062421817,0.16632338,-0.17082025,0.14615937,0.18475282,-0.10354382,0.17582577,-0.19027402,0.012115669,0.02110798,-0.09465422,-0.05969102,-0.095232956,0.058769293,-0.006592477,-0.11530041,-0.21739735,-0.006783314,-0.038291823,0.14252855,0.05392549,-0.21348865,0.16669469,-0.121775836,-0.1533519,0.18199347,0.21907474,0.18787827,-0.12349064,0.056548543,-0.1680086,-0.044973645,0.19422504,-0.19274184,-0.0042749336,-0.023100115,-0.07629738,-0.011902883,0.22838162,0.17723596,0.14332633,0.0019228549,-0.045236904,-0.026398933,0.10453295,0.19419457,-0.12443411,0.1166746,-0.07372596,-0.07088244,-0.12890257,0.06973066,-0.07949012,-0.19519989,0.10231656,-0.0040316707,0.1954682,-0.09455701,0.22618069,-0.15572186,-0.22376242,-0.20136882,0.10357316,-0.118376456,0.18212467,0.18045263,-0.14509065,0.1595575,0.104983285,0.17545049,0.09504392,-0.07291057,0.027382242,0.15403561,0.001814534,-0.07216879,0.22056295,0.024787815,-0.17290546,0.17006527,0.08634821,-0.20365503,0.19924024,0.2000378,0.23040172,0.16975719,-0.032022346,0.006832064,-0.18850692,0.17675138,0.0042005884,-0.02442023,0.12725946,0.115276776,0.19887406,-0.113269284,0.15938866,0.09197724,-0.17041388,0.22984461,0.0056152055,0.117267355,-0.14465237,-0.14967746,0.12579055,-0.1454154,0.072749764,0.028782662,-0.13622841,-0.09808787,-0.121477425,0.17750065,-0.1038208,0.11027584,0.14265662,0.11357648,-0.0587783,0.034903053,-0.09061109,-0.1134975,-0.13122642,0.18710366,0.010567115,0.04218301,-0.22010031,-0.10196678,0.20895652,0.0017733967,-0.12593366,-0.10678398,0.15596053,-0.16463989,0.059087757,0.13779148,-0.04416501,-0.124399476,0.121102005,-0.020552825,-0.112374,-0.0026804386,-0.1920568,0.09019238,0.21005563,-0.2085037,0.11789954,0.14883816,-0.21759926,-0.035734877,0.10108119,-0.050235502,-0.18126883,-0.15700902,0.08110548,0.22508453,0.200413,0.11414513,0.13869973,-0.062955044,0.118631035,0.20019817,0.048780806,-0.16945986,0.07944402,-0.02968148,-0.14103407,0.050047908,0.09911319,-0.08912959,-0.046956524,0.22654648,0.123525195,-0.10367019,0.20517509,-0.056653667,-0.07829577,0.21892741,0.12341415,-0.23560137,0.22534508,-0.14169317,0.061169628,-0.10987944,0.171742,0.192606,-0.1025519,-0.19706255,-0.09822005,0.13496481,0.22895414,0.18563814,-0.17159802,-0.13310224,-0.10898845,0.04934091,-0.2027054,-0.2158586,-0.15138742,0.1516695,-0.045871392,0.09028345,-0.039747562,-0.07469312,0.09603523,0.21731432,-0.14400858,-0.0696711,-0.097881615,0.15579437,0.117939256,0.16385245,0.19116579,0.21119952,0.0055491007,-0.17364073,-0.04357038,0.0829106,0.107640974,-0.12360946,0.11949417,0.071527526,-0.074385434,0.06657804,-0.18402624,-0.050942738,-0.14558756,0.20599313,0.07384676,0.11503691,0.09276551,-0.16094184,-0.15141648,0.0171084,0.1318855,0.08979176,0.056970272,-0.06456537,-0.04642641,0.052261185,-0.019331288,0.1930642,0.21373801,-0.120729774,-0.18407293,0.1474846,-0.114273176,-0.14051121,-0.16911371,0.09915679,0.20976658,-0.044265896,-0.14803232,0.16115256,0.19556081,-0.116274126,0.12814441,0.104131006,-0.042945575,-0.15959996,0.027127614,-0.17086944,0.16429591,-0.0232137,0.12082239,0.19167754,-0.075288534,0.074995816,0.026377583,0.061505277,0.17602667,-0.07043362,0.103799194,-0.22692142,-0.10824444,-0.095069155,-0.029002957,-0.07408935,-0.1388439,-0.13521664,0.17645893,0.0517074,0.18231143,0.018680708,-0.18130472,0.042743117,0.06989603,0.0002478077,-0.12043322,0.05511853,-0.16586316,-0.024106514,-0.03965556,-0.12547049,-0.04183402,-0.019459078,0.20956446,-0.13432297,-0.038685918,0.10406674,0.03570261,-0.043806568,0.16182071,-0.07620446,-0.14463457,0.12971142,0.03744784,-0.04919561,-0.18045741,0.13513014,0.11373134,-0.12425165,-0.12969093,0.23518972,0.029218579,0.15279597,-0.08750539,-0.2200958,0.08919737,-0.050075233,0.082239956,0.1814533,-0.10332674,-0.2026849,0.16739227,0.039656427,0.07039232,0.038394675,0.016071865,-0.091731995,0.14099199,-0.11900659,0.038293302,0.13651565,0.20098743,0.055663135,0.22405131,0.061813176,0.15241212,-0.14370164,0.06688023,0.13916695,-0.15266542,0.07625504,0.13228047,-0.046042725,-0.16195495,0.14362337,0.09473709,0.02602326,-0.16362207,-0.10019321,0.1912487,-0.14065029,0.16419363,0.18493067,-0.0017882788,-0.12993702,0.08374182,-0.16045356,-0.07632084,-0.035276044,-0.15247802,0.17497823,0.20705438,-0.119246334,-0.10808926,0.101957455,-0.12646617,0.21495526,0.19845127,-0.08859582,-0.17828038,0.20455699,0.020025577,0.06156297,0.21409836,-0.14446932,-0.18049733,-0.11479888,0.01374045,-0.024656659,-0.18540381,-0.118480355,-0.083267175,0.083658755,-0.12299404,-0.09058679,0.13445348,0.16782513,-0.17069043,0.049564406,-0.114315204,0.014276608,0.021220852,0.010618503,-0.08245419,-0.1098494,0.20196302,0.21496417,0.08427065,0.010639526,-0.18770643,-0.11125917,0.0020201495,0.032483052,0.07554882,0.15117182,-0.21900305,0.07284677,-0.14758183,-0.00813523,0.092916414,-0.116493665,0.03350063,-0.01156879,0.14950147,0.037860103,0.06653983,-0.08883538,-0.20843108,-0.08655558,0.07873334,-0.14073071,-0.117155306,0.0887795,-0.086900935,-0.101857476,0.007301873,0.01705304,-0.064722456,-0.20606269,0.1916868,-0.051564205,0.1420115,0.09945434,-0.0911207,-0.20119064,-0.09596773,0.047845054,0.04779926,-0.022615923,0.08764815,0.18590012,0.043952648,0.15070534,-0.07568525,0.11824763,-0.14997579,-0.11723251,-0.010093232,-0.018090742,0.06783627,-0.036693383,-0.19910933,-0.16518392,-0.15937686,-0.20102821,0.20710117,0.10343906,-0.14675629,0.1871102,-0.037857324,0.12473292,0.06537943,-0.05146385,-0.12843359,-0.10383585,-0.032343492,0.07149282,-0.03631247,0.1002331,-0.2083177,0.2086237,-0.090928406,0.054799594,-0.14550608,0.2057662,0.07794101,0.12386219,-0.16260011,0.064236775,0.11642438,0.16893515,-0.1456446,0.09764684,0.21680775,0.11718029,0.04049292,0.054619804,-0.20850074,0.06668443,0.19352102,-0.027823431,-0.008819719,0.022661299,-0.19920467,-0.21564609,0.05379241,0.083449125,-0.20544706,0.07390973,0.109856665,-0.19158961,-0.00029332133,-0.027990105,0.16609131,-0.031940717,-0.21855663,0.0041291453,0.15341106,0.20720379,0.03933622,-0.0038293637,0.03268995,0.034508206,0.033061314,-0.030524053,-0.09967521,-0.06956507,0.225073,-0.088590726,-0.10364672,-0.0726366,-0.13352783,-0.15958624,-0.052238464,-0.20652907,0.062525526,-0.08712496,-0.19873646,-0.030982498,0.117515415,0.122107565,0.032889374,0.20951799,-0.0875042,-0.09680518,0.17932096,0.08263236,0.19339602,0.20077552,-0.1947037,0.18659896,-0.10203988,-0.048686914,-0.17420435,0.14756739,0.1889424,0.0943305,-0.07035882,-0.104236804,0.023765976,-0.21231145,0.20354863,0.1894703,-0.14899625,-0.13102669,0.12050078,-0.1592246,-0.06951825,-0.18964328,0.21381728,-0.023330363,0.006517532,0.22824095,-0.023692409,0.116397925,-0.08415587,0.12132724,-0.07169553,0.15841009,-0.017056055,-0.09273475,0.14494668,0.12061007,0.18336532,-0.18179627,0.12540242,0.12575717,-0.123439856,-0.05020605,0.16062367,-0.060769845,-0.20104454,-0.03458317,0.18039608,-0.17142417,0.10331384,0.1848079,-0.13343357,0.18355036,0.024422558,0.043802083,0.114907406,0.1230166,-0.10788872,0.15731078,-0.15080336,0.13261567,0.055137753,-0.09975332,-0.07877958,-0.05867655,-0.17678945,0.092434175,-0.15145536,0.06182181,-0.12934256,0.18461742,-0.07229455,-0.047219202,-0.09802883,-0.1792557,0.113947585,-0.15263928,-0.046568625,-0.16900261,-0.20128769,0.16889423,0.18398759,0.11026104,0.037476584,-0.0056976387,0.022497194,-0.043368205,-0.20105036,0.057578396,-0.17479806,-0.055326838,0.074941136,0.19318128,-0.17928815,0.08078185,0.14104359,0.15270819,0.15137284,0.12946957,0.09627219,-0.092451625,0.0948047,0.099065356,0.103621595,0.014576956,0.14838946,0.005233462,0.11653222,0.14866908,-0.14907026,0.02705368,0.13900086,-0.1769363,-0.14838736,0.040065773,0.20243369,-0.1222581,0.12865506,0.19156714,0.106346,-0.11878982,0.12652701,0.12842745,-0.20835842,-0.1404086,-0.19654751,-0.18642041,0.08026254,-0.093083106,-0.14367926,-0.12014639,-0.074932806,-0.18732125,-0.04711515,-0.1633047,0.09478243,0.12255402,-0.07764126,0.13730647,-0.032407973,-0.07237206,0.20819844,0.06338864,-0.06054464,0.20159994,0.083179966,-0.021559794,-0.0062561226,-0.06397536,0.11447164,0.042966817,0.19552852,-0.18978184,-0.0035010632,-0.15171996,0.1887307,0.1767914,0.036474254,-0.19843616,0.19423103,-0.1927521,-0.14745432,-0.0041061784,0.076179676,0.13653678,-0.05325447,-0.04037646,0.06896843,-0.03326802,-0.17782503,0.14655921,-0.06852265,-0.10427596,0.1389585,0.09081726,-0.0016188276,-0.062416237,0.07080404,0.19339077,0.023808915,-0.0168568,0.17027886,0.08832938,-0.16056564,0.06775082,-0.10351474,0.12428289,-0.19147132,-0.038322013,-0.10084093,-0.18970624,0.17566372,-0.13105606,0.13034578,-0.061990913,-0.17374241,0.12183394,0.09043232,0.07242716,-0.19969846,-0.17338417,-0.097987264,-0.17857687,-0.0004178686,-0.008979142,0.18725358,0.11121333,-0.20604967,-0.09301533,0.040590573,0.11504151,-0.017735913,0.15967548,0.16749984,0.11557971,0.07454071,0.20033573,-0.036939003,-0.2069121,0.19818968,-0.10314514,0.08339657,0.18381247,0.14899257,-0.1985022,-0.12930945,-0.18579578,0.12779708,0.08745736,0.17276081,-0.076259494,0.18167719,0.04228405,-0.046130646,0.051964477,0.12890132,-0.168583,0.13636892,-0.18961032,0.035428055,0.08757478,0.039833535,-0.16689171,-0.07211842,-0.19518794,0.058042053,0.09786266,-0.051515337,-0.07199873,-0.04874002,0.15666777,-0.17926367,-0.16002382,0.16146082,-0.070805624,0.17906424,0.16144902,0.14208746,0.037253045,0.10860378,0.04996556,-0.093573935,0.050341845,0.1336922,-0.04993735,-0.19695564,-0.19071075,0.13391574,-0.051154368,-0.018929565,-0.038357288,-0.11062723,0.10842175,0.17042314,-0.035004344,-0.17974433,0.11479421,0.0052184733,-0.043463256,0.011824581,0.101588726,0.1419465,0.07614284,0.12353636,0.07237009,0.06693591,-0.15220362,-0.13939692,-0.027139338,-0.0154062295,0.11599136,0.12169487,-0.039659213,0.026191322,-0.07765036,-0.19696695,0.0068136123,-0.054034606,0.015920717,0.03280342,-0.18553711,0.027409257,-0.027674977,-0.17424284,-0.12475507,0.010323152,-0.100868106,0.026188016,0.007528396,-0.15084155,0.16887398,0.06191378,-0.016202668,0.06923211,-0.11237675,0.028658662,0.05909081,-0.03225073,0.034223292,0.0830358,-0.0930329,-0.13070297,8.451331e-6,-0.09232137,0.008642505,-0.19897255,0.10487585,0.10399097,0.08155259,-0.14788325,-0.17727996,-0.12122353,-0.047154997,-0.013696451,-0.10929895,0.14933413,0.07823012,0.14022896,-0.067018285,0.09926265,0.019306595,0.08854755,0.19071631,0.115629196,-0.16636816,0.030449897,0.038892232,0.1443972,-0.16568628,-0.18856543,0.11612524,0.084856756,0.19001794,-0.019420736,-0.121044464,0.13677493,0.08316875,0.19606775,-0.01409948,-0.117726296,-0.16906102,0.10003572,-0.080998,0.18646652,-0.109661415,0.03939205,0.11748076,0.14441665,-0.017043376,-0.13995889,0.1230261,-0.108223096,0.20448826,0.05232619,0.010716984,-0.1684225,-0.11688482,0.09599338,-0.19639128,-0.048684638,-0.004776444,0.18569753,-0.10624082,-0.017747944,0.112758555,-0.072655395,0.16181652,0.12378543,-0.019948099,-0.16307612,-0.10354002,-0.13928775,0.17564978,-0.10447784,0.108710766,0.19387849,0.09044523,-0.008342756,-0.092238545,-0.17721942,0.08113939,-0.09051856,0.15369038,-0.13184486,0.014354088,-0.09579837,-0.11108246,0.062058695,0.09935129,-0.15949312,-0.07346715,-0.11148658,0.16662137,0.11138936,0.15514931,0.07034816,0.046439618,-0.17028533,-0.024311397,-0.13919166,-0.18976662,-0.032969188,0.021807939,-0.058666356,0.18412858,0.021504885,-0.076868884,-0.20847814,-0.027038965,0.039873082,-0.10469862,0.2042504,-0.053518824,-0.10264708,0.09368397,0.17411813,0.2012346,0.20383763,0.196305,0.09579296,0.011803154,0.0017471139,-0.07566782,0.051960647,-0.14083469,-0.07088626,-0.15441732,0.15997843,0.18469782,0.09448178,-0.02365346,0.11677418,-0.17552619,-0.14868014,0.066033036,-0.103927985,-0.110668786,-0.027448656,0.1448179,-0.19727233,0.13447033,0.0062580365,0.07356431,0.20589404,0.17017588,0.10013274,-0.10064827,-0.069080904,0.040306758,0.035445753,0.07040225,0.025492992,-0.14369145,0.12282916,-0.0009780924,-0.15104204,-0.20530654,0.00559764,0.031082679,-0.165238,0.046608493,-0.09715745,0.081898294,-0.0025599827,-0.025743997,0.018785618,0.20701355,0.06804174,-0.07394179,0.08016453,-0.028932087,0.15765156,0.06812506,0.07737032,-0.111389436,-0.06312662,-0.008066647,-0.011976182,-0.1653204,-0.14611216,-0.03172202,0.012730961,0.08241201,0.10065259,0.14520918,0.079331376,0.1439466,-0.00027606025,0.13546325,-0.08404747,0.1549777,-0.15945101,-2.2644595e-5,0.13702796,0.01811508,0.12733056,0.16449942,-0.054999597,-0.10533575,-0.098057464,0.0914438,0.16654082,0.16882011,-0.18480091,0.1423488,0.025410268,-0.16825256,-0.20560953,0.07439133,0.10235862,-0.060154438,0.026472999,-0.046467632,-0.13571346,-0.120851725,0.04110347,0.14612657,-0.15079954,-0.016361231,0.013566325,0.14820859,-0.1124282,0.04223975,0.049217544,0.05790171,0.20392369,-0.13520728,-0.19397578,0.12683874,-0.092967845,0.10880174,0.0066997926,0.10380047,-0.15468456,0.19182344,-0.14656557,-0.005926247,-0.12731276,-0.047728844,-0.05765682,-0.18817253,-0.09587546,0.0012076206,0.19393873,0.02528422,-0.08860331,-0.14552958,0.033443507,0.19132839,0.0016447782,0.20028563,0.02311767,-0.07664246,0.12903368,0.04197371,-0.13141188,0.18237105,0.008028069,0.09523733,0.061227757,-0.12996893,-0.20566623,0.046354707,0.0005611932,-0.07972016,-0.15515886,0.07670517,-0.023798004,0.08173275,-0.005309052,0.10664312,-0.08623607,-0.010440377,-0.14028186,-0.035238273,0.12503053,-0.14496732,-0.15028216,0.15019146,-0.08662823,-0.106939666,0.082960725,0.16001204,-0.06957777,0.10575499,0.0992414,0.1687883,0.0050192703,-0.15600847,-0.08445582,-0.18336174,0.039276917,-0.05199679,-0.012531882,-0.10307845,0.03460619,-0.16814503,0.023008177,-0.20531309,-0.10950161,0.06012804,-0.08820764,0.057092495,0.059721604,0.022800772,0.029862802,-0.19172186,-0.1730624,-0.18917778,-0.07718188,-0.12417608,-0.20290804,0.06900457,0.05345832,0.1340225,0.20470275,-0.16183683,-0.15804054,-0.07062656,-0.19136555,0.1944638,0.103453964,-0.1965274,0.076110646,0.19678673,0.16926144,0.09791441,0.09331652,0.165031,0.19488509,0.091088,-0.18504404,-0.16043483,-0.002163342,0.15210722,-0.066998325,-0.118887834,-0.20021166,-0.16447031,-0.18471946,0.20487526,-0.1232396,-0.16394807,-0.050466802,-0.15891469,0.056209106,0.09875689,-0.0021602348,-0.03180574,0.17217053,-0.20303565,0.035191666,-0.20171085,0.001013762,0.109680705,-0.012688754,0.13261552,0.14008792,0.016447607,-0.12056604,0.19475998,0.20102867,-0.04206633,-0.064719796],"bias":[0.021739911,-0.03512625,0.023547377,0.014849697,-0.013754916,0.023552475,0.036744975,0.029743657,0.040380046,0.03722921,0.037674032,-0.022130854,0.038933404,0.015938826,0.019751405,0.028069392,-0.0038082039,0.036629654,0.030834548,0.025833996,-0.005708745,0.033317953,-0.0038327733,-0.013276865,0.040831927,0.04025766,0.02518664,0.04117792,0.032545168,0.019819353,0.03829494,0.037385214,-0.00761777,0.0030855716,0.033542376,0.031061064,0.01646857,0.035958335,-0.022227587,-0.028131455,0.0050360337,0.035388313,0.025577847,0.03977563,0.018360464,0.028026557,0.032942723,0.022598537,-0.003958785,0.0030539583,-0.015150286,0.0370088,0.024555378,0.021590138,0.005383527,0.022948002,0.02437112,0.021750255,0.031115975,-0.0053544445,0.035186663,-0.012890156,0.0065367883,0.025737565,-0.0128777465,0.028787836,0.026875794,0.018011982,-0.010343167,0.04200735,0.04032827,-0.008326492,0.0295327,0.031176874,0.041133706,0.041380364,-0.024783347,0.034746855,0.03386954,0.0059762998,0.031651523,0.033869117,0.036485057,0.029852148,0.038965207,0.020454824,-0.006842317,-0.010963836,0.021515084,-0.009153842,-0.0014799671,-0.009181169,0.034396373,0.03059476,-0.006714784,0.033867784,-0.004180609,0.039533373,0.037695058,-0.0026332494,0.039561905,-0.026788125,-0.0060452973,0.016913997,0.036283027,0.009923304,0.021252794,0.019714594,0.040233593,0.038566742,0.03482651,-0.027676703,0.034423918,0.020427927,0.037854496,-0.003913633,0.042198353,0.0272112,0.029457953,0.037142973,0.027315604,0.02946484,0.027260087,-0.018248033,0.028276639,0.033747632,0.030688835,0.037472233],"σ":[]},"aggregator":{"layers":[{"weight":[0.115660116,0.0027243155,0.08596534,0.07281948,-0.14416821,-0.123310365,-0.14611389,-0.05478721,0.035405565,0.14436199,-0.092691176,-0.14089686,-0.10450229,0.08121746,0.13869822,-0.029094808,-0.021149002,0.02998862,0.003563707,0.08965352,0.031989068,0.1121262,0.15973131,0.15180989,0.060874235,-0.08725425,-0.008294923,-0.09682817,-0.13368106,0.07846952,-0.027137723,0.14846596,-0.11560619,-0.07906677,0.06555677,-0.0077245655,0.12342324,0.07933627,-0.1303511,0.011869156,-0.03772815,-0.1186888,-0.038279135,0.0998303,-0.09396939,-0.11733242,-0.0022247864,0.032612782,0.072554015,-0.056510884,0.07164391,-0.08205803,0.057369933,-0.073605135,-0.08373488,0.0034061142,0.057806935,0.09145827,-0.053982776,0.07400523,-0.094258025,0.15740934,0.006209114,0.014124901,0.012482732,-0.028489405,-0.066858545,-0.0370894,0.14709422,0.013517591,0.013764032,-0.09246572,-0.058736853,-0.1349107,-0.0991811,-0.11727109,0.021930587,-0.0039077215,-0.1405317,-0.0432352,0.07847778,-0.11637541,-0.13539319,-0.07146498,-3.3671473e-5,-0.11360374,0.010430784,0.08702077,0.026001131,0.15856852,-0.096126705,0.04347911,-0.0732042,0.073291264,0.007255762,0.014081762,0.06280267,0.12431226,0.042745106,0.056585994,0.09200495,0.105323136,-0.0655856,-0.05507473,-0.08371017,-0.042177532,-0.030591594,-0.101363584,-0.14040826,0.078153804,0.054051407,0.07055773,0.0035714037,-0.06659118,-0.047790695,-0.0862277,0.09803625,0.013324104,0.10249733,0.013239015,0.068976305,-0.039508097,0.033397395,0.018332394,0.037090726,0.070105635,0.11399743,-0.06406859,0.06646776,-0.03664842,-0.11580193,0.03068046,-0.13467674,-0.06962259,0.13446267,-0.14874865,-0.12274986,0.055120308,0.1406026,-0.046320353,-0.10746535,0.0574712,0.014730094,0.14558886,-0.038570262,0.059278183,0.15078884,-0.14986968,-0.05948181,-0.1206741,-0.10457805,-0.068166524,0.14320688,-0.077944,0.020784033,0.02292836,-0.038853925,0.03252695,-0.0020167802,0.08698161,0.07611243,0.023866626,-0.01194789,0.1256594,-0.05108681,0.07584625,-0.022437831,0.10052303,0.004153714,-0.12671645,-0.058658164,-0.14421849,-0.044584576,-0.01467843,0.033575065,0.09522085,0.12823543,0.014550621,-0.007627539,-0.11681941,-0.03287232,-0.09154996,0.09627684,-0.055043772,-0.08102024,-0.004733936,-0.11858789,-0.068991415,0.09338921,-0.111987755,0.1188828,0.103503786,-0.068636715,0.015739819,0.005998887,0.078929365,-0.04292165,0.14241734,-0.12536325,-0.073916614,0.1405828,-0.07166883,0.09095389,-0.04038018,-0.1226882,-0.103546396,-0.11373595,-0.020833176,-0.12505887,-0.083897375,0.13621077,-0.12683988,-0.122880824,0.047951136,-0.14450975,0.081999235,0.022667082,-0.093567364,0.100139655,0.13441607,0.051167134,0.11449595,0.11757913,-0.07111526,-0.076359674,0.0660946,-0.07782925,0.08679628,0.057944335,0.030970352,-0.061733875,0.05794249,0.053072922,-0.15083496,-0.09167547,-0.12150539,0.06029289,-0.08353665,0.118125096,-0.039214127,0.027360674,0.14956723,-0.12649578,0.15614751,0.14243484,-0.044938963,-0.020475572,0.12917267,-0.02158946,0.032856647,-0.025812937,-0.113836505,-0.089649774,-0.10279636,-0.10162994,-0.1465195,0.09565277,0.0140788285,0.12363821,0.07650527,-0.032258525,-0.023039032,-0.052085184,-0.02677791,0.16141345,-0.120109625,-0.001999747,-0.11004176,0.15207574,0.060082056,0.1388965,-0.008442086,-0.05252515,0.012392842,-0.064774945,0.119575545,0.083702266,-0.017637935,0.0092215305,0.07323761,0.12769106,0.12788425,0.14997204,-0.02387386,-0.07483325,0.14293955,0.13856578,0.015864976,-0.13077497,-0.009859369,-0.030620566,0.02126594,-0.10577855,0.046072714,0.05204661,-0.012867863,0.10500803,0.12999001,0.14284775,0.089344904,-0.069538705,0.138962,-0.0023544198,0.053481452,-0.12979446,0.020030864,-0.009599572,0.116739586,-0.04126785,0.15661757,0.09976803,0.13509476,-0.029909609,0.012817701,-0.08734505,0.040475473,-0.13859811,0.002261033,0.104379416,-0.0359241,-0.03444457,0.11710628,0.09426569,0.0978549,0.07836713,-0.058096763,0.17011012,-0.06171652,-0.13798922,-0.069487214,-0.106152035,-0.070415884,-0.010334715,-0.07485567,-0.115941025,-0.083531916,0.059839975,0.038826402,0.11916923,0.0053287433,-0.1278874,0.12470472,-0.15591359,-0.018058512,0.12349442,-0.10893837,0.10045895,0.09571343,-0.0015231734,-0.039429277,0.09423031,0.09878257,-0.101217724,0.11870167,-0.078178905,-0.0739825,-0.030427728,0.16708238,-0.14631312,-0.07256883,-0.038900957,0.118833974,-0.09851512,0.028208096,0.020844558,0.06208843,0.0074341544,0.1373266,0.101910315,0.028209446,-0.035421424,0.13671148,0.12824757,0.016555075,0.087674715,-0.089953065,-0.13294825,-0.08007364,-0.046027485,0.04770527,-0.12869461,0.07580161,0.066395886,0.14637654,0.12586498,-0.06684807,0.11100776,0.12470386,-0.05336604,-0.09660334,-0.15270291,0.0551534,-0.085750185,0.06995935,-0.15765807,0.07413614,-0.064448245,-0.08063256,0.09707681,-0.0016707695,-0.06809469,-0.1138484,0.068837576,0.07104533,-0.1416133,0.11555713,-0.038724273,-0.0574388,0.06131558,0.05759118,0.10491617,-0.09867948,-0.07229481,-0.14614256,-0.017003866,-0.08543913,-0.15006775,0.102901645,0.07707991,0.088576555,0.106317274,0.00031584542,-0.0048773815,0.061824773,0.08851036,-0.053576697,0.12558138,0.026682537,0.08647234,0.07620326,-0.024398254,0.11765088,-0.103434116,0.0636943,-0.1553661,0.08854301,0.0052052997,-0.06863946,0.12964995,-0.15585715,-0.11743618,0.024980223,-0.10921208,-0.11999452,0.08670328,-0.10394334,0.08173938,0.01996118,-0.09885658,-0.13643913,-0.02558327,0.10110681,-0.07160443,0.056610983,-0.060863804,0.059177205,-0.1331279,0.046299554,0.04809938,-0.043729406,-0.031156462,0.099858135,0.14562008,0.094167255,-0.09992445,-0.05027182,0.1411625,-0.00062822393,-0.02491939,-0.030883403,0.13919081,-0.030736161,-0.042083327,0.08460793,0.057476595,0.12423263,-0.01510015,0.113929085,-0.06612319,-0.1315739,-0.069466606,-0.03846602,0.08281341,0.11730211,0.0565561,0.061925676,0.04352906,0.07061224,0.031500623,0.033387255,0.17386174,-0.091292895,0.11690869,-0.09224692,-0.074101985,-0.1334589,0.0030680173,0.09567497,0.06624401,-0.122930445,0.11567368,0.14221194,-0.15196925,0.058556877,-0.076789334,0.118529186,-0.04813761,0.11875449,-0.09646462,0.0577681,0.16601248,-0.14016847,0.15755337,0.028383631,0.09366869,0.15034196,0.1419949,0.12964429,-0.06315642,-0.07476109,0.11795684,-0.092613555,-0.090898186,0.106138,0.055744722,-0.13323021,-0.11880679,0.095728494,-0.013559987,-0.12614805,0.17206602,0.0032914642,0.12392795,0.10822338,0.14770909,-0.009415822,-0.10681573,-0.12596802,-0.03783643,0.11574555,-0.037000574,-0.14988641,0.10850928,0.094476484,0.02125521,0.05572022,0.13111159,0.027754582,0.019520253,0.028534597,0.079011545,0.008486319,-0.06650498,0.0414126,-0.08803846,-0.08655225,-0.15906776,0.063066125,-0.022448318,0.07022039,0.019574076,-0.0018196433,-0.13317968,-0.078637205,0.13531156,-0.037127435,-0.0069101015,-0.14098033,-0.046947367,0.012385824,0.10058677,0.020330498,0.06768397,-0.029359976,-0.09024517,0.012936551,0.089401685,-0.06428708,-0.01812628,0.021357788,-0.0006945216,-0.13202134,-0.06449263,0.015170657,-0.057513434,0.10235026,-0.08519808,0.07901487,-0.0440522,0.040576175,-0.14528008,-0.15129974,0.08886021,0.063416295,-0.02547201,0.023720978,-0.12890953,0.008494647,0.12455219,-0.10262063,-0.0031975391,0.15335187,0.024386764,0.011512906,-0.05373272,-0.05756769,-0.15808126,-0.0570283,0.08066279,0.013752599,-0.113431,0.14859797,-0.0328986,-0.02988841,-0.09474086,0.03955258,0.12411469,0.012003997,-0.039208714,-0.05013049,0.124500304,0.0853415,-0.12171702,-0.08147186,-0.006930771,-0.06441959,0.08133774,0.10166451,-0.1390156,-0.05344264,-0.13887034,0.11156952,0.0621394,0.06309686,0.049913477,-0.12476257,0.065791406,0.14158529,0.15797754,0.029892547,0.11581676,0.12151772,0.056362838,-0.04313847,0.0647601,-0.08018393,0.01857449,-0.020624535,0.13821733,0.057229392,-0.14703317,-0.017842006,0.110312566,-0.07149782,0.17350303,0.14035004,-0.08086004,0.08834075,0.07216111,-0.020177426,0.078731656,0.109824285,0.0543689,-0.119141646,0.06873982,0.004947114,0.04965815,-0.0642752,0.062147416,-0.11663407,-0.0027728216,0.13383557,-0.056419253,0.029435728,-0.051623367,0.0007884899,-0.08372736,0.14304791,0.027915513,0.14424591,0.032818533,0.024919692,-0.021308793,0.08872835,-0.042470824,-0.015366016,0.16426079,-0.12765072,-0.07859506,-0.123498484,0.06913588,0.12040117,0.122406505,-0.12106699,0.0017148013,0.002996265,-0.123630315,0.019824548,0.10259715,0.1518289,-0.14126292,0.033570185,0.03500838,0.02690296,0.06330051,0.11258794,0.017463008,-0.14886765,-0.1228197,0.10880631,0.065336645,0.16412543,0.07705323,-0.09755011,0.12731728,-0.086615935,-0.09698169,0.045601644,0.026527485,-0.11978573,0.011366322,0.11258688,0.001601017,-0.04570896,0.091794476,-0.1034297,0.05924216,-0.09019075,0.07920351,-0.10020075,0.09157527,-0.09249413,-0.090945706,-0.03810965,-0.07138573,0.09735604,0.060040236,-0.018226514,0.05844607,0.09564817,-0.105119295,-0.0918684,-0.049998756,0.045611132,-0.011223478,-0.015897905,0.060724452,-0.08969558,-0.05230711,-0.05001987,0.1699033,0.10992028,-0.017200511,0.020744434,0.12130377,0.17035908,0.046663273,-0.11965879,0.0528304,0.11424317,0.064652994,-0.11033213,0.097030774,-0.1367116,-0.06835626,-0.00528359,0.11748134,0.05051937,-0.07183138,0.012021345,0.15075508,-0.14908731,-0.13073413,-0.10892469,-0.07645898,-0.13429868,-0.13157941,-0.11854928,0.09684371,-0.08359004,-0.12856886,-0.1442861,0.10631689,0.03512263,-0.035490703,-0.035891425,-0.073804736,-0.06399142,-0.048125114,0.07414301,0.02213878,0.032482136,-0.013545804,0.13150571,0.16653691,-0.018636256,-0.09649978,-0.12043816,0.025804576,0.1380942,-0.012562431,-0.049803935,-0.10658527,-0.120878585,-0.037797567,0.16078179,0.12162251,-0.012173026,-0.032928064,0.024965541,0.014336813,0.0034501401,0.0496512,0.032025546,-0.09988396,0.1008222,-0.065709524,-0.092894554,-0.11947161,0.07129544,0.10091549,0.042679008,-0.05116248,-0.013579153,0.14975268,0.12381065,0.14630651,-0.02217944,0.025980508,0.18970248,0.09452621,-0.12212002,0.11844026,-0.081332125,-0.05352577,0.09252716,0.14229195,-0.013520712,0.06923792,0.13798022,0.07602273,-0.15840615,-0.041274086,-0.12273287,-0.09975604,0.15957238,-0.07870667,0.08354482,0.13519289,-0.060979825,-0.11032485,0.021849886,-0.099096864,-0.027287308,-0.003649906,-0.020415902,-0.10089353,0.10017703,-0.08693945,-0.029497113,0.1211615,-0.11345009,0.0039332826,-0.06677153,0.029474558,0.05955543,-0.012565738,0.1717676,0.06210191,0.14864865,-0.010079261,-0.1165671,0.03729646,0.029699313,0.048321508,0.11731501,-0.13113777,-0.11060333,0.040924393,-0.0712472,0.0828309,0.14810584,0.016249945,-0.012054146,-0.004544584,-0.09283349,0.078231595,0.075946845,-0.032205623,-0.035596076,0.06336586,0.042521358,-0.11839164,0.15786725,-0.071002066,-0.10808113,0.08738109,-0.0262142,-0.10737174,0.13461134,-0.16439277,-0.00953235,-0.0825518,-0.13553737,0.15477006,0.057469778,0.036570624,0.081310764,0.04821735,0.031024655,-0.10121812,0.06705339,0.08182034,0.07171805,0.13996388,0.13678066,-0.06234863,0.085722074,0.17382221,0.002692134,0.04266526,-0.12876254,0.035511933,0.0051885825,-0.14776103,-0.13900682,-0.0427793,0.08482797,0.08615164,0.07410322,0.117558494,0.10020484,0.11719945,0.1768329,-0.03061903,-0.043584958,0.07389176,-0.10919088,-0.022463273,0.045014154,0.08430936,-0.0043915394,0.031447627,0.037078705,-0.113356836,0.139047,0.10725377,0.076830246,-0.14320739,0.117177494,-0.08160933,0.028473284,-0.06381961,0.1736167,-0.10341882,0.05682277,-0.060127378,0.10808837,-0.15760759,-0.014066534,0.0024751339,-0.13093175,0.005368137,0.09950458,-0.008943679,-0.11124875,0.074075155,0.18094653,0.03597525,-0.020019932,-0.13577227,0.08760992,-0.021415459,0.02353198,-0.077504046,-0.029577095,0.057104092,-0.03993251,-0.14195152,-0.09430953,0.14419454,0.11383289,-0.0034208223,0.1863221,0.141453,0.033309285,-0.023535382,0.11944571,0.044848926,-0.14908522,0.13399208,0.009547057,0.04496147,-0.07929876,0.0153552685,0.060371447,-0.025967466,0.022635493,-0.0035516934,-0.122096375,-0.13931218,0.11775259,0.10630949,-0.058074027,-0.14690675,0.03669259,-0.048395332,0.09807522,-0.07047251,0.10265816,-0.07345647,-0.13164751,-0.012817721,-0.06764652,-0.14926744,-0.117081955,-0.12577705,-0.043473594,0.09971062,-0.03229299,-0.09613931,0.13263962,-0.017250072,-0.10804643,0.16555804,0.14241058,0.17711292,-0.11753259,0.09458253,0.14084002,0.09128596,-0.087946534,0.05343952,-0.0043885503,-0.10135454,-0.097715676,0.0764066,0.045752008,-0.047526505,-0.05593236,0.08921041,0.011814216,0.1079779,0.08280922,-0.020491762,0.0747916,-0.0045367586,0.012808018,-0.00080539135,0.11887711,0.14807107,-0.13388771,0.014439072,0.016822832,-0.0036784522,-0.030051343,-0.026187357,-0.13809216,-0.037265282,-0.1215003,0.09629846,0.18122694,0.07279455,0.005908601,-0.10501862,0.030213347,-0.1044395,0.03819876,0.1271407,0.1189623,0.10199097,-0.09921609,0.030414594,0.13252476,0.14656916,0.00041755306,0.069646865,-0.043351907,0.10592889,0.10733304,0.17011093,-0.0013526242,-0.07860764,-0.093621284,-0.1117502,0.12377694,-0.05423394,0.016667413,0.018449808,0.023423202,0.11545292,-0.15355904,0.0959961,-0.07729665,0.10504572,0.08570811,0.075867146,-0.08378759,0.12021045,0.10524288,0.040516183,0.1411261,0.035086982,0.07599354,0.10684508,0.055425536,-0.092763714,-0.12581365,-0.021454953,-0.09957525,-0.05837604,-0.11433567,-0.0022198719,-0.064030014,0.0667439,-0.07022842,-0.12637107,-0.1347794,-0.06388704,-0.1231635,0.055299666,0.062762275,-0.032013085,0.09116221,0.0873682,-0.0600774,0.091794446,0.14733936,-0.0072249677,-0.13703121,0.1014844,0.10272722,-0.09089654,0.16851683,-0.078192234,0.11301558,0.10895402,-0.060413793,-0.07295975,0.08403603,0.077888176,-0.021275789,-0.13536935,0.03878873,-0.14523247,0.12720889,-0.07386286,-0.0704958,-0.14428726,0.0075280843,-0.029939499,0.020722028,0.016157001,0.13592416,0.0030815022,-0.05658472,0.11247584,-0.05268064,-0.09862816,0.1245464,0.14705597,0.099266686,-0.03441476,0.053000417,-0.052317075,0.026914062,0.004694789,-0.06447825,-0.0029451824,0.0852103,0.15314902,0.12656665,-0.11097776,-0.1021925,0.15758295,0.13477926,-0.061336692,-0.11736602,-0.06332882,-0.08192686,-0.021457646,0.023201974,0.08036935,0.123928435,-0.07021834,0.033319425,-0.12625097,0.03157165,0.016989406,0.18087023,0.03502054,-0.14023988,-0.008230529,0.18098386,0.17301382,-0.08203934,-0.030727929,0.107423134,-0.114378616,-0.13663757,-0.082176924,0.09004997,-0.05415701,0.037420955,-0.014410333,0.12965164,0.050644096,0.13762696,-0.10580779,0.10740681,0.013922538,0.05799369,0.011781676,0.09533521,-0.09043936,0.07212702,-0.0026863522,-0.096444845,-0.10913243,-0.12746362,-0.02182547,-0.14465448,0.11594819,-0.02818355,0.16083452,-0.078252956,-0.15354079,0.046631966,0.14765276,0.113739155,-0.07927387,0.04026288,-0.10606544,-0.018341074,0.0036383325,0.113162525,-0.14013934,-0.119457334,-0.06781032,-0.09455899,0.055173077,-0.10480338,-0.08957264,0.158424,-0.062941186,-0.117165945,-0.07770004,0.043583445,0.15439479,0.11908874,-0.040710144,0.09642851,0.052017253,-0.072883345,0.16678335,0.14109063,-0.10860729,-0.14076316,-0.038174354,-0.07675303,0.007971453,0.05244075,-0.01897698,0.10581379,-0.11236322,0.18089853,0.035957664,-0.029622512,-0.112602964,-0.116992414,-0.10507436,0.028521946,0.13796157,0.11420289,-0.08717559,-0.107830696,-0.10947913,-0.002231632,0.03135482,-0.10936117,0.16500524,0.011605254,0.035944786,0.08273026,0.10519263,-0.08265505,0.117748186,-0.13395901,0.0033249853,-0.11339424,0.008952791,-0.018011201,-0.061523806,-0.083993584,-0.015020223,0.15100378,-0.014213246,-0.06448279,0.12877776,0.059115082,0.040532477,-0.079505846,0.029335935,0.12117974,-0.071322426,0.109227784,0.046740577,-0.14731774,0.026309947,0.06547341,0.100830816,0.1139558,0.03638764,-0.13271247,-0.13670413,-0.0064842785,-0.027413053,-0.047658645,-0.12682112,0.0767757,-0.055062216,-0.10884874,0.1425587,-0.0823892,-0.09946607,-0.11281101,0.08917667,0.034285538,-0.040525526,0.077404045,0.007975054,0.10544606,0.07414781,-0.062518224,-0.02477813,0.13930658,-0.03494669,0.0929929,-0.09003294,-0.05462158,0.0986751,0.1220658,0.039390747,-0.05463106,0.022801546,-0.09992179,-0.1028131,-0.08461413,0.15988754,0.11612264,0.136901,-0.09687695,0.041813787,0.13799582,0.0025916633,-0.07309552,0.055554867,-0.04256626,-0.11461703,0.02601644,0.051817782,0.114756756,-0.1320246,-0.043502886,0.13342015,0.106063224,0.027492467,0.16680546,0.018266372,0.12567802,0.099839106,0.16454664,0.07201363,0.030268447,0.15621935,-0.056133356,0.0940883,0.0033977048,-0.10898577,0.09759386,-0.12977211,-0.006657338,0.121914744,-0.105477646,0.02450141,-0.13418977,0.11969254,0.14236285,0.07798768,0.13377158,0.0061807195,-0.14177674,0.11399211,0.0637377,0.029563285,0.08967007,-0.088539936,-0.04993061,0.06634737,-0.09661047,0.049172435,-0.07947349,-0.07215247,0.058844086,-0.00057521317,-0.028523916,-0.006680881,-0.12327455,-0.1334035,-0.07082078,-0.11442664,-0.060200434,-0.0822069,-0.12199006,-0.1295681,0.0827666,-0.064135395,0.1400755,0.04289736,-0.018523745,0.012228731,-0.051830053,-0.04544326,-0.03867031,-0.015739046,0.1378893,0.04923375,-0.031380847,-0.13919012,-0.010871457,-0.09185709,-0.049810935,0.004019323,0.10746088,0.008800391,-0.059906654,-0.011728741,0.11607194,-0.11695663,-0.040909693,0.068139166,-0.12492321,-0.00872662,0.098251104,0.1325232,0.10543724,0.010927206,0.03346891,-0.08774643,-0.06260548,-0.017984485,0.0672469,-0.14062524,0.021658635,-0.072768755,-0.031118954,0.11209568,-0.106453374,-0.115967296,0.11588582,-0.06353132,0.10020867,-0.12498931,-0.13014379,0.0614136,0.015966466,0.05374451,0.09466822,0.07379205,0.10178398,0.008658894,0.1396529,-0.023191217,0.10252637,-0.09794284,0.061097328,-0.02810306,-0.017601002,-0.06709133,0.09814183,0.060468964,-0.15579596,0.10817045,-0.0070391456,-0.14117047,0.034909546,0.070390575,0.08682676,0.080525085,0.16740818,-0.0023942622,-0.0006338632,0.12608093,0.11277799,0.057647686,-0.0034964741,-0.05247522,-0.054229453,-0.072537586,0.009050143,-0.13169624,0.026091414,-0.10365146,-0.06930437,0.12226048,0.08735867,-0.1524955,-0.02266184,-0.0064190533,0.1652492,0.13959727,0.14010714,0.14312437,0.07221889,0.14600864,-0.07598133,0.13871802,-0.043325763,0.020233123,-0.14230506,0.13112721,-0.07978618,-0.11690897,0.051671587,-0.03180704,-0.014193632,-0.016381236,0.15114962,0.07430134,-0.010544486,0.0143372305,0.03767564,-0.037562694,-0.12733324,-0.11199545,-0.038046736,0.019599047,0.15105663,0.1478974,-0.08102961,-0.030580016,0.035626918,0.14318177,0.018050209,0.029256085,-0.13504735,0.08212394,-0.06215572,-0.08465994,0.09515352,0.0723315,0.0997744,0.13994026,-0.022530513,0.09696593,0.08069058,-0.15083481,0.0021144864,0.1637327,0.12359844,-0.04477612,0.14096834,0.11544024,0.11149625,-0.14943902,-0.15900004,-0.099308826,0.1273747,0.036107983,0.019537518,0.04486208,0.10839699,0.18070817,-0.090610676,0.12087581,0.021680206,0.14672452,0.14018063,-0.06387093,0.07954532,0.09459887,-0.15680219,-0.039512478,-0.07783472,-0.09657108,-0.14579186,0.0779769,-0.0459746,-0.13445705,0.0081948545,0.12288539,0.10518234,-0.044122152,-0.11578843,-0.09216233,-0.03214694,0.10372991,0.05443258,0.11773043,-0.101976894,0.1692806,-0.024738705,0.11590933,0.036854766,0.158849,-0.055295933,-0.10759931,0.10621553,0.029824376,0.14192988,0.068329915,-0.115281425,-0.07645749,0.17049709,0.1150162,-0.076476365,-0.12427561,-0.09024771,-0.009255069,-0.028926132,-0.011086821,0.12710048,-0.023525769,0.020525659,-0.07023429,-0.024155565,0.039220702,0.022143181,-0.114061266,-0.103673115,0.00053548417,-0.036282487,-0.052457176,-0.00455058,-0.14063698,0.17804493,-0.023785803,-0.12107912,-0.13943101,-0.053737514,0.14023802,-0.08314433,-0.005935172,0.09459458,0.053953454,0.14239101,-0.060390376,-0.05813715,-0.016358208,0.058642782,0.072184205,-0.096817255,0.03745342,0.116862364,-0.1155799,-0.002340708,-0.11882277,0.17522447,-0.06965276,0.10514507,0.107906416,0.061057128,0.0903379,-0.09149524,0.10189577,0.066793196,0.16776593,-0.062482484,0.08471059,0.11449822,-0.09827549,0.07131456,-0.019168979,0.1116215,0.037448335,0.039477814,-0.11537513,0.13674009,-0.071633235,-0.1207518,-0.061927356,-0.1259034,0.1308656,-0.13639867,0.120781995,0.017952135,-0.09796176,-0.03200283,-0.09611138,0.16268185,-0.11162106,-0.07703552,-0.09526848,0.09001858,-0.08099058,-0.15133165,0.13326731,0.12509452,0.14563224,0.08459066,-0.027267087,-0.04751705,0.114216216,0.021037782,0.07527695,-0.03200684,0.116667815,0.11973428,0.0938612,0.010644394,0.12194593,0.12219052,0.009568922,-0.11351918,0.03400095,0.12916622,0.00422994,0.16569053,0.13934007,0.045889128,-0.053734023,-0.012847681,-0.07884056,0.10206177,0.08548047,0.0967084,-0.013773489,0.1475434,0.09740125,-0.0073744613,0.028529758,0.05814901,0.05938687,0.04109117,-0.07968552,-0.04952795,0.04665856,-0.009495433,-0.089215375,0.08058479,-0.14758672,0.13313417,0.046452582,0.028145658,-0.10752201,0.1634341,0.12544815,0.096354015,0.10960021,-0.103099115,-0.033361282,0.05873993,0.10548622,-0.09979099,-0.05724392,0.10082915,0.07142513,0.11970955,0.012569658,0.034913972,-0.04268223,0.040265013,-0.05288984,0.06163904,0.047969013,-0.08720712,0.03527227,0.14114639,-0.12282808,-0.118098296,-0.02868255,0.12295895,0.13041262,0.026097745,0.07989272,0.044921633,0.12389711,-0.060653124,-0.08398484,-0.12534396,0.106036246,-0.08490421,0.091420755,0.014840896,-0.0806617,0.024432123,0.028027989,0.019492937,0.07565935,0.1462234,0.09350665,-0.038810708,0.09696655,0.106989525,0.13320327,0.022452394,0.05707971,-0.099243134,0.03270613,0.12749216,0.03661222,0.05580235,-0.14232315,0.15081325,-0.0611186,0.06814674,-0.021258276,0.16923961,-0.020802582,0.14035963,0.07177216,0.08689602,0.13694385,0.007892241,-0.117651805,0.14484957,0.059015036,-0.121191576,-0.105410375,-0.078745686,0.04837799,0.044862945,0.002205789,0.06250196,-0.09359551,-0.14192338,0.108629875,-0.0413657,-0.036264036,0.034083482,0.13567887,0.12871778,0.022421233,0.17124619,0.0256729,0.017954437,-0.12660609,0.04358375,-0.0894936,-0.13135178,-0.0658057,0.14749737,-0.07584028,0.121570215,-0.12070508,0.10710887,-0.10417544,-0.15341648,-0.02784611,-0.08942426,-0.043049008,0.119163394,-0.071362644,0.1648156,-0.093169674,-0.11478112,0.02107781,-0.029592343,0.13079819,0.071357474,0.13984823,-0.07052188,0.004079633,0.102027796,0.09808408,-0.013896169,0.1308714,0.023824116,-0.01309428,0.10799033,-0.103628434,0.09891659,-0.017801281,0.16122095,0.11160109,0.082692124,-0.09493144,0.08644294,0.12661578,-0.059799574,0.08520132,-0.035718203,-0.055431556,0.09566948,-0.10980666,0.06513105,0.05127922,-0.022003677,-0.102465175,-0.0013292995,-0.009533297,0.020090435,-0.11439255,-0.089274734,0.049990293,-0.07110296,0.068062894,0.03483371,-0.09859546,0.054221895,0.04849411,0.113782585,-0.026278932,-0.12880808,-0.07804843,-0.04198144,0.1371727,0.15605077,0.00082794204,-0.10586428,0.029983528,-0.012980172,-0.0623493,0.020661848,0.04368607,0.07219567,-0.14846733,0.034329437,-0.032465074,-0.049149595,0.056165848,-0.12488629,0.03763296,0.10518503,-0.14951801,-0.11775371,0.016126245,0.03772886,0.15247177,-0.051631723,-0.10002915,-0.1296088,-0.07539846,-0.1044434,-0.033719007,-0.024768448,0.13241556,0.14814599,0.1290916,0.13950638,-0.055150464,0.020355014,0.17155544,0.13492712,-0.007179491,0.1322982,0.11042395,-0.15287448,-0.006386083,-0.096798815,0.10504086,0.06077736,0.06835498,-0.09691351,0.04605045,0.10404665,0.08812995,-0.11796604,0.14230506,0.009753993,0.10309082,-0.1221925,0.03561171,-0.031368025,0.10742632,0.11912781,0.11951488,0.10170819,-0.0990704,0.020930279,0.020450098,0.01802037,0.10751176,0.15395612,0.04386261,0.034007177,0.08246933,0.103515804,-0.020919723,0.076580636,-0.08743826,-0.06479275,-0.10683065,-0.06714701,-0.042116962,-0.115584366,0.09091533,0.022871485,0.10935661,-0.0316846,0.012225585,0.13744238,0.039927047,0.10682228,0.123562194,0.034588974,-0.14762184,0.14802456,0.10123949,-0.12190126,-0.06362725,0.031011468,0.11414243,0.14200409,0.12546869,-0.11821832,-0.07760489,0.10473546,0.10393607,-0.03002057,0.16878358,0.16468173,0.14966975,-0.14394267,0.023507908,0.068135284,0.12754932,-0.018079653,-0.078168504,0.1307973,-0.040880263,0.06840894,-0.05500068,-0.045358334,-0.0154045075,0.05603437,-0.002242037,-0.04489305,0.021781903,-0.023509143,0.06415605,-0.10436779,0.13425484,0.12635335,-0.104242876,-0.13379753,-0.11597436,-0.10752763,0.1314744,-0.09845851,-0.028930144,-0.11565841,-0.119481735,0.046966232,0.12093542,0.0744103,-0.104323976,0.07703115,0.1531346,-0.12806036,0.100869484,-0.056631695,0.033728216,-0.07780241,0.007688953,0.13999856,0.0057912,-0.008979107,0.12652284,-0.13660452,0.016883608,-0.11403657,-0.08584133,0.115252085,-0.09084742,0.038860004,0.13568527,-0.06573409,0.0013220964,0.12111914,0.09444082,-0.114759095,0.13619237,0.08926396,0.15998943,0.054365598,-0.060838085,-0.15714155,-0.038297992,0.11412865,0.08204492,0.042819954,-0.11427646,-0.04689268,0.068254404,0.16475889,0.027998168,0.076747574,-0.07565107,0.055105593,0.064158924,-0.033099446,0.10580646,0.05401466,0.12813377,0.06743421,0.10204196,-0.12926053,0.11919154,0.0062450063,-0.10288448,0.00848473,0.015410804,-0.092397675,-0.13119054,-0.0072642835,-0.060558982,-0.13787715,0.14301227,-0.06980378,-0.12560394,-0.017617231,0.04821958,0.037979964,-0.025446706,-0.04729729,-0.05354043,-0.01538206,0.14594111,-0.027733166,-0.018545784,0.034375876,0.14090341,-0.084620945,-0.038597327,0.16692305,0.11480669,-0.013341557,0.031034598,-0.10155551,-0.08102711,-0.117047794,0.03189375,-0.08817876,-0.11984329,0.07264015,-0.118000075,0.019276438,-0.070941746,0.111337505,0.10224725,-0.04680187,-0.14056082,0.13269131,0.052441083,0.091212295,0.04474605,0.14613481,0.018006265,0.00939464,0.019984316,0.13581738,-0.048991702,-0.11200691,0.054076,-0.060150467,-0.14559515,-0.0830185,-0.004320508,-0.11441698,-0.1316808,0.14440703,-0.11316048,-0.0066061816,-0.035755966,0.16293795,-0.033718698,0.090562135,0.037377235,-0.10484379,-0.022430243,0.14918241,-0.1019774,-0.09744918,-0.09692603,0.011612582,-0.030359231,-0.014990919,0.13124147,-0.060121264,0.14385399,-0.111236274,-0.06423336,-0.13950619,0.1256716,0.1102954,0.07153507,-0.024285654,0.018493632,-0.079241745,-0.043703765,0.0318565,-0.095104285,-0.0111224,0.11960741,-0.107384495,0.016574573,-0.06518446,-0.059179768,0.06796531,-0.09772577,-0.08745179,-0.028092563,-0.13837211,0.1140005,0.06962897,0.08678228,0.111893736,0.11260203,-0.0027137066,-0.0010452413,0.019587144,0.0023600613,0.0746577,-0.09981006,0.11381773,0.067303605,-0.07653536,0.14782727,0.04496498,-0.11819092,0.074293435,0.13079396,-0.010015715,0.07720241,-0.055780668,-0.0717561,-0.05709074,-0.08855844,-0.028617641,-0.09041375,-0.10121509,0.07868014,0.056765106,0.13615347,0.105857275,-0.13657495,0.081813246,-0.008199927,0.07268548,0.0036785223,-0.024755448,-0.07229441,0.031009026,0.100627005,0.04499551,0.10552722,0.06610122,-0.07989511,0.14066921,-0.060931865,0.10025776,-0.09266784,-0.041466463,-0.048843212,-0.07304444,0.028182764,-0.05396231,-0.13934372,-0.08291346,-0.046329923,-0.12562619,-0.16025652,-0.039972812,-0.010735422,0.16561715,0.108659014,-0.08614344,-0.045662973,-0.10671244,-0.052290007,1.5877013e-5,0.050948877,-0.055769898,0.030429121,-0.087130554,0.085486986,0.083071515,-0.052807394,0.18237978,-0.15292242,0.11087922,0.15233898,0.117377944,0.071182795,0.058506716,0.056159433,-0.06648539,-0.12618998,0.15837881,-0.035440363,-0.057862997,0.08017595,-0.019389413,-0.13115858,-0.117504254,0.05886216,-0.114990264,-0.109980054,-0.12987997,0.064931534,-0.00203258,0.011576683,-0.09690361,0.11155158,0.15024282,0.15904465,-0.13515219,-0.0036166278,0.15018567,-0.12723754,0.14245395,0.044557314,-0.10958359,0.1464541,0.036760196,-0.07650124,-0.012615396,-0.00075946446,-0.06685486,0.09918478,0.08765346,-0.04217136,0.11888906,0.004036219,0.06782884,0.11961896,-0.11020533,-0.10542656,0.1131661,0.04001823,0.036885787,0.11405908,-0.111702584,0.06756592,-0.0043059518,0.14423622,0.024156405,0.0064409734,0.10171642,0.01726763,0.16739847,0.087128,-0.045437966,0.1555287,0.04990958,-0.027462548,0.0026291718,0.030444639,-0.0016975384,0.059261605,-0.025278285,0.12449855,0.12720066,-0.015275159,-0.040980406,-0.028884705,0.17587404,-0.102989875,-0.016761146,-0.08458509,0.13725816,0.11303488,-0.0010189925,0.062857196,0.05201547,-0.13451846,0.026921105,-0.102022246,0.03886024,0.029368782,0.077026956,0.017838448,0.15136565,0.18255492,0.1616351,0.034104563,0.09489286,0.12764455,-0.069813065,-0.037526667,-0.0013984281,-0.044383086,-0.030550068,0.0007110013,0.04874553,-0.097962275,-0.041068777,0.08550483,0.13562463,0.13461897,0.093279526,0.05878713,0.05766515,0.07575935,-0.016537245,-0.029944982,0.06386799,0.10283168,0.15803169,0.18251471,0.11194733,-0.13450167,0.10267176,0.123261675,-0.07016673,0.027530238,0.13210033,-0.015065402,0.0077194134,0.038120423,0.025259899,-0.121612675,0.1461413,0.16399291,0.14328215,-0.09159698,0.14850885,-0.082548805,-0.038868763,-0.062157363,-0.01995622,-0.06738553,0.06269468,0.01435267,-0.05614005,0.10731925,0.06484248,0.09630354,0.17846672,-0.04218662,-0.13798343,-0.07567594,-0.08736682,0.118125215,0.027256008,0.045488115,-0.0029944638,-0.13647681,0.021880617,0.1589433,-0.13486907,0.094176106,0.0045928215,-0.049428795,-0.053463154,0.06931797,0.056000285,0.12852073,-0.026757324,0.14312948,0.0024622516,-0.0788597,-0.05944113,0.03295537,0.13333113,-0.07518216,0.04307975,-0.061254874,0.0178035,0.012730631,-0.030076902,-0.0780119,0.026517335,0.027028,-0.037094913,-0.011385028,0.0017195212,0.09345368,-0.04919747,-0.1208615,-0.12101889,-0.01132373,0.114159636,-0.023048349,-0.09689963,0.09900082,-0.03540216,-0.013885405,0.023902183,-0.072732516,0.09888929,-0.028386218,0.05450544,0.030857397,-0.09931603,-0.07086138,0.06956423,0.15714774,-0.060644623,-0.12059496,0.109581284,-0.039984647,0.14838259,-0.053961452,-0.1035528,0.12190343,-0.12791464,0.02915062,-0.100745685,0.0033069614,-0.11160999,0.03484042,-0.015768748,-0.0883568,0.119839646,0.07216397,-0.09283776,-0.15038295,-0.010817193,0.11648848,0.07593858,0.15256232,-0.049279455,0.032291822,-0.12894799,-0.019091798,-0.091956355,0.1259167,-0.06762062,0.054984882,0.103092834,0.07057413,0.12944627,0.047944892,0.030997977,0.13951369,0.0019594703,0.041397266,-0.1058955,-0.14868724,0.11217351,-0.10562361,0.017475307,0.061083682,0.13719708,0.029794253,-0.10693379,0.04647501,-0.1004341,0.007819283,0.0059083165,-0.0056870054,-0.14285755,0.12552653,-0.059766673,-0.07915902,0.08233209,0.0053431536,0.060350455,0.023417205,0.14340402,-0.03833289,0.09209838,0.085382484,-0.100730196,-0.008379925,0.13230002,-0.042019293,0.115365125,-0.050889377,0.1437001,-0.01007493,-0.09587453,-0.12687814,0.088190876,0.02710538,0.021593288,0.005431086,0.13033728,-0.1313761,-0.11073508,0.011308231,0.11190648,-0.052830685,-0.015942242,0.012787775,0.084666565,-0.061186887,-0.1381937,-0.08917368,0.10450597,-0.10085441,0.13300325,-0.040137924,-0.042332277,0.07163571,-0.13848917,-0.15590613,0.079347685,0.094651856,0.06505239,-0.06428937,-0.016994834,-0.084158264,-0.09221401,-0.082934424,-0.0025515568,0.086854115,-0.0028652807,-0.015362797,0.09676227,-0.026013248,-0.064491384,-0.12884113,-0.09399335,-0.0601496,-0.15820739,0.13858786,0.022358047,-0.06831281,0.025785059,0.13524406,-0.12829255,0.14963424,-0.01284684,0.071078636,0.057848897,-0.10359602,0.09561327,0.014353994,0.18128309,0.12053482,0.13563524,-0.09478184,-0.025037263,-0.026694914,0.043249745,0.04133321,0.08130945,-0.07838507,-0.033312555,0.019507982,-0.14835188,0.025890203,-0.028279282,0.03316746,0.053958084,0.027814588,0.08890672,-0.016731078,-0.13450761,0.025081608,0.033062816,0.14258729,-0.039651636,-0.07807214,-0.037887327,-0.06649868,0.15299885,-0.059994094,-0.058460962,-0.109172516,-0.09307261,-0.074476704,0.036125045,-0.08276094,0.0072438666,0.06961507,-0.05493941,0.0011488374,0.0050612595,-0.10806251,-0.08137436,-0.10561887,-0.14883092,0.14773953,0.13035452,-0.05407571,0.054039117,-0.023193097,-0.08521159,0.097302206,0.1368355,-0.15847239,-0.032083113,0.13206922,-0.025237907,0.08919505,0.03544495,-0.013694832,-0.09801538,0.058816966,-0.031106455,0.13477683,0.1577631,-0.07792748,0.0854459,0.085986555,0.17820902,0.028797913,-0.10741795,-0.13677283,-0.042168796,0.05109466,-0.15221325,0.08976048,-0.06780795,-0.06904564,-0.084839895,-0.14955403,0.060984608,0.04096796,0.05071485,9.575254e-5,-0.114275604,-0.022895673,0.08547758,-0.038922794,-0.04067797,-0.014013114,0.0041690855,-0.061468482,0.012040274,0.10786161,-0.0032756077,-0.0072182966,-0.08049762,0.14146452,0.0013333174,-0.031091226,-0.07266732,0.034789678,-0.08171789,0.023954917,0.17668186,0.018450508,-0.13757905,-0.08451098,0.035103396,-0.041018315,-0.091458894,0.0015679268,-0.12202831,0.029871013,0.10303163,0.10066961,-0.030543476,0.042688955,-0.08097896,0.007102637,-0.06090235,0.10263863,0.0035776354,0.12726773,0.08577465,-0.13729055,-0.1375426,-0.029879281,-0.07573101,0.013332305,0.06298605,-0.0009809132,-0.12622449,0.16699784,0.13337773,0.11511741,-0.027674668,0.15020737,-0.009153815,0.1463955,0.05985975,-0.053734902,0.016250974,-0.07290152,0.033227585,-0.023048079,0.1116225,-0.12655868,-0.098580964,-0.06240197,0.03640025,-0.05706362,0.095362596,-0.09729912,0.14732854,0.030296123,0.02983065,0.16958274,0.006699004,-0.12641001,0.042624343,-0.07740995,0.08245687,0.08718761,0.08862962,-0.062807955,0.030290889,0.04951473,0.04561953,0.021069238,0.17430411,-0.06943164,0.08665571,0.05982792,0.1627327,-0.1223375,0.0009650234,0.036892418,-0.04440576,0.10136513,0.105978176,-0.017844304,0.15122491,-0.0072211022,0.13910657,-0.14934187,-0.13363755,0.1131791,-0.0492576,0.0014698005,-0.04658294,-0.09958678,0.072641626,0.04043789,0.0676312,-0.11370125,-0.08115482,-0.10271823,-0.0073172217,-0.14550984,0.042373035,-0.024073446,-0.1416277,0.08740142,-0.14911711,0.13153183,0.013095143,-0.103190385,0.07814881,0.051372718,0.13503014,0.05672123,-0.05631406,0.05460969,-0.04217687,-0.15055406,-0.11414935,0.06388728,0.036918927,0.027955547,0.032684427,0.1467943,0.045088716,0.07071075,-0.06417725,0.036109496,-0.059846237,-0.0135581475,0.09564372,-0.14561154,0.13538013,-0.032785103,0.046011806,0.03655897,-0.13044186,-0.01958932,0.050794613,-0.0681934,0.10921278,0.110956915,0.12179188,0.1565566,-0.027220981,0.13574833,0.008899885,0.008876883,-0.04469344,-0.02245714,0.050159395,-0.063396305,-0.06569066,-0.09006505,0.06456641,0.040710244,-0.047058295,0.1509463,0.12538096,-0.09686713,0.11014099,-0.046186864,-0.049439114,-0.042734202,0.012611136,0.12314144,-0.06214013,0.07784146,0.08357365,0.09452815,-0.14775111,0.06328712,0.09927907,-0.073597334,-0.07712142,0.10803587,0.06750475,-0.1220423,0.044620335,0.077853054,-0.04207489,0.0918915,0.07407772,-0.15181206,-0.117693685,-0.13084787,-0.036167655,-0.11352273,0.032839242,-0.073847674,-0.11397597,-0.10743703,0.16006562,0.09402266,0.06680401,-0.120156296,0.103329346,0.08538195,0.102623746,-0.088511124,-0.06885554,-0.029356707,0.13664614,0.17600459,-0.08016005,0.09621593,0.032482788,0.067782,0.05309225,-0.10970469,0.035830777,0.078867026,0.09657939,-0.13306867,0.051335476,-0.10927657,-0.11805881,-0.053028446,-0.12105969,-0.09219797,0.018772677,-0.104207166,0.12111231,-0.008513938,-0.11069356,0.0919268,-0.024881976,-0.042027388,0.009756095,0.026330214,0.0746936,-0.085273914,0.019649412,-0.11906551,-0.017585028,0.09845207,-0.09537451,-0.013087582,0.1027822,-0.10557621,0.052067738,-0.05848621,0.12162592,0.15969333,0.0416332,-0.054036688,-0.14430325,-0.024468107,-0.060819235,0.12399258,-0.122527905,0.06255555,0.022259837,-0.09135849,0.08195783,-0.04896999,-0.017834967,-0.070234716,-0.08063989,-0.13871399,-0.006962892,0.13014361,0.013477628,0.10280447,-0.13623759,0.15170437,-0.014951812,-0.072226994,-0.006551998,-0.15965827,0.09868657,0.0015078227,-0.045167387,-0.05614504,0.053561833,0.11970056,0.053161364,-0.022570346,0.15027446,-0.1290046,-0.09843963,0.0026313413,-0.06124257,-0.05831143,0.10623657,0.099033445,0.13162473,0.02691915,0.112571284,-0.0928952,-0.0012470583,0.008418426,0.033320043,0.089749835,-0.08237703,-0.107586004,0.02887986,0.0023189704,0.0138076,-0.10310005,-0.15391997,0.14818436,-0.04345636,0.086855136,-0.053761926,-0.104035735,0.073997535,0.12392671,0.021764273,0.0024308432,-0.09612437,-0.052087713,-0.120074645,-0.061339557,-0.08139856,0.069330685,-0.02781601,-0.122860074,-0.08028968,0.05926919,-0.027904984,-0.056331158,0.07218318,-0.09064284,0.13286558,0.16142312,0.036827326,0.122915834,-0.0839655,0.08311067,-0.00445543,0.064590305,-0.03461289,-0.024035666,-0.09092923,-0.09644228,0.11782118,-0.073303536,0.09957889,0.14347404,-0.09896085,-0.13041845,-0.092803136,-0.08903078,0.10820223,0.11652938,0.123856835,-0.12485833,-0.08079643,-0.11331054,0.006867925,0.002632367,-0.09054067,0.030158153,0.10303002,0.09703182,0.13083516,0.05423613,-0.04539573,0.033883166,-0.03766356,-0.12755047,0.026121655,-0.008252895,0.0901075,0.14714155,-0.010379223,0.1439113,0.17166941,0.10280141,0.04704837,-0.08742056,-0.046087615,0.065552235,0.018323554,-0.015654515,0.06342579,0.07664594,-0.109677695,0.068934456,0.120475024,-0.15128691,-0.1288412,0.047759015,-0.09573308,-0.025374252,0.05575896,-0.1525529,-0.087226376,0.17093581,-0.04606089,-0.04433245,0.04788687,0.06147713,-0.06732846,-0.038739383,0.10993338,-0.05991676,-0.14517267,-0.09299274,0.099031694,-0.008079657,0.08188205,0.12040032,-0.019077877,-0.031079262,0.13896447,0.10237623,0.082658745,-0.06621685,0.053202696,-0.05802001,-0.07190631,0.1164186,0.13474701,0.062053755,-0.09911166,0.016312642,0.11998376,0.065498084,-0.019263098,0.1531608,0.03272953,-0.10382985,0.17955802,0.068202734,-0.01581406,-0.07522649,-0.06234422,0.04291748,0.08384251,0.055390246,0.03931062,0.032869518,0.10474641,-0.0032225058,-0.038727723,0.008733048,0.047487583,0.09320827,-0.1175479,-0.010158662,0.1377546,0.058758892,0.012696196,-0.009806739,0.118351966,0.094741486,-0.10281638,0.14580534,-0.0040890626,-0.0113193095,0.15338281,0.06511044,0.108168736,0.020643845,0.08726961,0.08313485,0.116548344,0.116065234,0.1322748,-0.09685073,0.047288965,0.18166275,0.14503843,-0.0022537862,0.07511742,-0.09461522,0.13530828,0.104567595,-0.047601443,0.13800569,-0.038430557,0.09550581,0.030625219,-0.12175737,0.07991975,0.055114444,0.04015678,0.17232163,0.014831535,0.10740343,0.15852113,-0.099565536,-0.13742158,0.07780947,0.1350558,-0.14724179,-0.010431933,0.023334598,0.1602381,-0.099338986,0.1224505,-0.055504113,-0.13336171,0.15719025,-0.09644167,-0.029642606,-0.07641834,0.029927146,-0.04142794,-0.07332387,-0.12105685,-0.02968385,0.12576222,-0.13094419,-0.080896005,-0.01066924,0.08975366,-0.09530372,0.031060014,0.08028512,-0.11240002,0.061042912,0.08902267,-0.09745908,-0.1553417,0.007410411,0.13551106,0.024193967,-0.018290915,-0.03163093,0.16915987,0.044933233,0.104617886,0.028972184,-0.16331263,0.06668448,0.086984545,0.051880404,-0.12607762,-0.09621357,0.043659735,0.12977107,0.03919448,0.00832267,0.1185217,-0.05071894,-0.13029225,0.06487478,0.15211324,-0.15228625,0.0875218,0.08635896,-0.076755546,0.18036012,-0.109178886,0.041913148,0.08141871,0.12569521,-0.073777944,0.15038988,0.03915069,0.021186117,-0.018362666,-0.06147528,0.11943674,-0.06629085,-0.033676032,0.01328272,0.016688582,-0.08250405,0.08612898,0.047202446,-0.06914432,-0.055437554,-0.08936356,0.014240623,0.10826974,-0.11112984,-0.08292727,-0.070592195,-0.11042822,0.15216051,-0.13668711,0.07796266,0.16066705,0.14891194,-0.041089464,0.11045203,-0.006753388,0.045769807,0.14666346,-0.026080675,-0.043415647,0.048234303,-0.043703187,0.06444298,0.04385138,0.06264232,0.17097409,0.12300453,0.071920134,0.06879084,-0.1074626,0.023672065,0.038948398,-0.1102914,0.053025987,-0.08665454,0.06776563,-0.10367481,0.14168951,-0.063648984,0.025393913,-0.116724625,0.0940706,0.15586716,0.099371485,-0.01144108,0.13653277,-0.10619203,0.12596376,0.024551818,0.13404235,-0.063912556,0.07262455,0.05774378,-0.042196166,0.07757946,-0.09466852,0.10879897,-0.14565444,0.09037495,-0.07763854,-0.05878786,0.08205237,0.02347122,-0.027159065,0.13478789,-8.402823e-5,-0.053539276,0.11819734,-0.057209797,-0.065312445,-0.026695464,-0.026693836,-0.1525446,0.0022385523,-0.033632867,-0.0425923,0.03615839,-0.022455717,0.042232413,-0.08856188,0.13805325,-0.06175418,-0.027537901,-0.112167574,-0.093905225,0.011813388,0.117756486,0.0012172586,0.05120938,-0.15108383,0.15054505,0.13592066,-0.07990644,0.089303784,0.035262953,-0.043651562,-0.07496429,-0.094975315,0.15074357,-0.08699419,0.071776725,0.076839216,0.14333738,-0.12965462,0.008435663,0.021388968,0.07276186,0.05849948,0.17387092,-0.06594731,0.021159824,-0.08206595,0.15352292,0.13409016,0.07475268,0.091305315,0.04247683,0.023578709,-0.15431237,-0.06597561,-0.13650414,-0.016729992,-0.088397086,-0.09761746,0.10492893,-0.097766116,-0.13435002,0.15204686,-0.09619239,-0.15049475,0.019263243,0.117283694,0.055402547,0.06143146,0.12702948,0.0404426,-0.050249156,-0.06056841,-0.14371869,0.14493,0.016740711,-0.020634605,-0.105842255,0.0995598,0.061932106,-0.0787036,0.06492547,-0.103785075,-0.13072783,0.13756566,-0.102965966,-0.032946657,-0.13171242,-0.056641437,0.1263776,-0.008655412,-0.04439894,0.017773703,0.08502488,-0.10801339,0.13142508,-0.08862799,0.09512546,0.056059394,0.095821634,0.07300686,0.013350356,-0.10336199,-0.11042699,0.15768601,0.0013623941,-0.12797971,0.02943681,0.12261208,0.17396353,-0.08717917,-0.101675205,-0.12575595,-0.02990276,0.025964612,-0.022866277,0.08477006,0.020868998,0.11925046,-0.012459851,0.078428954,0.029180767,-0.05458257,-0.15694878,0.12605566,0.12083244,0.07331096,-0.1249069,-0.006047523,0.15013427,-0.01644053,-0.12367955,0.012673387,-0.12665568,0.058422294,0.0696003,-0.03167431,-0.10365474,0.12991045,-0.067790665,0.14426179,0.13826975,0.024092225,0.014903759,-0.080356635,0.012035918,-0.13869601,-0.11263141,0.040173702,0.17929725,-0.13050567,-0.08101885,-0.0951122,0.1607921,0.05389508,0.1260908,-0.10765852,0.035797365,0.095420524,0.00795322,0.07486697,0.04449025,0.004861046,0.11626286,0.074612945,-0.12964757,-0.059177764,-0.12856705,-0.05792591,-0.12479935,-0.0703241,0.07175513,-0.014830001,-0.015453078,-0.014657538,-0.017445879,0.09990735,0.0793952,-0.049335796,0.10441503,-0.04527137,0.0038046539,0.1293503,-0.07202155,0.089955926,0.12702206,-0.08291555,0.005687363,0.12820987,-0.06660619,-0.0730262,-0.14349766,-0.08335456,-0.118051745,-0.03548201,-0.054661907,0.12613526,0.17297485,-0.11247797,0.046297785,-0.017998196,0.0697125,-0.029852413,0.112546235,-0.1299433,0.13054892,0.064156726,-0.11099019,0.09115342,0.06068715,0.11927355,-0.060858242,-0.061627902,0.10796304,-0.036965676,-0.109688245,0.002220671,0.16488555,0.1029359,-0.1267709,0.0553372,-0.051584374,-0.049850352,-0.15833597,0.15205486,0.054028083,-0.031586573,-0.02448482,0.15545894,0.12267977,-0.047911916,0.08175373,0.18155792,0.0552759,0.076386385,-0.07535057,-0.09957199,0.12743399,-0.13577786,-0.15871054,-0.04062475,0.09862912,-0.05995875,-0.10871558,-0.13921563,-0.06171264,0.016564686,0.03271296,0.115010664,0.08902188,-0.119142614,0.10499522,0.089547165,0.18149526,-0.11520667,-0.14409913,-0.1369741,-0.11632124,0.15322846,-0.10465421,0.11094129,-0.13749278,0.02485432,0.034758966,0.008097394,0.15839593,-0.10673253,-0.044691358,0.061619353,0.09007397,-0.1483943,0.055573955,0.14737791,-0.040105317,-0.009166318,-0.068496756,0.108825855,0.046929345,-0.051547054,-0.108054645,-0.14997666,0.07223551,-0.13046,0.15015315,0.09687306,0.020905016,-0.026043966,0.1165373,-0.051222723,0.021524359,-0.0799208,-0.034259558,0.0152009595,0.058682624,-0.14989857,-0.086925216,-0.09454197,-0.046264313,-0.031721886,-0.075162806,0.003183437,0.0072415774,-0.1295408,0.062201634,-0.067154914,-0.04414053,0.046190284,-0.09012931,-0.14700766,-0.13314122,-0.13248809,0.12167914,0.1087644,-0.008506645,0.024567366,-0.009400219,-0.07681037,0.042734828,-0.088730395,-0.098904125,-0.04151335,-0.03370263,-0.0040604705,0.12121716,0.08015704,0.05417518,0.024382778,-0.016844735,0.10380605,0.06651812,-0.10271886,0.09371941,0.061322708,0.10331123,-0.104392305,-0.0007366559,-0.12288568,0.029465547,0.06098197,0.032316495,-0.058758266,0.09488016,0.049400624,-0.020733124,0.14222611,0.058213614,-0.025575172,0.050528843,0.13592868,0.049035158,-0.013383712,-0.100309744,0.060098104,-0.05701892,0.12615064,0.11968052,-0.09503141,-0.06537025,0.064081214,0.013700725,0.026132438,0.12722288,0.11459227,0.11079078,-0.07480565,-0.099179685,-0.039588198,0.055478252,-0.13672349,-0.06442567,0.023029681,-0.016811308,-0.06727118,-0.07186344,-0.089611016,0.02462186,-0.11365698,0.042211547,0.004571079,-0.13806878,0.029047975,0.078406446,-0.118750475,0.02649465,0.13209386,0.020503134,0.0057488843,0.024030771,0.046243533,-0.12266753,-0.022737281,0.07573341,0.10642642,0.13905196,-0.13074869,0.044756774,-0.14544314,-0.07063774,-0.09558032,0.090963945,0.09183871,0.05187931,-0.08106694,-0.07779493,0.10996893,0.16196539,-0.12732068,-0.06717291,0.0075289365,0.024404678,-0.13168195,-0.044262912,-0.13133092,0.052715164,0.082175784,-0.13039076,-0.08839163,0.10618091,-0.099932455,-0.028412938,-0.048817474,0.12444271,-0.10665264,-0.14475983,-0.008926923,-0.007044585,-0.052506752,-0.107523255,-0.12646148,0.12668207,0.07776627,-0.010419655,-0.10381487,-0.11709456,0.083888695,0.098065816,0.018855704,-0.14704426,0.124120206,0.055424232,-0.036778186,0.008040851,-0.080591366,0.021735607,-0.04951355,0.08223394,-0.021137783,0.05256274,0.006535113,-0.15403965,0.012956521,-0.063303955,0.17222267,0.032807138,-0.041808728,0.03700378,0.03247038,-0.049409956,0.09235705,0.02874938,0.056784943,0.106745146,0.16073672,-0.13226327,-0.015357907,-0.034576558,-0.04027031,0.022053374,0.11745057,0.097305335,-0.061684918,0.0050260285,0.13405761,0.065988526,-0.04863845,0.13208058,-0.034501527,-0.13721141,-0.024421925,0.057088897,-0.0012339144,0.08830891,0.110983275,-0.11695337,-0.07586721,0.103985526,-0.077021405,-0.028050771,0.10378433,0.13203983,0.11224057,-0.016980423,0.104055166,0.16683595,0.10610142,-0.044839114,0.080079675,-0.06722847,0.09711541,-0.13547637,0.09775287,-0.1105717,0.12035586,-0.093971774,-0.15353787,0.06796499,-0.099571966,0.108621016,0.029403822,0.16199622,-0.1006786,-0.11231688,-0.14193377,0.15312651,-0.014215212,0.0042967456,0.08959393,0.1283722,-0.109403186,0.044388525,0.12793368,-0.12904914,-0.072099365,-0.098455764,0.12603953,-0.11413771,0.013418634,-0.06284478,0.17198671,-0.09180912,-0.049804844,0.09451434,0.109102935,0.047953516,0.060952235,-0.1599381,-0.075227864,-0.043588188,-0.057481024,0.04537117,-0.12632565,-0.0650416,0.0054704347,-0.081217125,0.059979025,0.116345815,-0.049170807,-0.09204115,-0.11538288,0.04955727,-0.014766711,0.13946488,-0.07158891,0.04922757,-0.10495345,-0.049165394,0.124539204,0.16150041,-0.049703665,0.017481621,-0.1488253,0.13270494,0.0732451,0.042115133,0.09669955,0.024384588,-0.090566225,-0.08013875,-0.11187283,-0.09296256,-0.036655452,0.02015338,-0.028480552,-0.049789004,0.14288196,-0.067827925,-0.1524049,-0.06636106,-0.10874699,-0.12755497,0.14436129,0.056645542,-0.06337099,0.030508053,-0.13329373,0.12023541,-0.0033396806,0.12891124,0.0350245,0.033538796,-0.0461869,-0.0086661065,0.13318299,0.010824909,0.07991689,0.15254647,0.12523578,0.049912896,0.1375539,0.029898772,-0.006229778,0.1553553,0.025044989,-0.096377574,0.11252099,-0.04079092,0.1096751,-0.13821067,-0.054161504,-0.12545907,0.15172343,-0.07549716,0.13110612,-0.026050644,0.123845965,-0.1629899,-0.048959192,0.14555678,0.04633188,-0.12043779,-0.07721124,0.11446983,-0.09915662,-0.06674063,0.12797849,-0.0002734835,-0.09958759,0.06687088,-0.1412742,-0.104868054,-0.012675954,-0.097589694,-0.039722137,0.095799424,0.16459319,-0.0931629,0.029747903,0.07212935,-0.011761692,-0.03404774,-0.02599744,0.09711717,0.07517441,0.10861018,0.18237898,0.13012347,-0.1109135,-0.13960247,0.073153764,-0.034934897,-0.07242519,-0.11109366,-0.052793596,-0.044758204,-0.113246255,-0.08492961,0.04004577,-0.082380906,0.13841282,-0.11376161,-0.09356984,-0.118744135,0.12960449,-0.035523985,0.048456404,0.13553405,-0.06671086,-0.07422153,0.01106977,-0.030401707,0.1534515,-0.09545578,0.049537417,-0.07738643,-0.0055440064,-0.019612338,-0.10723072,0.06829567,-0.119753264,-0.12598637,0.15153982,0.02271583,-0.04719919,0.1342349,-0.035548806,-0.062391788,-0.0111635225,-0.11681581,0.034076117,-0.0012474558,0.1467531,0.13821515,0.101789914,-0.10595012,-0.07140572,-0.061403155,0.14616886,-0.032863226,-0.015921365,-0.13271071,-0.01995637,0.055148255,-0.098905236,-0.060558375,0.08719698,-0.1258987,0.115660615,-0.039979115,0.13005075,-0.065225184,0.04338657,-0.075405374,0.14729244,-0.048216503,-0.014399974,-0.03265318,0.11673272,-0.09983575,-0.05925393,-0.0031979037,-0.013154737,-0.07859445,-0.0017897944,-0.106914245,0.0831736,0.017800106,0.14507091,0.035725944,0.14311236,0.040198345,0.019525658,-0.068347834,0.03955097,-0.07446612,0.07623696,-0.00799826,-0.085908204,0.050108507,0.057799537,0.12643555,0.07508282,-0.06638611,-0.051689856,0.051253807,0.07118704,-0.0729772,-0.020855954,-0.124990635,0.09551604,0.1307689,0.03512984,0.020459078,0.05022846,-0.043338932,-0.016126756,-0.023065971,-0.11564661,0.050974555,0.062595144,0.13811007,0.00057466445,-0.055276316,0.122142255,0.103265226,0.14738669,0.039767686,-0.018992737,0.12078194,0.10811797,0.13499743,-0.06802223,6.2071136e-5,0.004037532,0.10055927,-0.079624124,-0.0038364048,0.10387667,0.15979081,-0.0018356338,0.018211706,0.025634697,-0.14594641,0.12245807,-0.10005261,0.04982585,-0.025117515,-0.15154535,-0.04200957,0.10230464,-0.10671569,0.05515198,-0.063627884,-0.09819015,0.0033574817,-0.14142822,-0.09446763,0.035865903,-0.10092476,0.027287886,0.11994425,-0.066836685,-0.05739213,-0.041719627,0.11644527,0.16214755,0.057298053,-0.07393874,0.051255923,0.09251156,-0.10455912,-0.03285782,-0.027425125,0.14674768,-0.0017856531,-0.12006819,0.09927846,0.05108979,-0.043658394,0.030700449,0.13231029,0.01824786,-0.14349487,-0.05071814,-0.076992534,0.0755079,0.12961128,0.07402112,-0.053584006,-0.11172248,0.11362896,0.021459678,-0.12309725,-0.031461548,-0.13967748,-0.06607309,0.099592276,-0.047003403,-0.085670166,0.16663997,-0.08498711,-0.13085857,-0.13335942,0.09677174,-0.044336062,0.12982379,0.13251956,0.0877115,-0.04652486,0.013103066,-0.074188195,0.074548416,-0.14778425,0.03515791,-0.11139676,0.01829921,-0.081610695,0.031806316,0.07236587,-0.10057815,-0.015061468,-0.044823766,0.050228983,0.00049973535,-0.1352521,0.124440014,0.09509302,0.075135864,0.13740687,0.122802585,-0.12991433,0.0061141923,0.08525623,0.14608388,0.025889402,0.026918866,-0.096261576,-0.0591069,0.018556772,-0.077796526,0.06680016,-0.10999587,0.07256092,-0.151509,-0.018974531,0.14817353,0.022923468,0.091653004,-0.033239,-0.029944144,0.08644573,-0.098094285,-0.15186767,-0.011243171,0.03906555,-0.092475556,0.020807305,-0.102163225,-0.12126683,0.048167937,0.1311292,-0.03629528,0.17415757,-0.15755202,0.10960201,0.06854685,-0.027669441,-0.012926378,-0.036331173,0.02981172,0.091145374,-0.0137425335,0.062087696,0.12337835,0.106908716,0.046877824,0.122858785,-0.04476797,-0.092710964,-0.13383341,-0.003929142,0.12058072,-0.010421794,-0.12500252,-0.09897742,-0.039097186,-0.058375098,0.0531937,-0.029988855,-0.012275312,-0.049879838,-0.12625478,-0.0407265,0.14789312,0.053047914,-0.021751307,0.0142924,-0.08536067,-0.08293092,-0.043165162,-0.111516155,0.029264016,-0.09589303,-0.03645563,0.15741651,0.0009951973,0.09428395,-0.11285832,-0.013529234,-0.009934223,0.03203944,0.07034183,0.0061212913,-0.11647972,0.13763751,0.06581943,-0.12125688,0.08247634,0.04741204,0.028133547,0.105666,-0.061102062,0.11635136,-0.044956587,-0.14300784,-0.10656757,-0.11647753,0.08862826,-0.10092927,-0.043110672,0.07711484,-0.06842739,0.13586381,0.06994362,-0.080578595,-0.07187538,-0.13287975,0.0380431,0.10324102,0.04615923,-0.11441375,0.113539286,0.10880239,0.14109272,-0.06287389,0.184759,0.0025116524,-0.122749515,-0.115114205,0.150778,-0.13762821,0.089615986,-0.1268477,0.055644237,-0.1298994,-0.0327423,0.08099001,0.17395261,-0.13614535,0.04403718,0.11563913,-0.0739795,-0.01007178,0.013146585,0.16375224,0.05711274,-0.08554859,-0.011490459,0.14205228,-0.15351152,0.14183821,0.14561777,-0.055464182,0.031106701,0.04456617,-0.0008056451,0.070178546,-0.11403588,0.15709996,0.03207461,-0.0065359855,0.16000897,-0.1011545,-0.11549715,0.043618243,0.039917577,0.08421068,-0.048063144,0.07157156,-0.049788915,0.024844356,-0.09910281,-0.0063390993,-0.07694764,-0.1287432,-0.12363804,0.09291832,-0.12864108,-0.04286956,-0.11045152,0.14965306,0.09613906,-0.08316615,0.05281213,0.05478469,0.087577716,-0.031073246,0.12482352,-0.08856987,0.10696715,0.11063703,-0.14101939,-0.06856704,-0.11690169,0.0074129337,0.030521637,-0.08162048,-0.047027577,-0.034454722,-0.075756475,0.07536284,0.16586623,-0.076729275,-0.09536222,-0.013366298,-0.026168039,-0.103385426,-0.059578184,-0.0763287,-0.12557465,0.15120089,0.11887614,-0.07603901,0.060715236,0.022279108,0.051130436,0.14775258,-0.009330658,-0.08054003,0.09935111,0.025861498,-0.0074017798,0.04092721,0.023387024,-0.098545834,0.17626698,0.10378464,0.02979898,0.01505969,0.060691416,0.030110551,0.15034644,-0.08352125,-0.027637877,0.0899149,-0.015189822,-0.022330757,0.054509517,0.015028975,0.1005503,0.017326826,-0.083519705,-0.0731889,-0.014903841,0.114463456,0.17010985,-0.06147929,0.021424385,-0.0928881,0.006521691,0.13191514,0.058653012,-0.13063118,0.09946103,0.055749737,-0.06572321,0.16012679,0.113891885,-0.029970728,0.111849956,-0.013579256,-0.04772338,-0.14690627,0.00068224827,-0.10451026,-0.018512933,0.040422317,-0.05603324,-0.0004870358,0.09433343,-0.046490856,0.033811007,0.17196044,0.0926375,-0.097005256,-0.07305836,-0.14966191,-0.003348116,0.08084939,-0.035637815,0.055352993,-0.13343608,0.07536491,-0.0760838,-0.05354352,0.004148307,0.07625689,0.06855745,-0.0046839365,0.013022839,-0.08289901,0.048707895,-0.079302855,-0.12968266,0.09022124,0.1613461,0.12695375,0.10849236,0.15490338,0.022547882,0.07342454,-0.037166387,0.09408511,-0.028345322,0.12986071,-0.026692577,0.1338436,0.12016911,-0.015465889,0.05662792,-0.018424593,-0.14420895,-0.08047228,-0.060700927,0.08040109,-0.12611087,0.018943906,0.07579797,0.09777829,-0.11648499,-0.035066713,0.036165956,0.10280761,-0.10032363,0.14316216,0.098202825,0.14843005,-0.1097048,0.087558724,-0.13341056,-0.042402957,0.09750961,-0.060819954,0.10073433,0.10164231,0.14042541,-0.009615266,-0.054178976,0.0054402156,0.04647028,0.036027107,-0.08403256,-0.12145886,0.10877809,-0.07618113,0.13027838,0.039159548,0.06982896,-0.087848164,0.113787234,-0.07604107,-0.15102859,-0.11609576,-0.08486474,0.08853769,0.10977119,-0.11396734,0.05392537,0.039744694,0.022662891,-0.05724103,-0.13115162,0.16640879,-0.044470735,-0.14854248,0.13217266,0.14582036,-0.13290574,0.15251946,0.01916069,-0.08695869,0.010067653,0.0352152,0.1568744,0.112177104,0.14138278,-0.05653238,-0.068703465,0.09419084,0.060475186,0.07182831,0.09324395,0.17107093,-0.1369653,0.11566666,0.13502459,-0.1437752,0.15632652,-0.07104347,-0.09295505,0.097659595,0.11882695,0.06892802,0.037788376,-0.09986511,-0.004585124,-0.09023401,-0.009294905,-0.11189681,-0.08913205,-0.07932528,0.11308741,0.037271895,-0.1508686,-0.05501923,0.09217472,-0.08230098,-0.06273136,0.14743753,0.018763226,0.09564135,0.14070018,-0.041541822,-0.084318645,-0.106119975,0.0064359577,-0.056885257,0.08931268,0.084848836,0.09749156,-0.040793166,0.083669715,-0.11939114,0.095809646,0.027144272,-0.12735641,-0.0030991393,-0.08406503,-0.1496093,-0.10834174,-0.05138915,0.06753499,-0.03902458,-0.06285486,-0.019448776,-0.13969311,-0.10941991,0.15729019,0.028674645,-0.08001095,0.1319458,0.027566746,0.035412222,0.1259564,0.07734288,0.040108114,-0.12632701,0.014604172,-0.024268903,0.02551254,0.038947687,-0.044513803,0.09341495,0.1469436,0.03354325,0.034637354,0.06436108,0.105285026,0.0823832,0.0006230072,-0.11310399,0.011544155,-0.095595546,0.010767178,0.1771569,0.06202789,-0.11196172,0.02779801,0.047069594,0.024846354,0.18173738,0.055703174,-0.13069694,0.1375445,-0.055703226,0.014437505,0.05869969,0.10650706,-0.057726033,0.02808175,-0.025966857,-0.05712763,0.073093556,-0.13277368,0.07005983,-0.089064114,0.033894323,-0.030003512,-0.07622451,0.17265613,0.13054815,-0.00494407,0.12302186,0.10487768,-0.05520053,0.0004610347,0.032342844,-0.12198735,-0.0916791,0.17543434,0.0015577554,-0.055396765,-0.06242962,-0.1071869,0.09401926,-0.011570506,-0.06848803,0.024286296,-0.057966255,-0.095070824,0.06901141,-0.14278482,-0.13354355,-0.007378407,-0.066560544,0.058950234,0.14694902,-0.018718658,0.11302951,0.010284935,-0.08986674,0.016067952,-0.052310266,-0.029218936,-0.16709273,0.097484216,0.067660585,0.043739073,0.090328164,0.11188476,0.10932927,0.11646696,-0.06533238,-0.029135898,-0.03722642,-0.06745694,0.057154357,0.120287634,-0.0340394,0.0031477604,-0.058576245,-0.1457982,0.15847346,0.114191115,0.13389307,0.021478714,-0.03713524,-0.09965216,0.102826886,-0.016458046,-0.07217386,0.17872679,-0.1196376,0.052994817,0.044344895,0.14209011,0.010703163,0.017765554,0.13475095,-0.029122632,-0.14581524,-0.07757494,0.0630032,0.08209613,0.10931936,-0.11040404,0.024427094,-0.14170809,-0.043558218,0.15543404,0.12394499,0.016326856,-0.04732899,0.1236308,0.025916625,0.012190935,0.053845268,-0.0246624,0.07968544,0.18479002,-0.13271666,-0.028843245,0.07759988,0.0032802888,0.108061895,0.0052418965,0.059148226,-0.06490676,-0.10626869,-0.073003724,0.09487312,0.07610626,0.062142976,0.14910974,0.065413296,0.025418969,0.11623752,0.032561302,0.03439137,0.0412661,0.041905724,-0.0590586,0.039426494,0.064130045,0.086411476,-0.0783835,0.104739904,0.109518446,0.031701736,-0.035130057,-0.14666177,0.057325803,-0.057374932,0.059702225,-0.059839092,0.15380357,0.11725323,0.14420183,-0.071462415,0.013622228,-0.059680197,-0.14981316,-0.13202852,-0.022285314,0.14399837,-0.048604116,0.016136557,0.06722399,-0.05449487,0.048754834,0.022805365,-0.027997129,0.09329349,0.093186505,-0.017293304,0.084970586,-0.124190524,-0.062290058,-0.12194012,-0.04127745,-0.1141169,0.1313019,0.075680844,0.14360069,0.021400748,0.15048979,-0.019467408,-0.011994814,-0.056682523,0.05936523,-0.067022525,-0.018687103,0.12366551,0.055492636,0.039461795,-0.024391327,-0.034086697,0.024736457,0.08900477,0.05033626,0.069698274,-0.09923948,-0.080812186,0.06785779,-0.1362845,0.052596703,-0.006057486,0.054079544,0.13375314,-0.05688051,0.082675576,-0.12743424,-0.110120974,-0.12683386,0.05466561,0.084515326,0.14454535,0.07463759,0.035877775,0.05316162,0.08279683,-0.087462105,0.11892028,0.0362916,0.119543254,0.0107617965,-0.12912986,-0.027974589,-0.010432168,-0.13310218,-0.13890544,0.036621407,0.04985591,-0.061707392,0.1222299,-0.1455991,-0.04555444,0.103281654,-0.034965318,-0.072099745,0.03970619,-0.03662529,0.064727806,-0.10706967,-0.011352744,-0.05136797,-0.02319216,-0.042866282,0.093048625,-0.13023128,0.059378013,0.049539044,0.014268459,-0.08642979,-0.108922206,-0.043220934,0.12920071,-0.058229245,0.10155424,0.030586485,-0.019001052,0.025020443,0.029305147,-0.058427516,0.06943188,0.01163969,-0.0028262145,0.0029788702,0.025773168,-0.028747682,0.13347602,-0.10098292,-0.007480469,-0.008671326,0.105233386,-0.04882744,0.13880448,-0.09573087,0.0838075,0.11351778,-0.08014942,0.027922941,-0.052111484,-0.0811575,-0.011126688,-0.055159543,0.1256948,-0.055163104,-0.14377075,0.104495764,0.015442481,0.13315557,0.09550462,0.0020458743,0.103990905,-0.0033115784,0.13933,-0.013963255,-0.054567043,0.089523464,0.046956286,0.13831559,0.017821673,-0.014851573,-0.10223685,-0.06362497,0.13191842,-0.0008215292,-0.12773727,-0.011653865,-0.12743446,0.1525741,-0.09243704,-0.033312984,-0.1484173,-0.10287802,-0.15546587,0.04945214,-0.045296494,0.034672547,-0.15632182,-0.009836595,0.021373183,0.0049117533,0.17106959,0.019357434,-0.09842294,0.059732392,-0.1502001,0.11232059,-0.07469937,0.012936142,0.1162092,-0.0146860825,-0.084364355,0.056809183,-0.0073210546,0.10756641,-0.11165226,0.09198648,-0.026111402,0.057726726,-0.09954325,-0.09335333,-0.015302578,0.0784514,0.1265738,-0.070966914,-0.11638743,-0.083500795,0.06988582,-0.10178384,0.09114807,-0.0027327861,-0.0012734684,0.063281514,-0.12616105,0.05187546,-0.050087795,0.041190833,-0.1059401,0.056564897,-0.03600902,-0.06099712,0.040645152,0.06759741,-0.0043981667,0.15386115,-0.10767091,-0.14728348,-0.06288935,0.02876029,-0.06851888,0.09703884,0.011391348,0.07805548,-0.121189274,-0.11843086,-0.03783948,-0.111090824,-0.023510624,0.15342323,-0.09208593,0.10587494,0.021289205,0.036524937,0.14223811,-0.108020894,-0.013034313,-0.018881554,-0.096699394,0.062279277,0.08747506,-0.078529015,-0.077077396,-0.011341381,-0.13138814,-0.13577214,0.06535281,-0.04553378,0.05048502,0.014289179,-0.11607108,-0.06808962,-0.042841565,0.109995015,0.0066816024,-0.09062541,0.13677785,0.005887653,-0.12240443,-0.023110803,0.07935479,0.12489242,-0.06340392,0.04066008,-0.012800252,0.004664056,-0.018954555,-0.123906985,-0.07241028,-0.1525819,-0.05785115,0.04023242,0.07460136,-0.10906637,0.0249702,0.075175,0.15299004,-0.081522055,-0.022537341,0.065791614,0.14223517,-0.10170849,0.013679955,0.034859885,0.11906018,-0.111883566,-0.030994931,0.11473244,0.006909004,-0.15118557,-0.15197015,-0.06996511,0.12696896,0.042618763,-0.019888919,-0.08527592,-0.055595882,0.01815426,0.15861413,0.05016147,-0.009191336,-0.118348524,0.096278295,-0.01860047,0.042617925,-0.03447788,-0.0031624974,0.051568255,-0.08458461,0.028582864,0.13332406,-0.092085265,-0.1223494,0.13660568,0.0840874,0.11643697,0.0009925088,0.1699155,0.0699585,-0.07930751,0.13781728,-0.103537634,0.06016363,0.04193529,-0.07718515,-0.053711813,-0.071991876,-0.15729988,-0.0037071006,0.10124737,-0.12677063,0.117078796,-0.048904315,-0.053623304,0.08377172,0.060685664,0.0047486145,-0.032729533,0.1491789,-0.1283154,0.08517066,0.06471783,0.0915327,0.1248329,-0.08483784,0.069863744,-0.027046219,-0.11464932,0.14846267,0.10674048,-0.06711275,0.13959818,-0.07838051,0.01647893,0.10354672,-0.12973528,-0.041005485,-0.101902835,-0.09826232,0.043386515,0.004036142,0.17997123,-0.109775595,-0.13352448,0.011169017,0.15239534,0.12960681,-0.0738015,-0.13330364,0.0014257724,0.11590564,-0.024425693,-0.09876407,-0.0063594836,0.07379806,0.016722327,-0.13701908,-0.093350336,0.07091563,0.14027902,0.090888225,-0.026320798,0.12685478,-0.117338605,0.068150185,0.03998848,0.13491818,-0.08427631,0.1223761,-0.012891689,-0.1177242,0.11211903,0.046989154,-0.15066993,0.14104119,0.07196295,0.0088911895,-0.009733324,0.055339534,0.15912534,0.052137263,-0.07018885,0.08673371,-0.009388373,0.13726546,-0.013498565,0.045236036,-0.048233256,0.111985974,-0.08238763,0.17410348,-0.11377299,0.16610603,0.033352416,0.033325355,-0.117521286,-0.11195645,-0.053129476,0.09182375,-0.09285343,-0.06997378,0.035874836,-0.09928248,-0.09871693,0.09858409,-0.005051221,0.11222997,0.06330125,-0.045424618,0.1282441,0.10701917,-0.08716218,0.12874697,-0.053306248,0.009183619,-0.14511816,-0.14234346,-0.096310176,-0.08134481,0.0039248005,0.01336637,-0.12699376,-0.056561686,-0.06433648,0.057781987,0.14405777,0.04073038,0.07848932,0.05419586,0.059918128,0.1486649,0.061821725,-0.02995985,0.08566724,-0.07800164,-0.0623636,0.08803895,0.12866767,0.13652016,0.082470216,0.12590317,0.14034337,-0.021791954,-0.11771433,0.1757976,0.07866403,0.11478669,0.08570267,0.15651271,-0.098752104,0.1630462,0.08213855,-0.074946016,0.011903298,-0.0099384645,-0.029198997,-0.13348407,0.07305572,-0.036172707,0.15079974,0.04423625,0.07801619,0.10083497,0.041320246,0.023833826,0.08389419,0.047674317,0.029509604,-0.08205906,0.10920178,-0.037236247,-0.12728919,-0.01410188,-0.026327461,0.051496297,0.048480384,0.07409742,0.13561596,0.109635025,0.10863928,0.10826127,-0.070098594,-0.065999866,-0.09387527,-0.0075415527,0.012394881,0.037436828,-0.08810808,-0.057283465,-0.0033718115,0.07836378,0.1309052,0.08541964,-0.13902451,0.016763091,0.17754462,-0.08534486,0.07477681,0.06061501,0.08640046,0.035240803,0.06130442,0.11302666,-0.12777056,-0.006815632,-0.0701441,-0.060066532,-0.055609647,-0.1247156,0.04261474,-0.1407171,0.092965715,0.053506836,0.05204123,-0.013451963,0.15021798,-0.15010603,0.16249913,0.096924715,-0.11903198,0.042543206,0.00963936,0.049929027,-0.022978263,-0.038283847,-0.14191969,-0.15020177,0.082761884,0.010082156,-0.00067218154,-0.13369757,-0.097732194,0.13533372,0.11187519,3.7537975e-5,0.116596445,0.163647,-0.10977062,-0.09043393,0.11171706,-0.08022484,0.117606446,-0.14377931,0.113593504,-0.025323149,0.011133391,-1.6946991e-6,0.039902233,0.14633374,0.07131437,0.067286,-0.0073470077,-0.12768596,-0.08223336,0.10655143,0.031095944,-0.066716015,0.1282375,0.14671837,-0.015204315,0.026195548,-0.046152867,0.047031466,0.036056068,0.11182905,-0.10415932,-0.057894334,-0.10391194,0.039813615,-0.09793124,-0.1448594,0.029942852,0.15106641,-0.0085345125,-0.082271144,0.10163895,-0.13230136,-0.11860984,0.08897569,-0.08449973,0.12283285,-0.019929266,0.030245189,0.045294642,-0.14406577,0.11934897,-0.11840494,0.096042395,0.05081989,-0.0044924594,0.0715193,-0.117628045,0.15436926,0.16981804,0.085101925,0.092541635,0.06394919,0.15033385,-0.11271077,0.08200081,0.03252881,-0.13656971,0.107169464,-0.060424425,0.113340154,0.12257955,-0.010238909,-0.1200904,-0.07361789,-0.016722921,-0.13395843,0.1253403,0.14857797,-0.12634677,0.051924277,0.027079962,0.11114756,0.16686104,-0.07811041,-0.07407184,0.07841389,0.08604491,0.03050887,-0.070019536,0.09156108,0.09793882,0.08320711,-0.0021333632,-0.12715088,0.07892916,-0.022257188,0.0979316,-0.0028967257,-0.04528121,0.08471024,0.03499417,0.09569801,-0.0985663,0.14152925,-0.09217309,-0.10330918,0.050521716,0.1416592,0.12907027,0.13680512,-0.050909113,0.028346775,-0.05557279,0.16140541,0.1474732,-0.14833257,-0.036468137,-0.052631535,0.1044197,0.098854944,-0.0032843144,-0.0056295106,0.14352514,0.11834101,-0.038473736,0.10307181,-0.035728227,-0.05980217,-0.09825444,-0.03117269,0.024756337,0.10576933,0.108458444,-0.0011806473,-0.005096423,0.08565688,0.022215089,-0.07814762,-0.13429748,0.080765665,0.14614482,0.111178696,0.00016822258,0.03669453,-0.06967492,-0.04759072,0.036849566,0.07094375,-0.10357017,0.11170346,0.011723469,0.112545624,0.019944087,0.0845434,0.029374957,-0.034938775,-0.048839964,0.11004047,0.07066722,-0.062487643,-0.103492334,0.14715917,-0.110437445,0.026677674,-0.050422627,0.16176063,0.0010494797,-0.0052468185,0.07666525,0.16548878,0.14932267,0.05101767,-0.09745957,-0.042282753,-0.12405926,0.0245223,0.06881879,-0.0018180953,0.0075539793,-0.09160223,0.1240749,0.00053377956,-0.072921164,0.14976402,0.049969226,-0.029863287,0.021648396,-0.07758306,0.063454255,0.078611106,0.16150248,-0.07617468,0.038026012,-0.064889975,-0.03670958,-0.014760733,-0.14404698,0.00032387543,-0.048352145,0.060902677,-0.10457793,-0.1146921,0.022680344,0.021473095,0.14523436,-0.02968968,0.06263097,-0.026638353,-0.0012456814,0.074169904,0.12817256,-0.06325123,-0.03793715,0.14965555,-0.027046442,0.06022131,-0.016912507,-0.15383111,0.107476145,0.053304598,0.17408057,-0.1011471,-0.049299873,-0.061307397,0.100909315,0.18101506,0.05597118,0.061374065,0.08381821,-0.039678693,0.039274972,-0.023220187,-0.11503058,0.13092272,0.026422268,0.14781286,0.021729942,0.014796815,-0.033652414,0.04995661,-0.112991445,-0.00845493,0.10317392,0.02434811,-0.082503565,-0.14123188,0.13479939,-0.0010980378,-0.083319895,0.08231345,0.05765991,0.09824035,-0.012265231,-0.04995885,0.11176626,0.17909923,0.02291963,0.060921654,-0.1108818,0.05935915,0.031048603,-0.045480385,0.12226375,-0.10941734,0.009532641,-0.063028686,-0.067971796,-0.031604987,-0.0742438,-0.078793004,0.08624161,-0.08952597,0.15778588,-0.018699735,-0.00326538,0.082438916,-0.008699176,0.008994945,0.051521122,-0.08457708,0.18387583,0.14788175,0.08255926,0.05031143,-0.091055356,-0.023734834,-0.035777625,-0.10709026,-0.10738906,-0.043312732,-0.12628026,0.13879085,0.14324002,0.05975292,-0.0037979677,-0.15225777,-0.1450524,-0.108482115,0.03194148,-0.046129286,0.11276971,-0.12822668,-0.05480802,-0.100897074,-0.045144524,-0.14549048,-0.016825251,0.048050396,0.12186668,-0.0528988,-0.10190691,-0.026384735,0.08711994,-0.0021392314,0.11254113,0.14119643,-0.035100177,-0.112065166,0.14044216,0.040049307,-0.15505731,-0.06546097,-0.061842106,0.028477766,-0.060011297,-0.11555744,-0.04748149,0.14937808,0.03701504,-0.10087397,0.13797532,0.015483807,-0.12012331,-0.04035246,0.07254103,0.08161514,-0.0671796,-0.03637259,0.016319733,-0.107247524,-0.0906875,-0.1392837,0.111562684,-0.02294566,0.18109086,-0.10808876,-0.07410404,0.026574593,-0.055483423,0.09291515,0.06416022,-0.12840256,-0.12095866,0.1195844,-0.06691577,0.020643406,0.05875011,0.02598417,-0.11092484,0.11700459,-0.03659137,-0.018246325,-0.07822177,-0.10366503,-0.033475213,-0.072225735,0.16554317,0.1640921,-0.008369414,-0.09929938,-0.017253382,-0.086098075,0.11227401,-0.14196995,-0.03349005,0.014670957,0.16100858,-0.0347173,-0.018476728,-0.01175503,-0.14914428,0.076053634,0.024997147,0.18670589,0.044717375,-0.062169097,0.1694788,0.0845727,0.023993308,0.0429299,-0.074302986,0.1337916,0.047216475,-0.06429731,0.06582015,0.11423299,0.16275749,0.09321401,-0.019856386,0.09536436,0.060249656,0.04893273,0.1734402,-0.03882086,-0.10467439,-0.036158595,-0.011098022,-0.106322125,0.079352826,0.08131041,-0.06060756,0.012283992,0.05716815,0.123149596,0.061161045,-0.087519646,0.01891479,-0.15270229,0.024078425,0.14407843,-0.011318988,0.11380624,-0.07735416,-0.052498426,0.10523983,-0.13592708,0.16847007,0.10903355,-0.054414853,-0.16132592,-0.021688988,0.079982676,-0.09717933,-0.07969091,-0.11921136,0.09717164,-0.0481659,-0.041863807,0.16003034,0.11165335,-0.11750451,-0.08071939,-0.08929554,0.0032872849,0.015518068,0.105950095,-0.1010761,-0.0956514,0.020453248,0.112304986,-0.020184236,0.08618046,-0.044112027,-0.022049228,-0.0612018,0.044004288,0.123525314,-0.03415781,0.012769536,-0.070343,-0.10503966,0.01579037,0.021564836,-0.018608235,0.07403727,0.113378905,0.11247093,-0.02088663,-0.1276542,0.06658188,0.06563802,0.023765199,0.111415215,-0.012437988,0.13531965,-0.09438617,-0.093358114,0.120474584,0.019906102,0.020325117,0.078388326,-0.0957022,-0.10958878,0.09081332,0.116706006,0.15411781,0.07066881,-0.035934612,-0.0006253107,0.05116553,-0.014723512,-0.031126665,0.17646424,-0.08617795,-0.0117633045,-0.06448356,0.022481339,-0.120606996,0.03914654,-0.12299777,0.087073915,-0.08648801,0.09211396,0.055023268,-0.0005682696,-0.015065109,0.11493241,0.00070881296,0.048829295,0.015828563,-0.12877312,0.056442767,0.018078148,0.07489226,-0.10936044,0.09870928,0.07062509,-0.022591718,0.05764081,-0.041478828,-0.036941368,-0.029563501,0.057656143,0.110970885,-0.13875638,-0.0941143,0.08846778,0.096918516,-0.0023848868,-0.09436069,-0.12344957,0.020392561,-0.14896727,0.031212853,0.10940541,0.013504062,0.08316832,-0.112167016,0.013957185,-0.12697072,-0.0078633,-0.028092194,-0.14742938,0.13302693,0.08824321,-0.033214297,0.12166872,-0.15134904,-0.09295993,-0.07166852,0.039378084,-0.10372019,0.09389537,0.093885526,-0.08436469,0.15296264,-0.13392396,0.053789336,-0.13406354,0.09151748,0.09102021,-0.15207216,0.06231543,0.0015198889,-0.105879396,0.085086465,-0.08928996,0.09290838,-0.09734785,-0.01312256,0.05577377,-0.09514056,0.11723519,-0.069437444,0.015630249,-0.07548629,-0.0013045291,0.028893284,0.06739609,0.00066220516,-0.14399599,-0.0074282177,-0.0073785423,-0.11323496,0.14300524,0.08154093,-0.14337362,0.103139065,-0.070617184,-0.10158463,-0.044538863,-0.06850362,0.0077694803,-0.048317797,0.07622072,-0.12152559,-0.14775088,0.09832213,-0.0040065404,-0.045144726,-0.10969496,0.01547838,0.18280914,0.018977605,0.17126493,0.086225785,-0.024919976,-0.061721694,-0.06100792,-0.07319172,0.0014301288,-0.13175033,-0.12473603,0.15907921,-0.032253437,0.008421063,-0.06325129,-0.12945515,-0.040250957,0.16456553,0.09955957,0.06981867,0.12721244,-0.01615936,0.054346234,0.042943135,0.024973955,0.087453134,0.021335866,0.14193238,-0.027935285,-0.121763065,-0.1152116,-0.060075898,0.14392868,0.12841006,0.12359926,-0.0074131573,-0.11435681,0.115027495,0.005111229,-0.0347051,0.13801531,-0.037396975,0.03317518,0.118237376,-0.10164881,-0.029114477,-0.08419272,-0.0021249193,0.06661756,-0.004897687,-0.046659045,-0.0970008,0.08392663,0.042781074,0.08254519,0.11091267,-0.008600319,0.17807904,-0.095316865,-0.15684459,-0.08298023,-0.084685,-0.10011428,-0.08990145,0.16517258,-0.09734482,0.10513975,0.12806739,-0.09445981,0.093541496,0.08916,0.037951473,0.002433806,0.045741223,0.10574674,0.020805066,0.034438174,0.053495176,-0.09919176,-0.08470053,0.0235854,0.010241153,-0.005445405,0.046256162,0.08960402,-0.0027324997,0.12362133,-0.14528376,0.050869323,-0.057017636,-0.04903361,-0.062137794,-0.0988689,-0.07360384,-0.15657201,0.122026086,-0.04462989,-0.15111583,0.12977517,-0.04414372,0.0022437037,-0.105787516,0.009138124,0.12832579,0.13717374,0.07092757,0.12147151,-0.0127112605,-0.11168032,-0.003280955,0.033991564,0.1553443,-0.1182718,0.0008635604,0.109329484,0.050338123,-0.09153801,-0.1286494,0.03212038,0.060837507,-0.043317404,0.017155305,-0.09550349,0.12938681,-0.15112568,-0.073157966,0.070062585,-0.073369846,0.1781012,-0.037258506,0.16679247,0.13031174,-0.061160263,0.12118332,0.07457025,0.0071003395,0.087999575,-0.06864121,0.05159051,-0.048233658,0.17289105,0.06235445,-0.047523167,-0.13798289,0.017946623,0.07633317,-0.10849712,0.05898786,0.11321425,0.17211293,0.11834508,0.06866696,0.0817969,0.084335625,0.03065396,-0.12885989,0.012665628,0.037172098,0.079155535,-0.034716807,0.110262066,0.04653296,0.043385155,0.045202676,-0.08229267,-0.026871772,-0.1277531,-0.063145734,-0.020441247,0.0547149,0.01719928,-0.07161528,-0.13357787,-0.06391488,-0.018829964,-0.054741256,-0.025179999,0.14021868,-0.106056705,0.007126143,0.15007083,-0.014261487,0.032016087,-0.13559724,0.15734555,0.027475417,0.0063008177,0.000390176,-0.10749793,-0.082763664,-0.10591041,0.14757816,0.14570847,0.06217515,-0.1387343,0.06890866,0.015372957,-0.083560385,-0.035537,-0.1057769,0.13266158,0.017456278,0.057560757,0.13318896,0.119959295,-0.14301498,-0.09088981,0.064689465,0.035751827,-0.117645726,0.0076491605,-0.031240312,0.0136192655,-0.10468435,-0.06521429,-0.11990478,-0.13475156,0.1303677,0.00022130046,-0.11764452,-0.019703843,-0.10636317,-0.13632256,0.11129189,0.07825283,0.063087985,-0.09664872,0.0814694,0.13984317,0.023776617,-0.049185384,-0.06809576,-0.029313916,0.014260522,-0.15525858,-0.08894837,-0.13096933,0.09088098,0.11185936,0.011851021,0.025498312,-0.08979407,-0.119589455,-0.10172037,0.076949865,-0.0034749308,0.027680652,0.144562,0.16511881,0.006755059,0.01823532,-0.14027122,0.054989148,-0.0013407074,0.086930975,0.017067982,0.13172585,0.04232089,-0.019900307,0.06106518,0.062219445,-0.03829632,0.032070946,0.13299958,-0.14905357,0.019226285,0.042210143,0.14440492,-0.12168739,-0.12728025,0.06749068,-0.14025518,0.005646171,0.14148386,-0.01569126,-0.11892816,-0.120041914,-0.095260315,0.05954405,0.02415445,-0.11391919,0.08366868,0.091272235,0.089123264,0.103857055,-0.005193358,-0.08425181,-0.09781535,-0.03618152,-0.0033761696,0.12323535,-0.043601807,-0.12913008,-0.032802977,0.054531995,-0.014826096,0.17692624,0.0843343,0.022795862,0.07104238,0.08302499,0.04365054,0.071369104,-0.026569258,-0.027416995,-0.03263367,-0.09153299,0.029088395,0.04681757,0.12633742,-0.093200415,0.06875175,0.14379968,-0.041878384,0.058444463,0.035201855,-0.14934695,-0.069174476,0.10419054,-0.14479041,-0.0007229342,-0.1366449,-0.13742697,0.1196445,0.07397691,-0.0670761,-0.1495135,0.11365066,-0.1517347,0.066181585,0.040032312,-0.05784844,-0.11345554,-0.0047271647,0.13043946,0.12099155,0.036066964,0.16405167,-0.086219266,0.037472982,0.07891921,0.1317659,0.11620301,-0.0057785544,-0.010150357,-0.024469672,-0.004134599,-0.057691336,0.1740713,-0.043187667,-0.114625275,0.16740413,-0.06977719,0.027860967,0.025689214,0.09324155,0.081913635,-0.05361879,0.1456331,0.015510603,-0.13032098,-0.12134284,-0.020640649,0.10142325,0.12955655,0.03720292,0.092716254,-0.00095968466,0.047933523,0.08365142,-0.011593787,-0.114625305,0.13119651,-0.1207669,-0.10097862,-0.055674367,-0.090801716,-0.04140774,0.048289273,0.06652281,0.022537386,0.09213251,-0.0971281,-0.11965136,0.04506404,-0.06492097,0.05138171,0.053971905,-0.04832727,0.046015054,-0.049289227,0.08542271,-0.13389736,-0.1468989,-0.1340605,-0.050781257,-0.03375282,-0.08615739,-0.1213734,-0.06883873,-0.0753088,-0.07601643,0.13827042,-0.11563261,-0.10200003,-0.04099033,0.08721731,0.08104847,0.004166153,0.08588078,-0.007755273,0.12126914,-0.13296644,0.008866201,0.14652558,0.0037405698,0.123375155,0.007743031,-0.13908873,-0.12954393,-0.010015875,0.0013303407,0.033834223,-0.10088496,0.046557393,0.04280617,-0.06038978,0.03623851,-0.06243754,0.13728167,0.08540874,-0.027503332,0.15112408,-0.111331604,-0.104736775,0.021100663,0.13011386,-0.07001653,0.011089359,-0.005498357,0.05361125,0.012626361,-0.1273076,-0.11909806,0.11231631,-0.054897547,-0.11090486,-0.024472319,-0.12339658,-0.0856798,-0.15495856,0.08573294,0.09854541,0.04924124,0.13147686,-0.030184396,-0.0050275414,0.10696301,0.08289201,-0.013129214,0.1709159,-0.08246093,-0.14945845,-0.12352875,0.10368703,-0.0824524,0.040689588,-0.13593872,-0.04378111,0.17956908,-0.061406195,-0.081482135,0.03158011,-0.05778665,0.15873529,-0.088956766,-0.06823366,-0.06336082,-0.11144654,-0.07421293,0.0049374634,-0.017989326,0.028068475,-0.04188319,0.15666433,-0.069957696,-0.029602427,-0.105575375,0.026225258,0.14314148,-0.019894421,0.04027042,-0.044289596,0.16629711,0.09150141,-0.09978311,0.13381046,-0.018024229,0.12547751,-0.010606952,0.036925316,-0.0877619,0.02142221,0.07113327,0.06891025,0.11139966,-0.06617317,0.10074233,-0.14656644,0.042007636,0.14247936,-0.036054045,0.10635795,-0.08672763,0.1348164,-0.0598047,-0.15022199,0.025450053,-0.11429926,-0.010020071,0.14086519,0.11431916,0.020544192,-0.123907566,-0.09313625,0.083753765,0.10116833,0.0129641015,-0.059615333,-0.108388394,-0.07521438,0.119769104,-0.068224505,-0.04503138,-0.14323561,0.15880595,-0.11512237,0.017960701,0.07943381,0.07237808,0.08162984,-0.031077916,-0.1072871,0.01953228,0.066021994,0.11420666,-0.13038361,-0.0019463404,0.16196708,0.08816636,0.11060561,-0.021467647,0.1772594,0.11164117,-0.08917515,-0.03013457,0.050725047,0.025283378,-0.14747883,-0.11286924,-0.1466013,-0.0941928,0.037986174,-0.060430516,-0.017395316,0.107333645,0.093777455,-0.14353482,-0.09582149,0.012669518,-0.045167554,-0.12853199,-0.0716517,0.1793565,0.11845485,0.098704726,0.020697692,0.05638363,-0.02243914,-0.1221188,-0.0025950214,0.0230693,0.015865104,-0.019802319,0.09375924,-0.060142525,0.1463041,0.073968746,0.07679287,0.1039666,-0.08458705,0.030820535,0.011202966,-0.0046870974,0.10477459,0.10287587,0.030683853,0.07674121,0.027403409,-0.052023247,-0.13474847,0.0035804762,0.06516782,-0.12478654,0.017695935,0.069139734,-0.09303379,0.07507816,-0.12777664,-0.06042334,-0.0175947,0.1280355,0.14918342,0.09427939,-0.08644088,-0.056186073,0.091933474,0.11530487,0.1428465,0.1160363,-0.07996506,0.08120605,0.09581584,0.098886244,0.1372818,0.10020806,0.11933901,-0.029662834,-0.028418062,0.06096167,0.06254913,0.05101884,-0.10429208,-0.11694483,-0.09594051,-0.07006813,0.10120198,0.07544205,0.056695636,0.09154766,-0.11353018,0.14261377,0.1030401,-0.103302844,-0.07055855,-0.035353675,0.1049067,0.041746955,-0.07024921,0.020550184,-0.027692614,-0.11305944,-0.1177374,0.04973876,0.06755222,0.10276686,-0.05849209,0.1377294,0.088804625,0.10050873,-0.08404023,-0.07296539,-0.14684333,0.019604612,0.107863635,-0.041336443,-0.016452236,0.09704957,0.059774734,-0.116224475,-0.038506318,0.11567205,-0.051583745,0.093827575,-0.10871562,-0.06443379,-0.122359075,0.041902304,-0.11824847,-0.082075834,-0.0240883,-0.056872208,0.120932005,-0.040669978,0.044829577,0.087127015,-0.14776658,-0.109701425,0.15551633,-0.11317126,-0.017848762,0.12912436,0.051745914,0.12934284,0.03321568,-0.05191105,0.1394136,0.17136213,-0.08609462,0.06693374,-0.01817473,-0.1272534,-0.039580062,0.08644655,-0.06465553,-0.025638945,0.13761361,-0.048315644,0.005373949,0.022315804,0.062983304,0.064070575,-0.109162085,0.0961724,-0.14140008,0.1440234,0.16956097,-0.0734732,0.016033733,-0.04080748,0.014868742,-0.12880298,0.12136458,-0.133805,0.09804333,-0.035079893,-0.050451472,0.099378064,0.007492478,-0.009609484,0.11963793,0.010409924,0.14005478,0.11256942,0.020357113,-0.08260412,0.094132274,0.08828532,0.07968271,-0.13085833,0.108736284,-0.0392947,-0.14465086,-0.021484762,0.105465464,-0.06872958,0.03938617,0.11714213,-0.06120127,0.025319308,0.0930621,0.036022887,-0.052273557,0.0122602405,-0.061185025,-0.10794638,0.14960618,-0.0008682482,0.038875792,0.039864667,-0.057016052,0.08352193,0.12275473,0.10520908,0.12878264,-0.025206424,-0.10392301,0.09348837,0.15301429,-0.09992622,0.13554701,-0.11763902,0.07391925,-0.1339198,0.0093720155,-0.090312414,0.06048116,-0.14710344,0.14933634,-0.096108645,0.028930005,-0.031418208,0.13234319,-0.05359431,-0.045418143,-0.060604822,0.10330991,0.12381698,0.13925482,0.08713062,0.08245552,0.04531756,-0.084832445,-0.13557625,0.147287,0.0650529,0.04455491,0.04988581,0.05863222,-0.004330832,-0.103700265,-0.10095686,-0.092034616,-0.06201644,0.018607156,-0.018603904,0.05626512,0.14582469,0.16679606,0.110676385,0.039510656,0.07911504,0.07540668,-0.13606209,-0.033792052,0.13763143,0.10384815,-0.10866862,-0.10474419,-0.028594144,-0.057030715,-0.08064932,-0.13085563,0.12885535,0.06929757,-0.09647524,-0.13821374,0.01994698,0.06384039,0.11944274,0.09881101,0.13619898,0.09235318,0.16222425,0.058546957,0.03719165,-0.074535534,-0.12440956,-0.017121425,0.15261824,0.01165586,-0.119480796,0.03821736,0.1613209,-0.055565856,0.009069197,0.15026155,-0.021464145,0.05715896,0.032549936,0.0015215876,0.025533874,0.057692237,0.049508616,0.11855541,0.055917095,-0.0006186244,0.064377554,0.041113615,0.06254546,-0.1030339,0.08239068,-0.015074942,-0.07854469,0.13635282,-0.09020949,-0.0415778,0.08152384,0.19086942,0.119730406,0.041539446,-0.09994398,0.011379481,-0.02478618,0.06074183,0.08291496,0.04948991,-0.037744846,0.09178057,-0.004576579,-0.107053824,0.12812673,-0.14113437,0.048008114,0.17725384,-0.028062224,0.06803244,-0.019907493,0.0807281,-0.09861108,-0.1358837,-0.08430058,-0.13705426,-0.066730164,0.14561707,0.14268081,-0.0046392307,-0.10906245,0.012831329,-0.1327243,-0.060206145,0.14758924,-0.024062684,-0.104695685,0.12412545,-0.14396442,-0.021783257,-0.0719114,-0.10783418,0.1487728,0.03671896,-0.065277636,-0.07043145,-0.059405003,-0.10280302,0.1187902,-0.042954683,0.17711058,-0.082997516,0.16494574,0.14074503,0.0350635,0.030452313,0.107469566,0.09152858,-0.08998635,-0.15655084,0.056870054,0.025340486,-0.047304314,0.048366364,-0.11843672,-0.11423253,0.14618355,0.10510394,-0.08947767,0.15234537,0.060794637,0.013754879,0.008199867,0.0482308,0.06531316,-0.05797629,0.0526801,-0.12723595,-0.025734542,-0.00581413,0.14270128,0.09198565,0.17893714,0.04741498,-0.06560834,0.06827234,0.07315244,0.038375407,0.12128785,0.09410332,0.0030732814,0.06483664,-0.10767806,0.039613713,0.030287813,0.119651325,-0.046656627,-0.074793376,-0.09649262,-0.11049125,-0.063544884,-0.03373578,0.13767643,-0.020422284,-0.0010147202,-0.07124713,0.082450256,-0.10925336,-0.059419677,0.11137235,-0.083849296,0.04444606,0.13448903,-0.007135233,0.0876815,0.0057959757,0.050934393,-0.019208366,0.12557545,0.10749027,0.13825855,-0.104754455,-0.079497755,0.09275059,-0.006286733,0.035081524,-0.06989722,0.14504093,-0.023206782,0.014647576,-0.05369247,0.049280528,0.02126727,0.13458057,0.07785888,-0.106657974,0.09804462,-0.038139377,0.0704974,-0.098305225,-0.10990378,0.142156,0.07465117,-0.08720716,-0.081138834,-0.022611853,0.019601092,-0.14570396,-0.04737561,0.16533633,-0.0056500616,-0.054457832,0.042495754,0.13129458,0.06643895,-0.063832395,-0.06873897,-0.065787844,0.08167851,-0.053507157,-0.087966494,-0.10221731,0.11995438,0.07597852,0.11135194,-0.071501814,-0.017563334,-0.08466683,0.06189422,0.07720365,-0.08172598,0.16280991,0.06774839,0.083612576,0.11661302,0.071799,0.01855384,-0.10622384,-0.09601235,-0.109278865,-0.1108039,-0.113610856,-0.11026124,-0.004013454,-0.13108052,0.00574112,-0.018949552,0.09365515,0.044597037,0.1287145,-0.09144859,