{"model_state":[{"clause_net":{"weight":[-0.32025993,-0.36994463,0.3267894,-0.20792821,-0.09526625,-0.2705875,-0.11463499,-0.053323776,-0.36488602,0.431697,0.27640486,-0.21230547,0.1952164,0.098724246,0.23929693,0.20184636,0.278794,-0.39291063,0.13535035,-0.02994807,-0.07697595,-0.14478517,-0.050968807,0.21956308,0.27582264,-0.0017238876,0.3905134,0.3848156,-0.23843136,-0.33040252,0.18386933,0.33498782,-0.19706899,0.25649738,-0.004208411,-0.0009166714,0.0031714588,-0.23673478,0.10714151,-0.04855718,-0.3484875,0.26060814,-0.03594826,-0.25006232,0.20449676,0.2518274,0.18693244,-0.24471089,0.23740838,-0.17630076,0.23229589,0.2703755,0.12293102,0.045655295,0.2996841,-0.2636192,-0.22792979,-0.30144343,0.38101655,-0.3597246,0.3098677,-0.2208275,-0.10310293,0.24353415,0.088759415,0.1586828,0.002684229,-0.34235403,0.3053458,0.18028226,-0.010322625,-0.2050941,-0.31239006,-0.3592069,-0.40796033,0.13049042,0.31866542,-0.1515523,0.19816992,-0.09906874,-0.3751536,0.2733344,0.26600474,0.21423855,0.1350337,0.046524655,0.019066025,0.34351835,-0.22878541,-0.3800726,-0.18405487,-0.26162475,-0.020255,-0.29989898,-0.28927085,-0.1326125,-0.30004707,0.2058613,-0.26369482,-0.18040651,0.013963141,-0.16241235,-0.29018462,0.13011917,-0.0032289072,0.06762779,-0.073742114,-0.025562886,-0.35099176,0.21675049,-0.34362224,0.22706912,0.3833882,-0.23256794,0.35257855,-0.25949514,0.19040085,-0.038714655,0.23051178,0.1764629,0.044653438,-0.037625555,-0.11292596,-0.33325762,0.4010309,-0.00069528416,0.040965293,0.17105103,0.05231151,-0.2000843,0.27575207,0.34006268,-0.31612372,0.2753936,0.3298052,0.03421842,0.17206542,-0.04973004,-0.15716189,-0.21865581,0.014293376,-0.09912246,-0.09565329,0.09668589,0.11336373,0.069598876,-0.13321997,0.36100763,0.36290616,0.16618338,0.29248488,-0.07491892,-0.32071453,0.25205994,-0.16160491,-0.26720354,-0.23233761,-0.004020092,-0.23650242,0.2697074,-0.019686524,0.09751838,0.06479687,-0.23299544,0.31232437,0.35240635,0.26891536,-0.2986459,-0.17565459,-0.07484553,0.25361022,-0.23052496,-0.14879167,0.05887053,0.016380604,0.23799476,-0.022782207,0.26117975,0.2614281,-0.30165353,0.3533142,-0.19116595,0.0535766,-0.0035259146,0.008686792,-0.08834914,-0.07117662,0.18991192,-0.10504606,0.22651966,0.35514137,-0.14050804,0.33396897,-0.3204542,0.36833644,0.3019025,0.20610566,-0.41078964,-0.45362493,-0.056135505,-0.19105573,-0.14507191,-0.15326628,-0.004532637,-0.18371545,0.27025694,0.04101483,0.0039662668,0.3822854,-0.23557675,-0.2568428,0.07907599,0.13234319,0.14212158,0.3307393,-0.08681357,-0.16650593,-0.13012983,-0.33129993,-0.2261277,-0.3419086,-0.2194637,0.21246722,-0.15193997,-0.2787602,-0.19243014,0.08196839,0.40676957,0.1583881,-0.41417575,-0.23380738,-0.10234096,-0.28757846,0.0086337505,0.3668789,-0.036896944,-0.23092225,0.05453212,-0.341658,-0.022538764,0.19832821,0.01323155,0.2054464,-0.2539927,0.16612984,-0.030514097,-0.2684558,-0.23487511,0.008915015,-0.025838222,-0.13459487,0.11494331,-0.07748407,-0.3595619,0.31536847,0.28144157,-0.31551576,0.49387515,-0.11134149,0.0002742838,-0.18431744,-0.06215757,0.11797772,-0.049231518,0.21522488,-0.28406775,-0.13923292,-0.3294841,0.088714354,0.39077857,-0.1739847,0.2477843,0.12526308,0.25289068,-0.013046619,0.07821538,-0.07272648,-0.112470016,-0.36806467,-0.34829807,0.3371378,0.036162145,-0.16074367,-0.2739055,0.053680014,0.008059837,-0.20065902,-0.19765553,-0.10541567,-0.2835905,-0.21451886,0.2510356,0.2810745,0.08710079,0.042008176,0.084672846,0.1423726,-0.14104763,-0.2440725,-0.044705905,0.17619395,0.26819846,0.17240487,0.3841755,0.45006868,0.24544148,-0.009043125,0.2856759,-0.11633292,-0.09862705,0.13931845,0.27218157,-0.20459293,-0.27956474,-0.13645962,0.0880801,-0.17296813,0.009886942,-0.07495456,-0.06289029,0.31865695,0.19918256,0.045336712,0.2485253,-0.24894592,0.32878944,0.2103281,-0.27800238,0.16729565,-0.22162732,-0.23096448,0.21629561,0.27832803,0.0038670935,-0.14455722,-0.11619963,-0.11754352,-0.07231684,0.21617799,0.28616145,0.15728477,0.027212791,0.11111606,0.15575919,-0.13923371,0.10091004,-0.43785802,-0.27185708,-0.1867154,-0.40906215,-0.13883764,0.38210285,0.046152543,0.0071008354,-0.2490727,0.18011248,-0.14563073,0.14667495,0.25082895,0.06169037,-0.25179064,-0.22682841,-0.11267273,-0.3051298,-0.12809147,0.18211609,0.08866278,0.0010499831,-0.2406149,-0.16737993,-0.20024122,0.31765842,0.20189057,0.347892,0.28802094,-0.017547298,-0.14220278,-0.3175327,0.27323416,0.28592682,0.17145197,-0.22000313,-0.11742878,0.34829995,-0.16656087,0.3150183,-0.063990235,-0.2230473,-0.25135228,-0.051026084,-0.12974642,-0.042255774,0.33238307,-0.1647193,0.15969521,0.010596372,-0.14059725,0.25887045,0.3301161,-0.20460542,-0.3702952,0.123825625,0.30365354,0.023657922,-0.29033995,-0.10438694,0.058052614,-0.23706776,-0.30519816,-0.27008227,0.06625746,0.0038266815,-0.19615045,-0.32075435,0.20411064,-0.13337006,-0.21665171,0.11958942,0.27471036,0.41237798,0.14853583,0.40381917,0.09977953,-0.14521472,0.1934387,0.036485042,-0.33130854,-0.41019565,-0.088976435,0.1229347,0.1926101,-0.09323916,0.232865,-0.14224821,-0.31248266,-0.25565055,0.1248306,-0.16213363,0.18223298,-0.28070128,-0.23574668,0.21657333,-0.24277835,0.17146951,0.004754917,-0.13539198,-0.25593778,0.06472752,0.123792924,-0.12600297,-0.41303304,0.21828155,-0.19656995,-0.23174012,-0.22884719,-0.2920072,-0.025931383,0.16234021,0.26752228,0.13508387,0.06915035,-0.19870038,0.033780597,-0.21483275,-0.085746214,0.18311542,-0.27611774,0.1143226,-0.15826404,-0.021037528,-0.4047839,-0.22308859,-0.33441916,-0.016391905,-0.14302106,0.067825876,-0.28839836,-0.2931143,0.24567588,-0.35284832,0.13549915,0.39076635,-0.122175135,0.2599331,0.25424236,-0.43452442,0.024085417,-0.072190695,-0.00549757,-0.24388853,-0.2076618,-0.294078,-0.36790398,0.0825365,-0.18257472,-0.07848427,0.014181771,0.16414832,0.041808777,-0.16402905,-0.36111298,-0.40287265,-0.23564394,0.0539619,0.1998859,-0.3321638,0.041416243,0.07280306,-0.26272205,-0.25721717,0.09840463,-0.15295646,0.226629,-0.09621768,0.20646305,-0.27939573,0.10818931,-0.35967118,-0.3195348,0.30115294,-0.049327824,0.009201811,-0.06404395,-0.29871836,0.2830785,-0.063073575,-0.14240946,0.42101288,-0.03990585,-0.18816061,-0.066245764,0.3907743,0.008535708,-0.31683204,-0.3334728,-0.4080572,-0.014494161,0.005613522,-0.17005391,-0.28252116,0.44562665,-0.010968498,-0.014347545,0.07435106,-0.26228163,0.15495178,-0.13629176,0.1553681,0.28035647,0.18611097,0.12691112,-0.2441236,0.06698609,-0.11575065,-0.30838463,-0.22225043,-0.08735984,0.325758,-0.15646543,-0.088152654,0.16910489,0.33603007,0.2126945,-0.00015025027,0.33141786,0.28624806,-0.15201345,-0.23061343,-0.41074872,-0.048676502,0.37120703,-0.29892978,-0.15419124,0.1845018,-0.20969841,-0.19135529,0.30087352,-0.10269697,-0.24912295,-0.013944904,0.06311395,-0.139116,-0.27898693,-0.3642191,0.38870707,0.2877788,0.09555309,0.0725775,0.15137033,-0.21618038,0.016750827,0.17214914,-0.2819265,0.22783601,0.063635,-0.30340198,0.4096448,-0.09428275,0.022678878,0.12076619,0.15635432,0.49090624,0.34244224,-0.17762771,0.053356737,0.07150082,0.41783917,-0.2647319,0.21644461,-0.16481864,0.28327578,0.13390292,-0.20502177,-0.26393753,-0.27486342,0.37025547,-0.22157586,0.31581974,0.005258533,0.19977866,-0.09631342,0.19880602,0.10944011,0.2677931,0.12615642,0.26582813,0.116422325,0.46931607,0.16748329,-0.37785628,-0.0034773557,-0.04141351,-0.08708853,0.27874902,-0.23127127,-0.11602163,0.26009256,0.118148364,-0.1277389,-0.0029219373,-0.12184351,0.1292905,0.05058027,-0.16027527,-0.11939571,0.07839805,-0.06163178,0.19989769,0.20220217,-0.070633516,0.023403028,-0.12179596,-0.12839645,0.05693535,0.120613195,-0.13324873,0.1295201,-0.18866968,-0.15241379,0.18640201,-0.1263005,0.20490971,0.0014770441,-0.13489518,0.15264903,0.14795984,-0.03359193,0.192161,0.13069814,-0.0043529575,-0.005147557,0.044406798,-0.046674315,0.13492396,-0.042857718,0.09726938,0.06720896,-0.12312816,0.081084535,0.0067513706,-0.09990741,-0.17352153,-0.03823514,0.1535176,-0.17283551,0.030365657,0.11606663,0.17766592,-0.10942965,0.16387874,-0.09006442,-0.110253304,0.09126672,0.17795835,-0.05028629,-0.033754293,0.12615307,0.020640412,-0.1296088,-0.04743956,0.030639704,-0.012917685,-0.0689433,-0.03540054,-0.10997118,0.06036945,0.034139946,0.015437425,-0.19754209,0.13203843,-0.1271551,-0.034207508,-0.04146509,-0.11382494,-0.043201465,0.18842094,-0.06439693,-0.110185966,0.17809793,0.16761577,-0.18553708,0.1067029,0.17718713,-0.19782971,-0.097625926,0.076927096,0.10661724,0.052992456,0.03973699,-0.17337699,-0.089615725,0.14504257,-0.08772981,-0.19527172,0.0167919,-0.033911213,-0.20106348,-0.155469,-0.084388874,-0.03812097,-0.1698749,0.1017146,0.05491183,-0.12200006,0.07146967,-0.17252776,0.007186689,0.13496639,-0.12222703,0.09486627,-0.17729215,0.12988567,-0.07181178,0.123455375,0.11849047,-0.0364231,0.0012832849,0.10723098,0.0028377334,0.09416378,0.118482865,0.16369644,0.085560136,0.1627564,-0.06377216,-0.098060295,-0.16462684,-0.08750329,0.1151031,-0.049970634,0.14386542,-0.038660266,-0.04732743,-0.0757634,-0.1693386,0.06176409,0.045853864,0.020390725,0.15921217,0.11539323,-0.036217283,-0.025496969,-0.19523276,-0.19554123,0.06761043,0.1063082,0.0065344945,0.087721735,0.053197127,-0.08877693,0.046189357,-0.14868072,-0.0310181,0.16026913,0.10473707,0.14105032,0.0031739222,-0.1088737,0.08857331,0.07676105,-0.059986204,0.005502786,-0.005481434,-0.2063482,-0.1486867,0.18564157,0.034015168,0.13954699,0.09875514,-0.04231,-0.20516536,0.0789148,-0.03280451,-0.032099523,-0.039741937,-0.020959849,0.12913172,0.12371384,-0.010175477,-0.15786952,0.043987587,0.20237555,0.053146396,-0.18807848,0.14149457,-0.043035746,0.06298765,0.11161069,0.08383966,0.19996686,0.054953437,-0.032417193,0.017891293,-0.19722399,0.10236985,-0.115146205,-0.10418652,0.1965503,0.04028275,0.15514703,0.18355744,-0.07124656,-0.15852602,-0.08350375,-0.13173848,-0.1854214,0.027203243,-0.023835663,-0.09903849,-0.19421701,0.16483344,-0.16732304,0.1735581,-0.113026634,0.122789614,-0.09474768,-0.20228818,-0.17834459,0.0522249,0.012680551,-0.055855494,0.1776181,0.12056942,-0.007877511,0.16761859,0.001057535,0.04597293,-0.07528413,0.19020347,-0.12708871,-0.033511568,0.042995725,0.1845891,0.022843476,-0.16827923,-0.05921087,0.045508083,-0.041987706,-0.008038111,-0.10267957,0.11500688,-0.17878413,-0.13660254,0.0023637628,0.12152706,-0.028285611,0.030246295,0.17058133,0.14800018,0.09177094,0.08084879,0.0060074297,-0.101229124,0.037671287,0.07359041,-0.041672297,0.19448347,-0.118108846,-0.1993802,0.046136215,0.10909207,0.0046506184,-0.18973358,-0.17002092,0.06144093,-0.058362506,0.05796323,-0.12013274,-0.057378,0.12360238,0.16612732,0.13939011,-0.046303723,0.06923885,-0.14083791,0.04939219,0.19702886,-0.022709522,0.18443073,0.12775889,-0.11364597,0.0147291785,0.09884011,-0.11137838,-0.18402463,-0.06035635,-0.09114825,-0.059184425,0.20056394,0.058971647,0.18000972,0.14246595,-0.099166654,-0.12966524,-0.14157765,0.11991987,0.084284455,0.040648244,0.069038875,0.12147548,0.100956395,-0.045651853,0.12916297,0.14793961,0.16060062,0.03621788,0.021446496,-0.09643282,-0.0362405,-0.06380367,-0.046693705,0.17028162,0.11530469,0.114416085,0.0047994116,0.011331769,0.18567902,0.024719423,-0.027518727,0.17521869,-0.10602781,0.083469644,-0.169246,-0.08178743,0.18773943,0.09060794,-0.049140614,-0.106816076,-0.0736308,-0.010433466,0.16719535,0.033590462,-0.13564228,-0.048795227,-0.12307609,0.09080488,-0.019179102,-0.06706639,0.14574645,0.041644953,0.05927982,-0.1348144,-0.006274641,0.07582413,0.13633,-0.08397436,0.08226247,-0.12036393,0.20123367,-0.07338972,-0.06491065,-0.065760106,0.09968146,0.095836505,0.07993704,-0.12528974,0.14811599,-0.10180086,-0.1977307,0.11965845,0.13794096,0.20136291,0.18116176,0.032084532,0.18984471,0.15268593,0.20710382,0.15993398,-0.046584383,0.16144183,0.14804885,-0.035787262,-0.057885528,0.10556995,0.11807096,0.08899913,0.07310006,0.1809857,0.017094458,-0.07089854,-0.010003567,-0.03118233,-0.020980652,0.071717225,-0.18633229,0.18026945,0.19340946,-0.15820368,0.20074536,-0.04124585,-0.103096694,-0.19874871,0.09541284,-0.20289898,0.13764708,0.070206076,0.1890892,0.12600838,0.08539518,0.17604938,0.019567242,0.00012209688,-0.15311038,-0.20824619,0.08816019,0.1914962,-0.12048856,-0.16824217,-0.1981634,0.04023338,-0.16929027,0.026358683,-0.066696316,-0.024481045,0.03917525,0.17969565,0.056205403,0.1650784,0.14018498,-0.03683575,-0.02697635,-0.07132814,-0.16634144,0.053172518,0.062032994,0.021235486,-0.17700249,0.096548654,-0.12321036,0.11484511,0.035047818,0.16083638,-0.09740599,0.19521163,-0.20693302,-0.17068815,0.080174945,0.063031346,-0.07049355,-0.17838466,0.06915704,-0.1541356,-0.06296935,-0.13468757,0.1189277,0.074462965,0.0442021,0.1579876,-0.06574971,0.03727554,0.11412464,0.08226329,0.069787785,-0.096771866,-0.081640676,-0.19695872,-0.008051782,-0.15612578,0.013326083,-0.18443456,-0.009538446,-0.053673908,0.12793222,-0.08328702,0.019998858,0.057765666,-0.10174898,-0.20190175,0.19196504,-0.18974195,0.135455,0.11687475,0.113524765,-0.1265276,0.049361516,-0.0279751,0.15986587,0.052531213,-0.18599471,0.15321167,0.12554069,0.11574548,0.1532319,0.14058965,-0.14424889,0.07675404,0.18291259,0.020928927,-0.08231085,0.09850762,0.097371586,0.06279968,-0.17435907,0.1848674,-0.1664365,-0.14687973,0.11754755,0.12695225,0.14008178,0.038142126,0.17962599,-0.1414369,0.051393863,0.047156215,-0.034427267,0.19616777,-0.15861806,0.12795755,-0.08527505,-0.17417838,-0.12563507,-0.03293096,-0.02086047,-0.0703878,0.15702412,-0.09726555,-0.06107551,0.1236828,-0.066261366,-0.048706762,-0.14232722,0.10220806,0.032592036,-0.11698245,0.18516359,0.1847838,-0.037494205,-0.023047475,-0.024177767,0.11864794,0.047711045,0.008998928,0.042920608,-0.001984323,-0.1730689,0.054000873,-0.032202926,-0.19142766,0.12559395,-0.017350782,-0.051621675,-0.20233689,-0.11912159,0.2072076,-0.17764415,-0.11488747,-0.08317126,0.12933944,-0.0293726,0.16336796,-0.10700864,0.023145214,-0.04141679,0.14381361,-0.1154507,0.16427116,0.12552841,0.07443077,0.08797222,0.009400564,-0.06668118,-0.20317863,0.17055683,0.09336693,0.16401736,-0.15801252,0.08725701,-0.12249511,0.20527722,-0.10473884,0.00039925083,0.19736834,-0.0630266,0.19473252,-0.15362556,0.16176298,-0.113667645,-0.1984904,-0.04161945,-0.00067543535,0.054085065,0.0082279425,-0.07699501,0.090183735,-0.08963497,0.01127328,-0.15626787,-0.053982355,-0.06352706,0.06081036,0.060695868,-0.0147204045,-0.08433563,0.1611083,0.08961399,-0.020476704,0.076354794,0.07560531,0.029280083,0.090654224,-0.06365973,-0.044873882,0.06471388,-0.019306818,-0.1445374,0.029253561,-0.020838944,0.010999034,-0.1019499,-0.03685116,0.15991363,0.19582845,0.13236311,-0.12690236,-0.19451395,0.070909254,0.08776926,0.03248197,0.1606264,0.050181765,0.022433786,-0.04618153,0.111950435,0.16341773,0.049509164,0.15627304,-0.19723712,0.13754703,-0.068205625,0.020436263,0.20740852,0.13410692,-0.026654206,0.106128015,-0.07710134,-0.20746486,0.08986101,0.06157846,0.03418623,0.0024189202],"bias":[-0.08936088,-0.037204154,-0.003677605,-0.07945117,-0.06592485,-0.04984883,-0.1111835,-0.06646045,-0.011838092,-0.11269458,-0.07658487,-0.024615793,-0.06323153,-0.07719692,-0.0224005,-0.122355014,-0.031873953,-0.014779691,-0.058416083,-0.06270473,-0.0028614402,-0.075179845,-0.033716768,-0.04938983,-0.05678225,-0.024084909,-0.07503149,-0.015464621,-0.04237746,-0.015056942,-0.009827865,-0.06584862,-0.008973396,-0.06291078,-0.079151414,-0.082394354,-0.13195084,-0.008843799,-0.09524249,-0.11964912,-0.024968581,-0.08347075,-0.038356826,-0.021183446,-0.13861068,-0.07314247,-0.048228953,-0.08638768,-0.049936563,0.033114295,-0.023819873,-0.061420757,-0.11135102,-0.08527042,-0.04305987,-0.04489791,-0.009559657,-0.012831695,-0.08451342,-0.07262173,-0.04520483,-0.09177613,-0.033841524,-0.025563814,-0.12257514,-0.04624394,-0.02415485,-0.048994485,-0.008284124,-0.10103538,-0.058378298,-0.013837273,-0.06273677,0.011810221,-0.0125062335,-0.05995951,-0.06420547,-0.06541729,-0.102183945,-0.033306714,-0.1063796,-0.041685704,-0.06328294,-0.041254297,-0.14688455,-0.08001519,-0.078688964,-0.04266371,-0.04448099,-0.013109499,-0.033031136,-0.055738635,-0.13878761,-0.035455782,-0.022268277,-0.10876663,-0.089163624,-0.028509287,-0.041646294,-0.0806704,-0.0831301,-0.016747715,-0.02272106,-0.13138609,-0.05531779,0.020962905,0.018443441,-0.07085305,-0.01618679,-0.12935096,-0.087376066,-0.085407615,-0.08018636,-0.0066180835,-0.056771513,-0.06425226,-0.022578517,-0.015422549,-0.0639077,-0.017638534,-0.11408797,-0.021350442,-0.053668857,-0.08357582,-0.064507686,-0.14220856,-0.08650115,-0.045818537],"σ":[]},"aggregator":{"layers":[{"weight":[-0.013473122,0.029359244,0.08557639,0.10033141,-0.28251246,0.2600511,0.1324856,0.09144193,0.17315993,0.16752142,0.10088195,0.057618875,-0.2527189,-0.13834259,0.0135764675,-0.120050095,0.24607076,-0.12587638,-0.16311358,-0.091661826,-0.059622955,-0.07787699,-0.11939853,0.005253146,0.060269766,-0.15370233,-0.12779173,-0.00036237002,-0.008377578,-0.1320565,0.0065621445,-0.10722908,0.07474652,0.00960593,0.20070483,0.06609225,-0.10246638,-0.010391565,-0.22691229,0.09158871,-0.09699838,-0.059921116,-0.10659065,0.08992183,0.08689049,0.17981833,0.26578772,0.05050046,0.13635719,0.14002997,0.26594508,0.057723153,0.052285526,-0.07151706,0.12196627,0.015573055,-0.27333438,-0.134395,0.13867484,-0.10408462,-0.1665903,0.21059836,0.21221083,-0.03417827,0.14441006,0.110610045,0.0040269815,-0.09833215,-0.37048987,0.12748326,-0.20100906,-0.022899525,-0.16114831,0.031032566,-0.09614199,0.09560589,0.033055235,-0.08476954,-0.28844276,0.07183956,0.0002743831,-0.09717769,0.14861277,-0.057860047,-0.079164326,0.20028187,-0.20588893,0.09757143,-0.073530555,0.044190876,0.098733395,0.07593883,-0.28649703,0.07294837,0.026608936,-0.10803337,-0.24604243,-0.0037296857,0.027082993,-0.13920526,0.0081504695,0.11914595,0.021755107,0.121165276,-0.095775254,-0.026040822,0.19169565,0.28684038,-0.20888487,0.10724918,0.073271275,-0.2436258,-0.14085123,-0.089458406,-0.112085655,-0.0675935,-0.26652005,0.08827799,0.10100951,-0.058792144,0.16091864,0.0014764181,-0.12568706,-0.19757234,0.07500119,0.13176468,0.014976926,-0.13033767,0.08350545,0.11191517,-0.044117995,0.0041129584,0.12925282,0.010185763,-0.033824127,0.05631107,-0.20673722,-0.16381185,-0.0582867,0.049434103,-0.08415042,0.07650707,-0.15630731,0.16484423,-0.0856034,-0.054797895,-0.19993596,-0.05613679,-0.0030067298,-0.2005078,-0.14450301,-0.13803245,0.042790197,0.15926814,0.07093596,-0.12928228,-0.018423023,-0.119327985,0.2007846,0.076595955,0.045263536,0.038997587,-0.1562801,-0.06798902,0.25224492,0.15076596,-0.30003205,0.1908648,-0.051300187,-0.097191684,0.030138034,-0.19155402,0.22737426,0.07843565,0.15389533,-0.103623204,0.02522486,-0.16897288,0.17467394,0.08269571,-0.269898,-0.16192149,-0.06597049,-0.14636824,0.008614756,0.121937126,-0.13007551,-0.19214511,-0.6637513,-0.4136219,0.12924752,-0.04166578,0.1494065,-0.05098017,0.21889664,0.024769293,0.020087024,-0.10204883,0.1302617,0.21913776,-0.069198884,-0.08168674,0.100291386,0.022489604,-0.14757116,-0.094260894,0.05217185,0.023324244,-0.11231057,0.0007328376,-0.15232117,-0.038584452,-0.041687515,0.1380587,0.18957871,0.09104728,-0.25396073,0.076699965,0.16425435,0.22544128,-0.22114404,0.07912393,-0.11976497,-0.14407246,-0.61093986,0.08320274,-0.06995828,-0.026010467,0.2399755,0.16261154,-0.076395154,-0.15700337,0.05026118,-0.1682363,0.009662839,0.096776046,0.16899526,-0.14806199,0.037280094,-0.17488548,-0.107057914,0.11780687,-0.07873305,0.024142709,0.20442598,0.060737964,-0.09827182,-0.050307862,-0.1464562,-0.14946817,-0.10979758,-0.015164375,0.17295735,0.21907191,0.09931676,0.037995722,-0.11695442,0.09556098,0.16411284,-0.105705805,-0.0808604,0.29047763,0.21802983,-0.17411011,0.040647853,0.057169665,0.033218257,0.15608278,-0.45457938,0.10715439,-0.03135076,-0.1518645,0.11854765,-0.05587673,0.11550684,0.041213606,-0.011861314,-0.04777142,0.12389336,0.08319747,-0.39774838,-0.12930681,-0.19014321,0.20693228,-0.14175269,-0.075821534,0.011442316,0.09224465,0.042205967,-0.0877873,0.057139497,-0.16146187,0.02661723,0.15977152,0.16429606,-0.23274176,-0.09056527,0.0051560146,0.100649655,0.09223552,-0.091081016,-0.0005861081,0.07609273,0.021369977,0.14168929,0.064777665,-0.124832064,-0.18545794,0.16065852,0.011890274,-0.0052597807,0.08177738,-0.15002362,-0.15430617,0.08128034,-0.07435384,0.06221173,0.21083386,0.0019878733,0.035682417,0.09505812,-0.033192176,0.014483894,-0.077977166,0.1337941,0.17088355,0.081922874,0.012343783,-0.12956111,0.05218372,0.0026320873,0.026160879,0.080754876,0.1472745,0.12700255,0.022698047,-0.087717175,0.101766765,0.024399761,-0.13598114,0.08174377,-0.11328674,-0.40852278,-0.09423829,-0.11618439,0.11928141,0.028391426,-0.11902641,-0.15243484,0.08115165,-0.122669436,-0.114359185,0.16999811,-0.061033152,0.06071049,-0.005236535,-0.25418174,0.2164743,-0.14002523,0.08407276,-0.12992315,0.11511173,0.06981078,-0.16089576,-0.030410824,-0.059660453,0.09341943,0.031536106,0.11490164,-0.15307905,-0.1384265,0.11603428,-0.045901395,0.020513937,-0.16753057,0.028642463,-0.20930527,-0.0067140567,-0.027525105,-0.22136581,-0.111075446,-0.24012227,0.08246163,-0.036271524,-0.12683527,-0.13931683,-0.17415132,0.008314357,-0.024804575,-0.064479835,0.079364255,0.107294925,0.2047055,-0.070816085,0.25463095,-0.19245659,0.11462376,-0.053772848,-0.08916589,-0.13972168,-0.3371074,-0.028027847,-0.17195779,0.12028526,-0.124117285,-0.16262792,-0.16519141,0.06639806,-0.13247576,0.10710643,0.04078573,0.22966447,0.018021269,-0.11904342,-0.025340207,0.075624526,0.046992105,-0.24007449,0.04517459,-0.11489775,0.09227546,-0.33132252,0.029291421,-0.24345395,0.15077528,0.11867776,-0.03215431,0.022373311,0.14031495,-0.02454623,0.099924885,-0.022391591,-0.1468718,0.33800393,-0.18039398,0.043131303,0.06521408,-0.1575281,-0.051050194,-0.37509543,-0.20273003,0.10303977,-0.11557244,-0.22503495,0.26996395,0.040771008,-0.0029504593,-0.19283497,-0.12219186,-0.2813546,0.051141888,-0.1260327,0.10854366,-0.011564252,0.087176695,0.16279712,0.08746914,-0.2876866,0.0025364019,-0.045295466,0.025747165,-0.1508072,0.050520618,-0.17494743,0.046703365,0.1188096,-0.22628208,-0.09018339,0.033630706,0.037175495,-0.04236937,0.044713262,0.20177084,0.012221743,-0.011288768,-0.046093307,-0.13842754,-0.016311394,0.27935073,-0.108057134,0.11319241,0.030514738,0.03058321,-0.06755188,-0.0058676274,-0.2862548,0.12484171,0.1392702,-0.13643955,-0.28903818,-0.18221296,-0.03311515,-0.38442585,0.12394785,0.364669,0.009435432,-0.084661305,0.02659577,-0.014667994,0.021200914,0.13767368,-0.08778172,-0.10229309,-0.15130238,-0.014004818,0.0037689053,-0.013201981,-0.4179107,0.05659202,-0.05214146,0.028480543,-0.12949651,-0.15384528,-0.04174505,-0.055658326,-0.18477227,-0.21371086,0.11675691,-0.015684176,-0.11695797,0.27306268,0.2490843,0.13919665,0.17034458,-0.10256488,-0.067383,0.011335971,-0.2835745,0.21233031,-0.12964301,-0.17993852,0.09843326,0.103258364,0.08640769,-0.008059271,-0.14102943,0.07563014,-0.025992554,-0.30836472,-0.15878761,0.25094238,0.02100252,-0.15236083,0.009447755,0.07883056,-0.06897563,0.031466074,0.12237483,-0.0354359,-0.02951147,0.18864116,0.011100654,-0.138246,0.06803665,-0.052631512,-0.1295875,-0.10677551,0.2092328,0.1621345,0.052783478,0.10873817,-0.23556612,0.027651945,0.2645517,-0.008806365,-0.021883877,-0.021124251,0.21952051,0.08949837,0.044038814,0.12511878,-0.11868943,0.12875436,0.031760916,0.20072189,0.040981542,-0.03968489,0.061027076,-0.14778061,-0.033690426,-0.108052164,0.13275428,-0.1509292,-0.06941561,0.12511486,0.10507035,0.03701807,-0.052778784,-0.013908115,0.0013101292,-0.08003902,0.12639983,-0.009346396,-0.074885204,0.24330741,-0.084537104,0.13316712,0.15820041,0.06268499,-0.13883325,0.12160828,-0.27566174,0.17160565,-0.23096472,0.1912903,0.036117718,0.10941,0.02055064,-0.052680764,-0.20414011,0.019342644,-0.050718915,0.19563097,0.064698234,0.22392172,-0.034240194,-0.02570452,-0.0385777,0.106602326,0.18916225,0.07811864,-0.12646413,-0.1491331,-0.0012684709,0.09398807,0.11026665,0.016963903,-0.027881699,-0.01670831,0.036712117,-0.1078112,-0.0334899,0.14271829,0.13532972,-0.073934644,0.1566975,-0.28252965,0.03493631,-0.12229423,-0.13029528,0.08712241,-0.092338346,-0.20189911,-0.019517837,0.044955496,-0.09372971,-0.025584307,-0.122819394,-0.019118628,0.019668791,0.111593954,-0.2780769,0.015487802,0.056876045,-0.0039035566,-0.099045366,-0.26165482,0.04628073,-0.19254917,-0.14190863,-0.05261925,-0.103294656,-0.052601777,0.071560815,-0.04252542,0.1145107,0.07126985,0.015111922,0.1847099,-0.31052682,-0.0042569702,0.11748551,-0.16809085,0.12688781,-0.32634234,0.12569334,0.044893395,0.003869431,-0.27541432,0.06078265,0.05476608,0.061453007,-0.26754877,-0.16863632,0.13821545,-0.34641194,0.14952391,0.058595758,0.14104758,0.12635933,-0.07633614,0.015888998,0.07122528,-0.091809,0.073024884,-0.15434465,-0.36620533,-0.11969308,-0.11065979,-0.16585304,-0.13117042,0.1128213,0.1862231,-0.19957508,0.09513353,-0.13822807,0.00034963724,-0.0567747,-0.1397363,0.039150815,0.1157583,0.19661938,0.023478523,-0.4105093,-0.100922056,0.114868015,-0.107437015,0.13663562,-0.088073984,-0.24856037,0.13347171,0.0070982175,-0.06348168,0.041509405,0.08632505,-0.039581776,-0.054033484,-0.007906214,0.1264923,-0.07124439,0.18361208,-0.02508351,-0.24943754,0.1914329,0.21793343,0.056777064,0.14885889,0.08860428,-0.15108912,0.11197146,0.2254073,-0.160077,0.11019049,-0.044177916,0.010222297,-0.27957454,-0.19501716,0.03668327,-0.3721579,-0.038897645,0.18566917,-0.041285984,0.044574518,0.056932747,0.0050887773,0.068442576,0.008090484,-0.13856477,0.13379127,0.028639961,0.09416176,0.0029395835,0.026592053,-0.16219106,0.18250549,-0.0645023,-0.06384805,0.061535124,0.05153361,-0.014450854,-0.01704871,-0.06174336,0.14759672,0.07646246,0.011279386,0.008102107,-0.047787502,-0.13913642,0.08938063,-0.054839745,0.05677534,-0.1854822,0.13466905,-0.0002443218,-0.09807442,0.07989117,-0.082404874,0.063572705,-0.15963268,0.105752036,-0.024957929,-0.113940954,-0.11601458,0.26658732,0.06420527,0.21404806,0.038002096,-0.12531666,-0.14433488,-0.09534379,0.064008296,-0.0021244825,0.095546275,-0.11894485,0.017293835,-0.2015634,-0.11078675,-0.08522898,0.13311492,0.046451736,-0.21407755,-0.17724612,-0.1432614,-0.22798577,0.0154239945,-0.01933265,-0.053812545,0.17235705,-0.23351085,0.029533869,-0.08590916,-0.09869682,-0.062067248,-0.19865346,-0.117793225,-0.025197802,-0.08639197,-0.061086148,-0.10895121,0.03945216,0.1704164,-0.018607393,-0.05486648,0.12007557,0.08610911,-0.06018931,-0.15353252,0.09284151,0.14275792,0.016499776,0.109957024,-0.23330753,-0.115892105,-0.041060664,0.049376003,0.08814785,0.08664622,-0.230362,-0.0027155057,0.037563432,-0.068625376,-0.002487088,-0.16519757,-0.14858805,0.13195767,-0.17113394,0.056732852,-0.115332514,-0.22830072,0.12387124,-0.15705046,0.21598591,0.16920395,-0.119944766,-0.058626138,-0.13668503,-0.091597445,-0.0034727035,0.012775289,-0.32389742,-0.21530102,0.038663145,-0.05421722,-0.42688778,-0.22459711,-0.2649911,-0.042952724,-0.15326312,0.09193073,0.073521666,-0.04868837,-0.028579285,0.047639973,0.10721063,-0.07854538,0.02390759,0.08306167,0.11111132,0.012691046,-0.010975531,-0.10194099,-0.095308416,0.08963882,-0.23003303,0.03880003,-0.15711923,-0.013778673,-0.04242666,0.12615028,0.055957485,-0.015864016,0.16635948,-0.065257534,0.025312439,-0.12470524,0.024011528,0.07495312,-0.023191834,-0.35405782,-0.13135654,-0.15004842,-0.106993325,-0.03513661,0.08472175,-0.24577609,-0.046124283,-0.1710224,0.13390088,0.075894006,-0.055801917,-0.31247142,0.029845128,-0.073545605,-0.024657132,-0.0151136285,0.11734723,-0.10718306,-0.10852661,-0.0292268,0.006153094,0.20981948,-0.121988446,0.106132284,-0.2788827,0.055652387,0.109579936,0.10148777,-0.11321787,0.048494276,-0.007123816,0.0013036382,0.01278136,0.13663307,-0.014217122,-0.0902954,0.21413086,0.028542062,-0.064452976,0.21807517,0.060120974,-0.014269878,0.05305825,-0.23127933,-0.09918048,0.08431089,0.2227,0.03823473,0.090837605,0.1213872,-0.2874542,0.0015580894,0.1259184,-0.10585571,-0.19051452,-0.22173911,0.27769932,-0.19294398,-0.10837629,-0.006828653,0.036448576,-0.058666166,-7.0109716e-5,-0.17583577,-0.04145324,0.012036199,-0.042124365,0.068641014,0.055843852,0.006367019,0.037955206,-0.0062660812,0.14191744,-0.26317284,-0.16786611,-0.008192297,0.0067859595,0.24765195,-0.002951323,0.16949758,-0.03541849,-0.15208933,-0.10023793,0.154511,-0.1612172,0.09880326,-0.14119801,-0.07797169,0.24007894,0.09963564,0.07139876,-0.055226892,-0.06412513,0.03781207,0.10319122,0.03027157,-0.14619648,-0.012674442,-0.14378822,-0.017456286,-0.17066187,-0.12904195,-0.12816708,-0.020885378,0.12994637,-0.003012208,-0.092377335,0.29278222,0.006555557,-0.06536654,-0.08384982,-0.3181972,0.087213986,-0.11984391,-0.0017820696,0.103535205,-0.15594256,-0.006137771,-0.004572286,-0.0634344,0.13976125,0.0982092,0.10337715,-0.18987483,-0.23687133,-0.20674033,-0.21568204,0.18952817,-0.09010406,-0.18525442,0.17684124,-0.14603564,0.10479755,-0.055371843,-0.06357993,-0.076873414,-0.1224877,-0.13874486,-0.015897706,-0.09663244,0.105362855,-0.026411317,0.021065874,-0.13550201,-0.21452929,0.19575222,-0.038810384,-0.054834723,0.12546273,-0.14027306,-0.08632932,0.14935338,0.022445772,-0.33148456,0.025052631,-0.03166571,-0.16067712,-0.06464475,0.08451848,0.22120868,-0.28616467,-0.012995595,-0.13211085,-0.1315707,-0.052868694,0.18679215,0.08138862,-0.1436335,0.12192717,0.06500081,-0.05857182,-0.06216099,-0.063799255,0.0040626414,0.061459295,-0.30348083,-0.1502742,0.0023493583,-0.1373227,0.035398304,-0.0784249,0.19661,-0.019972308,0.059853505,-0.016434105,-0.14831625,-0.025626544,-0.11213749,0.012206948,-0.002551659,0.034176033,0.005156248,-0.13660032,-0.18229668,-0.32661307,0.0065015103,-0.035040006,-0.17623416,0.21568738,0.07592709,0.11586838,0.060199928,-0.09542279,-0.3726846,0.07167629,0.09529243,0.23141143,-0.26721275,0.070777684,-0.17366697,-0.17006928,-0.36139473,0.07113798,0.057591874,0.045728203,-0.02406846,0.060865622,0.03878223,-0.1122743,-0.14790614,-0.108512424,-0.17194723,-0.043732777,-0.08480493,-0.0024000444,0.0975463,-0.104927175,-0.10521501,-0.17233965,-0.0016857191,0.06241236,0.17137721,-0.1402675,0.10226244,0.054083783,-0.14489044,0.10015879,-0.13092057,-0.049554717,0.16700675,-0.013495301,-0.053562757,0.117692836,0.0074941767,0.25250462,0.1379293,0.033778008,0.16082369,-0.053017177,0.014146068,-0.030786252,-0.02892787,0.20776476,0.14780049,0.17675878,-0.20854765,-0.090287745,0.03930448,-0.036298517,0.041461088,-0.16851465,0.15579471,-0.046129383,-0.0034219585,0.15093867,0.009053267,0.09876469,-0.12521571,-0.053741828,-0.36386567,0.09115731,-0.058649935,0.07020819,-0.14459041,-0.0047963816,-0.05352477,-0.3311697,-0.05134328,-0.012823769,0.04241983,0.1378325,0.13665336,-0.12794144,-0.25730035,0.08267552,0.0020592893,-0.013246961,-0.28981835,0.15358649,-0.06380317,0.07473964,-0.053874195,-0.13548036,-0.23272064,-0.05053391,-0.10373625,-0.12816976,-0.1090453,-0.0006083547,-0.13936569,0.005485601,0.05389137,0.27154642,0.26336408,0.09532343,-0.24690701,-0.06451666,0.0005117408,-0.22812004,-0.058152497,-0.110648386,0.13309093,-0.20378326,0.22552264,-0.30580822,0.071724005,0.058441557,0.14755757,0.09808976,-0.10519594,-0.0824179,-0.05028822,0.108141765,0.067232706,0.0943873,0.15189739,0.15611278,-0.14541966,-0.25051305,-0.20941868,-0.008512593,-0.018774996,-0.07643665,-0.20987019,-0.3600709,0.21817853,0.24721588,0.053419136,0.104303025,0.023665898,0.0058535244,-0.08598467,0.08823349,-0.1899148,-0.1912246,-0.026937304,-0.1275251,-0.121762395,0.114301406,0.054107927,-0.08518953,0.024070013,0.05987069,-0.16479869,0.10649064,4.489402e-5,-0.11016223,-0.15328047,0.01046395,-0.13762072,-0.084091105,-0.06902474,-0.058318853,0.0023182486,0.090576254,-0.16764432,0.026138423,-0.11463667,-0.3436692,-0.0711725,0.06790051,-0.11175987,0.28070217,-0.0101196,-0.07623053,0.15065172,0.18083577,0.06809806,-0.1170749,0.0045351693,0.00687397,0.0052213348,0.17823596,-0.2714887,0.00793223,0.09335928,-0.11515745,-0.017815238,-0.08347921,0.25438443,0.032147106,0.033788882,-0.113773935,0.11707105,-0.053656057,0.031089637,-0.094372384,-0.20693868,-0.15673509,0.15732293,0.10720143,-0.13194974,-0.092253976,0.08179822,0.0058185416,-0.16833371,0.08690638,0.028191132,-0.13536052,0.17736664,0.009797758,-0.32288188,0.11776251,-0.29150018,-0.12139781,-0.046460837,0.13220274,0.008761589,-0.009838552,-0.0134683885,-0.1449921,-0.15160453,-0.22909766,0.032356005,-0.030627895,-0.17225884,0.18848495,-0.03147994,0.0035014723,0.047827143,0.030126408,0.20939714,-0.009862586,-0.3933216,0.038509674,0.17731483,-0.09430764,-0.2158902,-0.18542129,0.19610095,-0.23185678,0.066822246,-0.12543714,0.016535925,-0.038852077,-0.033273112,0.09552184,0.06210837,-0.023192784,-0.012132932,-0.045320712,0.010547609,0.019798636,-0.1288723,0.119359404,-0.055747014,-0.020067824,-0.20721215,-0.13140477,0.14760461,-0.11662664,-0.014793542,-0.062420562,0.08876884,0.1528742,-0.008470537,-0.0259722,0.2465793,0.011881893,0.06750847,0.053915013,0.03774193,-0.18362692,-0.13348825,-0.096997574,-0.0864092,-0.19685657,0.035999164,-0.19337621,-0.1500105,-0.13037449,-0.20602785,0.08383161,-0.09268749,-0.0031477455,0.09678964,0.1356894,-0.20370887,-0.09789219,0.011807967,-0.18052506,-0.27402553,0.13660619,0.02410704,-0.13171719,-0.124855906,-0.022870952,-0.013271143,-0.114041485,-0.09394941,0.16313814,0.051794242,-0.15565768,0.08512299,0.1984816,0.23292036,0.03708143,0.15629236,0.15164746,0.16384886,-0.06131483,-0.024441268,0.106364354,-0.020146323,-0.055103846,0.01634728,0.09799677,0.12717064,-0.091303565,0.09846868,-0.34557402,0.13313906,0.12556848,-0.023462774,-0.3473365,0.005679484,-0.40327114,0.10298791,-0.10149056,0.13205796,0.008054101,0.11199929,0.11802095,-0.37100592,-0.044049855,0.055102862,0.044815887,-0.085577264,0.062413197,0.010068114,-0.092911206,-0.39701056,0.034536235,0.10848214,-0.051693227,0.28453532,0.00019455132,0.042460896,-0.31631646,-0.001623823,-0.13174266,-0.014718493,0.07609145,-0.03805409,0.13265544,0.11675145,-0.0106131695,-0.145272,-0.14967485,0.046385452,0.22190894,-0.042823296,0.14238063,0.01952148,-0.36440632,-0.20404874,-0.004542465,0.17400415,-0.16077136,0.12383076,0.2730364,0.012235729,0.13438559,0.01891419,0.14298736,-0.02753297,-0.09001587,-0.3133196,0.16712278,0.2548288,0.095595926,0.07782873,0.037110962,0.05776293,0.23907942,-0.10932819,0.07500286,0.16222501,-0.2715862,0.20445299,-0.13659805,0.23300892,0.10374948,-0.004391798,-0.04724413,-0.036847066,0.10352388,-0.07792648,0.046729404,0.0979269,0.21260975,0.11525016,0.13273935,0.018352468,0.07413056,-0.022866443,0.1237472,-0.025664087,-0.17186531,-0.16654375,0.026600953,-0.030506939,-0.02566643,-0.12766081,0.08936017,-0.29637623,0.023352176,0.015118571,0.10605455,0.047384333,-0.13164434,-0.15802762,0.0123829665,-0.041516013,0.067272656,0.06755252,0.10537735,0.020372687,-0.054956224,0.1235347,-0.016706059,-0.03285193,0.08911529,-0.07897103,0.01899554,0.057461496,-0.04848591,-0.03904432,0.20729889,-0.38775095,0.04834555,0.13391791,-0.024208158,0.20569465,-0.085154034,0.013466222,-0.060016353,-0.06264124,-0.12573498,0.09444372,-0.19658038,-0.26882038,-0.16284129,-0.087451205,-0.03223275,-0.3371584,-0.049500745,-0.36013538,-0.15086886,-0.09696448,0.13006496,0.0641238,-0.03824141,-0.087812856,0.11550191,0.011175673,-0.112345554,-0.23546243,-0.1374182,0.16353413,-0.012660282,-0.3981875,-0.02135945,-0.031780742,-0.16296688,0.1345582,0.10109085,-0.06981539,0.018383712,0.2135525,-0.06291626,-0.05227618,0.14360563,-0.28268677,-0.0069905287,0.07643941,0.213622,0.03365052,0.07850355,0.06441976,-0.1772066,0.14987926,-0.1010111,0.024891663,-0.07597025,0.1402072,0.092258304,0.08259443,-0.31076792,-0.006811375,-0.06469239,-0.09336945,-0.19303876,0.11695265,0.29787338,0.08858639,0.1137254,0.20749643,-0.026351849,0.20676081,0.18677397,0.021734672,0.022545826,-0.1451507,-0.15285598,0.0059239403,0.23345655,-0.0261358,-0.17867202,0.19908887,-0.04704694,-0.27224883,-0.12571149,0.016273372,-0.14124383,0.005699236,-0.09155108,0.124349356,-0.080660455,-0.18314649,0.07454174,0.09482996,0.19409765,0.009991424,0.23144883,-0.058061585,-0.10300986,0.1223072,-0.15763752,-0.011426014,-0.059072506,-0.17468138,-0.0021030195,-0.014065367,0.06737018,-0.049965005,0.031208424,0.12092165,0.034316897,0.09531939,-0.18930325,-0.2793772,-0.12172668,-0.17033756,0.0342902,0.059375606,0.20733087,-0.04473314,-0.114453755,-0.041214835,0.15551934,0.12064419,-0.04366402,0.020924257,-0.04514717,-0.106645115,0.074222445,0.17974693,0.112876415,-0.12330875,0.015195296,0.011311345,-0.020934634,0.1360504,-0.14296652,0.08850186,-0.18384051,-0.0743096,-0.07372487,0.1267353,0.14748576,-0.012986678,0.0067280256,0.08271563,0.0781943,0.038748678,-0.11964165,-0.08128987,0.21398742,-0.18375006,-0.14242849,-0.020472463,-0.07143732,0.059446875,0.106736936,0.031237027,-0.061045762,-0.09566881,0.018424336,0.2327199,-0.029762676,0.17752568,-0.054505154,-0.09687395,-0.058507588,0.012446606,-0.0020882988,-0.100649044,-0.09391823,-0.10276965,-0.008002236,0.13827245,0.07297014,0.09612715,-0.2437144,-0.19758514,-0.21446727,0.09419815,0.17153844,-0.0636912,0.089154206,-0.017356468,-0.037018467,0.2499296,-0.119243994,0.23905377,0.2351749,0.06880947,0.15947752,-0.036560543,-0.05031348,-0.12333116,0.03791925,-0.09645914,0.013459743,-0.06782254,0.18606047,0.016748473,-0.13102625,-0.09286018,0.1823975,0.0637332,-0.13226043,-0.20441903,0.099424034,0.120505445,0.15896331,0.051566165,-0.102755085,-0.040887948,-0.14131023,-0.2265587,-0.078982666,-0.01823024,-0.10427808,-0.031833433,0.2519891,-0.07563468,-0.11972015,-0.029932233,-0.15785399,0.10619848,0.26338547,0.28978604,-0.038077842,-0.0616467,-0.09706656,0.10947437,0.033766713,-0.111639015,-0.16380207,0.18993899,0.08839962,-0.16518836,-0.045855608,-0.27374476,-0.023582665,-0.029965736,0.18004684,0.23184274,0.26389775,-0.015531589,-0.118222356,0.034704883,0.13179302,-0.1545905,-0.094371706,0.14609888,-0.013695592,0.10851464,0.1050688,0.03868226,0.09905845,0.04656645,-0.032017455,-0.116091795,-0.066606,-0.0176387,0.0076500853,-0.0311201,0.04742505,0.13977225,0.090763815,-0.11447793,-0.1187029,0.029272238,0.0778426,0.24557385,-0.028607568,0.039331432,-0.14987326,0.15346266,0.14497773,0.14428595,-0.09215228,-0.08488568,0.023524612,-0.039706055,-0.036372975,0.040982712,-0.14452171,0.0984102,-0.052137922,0.016951503,0.0031072078,-0.29809934,0.014239362,0.24864839,-0.13458209,0.08095652,0.101971805,0.09328626,-0.22275797,-0.12807046,-0.32866502,-0.34647825,0.001369266,0.053400412,0.17548122,-0.18040127,0.010352077,-0.016448032,0.0148289725,0.148893,0.004046675,-0.024402829,0.15300642,0.17671965,0.017242903,-0.14330761,0.06670445,0.18434176,-0.22765356,0.06528953,0.12289457,0.080573216,0.13054384,-0.048677254,-0.11987584,0.11990899,-0.012775323,0.07040267,0.10848797,0.03932454,0.26256296,-0.025861392,0.16824327,-0.06264815,-0.07612614,0.030348646,-0.13060106,0.043304835,-0.20493326,-0.073916726,0.17144266,0.17162861,0.221725,0.26420808,-0.087727435,-0.06492565,-0.033752132,-0.01504051,-0.16660312,-0.024586435,-0.07763112,0.09004774,-0.15885703,0.108088925,-0.3107408,-0.18062185,-0.04944002,0.10240379,0.00017777635,-0.24824661,-0.045739,-0.025064152,-0.1220251,0.052933395,-0.12594013,-0.08847617,-0.0649961,-0.110918224,0.06374611,-0.12161925,-0.110810794,0.07799596,0.06014944,0.14946546,-0.002920559,0.13300271,-0.14260279,0.04510129,-0.13729358,0.15530542,0.016239587,0.15706198,-0.021826712,-0.050198372,0.042230066,-0.23609538,-0.05498092,0.102180354,0.20037481,-0.1463666,0.0014468117,0.025466038,0.057369266,0.07218814,-0.09421438,-0.12826546,0.06140113,-0.14803292,0.16449593,0.12123228,-0.13422051,-0.06247484,0.18352029,-0.12104003,0.15085325,-0.35600248,0.06790019,-0.21025203,-0.10295387,0.1374647,-0.0027510333,0.17453544,-0.024015013,-0.021230415,-0.11784602,0.047464624,-0.015828464,-0.12564644,0.09890013,0.20018053,-0.06414024,-0.27734604,0.007020251,-0.15036224,-0.12646118,-0.14616503,0.083121285,0.14404525,0.108748816,0.061960027,-0.08573874,-0.014728738,0.25665304,-0.2328874,-0.07956677,-0.14711381,0.10831007,0.15199289,-0.07702432,-0.18440314,-0.18677248,0.06179714,0.040724553,-0.09913011,0.07584825,-0.13955593,0.099639885,-0.13222107,-0.115499526,-0.08856276,-0.04587116,-0.0014152239,-0.35875154,0.021134166,0.24232942,0.19454327,-0.11428261,0.33073932,-0.3008345,0.11582283,0.01043358,0.020167464,0.07584951,0.008472206,-0.10736895,-0.1893015,0.270328,0.08195065,0.0057375645,0.31163678,0.061406523,-0.37262678,-0.015018044,0.06607076,0.10165233,-0.03028781,-0.16349389,0.029066008,0.013059434,-0.12951641,-0.11133187,-0.071345754,0.29927817,-0.011332328,0.23127097,0.018901687,-0.07407351,0.15702699,-0.09396084,0.020097142,-0.07283147,-0.17629099,0.024995934,-0.018586155,-0.13084267,-0.11065482,-0.16717994,-0.047538813,-0.026777774,-0.15380466,-0.002275202,-0.20771453,0.099693425,0.11806086,0.122271776,-0.08274329,-0.04469043,0.09788788,-0.07427014,0.1667548,-0.26463974,-0.012527513,0.068982705,0.13504569,-0.016897026,-0.09185541,-0.14140083,0.08707843,0.070595905,0.042155657,0.112891115,0.05027875,0.09667237,-0.046570987,0.119640544,0.018559936,0.12573546,0.0636152,0.009578884,-0.110854596,0.09719178,-0.3061633,0.14648275,-0.06795823,-0.05082152,-0.0799377,-0.10122696,0.15644209,-0.1551069,0.21089086,0.15097737,-0.15465312,0.031290233,-0.056354206,0.0047528003,0.0025263175,-0.15881868,0.1719,0.09213701,-0.20809858,-0.1505671,-0.19219293,-0.06309386,-0.15190841,-0.02132046,-0.046146233,0.2527953,0.04753417,-0.09794256,0.043419152,-0.3574904,0.031568952,-0.16109128,-0.028107632,-0.025031518,0.22672835,0.05287473,-0.09393569,-0.07927727,-0.021656264,0.06826079,0.056587595,0.034575265,0.16713671,0.19875035,-0.08347571,-0.25651124,-0.09090612,0.01210865,-0.037544936,-0.2512221,-0.13913047,-0.0024155877,0.26247895,-0.109548606,-0.061661642,0.11841696,-0.10934169,0.016254146,0.06381332,-0.17466545,-0.049107876,0.060027964,-0.012593839,0.16579436,-0.11408507,-0.1865009,0.007196015,0.04107561,-0.15292354,-0.020961083,0.17092319,-0.12594977,-0.04688286,-0.1686533,-0.23631433,-0.11719865,-0.18283434,-0.07356492,-0.009056059,0.093263686,0.058870383,-0.19040887,0.10035543,0.09052167,0.28507414,0.16787262,-0.00926929,-0.003315005,-0.074497476,-0.0263009,0.19740574,0.04499269,-0.121560566,0.044760756,-0.09222864,-0.12430532,0.084950335,0.1615326,0.042301927,-0.113552816,-0.15158468,-0.14133385,-0.04491578,-0.018541196,-0.13732888,-0.0022638326,0.15754232,0.11978332,-0.1066924,-0.17419544,-0.0702596,-0.29225555,-0.15448083,-0.19029318,0.124466375,-0.034725897,-0.11242762,0.22281174,-0.06760827,0.01904899,-0.13808115,-0.042429946,0.02093351,-0.22290623,0.119406894,-0.031260222,-0.020760646,-0.0032594248,-0.031008417,0.13619514,0.029521575,-0.31019637,0.11647124,0.08608747,-0.110189885,0.18297504,-0.064676344,-0.1870547,-0.011610772,-0.0927297,-0.2709999,0.024153579,0.021879824,-0.12640361,-0.15892284,0.0070506097,0.1867356,-0.2577979,-0.121704906,-0.0154013205,-0.08969918,-0.10114327,-0.11999534,0.14559849,-0.07061358,0.002908553,-0.14656617,-0.035459932,-0.03148799,0.02233062,-0.075000405,-0.0966442,-0.46120942,-0.09694421,-0.12668788,-0.18882933,0.13548927,0.060991343,-0.025218468,0.055598114,0.18777712,-0.18140385,-0.054299455,0.19204791,-0.16287345,-0.079157546,-0.088277645,0.27106413,-0.0927843,-0.2130104,-0.15245944,-0.15393585,0.16257635,-0.11719446,-0.001597597,0.09072806,0.029026214,0.16705227,-0.17535216,-0.11397531,-0.23373373,-0.10733374,0.12586114,0.17348318,-0.51940125,-0.05050468,-0.00033024722,-0.16125795,-0.21377273,-0.11845334,0.023075469,0.12546904,0.24964035,-0.036489528,0.1413218,0.023040898,-0.095514365,-0.05635696,-0.3023908,0.04221477,0.039334614,-0.018301865,-0.034344558,-0.15096329,-0.022230016,0.005907222,0.04556794,0.10812066,-0.093663864,-0.044133198,0.116047315,-0.112457424,-0.2943282,0.065390214,-0.07066546,0.14756459,0.060811378,0.029343134,0.056820944,0.06929595,0.061664924,0.1627019,-0.19170435,0.057716675,-0.075312175,-0.017664196,0.02368858,-0.083397105,-0.15107898,-0.18757746,-0.0039347345,-0.051368456,0.064873055,-0.102208905,-0.13670202,0.082937896,-0.104379766,0.10692406,0.092209905,0.12493697,-0.006028295,-0.16964447,0.14201543,-0.113789424,0.15573613,-0.09935804,-0.09279639,-0.26201037,-0.052003145,0.061159506,0.18393016,0.05547295,-0.081896596,0.18794973,-0.31727523,-0.16334258,0.035673223,-0.11777381,0.09197259,0.08157405,-0.044274494,0.14383487,-0.31551006,-0.17319518,0.3329627,-0.038467217,0.07470347,0.031189704,-0.049791314,-0.09258917,0.01571629,-0.3203633,-0.22100316,-0.11500738,-0.122179255,0.14971744,0.24664949,-0.1272965,-0.038852792,-0.0006826968,0.094005786,-0.09085111,0.03530716,0.038108084,-0.022080634,-0.12423935,-0.055933025,0.07928148,0.1621172,-0.1488507,-0.015714824,0.3972871,-0.011319528,-0.1842067,0.08156289,0.015061391,-0.14295043,0.035558373,-0.15232505,0.029750265,-0.1870474,0.08124099,-0.041875675,0.06418296,-0.052212287,0.044329394,0.22157541,-0.15514737,-0.07946249,0.015038646,-0.036542024,0.23513006,0.11609103,0.051592745,-0.1080497,0.12826304,-0.06021584,-0.110641986,0.04587028,-0.06883273,0.095879816,0.110118166,0.093323186,0.10511973,-0.06777205,-0.042441063,0.015490766,-0.098114245,0.12852536,-0.04946822,-0.07341489,0.053128976,0.087962635,-0.07095812,0.035213355,-0.08851203,0.025288984,-0.14053345,0.02957199,-0.07785344,-0.24268268,0.13951634,0.12859127,0.14262271,0.025315572,0.10902087,0.024683544,0.041529033,0.03932094,-0.23343353,-0.09708028,-0.17888452,-0.18432596,0.16805571,0.017853256,-0.120139845,-0.0698946,-0.23734128,0.15463458,0.14229047,-0.47647208,-0.17169347,-0.10737076,-0.08164957,-0.0012233985,0.09801815,-0.023435086,-0.07891373,-0.07892582,0.28029123,0.015353381,0.114421606,-0.1629228,-0.032816153,0.22278018,0.19736491,-0.43855342,0.13527258,0.04515145,-0.11902833,-0.0036725237,0.110423006,0.30781582,-0.06862421,-0.041089453,-0.02789375,0.025253724,0.17922492,0.08647534,0.098894075,0.22491372,0.090870455,0.021435909,-0.03089449,-0.119923525,-0.029304035,-0.042366743,0.31297877,0.16297415,-0.18654737,0.15784094,-0.006235218,-0.006242038,0.061268844,0.0609549,0.061494898,-0.07475365,-0.048324317,0.04016601,0.16359371,0.14880858,0.036165614,-0.038962703,-0.09242627,-0.05731174,-0.12474924,-0.134955,0.20331687,-0.18123381,-0.11385637,-0.0065083876,0.08542279,-0.043658487,-0.12070457,-0.14985399,0.03240651,-0.083594754,-0.103037775,-0.055878464,0.06938281,0.128714,0.14072365,-0.18362913,-0.09821162,-0.11543671,-0.13752848,0.027861152,0.0140165975,0.08170189,-0.0056598224,-0.11683973,0.04061781,-0.14927424,-0.022496082,0.22542559,0.07838138,-0.11654445,-0.06004211,0.12116726,0.1665434,-0.2727521,-0.048085146,0.07381354,-0.10601787,0.006928375,0.14318094,-0.23484075,-0.021512596,0.07277296,-0.21386874,-0.003506409,-0.0734173,-0.0070000207,-0.11276309,0.0070967167,0.07784773,0.05247827,-0.021240039,-0.037804954,-0.020736486,-0.12651159,-0.08080044,-0.10985998,-0.13261265,-0.0151187545,0.081195444,0.006892082,0.1714736,0.11033183,-0.15599605,0.03906224,0.14138748,0.21711978,-0.10034932,0.04799759,-0.17328785,0.0328565,-0.19422293,-0.22051497,0.096881956,0.050713345,-0.1221226,-0.019059092,-0.12464849,-0.025596134,-0.039873987,-0.06574702,0.14056951,-0.08030379,0.058232978,-0.090758726,-0.06538015,-0.16469313,-0.06281456,0.09512196,-0.013675458,-0.11013071,-0.026156057,-0.07537588,-0.3506581,0.10170234,-0.001946069,-0.091415726,-0.082684875,0.16406392,-0.07077813,0.27075827,-0.1427791,0.26293895,-0.17306133,0.042619705,-0.13146515,0.062674314,0.013975207,-0.031691227,0.36392266,-0.012659892,0.004269467,0.2770043,-0.06857333,-0.043170508,-0.30223933,0.058581267,-0.12988107,0.0149959605,-0.044752408,0.18224142,0.31878996,0.24906515,-0.18024231,0.045445368,-0.17507324,0.23410952,-0.11483042,-0.11675346,0.038594358,-0.06650809,0.017761145,0.0576081,-0.15092115,-0.12146405,0.110582605,0.031118432,0.04322236,-0.026574045,-0.14099191,0.12596928,0.06473236,-0.22002111,0.08823296,0.065960504,-0.22501174,-0.1386178,-0.09435161,-0.035412364,0.025970219,-0.04635484,0.03861291,-0.005136709,-0.08078451,-0.0550553,-0.11340765,0.114240706,-0.18329735,0.038122464,-0.10105695,-0.06822582,-0.1252075,-0.13105503,-0.10019007,0.020790325,-0.14879167,-0.15891947,-0.13894321,-0.29336482,0.008284413,0.05428304,0.088633716,-0.15623559,-0.12538345,-0.07208152,-0.0039393166,0.048546404,-0.035505928,-0.11919415,-0.14043966,0.17802277,-0.08411534,0.07794079,-0.29411787,-0.11471624,-0.3110347,-0.017259466,-0.12866396,0.11322072,0.01104637,-0.032720022,0.115774214,0.071563296,0.20970607,0.20304364,-0.092838846,-0.020573981,-0.02284342,0.21567667,-0.27115637,0.17064825,0.10188062,-0.07803107,-0.12940066,-0.08384418,0.033413567,0.03760401,-0.061758216,-0.037142053,-0.21587867,-0.0906469,-0.03867945,0.10281815,0.26503265,-0.21015917,0.03865184,0.15895729,-0.23596886,0.1514872,-0.023843853,-0.0024064207,-0.15056486,0.007803469,-0.0832796,0.13489354,-0.10646374,0.058018424,-0.038203146,0.16383998,0.022968752,-0.034718927,0.03812722,-0.005193883,-0.21711896,0.1904252,-0.16879098,-0.110786684,0.16602613,-0.06486221,0.12270037,-0.1528813,-0.17636697,0.11211714,0.034257244,-0.16675822,-0.15620424,-0.097786866,-0.082929745,-0.07729671,0.05958804,-0.015732769,0.0812215,-0.052697167,-0.052771486,-0.13264585,-0.12902781,0.13944364,-0.08902696,0.19056103,0.23506325,-0.15619269,-0.33457118,0.07214143,-0.12288521,-0.023320084,-0.061684012,0.056084372,-0.15603617,0.0002187248,0.0853173,-0.10594679,0.016344056,-0.04836302,0.17623694,-0.15725945,-0.010762887,0.0433907,-0.21706149,0.14022353,-0.06031409,-0.050013088,0.038108896,0.24486288,-0.084976815,0.018085212,-0.17150843,-0.12962931,0.044934798,0.028664201,0.05663729,0.14058281,0.038957044,0.13686155,-0.3813321,-0.040845737,0.008763956,-0.35223776,-0.15645239,0.03249482,0.09873393,-0.034898866,-0.022966405,0.10740587,-0.03997801,-0.07721054,0.04895728,-0.091429085,-0.14301018,-0.14896671,0.14587437,0.11678495,-0.17007881,0.20781001,-0.24848196,-0.08245338,-0.08050041,0.09914336,-0.054806795,0.13025095,-0.11399915,0.07452356,0.2951052,0.08171892,-0.07962592,0.12195583,0.10122751,0.12567143,-0.15343563,0.084701665,0.04110865,0.11139293,-0.04305025,-0.093192875,0.12457684,0.2026143,0.07952015,-0.0030537012,-0.3794756,-0.09668359,-0.071023166,-0.051037997,-0.022072686,-0.08507667,-0.1024343,-0.030709852,-0.31438392,-0.032613914,0.06588835,-0.109053746,-0.20444748,-0.21671908,-0.042338755,0.1297051,0.14902636,0.0036776825,0.064039744,0.19351617,0.002425735,-0.31334016,-0.02156359,0.2345174,-0.047903348,0.11008356,-0.048481893,-0.06221306,0.03738065,0.06408425,-0.039773155,-0.2409523,-0.13691042,-0.13108376,-0.07109882,-0.19791475,-0.02960911,-0.0976387,-0.02732157,0.023005564,0.12720011,0.2164623,0.0841941,0.081837796,-0.14453521,-0.005180029,0.11395914,-0.14764714,0.046963733,-0.11670255,0.19510065,-0.12975389,-0.0994466,-0.0077628167,0.15062988,0.088540256,0.13499673,0.0137375,-0.09609186,0.07018848,0.11780003,-0.12186295,0.3086042,-0.151882,-0.04132767,0.054814026,0.06583824,0.17278671,-0.19203131,-0.034531094,0.1906074,-0.048898086,0.30052075,0.30493906,0.00029488682,-0.04188266,0.038640976,0.064829975,0.09660768,0.039773032,0.028682724,-0.055123,0.014334636,-0.12029664,-0.06594117,0.015060838,-0.11645686,-0.17757623,-0.008184536,0.04647122,0.108939804,-0.12505779,-0.027215343,-0.01768009,0.05887209,-0.21757415,-0.17586522,-0.036356788,0.047433008,0.08480334,0.106841035,-0.02876449,-0.24134511,0.10878594,0.04026566,0.0005750416,0.05691811,0.05866128,0.27581358,0.018899215,0.04499322,0.12117632,-0.06866254,0.26175508,0.004420197,0.14541903,0.19914284,0.012906165,0.16746274,-0.008848237,0.032246757,0.033811856,-0.0062114317,-0.09047902,-0.14942397,0.29894558,-0.15195847,-0.059410833,0.09823619,-0.030418584,0.0056549157,-0.2108663,-0.06237975,-0.19217128,-0.114338264,-0.016172241,0.009255559,-0.06957639,-0.14325663,0.037581224,-0.5695821,-0.13195962,-0.06633788,-0.14364709,0.04606658,0.23135749,-0.3657874,0.015552244,-0.021688182,0.038237434,-0.053842463,-0.11120819,-0.018078962,0.15083727,0.008010401,-0.15292275,-0.12703943,-0.2682861,0.1337464,0.019283626,-0.031237384,0.12316316,-0.12709165,-0.045612466,0.14694127,-0.103725955,-0.10714638,0.24902512,-0.013071688,-0.038233064,-0.017799685,-0.032652557,-0.46048594,-0.07529206,0.11064416,0.12128983,-0.07622628,0.18952473,-0.018300015,0.023099817,0.048441228,-0.14372393,0.061931286,0.14540729,-0.2858187,-0.31796834,0.22637309,0.03335823,-0.074583046,-0.07336586,-0.20370203,-0.098035544,-0.3236463,-0.0838125,-0.06252923,0.16558184,-0.35066816,-0.23748311,-0.3888962,0.221467,-0.0012111041,0.09175094,-0.06703842,0.21466607,-0.081555314,0.0012190623,0.10724123,-0.045303516,-0.19386029,0.11014499,0.109516785,-0.032975268,-0.12891927,0.108827926,-0.06571335,0.05403467,-0.03971727,-0.22116698,0.18053523,-0.1795731,-0.11856247,0.025066469,0.058229953,-0.087199,-0.11011272,0.0767435,0.080441535,-0.052961636,0.10552479,-0.14214411,0.1289011,-0.12634985,-0.2233149,0.13904625,0.05444022,0.08811877,0.14702068,-0.12010861,-0.12682875,0.31290317,-0.12042997,-0.29451534,0.0995674,-0.058923963,-0.03275271,-0.37166628,0.14235058,0.2042032,0.06844553,-0.2936335,0.0071746674,0.07857447,-0.09793013,-0.16105182,-0.06266306,-0.09942161,0.22045511,0.02124023,0.017650567,0.1051355,0.29749358,-0.17839469,-0.09141087,-0.16013661,0.2352384,-0.15460894,-0.11525172,-0.091918446,0.045537245,0.044167217,-0.032656103,0.06303124,0.16019,-0.015237095,0.10736063,-0.17372015,-0.14858018,-0.016533107,-0.086663194,-0.19981934,0.2661572,-0.18821965,-0.03998405,-0.06336406,-0.17980058,-0.1325347,0.25170904,-0.20064446,-0.0064992877,-0.0682758,-0.011584166,-0.31139538,0.09638859,-0.099028535,0.043290615,0.0014534771,-0.18445894,-0.18493982,-0.08249493,0.060339052,0.17531541,-0.17880194,-0.018763049,0.20312601,-0.08081313,0.064253025,-0.35292363,0.062618434,0.26247695,-0.02640163,-0.34708667,0.12083685,0.07866124,0.2981737,0.032912686,-0.19966991,-0.1945887,0.07403132,-0.15938552,-0.046853583,0.030308653,0.20711161,-0.05528837,0.0697662,0.10755403,-0.40654734,0.11987318,-0.102903254,0.030705841,-0.1055108,0.1339588,0.034313235,-0.08208719,0.012644348,-0.06803348,-0.2608392,-0.4076537,-0.30925542,0.014622455,-0.10230052,0.07194771,0.11806837,0.023185845,0.32242486,-0.021042353,0.080026224,-0.015175563,-0.11592799,0.02141662,0.08363373,0.0625084,0.22054137,0.07126383,0.10275771,0.115275845,0.086387284,-0.006889196,-0.037018128,0.20956959,0.10359591,0.011452847,0.091648184,0.11350095,0.08258225,0.009939972,-0.025067544,-0.09169625,0.06793088,0.094938,-0.0106588295,-0.07500623,-0.15427567,-0.31555933,0.0036740508,0.069563724,-0.27037576,-0.07871063,0.07217329,0.05094954,-0.050738204,-0.10179295,0.1328481,0.0793673,-0.17898709,-0.09052247,-0.07843499,-0.062978454,-0.0149589535,0.059798714,-0.039740704,0.05716223,-0.15641257,-0.037471414,0.10653326,-0.124228515,0.009176317,-0.20562942,0.18173179,-0.006570628,0.23146142,-0.19442955,0.036867272,0.013103658,0.05140335,0.10753058,0.21250804,-0.019353839,0.19049224,-0.01915742,0.15999565,0.042737972,-0.02303304,0.36873606,-0.071731634,0.0149154,0.12467916,-0.016049188,-0.028952803,-0.170799,0.021473844,-0.022815345,0.002782012,-0.17268214,0.07777479,0.1680111,0.06299186,-0.108599834,0.041274764,0.079685956,0.18057773,-0.015316052,-0.07094478,0.2238471,-0.0024591603,0.05750171,0.115307614,-0.1401173,-0.13499297,0.15070088,-0.14449307,0.17407233,0.19342858,-0.03230234,0.12978153,-0.008753316,-0.19126125,0.15890615,-0.111487724,-0.24412951,-0.0008806584,0.013278768,0.17796591,0.08446661,0.10914197,-0.07267737,0.056910153,0.19330432,0.064877845,0.046119377,0.17015386,-0.02541193,-0.116104335,0.11188314,0.11324809,0.09377045,-0.14788708,0.05422381,-0.118488684,-0.051929463,-0.1948865,-0.066275924,-0.10753847,-0.046744443,0.042162385,0.08256639,-0.00036284595,0.0057921605,0.08920109,-0.13648918,-0.102842286,-0.0011262306,0.034636293,-0.16313015,0.04563954,-0.15376405,-0.013923671,-0.31051195,0.16007425,-0.14198123,-0.025664581,-0.013700359,-0.041498963,0.043732114,0.12112917,-0.068631,0.16993581,-0.04222113,0.096349984,-0.14431202,0.23251738,0.028338384,-0.05497508,0.0036475656,0.08209831,0.12573044,0.21342888,-0.0015610862,0.01619111,0.03679339,0.23329315,0.10824337,-0.16158105,-0.034674857,-0.13376673,-0.022632698,0.108067475,-0.12482664,-0.26207477,-0.08291047,0.14641376,0.07882259,-0.08900979,0.021811556,0.07959723,-0.21315256,-0.15512094,-0.077860385,0.22626878,0.041093677,0.2092008,0.027016249,-0.28984165,0.11071321,-0.16653384,-0.14905266,-0.17919086,0.038930293,-0.015727006,-0.05883598,0.084794484,-0.034921136,-0.28111973,-0.13439265,-0.22307558,-0.12325878,-0.11480285,0.05579498,0.16618368,-0.14595614,-0.0057200445,-0.009494477,0.1866277,-0.046810232,-0.3250829,0.053086877,0.17685398,-0.024994763,-0.319828,-0.11966859,0.17553435,-0.34611106,0.2680787,-0.15490861,-0.14572453,0.12649967,-0.09797881,-0.0033879224,0.11059105,-0.10512171,-0.14197257,0.14650775,0.21199332,-0.03681986,0.09840448,-0.06180757,-0.078253634,-0.12857713,-0.110336274,0.105044186,0.12642245,-0.0011856544,-0.13618581,-0.12155831,0.010018974,0.26239178,0.14159176,-0.055394966,0.059808657,-0.09583956,-0.019144827,0.025720939,-0.21121648,-0.08514152,0.054699518,-0.005576057,-0.14516428,-0.22524549,-0.05720389,-0.22314009,0.028533295,-0.023717755,-0.153711,0.17780209,-0.035616048,-0.15379152,-0.17929827,-0.15257284,-0.22437462,-0.03165505,0.09155089,-0.033376195,0.051383283,-0.12398478,-0.007814294,0.070047684,-0.13892552,-0.18410495,-0.13171317,-0.09557754,0.13830064,0.1303349,-0.004629796,-0.0056458884,0.14484067,0.11604914,-0.009757629,-0.13339987,0.06441909,0.11558688,0.15145652,0.22800909,-0.10343284,0.06855234,0.18985508,-0.13632266,0.17626348,-0.15216,0.1959651,-0.09696774,0.09710435,0.067953594,0.02438294,-0.011693162,-0.089659266,-0.22675435,-0.04698861,-0.0748025,0.04837262,-0.07091485,-0.18818597,-0.15496767,0.07276218,-0.30796573,-0.29289666,0.086960815,-0.027461706,0.13468985,0.114197396,-0.2509159,-0.28980294,-0.106040284,-0.03567969,-0.14180921,-0.10503372,-0.012443426,0.10645235,0.09987354,-0.10604027,-0.34390905,-0.22301996,-0.11259395,-0.1546168,0.08525748,-0.04796861,-0.014109671,0.013558036,-0.09348692,-0.06707651,0.11435857,0.287874,-0.21349436,-0.26190874,0.018915324,0.19085465,-0.242996,-0.06652288,-0.10526582,0.17428452,-0.29488617,0.19789033,-0.22823869,-0.075728364,-0.073504545,0.06866469,-0.008090615,0.07049162,-0.075335406,0.03266245,0.23058443,0.21645808,0.06680196,0.13790062,-0.08209545,0.14049605,-0.18087688,0.07327804,-0.027445111,-0.11773855,-0.08936249,-0.26848543,-0.058461513,0.042897422,0.025398845,0.14335798,-0.00052980875,0.092676885,0.082770444,-0.068287335,-0.0669356,-0.13109641,-0.015568132,0.012075106,0.052735478,-0.06600623,0.046707395,-0.08076852,-0.054994505,-0.020365313,0.076775424,-0.38362542,0.12470262,-0.04608784,0.06261231,0.065161295,-0.046097606,-0.23907693,0.053757165,-0.17067894,-0.13102798,-0.0026463058,-0.1309623,0.12287254,0.037250347,-0.23403922,-0.29540846,-0.0062879054,-0.15898739,0.101110056,-0.24696031,0.14280835,0.02743059,-0.06839581,-0.031420592,0.10551527,0.05868366,0.07304895,0.010283419,-0.13550787,0.12834132,-0.42822713,-0.095484726,-0.07239485,0.035198066,0.27431718,-0.04116152,-0.25497428,-0.1552628,0.03641106,0.20957656,-0.15467107,-0.0268994,0.05245367,-0.06444424,0.0225218,-0.29576012,0.14395732,0.026474677,-0.003195459,-0.16213685,0.058173764,0.2137167,0.06943233,-0.08429514,-0.018515093,-0.1944816,-0.0572151,0.030380249,-0.11658355,-0.10857268,0.098978534,-0.17934282,-0.004780372,0.18200396,0.03434444,-0.17400849,-0.070613846,0.0027378236,0.15483217,0.07182929,0.09258453,-0.04254049,0.069415376,0.16745514,-0.1367945,-0.07356989,0.048044413,0.3039126,-0.086992964,-0.11893487,-0.053277686,-0.24264465,0.097127646,0.1391209,0.024328548,-0.12345905,-0.14439654,-0.00031547947,-0.061068743,-0.059480432,0.06946274,0.07854317,-0.006435723,-0.037575085,0.028042704,-0.024717147,-0.010794067,0.10586714,-0.0104675265,-0.20905276,0.19037904,0.1932014,-0.13441604,0.016073743,0.13405436,-0.16981952,0.024041628,0.094103,0.20753376,0.08635107,0.09625359,-0.11781597,0.051977497,-0.079407275,-0.071301155,-0.056739956,-0.101400256,-0.16078289,0.0055139447,0.0018773796,0.0732882,0.06581774,-0.11033146,0.25969592,0.011854089,0.25922212,0.13973463,0.040715326,-0.011176898,-0.42859975,-0.1024075,0.10529611,-0.1272028,0.114854746,0.28964826,-0.012948708,-0.1390644,-0.15366074,0.15418327,-0.01864153,-0.09549601,0.21172474,-0.22480083,0.31318033,0.1381118,-0.10263911,-0.1003356,-0.1378678,-0.17165844,0.015021309,-0.11277579,-0.046169437,0.085257635,-0.07004498,0.1890888,0.04765426,0.12647915,-0.092179604,-0.009241514,0.07595207,0.09586329,0.10470674,-0.2296096,-0.12885128,-0.22214252,-0.12950632,-0.10016473,-0.069825634,0.11254105,-0.14237581,-0.15890175,-0.06652954,-0.010508331,-0.0075986516,0.2016501,0.08755506,-0.013734438,-0.013263573,-0.06538253,-0.11754024,0.06707541,-0.034124795,-0.21343076,-0.17246918,0.1367423,-0.16758198,0.15337573,-0.12610994,0.122863464,-0.027056316,0.11489066,-0.07066286,0.00060408603,0.09017294,-0.05536501,0.20953955,0.12871997,0.19258067,-0.0012646454,0.0133806225,0.068447866,-0.10609076,-0.21924156,-0.02636333,0.09529374,-0.0025561762,0.20199761,0.043362893,-0.054191515,0.091478884,-0.15868409,0.015584958,0.030446574,-0.045596555,-0.16448759,0.0085241245,-0.13627793,0.02593815,-0.013033983,-0.10482784,-0.1456447,-0.096641585,-0.013726264,-0.13853727,-0.11876375,-0.025392098,0.0021197484,-0.13664234,-0.25928503,-0.26453623,-0.13090517,-0.04724671,0.054887142,-0.13795081,0.059797,-0.13532051,0.12590845,0.18802686,-0.31894398,-0.06307276,0.0966962,-0.08366172,0.26441193,0.08824732,-0.025104847,-0.11117024,0.17499064,-0.00991247,0.2111026,0.0803463,-0.16819519,-0.21344808,0.030737063,0.08842463,0.124437444,-0.0070643118,0.24717396,0.18627939,-0.074278146,-0.06653793,-0.102293804,0.029179992,0.029849863,-0.09532009,-0.094340086,-0.047589332,-0.03830873,-0.092625424,-0.07512254,0.025591778,0.092755415,0.23113696,0.051441923,0.099365726,-0.03370323,0.19883406,-0.053699728,0.0101577155,-0.037702102,0.13396667,0.029990032,0.07857263,-0.12405714,0.115504175,0.0974906,0.06739454,-0.19460323,-0.15027753,0.10659789,-0.12638184,0.14375876,-0.13812836,0.08987835,0.028547356,-0.08603199,-0.14914584,-0.122041404,-0.16930361,0.21081358,-0.09634507,0.07821047,-0.18807603,0.16056618,0.0059890896,0.13756974,-0.040148515,0.0051878006,0.1737893,-0.19615482,0.04847427,-0.043076206,-0.1664363,0.051330935,0.022340242,-0.30647665,-0.053758398,-0.12099401,0.03247243,-0.029214993,-0.12417271,0.050091088,0.0991016,-0.15122403,-0.28239518,0.12534186,-0.0912462,-0.105217196,0.09240158,0.098970704,-0.013303168,-0.034625325,-0.13529827,-0.04171027,-0.08221476,0.09691724,-0.08342568,-0.32545394,0.044041123,0.2096834,-0.15019764,-0.3001662,-0.05848062,0.23009126,-0.2681929,0.27554694,-0.028946705,0.01642517,-0.022380201,0.011307739,0.10936426,-0.14614409,-0.050122708,-0.17089172,0.039063804,0.05977394,0.23863703,0.067584895,0.016548254,-0.04257215,-0.065666966,-0.067821234,-0.14601693,0.040967453,-0.17522028,0.031776484,0.05814253,0.013914164,-0.041001637,0.10068407,0.0816916,0.18985148,0.068438396,-0.13202159,-0.11686958,-0.046143156,0.1611769,0.150786,0.024718085,-0.07342735,-0.15375365,0.033185624,0.15661229,0.11168212,0.051538274,-0.35289812,0.015911415,0.070608236,-0.13389531,0.09085182,-0.10112576,-0.28698432,-0.17242222,0.06497968,-0.16695225,-0.10302734,-0.10931892,-0.13691592,-0.02850436,-0.005324083,0.17270952,-0.034117993,0.07362008,0.030161468,0.07668393,0.08140396,-0.019714724,0.17130178,0.09415454,0.10405962,-0.018758098,-0.26179078,0.15049082,0.18948148,-0.06953072,-0.4831869,-0.05639173,0.16418435,-0.005523524,-0.065995105,0.084599204,0.18339007,0.07548125,0.11827138,0.016593732,-0.13863617,-0.11156064,-0.112037174,0.14937435,-0.1761294,0.07215881,-0.13344671,0.19544813,-0.0888503,0.11998324,0.09146832,-0.25832024,0.075474456,-0.060331706,0.29864255,0.15756552,0.18303461,-0.17330892,0.14653239,-0.031513263,0.18787366,-0.079018705,-0.08313312,-0.092565805,0.12427457,-0.1586404,-0.047897022,0.30852813,-0.105605476,-0.22848868,-0.043531343,-0.15329139,0.02202474,-0.059107948,-0.041473348,-0.005101524,-0.015884394,0.06946352,0.028059375,-0.04946409,0.13016109,0.20401321,-0.03909518,-0.054177087,-0.008395666,0.034085155,0.12652218,0.1459595,-0.100286044,0.058907248,-0.16181841,0.05623476,0.005613993,0.04196128,0.033217557,0.07560054,0.02922478,-0.04557693,0.072694436,0.08206033,-0.011276934,-0.029092612,-0.12433838,-0.24868554,-0.27848354,-0.0798945,-0.1274064,0.120151736,0.120874636,-0.24182324,-0.036054213,0.059001353,0.09374026,-0.058542997,-0.054120332,0.1479974,-0.13645633,0.0009374491,-0.38813868,-0.052188966,-0.021410834,-0.015437437,0.066142045,0.0074846246,0.041535683,-0.22434248,-0.0839541,0.06477774,0.16512968,0.09887108,-0.0028089783,-0.08401874,-0.16818933,-0.02888516,-0.049448304,-0.08204734,-0.03250528,-0.035363104,-0.19095826,0.03450835,-0.035990793,-0.22697552,-0.06710211,-0.32917815,-0.123390496,-0.036799043,0.015272804,0.27838913,-0.09058353,-0.16859558,0.061383534,-0.015726821,0.09091915,0.011407011,-0.048585385,0.069430776,-0.06337364,0.005911001,-0.032476597,0.06784205,-0.15855941,-0.20523447,-0.32176238,0.06935817,0.17324373,-0.12048595,-0.088006556,-0.20387708,0.058076728,0.11750945,0.06502357,-0.16530523,-0.109845355,-0.044818506,0.08507006,-0.04372233,-0.016528923,-0.1445485,-0.06503152,0.1224717,-0.18902455,0.093390495,-0.012056868,0.0440431,-0.0723872,-0.046180658,0.04341545,0.006069338,-0.2189428,0.047959834,0.28471383,-0.058112245,0.09538277,0.10744644,0.06442249,-0.022147147,-0.06993724,0.15861508,-0.0032585985,-0.17928529,0.08961585,-0.056108452,-0.016983852,0.03443287,-0.00016704336,-0.3017497,0.019576436,0.005488574,0.20276107,0.05839895,0.10560821,-0.31112134,0.03758297,-0.14074053,0.13781546,-0.079830304,0.16390152,0.14106075,0.031350296,-0.1740301,-0.05744297,0.26431563,-0.16093118,-0.16526225,-0.42039275,0.061779726,-0.041172888,0.12611546,-0.15117021,-0.19505076,0.029058695,0.0173774,-0.078488566,0.02212617,0.20334256,-0.33050895,0.0023855811,0.001086564,-0.12715703,-0.1436225,0.29762754,-0.07110797,-0.034693956,-0.1567533,-0.103603594,-0.1678587,0.018573087,-0.17245051,0.010205181,-0.11860757,-0.018245531,-0.26921627,0.0056967144,-0.042909253,0.18058811,0.08720552,0.10532089,-0.038471762,-0.07044401,0.08960495,-0.06701579,-0.16412544,-0.002591287,-0.10273174,-0.10143794,0.063546225,-0.03445765,-0.07884044,-0.10091806,-0.05230187,0.13965604,-0.033672422,0.09417084,-0.15606534,-0.0638368,0.23488207,0.12077132,0.04100212,-0.030623876,0.22941147,0.057278197,-0.10055996,-0.07872116,-0.11096299,0.06108028,-0.017988868,-0.28678793,-0.041099697,0.062948175,-0.16425762,-0.06891745,0.09624057,0.0035372768,-0.12733427,0.03370409,0.053407524,0.1071247,0.06112847,-0.2517331,-0.045855567,-0.10350919,-0.094539426,0.04810024,-0.10533947,0.19316983,0.07102521,0.01815236,-0.03844135,0.10028166,-0.09709803,0.33561406,-0.051876213,0.13604876,0.03708196,-0.08659873,-0.12884466,-0.17181037,-0.033846937,0.15162955,0.09371611,-0.08307399,-0.06338553,-0.13923141,-0.102981426,0.113700464,-0.5886876,0.06959522,0.050600313,-0.14358704,0.083827585,0.017494243,0.009634811,0.13616663,0.16962706,0.0036026756,-0.024240766,-0.08980634,0.13166678,0.18989307,0.1567162,-0.063395195,0.0029515694,0.14959934,0.055434205,0.22204097,0.010332285,0.042389393,0.061826132,-0.038130034,-0.027310733,-0.12250222,0.07128262,-0.15727794,0.024942245,-0.056973502,0.16436726,0.033493027,-0.016641445,-0.0014676119,0.023646178,-0.15843436,0.011392214,0.13377036,0.09832257,0.034661748,0.013886568,-0.094525084,0.22691737,0.12908056,0.12850392,-0.01764287,0.11028995,-0.1546316,-0.034756053,-0.09861385,0.025777766,0.031432725,0.0007824964,0.108429596,-0.23886324,-0.058860198,-0.15307182,0.0015977307,0.11520999,-3.4242257e-5,0.03291351,-0.12923042,-0.015182526,-0.062455256,0.096925795,-0.083775595,0.12207142,-0.022322187,-0.14835647,-0.2858286,-0.04782377,0.12429352,-0.10747278,-0.09162909,-0.037608914,-0.08965447,-0.1127887,-0.12591523,-0.041150033,0.045054063,-0.020323014,0.10835453,0.12114673,0.02678798,-0.14999235,-0.053277284,-0.0066223997,-0.11171994,-0.014021735,0.096873745,-0.16151954,-0.1120385,-0.100189924,-0.045232933,-0.099781826,0.08157673,0.054840073,0.059392374,-0.0581855,0.11370581,-0.12925796,-0.040537037,-0.13024311,0.09390011,-0.10594724,0.091971345,0.04008764,0.0071417238,-0.18025613,-0.018797038,0.12999222,-0.22169957,-0.13319889,0.1892831,0.093511626,-0.28692967,-0.032565515,0.1382093,-0.08817182,-0.3436418,-0.059255075,0.25965217,-0.08450527,-0.14872219,0.1273583,-0.1450163,-0.019534852,-0.02660522,-0.2607937,-0.11348413,-0.11524356,-0.17188671,0.12668368,-0.19512816,0.046713077,-0.03259072,-0.10790178,-0.09391049,-0.0490449,0.013485951,0.0056591355,0.15948816,-0.09187619,-0.040673185,0.09505694,0.11293539,-0.1617125,0.11833298,0.07733971,0.090513065,0.04639018,0.051010896,0.15405525,-0.050036468,-0.02861505,-0.05644441,-0.121689245,-0.11410382,0.18381716,-0.19956447,0.0957639,-0.18912785,-0.055675745,0.12021409,0.05167908,-0.11315632,-0.023013176,0.053840157,0.123240925,0.116113596,0.017476635,0.09967907,-0.1644215,-0.05416171,0.004279577,-0.07638006,-0.1486482,0.07226048,0.11459676,-0.024783492,-0.09740867,-0.099848226,-0.2013388,0.08876238,0.15819988,-0.106833145,-0.15898435,-0.28173488,-0.15037309,-0.03755324,0.081114545,-0.17396829,-0.021090845,-0.13354756,0.113750935,0.093870126,-0.09346966,-0.31917283,-0.024962652,0.11278911,-0.1559992,0.114080064,0.3485716,-0.1450365,0.058106534,-0.062334657,0.20220503,-0.08626893,-0.14725493,0.3164071,0.2072172,0.05938252,0.030966694,-0.28943577,-0.106715605,0.116654076,-0.047037248,-0.35597727,0.015881848,0.060007576,0.14438145,-0.13594213,0.030800188,0.045517296,0.123542406,-0.032328803,0.09921751,0.0545989,0.042404465,-0.049318988,-0.10986892,0.060320962,-0.16538234,-0.0125506325,-0.05177575,0.20566441,0.050857827,-0.018287517,-0.069338016,-0.04874461,-0.16332842,0.36639714,0.15627652,-0.025063856,0.116454415,-0.13667417,-0.020083154,-0.037805825,0.060847487,0.13358852,0.10992365,0.0461364,-0.15811256,-0.123399474,-0.06243282,0.10809554,-0.22743538,-0.17231563,-0.17671558,-0.1569618,-0.11273667,0.15331617,0.11580412,0.033763036,-0.14211594,-0.1614835,-0.33670208,-0.26870298,0.13434255,0.011405436,-0.0661927,0.23557536,-0.10842712,0.18602453,-0.25658104,0.2683585,0.01795019,0.0470568,0.028875377,0.12016486,0.07604002,0.03910511,0.024239192,0.19890574,0.03467905,-0.12329411,0.19086868,-0.02454189,0.051415306,0.045177836,-0.11810352,-0.0003872287,-0.12586397,-0.075590566,-0.1080601,0.1876625,0.14606236,0.115810655,0.22845006,0.10798755,-0.12990823,-0.19003041,-0.0052326806,-0.13305415,0.012602556,0.09378474,0.2764461,-0.044495266,-0.03452125,-0.08099958,0.0786206,0.17143431,0.16176522,-0.069784604,-0.06258242,-0.2451906,-0.10616257,-0.034443073,0.04144737,-0.053192515,-0.08516779,0.21167278,0.07114888,0.0032646463,0.039005216,0.020036852,-0.15557699,0.07226577,-0.016211452,-0.03426475,0.14205302,-0.14563017,-0.13579342,-0.043050982,-0.010168609,-0.10457359,0.03165334,-0.04629491,0.09317303,0.05540253,0.022742735,-0.32620788,0.051688023,0.19051239,0.09869487,-0.21401155,-0.1623141,-0.12966149,-0.00363437,0.11413066,-0.050259802,-0.1494627,-0.0108008655,0.10617348,0.15241526,0.005781466,0.07113443,-0.06968895,0.25988206,0.13576177,0.37743822,-0.6235054,-0.095155925,-0.06577567,0.042207737,-0.018989833,0.06870705,0.22644912,0.06901229,0.153558,0.10310771,0.20056981,0.03608755,-0.07315743,-0.152667,0.2079805,-0.022724746,-0.13490196,0.07361972,-0.04161702,0.10748907,-0.06316933,0.2931977,0.24418482,-0.40301955,0.14888698,0.037921738,-0.16807447,0.16860189,0.26099795,-0.04485905,-0.1221562,0.17920765,-0.013279095,-0.20037511,-0.003580644,0.12982003,0.21749873,0.1317153,0.051728193,0.009756568,-0.15514849,0.16231568,-0.017435597,-0.022447199,0.002439513,0.011780717,0.10667444,0.030357013,-0.15393253,-0.20544688,-0.27856073,0.035013262,0.18935893,-0.07017882,0.079822734,0.023247901,-0.055051554,0.110905915,-0.120839104,-0.105951145,0.014057432,0.1744093,0.16938591,0.011680237,-0.08215534,0.174941,-0.19965866,0.059029922,-0.043516073,0.057870366,-0.0042559556,-0.07436225,-0.08931286,0.26755717,-0.20203704,0.12885284,0.12178553,-0.09917913,-0.024982987,-0.011442564,-0.12076236,0.1256183,-0.04939911,-0.20463622,0.098208755,-0.105710685,-0.089817405,-0.1318781,-0.12196615,0.033632174,0.022965118,-0.0042684264,-0.111218266,0.12860163,0.036902823,-0.08251896,0.113773815,-0.32374427,-0.14936551,-0.16072941,-0.14093733,-0.12869169,-0.11918763,-0.03489067,-0.030000208,0.17564943,0.04895262,0.061152413,-0.43309978,-0.019428479,-0.10970831,-0.20340323,-0.06813556,-0.049821787,-0.28774515,0.09963768,-0.047203306,-0.1553409,-0.128804,0.012476431,-0.045820497,-0.07993526,-0.15711896,0.09904798,0.059847668,0.13802986,0.1060837,0.10191194,-0.11416404,-0.09423592,0.237245,0.07654617,-0.10021522,0.2801369,0.015961723,0.09550341,0.05687666,0.037861444,-0.062902994,0.076888256,-0.026758885,0.13580248,0.13018353,0.041731186,0.08743033,0.0060655144,0.014957301,0.052170098,-0.10899365,0.15461057,0.20044038,-0.1260705,-0.060403895,0.011741713,-0.097139016,0.06590467,0.22669043,-0.0041437317,0.10013902,-0.002711451,-0.4863096,-0.04980705,-0.08241116,0.16913944,-0.08969371,0.14936973,0.21463984,0.051821876,-0.20034285,-0.036801577,-0.13099721,0.1543122,0.021796515,-0.13999718,-0.041810717,0.27512157,0.11962126,-0.15094079,-0.3653676,-0.19865586,-0.09913572,-0.073553085,-0.040870175,0.16843182,-0.17128381,0.09030787,-0.07910149,0.041283567,-0.3969707,-0.21191163,0.20675597,0.19880512,-0.3289516,0.14632082,-0.2267493,0.07521127,-0.19292802,-0.026951872,0.036006235,-0.011063506,0.066902675,0.07885487,0.048222758,-0.03827592,-0.06236405,-0.14931795,0.026585065,0.03889637,-0.07008197,-0.030132007,0.17434834,-0.2645911,-0.18123667,-0.028625255,-0.023531007,-0.058236223,-0.035663083,-0.1653871,-0.06343541,-0.092653535,-0.20313968,0.12727512,-0.05379157,-0.05789437,0.09981192,0.024945633,-0.046874445,-0.011689348,0.10082958,0.07703042,-0.11716828,-0.17310281,-0.10262077,0.17011447,0.12084459,0.08631769,-0.1865223,0.15712792,0.11509771,0.17454864,0.069438666,0.039201,-0.08504848,0.05564716,0.095507436,0.02040913,-0.01591604,0.038728893,0.05878201,0.086107105,-0.107295096,0.10702766,-0.1503695,-0.027175158,-0.16422008,0.2875825,-0.17677553,0.03377983,0.0065241004,-0.0056103906,0.12705722,0.07987022,0.20981432,-0.15459728,0.15900914,0.024873216,-0.03466711,0.09818144,0.12398094,0.02184696,0.15561822,0.0828225,0.12351674,0.02096073,-0.09513063,0.071528055,-0.12819032,0.25244343,0.016560718,-0.35590407,0.050033994,-0.1170828,0.10601919,0.17328489,-0.057272717,-0.124585405,0.0055217566,-0.1259354,0.15245377,0.16346744,0.08238829,0.19900833,-0.09200203,-0.001108542,0.053621743,0.02564844,-0.08339011,0.2600052,0.04040353,0.07503166,-0.11344688,0.15993,-0.08377329,-0.09926477,-0.020148827,-0.20765992,0.015855798,-0.056242265,-0.047218166,0.2172659,0.022481028,0.15787175,0.061242852,-0.11000099,-0.073151164,0.12959154,0.24225172,0.008400359,0.14844401,-0.051412784,-0.28139102,0.15958199,-0.013826839,0.09353836,0.047709357,0.100282304,0.008564435,0.1174935,-0.23171604,0.23326075,-0.032103334,0.057193216,0.04192228,-0.41237068,-0.054401632,-0.038412783,-0.12707609,-0.06332274,0.12586376,-0.0834369,-0.010126385,0.061599307,-0.17854048,-0.031566616,-0.14581726,0.04320852,-0.15785737,-0.0048396285,-0.32549298,-0.08663675,-0.08098962,-0.16876808,0.057527866,-0.119086504,0.008935511,0.124138206,0.14098345,0.20695736,0.032068998,-0.069943294,0.009431412,-0.103759065,-0.21997939,-0.16068418,0.21022402,0.25898355,-0.13526545,0.13299802,0.063793235,-0.07883584,-0.17878672,-0.14850292,-0.071919456,0.07712216,0.21209927,-0.008178554,0.052441396,0.091005966,0.004927302,0.04154582,-0.045446794,-0.028080955,0.08123468,-0.027689654,0.26644775,0.15824214,0.09672376,-0.07398096,-0.14180179,0.07858494,0.033437002,0.17212902,-0.23225231,0.20414263,-0.10141358,-0.19555661,-0.025692753,0.08921637,0.19840604,-0.09934048,0.25378782,0.18857773,-0.0050421744,0.028638482,0.14548287,-0.15816146,-0.09925924,0.1838717,-0.19563521,0.041915733,-0.0065575284,0.044460606,0.099204876,-0.15170836,-0.029502872,-0.27348724,-0.03870677,-0.2756459,-0.08157447,0.16717523,-0.1365239,-0.06245466,-0.054194536,-0.06513464,0.15882446,-0.13775356,-0.050527006,0.06066314,-0.10754734,0.17045447,0.102000035,0.16629535,0.07945154,-0.3184145,-0.23186113,0.05746544,-0.40928322,0.139679,-0.038799744,-0.08617822,0.14136083,0.060257886,0.119503014,-0.06042281,0.12165458,-0.09786623,-0.28589708,-0.0029015972,-0.3807516,-0.17588642,0.1787194,0.1248738,0.043189533,-0.112355806,-0.023464862,0.12628922,-0.05193607,-0.1042691,0.07926452,0.046370547,0.00946282,0.11225155,0.11249242,-0.2081084,0.22762987,-0.031870387,-0.056768768,0.023379657,-0.042544037,0.058918986,-0.014660191,-0.029966723,-0.16103122,-0.101335466,-0.089789316,-0.18094718,-0.2786773,-0.12524775,-0.14479789,0.18194912,-0.16133681,-0.026998965,0.13170524,-0.11784179,-0.14066797,-0.02181651,-0.029412424,-0.04596546,0.040325534,0.0014394562,-0.06881728,-0.16968496,-0.35089123,0.094554275,-0.14319317,0.10608582,-0.2095047,-0.08360641,-0.20568305,0.14381133,0.0861403,0.11842178,-0.054796048,0.018844064,-0.027247665,0.0072487867,-0.08586385,0.083053835,0.041127246,-0.18134421,0.23582344,-0.25078312,0.16168126,-0.07043198,0.14440753,-0.08537141,-0.14174382,-0.058283787,0.0010330027,0.070048876,0.22096801,-0.015856076,-0.24297746,0.12907284,0.0015075895,-0.034343332,-0.014683123,-0.00596428,0.16170493,0.00867595,0.10144513,-0.04298903,0.0062763994,-0.16583791,0.18127464,-0.090438075,-0.01053173,-0.08634062,0.10868358,0.13694362,0.30813432,-0.087019995,0.044039477,0.16006577,-0.47061223,-0.050703663,-0.10733962,-0.039468326,0.17830367,-0.12249015,-0.02329941,-0.07665289,-0.005860893,0.004387811,0.10631902,0.004088097,-0.086829364,-0.10259,-0.07186821,0.1692204,0.0073606106,-0.11474996,-0.28353393,0.019555032,0.19075346,-0.0749381,-0.028061036,0.12211657,0.06470793,0.16418804,-0.13113703,0.011388047,-0.33627257,-0.18373153,0.08826979,-0.056302987,0.15409042,-0.0026279257,-0.11348337,0.0915853,-0.40166092,-0.066199206,0.037106294,-0.12865129,0.1807922,0.24339688,-0.101472445,-0.04565666,-0.07906797,0.15430064,-0.061835833,0.26018456,0.18653962,-0.056959324,-0.025077512,-0.34649172,-0.07523775,-0.15218672,-0.015977018,0.12085786,0.17369142,-0.011925989,-0.09852254,-0.06228104,-0.07499152,-0.14459482,0.026854746,0.10439199,0.024469791,0.060358852,0.09098838,-0.08713538,0.07742116,0.15663618,-0.084857866,-0.111529365,0.2257453,-0.104289725,0.07655321,0.08699234,0.014310034,-0.004886511,0.15434264,0.1168391,-0.03305374,0.04929741,0.090737514,0.02222734,0.076901145,0.04244203,0.057066638,-0.16414376,-0.17608224,-0.047484785,0.0083460165,-0.09522243,-0.2145977,-0.18905935,-0.09237268,-0.111168236,-0.040580705,-0.08090819,-0.21256173,0.008852289,-0.10836747,-0.15620713,0.008144924,-0.08603706,0.08014901,-0.048614897,0.2570789,-0.089408524,-0.29328027,-0.04624344,-0.16461751,0.10368917,-0.051908195,0.19444294,0.039670322,-0.11915932,-0.118152745,-0.023126245,-0.038046982,-0.043682523,-0.06980496,-0.008543224,0.009097741,0.21170776,0.102050945,-0.10895426,-0.031369988,0.0864136,0.3155628,0.06778823,-0.31534374,0.114604115,-0.060505323,-0.23008178,-0.24340047,-0.110708654,0.013581689,-0.2671888,-0.03139089,-0.09196643,-0.05004554,0.027209852,0.052487697,0.09506838,-0.13975935,-0.04179069,0.025451336,0.057266336,0.11831129,0.030218342,0.07654305,-0.08626383,0.034203332,0.02955678,-0.047926113,-0.029029677,0.12680544,0.06260535,-0.10914085,-0.23960014,0.08564307,0.20704067,0.01714776,-0.044613194,0.11156692,-0.08418251,0.0752802,-0.08441138,-0.17635112,-0.16606027,-0.11016117,-0.044289734,0.06950764,-0.08513943,0.014041826,-0.10657845,0.0032640141,-0.050992746,-0.13021313,-0.029205326,-0.18018399,-0.10855296,0.02750646,-0.085805126,-0.08505471,-0.07734475,-0.14003932,0.057737842,0.07239922,0.053992584,-0.11974344,-0.054511134,-0.16156596,-0.24957593,-0.03249623,0.05622093,-0.04205273,0.09999313,-0.04923808,-0.11689771,0.13282304,0.14911434,0.2654554,-0.027877292,-0.03520003,0.19864257,0.25668877,-0.03248015,-0.17492943,-0.12586597,0.0040537696,-0.04821179,-0.32162124,0.09912142,0.03388518,-0.10823605,0.09917403,-0.07741164,0.055554558,-0.019948574,-0.043224823,0.06436353,-0.11478643,0.0141787175,0.326321,0.023025902,-0.0026529608,-0.07827418,-0.088853955,-0.4364751,-0.13611774,0.005876697,0.1735459,0.14191626,0.13956492,-0.20558693,0.1284542,-0.1356154,0.08309581,0.09017361,0.0068435674,-0.20754711,0.16941299,0.041119367,0.097512424,-0.006082147,-0.05066951,0.20482154,-0.17182435,-0.075877026,-0.0557864,-0.19909725,0.006043411,-0.084439486,-0.0715872,-0.0644889,0.12934934,0.10695662,0.2009328,0.15568526,0.07749349,-0.0825249,0.14028579,0.0063584414,0.10225312,0.082008906,0.03049425,-0.022196678,0.023358501,-0.27508527,-0.14353487,0.25404486,0.13563612,-0.17795686,0.006592123,0.17477086,-0.1474147,0.2960082,-0.14709042,-0.0520742,0.081570685,-0.15050226,-0.22724406,-0.16571036,0.2504579,-0.054691587,0.0544721,-0.14702511,0.026765885,-0.025962874,0.1577391,0.11957981,-0.07764365,-0.10737868,-0.10748322,-0.17338018,-0.05875513,-0.051623046,0.18195775,-0.13868806,-0.022561474,-0.35518098,-0.06942111,-0.14378545,-0.2642393,0.09786951,0.15746032,0.12621567,-0.0910862,0.020201705,-0.10593905,-0.039472897,-0.08263887,-0.100981645,0.13233739,0.010766285,0.003094638,-0.07236697,-0.09230092,-0.21923387,0.15035525,-0.31927904,-0.02169168,-0.15977873,-0.03665772,0.037585393,-0.0074467426,-0.1524933,0.076667845,-0.10643624,0.12843917,0.07180788,0.29045424,0.24751887,-0.013732487,0.023783775,-0.1319492,-0.029756192,0.09745677,-0.09407141,-0.06635978,0.027853545,0.016083406,-0.0690445,0.10063561,0.1027434,-0.10335495,-0.11906383,-0.1663984,0.03857789,-0.020599911,-0.22871335,0.31163868,-0.062579475,-0.048395377,0.039842427,-0.02573004,0.08068273,0.11537271,0.0027158936,-0.12176859,-0.046903,0.1178826,-0.21872798,0.1325023,0.072410814,0.20250203,-0.17876896,-0.032253724,0.111188084,-0.02943371,-0.035333447,0.029279107,-0.10888116,0.0065223337,0.30496454,-0.22202599,-0.04331415,-0.08077574,-0.24378325,0.004070249,0.12965302,-0.051670127,-0.32207268,0.09452332,0.0921188,0.09587808,0.054480277,-0.0719521,-0.12137111,-0.2303195,-0.036316775,0.11234934,0.162586,-0.06052329,0.18818124,-0.05298939,-0.0055217706,0.12646423,0.17585947,0.06455432,-0.12598585,-0.5201439,0.3264074,-0.18278162,-0.08296389,-0.19801956,-0.44168335,-0.038580175,0.105275236,0.00027545067,-0.020596877,0.23848958,-0.1907613,-0.009287898,-0.03106206,-0.43542153,-0.3304559,0.29321742,0.019119179,0.08445115,-0.12998474,-0.0966002,-0.08604028,-0.061779976,0.05700737,0.16766317,-0.06837629,-0.13030013,0.013357826,0.2246447,-0.058573775,0.21324073,-0.01135699,0.124053225,0.041517664,-0.1572724,-0.12911037,-0.135584,-0.14168316,0.01519269,-0.1690357,-0.077728145,-0.036955472,-0.018393097,-0.015422066,0.10955313,0.19349797,0.005387591,0.009440039,-0.16110606,-0.13709103,-0.083537996,0.07264769,0.093583494,0.12920187,0.08453701,-0.09707166,-0.24662694,0.029768843,0.074354246,-0.026899481,-0.018316545,0.031098938,0.027149476,-0.10132072,-0.038594138,-0.062464833,0.031771842,0.08075607,0.15768912,-0.07379277,0.0011594752,0.088586904,0.110397324,0.070966795,0.16642039,0.2271577,-0.5207206,0.26954344,-0.0398509,0.031307336,0.122210115,0.11503934,-0.07766734,0.005802532,-0.11307888,0.05168237,0.08655399,0.16345651,0.16225493,-0.056963094,0.10283996,-0.1252178,0.09086334,-0.15256533,-0.121557765,0.092118196,-0.13913517,-0.1489606,-0.10034648,-0.0007938929,0.075812526,0.2202661,0.1266608,0.0078368345,-0.0007424407,-0.15751877,-0.26346695,0.15539417,-0.13369715,0.06808255,-0.052807335,-0.23413737,-0.07304762,-0.07518746,0.14047317,-0.1199062,-0.15627609,0.005853204,-0.073599845,0.090842985,-0.04903044,0.113150015,-0.11391546,0.13984245,-0.014978678,-0.05436947,-0.14448233,0.16423392,-0.0057825213,0.16767214,0.028055312,0.20318238,-0.11483191,0.059008468,0.06921734,-0.05085728,0.24722281,-0.12683032,0.02535285,0.21312623,0.06287421,0.069052204,-0.072690375,0.09224111,0.19248062,0.04686741,0.096230395,0.021223217,-0.11395876,-0.008432162,-0.3219306,0.058409307,-0.07684536,-0.104742214,-0.07286607,-0.1373565,-0.11497671,-0.036263615,0.12904671,-0.17975058,0.26668182,-0.057579055,-0.11255693,0.08651403,0.10629017,0.035430092,0.17405967,0.04784027,-0.1229034,-0.17663155,-0.056091163,0.11984183,0.059084095,0.19560713,0.12901674,0.088919885,0.02153351,0.067768164,-0.12575619,0.16072267,-0.09499455,-0.08587721,0.22601572,0.26786712,0.07722591,-0.14513914,-0.099974826,-0.03844889,-0.026424352,0.1356176,0.009554658,-0.11354403,0.029425472,-0.12731114,-0.030156616,0.016629295,-0.093605846,-0.06940688,-0.027485771,-0.10882904,-0.07638126,-0.11004037,0.046110038,0.09067847,-0.061087493,0.2397174,-0.26570192,-0.005942044,0.09288562,0.03897787,-0.10851986,0.15671754,-0.12289786,0.02699267,0.078223966,0.21648175,0.21482298,-0.012897597,-0.16009463,0.13844258,0.12687984,-0.14237113,0.18592486,0.03274756,0.14792211,-0.023630572,0.025752034,0.12475585,-0.09268642,-0.37099436,0.11126422,0.10461225,-0.13476723,0.20742561,0.2799679,-0.020105029,-0.0013411102,0.08052117,0.08664185,-0.11215263,0.057692852,0.20512262,0.1019084,-0.057042517,-0.03158214,-0.1768764,0.16258973,0.023708146,0.077853516,0.010618948,0.015633306,0.115567826,0.08977826,-0.08653624,0.070884675,0.17850097,0.1907286,0.13440621,0.123245135,0.15740722,0.099073656,0.06654973,0.087003365,0.01468306,-0.011608571,-0.0124075515,0.059173487,0.22241364,0.12971807,-0.093705796,-0.08967613,0.18010867,-0.16164117,0.050252274,0.085332535,-0.030140143,-0.06822327,0.10758407,-0.19243224,0.16798641,-0.15945423,0.13098891,-0.08692866,-0.047066543,0.07960829,0.072597176,0.1283005,-0.12117171,0.011177523,-0.017014565,-0.1572947,-0.18663412,0.093342714,-0.11927015,-0.016902449,0.0019721948,-0.060954817,-0.092521735,-0.26907685,-0.10080089,-0.08456526,-0.23622134,-0.146803,-0.15219633,0.11505891,0.119817935,0.068116315,0.14105117,0.083358824,-0.0685473,-0.010433399,0.0007296029,0.16142982,-0.12013734,0.03489244,-0.05767443,0.15906596,-0.047266945,0.115316644,-0.09064843,0.02158623,0.017863821,0.08849585,-0.16713496,0.07532927,-0.011467274,-0.03036076,0.009832702,0.080408975,-0.102690645,0.29193383,0.06798795,-0.049573272,0.104881905,0.18171948,0.20148529,0.09401884,0.008097791,0.1016345,0.09149569,-0.017939294,-0.018846868,0.05491435,-0.12489563,-0.062877126,0.12639946,0.13996047,-0.03354396,-0.2388996,-0.0246054,0.22301386,0.06734503,0.16113245,-0.07032239,0.07621148,-0.091083474,0.100688845,-0.080719985,-0.2275721,-0.16231616,0.060917202,0.04546527,0.059650324,-0.06016643,-0.102069244,-0.18037581,-0.08815114,0.013992733,0.2107778,0.110954985,-0.048398905,0.099300124,-0.10511426,0.094706975,0.039837364,-0.3750689,0.07614109,0.2675709,-0.0993205,-0.11010538,-0.12872645,-0.07231988,0.083965264,0.035875775,0.152539,-0.027298808,-0.05268048,0.132716,0.09723938,0.030852597,-0.12074718,0.16530505,0.059717603,0.12061809,0.090040095,-0.073900744,0.084441856,0.02877538,-0.24517359,-0.009614302,-0.055378646,0.12513837,0.17061877,0.11518292,-0.08654811,-0.07579366,-0.15531775,0.10680072,-0.10411119,0.042193618,-0.13944137,-0.39913765,0.15584567,0.010375036,0.21336886,0.108009875,0.08546061,0.0077030445,-0.15992229,-0.12232225,-0.1301999,0.12794228,0.0021693702,-0.15413775,0.039463103,-0.065978624,-0.12511152,-0.031260867,-0.0839933,0.028524103,0.134949,0.12043164,-0.11886382,0.088053755,-0.0852645,-0.18815167,-0.109432444,-0.16859226,0.10556757,0.033207987,-0.23827156,-0.16307117,-0.10849508,-0.42693737,0.00021044514,-0.19661385,-0.030347917,-0.062373966,0.05167292,0.18367699,-0.28881818,-0.12776226,-0.3620216,-0.1601807,0.088039875,-0.072458245,-0.01596818,-0.098041885,-0.03204756,0.16810562,0.065888,0.1293455,0.11990152,-0.15010656,0.096756145,0.06781405,-0.1299606,0.15381117,-0.10928484,0.0028902774,0.059041996,-0.08601776,-0.07660167,0.005635717,-0.040290896,0.050339736,-0.011961223,0.097237274,0.21457203,-0.10867178,-0.20808288,0.020571113,-0.08843061,0.19783963,0.02249188,-0.12857354,-0.106765375,-0.17844349,-0.0836308,-0.22614016,-0.40116587,-0.11192508,-0.0008012716,-0.05650507,-0.19807328,-0.07241601,-0.060422022,-0.31315672,0.03208209,0.1773528,0.2078538,-0.088581905,0.05660642,0.04029193,-0.09706814,0.14093429,-0.0057989396,-0.3096787,-0.038944334,-0.030283201,-0.06082048,-0.113792054,-0.06425297,-0.49025455,0.260715,-0.17280069,-0.19401048,0.0921197,-0.08547471,0.044947498,0.1482472,-0.08267975,-0.030081436,0.012246994,-0.17383255,0.14034215,-0.43511793,0.01224606,-0.2015217,0.0021836457,-0.1746771,-0.058943152,-0.151529,-0.14726692,-0.0328911,-0.008114196,0.04400096,-0.15517189,-0.082718976,-0.15283068,-0.31987053,-0.13181868,-0.07191147,-0.032042,0.21038099,0.07021429,-0.14863212,0.06273493,0.034222152,0.04039937,0.17766479,-0.14424743,-0.061251473,0.05971426,-0.1519184,-0.11830824,-0.11416287,0.15893373,0.07304101,0.11346915,0.017849622,-0.106855705,-0.13555557,0.25607297,-0.009693993,-0.12642391,0.22165252,0.085038036,-0.10255907,-0.009115354,-0.17986846,0.07188581,0.09230225,0.18807137,0.10228304,-0.17157355,0.043050755,0.18061006,0.1262399,0.06719608,-0.017988916,-0.039725058,0.024157798,0.05505488,0.16432254,0.026373522,0.12545249,0.18042928,-0.20428161,0.18119593,-0.011411759,0.09816916,0.08774803,-0.17272004,0.13533987,0.194278,-0.10308787,-0.023099756,0.3126568,0.17069785,0.19415301,0.26700494,-0.13773024,-0.14193188,-0.17624986,-0.077959076,0.01968517,0.076073684,-0.051575705,-0.13384214,-0.10650406,0.0571441,0.20139293,-0.27616632,0.069273464,-0.08345289,0.029737417,0.05235306,0.14663836,0.025242185,-0.064275794,-0.035938736,-0.3209359,-0.34718484,0.12800446,0.15161139,0.15393317,0.18823157,-0.04037968,0.10018919,0.19285609,-0.14960515,0.08806508,0.061446883,0.018119443,0.13635617,-0.03758702,0.15851504,-0.09780133,0.23011616,0.0926684,0.10977997,0.036825545,0.21244085,-0.010791403,0.21846256,0.05923446,0.040903356,0.3533314,0.1090609,-0.090762906,0.18245907,0.12002338,0.07963588,0.052792214,0.1906207,0.032987595,-0.088856265,-0.16849649,-0.12926205,0.10946204,-0.037331924,-0.04492779,-0.0041220146,-0.1503179,0.07784299,-0.042354614,-0.024301147,-0.06832264,0.09397544,0.16438663,-0.16230713,0.14099778,-0.052835546,0.013912369,-0.102490224,-0.08504271,-0.05268752,0.082178816,-0.014486032,0.053540207,-0.16720046,-0.34919062,0.01444783,-0.05859614,-0.0012722882,-0.03772223,0.109097295,0.09574642,0.069219336,0.026067704,-0.26347533,-0.15391411,0.11521737,-0.096311264,-0.11173782,-0.052658036,0.06890892,-0.21992123,-0.27973437,0.07694399,0.019634586,-0.036414977,0.061924294,0.15263776,0.09254251,-0.030002685,0.032818113,-0.1503738,0.13156536,-0.070388235,0.2067099,-0.16809526,-0.07257615,-0.15911317,-0.07209043,0.23391333,0.266586,-0.2680498,-0.14065066,0.02604698,0.026027357,-0.14096625,0.011702768,0.016236536,-0.05230997,0.040362943,-0.3275408,0.122242436,0.17740217,0.06754508,0.035660516,-0.0006872908,-0.06699242,-0.07445384,-0.025693659,-0.3092764,-0.17986222,0.10343313,0.3001667,0.16601047,0.11234566,0.26782626,-0.0029973872,-0.08749214,0.09418561,-0.09213668,-0.14282532,-0.0091184,0.039422784,0.16321494,0.11738969,-0.10322986,-0.13680969,0.019882645,0.1228433,0.095649235,0.08869547,-0.3772379,0.03538342,-0.14901467,0.010951609,0.112554014,-0.079908736,0.044829506,-0.020327589,-0.1351192,-0.10541495,0.0042257085,-0.11807017,0.031547237,-0.16206631,-0.0011909475,0.16310719,-0.082006864,-0.122182235,-0.075089894,-0.067477696,-0.18899064,0.20748645,0.035474632,-0.043031543,0.014106346,0.12664291,-0.23671916,-0.110016696,0.011724643,0.0077267457,-0.12894796,-0.012179776,0.16815946,0.0045397882,-0.14968388,-0.14888938,-0.13921292,0.015769543,0.018243505,-0.0029858768,0.030021157,-0.11637823,0.060436692,-0.19717675,-0.092784226,-0.09798954,-0.042413272,0.03626554,0.023667641,0.029436491,-0.161374,0.11441221,0.04517938,0.08387125,-0.050211623,-0.017049177,0.0036758448,-0.09388532,0.11890666,0.051084127,-0.04054971,0.12539531,0.18356822,-0.14185081,0.0060832957,-0.003177195,-0.092564814,-0.10735264,-0.20787132,-0.14079873,-0.1405824,-0.006153044,-0.38004166,-0.16580239,-0.008387437,0.073928095,-0.04949141,0.11042505,-0.021677978,-0.029445263,-0.052438807,0.13123606,-0.12070527,0.082711674,-0.2027006,0.045305744,-0.10020356,0.13416137,-0.12660302,0.20905674,-0.27455208,-0.030157948,0.009863369,-0.2180383,0.3052799,0.16120066,-0.12634473,-0.018128492,-0.02178624,-0.26524442,0.103710584,0.03081824,0.23412414,0.112689815,-0.054958418,0.21001439,-0.15017787,0.045858588,-0.11391461,0.1966115,0.02948832,0.12261541,0.15493464,0.039605338,-0.08624077,-0.16407903,-0.011421182,0.004823562,0.039404057,0.25406668,0.20650055,0.2780032,-0.10377289,-0.18736248,-0.12633455,-0.08776656,-0.06717923,0.045026984,-0.04425948,0.20031011,-0.11898814,-0.08559854,-0.041390546,0.003123563,0.0792394,-0.19044486,-0.12451831,-0.00023460155,0.041655786,0.061727528,0.027083367,-0.1015242,0.017168721,0.07644373,0.007495567,-0.08624498,-0.033618037,0.09705056,0.03429915,0.0071666543,0.1937467,-0.095838346,0.16233012,0.07078798,-0.29614776,0.09707369,0.20513518,-0.10186082,0.12121022,0.05273164,0.057804063,0.075553074,-0.043669015,-0.023196466,0.113288485,0.09680138,0.04863472,-0.20289959,0.08925451,-0.031235531,0.21603161,-0.12240262,-0.13295949,-0.025001036,0.10714153,-0.035007723,-0.12477768,-0.16114503,-0.07449418,-0.116614245,0.0057243044,0.14346361,0.026748514,-0.09096138,-0.3376012,-0.22636387,-0.11412097,-0.024324955,0.07086476,0.30911762,0.03380155,0.026060797,0.2287569,-0.046364214,-0.5037581,0.08888389,0.13198441,0.05634307,-0.15871716,0.26423946,-0.017260518,0.11038114,0.02839932,0.078818485,0.17429264,0.0064329472,0.067748845,-0.09385692,-0.09015253,0.10665064,-0.017394345,-0.15238158,0.028974673,0.33232307,-0.25769296,0.042717826,-0.23896658,0.050135296,-0.024563242,-0.022508333,-0.10410381,0.042007145,0.12219041,0.2107852,0.103104584,0.0659864,-0.07600575,-0.017844172,-0.10361604,-0.1503741,0.13783933,-0.06878303,-0.003022441,0.29574394,-0.38220465,-0.14391553,-0.114877924,0.122649066,-0.021706566,0.11966434,0.0027856594,0.10769992,-0.17831554,-0.11354181,-0.27482226,-0.13436896,0.069656186,0.22397406,-0.06493842,-0.14871594,-0.14401437,0.07493045,0.04977064,0.057923794,0.0062145083,-0.047056597,0.06041096,-0.06368465,0.22133069,-0.16015507,-0.083283566,0.24021833,0.056285985,-0.3206123,-0.09824239,0.13904007,0.25079778,0.05572013,-0.028848225,0.09974034,0.010859089,-0.07509352,-0.16282883,-0.0025107372,0.029202748,0.0182994,0.14084496,0.010899934,-0.33886698,0.12059464,-0.053276625,-0.021582274,-0.09994957,-0.12832253,0.112794146,0.0069241715,0.011002012,0.048442267,-0.120498836,-0.25631177,-0.37862182,-0.008634479,-0.071943246,0.09574617,0.22102284,-0.31369686,0.2199528,0.057669606,0.13415027,-0.070829496,0.06287754,-0.017439688,-0.13935003,-0.15178011,0.30449232,-0.020833598,-0.14873448,-0.046606507,0.05524545,0.01336085,-0.016023971,0.30652916,0.111624606,-0.067524344,0.12740363,0.11351027,-0.09509607,0.08031004,-0.06359619,-0.046218768,-0.03463968,0.17895947,0.11573126,-0.074869834,-0.26851326,-0.04824736,0.05247961,0.017640742,-0.502291,0.0136633115,-0.30527613,-0.05413022,0.12008106,-0.1663302,0.049345665,0.050658107,0.007327021,0.044081587,0.06109407,0.0065713674,-0.07557686,-0.19493704,-0.051931582,0.22413237,-0.21557653,-0.109574996,0.0007104623,0.10233367,-0.09145689,0.24529243,0.25678295,-0.09374195,0.09298528,-0.067299485,-0.026573405,-0.05461013,0.059737116,-0.050170504,0.32847172,0.0040239384,-0.032847006,0.059244595,-0.015179753,-0.082027294,-0.043590307,0.2737847,0.2696832,-0.40295076,0.022745892,-0.06101674,-0.087254986,0.1989878,0.06625148,0.08103196,-0.12783737,0.14676082,-0.13929982,-0.06013351,0.12658197,0.1783135,-0.16298954,0.17303318,-0.05835924,-0.21321611,-0.16787943,0.39557147,-0.23290156,-0.09505207,-0.0040705907,0.16423,0.15188608,-0.118593425,-0.1685889,-0.31029478,-0.15306474,-0.030185323,-0.3580976,-0.0060234,0.10522685,0.0796537,-0.1746025,0.13783154,-0.36726892,-0.17044392,-0.033935983,-0.024665408,0.13709007,0.05450279,-0.25918338,-0.044460125,-0.16444097,-0.12396783,0.050684694,0.12299009,0.13385986,0.00437512,-0.109056056,0.107125945,-0.014581107,0.14303657,-0.102894135,-0.22505991,0.26159465,0.07555467,-0.14140485,-0.046556618,0.14431243,-0.12744041,-0.08222082,-0.139531,0.026735669,-0.043377932,-0.25663817,0.11426046,-0.15576628,0.09572876,-0.27984563,-0.03979562,0.035852525,-0.35267556,-0.02468016,0.07786428,-0.012666043,-0.086303435,-0.063799046,0.06883531,0.12686577,-0.10246293,-0.09952945,0.056179635,0.12563372,0.09837673,-0.01480081,0.19582248,0.115095876,0.019524656,-0.35575414,-0.058098752,0.21881443,-0.22264826,0.2567976,-0.0454046,-0.15005295,0.038458005,0.106675476,-0.07954833,-0.1202887,0.09326234,-0.033749685,-0.051579945,-0.045568194,-0.21951215,-0.01781189,0.038052447,-0.27149466,0.116876185,0.03630839,0.12803328,-0.0009825048,0.11430824,-0.08112214,-0.0391938,0.20286925,-0.08000412,-0.30148014,-0.14448877,0.047968775,-0.08244001,-0.30915803,0.21954411,0.18278228,0.055432893,-0.03768924,0.066405006,-0.12337935,0.08492451,0.15211049,-0.15469496,-0.102803126,0.26320568,-0.2545842,0.07814884,0.11347757,0.29026422,0.1768942,-0.034656618,0.09625963,-0.039130833,-0.0063184286,0.13589275,-0.17844833,-0.16896725,0.010253755,0.21205696,0.07156246,-0.06331698,-0.04247467,0.025812682,0.11736905,0.008930824,-0.11433985,0.022367971,0.036897708,0.021897502,0.1880816,-0.15861659,0.0034187816,-0.008056029,0.068071626,0.09226444,-0.424299,-0.008062799,0.07985781,0.057934318,0.15616488,-0.22382902,0.28241384,-0.07453436,0.050389625,0.10170456,-0.14339627,-0.20232578,-0.0007504859,-0.1046763,0.11554449,-0.0009627241,-0.011038633,0.10168772,-0.11268282,0.31156,0.11514467,0.14699447,-0.09749895,-0.15679449,-0.18691173,-0.18917042,-0.1545296,0.1076666,-0.17413557,0.0057418835,-0.19880743,-0.101555884,-0.15172529,-0.055739436,-0.0054185023,-0.156434,-0.15565853,-0.22863835,-0.47050843,-0.011734768,0.10735068,-0.008331844,-0.0033526553,0.1514223,-0.08997308,-0.11612046,0.19990544,0.03989801,-0.10508871,-0.060904738,-0.010573578,0.02861355,-0.028956639,-0.063890524,0.3040772,-0.0039512566,-0.028875455,-0.016577188,-0.06477244,-0.0013661686,0.101072684,-0.06603732,-0.09342836,0.16651878,0.0076364563,0.0060382467,0.02562688,0.05698718,-0.1802535,0.25989443,0.11891824,0.2032921,0.032584265,-0.124196894,0.11526912,0.18456142,-0.14416307,0.12691084,0.13997395,0.20996796,0.26063827,0.17700616,-0.0026848651,0.13599719,-0.01996881,-0.15763645,0.027183538,0.03930564,0.019511983,-0.12630929,-0.14844744,0.11186145,0.17048687,-0.07920277,-0.06389205,-0.17164415,-0.025893314,0.13769883,-0.018467378,-0.07684894,-0.047203537,0.0077485093,-0.07222482,-0.007271758,-0.03689513,0.11925893,-0.007549219,0.12791522,-0.033117518,0.117372885,0.08192059,-0.08519265,0.08588491,0.018644754,-0.061604306,0.13425165,0.14138947,-0.17296363,-0.079994716,0.073473215,0.26834732,-0.17572106,-0.115223505,0.20995367,-0.060447447,0.11823262,-0.07849742,-0.016452411,-0.058495045,0.106386945,-0.017894758,0.17930977,-0.012842672,-0.07546893,-0.25884083,0.18697798,0.22355655,0.07412615,0.22756815,-0.0143837165,-0.07825718,0.12285231,-0.054204717,0.03989713,0.026542524,0.12740487,-0.1231686,-0.38684446,-0.115506634,0.012694731,0.046623647,-0.03888243,0.10141071,0.16614725,-0.09784632,-0.091229014,-0.08704127,-0.16518837,0.11520982,-0.0064140735,0.102741465,-0.1517233,0.031039309,-0.10487617,-0.092181034,0.12365624,0.09310588,0.026372159,-0.04189984,0.09188019,-0.12610938,-0.031030841,-0.13227873,-0.050661378,0.021761058,-0.16333345,-0.11316359,0.021324338,0.055204708,-0.24580525,0.105098285,-0.104003675,-0.043230414,0.014052488,0.069436654,0.18149686,-0.32452014,0.09459175,0.0062294584,-0.0897193,-0.049339224,0.012731805,0.04830932,-0.07922856,0.16426522,0.07404953,0.17097993,-0.103404306,