{"model_state":[{"clause_net":{"weight":[-0.2991334,-0.30870846,0.2396502,-0.20459321,-0.1307543,-0.23568591,-0.072102435,-0.041194096,-0.31868878,0.40786305,0.277101,-0.15479125,0.12846395,0.030214656,0.24485385,0.17408563,0.2673678,-0.29340777,0.065437295,-0.089066885,-0.060297817,-0.12751308,-0.06720646,0.26082116,0.23682763,-0.0010118898,0.35993668,0.34400436,-0.29201165,-0.3135196,0.12678726,0.24190894,-0.17105229,0.23869352,0.0084273415,0.032914147,-0.014840003,-0.27154344,0.13689034,0.01644891,-0.25572324,0.23398946,-0.08743737,-0.23911569,0.2447967,0.26196477,0.119457744,-0.220019,0.15384482,-0.13699691,0.16850072,0.23554197,0.010383407,0.03025762,0.32316372,-0.2523388,-0.18440497,-0.30216855,0.32970226,-0.27752364,0.26958922,-0.16825104,-0.12984815,0.24207821,0.070530094,0.18207408,0.028533328,-0.26336432,0.2627051,0.13415599,-0.005661015,-0.22370444,-0.2962201,-0.3088618,-0.34242913,0.027836425,0.31455338,-0.14512426,0.22208598,-0.08519467,-0.26872918,0.24066703,0.22057833,0.2273731,0.03518866,0.09342756,0.040715754,0.28554785,-0.26494592,-0.2977415,-0.20459938,-0.22670048,-0.030094443,-0.32449675,-0.28479922,-0.116936475,-0.27436382,0.17585458,-0.28825873,-0.20454183,0.083168395,-0.16954161,-0.28989145,0.12565002,0.03387083,0.022100788,-0.111909755,-0.028071212,-0.3381588,0.14188923,-0.23725349,0.16765745,0.3158355,-0.24879348,0.33737013,-0.2232939,0.13624652,-0.039970126,0.19621943,0.15553764,0.106150515,-0.07274807,-0.05879913,-0.30066988,0.28918493,-0.03427509,0.13340595,0.118209645,-0.01720625,-0.12865901,0.18296926,0.30516553,-0.23076001,0.25205094,0.39391923,0.09163805,0.15724625,-0.10757067,-0.11328419,-0.16745917,-0.0038520717,-0.15122284,-0.0067926655,0.0741381,0.058716014,0.07100566,-0.111001745,0.2736063,0.3172153,0.209114,0.26299974,-0.023793155,-0.26536795,0.25282627,-0.15322419,-0.24763986,-0.22581403,0.0058352617,-0.23680864,0.24597435,-0.031007411,0.030489134,0.07420829,-0.2110608,0.20343691,0.232087,0.1987153,-0.25928727,-0.12948959,-0.04615416,0.22263366,-0.10783562,-0.10767843,-0.011615924,-0.06926468,0.1886844,-0.09628205,0.24154158,0.18725188,-0.23778528,0.15734495,-0.09609559,0.14915594,0.04808875,0.014910681,-0.11213125,-0.058887754,0.20068695,-0.14401092,0.1642727,0.35761526,-0.17685372,0.2079359,-0.24717751,0.32725996,0.26670313,0.099967435,-0.33703414,-0.32561728,-0.042904634,-0.1601266,-0.17251025,-0.15304288,0.0020907712,-0.20801926,0.25945613,-0.057149034,0.020352755,0.32280558,-0.21274556,-0.18237087,0.1414768,0.06252536,0.13087918,0.31454203,-0.034730494,-0.1545289,-0.09974279,-0.3307006,-0.20146291,-0.21883394,-0.22367208,0.12880583,-0.14312512,-0.25293002,-0.12227,0.030176252,0.29131743,0.14280683,-0.35040265,-0.14305365,-0.12751019,-0.24405573,-0.03084356,0.36317882,-0.106024124,-0.18030545,0.0028928693,-0.35193548,-0.0023141913,0.09033752,-0.0016963388,0.114899084,-0.2242001,0.17075723,0.005398712,-0.20105562,-0.23025613,0.091570765,-0.06327358,-0.17325792,0.11352523,-0.029413506,-0.26187196,0.2775156,0.26989278,-0.2798116,0.4292867,-0.19500074,-0.035913385,-0.25001976,-0.07907829,0.16579546,-0.051943347,0.2499146,-0.27046326,-0.14922106,-0.29780927,-0.0043421104,0.3365242,-0.15898141,0.122991905,0.12758002,0.22521366,0.03171482,0.09512601,-0.09376945,-0.14718533,-0.32070878,-0.30164206,0.24505131,0.011440022,-0.18991573,-0.25929722,0.05632089,0.0038415776,-0.19428316,-0.08877382,-0.093509085,-0.21395493,-0.09481125,0.19336817,0.19826181,0.18664393,0.055554986,0.034649994,0.124003395,-0.19308925,-0.19853748,-0.06569816,0.1474292,0.12935844,0.13408107,0.2920176,0.39533624,0.14636673,-0.011007569,0.23020856,-0.054729722,-0.12412825,0.17984094,0.16447549,-0.17875473,-0.20724389,-0.10585066,0.13123235,-0.19323586,-0.044653594,-0.06445284,-0.08168196,0.23760407,0.07929239,0.095800065,0.22529934,-0.16112418,0.27734026,0.16647169,-0.27471453,0.13358629,-0.22976133,-0.20673053,0.15654851,0.31029242,-0.06350417,-0.17891453,-0.12545432,-0.09886724,-0.08265086,0.1754233,0.27155277,0.14261332,0.05755077,0.092297964,0.17379849,-0.12793408,0.13639405,-0.40364558,-0.26200417,-0.15754387,-0.36615035,-0.10678513,0.29854754,0.062450986,-0.060944684,-0.17524683,0.16842605,-0.0726947,0.15941054,0.22884837,0.060460374,-0.2114567,-0.17911145,-0.10145351,-0.2331144,-0.18687016,0.15942329,0.07119254,-0.00056564773,-0.16213089,-0.12469834,-0.096393615,0.316348,0.17691404,0.28987145,0.19328393,-0.014381836,-0.1136335,-0.24540667,0.21259807,0.24713026,0.14595723,-0.19030987,-0.08314436,0.29524723,-0.14189357,0.27062082,-0.17325588,-0.2047593,-0.22968163,-0.009374561,0.0028591035,-0.06928658,0.29832006,-0.13575888,0.08154385,0.008992147,-0.13376105,0.18944387,0.26414457,-0.24874577,-0.33229584,0.105958894,0.2571443,-0.030602843,-0.2551581,-0.040423438,-0.0061430205,-0.21148129,-0.3045794,-0.1864668,0.022234062,0.0037981963,-0.15407737,-0.28333753,0.13836664,-0.14240128,-0.15985532,0.22238258,0.24913564,0.36115384,0.06362216,0.32460672,0.09507153,-0.08343159,0.2428513,0.016001686,-0.2494605,-0.3257653,-0.06318138,0.20977269,0.16836968,-0.09777404,0.24632043,-0.14451043,-0.28716776,-0.22065482,0.06554065,-0.13462558,0.14421071,-0.22637625,-0.22103624,0.17527935,-0.18844818,0.17001161,-0.035004977,-0.24830654,-0.23804168,-0.009524829,0.13030946,-0.13949414,-0.3664951,0.21327423,-0.14930782,-0.20520407,-0.20418185,-0.21141085,-0.00048184014,0.09779415,0.236081,0.18593776,0.11501734,-0.20586665,0.044219125,-0.22231966,-0.08177711,0.18691906,-0.23373774,0.06853607,-0.120222755,-0.050161388,-0.34615657,-0.22264211,-0.26860437,0.004153945,-0.12918217,0.05343488,-0.29586777,-0.22089298,0.24272451,-0.25183642,0.13381915,0.29932836,-0.19163363,0.20606925,0.2306611,-0.31609467,0.008753965,0.054971203,0.039793555,-0.222906,-0.2147627,-0.25152344,-0.26699984,0.083322965,-0.17786437,-0.011388515,0.015149486,0.08949559,0.115385205,-0.09800799,-0.31020874,-0.36019897,-0.21626534,0.04831692,0.19306779,-0.30715993,0.03305415,0.02831615,-0.17738469,-0.1836147,0.12264757,-0.1512217,0.15053181,-0.13595991,0.19474621,-0.24579038,0.098444946,-0.29422924,-0.35246202,0.23978929,-0.062144745,-0.0064351694,-0.067566894,-0.22771637,0.19744729,-0.1283254,-0.22257403,0.32126373,-0.079652645,-0.16842267,-0.09292028,0.2961121,0.023431022,-0.2732897,-0.33927897,-0.30474862,0.04211733,0.010692179,-0.17027697,-0.25784692,0.34369615,0.009656378,-0.0895566,0.08948811,-0.2582933,0.15828301,-0.079585366,0.19091465,0.20284666,0.09351289,-0.030862419,-0.20780553,0.1280171,-0.065768756,-0.26145676,-0.15618598,-0.11532861,0.28659317,-0.24943198,-0.0878138,0.17474356,0.26394504,0.20255801,0.006153318,0.23986597,0.23877646,-0.09777924,-0.22702676,-0.3436962,-0.06534983,0.32609847,-0.27638292,-0.111517,0.15845409,-0.1682297,-0.21720546,0.18279576,-0.119252875,-0.18338789,0.0019159993,0.11447795,-0.120634906,-0.21261136,-0.25568694,0.2785623,0.21057196,0.09196072,0.0744659,0.12127391,-0.13949466,-0.040664755,0.17472379,-0.23661748,0.29170203,0.05031594,-0.3662727,0.31039545,-0.16676,-0.020825533,0.08047334,0.20933868,0.41468132,0.3019456,-0.015194515,0.1159153,0.075122446,0.2229065,-0.24643989,0.12581953,-0.1767008,0.21024176,0.07335463,-0.15766998,-0.16686974,-0.22670697,0.36262813,-0.18513301,0.2936187,-0.026175672,0.14074889,-0.10684517,0.14889762,0.11352862,0.2617199,0.092531174,0.13174509,-0.016316185,0.3085643,0.1761936,-0.31829634,0.0070302743,-0.041045442,-0.10663655,0.23458314,-0.25270972,-0.12036521,0.24881062,0.14063954,-0.18575771,0.039027218,-0.12184351,0.1292905,0.05058027,-0.16027527,-0.11939571,0.07839805,-0.06163178,0.19989769,0.20220217,-0.070633516,0.023403028,-0.12179596,-0.12839645,0.05693535,0.120613195,-0.13324873,0.1295201,-0.18866968,-0.15241379,0.18640201,-0.1263005,0.20490971,0.0014770441,-0.13489518,0.15264903,0.14795984,-0.03359193,0.192161,0.13069814,-0.0043529575,-0.005147557,0.044406798,-0.046674315,0.13492396,-0.042857718,0.09726938,0.06720896,-0.12312816,0.081084535,0.0067513706,-0.09990741,-0.17352153,-0.03823514,0.1535176,-0.17283551,0.030365657,0.11606663,0.17766592,-0.10942965,0.16387874,-0.09006442,-0.110253304,0.09126672,0.17795835,-0.05028629,-0.033754293,0.12615307,0.020640412,-0.1296088,-0.04743956,0.030639704,-0.012917685,-0.0689433,-0.03540054,-0.10997118,0.06036945,0.034139946,0.015437425,-0.19754209,0.13203843,-0.1271551,-0.034207508,-0.04146509,-0.11382494,-0.043201465,0.18842094,-0.06439693,-0.110185966,0.17809793,0.16761577,-0.18553708,0.1067029,0.17718713,-0.19782971,-0.097625926,0.076927096,0.10661724,0.052992456,0.03973699,-0.17337699,-0.089615725,0.14504257,-0.08772981,-0.19527172,0.0167919,-0.033911213,-0.20106348,-0.155469,-0.084388874,-0.03812097,-0.1698749,0.1017146,0.05491183,-0.12200006,0.07146967,-0.17252776,0.007186689,0.13496639,-0.12222703,0.09486627,-0.17729215,0.12988567,-0.07181178,0.123455375,0.11849047,-0.0364231,0.0012832849,0.10723098,0.0028377334,0.09416378,0.118482865,0.16369644,0.085560136,0.1627564,-0.06377216,-0.098060295,-0.16462684,-0.08750329,0.1151031,-0.049970634,0.14386542,-0.038660266,-0.04732743,-0.0757634,-0.1693386,0.06176409,0.045853864,0.020390725,0.15921217,0.11539323,-0.036217283,-0.025496969,-0.19523276,-0.19554123,0.06761043,0.1063082,0.0065344945,0.087721735,0.053197127,-0.08877693,0.046189357,-0.14868072,-0.0310181,0.16026913,0.10473707,0.14105032,0.0031739222,-0.1088737,0.08857331,0.07676105,-0.059986204,0.005502786,-0.005481434,-0.2063482,-0.1486867,0.18564157,0.034015168,0.13954699,0.09875514,-0.04231,-0.20516536,0.0789148,-0.03280451,-0.032099523,-0.039741937,-0.020959849,0.12913172,0.12371384,-0.010175477,-0.15786952,0.043987587,0.20237555,0.053146396,-0.18807848,0.14149457,-0.043035746,0.06298765,0.11161069,0.08383966,0.19996686,0.054953437,-0.032417193,0.017891293,-0.19722399,0.10236985,-0.115146205,-0.10418652,0.1965503,0.04028275,0.15514703,0.18355744,-0.07124656,-0.15852602,-0.08350375,-0.13173848,-0.1854214,0.027203243,-0.023835663,-0.09903849,-0.19421701,0.16483344,-0.16732304,0.1735581,-0.113026634,0.122789614,-0.09474768,-0.20228818,-0.17834459,0.0522249,0.012680551,-0.055855494,0.1776181,0.12056942,-0.007877511,0.16761859,0.001057535,0.04597293,-0.07528413,0.19020347,-0.12708871,-0.033511568,0.042995725,0.1845891,0.022843476,-0.16827923,-0.05921087,0.045508083,-0.041987706,-0.008038111,-0.10267957,0.11500688,-0.17878413,-0.13660254,0.0023637628,0.12152706,-0.028285611,0.030246295,0.17058133,0.14800018,0.09177094,0.08084879,0.0060074297,-0.101229124,0.037671287,0.07359041,-0.041672297,0.19448347,-0.118108846,-0.1993802,0.046136215,0.10909207,0.0046506184,-0.18973358,-0.17002092,0.06144093,-0.058362506,0.05796323,-0.12013274,-0.057378,0.12360238,0.16612732,0.13939011,-0.046303723,0.06923885,-0.14083791,0.04939219,0.19702886,-0.022709522,0.18443073,0.12775889,-0.11364597,0.0147291785,0.09884011,-0.11137838,-0.18402463,-0.06035635,-0.09114825,-0.059184425,0.20056394,0.058971647,0.18000972,0.14246595,-0.099166654,-0.12966524,-0.14157765,0.11991987,0.084284455,0.040648244,0.069038875,0.12147548,0.100956395,-0.045651853,0.12916297,0.14793961,0.16060062,0.03621788,0.021446496,-0.09643282,-0.0362405,-0.06380367,-0.046693705,0.17028162,0.11530469,0.114416085,0.0047994116,0.011331769,0.18567902,0.024719423,-0.027518727,0.17521869,-0.10602781,0.083469644,-0.169246,-0.08178743,0.18773943,0.09060794,-0.049140614,-0.106816076,-0.0736308,-0.010433466,0.16719535,0.033590462,-0.13564228,-0.048795227,-0.12307609,0.09080488,-0.019179102,-0.06706639,0.14574645,0.041644953,0.05927982,-0.1348144,-0.006274641,0.07582413,0.13633,-0.08397436,0.08226247,-0.12036393,0.20123367,-0.07338972,-0.06491065,-0.065760106,0.09968146,0.095836505,0.07993704,-0.12528974,0.14811599,-0.10180086,-0.1977307,0.11965845,0.13794096,0.20136291,0.18116176,0.032084532,0.18984471,0.15268593,0.20710382,0.15993398,-0.046584383,0.16144183,0.14804885,-0.035787262,-0.057885528,0.10556995,0.11807096,0.08899913,0.07310006,0.1809857,0.017094458,-0.07089854,-0.010003567,-0.03118233,-0.020980652,0.071717225,-0.18633229,0.18026945,0.19340946,-0.15820368,0.20074536,-0.04124585,-0.103096694,-0.19874871,0.09541284,-0.20289898,0.13764708,0.070206076,0.1890892,0.12600838,0.08539518,0.17604938,0.019567242,0.00012209688,-0.15311038,-0.20824619,0.08816019,0.1914962,-0.12048856,-0.16824217,-0.1981634,0.04023338,-0.16929027,0.026358683,-0.066696316,-0.024481045,0.03917525,0.17969565,0.056205403,0.1650784,0.14018498,-0.03683575,-0.02697635,-0.07132814,-0.16634144,0.053172518,0.062032994,0.021235486,-0.17700249,0.096548654,-0.12321036,0.11484511,0.035047818,0.16083638,-0.09740599,0.19521163,-0.20693302,-0.17068815,0.080174945,0.063031346,-0.07049355,-0.17838466,0.06915704,-0.1541356,-0.06296935,-0.13468757,0.1189277,0.074462965,0.0442021,0.1579876,-0.06574971,0.03727554,0.11412464,0.08226329,0.069787785,-0.096771866,-0.081640676,-0.19695872,-0.008051782,-0.15612578,0.013326083,-0.18443456,-0.009538446,-0.053673908,0.12793222,-0.08328702,0.019998858,0.057765666,-0.10174898,-0.20190175,0.19196504,-0.18974195,0.135455,0.11687475,0.113524765,-0.1265276,0.049361516,-0.0279751,0.15986587,0.052531213,-0.18599471,0.15321167,0.12554069,0.11574548,0.1532319,0.14058965,-0.14424889,0.07675404,0.18291259,0.020928927,-0.08231085,0.09850762,0.097371586,0.06279968,-0.17435907,0.1848674,-0.1664365,-0.14687973,0.11754755,0.12695225,0.14008178,0.038142126,0.17962599,-0.1414369,0.051393863,0.047156215,-0.034427267,0.19616777,-0.15861806,0.12795755,-0.08527505,-0.17417838,-0.12563507,-0.03293096,-0.02086047,-0.0703878,0.15702412,-0.09726555,-0.06107551,0.1236828,-0.066261366,-0.048706762,-0.14232722,0.10220806,0.032592036,-0.11698245,0.18516359,0.1847838,-0.037494205,-0.023047475,-0.024177767,0.11864794,0.047711045,0.008998928,0.042920608,-0.001984323,-0.1730689,0.054000873,-0.032202926,-0.19142766,0.12559395,-0.017350782,-0.051621675,-0.20233689,-0.11912159,0.2072076,-0.17764415,-0.11488747,-0.08317126,0.12933944,-0.0293726,0.16336796,-0.10700864,0.023145214,-0.04141679,0.14381361,-0.1154507,0.16427116,0.12552841,0.07443077,0.08797222,0.009400564,-0.06668118,-0.20317863,0.17055683,0.09336693,0.16401736,-0.15801252,0.08725701,-0.12249511,0.20527722,-0.10473884,0.00039925083,0.19736834,-0.0630266,0.19473252,-0.15362556,0.16176298,-0.113667645,-0.1984904,-0.04161945,-0.00067543535,0.054085065,0.0082279425,-0.07699501,0.090183735,-0.08963497,0.01127328,-0.15626787,-0.053982355,-0.06352706,0.06081036,0.060695868,-0.0147204045,-0.08433563,0.1611083,0.08961399,-0.020476704,0.076354794,0.07560531,0.029280083,0.090654224,-0.06365973,-0.044873882,0.06471388,-0.019306818,-0.1445374,0.029253561,-0.020838944,0.010999034,-0.1019499,-0.03685116,0.15991363,0.19582845,0.13236311,-0.12690236,-0.19451395,0.070909254,0.08776926,0.03248197,0.1606264,0.050181765,0.022433786,-0.04618153,0.111950435,0.16341773,0.049509164,0.15627304,-0.19723712,0.13754703,-0.068205625,0.020436263,0.20740852,0.13410692,-0.026654206,0.106128015,-0.07710134,-0.20746486,0.08986101,0.06157846,0.03418623,0.0024189202],"bias":[-0.0072231023,-0.012107496,-0.009429968,-0.0037986876,-0.0029340766,-0.0035296131,-0.0035094605,-0.022458075,-0.008241852,-0.03306356,-0.01782135,-0.0131751085,-0.01956778,-0.012548229,-0.017571941,-0.010929431,-0.006926905,-0.011493784,-0.0209901,0.005065875,-0.0052134846,-0.00408175,0.009151741,-0.021272514,-0.034068055,-0.005788453,-0.018250221,-0.008931367,0.013249259,0.02513313,-9.3499344e-5,-0.017669443,-0.005957089,-0.005576808,-0.0106379315,-0.021087429,-0.037550595,-0.0018519437,-0.01025098,-0.026096864,-0.010427478,-0.026774086,-0.004000237,0.010932689,-0.04460117,-0.00981465,-0.006321241,-0.029082118,-0.0029717581,0.020264288,-0.0072387354,-0.02694824,-0.0354519,-0.004477927,-0.000819477,0.009519884,-0.0107034175,-0.0037013893,-0.010176564,-0.0020410682,-0.016722929,-0.019791648,0.020578992,-0.0061422884,-0.013702448,-0.025505107,-0.0022029125,-0.008481789,-0.016125979,-0.029878668,-0.013421014,-0.0019475804,-0.0021295347,0.019313829,0.008004655,-0.004381378,-0.015148647,0.017747363,-0.023804745,-0.008087937,-0.039042834,-0.0109397285,-0.022589223,-0.009563738,-0.030619204,-0.005665127,-0.021524863,-0.009101176,0.008827227,0.013954657,0.009131618,-0.007665822,-0.026353134,0.015852861,0.0039615636,-0.04263833,-0.020655762,-0.0021044977,0.008943456,-0.027961351,-0.031716604,-0.0059544267,-0.018209321,-0.018645123,-0.006434107,0.025415327,0.02974658,-0.03711777,-0.004765084,-0.04728176,-0.011436249,-0.029598115,-0.03386041,0.0030056152,-0.0053418567,-0.019517332,-0.0038694968,-0.011367012,-0.028055118,-0.010478233,-0.030431034,0.0075912103,-0.0070998524,-0.027946362,-0.021004274,-0.045422643,-0.00930528,-0.014229801],"σ":[]},"aggregator":{"layers":[{"weight":[-0.013473122,0.024813827,0.08204991,0.10033141,-0.22862867,0.15856178,0.10930179,0.09144193,0.22207624,0.13890432,0.0842321,-0.009312482,0.13013448,-0.13834259,0.06730884,-0.09115857,0.19806975,-0.12587638,-0.12959154,-0.091661826,-0.059622955,-0.06130063,-0.06930889,0.005253146,0.06288885,-0.07447814,-0.034488626,0.028607922,0.021700356,-0.10343202,-0.07327474,-0.10722908,0.108660676,-0.05336552,0.1147964,0.07140478,-0.16065004,-0.15769863,-0.18429288,-0.039790347,-0.07523645,-0.059921116,-0.14074913,0.12166678,0.058083247,0.15184526,0.21263081,0.05050046,0.13635719,0.08901211,0.21574554,0.046176296,0.0070179133,-0.07151706,0.12196627,-0.034400377,-0.12607825,-0.134395,0.13867484,-0.08718663,-0.07650351,0.1300997,0.11815629,-0.032997888,0.054556243,0.052363142,0.028291624,-0.082687445,-0.24733236,0.14012201,-0.123313196,-0.04851821,-0.16114831,-0.052075133,-0.09614199,0.058035683,0.033055235,0.11427931,-0.044023145,0.013952933,0.016051946,-0.15485892,0.13492456,-0.11325408,-0.079164326,0.22454615,-0.09125654,0.09757143,-0.08915326,0.09696003,0.0032011722,-0.011306315,-0.17321275,-0.014857753,-0.01041174,-0.10803337,-0.1562012,0.032227796,0.027082993,-0.13920526,-0.0060002115,0.05333205,0.07056224,0.121165276,-0.095775254,-0.05743365,0.14674263,0.23089418,-0.18174216,0.10724918,0.08716037,-0.08440074,-0.14085123,-0.089458406,-0.112085655,-0.0675935,-0.21255936,0.10667017,0.10100951,-0.058792144,0.060215913,0.0014764181,-0.12568706,-0.17687868,0.008534036,0.06601972,0.014976926,-0.13033767,0.08350545,0.08978593,-0.00854841,0.0041129584,0.10200991,-0.09528419,-0.1454759,0.05631107,-0.17596522,-0.15669638,-0.09524705,0.079508506,-0.07196685,0.07650707,-0.08419629,0.10267583,-0.053982753,-0.054797895,-0.18231802,-0.05613679,-0.0030067298,-0.13913503,-0.15942374,-0.13803245,0.102888815,0.111370645,0.030047249,-0.07177078,-0.07477563,-0.08750319,0.24538818,0.076595955,0.0803422,0.05083828,-0.068744324,-0.008210818,0.19337676,0.1422202,-0.2410627,0.24447532,-0.058610383,-0.097191684,0.07321853,-0.15979925,0.21456185,0.108583555,0.085714765,-0.103623204,0.02522486,-0.12156565,0.21392938,0.09567846,-0.12104243,-0.16192149,-0.06597049,-0.11895775,-0.10579606,0.121937126,-0.13007551,-0.09248913,-0.37158322,-0.21978173,0.16482212,-0.078597985,0.11812224,-0.035125576,0.0969397,0.03409893,-0.08429856,0.0013878782,0.06772183,0.1896359,-0.069198884,-0.0615787,0.100291386,-0.048057903,-0.14757116,-0.039049502,0.12728095,0.04337359,-0.15706313,-0.00016904538,-0.18092969,0.0021713267,-0.041687515,0.07479668,0.20909195,0.09104728,-0.09810553,0.014067279,0.1040891,0.2519139,-0.2000406,0.05821835,-0.13108233,-0.14407246,-0.2961281,0.077166855,-0.06995828,-0.026010467,0.18740152,0.057523943,-0.11034043,-0.15700337,0.05026118,-0.15484525,-0.004111046,0.02365752,0.13977388,-0.14806199,0.06596778,-0.07052194,-0.107057914,0.11780687,-0.07873305,0.024142709,0.15616338,0.08720523,-0.09827182,-0.050307862,-0.07244908,-0.14946817,-0.10979758,0.011061583,0.15592794,0.22668862,0.09931676,0.037995722,-0.11695442,0.016540702,0.09746857,-0.105705805,-0.09051554,0.1643844,0.15754332,-0.17411011,0.1336225,0.022989282,0.051752426,0.14782283,-0.09944816,0.10715439,0.059345115,-0.0898156,0.13297515,-0.05587673,0.003983672,0.041213606,-0.011861314,-0.008819527,0.1451248,0.08319747,-0.20921722,-0.08459567,0.014175781,0.16253725,-0.08538366,-0.10372122,0.07870109,0.09224465,0.0029877743,-0.06516344,-0.0017867897,-0.15524365,-0.0047047744,0.12111035,0.19828516,-0.16571143,-0.14258596,0.0051560146,0.016113715,0.12391713,-0.1174561,-0.03906048,0.02396534,0.021369977,0.14168929,0.020341692,-0.11179085,-0.06467507,0.17680718,0.011890274,-0.0052597807,0.13473567,-0.11529298,-0.15430617,0.08128034,-0.11273421,0.10938215,0.15662527,-0.052956782,-0.027623855,0.10650114,-0.036999755,0.028077384,-0.0745533,0.07612394,0.06081912,0.11419689,-0.008100922,-0.12956111,0.013679423,0.0026320873,-0.05524028,0.080754876,0.18495072,0.12655582,0.01651677,-0.05201012,-0.018407397,0.04859435,-0.08341901,0.08174377,-0.05624747,-0.22198802,-0.09423829,-0.07016106,0.10066317,-0.04416737,-0.06953947,-0.1129947,0.07177997,-0.110337265,-0.114359185,0.18324415,-0.06489759,0.06071049,-0.005236535,-0.18731853,0.1335443,-0.102508165,0.08407276,-0.12992315,0.15345138,0.04309907,-0.09463349,-0.05529311,-0.059660453,0.045494966,0.102469206,0.11490164,-0.15307905,-0.1384265,0.11603428,0.025939576,0.051743038,-0.16753057,0.028642463,-0.11919492,-0.0067140567,-0.027525105,-0.10677624,-0.037276,-0.060418278,0.08246163,-0.036271524,-0.12683527,-0.16966294,-0.13346542,0.008314357,-0.09963618,-0.023623206,0.05596518,0.107294925,0.18826427,-0.12617478,0.20949769,-0.17064999,0.13041979,-0.053772848,-0.042665016,-0.11439145,-0.31605417,-0.028027847,-0.17457211,0.12028526,-0.124117285,-0.19644326,-0.12341638,0.06639806,-0.0464597,0.083752126,0.061519563,0.29175454,0.009076085,-0.1624789,0.018239608,0.075624526,0.045564845,-0.17444171,0.04507397,-0.12257211,0.082090855,-0.22972703,0.0035894634,-0.20271567,0.15140577,0.11867776,-0.029921018,0.054123152,0.16133592,0.002027647,0.10985369,-0.022391591,-0.1468718,0.28484136,-0.041494202,-0.023620306,0.06990767,-0.1575281,-0.051050194,-0.2746465,-0.060400464,0.10303977,-0.11557244,-0.23258287,0.20103155,-0.025274023,0.03455405,-0.18183091,-0.15101479,-0.26626402,0.017643765,-0.12475679,0.069658615,0.009412597,0.042366758,0.19807765,0.08746914,-0.21393618,0.0025364019,-0.037894793,0.025747165,-0.15944628,0.09130318,-0.1818341,0.011829958,0.10498828,-0.14190805,-0.1203552,0.033630706,0.048012238,0.080970176,0.044713262,0.16864018,0.14194766,0.017725302,-0.042474844,-0.05537536,-0.065783225,0.24686208,-0.108057134,0.030397905,0.040785816,0.03058321,-0.06755188,-0.037678372,-0.1554235,0.08030588,0.1392702,-0.13643955,0.021138277,-0.16595553,0.023197953,-0.22777756,0.12394785,0.33650088,0.031863887,-0.084661305,0.02659577,-0.014667994,0.021200914,0.13279009,-0.049984492,-0.10229309,-0.15130238,-0.006232191,0.0037689053,-0.013201981,-0.3030557,0.04385574,0.10578898,0.028480543,-0.12949651,-0.15384528,-0.051614232,-0.07068139,-0.18477227,-0.1581912,0.100212626,0.0068280306,-0.11695797,0.25885913,0.181444,0.14528307,0.08478862,-0.046794023,-0.067383,-0.022264348,-0.15238793,0.17953035,-0.12964301,-0.18352963,0.09843326,0.103258364,0.10911569,0.01363806,-0.14102943,0.06754182,-0.022542633,-0.17990299,-0.07206169,0.23814029,0.035581533,-0.14913325,0.009447755,0.10822183,-0.08143757,-0.03567798,0.10990509,0.01228094,-0.10746556,0.14071605,0.021840934,-0.13619177,0.06803665,-0.072208665,-0.09784496,-0.0480605,0.22172144,0.12305257,0.052783478,0.10873817,-0.21222404,0.012624543,0.21979733,-0.03582639,-0.021883877,-0.021124251,0.17380415,0.09966416,0.044038814,0.12511878,-0.092558295,0.0747729,-0.027440561,0.124227814,0.038201887,-0.019030774,0.061426695,0.022571977,-0.018899422,-0.06025722,0.11163597,-0.13316414,-0.011967889,0.12511486,0.053215973,0.03701807,-0.06638655,-0.013908115,0.06895321,0.018900119,0.060468376,-0.009769261,-0.043144453,0.21137714,-0.02007708,0.13316712,0.18859808,0.06655274,-0.13883325,0.059655964,-0.21754785,0.14500202,-0.18637328,0.035629638,0.06753262,0.074996695,0.02055064,-0.0452941,-0.15862602,0.019342644,-0.050718915,0.21777977,0.0044756522,0.23826778,-0.034240194,-0.02570452,-0.14207603,0.0936241,0.15222432,0.040733196,-0.12646413,-0.1507608,0.0021375264,0.09398807,0.11026665,0.016963903,-0.027881699,-0.04118349,0.0590571,-0.1078112,-0.0334899,0.09972272,0.13532972,-0.073934644,0.10518766,-0.134532,0.0060462914,-0.12229423,-0.13029528,0.08712241,-0.049798004,-0.15450722,-0.019517837,0.018681545,-0.10438875,-0.056774847,-0.122819394,-0.005771754,-0.015188242,0.065434344,-0.18642963,-0.048251007,0.056876045,0.05579797,-0.061220247,-0.23116063,0.04628073,-0.10715906,-0.14190863,-0.05261925,-0.0033178946,-0.02165018,0.071560815,-0.043480106,0.032862138,0.103857055,0.026507214,0.20696172,-0.13551138,0.040790394,0.11748551,-0.1589055,0.113151744,-0.24139959,0.12593639,0.049927227,0.037171908,-0.21573177,0.07092498,0.0029397032,0.061453007,-0.21387723,-0.13688202,0.15465555,-0.185491,0.19383585,0.058595758,0.14104758,0.05682412,-0.00881838,-0.035944715,0.038168155,-0.091809,0.073024884,-0.15814087,-0.06286546,-0.11969308,-0.11065979,-0.16303381,-0.1324162,0.03972814,0.202352,-0.14091974,0.0598645,-0.10620277,-0.0165301,-0.059284955,-0.13168037,0.03157088,0.106375486,0.21829656,0.023478523,-0.2857248,-0.100922056,0.11742682,-0.107437015,0.06541551,-0.15511389,-0.1985944,0.04242993,0.04889585,-0.040225666,-0.021219267,0.08632505,-0.10379321,0.018996084,-0.007906214,0.16126764,-0.00089104986,0.14487211,-0.030814769,-0.1787651,0.13066617,0.23255022,0.056777064,0.11463584,0.094065696,-0.15108912,0.11197146,0.14972936,-0.066292726,0.040079307,-0.044177916,0.010222297,-0.11690176,-0.10487714,-0.04961186,-0.2276803,-0.038897645,0.15034908,0.04247103,0.044574518,0.056932747,0.0050887773,0.068442576,0.044829316,-0.0937308,0.13379127,0.028639961,0.1090954,0.0029395835,0.026592053,-0.056188922,0.19766313,-0.060286786,-0.06384805,0.061535124,0.05153361,-0.010965808,0.0027461273,-0.06174336,0.13643283,0.17371216,0.058159422,0.008102107,-0.0704038,-0.13251388,0.07407971,-0.09620723,-0.0824032,-0.1854822,0.18328604,0.026372198,-0.15338044,0.07989117,-0.013409247,0.063572705,-0.15963268,0.045864258,0.0050676134,-0.113940954,-0.12209682,0.24666944,0.076781295,0.2528849,0.06380262,-0.17591894,-0.048069824,-0.09534379,0.047309224,-0.02524709,0.062334567,-0.10735507,0.029373398,-0.14104691,-0.1311158,-0.06719351,0.14905088,0.046451736,-0.16490977,-0.14549631,-0.06872867,-0.23132673,0.089035295,-0.01933265,-0.053812545,0.1456987,-0.115097925,-0.025020124,-0.08521865,-0.09869682,-0.062067248,-0.1740195,0.04188941,-0.025197802,-0.08639197,-0.14214274,-0.12203432,-0.051481593,0.22974038,0.02485045,-0.053624753,0.04801884,0.06386412,-0.055599127,-0.13787566,0.115599856,0.16422515,0.08248189,0.109957024,-0.2307421,-0.115892105,-0.0010688632,0.049376003,0.069140814,0.080430046,-0.18946365,-0.023925032,0.0869168,-0.08643807,-0.029286906,-0.16519757,-0.12051693,0.14320776,-0.17113394,0.12321457,-0.01449029,-0.1668227,0.109188505,-0.029646892,0.19412959,0.21313651,-0.119944766,-0.09481124,-0.12913103,-0.091597445,-0.0034727035,0.032839067,-0.15131587,-0.21500449,0.038663145,-0.05421722,-0.013578234,-0.22455718,-0.20377317,-0.00088949857,-0.15326312,0.081531,0.13525937,-0.04868837,-0.028579285,0.047639973,0.10721063,-0.08535496,0.055146646,0.08306167,0.11111132,0.013775508,-0.010975531,-0.10194099,-0.10763987,0.09217713,-0.16933703,0.03880003,-0.15711923,-0.013778673,0.0479853,0.11735905,0.055957485,0.035332076,0.14618254,-0.085842796,0.025312439,-0.11149636,0.03795528,0.10342716,0.044771824,-0.0529744,-0.13135654,-0.08728421,-0.07644713,-0.054342926,0.08472175,-0.11151658,-0.046124283,-0.1710224,0.08659516,0.10753133,-0.055801917,-0.16073892,0.093664534,-0.07551264,-0.048735652,0.07683304,0.137266,-0.051892363,-0.10852661,-0.051075652,-0.05699582,0.10717427,-0.10348293,0.11318394,-0.16885035,0.08587992,0.11424065,0.10832547,-0.11321787,-0.037417956,0.024599034,0.033652768,0.0061068,0.12449963,-0.014217122,-0.0902954,0.1743451,0.0398216,-0.052258376,0.21795762,0.060120974,-0.014269878,0.0656962,-0.19836557,-0.09918048,0.08431089,0.17982337,0.050688215,0.06759549,0.058266453,-0.19160032,0.018132968,0.15404,-0.034800634,-0.18984818,-0.05983326,0.18966264,-0.046435785,-0.10596165,-0.006828653,0.044860855,-0.058666166,0.06799562,-0.17583577,0.020765541,0.05004458,-0.030560022,0.08538836,0.05860167,0.019204414,0.029875118,-0.0062660812,0.119912416,-0.09807934,-0.16786611,0.015208023,-0.07230352,0.18730672,0.0075592073,0.13887939,-0.025599875,-0.13511963,-0.10023793,0.16377833,-0.12041943,0.09880326,-0.14119801,-0.113303795,0.17329454,0.099389926,0.07139876,-0.055226892,-0.12907727,0.04113076,0.030753369,0.08930127,-0.14619648,-0.0027543595,-0.006416032,-0.017456286,-0.17066187,-0.12904195,-0.12816708,0.022656232,0.139341,-0.003012208,-0.092377335,0.22386003,0.006555557,-0.06536654,0.036638826,-0.21951461,0.087495096,-0.11984391,-0.0017820696,0.103535205,-0.07889565,0.036781292,-0.004572286,-0.09002245,0.116558835,0.070459925,0.10337715,-0.12886904,-0.14184609,-0.19402628,-0.14108424,0.12582363,-0.09010406,-0.07782486,0.12842289,-0.10924232,0.10479755,0.0526412,-0.06357993,-0.076873414,-0.08836703,-0.12680261,-0.015897706,-0.079119,0.0717801,-0.059671346,-0.0004996094,-0.111561984,-0.10610133,0.26161292,-0.038810384,-0.044966448,0.11578466,-0.08560821,-0.02910215,0.12168194,0.07922616,-0.26967913,0.04422413,-0.028927105,-0.16067712,-0.04065848,0.116276,0.25018668,-0.2169075,0.032321066,-0.13211085,-0.1315707,0.01006279,0.25023392,0.05968116,-0.10134704,0.12192717,0.06500081,-0.029433675,-0.12732309,-0.063799255,0.0040626414,0.11781218,-0.13203414,-0.10604004,0.061360817,-0.105615534,0.01736385,-0.029195832,0.09202838,-0.01761827,0.059070513,0.03624612,-0.13256645,-0.0027690136,-0.11213749,0.08381729,-0.002551659,-0.0040432573,0.005156248,-0.052506093,-0.043096337,-0.24414611,-0.026724093,-0.0076804124,-0.20210248,0.23240373,0.07592709,0.083368115,0.08443752,-0.09542279,-0.16922846,0.09726061,0.067608714,0.23897445,-0.11398241,0.069272414,-0.09663846,-0.17006928,-0.22255597,0.044960793,0.057591874,0.045728203,-0.0683774,0.04616083,0.022431312,-0.1122743,-0.14790614,-0.14583,-0.12396269,-0.118360884,-0.1027105,-0.0024000444,0.11187681,0.02806114,-0.10521501,-0.17233965,-0.0016857191,0.06241236,0.14046824,-0.11669095,0.10226244,0.054083783,-0.18153086,0.10015879,-0.13092057,-0.06478633,0.14936185,-0.029549688,-0.053562757,0.117692836,0.0074941767,0.23635696,0.08372659,0.033778008,0.106129535,-0.05201392,0.035795305,-0.030786252,0.0022273643,0.22357883,0.19210735,0.15470366,-0.06477544,-0.090287745,0.06532001,0.034874294,0.021648059,-0.16851465,0.092277996,-0.046129383,-0.0034219585,0.16039321,0.019816684,0.09876469,-0.04840259,-0.018705534,-0.053939633,0.07386358,-0.08762338,0.09345942,-0.059724636,-0.0047963816,-0.07926117,-0.22163464,-0.032893002,-0.06855009,-0.0022257287,0.16728143,0.13585922,-0.062683895,-0.24201228,0.08267552,-0.060207587,0.018475559,-0.23726498,0.18265663,-0.059736405,0.07473964,-0.053874195,-0.11751865,-0.16359769,-0.086574465,-0.114879824,-0.12816976,-0.1090453,-0.013466157,-0.098426804,0.005485601,0.05389137,0.16976716,0.22635779,0.08426941,-0.22313298,-0.028837131,-0.01737957,-0.17342937,0.064654775,-0.11073552,0.11965201,-0.20026642,0.21363309,-0.24778026,0.071724005,0.06009278,0.14755757,0.025664397,-0.10519594,-0.06338823,-0.074060194,0.1444959,0.030474788,0.10785965,0.112936445,0.13460946,-0.14541966,-0.21273553,-0.17473416,-0.008512593,0.08973391,-0.07188298,-0.18355705,-0.2697131,0.1389632,0.21267246,0.0940608,0.104303025,-0.0015075448,0.035411082,-0.08598467,0.08823349,-0.19351433,-0.13412365,-0.023262074,-0.1275251,-0.121762395,0.07182379,0.10594896,-0.055303857,0.00048508978,0.05987069,-0.18411425,0.10534905,4.489402e-5,-0.11016223,-0.15328047,0.01046395,-0.0739635,-0.06847327,-0.06902474,-0.058318853,-0.0045535183,0.090576254,-0.16764432,-0.024356237,-0.042451896,-0.24151352,-0.0711725,0.06790051,-0.11175987,0.30939806,0.011433501,-0.07623053,0.11218276,0.15422492,0.13270082,-0.1170749,0.022712845,0.043694027,0.031675987,0.20358595,-0.1364612,0.00793223,0.106857605,-0.110633336,0.00034487413,-0.08347921,0.20364052,0.032147106,0.033788882,-0.15484975,0.12329387,-0.053656057,0.034174435,-0.026136331,-0.1826965,-0.1543314,0.11624422,0.10426287,-0.12268537,-0.092253976,0.05370656,0.015148745,-0.11640801,0.062299304,-0.0017491172,-0.008111598,0.141687,0.056084078,-0.1755159,0.11776251,-0.24616043,-0.089668475,-0.061088104,0.15012717,0.043664895,-0.009838552,-0.0134683885,-0.15020268,-0.14314212,-0.1816718,0.114728265,-0.030627895,-0.17225884,0.15897292,-0.04769296,0.0035014723,0.047827143,-0.013661619,0.031995703,-0.0045212586,-0.22440587,0.10374371,0.14201786,-0.060697403,0.026048921,-0.1800781,0.19271395,-0.0820245,0.041765362,-0.14758375,0.016535925,-0.0077161365,-0.033273112,0.08983094,0.06210837,0.062030766,0.046740264,-0.0121261785,0.00096623704,0.036368728,-0.10403845,0.11461572,-0.055747014,-0.04799315,-0.22542068,-0.13140477,0.1650358,-0.08630697,0.034678675,-0.047269046,0.039135665,0.1098247,-0.03581986,-0.0259722,0.095801994,0.02990388,0.06750847,0.053915013,0.02818436,-0.17749223,-0.11625323,-0.096997574,-0.0864092,-0.075277574,0.09461051,-0.17352572,-0.14729412,-0.13037449,-0.1674265,0.047900382,-0.09268749,-0.0031477455,0.09678964,0.1356894,-0.08937727,-0.07644472,0.011807967,-0.18052506,-0.15841874,0.13660619,0.02410704,-0.15710028,-0.021903217,-0.070084356,-0.013271143,-0.114041485,-0.09394941,0.11936085,0.080341645,-0.15565768,0.051020715,0.08997979,0.22384523,0.03708143,0.26704255,0.15748908,0.122439615,-0.087467544,0.09788216,0.106364354,-0.040514335,0.062149886,-0.0015762977,0.09799677,0.10477252,-0.091303565,0.09846868,-0.1717617,0.14258172,0.12556848,-0.08897091,-0.2894909,-0.0349404,-0.2851358,0.14032915,-0.030243129,0.045238577,0.008054101,0.12637676,0.106020324,-0.24185613,-0.03557091,0.038694352,0.0038994339,-0.07166256,0.018982418,0.00087252806,-0.092911206,-0.2541667,0.06627992,0.056168094,0.01921936,0.29016346,0.00019455132,0.042460896,-0.26712364,-0.034818605,-0.12625082,-0.08646388,0.07609145,-0.03805409,0.010432424,0.06788433,-0.0106131695,-0.145272,-0.08770358,0.007764005,0.17008395,-0.01945501,0.10736887,-0.066530064,-0.23895697,-0.11687415,0.005402353,0.11455865,-0.15157019,-0.012565747,0.26468343,0.012235729,0.1366309,0.01891419,0.07997024,-0.02753297,-0.0741465,-0.26339242,0.1717159,0.13132305,0.114456385,0.04632446,-0.035632387,0.05776293,0.21805817,-0.11710678,0.07500286,0.17963406,-0.097407416,0.1273735,-0.1257145,0.010366061,0.0017170927,-0.0033163882,-0.04724413,-0.04318106,0.123336665,-0.07792648,0.046729404,0.075064436,0.14406458,0.13772115,0.13273935,0.018352468,0.0581748,-0.004202726,0.06283449,-0.026446197,-0.17186531,-0.016541183,0.10337356,-0.030506939,-0.02566643,-0.12766081,0.08936017,-0.18925999,0.05164839,0.015118571,0.10605455,0.163087,-0.13164434,-0.15802762,-0.056192275,0.009847016,0.09555452,0.06755252,0.10537735,0.020372687,-0.044718795,0.054378547,-0.016706059,-0.020936323,0.020788059,-0.09570929,0.01899554,0.13032934,-0.016196039,-0.061406184,0.2116705,-0.12425355,0.04834555,0.13290645,0.037489254,0.17092694,-0.085154034,0.062289402,-0.060016353,-0.06264124,-0.08690261,0.08806373,-0.19658038,-0.2188176,-0.14563765,-0.06522692,-0.036439262,-0.17169775,-0.03512714,-0.19760786,-0.15086886,-0.12256559,0.06572423,0.07427747,-0.061121915,-0.07996706,0.13818567,0.02564925,-0.11444822,-0.19978055,-0.1374182,0.15054937,0.018968659,-0.27864307,0.00767934,0.015937516,-0.16296688,0.1345582,0.10345292,-0.041681588,0.04747204,0.22341579,-0.06291626,-0.05227618,0.10609805,-0.18424529,-0.0069905287,0.07643941,0.12384401,0.019765764,0.07810712,0.07011375,-0.09540313,0.13493095,-0.083415605,0.0326819,-0.076986276,0.09891336,0.02108801,0.10679009,-0.19203736,-0.006811375,-0.07294476,-0.09336945,-0.12588336,0.11695265,0.15097496,-0.096711725,0.15449023,0.09624738,0.07823001,0.17808552,0.13902874,0.021734672,-0.04347844,-0.024285978,-0.15285598,0.027447283,0.1126214,-0.07098267,-0.08968303,0.03414166,-0.076592326,-0.12458924,-0.12571149,0.03827733,-0.106878415,0.005699236,-0.09155108,0.110304914,-0.12761809,-0.16682944,0.07454174,0.09482996,0.07808994,0.013327987,0.12937932,-0.060388736,-0.10300986,0.14295542,-0.047335085,-0.011426014,-0.059072506,-0.17468138,-0.0021030195,0.019602155,0.099708885,-0.049965005,0.031208424,0.122374326,0.034316897,0.09531939,-0.110023215,-0.07567605,-0.112080105,-0.17033756,0.0342902,0.059375606,0.19041225,-0.03569784,-0.114453755,-0.056014482,0.031023668,0.020928627,-0.04366402,0.046684895,-0.02847415,-0.16384812,0.092589505,0.09392259,0.112876415,-0.081983164,-0.018986147,0.03638247,-0.020934634,0.1427305,-0.14296652,0.08850186,-0.18879989,-0.106342904,-0.07372487,0.05814222,0.06724513,0.085751146,-0.026205659,0.07447243,0.06596391,0.030515997,-0.11964165,-0.0616377,0.14781566,-0.12423258,-0.11203988,-0.013197445,-0.06509438,0.06830577,0.12107174,0.018979182,-0.061045762,-0.08386384,0.050129943,0.17812511,-0.0514997,0.12140232,-0.054505154,-0.09687395,-0.036332086,-0.016178217,0.046075266,-0.062088784,-0.09391823,-0.10276965,-0.0140066175,0.07703851,0.07297014,0.09612715,-0.15602215,-0.10157526,-0.08573956,0.076308265,0.16793488,-0.020954676,0.056202162,-0.11545893,-0.029959843,0.20312703,-0.04090396,0.22474684,0.13877247,0.06880947,0.1517647,-0.036560543,-0.05631578,-0.12333116,0.05903649,-0.12759577,-0.0054938123,-0.04907988,0.17056973,-0.021975644,-0.06871437,-0.09286018,0.089618616,-0.04022463,-0.13226043,-0.15473317,0.034159604,0.012973994,0.142782,0.07865154,-0.06858485,-0.04218418,-0.14131023,-0.124704055,-0.07948108,-0.01823024,-0.10427808,-0.07738754,0.11702222,-0.05782092,-0.11972015,-0.029932233,-0.10147359,0.049981944,0.11434037,0.24768962,-0.038077842,-0.0777436,-0.013143167,0.10947437,0.033766713,-0.111639015,-0.16380207,0.16071518,0.11415055,-0.16518836,-0.045855608,-0.1765712,-0.023582665,-0.029965736,0.17865723,0.18505064,0.16770008,-0.015531589,-0.118222356,0.034704883,0.13508299,-0.13149442,-0.094371706,0.0989238,-0.036142472,0.13043886,0.1050688,0.07590141,0.13316336,0.11657479,-0.009400658,-0.13226976,-0.066606,0.038014427,-0.0009348271,0.0019460917,0.04742505,0.07065253,0.090763815,-0.11447793,-0.14464943,0.029145136,0.0778426,0.16815913,0.0027746265,0.07604429,-0.107988685,0.119608,0.0995219,0.08379225,-0.09215228,-0.111907706,0.0070800693,0.030474877,-0.014202247,0.0023722465,-0.05965932,0.10712693,-0.023440644,-0.009029668,0.0031072078,-0.16596057,0.045989692,0.1679659,-0.15137802,0.10394437,0.101971805,0.09328626,-0.17512555,-0.14661019,-0.2494514,-0.16987431,0.001369266,0.053400412,0.17185561,-0.16426636,0.010352077,-0.016448032,0.037156537,0.031712238,0.008658249,-0.013098714,0.17342788,0.19777352,0.019676294,-0.03253924,0.07437225,0.17840967,-0.054279093,0.026744159,0.0060296278,0.080573216,0.13674787,-0.048677254,-0.084126346,0.11990899,0.07826247,0.07648754,0.12869306,0.10860871,0.2517921,0.018249651,0.18761262,-0.06264815,-0.10052945,-0.06012092,-0.13060106,0.04883131,-0.15066108,-0.061225086,0.104520716,0.15337102,0.21055761,0.20750858,-0.087727435,-0.14416482,-0.027895039,-0.01504051,-0.16660312,-0.013116637,-0.09481331,0.10851281,-0.15885703,0.108088925,-0.034397658,-0.15865423,-0.039734807,0.056983817,0.00017777635,-0.16257468,-0.01943163,-0.025064152,-0.1220251,0.052933395,-0.12594013,-0.11911229,-0.042085584,-0.110918224,0.06374611,0.064124815,-0.110810794,0.07799596,0.034974642,0.1813336,-0.16834566,0.13300271,-0.14260279,0.04510129,-0.07771976,0.11139533,0.016239587,0.19910233,-0.06099817,-0.09713018,0.042230066,-0.16053005,0.0042289905,0.057100125,0.2162024,0.108116336,0.0014468117,-0.0048170704,0.09169002,0.022754107,-0.09421438,-0.07332668,0.06140113,-0.14803292,0.1737724,0.11390605,-0.13422051,-0.046042383,0.1936962,-0.13736227,0.1307172,-0.16421281,0.07636421,-0.071961686,-0.10295387,0.12910326,-0.080098495,0.1778919,-0.053596087,0.026811168,-0.05542131,0.044371124,-0.023169307,-0.1088938,0.09890013,0.19611509,-0.06414024,-0.17804195,0.025636518,-0.07885174,-0.12646118,-0.14616503,0.042634938,0.13724679,0.13978676,0.034960378,-0.08573874,-0.014728738,0.19597459,-0.12126756,-0.07956677,-0.14711381,0.018547993,0.12431728,-0.118925825,-0.20194335,-0.0588824,0.05946373,0.055286214,-0.11259191,0.074730344,-0.12727652,0.013293278,-0.080987535,-0.036611836,-0.08856276,-0.056402244,-0.0014152239,-0.23903303,0.021134166,0.08107384,-0.0021093334,-0.062082347,0.17898852,-0.14998284,0.07765477,-0.055190094,0.020167464,-0.004392237,0.044386584,-0.10736895,-0.17944154,0.1405851,0.033464655,0.0726607,0.14691435,0.046626996,-0.22245109,-0.015018044,0.054884788,0.13212436,-0.03028781,-0.16349389,0.01453881,-0.05478236,-0.09972279,-0.11133187,-0.071345754,0.17356977,-0.011101838,0.1156746,0.011514987,-0.07407351,0.16072996,0.013590834,0.020097142,-0.07283147,-0.17629099,0.024995934,-0.0042341547,-0.09958297,-0.11065482,-0.16717994,-0.040213868,-0.026777774,-0.15380466,0.06536112,-0.058528002,0.10102433,0.11806086,0.122271776,-0.08274329,-0.016520076,0.047183592,-0.07427014,0.16686445,-0.21414354,0.017355122,0.068982705,0.11443302,0.044414762,-0.0648422,-0.12722462,-0.007954447,0.070595905,0.07988379,0.109814815,0.07114303,0.09667237,-0.11437548,0.119640544,0.018559936,0.073984034,0.061495405,0.009578884,-0.13775146,0.06226843,-0.19764246,0.18319316,-0.059136663,-0.031341176,0.00033207296,-0.10122696,0.122110434,-0.099681765,0.14273657,0.08181337,-0.11849625,0.11361125,0.019399595,0.043669134,0.011290332,-0.15881868,0.076143496,0.09213701,-0.14924808,-0.10301458,-0.16191627,-0.06309386,-0.15190841,-0.033815928,-0.020873006,0.18667138,-0.038327754,-0.09794256,0.043419152,-0.2863872,0.0025149507,-0.16109128,-0.028107632,-0.114239745,0.20724629,-0.05260368,-0.0730493,-0.0013740716,0.022974847,0.10227813,0.03745827,0.033505265,0.14388624,0.10468642,-0.02747148,-0.22967944,-0.09090612,0.05801041,-0.037544936,-0.19809194,-0.13913047,-0.07526266,0.13932112,-0.03224393,-0.11123496,0.15445456,-0.109038405,0.0011449511,0.06381332,-0.09650231,-0.10167209,0.060027964,0.082322925,0.17453408,-0.10878959,-0.13086496,-0.028276911,0.09448015,-0.06454974,-0.020961083,0.13075383,-0.07590089,-0.04688286,-0.1686533,-0.18423153,-0.12212867,-0.13217936,-0.07356492,-0.009056059,0.076155595,0.114051424,-0.14246754,0.03562026,0.09052167,0.24363703,0.22229683,-0.00926929,-0.003315005,-0.074497476,-0.0263009,0.19258668,0.076251745,-0.121560566,0.044760756,-0.11747881,-0.12430532,0.084950335,0.12053483,0.07165499,-0.025147006,-0.15158468,-0.14133385,-0.04491578,0.0018708729,-0.099072695,-0.0022638326,0.12595493,0.09525226,-0.15306568,-0.17419544,-0.019167515,-0.19725668,-0.18116271,-0.13397315,0.06620633,-0.034725897,-0.04467022,0.17706482,-0.04795637,0.01904899,-0.037595946,-0.042429946,0.02093351,-0.14713976,0.14340098,-0.031260222,0.042397037,-0.015105586,-0.075616226,0.18081164,0.0076513737,-0.22715093,0.19630826,0.08608747,-0.08234879,0.16608453,0.022423066,-0.14860293,-0.03750242,-0.06757792,-0.20325065,0.06331209,0.031056166,-0.12640361,-0.096932195,0.038805604,0.19912335,-0.16147228,-0.09023884,-0.0154013205,-0.08969918,-0.066422544,-0.06074045,0.14332592,0.022681864,0.002908553,-0.14656617,-0.031107718,0.059540704,0.02233062,-0.075000405,-0.068598114,-0.27727312,-0.060793504,-0.0512871,-0.16002867,0.09126326,0.08077393,-0.12132123,0.06380064,0.11572831,-0.08674652,-0.1032752,0.209962,-0.16287345,-0.015858313,-0.088277645,0.21419108,-0.0927843,-0.13042952,0.0052598324,-0.056569934,0.049064945,-0.06398739,-0.018327745,0.09780297,0.029026214,0.1184036,-0.11024572,-0.11397531,-0.0924211,-0.09861889,0.09106635,0.19399819,-0.25819805,-0.0750938,0.025686506,-0.16125795,-0.06567188,-0.13842732,0.023075469,0.12546904,0.19259414,-0.069984674,0.10269113,0.023040898,-0.095514365,0.037921187,-0.24976948,-0.015861208,0.033114232,-0.018301865,-0.027773645,-0.08269751,-0.022230016,0.005907222,0.04556794,0.10812066,-0.089934304,-0.017608155,0.116047315,-0.112457424,-0.23315121,0.065390214,-0.07066546,0.13866396,0.07339904,0.03282055,0.056820944,0.06929595,0.061664924,0.16425566,-0.15365908,0.057716675,-0.12111923,-0.09124232,-0.023223363,-0.083397105,-0.12564628,-0.118152015,0.020062143,0.023728134,0.03023811,-0.102208905,-0.10139335,0.04952494,-0.018319422,0.10692406,0.014768247,0.12493697,-0.006028295,-0.17912948,0.12890786,-0.113789424,0.099751934,-0.08591735,-0.07898807,-0.2122229,-0.12292761,0.026758522,0.09008962,0.05547295,-0.08534677,0.18669893,-0.20528205,-0.12983005,0.023473553,-0.010444826,0.0953657,0.1363295,-0.07951721,0.14383487,-0.16823451,-0.14145772,0.2106353,-0.031314027,0.03539096,0.031189704,-0.049791314,-0.032198273,-0.016213216,-0.23299487,-0.08952767,-0.11500738,-0.122179255,0.20708314,0.15776987,-0.1272965,-0.038852792,0.09752365,-0.038458206,-0.063796856,-0.00573074,0.040816884,0.00077664724,-0.0526698,-0.040437825,0.08779065,0.07798263,0.050033554,-0.0867667,0.22295319,-0.011319528,-0.11458177,0.08156289,0.042766366,-0.14295043,0.10836659,-0.15706247,0.06325976,-0.14211333,0.034487393,0.03201413,0.1419798,-0.052212287,-0.00023300557,0.14234444,-0.15514737,-0.08332522,0.036397137,-0.11431253,0.1896374,0.075950816,0.0760422,-0.15111077,0.12826304,-0.10039493,-0.11383092,0.04587028,-0.06883273,0.037754312,0.016394034,0.07393099,0.10511973,-0.06777205,0.09863041,0.05569186,-0.14224239,0.08117291,-0.04946822,-0.016292436,0.07943258,0.087962635,-0.07095812,0.035213355,-0.08851203,0.00036405172,-0.11456395,0.02957199,-0.07785344,-0.1040727,0.13951634,0.12859127,0.1528744,0.067997634,-0.035259552,0.024683544,0.041529033,0.03932094,-0.18358614,-0.07377111,-0.17888452,-0.11344696,0.14057855,0.008426857,-0.120139845,0.016466804,-0.22005668,0.15302208,0.15560116,-0.12939814,-0.17169347,-0.031972006,-0.0646448,-0.008545034,0.09801815,0.012035904,-0.07891373,-0.07892582,0.21115005,0.040365145,0.114421606,-0.07262643,0.04428486,0.1846194,0.12665173,-0.21868922,0.09861394,0.06506218,-0.11902833,-0.033997595,0.0749773,0.21933827,-0.054770395,0.003658198,0.037814878,-0.014643094,0.19031787,0.12805016,0.098894075,0.15443915,0.12261917,0.011605609,-0.12174205,-0.07012925,-0.029304035,-0.042366743,0.27476317,0.17646237,-0.097901285,0.112806596,-0.006235218,-0.006242038,0.06792813,0.030944046,0.061494898,-0.07475365,-0.032418277,0.0071123354,0.16235779,0.15066825,0.08086488,-0.027955784,-0.024026869,-0.092569895,-0.11921644,0.00029205641,0.10964647,-0.06462615,-0.11837706,-0.0065083876,0.05827585,-0.043658487,-0.103644274,-0.14985399,0.13982023,0.065852456,-0.11713315,-0.030501654,0.02662588,0.1498052,0.15094134,-0.18362913,-0.08442143,-0.07947459,-0.13752848,0.0628841,0.0031335764,0.050716903,0.003867681,0.016723627,0.05180773,-0.03939135,-0.022496082,0.16064315,0.096779674,-0.11654445,-0.06004211,0.14392316,0.10025255,-0.16944134,-0.048085146,0.07381354,-0.121387616,-0.06360357,0.11898717,-0.19781308,-0.021512596,0.078212135,-0.066177346,-0.003506409,-0.0734173,-0.0070000207,-0.11276309,0.090438046,0.07989398,0.05247827,-0.021240039,-0.035598367,-0.020736486,-0.12651159,-0.019014835,-0.07648342,-0.059328284,-0.0151187545,0.081195444,0.006892082,0.09954363,0.11069671,-0.15599605,0.012763951,0.07668905,0.1617917,-0.10034932,0.10827679,-0.15104574,-0.0038099296,-0.18164104,-0.0394583,0.096881956,0.09603245,-0.10252309,0.010136834,-0.12464849,-0.10162424,-0.039873987,-0.06574702,0.12260241,-0.03325814,0.058232978,-0.0047032107,-0.016194748,-0.12121786,-0.036881264,0.1553045,-0.06913937,-0.11222496,-0.026156057,-0.097181074,-0.2587838,0.04137241,-0.0037294663,-0.11937128,-0.05124088,0.15469362,-0.03882136,0.2745245,-0.1427791,0.21828564,-0.14132346,-0.020605065,-0.14357944,0.02517107,0.013975207,-0.031691227,0.3058742,0.064045094,0.014797364,0.24717373,-0.06857333,-0.043170508,-0.19646691,0.12577116,-0.12988107,0.0149959605,-0.04276759,0.16895996,0.27762043,0.21900158,-0.18725954,0.013667673,-0.16415642,0.12416122,-0.11691844,-0.12626587,0.015160047,-0.041760426,-0.0628847,0.0576081,-0.11926917,-0.12146405,0.07555053,0.031118432,0.062275264,0.008816549,-0.10387155,0.10230254,0.007560928,-0.1311978,0.06640201,0.065960504,-0.1537942,-0.0722613,-0.09435161,-0.048785646,0.08572293,-0.088092156,0.023915002,0.056597773,-0.13990553,-0.03887664,-0.11340765,0.09598489,-0.15174349,0.038122464,-0.10105695,-0.07877278,-0.13431625,-0.09007959,-0.10019007,0.020790325,-0.01922166,-0.14551811,-0.032139413,-0.23072788,0.008284413,0.050671134,0.18226649,-0.15623559,-0.12538345,-0.07208152,-0.0039393166,0.054898057,-0.0043129963,-0.11919415,-0.14043966,0.20185027,-0.08411534,0.07794079,-0.18309885,-0.10869359,-0.13926014,-0.017259466,-0.12866396,0.11322072,0.015007175,0.012529387,0.115774214,-0.013620323,0.16669677,0.15494196,-0.092838846,0.016586812,-0.09116973,0.19833338,-0.21445736,0.1351785,0.10188062,-0.015808495,-0.071728416,-0.026867295,0.033413567,0.06060666,-0.061758216,-0.037142053,-0.11802936,-0.06528966,-0.03867945,0.107866794,0.1921001,-0.14157787,0.1028881,0.1799165,-0.16128726,0.15594848,-0.023843853,-0.0034804614,-0.12546453,0.048010763,-0.074425265,0.106976695,-0.07186889,0.11998222,-0.04953999,0.10862803,0.022968752,-0.012380449,0.069872856,-0.018815212,-0.11484245,0.18687378,-0.16879098,-0.110786684,0.10840654,-0.022975937,0.04688406,-0.13934563,-0.17636697,0.11211714,0.05105384,-0.055014472,-0.15620424,-0.097786866,-0.081476696,-0.09911735,0.013378702,-0.023012115,0.09699978,-0.07971721,-0.03344472,-0.13049443,-0.13087201,0.14073154,-0.10994291,0.16154666,0.23974358,-0.15619269,-0.24908468,0.07214143,-0.12468768,-0.023320084,-0.11862015,-0.011262737,-0.15245543,-0.058681857,0.11219863,-0.048729587,-0.07069066,-0.04836302,0.15214439,-0.08000094,-0.010762887,0.07146075,-0.08874373,0.10795046,-0.08305884,-0.123709954,-0.024999028,0.24062198,-0.084976815,-0.017333023,-0.15085086,-0.12962931,0.044934798,-0.0052991044,0.12856542,0.07248873,0.038957044,0.13686155,-0.18762578,0.017212905,-0.035211254,-0.23524345,-0.15645239,0.03979499,0.16646011,-0.034898866,-0.022966405,0.10740587,-0.03997801,-0.08657604,0.09387673,-0.091429085,-0.14301018,-0.11752811,0.14587437,0.11678495,-0.103905655,0.20614007,-0.17019701,-0.08245338,-0.08050041,0.09914336,-0.0651446,0.13594125,-0.11399915,0.0028785805,0.1955717,0.018932492,-0.07962592,0.18663839,0.051980898,0.16591984,-0.12170154,0.07045844,0.04110865,0.21216834,0.024885539,-0.026942134,0.12457684,0.1788642,0.07952015,-0.0030537012,-0.22887295,-0.075542405,-0.071023166,-0.12821454,-0.036378413,0.00857317,-0.020003144,-0.016033001,-0.23126252,-0.08306696,0.06588835,-0.14271516,-0.18281686,-0.12558587,-0.03998111,0.06714552,0.11344997,0.11516347,-0.0006674196,0.10862166,0.002425735,-0.22355108,0.0101915505,0.16547795,0.019556485,0.09353311,-0.048481893,-0.06221306,0.036527146,0.039106563,-0.06096741,-0.13513976,-0.13691042,-0.13108376,-0.069393225,-0.08165874,-0.02960911,-0.0976387,0.0046996833,0.063483715,0.12931062,0.17211086,0.09236522,0.06015012,-0.13897805,-0.021237535,0.116648145,-0.11131605,0.07767817,-0.12235666,0.12584125,-0.12975389,-0.06045001,-0.0077628167,0.11164259,0.088540256,0.13254005,-0.05429933,-0.083735734,0.081747144,0.13113475,-0.062892415,0.20872284,-0.151882,-0.080203414,0.05655601,0.06583824,0.2287537,-0.038350563,-0.06955037,0.103560515,-0.099796385,0.22431196,0.29385352,0.00029488682,0.0008146381,0.041834157,0.064829975,0.09660768,0.015433011,0.054995835,-0.09161279,0.014334636,-0.12029664,0.025402654,0.058932353,-0.14775546,-0.104185775,-0.008184536,0.12430594,0.22808132,-0.12505779,-0.027215343,-0.01768009,0.05887209,-0.23048612,-0.13302432,-0.036356788,0.047433008,0.1360967,0.106841035,-0.02876449,-0.16595098,0.1148327,0.015525346,0.0005750416,0.05691811,0.05866128,0.2690266,0.0150608625,0.04499322,0.06768918,-0.089243904,0.21901454,0.004420197,0.17926821,0.13968329,0.053608943,0.12907296,0.040886942,0.032246757,0.08403511,0.09640492,-0.057123,-0.14942397,0.15989491,-0.15195847,-0.059410833,0.080776446,-0.026014602,0.0056549157,-0.17219381,-0.01524416,0.02491924,0.011453055,-0.014386982,0.012848243,-0.031056035,-0.14325663,0.016463386,-0.39480418,-0.1789869,-0.10391255,-0.12188124,0.09433077,0.23720954,-0.23063657,-0.016770251,-0.021688182,-0.1197055,-0.022320062,-0.083416805,-0.021754226,0.094749965,0.008010401,-0.15292275,-0.0729824,-0.19831748,0.022369172,-0.026617201,-0.031237384,0.12316316,-0.14247689,-0.16059886,0.14694127,-0.103725955,-0.13705698,0.18478325,0.0049357587,-0.006306517,-0.016711414,0.023298204,-0.29291254,0.05205542,0.1057532,0.1239534,-0.18437193,0.19413143,0.0034632368,0.023099817,0.04992587,-0.14372393,0.0054542036,0.14540729,-0.13240273,-0.15266599,0.19442014,0.012439083,-0.054752406,-0.0907612,-0.20081182,-0.098035544,-0.25881535,-0.11466824,-0.06252923,0.2879678,-0.13246784,-0.24696961,-0.27634928,0.15996942,0.02961653,0.10862011,-0.06703842,0.15887663,-0.06108327,0.0012190623,0.10724123,-0.021169933,-0.20627865,0.11248326,0.109516785,-0.032975268,-0.15400772,0.10715066,-0.0577429,0.06745567,-0.03971727,-0.12530275,0.22070335,-0.1795731,-0.11856247,0.025066469,0.058229953,-0.018690517,-0.09200954,0.0767435,0.080441535,-0.0066154273,0.10552479,-0.14214411,0.024148498,-0.07474772,-0.055573188,0.13904625,0.05444022,0.08811877,0.08310352,-0.15034032,-0.12682875,0.28465682,-0.07572295,-0.11416371,0.0995674,-0.11412575,-0.033609938,-0.33362713,0.09637798,0.0866765,0.06844553,-0.24535131,0.018065382,0.037475828,-0.09793013,-0.15554328,-0.06266306,-0.09942161,0.17669436,-0.008806916,0.017650567,0.01984867,0.19392909,-0.006324648,-0.11437718,-0.16006306,0.22320667,-0.15260205,-0.11525172,-0.076195285,0.055748098,0.07702112,-0.099015675,0.053058088,0.15543802,0.0038545516,0.03909593,-0.1566069,-0.14858018,-0.021358673,-0.086663194,-0.16047491,0.2651334,-0.06419357,-0.03998405,-0.06336406,-0.17543623,-0.16251963,0.19675076,-0.20358402,-0.0064992877,-0.0682758,-0.020120645,-0.027384177,0.09638859,-0.099028535,-0.008328959,-0.001884699,-0.09312293,-0.16692747,-0.063519314,0.03529066,0.15178996,-0.14949456,-0.008223325,0.1440817,-0.0434255,0.012325504,-0.3142626,0.062618434,0.2420378,-0.02640163,-0.27923644,0.12083685,-0.04594868,0.12967974,0.042174347,-0.1928424,-0.1309811,0.04036651,-0.21083638,-0.046853583,0.037349336,0.10296558,-0.05528837,0.036167417,0.04214814,-0.2500677,0.14318231,-0.15074469,0.030702805,-0.093307875,0.1339588,0.023706796,-0.019699192,0.012644348,-0.06803348,-0.21128279,-0.2844995,-0.1303524,0.014622455,-0.10230052,-0.018028133,0.116293184,0.044312477,0.24427693,-0.021042353,-0.011479634,-0.008383716,-0.11592799,0.02141662,0.08363373,0.0625084,0.1505759,0.087622225,0.10275771,0.115275845,0.10671953,-0.006889196,-0.037018128,0.16909136,0.042822666,-0.07831276,0.091648184,0.11350095,0.08258225,-0.062132232,-0.04403717,-0.09169625,0.026813103,0.06591796,-0.07619054,-0.07500623,-0.08533035,-0.24583003,-0.023543,0.085645355,-0.036284078,-0.07871063,0.08999336,0.039897528,-0.013226737,-0.10179295,0.050027225,0.0793673,-0.17898709,-0.085141234,-0.03462253,-0.062978454,0.042767346,0.085833095,-0.04281299,0.074287236,-0.09572849,-0.08940855,0.089899436,-0.124228515,-0.019745115,-0.1334176,0.14918607,-0.024151383,0.19771293,-0.14376712,0.041269086,0.029840114,0.074500665,0.10753058,0.18191305,-0.019353839,0.123159535,-0.0026234756,0.12531923,0.042737972,-0.02303304,0.30302712,0.0014411733,0.03437426,0.09185728,-0.016049188,-0.028952803,-0.038601883,0.048412662,-0.022815345,0.002782012,-0.18602698,0.06282744,0.09493927,0.034292284,-0.10864052,-0.00063785224,0.09294415,0.0596363,-0.01431373,-0.12034474,0.20427664,0.0031033494,-0.024229467,0.115307614,-0.094977826,-0.13499297,0.1055018,-0.14449307,0.11050111,0.12369834,0.046098296,0.07252225,-0.044697568,-0.08870544,0.123254485,-0.111487724,-0.17896448,0.033301014,0.013278768,0.18306987,0.08009216,0.07586578,-0.09755167,0.07579742,0.14281161,0.124394335,0.046119377,0.15024197,0.01586918,-0.116104335,0.11188314,0.113620505,0.07688757,-0.117880836,0.05422381,-0.118488684,0.08589492,-0.15745156,0.047472775,-0.1067502,-0.046744443,0.036376838,0.15540864,-0.00036284595,0.0057921605,0.08920109,-0.13648918,-0.122197695,0.030020136,0.034636293,-0.16313015,0.068625055,-0.15376405,-0.013923671,-0.23363248,0.17135613,0.039380576,-0.025664581,-0.013700359,-0.041498963,0.06009676,0.12028289,-0.068631,0.13939294,-0.05727924,0.1549031,-0.14431202,0.23278405,0.0630567,-0.051375136,-0.010430266,0.12947781,0.12573044,0.21290407,0.01972717,0.019174239,0.03679339,0.17158271,0.10824337,-0.16158105,-0.074072905,-0.1331645,-0.022632698,0.10250138,-0.06411717,-0.14574969,-0.0724142,0.1144913,0.067550786,-0.053924654,0.021811556,0.06762216,-0.16401939,-0.08461795,-0.12725435,0.2010853,0.1288082,0.14633629,0.0738784,-0.19915149,0.11071321,-0.11122826,-0.117407955,-0.1612575,0.051330183,0.007192415,-0.05883598,0.084794484,-0.005150514,-0.25795108,-0.16569294,-0.17656043,-0.12325878,-0.11480285,-0.0031776319,0.103818186,-0.14595614,-0.0057200445,-0.07197671,0.04202276,-0.029618308,-0.20196344,0.11893188,0.13717079,0.039727513,-0.12762542,-0.116060846,0.18397658,-0.16663851,0.25248867,-0.14429346,-0.14572453,0.13676637,-0.09797881,-0.0069409837,0.11059105,-0.05333457,-0.12413585,0.17964646,0.16607392,0.016373603,0.089160584,-0.085431896,-0.078253634,-0.10970249,-0.16780102,0.105044186,0.18055274,0.030901909,-0.07528375,-0.05331034,-0.057622556,0.20621882,0.1343327,-0.055394966,-0.056967024,-0.07767709,-0.019144827,0.025720939,-0.18550447,-0.060433023,0.0862288,-0.005576057,-0.14516428,-0.14177929,-0.015311764,-0.18868047,0.0067871027,-0.023717755,-0.11457464,0.15472348,-0.035616048,-0.15379152,-0.17929827,-0.15257284,-0.13412029,-0.0122802695,0.09155089,-0.033376195,0.10889539,-0.12398478,-0.007814294,-0.008879305,-0.037869327,-0.16818687,-0.13171317,-0.09557754,0.13830064,0.14721078,0.0013504056,-0.0056458884,0.10917787,0.10639095,0.0521676,-0.13339987,0.067722954,0.14494072,0.16609283,0.218693,-0.05603642,0.06855234,0.18549046,-0.09057634,0.18783742,-0.15216,0.13994776,-0.09696774,0.09710435,0.043154106,0.028062994,-0.011693162,-0.10920014,-0.1635752,0.03403709,-0.05307986,0.02859317,-0.052083902,-0.17857522,-0.15496767,0.04783014,-0.24652342,-0.22352329,0.030389007,-0.031898316,0.23678993,0.05612845,-0.19700275,-0.2127319,-0.106040284,-0.005565008,-0.11007385,-0.09106953,0.017946465,0.13437171,0.09987354,-0.10604027,-0.28938037,-0.21220809,-0.17017594,-0.14647308,0.08525748,-0.04796861,-0.07492625,-0.06660574,-0.09348692,-0.06707651,0.067883,0.12654643,-0.1927801,-0.14976771,0.08498791,0.16281289,-0.12212366,0.09703174,-0.10340738,0.18328413,-0.17461279,0.16152619,-0.2075025,-0.075728364,-0.047005717,0.06866469,-0.028304482,0.07049162,-0.0095724575,0.08944978,0.25944886,0.16540429,0.124046765,0.13555509,-0.1101383,0.14049605,-0.15088479,0.008821513,-0.027445111,-0.06792538,-0.04257439,-0.21339126,0.014698872,-0.056552332,-0.0036169484,0.14011875,-0.00052980875,-0.033774238,0.101083994,-0.068287335,-0.0669356,-0.115645066,0.0082445275,0.06126175,0.052735478,-0.06600623,0.073294975,-0.03324617,-0.022061741,-0.025174638,0.076775424,-0.3067553,0.101967014,-0.04608784,0.06261231,0.065161295,-0.046097606,-0.14236228,0.07470439,-0.17067894,-0.13102798,0.04635708,-0.1309623,0.12287254,-0.053028043,-0.14556094,-0.25656125,-0.0062879054,-0.15898739,0.101110056,-0.1903877,0.13444604,0.02743059,-0.0549488,-0.0024288595,0.13409491,0.05868366,0.06512512,0.069864824,-0.09246952,0.09860195,-0.13546883,-0.095484726,-0.054258063,0.003892535,0.2013452,-0.04116152,-0.11001281,-0.1552628,0.03641106,0.13171422,-0.13665001,-0.0268994,0.08871458,-0.072095625,-0.058348034,-0.19978827,0.11444018,-0.032033492,-0.016609035,-0.16213685,0.080059305,0.21504974,-0.010330799,-0.049389903,-0.07151637,-0.16073562,-0.07227193,-0.031247258,-0.03419713,-0.10857268,0.12277798,-0.1475891,0.037942354,0.17248297,0.020193499,-0.17400849,-0.070613846,0.020216525,0.15784149,0.010117126,0.18922512,-0.04254049,0.069415376,0.15867858,-0.12525764,-0.07356989,0.048044413,0.27143973,-0.018297525,-0.08806291,-0.064791426,-0.15405871,0.046648838,0.08532281,0.050738234,-0.105720274,-0.01829545,0.10604778,-0.023064401,-0.04003615,0.06946274,0.031679854,-0.006435723,0.0065305815,0.028042704,-0.06294593,-0.080463596,0.13954498,-0.039297566,-0.09123254,0.15479845,0.12567261,-0.13441604,-0.013927881,0.17020687,-0.16981952,0.012306474,0.035645448,0.24478409,0.062450174,-0.04482022,-0.15982804,0.01749471,-0.079407275,0.035282467,-0.008424722,-0.101400256,-0.16078289,-0.013659817,-0.026382761,0.07802095,0.06581774,-0.11033146,0.16824147,0.041291356,0.24276142,0.113552794,0.040715326,0.04355591,-0.25372612,-0.1024075,0.10529611,-0.1272028,0.114854746,0.1943292,0.0073842183,-0.1390644,-0.15366074,0.050645865,-0.01864153,-0.09549601,0.21784712,-0.14673764,0.24557932,0.1381118,-0.10263911,-0.1003356,-0.16195273,-0.15510353,0.015021309,-0.12870157,-0.019304663,0.06328298,-0.07004498,0.17017184,0.08029591,0.078398556,-0.10016995,0.06194548,0.07595207,0.05752008,0.07166018,-0.19548224,-0.12885128,-0.20752354,-0.12950632,-0.10016473,-0.088480644,0.1384548,-0.14237581,-0.080891356,-0.070484094,-0.056971405,0.05722634,0.14380455,0.022006398,-0.060624618,-0.013263573,-0.02905388,-0.100379094,0.058510873,-0.025244402,-0.20617431,-0.1594378,0.084612645,-0.16761568,0.19900851,-0.12610994,0.14921992,-0.009903325,0.06374977,-0.07079375,-0.02623651,0.09017294,-0.05536501,0.15377706,0.15465909,0.15077876,0.028358193,0.0133806225,0.068447866,-0.08253648,-0.11397181,-0.02636333,0.09529374,0.09680485,0.13596784,-0.041714046,-0.046936724,0.08826203,-0.19787896,0.020302292,0.03548884,-0.029048564,-0.16823478,0.060877126,-0.19130324,0.0027732234,-0.013033983,-0.106272265,-0.1456447,-0.101019315,-0.013726264,-0.059907146,0.038856383,-0.011658311,-0.04319328,-0.117842615,-0.16228952,-0.23876934,-0.13090517,-0.037648402,0.13367817,-0.13795081,-0.083361275,-0.08592696,0.12820417,0.18393368,-0.14940716,-0.07645876,-0.005800962,-0.08366172,0.19365455,0.10669622,-0.025104847,-0.11117024,0.16634762,-0.040922895,0.18206131,0.0803463,-0.16819519,-0.123482175,0.046141922,0.119529225,0.08897972,-0.0070643118,0.21151207,0.1606928,-0.074278146,-0.06653793,-0.102293804,0.029179992,-0.018118966,-0.074630424,-0.094340086,-0.047589332,-0.044429075,-0.092625424,-0.07512254,0.002623227,0.09426915,0.2227287,0.051441923,0.099365726,-0.03370323,0.19922915,-0.023810348,0.0101577155,-0.10763523,0.09154117,0.10581691,0.07857263,-0.07360577,0.1734889,0.15704063,0.12104721,-0.0030518018,-0.15027753,0.14541173,-0.121565446,0.17770936,-0.13812836,0.051128607,0.028547356,-0.08603199,-0.15273865,-0.109520674,-0.16930361,0.17882511,-0.004483959,-0.02013201,-0.12244909,0.13628183,0.026855597,0.061097283,-0.040148515,-0.0117211575,0.17162623,-0.13882583,0.040523842,-0.06976666,-0.031446133,0.06587504,0.03845557,-0.1491807,-0.053758398,-0.06595259,0.06420872,-0.09473087,-0.0812703,0.10488773,0.0991016,-0.15122403,-0.23819998,0.1008743,-0.05923041,-0.047095623,0.09240158,0.098970704,-0.012720291,-0.05187131,-0.13529827,-0.04171027,-0.0811178,-0.072457895,-0.07946213,-0.15377341,0.07495152,0.16996582,-0.06168851,-0.094366014,-0.056994162,0.15878208,-0.17710248,0.16852283,-0.07542169,0.01642517,0.03877466,0.011307739,0.097971715,-0.14614409,0.018373836,-0.11670271,0.07224067,0.059109893,0.21583726,0.11112244,0.0055953204,-0.04257215,-0.119357295,-0.088628165,-0.14601693,0.05043628,-0.13462436,0.044848997,0.020067139,-0.07059161,-0.06343873,0.10007044,0.0816916,0.0745779,0.08119822,-0.13202159,-0.11686958,-0.120823875,0.14792123,0.18516792,0.024718085,-0.07342735,-0.12151143,0.10429883,0.1532258,0.10787458,0.051538274,-0.21069841,0.018516427,0.070608236,-0.13389531,0.09085182,-0.10112576,-0.17400862,-0.14607567,0.06497968,-0.16695225,0.020353172,-0.10931892,-0.13691592,-0.04983248,0.087176666,0.10219013,-0.034117993,0.07362008,0.030161468,-0.032927755,0.0069791097,-0.019714724,0.14881676,-0.035330728,0.0387725,-0.018758098,-0.1405586,0.10570405,0.20037916,-0.10629092,-0.15423664,-0.05639173,0.23165634,0.0368518,-0.047563177,0.084599204,0.038471643,0.07548125,0.11827138,0.065037064,-0.11937558,-0.11156064,0.04485421,0.156819,0.031189622,0.029160965,-0.055399027,0.15847287,-0.045771506,0.11998324,0.046742443,-0.1633567,0.030188844,-0.06142794,0.22648452,0.08191926,0.21138825,-0.11081187,0.07680653,-0.031513263,0.12251582,-0.047312077,-0.12583268,-0.13734466,0.05119165,-0.1586404,-0.047897022,0.25584367,-0.06483649,-0.11378454,-0.017149482,-0.15329139,0.02202474,0.01086617,-0.11910389,-0.005101524,-0.015884394,0.03981387,0.10559499,-0.09619402,0.07658984,0.10956972,-0.04044642,-0.05421328,-0.052402496,0.039996523,0.05783104,0.04971439,-0.08671486,0.027051862,-0.16181841,-0.0011136889,0.005613993,-0.0481742,0.033217557,0.098712154,-0.0016243812,-0.056983523,0.11729853,-0.06117883,0.015366913,-0.0011934016,-0.12433838,-0.08615995,-0.13354956,-0.0798945,-0.057260554,0.10786397,0.070105374,-0.20052487,-0.012666425,0.014607668,0.11605788,-0.058542997,-0.025541522,0.12775049,-0.13645633,0.0009374491,-0.24516056,-0.0896792,0.042872313,-0.015437437,0.066142045,0.09816705,0.0064543495,-0.09068191,-0.13173676,0.06477774,0.12396324,0.1724442,-0.0028089783,-0.08401874,-0.16818933,-0.02888516,-0.02956514,-0.08204734,-0.03250528,-0.035363104,-0.095814995,0.03450835,-0.035990793,-0.11676931,-0.06983569,-0.012154988,-0.123390496,-0.036799043,0.015272804,0.19979177,-0.05867719,-0.16859558,-0.0004703975,-0.051707946,0.031208435,0.011407011,-0.0068851956,-0.020991858,-0.09750291,-0.028521962,0.031583335,0.06784205,-0.13577862,-0.13483252,-0.2733482,0.06935817,0.124694034,-0.12048595,-0.088006556,-0.0717071,0.063446976,0.11750945,0.11345243,-0.18982054,-0.059988722,0.052755855,0.09237192,-0.040856604,-0.061116956,-0.1445485,-0.03398858,0.11061421,-0.12229573,0.09386496,-0.015053644,-0.033759385,-0.045683663,-0.083094515,0.01337805,0.006069338,-0.19448656,0.07949207,0.24700013,-0.03229785,0.057543002,0.10744644,0.06442249,-0.07984837,-0.054675493,0.12589484,-0.004353361,-0.17928529,0.08961585,-0.090073384,-0.043709017,0.03443287,-0.00016704336,-0.2078932,0.012754621,-0.056372352,0.19801655,-0.046878707,0.070086814,-0.24468732,0.08016376,-0.1272917,0.06824148,-0.097292796,0.07340357,0.17176424,0.031350296,-0.18348491,-0.05744297,0.2145287,-0.16093118,-0.100609995,-0.26164228,0.0074558514,-0.10600568,0.1291232,-0.064536564,-0.22026746,0.029058695,0.022262732,-0.010650456,0.02212617,0.158724,-0.15406583,-0.04012946,-0.005194868,-0.052995067,-0.16811053,0.27425337,-0.07110797,-0.06803714,-0.14095277,-0.103603594,-0.1678587,0.0030333984,-0.15751567,-0.031743016,-0.11860757,-0.018245531,-0.06746886,-0.017811174,-0.07370476,0.16350771,0.08720552,0.10945323,-0.04769015,-0.07044401,0.08960495,-0.06701579,-0.16412544,0.00034695887,-0.058833007,-0.10143794,0.063546225,0.06813829,-0.07884044,-0.10091806,-0.10072873,0.17637482,0.08885652,0.09417084,-0.15606534,-0.0638368,0.16006467,0.08751139,0.04100212,-0.10069527,0.20528266,0.08957191,-0.10055996,-0.01940183,-0.1415906,0.1556738,0.004849644,-0.11205374,-0.041099697,0.15184525,-0.12576684,-0.027710045,0.09624057,-0.08357096,-0.12733427,0.03370409,0.06826725,0.1313165,0.06112847,-0.17101486,0.042787567,0.05977194,-0.10355573,0.01599989,-0.08889254,0.1845817,0.07102521,-0.03722028,-0.037260883,0.10928059,-0.08785078,0.26937115,-0.012935476,0.2022887,0.07316991,-0.042828906,-0.12884466,-0.17454766,-0.002113472,0.090993874,0.07599673,-0.071440704,-0.06338553,-0.13923141,-0.096043676,0.12348796,-0.31113106,0.1544829,0.050600313,-0.14358704,0.121334165,0.12717928,0.009634811,0.13616663,0.15887046,-0.040063336,-0.059677824,-0.060753733,0.069258176,0.19468647,0.14002892,0.07717379,0.0127326,0.106710136,0.018977111,0.19866672,-0.034140427,0.042389393,0.068744294,-0.038130034,-0.05602891,-0.12250222,0.1974641,-0.071211755,0.019377317,0.06297656,0.051533915,0.09823029,0.04107325,-0.0014676119,0.00995452,-0.0549399,0.011392214,0.119765654,0.12860185,0.02325453,-0.037084863,-0.10009482,0.22454886,0.07704667,0.12850392,-0.031875324,0.12696745,-0.1546316,-0.034756053,-0.11801082,0.0038341316,0.019971332,0.0007824964,0.108429596,-0.1194079,-0.044100072,-0.1388621,-0.010623531,0.11520999,0.009529928,0.019648895,-0.12923042,-0.015182526,-0.062455256,0.096925795,-0.033756156,0.14129315,-0.022322187,-0.14835647,-0.15112993,-0.04782377,0.12429352,0.008945676,-0.051194146,-0.13248962,-0.08965447,-0.1127887,-0.12591523,-0.016117085,0.07325402,-0.020323014,0.09032845,0.08963548,0.03697264,-0.14999235,-0.0041866535,-0.004469696,-0.013957857,0.02566389,0.060991243,-0.16151954,-0.007118162,-0.057432115,0.002033346,-0.099781826,0.057696715,0.054840073,0.059392374,-0.019266611,0.11602594,-0.12925796,-0.11512875,-0.069307044,0.13941684,-0.024455052,0.090740815,0.076142624,-0.03608244,-0.18025613,-0.032415327,0.07497299,-0.14484745,-0.13974608,0.15234995,0.113476604,-0.17486148,-0.0624704,0.0692412,-0.08817182,-0.21625389,-0.027502371,0.20870237,-0.08152661,-0.10549713,0.1273583,-0.1450163,0.059431408,-0.06601947,-0.14845034,0.06831869,-0.11524356,-0.17188671,0.12075808,-0.07774041,0.046713077,-0.03259072,-0.074690804,-0.10871098,-0.04509179,0.0062355446,0.024554985,0.17723128,-0.09365745,-0.026003445,0.10211441,0.14104211,-0.10837188,0.123878784,0.018121213,0.090513065,0.07627992,0.051010896,0.17902933,-0.050036468,0.06961304,-0.04913702,-0.09751018,-0.02452698,0.1741771,-0.15275311,0.08167771,-0.18912785,-0.09880666,0.115348615,0.05167908,-0.08153172,0.07941,0.05380456,0.02568016,0.10534759,0.011289798,0.062100522,-0.1644215,-0.029693207,0.002805283,-0.07638006,-0.1486482,0.07284355,0.11776314,-0.022634242,-0.09740867,-0.099848226,-0.020327028,0.105447486,0.13738579,-0.101917945,-0.15898435,-0.15820658,-0.057697207,-0.03755324,0.081114545,-0.17396829,-0.021090845,-0.1776841,0.13839337,0.093870126,-0.09346966,-0.179035,-0.024962652,0.11278911,-0.088794336,0.14153782,0.14657335,-0.1450365,0.058106534,-0.062334657,0.164946,-0.028116055,-0.14725493,0.21679385,0.11316865,-0.007889547,0.030966694,-0.27200845,-0.11265422,0.12022024,0.0055073546,-0.15892042,0.015881848,0.11149857,0.0725746,-0.049188167,0.030800188,-0.024227489,0.123542406,-0.032328803,0.06605091,0.04291141,0.042404465,0.025998177,-0.12627389,0.06751129,-0.13680442,-0.10457607,-0.0763601,0.18376108,0.050857827,0.0027020494,0.028123392,-0.007915654,-0.075739056,0.29645598,0.2348424,-0.06512897,0.19499443,-0.11516207,-0.020083154,-0.064615965,0.09259404,0.10282351,0.07962108,-0.05290478,-0.15811256,-0.123399474,0.00696342,0.1678747,-0.1623467,-0.07567663,-0.17671558,-0.1569618,0.009025145,-0.04948056,0.11580412,0.033763036,-0.014610056,-0.20524491,-0.15446626,-0.21940716,0.05727423,0.012836879,0.025903294,0.11302173,-0.10339215,0.022951715,-0.18093668,0.16314304,-0.03827785,0.0470568,0.09314712,0.12016486,0.103497796,0.03910511,0.06370346,0.21644808,0.002196071,-0.07124732,0.08717807,0.015996192,0.16046003,0.045177836,-0.12958455,-0.011362256,-0.12586397,-0.09112523,-0.13618006,0.12795933,0.1632186,0.046520866,0.2391683,0.05150189,-0.12990823,-0.09746902,0.00025149545,-0.13305415,0.012602556,0.0341488,0.1813695,-0.05445237,-0.03452125,-0.08099958,0.10572172,0.15428047,0.09853734,-0.08236412,-0.06258242,-0.22362897,-0.09910091,-0.034443073,0.04144737,-0.053192515,-0.08516779,0.119752,0.09285556,0.0032646463,0.039005216,0.04602674,-0.15557699,0.07226577,0.059112348,-0.09095132,0.10187752,-0.14563017,-0.13579342,-0.043050982,0.052205615,-0.040556096,0.03165334,0.018205859,0.0020262415,-0.024469716,0.022742735,-0.12520008,-0.014603232,0.110915974,0.095551394,0.06324557,-0.1623141,-0.09211849,-0.014930389,0.11119293,-0.050259802,-0.16531515,-0.0108008655,0.10617348,0.095314115,0.01035289,0.07113443,-0.037820786,0.22373547,0.099213764,0.21752767,-0.3070601,-0.10508438,-0.019561881,0.042207737,-0.038968228,-0.016054181,0.17323494,0.10741884,0.19777182,0.13357478,0.077903956,0.044298336,0.001663555,-0.152667,0.15657693,0.009024079,-0.11087202,-0.0034205583,-0.042376153,0.10748907,-0.06316933,0.19573191,0.23077291,-0.13944899,0.05171454,0.037921738,-0.16807447,0.13276398,0.0778644,-0.04485905,-0.1221562,0.22961357,-0.07821653,-0.1679882,0.039202426,0.13651726,0.20706137,0.19257657,-0.0034516812,0.01726612,-0.077058956,0.052687846,0.0716128,0.017943265,0.002439513,-0.011274736,0.10667444,-0.016709995,-0.15393253,-0.09726193,-0.09251518,-0.039400563,0.15270202,-0.13303556,0.05614322,0.020972509,-0.055051554,0.11346567,-0.11493494,-0.105951145,0.061250873,0.15295042,0.11505514,0.08844493,0.070394546,0.16866644,-0.048513997,0.059029922,-0.14884993,0.057840068,-0.0042559556,-0.07436225,0.011618059,0.13283001,-0.09111931,0.12885284,0.12178553,-0.09229847,-0.13243274,-0.120410725,-0.058155827,0.1256183,-0.07988548,-0.06946677,0.098208755,-0.105710685,-0.089817405,-0.1318781,-0.011024183,0.003956298,0.022965118,-0.0042684264,0.010030904,0.12860163,0.036902823,0.008632696,0.09861569,-0.17706186,-0.14936551,-0.16072941,-0.14093733,-0.056684624,-0.08657118,-0.03489067,-0.0059534106,0.123470604,0.023518944,0.061152413,-0.34134576,-0.04750871,-0.06394471,-0.14543425,-0.11857569,-0.049821787,-0.124304414,0.06526097,0.023276813,-0.1553409,-0.09906148,0.012476431,-0.045820497,-0.06517957,-0.14326847,0.09904798,0.047812115,0.13259135,0.101122834,0.029492462,-0.015536755,0.0008843897,0.24445845,0.07654617,-0.12535179,0.24067643,-0.00990542,0.13359682,0.042119812,0.012344565,0.012654209,0.045864332,-0.022252278,0.13580248,0.08092447,0.07348929,0.06665725,-0.00050460815,0.038207926,0.052170098,-0.10899365,0.18395646,0.21767476,-0.05788913,-0.058643546,0.011741713,-0.097139016,0.11568015,0.14288986,-0.0041437317,0.10013902,0.09650459,-0.31377947,-0.0009190211,-0.06843714,0.12951398,-0.062637255,0.19273558,0.1243847,0.055428,-0.14206351,-0.075215615,-0.037767168,0.15091184,0.021796515,-0.102772385,-0.041810717,0.20180467,0.11962126,0.013103182,-0.14136739,-0.22893947,-0.012776135,-0.14223303,-0.012734633,0.20511831,-0.17128381,0.07542812,-0.06816418,0.041283567,-0.2224485,-0.13001151,0.16689265,0.15372466,-0.049861398,0.17276952,-0.12368344,0.07521127,-0.09625943,-0.04440641,0.036006235,-0.011063506,0.058085196,0.05376228,0.076714315,-0.03827592,-0.06236405,-0.17596668,-0.0029472006,-0.034319296,-0.06800051,-0.030132007,0.18497416,-0.09117093,-0.18123667,-0.028625255,-0.023531007,-0.058236223,-0.041285202,-0.14570647,-0.06343541,-0.092653535,-0.20874618,0.12727512,-0.05379157,-0.0402146,0.053791247,0.008900916,-0.046874445,-0.011689348,0.10082958,0.09785849,-0.13212667,-0.17310281,-0.037122697,0.094677925,0.06854474,0.08631769,-0.15971985,0.09243579,0.104099475,0.16284406,0.061595604,0.039201,0.0067699365,0.12639503,0.09874942,0.02040913,-0.05635891,0.038728893,0.05878201,0.02575393,-0.1026365,0.10702766,-0.14263621,-0.046435654,-0.091817446,0.15578206,-0.10850916,-0.028042598,0.028895915,-0.0056103906,0.09084732,0.015180195,0.106122434,-0.12838846,0.21710202,0.022018934,-0.10011198,0.16022417,0.0915736,0.02184696,0.10679541,0.11456933,0.067819,-0.061908618,-0.123322904,0.071528055,-0.12819032,0.18708712,0.018633232,-0.23980863,0.0528198,-0.1170828,0.10601919,0.2017438,-0.11205823,-0.124585405,0.0055217566,-0.091275044,0.09432006,0.12285606,0.06625339,0.19007422,0.005394498,-0.021711871,0.01066758,0.04031025,-0.001882055,0.18061057,0.14797929,0.024768846,-0.11344688,0.12374759,-0.08377329,-0.11739671,-0.020148827,-0.09841723,0.10390427,-0.09699551,0.06907562,0.10142157,0.025226414,0.24897966,0.061242852,-0.10670603,-0.105266586,0.12959154,0.23836368,0.049003556,0.12834454,-0.025430659,-0.08200634,0.20452529,-0.014043598,0.09353836,-0.05643243,0.09346287,0.008564435,0.1174935,-0.16352233,0.1470229,0.012236496,0.057193216,0.04192228,-0.11640468,-0.14717431,-0.02664963,-0.11571236,-0.06332274,0.043410875,0.01108489,-0.010126385,0.061599307,-0.17854048,-0.031566616,-0.06806781,0.07413521,-0.15785737,-0.0048396285,-0.21144053,-0.08663675,-0.08098962,-0.0837912,0.080898896,-0.076249614,0.008935511,0.124138206,0.14098345,0.1861802,0.038828894,-0.069943294,0.056138456,-0.10856752,-0.15001859,-0.16068418,0.15226549,0.14954339,-0.09264167,0.11544292,0.058871247,-0.07883584,-0.048606798,-0.05591035,-0.07601037,0.07712216,0.15083663,-0.008178554,0.052441396,0.050519593,-0.024046566,0.04154582,-0.035231374,-0.12007805,0.070973314,-0.049435392,0.23884007,0.12445965,0.047439206,-0.07398096,-0.1004656,0.040982515,-0.053857278,0.13185225,-0.13126113,0.17293455,-0.06445329,-0.15955731,-0.07847089,0.08921637,0.043504935,-0.09934048,0.18475738,0.1577307,-0.019519795,0.028638482,0.14548287,-0.22329047,-0.1691776,0.09292363,-0.19324422,0.041915733,-0.0065575284,0.008030664,0.12201248,-0.15170836,-0.029502872,-0.18402518,-0.090491116,-0.1871165,-0.08072065,0.10658236,-0.031357378,-0.035060994,0.044830706,-0.05124204,0.11992841,-0.23799828,-0.08651256,0.047627892,-0.10754734,0.13932052,0.102000035,0.122233085,0.07945154,-0.1555277,-0.046895243,-0.033462726,-0.20260635,0.09838434,-0.031242449,0.03052037,0.14136083,0.049061056,0.116362214,-0.06042281,0.06392864,-0.10187915,-0.2587742,0.036316723,-0.020327838,-0.015236011,0.111366384,0.1248738,-0.041973654,-0.072606795,-0.023464862,0.12628922,-0.015586436,-0.14953557,0.16064529,0.046370547,0.00946282,0.12916806,0.04563173,-0.21270043,0.19227456,-0.031870387,-0.113393866,0.0031764791,-0.042544037,0.058918986,-0.014660191,-0.029966723,-0.12188088,-0.079964474,-0.089789316,-0.18094718,-0.16890015,-0.12524775,-0.14479789,0.113809496,-0.1245807,0.032905515,0.13170524,-0.11784179,-0.14066797,0.058357377,0.013788671,-0.04596546,0.060180757,-0.06610258,-0.08634533,-0.16968496,-0.28991213,0.11626094,-0.14047942,0.12892202,0.048722792,-0.08360641,-0.13390276,0.049655784,0.103305094,0.11842178,-0.083774395,0.018844064,-0.027247665,-0.016017692,-0.078084625,0.083053835,0.14532188,-0.1944346,0.1756986,-0.14753334,0.120656714,-0.05008887,0.18254928,-0.08537141,-0.10180839,0.02864406,-0.035300415,0.14093861,0.19032383,0.01285235,-0.18200867,0.2265533,-0.013357307,-0.034343332,-0.06081722,0.025787871,0.18288603,0.02383769,0.059008956,-0.04298903,0.0062763994,-0.13242064,0.23339136,-0.144966,0.09348264,-0.08634062,0.10868358,0.18361123,0.15225306,-0.087019995,0.044039477,0.20170432,-0.2655045,0.06527876,-0.030771758,-0.024206612,0.14216033,-0.028088294,-0.09648945,-0.069718525,-0.055736504,0.032246366,0.08539046,0.018116202,-0.086829364,-0.082347415,-0.07186821,0.17831892,0.0073606106,-0.02707062,-0.13096544,0.038387127,0.141113,-0.06948224,-0.061728347,0.17348962,0.06470793,0.14426823,-0.06704583,0.011388047,-0.1487091,-0.15733515,0.044893667,0.0012723303,0.086196005,-0.019209482,-0.111425765,0.0915853,-0.13227926,-0.06363285,0.037106294,-0.12865129,0.12911193,0.14221953,-0.091259725,-0.04565666,-0.07906797,0.13744222,-0.059853155,0.22041942,0.17040224,-0.056959324,0.009548759,-0.17502415,-0.07523775,-0.15218672,-0.015977018,0.12085786,0.12903915,0.012240028,-0.09852254,-0.06228104,-0.05330543,-0.14459482,0.026854746,0.12140981,0.02162604,0.06587752,0.09098838,-0.08713538,0.07742116,0.20474835,-0.08527357,-0.111529365,0.18641375,-0.08323457,0.1378283,0.08699234,0.036338188,0.019991191,0.19129819,0.10332547,0.04908631,0.04929741,0.10271601,0.044134945,0.05603366,0.04244203,-0.0029681278,-0.16414376,-0.17608224,-0.10248323,0.020400267,-0.09522243,-0.212638,-0.13288186,0.035326563,-0.10258555,-0.055988315,-0.095506184,-0.15954204,0.008852289,-0.12929818,-0.08522231,0.03560128,-0.12541741,0.071756005,0.05804676,0.22131154,-0.011494427,-0.23118222,-0.04624344,-0.15482092,0.1353239,-0.014003893,0.19663861,0.08135476,-0.11915932,-0.118152745,-0.014689528,-0.00032704056,-0.069357775,-0.017837211,-0.008543224,0.009097741,0.15027998,0.079480775,-0.10895426,-0.031369988,-0.00023462754,0.18293227,0.058759328,-0.19647822,0.20091704,-0.067030035,-0.17958356,-0.035276167,-0.10740474,0.05861219,-0.16679364,-0.017391315,-0.07383111,-0.05004554,0.023341337,0.052487697,0.09217987,-0.13975935,0.050543822,0.09288595,0.088508755,0.09058788,0.106405206,0.04903721,-0.09500276,0.034203332,0.045146186,-0.0910667,-0.029029677,0.20141065,0.121959664,-0.041978933,-0.1777832,0.025849387,0.18027495,0.020190395,-0.044613194,-0.014317408,-0.061201114,0.0752802,-0.08441138,-0.15838046,-0.13369098,-0.0885498,-0.044289734,0.06950764,-0.002574088,0.05490901,-0.07758219,-0.010155263,-0.050992746,-0.10090628,-0.049092367,-0.18018399,-0.10855296,0.02750646,-0.085805126,-0.013334195,-0.05813724,-0.14003932,0.057737842,0.13665156,0.053992584,-0.11974344,-0.13269965,-0.069887154,-0.24610694,-0.03249623,0.05622093,-0.04205273,-0.02406172,-0.036385104,-0.11689771,-0.014615761,0.08296446,0.16060866,-0.027877292,0.013964461,0.10992962,0.2322962,-0.04218551,-0.14748445,-0.12586597,0.047022417,-0.0021921943,-0.21468155,0.09912142,-0.06987059,-0.10823605,0.09917403,-0.01527711,0.08963839,-0.019948574,0.034780562,0.06872964,0.021072974,0.13256319,0.31172523,-0.010375043,-0.022037212,-0.07827418,-0.1071511,-0.271397,-0.12829512,0.012550075,0.093269505,0.13110933,0.13591002,-0.19287598,0.12352044,-0.1356154,0.052030858,0.12189053,-0.028417584,-0.19642082,0.06036638,0.041119367,0.097512424,-0.008825958,0.046603285,0.17629537,-0.16079085,-0.075877026,-0.0557864,-0.07506308,-0.10999766,-0.084439486,-0.0715872,-0.011778282,0.09931684,0.092830084,0.18401563,0.047888845,0.050043043,-0.0224723,0.07993891,0.006377509,0.019636504,0.076425046,-0.041968703,-0.031155506,0.023358501,-0.21822537,-0.14353487,0.17366011,0.13563612,-0.1420232,0.07662515,0.12988597,-0.14720878,0.22158788,-0.024815172,-0.08790026,0.081570685,-0.0422682,-0.12766787,-0.16571036,0.24064627,0.13595867,0.04304387,-0.13859601,-0.004727464,-0.08388189,0.11550182,0.11957981,-0.09437398,-0.081241585,-0.10748322,-0.17338018,-0.022301698,0.018266652,0.14704384,-0.13868806,-0.022561474,-0.18938376,-0.058704834,-0.050940208,-0.19221354,0.09786951,0.20619822,0.1446204,-0.0910862,0.020201705,-0.10593905,-0.039472897,-0.1291535,-0.069757275,0.13233739,0.010766285,0.021098426,-0.07236697,-0.09230092,-0.17171618,0.09411647,-0.06663946,-0.02169168,-0.15977873,-0.03665772,0.011985527,0.0018518621,-0.1524933,0.081411995,-0.039270908,0.13039863,0.07180788,0.26248547,0.1456746,0.03807483,-0.030849732,-0.06927525,-0.029756192,0.1417041,-0.027449543,-0.02789657,0.027853545,-0.06353658,-0.0690445,0.10063561,0.08649339,-0.0992053,-0.11906383,-0.10722594,-0.0027160624,0.059082985,-0.13941473,0.2834867,-0.11998462,-0.093404844,0.039842427,0.014271484,0.083949246,0.031575006,-0.010705648,-0.027828526,-0.12315909,0.12833227,-0.18123107,0.08618383,0.072410814,0.12040422,-0.14874622,-0.06516285,0.07932824,-0.04497358,-0.035333447,0.029279107,-0.16902044,-0.006531922,0.218222,-0.21679848,-0.04331415,-0.08077574,-0.23814835,-0.00036204193,0.12965302,-0.051670127,-0.21204866,0.038244344,0.0067011374,0.05529277,-0.011249567,0.010387613,-0.07816313,-0.16307041,-0.020646706,0.08722551,0.08290064,-0.090539925,0.19694069,-0.05298939,-0.0463459,0.12646423,0.18003924,0.06455432,0.054529704,-0.22444656,0.2363204,-0.104039125,-0.05791483,-0.12327533,-0.308442,-0.038580175,0.1381115,0.0292445,-0.020596877,0.13598187,-0.057362735,-0.009626813,-0.024062006,-0.19363101,-0.1936224,0.24669299,0.019119179,0.016610717,-0.10812166,-0.0966002,-0.08604028,-0.06007782,0.02027126,0.16296813,-0.06837629,-0.13030013,0.044818003,0.17234564,-0.060711302,0.115895584,-0.01135699,0.060345873,-0.0074927774,-0.1572724,-0.12911037,-0.135584,-0.14168316,-0.039053075,-0.14737815,-0.077728145,-0.036955472,0.00078279997,-0.015422066,0.10955313,0.0969769,0.0864669,0.040271137,-0.16110606,-0.13709103,-0.083537996,0.09431053,0.059011135,0.12920187,0.11819981,-0.1672493,-0.14257702,0.029768843,0.027022202,-0.032062538,-0.0480845,0.04507538,-0.08875646,-0.10132072,0.011275764,-0.049058333,0.024886496,0.08075607,0.14216702,-0.07379277,0.0011594752,0.025287932,0.09152273,0.070966795,0.076990485,0.10477881,-0.15118992,0.20576179,-0.06507818,0.058943786,0.100249484,0.11503934,-0.06352476,-0.06443189,-0.13738917,-0.030841315,0.0941739,0.16220939,0.20524047,-0.113399826,0.035927687,-0.1252178,0.010115545,-0.15256533,-0.15224059,0.11788703,-0.121175006,-0.1489606,-0.10034648,-0.07242086,-0.04271515,0.14932068,0.042143643,0.0078368345,-0.0007424407,-0.21027979,-0.17911321,0.15539417,-0.13369715,0.017488798,-0.030964158,-0.15386397,-0.12840457,-0.022691155,0.1526826,-0.16107252,-0.12175942,0.009939776,-0.06724169,0.073144265,-0.012879841,0.042430777,-0.11391546,0.1348504,-0.014978678,0.01750518,-0.14448233,0.13092516,-0.09863342,0.16569592,0.01538993,0.20723511,-0.14859681,-0.0016213129,0.06921734,-0.02948778,0.12650248,-0.12683032,0.06569606,0.17497389,0.02564708,0.074596606,-0.00796857,0.09401413,0.16193776,0.04686741,0.07412773,0.0492298,-0.11395876,-0.008432162,-0.25858384,0.026359908,0.06197914,-0.104742214,-0.07286607,-0.086067185,-0.118688054,-0.09277399,0.08153387,-0.17975058,0.14879227,-0.029706297,-0.11255693,0.08651403,0.10629017,0.035430092,0.18076408,0.06316064,-0.1229034,-0.17663155,0.0077482257,0.11984183,0.059084095,0.1532199,0.044177216,0.02756485,0.02153351,0.067768164,-0.12575619,0.14327222,-0.087566145,-0.08587721,0.22673523,0.1821042,0.006783423,-0.14513914,-0.0486259,-0.08321026,-0.057325073,0.12697679,0.10630864,-0.11354403,0.07251577,-0.11305554,-0.0064051137,0.016629295,-0.10587567,-0.06940688,-0.027485771,-0.11396429,-0.08209597,-0.11004037,0.09602231,0.06507812,0.02676136,0.14167608,-0.21774486,-0.034571946,0.10206639,0.03897787,-0.13261916,0.12188362,-0.10368518,0.05833788,0.08357017,0.21953732,0.18173915,0.0013240876,-0.13265412,0.13844258,0.10836641,-0.11083464,0.14388904,-0.03867311,0.10340303,-0.023630572,0.025752034,0.06570152,-0.06894251,-0.18391587,0.103806615,0.10461225,-0.13476723,0.21536912,0.16069473,-0.020105029,-0.0013411102,0.12439887,0.039818943,-0.10950434,0.03923703,0.15954173,0.1116879,-0.038964864,-0.0548354,-0.16856594,0.10039319,-0.058101695,0.07933448,-0.020421613,0.015633306,0.08521125,0.08977826,-0.067051664,0.070884675,0.15745911,0.12563364,0.084379286,0.14442565,0.077051766,0.110130996,0.10621163,0.087003365,-0.063274585,-0.025281223,-0.0124075515,0.057367615,0.15503843,0.06058345,-0.06461936,-0.09202939,0.17558262,-0.1337391,0.050252274,0.060674544,-0.016564265,-0.06822327,0.10758407,-0.22276218,0.085606016,-0.1815375,0.13098891,-0.08692866,-0.0050179353,0.010736451,-0.052329477,0.11396097,-0.12117171,-0.051056124,0.041073386,-0.1572947,-0.18663412,0.093342714,-0.11927015,0.04277648,0.0034380674,-0.060954817,-0.092521735,-0.176351,-0.10080089,-0.08456526,-0.14201255,-0.13618506,-0.15100443,0.11505891,0.119817935,0.068116315,0.1759099,0.065665625,-0.0685473,0.009328425,-0.06264302,0.09785772,-0.12013734,0.0027118619,-0.01778648,0.108913474,-0.051351972,-0.0402162,-0.09064843,0.037574388,0.010115071,0.09776774,-0.16713496,0.064996734,-0.011467274,-0.03036076,-0.029956121,0.064612046,-0.102690645,0.21930674,0.016443763,0.09734061,0.06657222,0.15610228,0.15971711,0.111549884,0.008097791,0.10023728,-0.044397414,0.046970643,-0.026123025,0.0788285,-0.101784974,-0.11422668,0.13498995,0.11090165,-0.03354396,-0.13025522,0.0071349908,0.20287247,0.037863635,0.11025061,-0.07032239,0.07621148,-0.07476909,0.059913468,-0.06258775,-0.15404926,-0.16231616,0.060917202,-0.01165079,0.06945666,-0.06016643,-0.102069244,-0.14867315,-0.15596268,-0.04435883,0.17484817,0.1574915,-0.008570536,0.07125283,-0.09214696,0.10324336,0.07671027,-0.19768764,0.115362786,0.20175897,-0.0993205,-0.13118029,-0.12872645,-0.026005628,0.083965264,0.084864624,0.11022966,-0.019700745,-0.03771405,0.13888854,0.07219772,0.07341934,-0.12074718,0.12197096,-0.014383845,0.12061809,0.10521759,-0.09714641,0.016401231,0.023007108,-0.15383093,0.018256836,-0.10888389,0.12513837,0.087844275,0.10257956,-0.08654811,-0.07579366,-0.118625954,0.04794326,-0.10124389,0.042193618,-0.13944137,-0.08530404,0.114130735,-0.08201856,0.16963843,0.108009875,0.055670593,0.029567601,-0.15992229,-0.12232225,-0.1301999,0.12794228,0.012035889,-0.13019592,0.039463103,-0.065978624,-0.16439691,-0.031260867,-0.0839933,0.00088743167,0.14236519,-0.004720847,-0.11886382,0.088053755,-0.0852645,-0.15328543,-0.07637891,-0.16859226,0.09984461,0.05218018,-0.22427659,-0.16307117,-0.077372424,-0.1904358,-0.040347155,-0.08826137,-0.1002198,-0.062373966,0.053569056,0.12477009,-0.23521556,-0.12776226,-0.21492948,-0.1601807,0.088039875,-0.049098346,0.030792098,-0.098041885,-0.061466668,0.1778948,-0.029109064,0.1353651,0.12930721,-0.07759917,0.13531417,0.06781405,-0.1457996,0.11682461,-0.04760676,0.0038845513,0.051991675,0.046411674,-0.04367431,-0.008577311,0.059668995,0.050339736,0.055115115,0.12898077,0.18994962,0.021555522,-0.0998825,0.020571113,-0.08843061,0.16588858,0.07810992,-0.106261656,-0.11135574,-0.17844349,-0.0836308,-0.18247263,-0.11020122,-0.11192508,-0.0008012716,-0.061602086,-0.14570859,-0.10428074,0.044142585,-0.20785739,-0.028423438,0.15019394,0.12173644,-0.08216836,0.06856061,0.091027945,-0.09124852,0.123343036,-0.0057989396,-0.19087154,-0.038944334,-0.114667796,-0.06082048,-0.13038598,0.014009554,-0.28067863,0.12021261,-0.09623524,-0.088306606,0.010824682,-0.08547471,-0.006415622,0.10239765,-0.08267975,0.0423207,0.011267078,-0.12133623,0.09790116,-0.078483686,-0.03071416,-0.14696324,0.0021836457,-0.16078894,-0.060545135,-0.151529,-0.14726692,-0.07306073,0.019195626,0.046124272,-0.15517189,-0.082718976,0.017158324,-0.15916367,-0.116583,-0.10526731,-0.032042,0.21428563,0.1126741,-0.14863212,0.06273493,0.034222152,0.04039937,0.20810312,-0.11605026,-0.061251473,0.05971426,-0.047862925,-0.11830824,-0.11416287,0.09790294,0.06788087,0.100750394,0.017849622,-0.106855705,-0.13555557,0.22310455,0.011264182,-0.12642391,0.19290492,-0.04575023,-0.18536565,-0.009115354,-0.10128931,0.06451157,0.02726763,0.17749795,0.032254897,-0.17157355,0.05762309,0.14845969,0.17356738,0.06719608,-0.019651689,-0.039725058,0.024157798,0.07767112,0.14183168,0.026373522,0.05532883,0.09157577,-0.11704733,0.085801736,0.03314636,0.09283614,0.062011737,-0.17272004,0.13272925,0.1746694,-0.042518307,0.020063436,0.28058285,0.1466488,0.13853118,0.23460814,-0.11543418,-0.14193188,-0.13936341,-0.046283603,-0.035895705,0.03054177,-0.1144388,-0.13384214,-0.10650406,0.026857201,0.18900317,-0.10142895,0.059558872,-0.08345289,0.029737417,0.053049818,-0.009509303,0.025242185,-0.064275794,0.054143615,-0.29092073,-0.24166723,0.11337054,0.11089071,0.14591606,0.1577284,-0.12037957,0.10703034,0.15133932,-0.13431928,0.07398327,-0.02004449,0.018119443,0.118806876,-0.03758702,0.1823313,-0.09780133,0.18675932,0.01831085,0.08173047,0.041315924,0.1667039,-0.016661236,0.23698823,0.05923446,0.0107446,0.217488,0.1090609,-0.09223311,0.11787956,0.04516251,0.075085215,0.028240373,0.16370584,0.04717385,-0.088856265,-0.11290104,-0.12159704,0.10946204,-0.037331924,-0.028836343,-0.11483405,-0.11404526,0.07784299,-0.042354614,0.01075038,-0.13102205,-0.040686008,0.111414805,-0.16230713,0.09313627,0.016450074,0.013912369,-0.102490224,-0.08504271,-0.05268752,0.035886772,0.006280305,0.053540207,-0.16720046,-0.23502626,0.01444783,-0.05859614,0.03425725,-0.096566245,0.061914194,0.09574642,0.069219336,0.026067704,-0.2025547,-0.15102722,0.11521737,-0.054843046,-0.038144723,-0.049165066,0.06890892,-0.19855523,-0.12955599,0.06174034,0.040170103,0.009292087,0.061924294,0.13735497,0.041783664,-0.061576985,0.032818113,-0.08492616,0.13156536,-0.070388235,0.12667966,-0.14453945,-0.07257615,-0.1576518,-0.04114883,0.11311488,0.24799527,-0.16444409,-0.15378584,0.06299444,0.026027357,-0.15744048,0.016862683,0.0052032038,-0.060746193,0.044424757,-0.17100655,0.041809335,0.14935757,0.13128614,0.035660516,0.02170372,-0.035238508,-0.044416767,-0.034173638,-0.22866483,-0.17986222,0.10343313,0.28196812,0.19468412,0.14765681,0.23266108,-0.0029973872,-0.08749214,0.10639931,-0.131293,-0.14282532,-0.0091184,0.020041613,0.12626393,0.10288308,-0.09531749,-0.016816312,-0.011100458,0.16345382,0.01022603,0.09508454,-0.2659107,0.04202885,-0.09464472,0.024458459,0.112554014,-0.062120557,0.044829506,0.028349845,-0.1351192,-0.12623423,-0.014755218,-0.009755493,-0.05977251,-0.062292255,0.016980564,0.08862134,-0.082006864,-0.09857938,-0.1235383,-0.067477696,-0.15461986,0.15090439,0.067204796,-0.041503306,0.01189317,0.094302945,-0.145652,-0.110016696,-0.016330408,0.01952254,-0.12894796,-0.012179776,0.17972422,-0.0056680576,-0.069999255,-0.14888938,-0.13921292,-0.053347554,0.04563076,0.023418369,0.030662216,-0.11637823,0.07868759,-0.12382143,-0.092784226,-0.09798954,-0.042413272,0.03626554,0.010321295,0.04438552,-0.161374,0.11441221,-0.01357429,0.08387125,-0.050211623,0.011487447,0.012932138,-0.07363469,0.11890666,0.051084127,-0.04054971,0.093943246,0.13214557,-0.14185081,0.014480576,-0.051026154,-0.124733046,-0.10735264,-0.13073555,-0.0768648,-0.11948296,-0.0043395287,-0.13538457,-0.16580239,0.031067323,0.099010445,-0.025926378,0.11042505,-0.09068862,-0.029445263,-0.052438807,0.12058574,-0.10756304,0.082711674,-0.12613371,0.09363601,-0.036066223,0.14967087,0.009868256,0.15263987,-0.19893081,-0.030157948,-0.02910285,-0.18894343,0.23698638,0.13609065,-0.09789194,0.00025387845,0.0023426362,-0.18591666,0.084279396,0.03081824,0.16193216,0.112689815,-0.032797996,0.18894388,-0.13620193,0.045858588,-0.11391461,0.18908277,0.07380766,0.121508285,0.13750619,0.039605338,-0.08624077,-0.057843562,-0.06737552,0.004823562,0.039404057,0.2114545,0.17026675,0.20160581,-0.15347272,-0.16826595,-0.09965341,-0.020932682,-0.14402133,0.045183215,-0.104760446,0.10402856,-0.060420115,-0.10050929,-0.041390546,-0.0025963276,0.0792394,-0.15148127,-0.12451831,-0.06719308,-0.06428125,0.107924975,-0.010495689,-0.09623521,0.059107408,0.12189817,0.007495567,0.014394396,0.009926344,0.09705056,0.07576539,-0.04006606,0.14627156,-0.039386038,0.1313459,0.11079214,-0.14507014,0.09707369,0.19259168,-0.09094198,0.12121022,0.05273164,0.11655754,0.017532917,0.024338769,-0.023196466,0.113288485,0.029295012,0.051899206,-0.1099627,0.0065635336,-0.031235531,0.21176253,-0.025480293,-0.13295949,-0.025001036,0.10714153,-0.035007723,-0.11146205,-0.12989555,-0.07449418,-0.116614245,0.007932842,0.14346361,0.026748514,-0.06707355,-0.19248657,-0.04634812,-0.11412097,-0.024324955,0.07086476,0.24925914,0.0013138489,0.026060797,0.19830757,-0.010492089,-0.32226613,0.08888389,0.07808827,0.0520445,-0.11781334,0.2232775,-0.12736768,0.11038114,0.08424321,0.090980105,0.13459872,0.0064329472,0.07680765,-0.09385692,-0.09015253,0.060054872,-0.047942694,-0.15238158,-0.06147601,0.21236469,-0.05417136,0.0045094546,-0.24449702,0.037502777,-0.032448962,-0.022508333,-0.088231,0.047430947,0.14769338,0.14615121,0.095935464,0.06509341,-0.049757183,-0.08318963,-0.1007503,-0.1503741,0.1218796,-0.06878303,0.02164864,0.29348484,-0.25965685,-0.14391553,-0.114877924,0.11025511,-0.06528821,0.059564266,-0.00090356625,0.10769992,-0.17831554,-0.120082535,0.006245157,-0.13436896,0.069656186,0.17592524,-0.06767208,-0.045355853,-0.14025839,0.09648833,0.029214256,0.028788585,0.036733303,-0.0372373,0.003585538,-0.029811079,0.17031021,-0.14654861,-0.083283566,0.21761462,0.056285985,-0.2511833,-0.09824239,0.021555081,0.08734638,0.058856215,-0.010274335,0.16126545,-0.024480581,-0.12354001,-0.16282883,-0.0021819593,-0.08700728,0.0182994,0.112445235,-0.05990336,-0.18685178,0.13689673,-0.08536794,-0.017359035,-0.09049941,-0.12832253,0.100268796,0.06376595,0.011002012,0.048442267,-0.07940722,-0.137516,-0.19422172,-0.008634479,-0.071943246,0.015704954,0.21659765,-0.2980697,0.13584334,0.057669606,0.028346986,-0.06150139,0.06287754,-0.017439688,-0.13935003,-0.15178011,0.23682512,-0.004776951,-0.14873448,-0.046606507,0.08726305,0.01336085,-0.016023971,0.25856718,0.043331034,-0.17024331,0.12740363,0.11351027,-0.09509607,0.09938655,-0.07832818,-0.046218768,0.045540407,0.11968112,0.11736886,-0.074869834,-0.16375017,-0.13441372,0.14362639,0.047405463,-0.15506658,0.0136633115,-0.093170755,0.037800666,0.1117547,-0.1663302,-0.0143514415,0.050658107,0.007327021,0.0016512845,0.08858404,0.0065713674,0.051757973,-0.11218988,0.044248804,0.11641371,-0.05242557,-0.12469196,-0.0007684502,0.10233367,-0.14311099,0.13399334,0.11438749,-0.069426976,0.122428164,-0.09894545,0.06472676,-0.033862907,-0.004494249,-0.050170504,0.18314275,0.03576546,-0.103273086,-0.048356142,0.018723192,-0.082027294,-0.043590307,0.19055453,0.22430684,-0.17933208,0.024117729,-0.06101674,-0.087254986,0.21149433,0.12106107,0.08103196,-0.12783737,0.1465687,-0.0439203,-0.08283959,0.06489308,0.11868223,-0.057531085,0.17506507,-0.052082624,-0.20561978,-0.045561194,0.20586881,-0.045611806,-0.15360892,-0.0040705907,0.10695972,0.15188608,-0.14707327,-0.1685889,-0.10094691,0.073574685,-0.09893196,-0.13937503,-0.17858362,0.13916555,0.19207588,-0.1746025,0.12783699,-0.26994714,-0.17044392,0.0441565,-0.007278635,0.064436704,-0.0031448433,0.0023977025,0.023325505,-0.09824259,-0.12396783,0.03656348,0.13264363,0.13385986,0.00437512,-0.13908763,0.03105919,0.05661599,0.14303657,-0.102894135,-0.12948273,0.16898933,0.046117596,-0.073167205,-0.046556618,0.08622163,0.014315965,-0.08222082,-0.139531,0.026735669,-0.043377932,-0.10090746,0.10307309,-0.15576628,0.09572876,-0.1571332,-0.03979562,0.035852525,-0.14604273,0.050537735,0.11050309,-0.012666043,-0.086303435,-0.063799046,0.03453194,0.07882557,-0.10246293,-0.067338094,-0.019787505,0.12189503,0.09837673,-0.026962964,0.17379229,0.10386778,-0.008639135,-0.053996284,-0.058098752,0.2029553,-0.099506065,0.2214454,-0.0454046,-0.07775123,0.038458005,0.106675476,-0.060411848,-0.101019815,0.09326234,0.0628477,0.026806902,0.056514006,-0.13883229,-0.01635767,0.065814346,-0.1742962,0.116876185,0.041134775,0.09517742,-0.03954048,0.103313945,-0.10038067,-0.07558762,0.18863565,-0.054157946,-0.21243598,-0.14448877,0.013189127,-0.050704196,-0.18695116,0.24687712,0.11651371,0.055432893,-0.03768924,0.11897109,-0.07225035,0.09237688,0.1567404,-0.15469496,-0.102803126,0.26363316,-0.14474332,0.07814884,0.11347757,0.261718,0.16679096,-0.052460734,0.055275213,-0.021556634,-0.046973,0.1457509,-0.010205783,-0.15953311,0.0022085686,0.18216442,0.08076115,0.050438717,-0.04247467,0.0058331816,0.11736905,-0.034098372,-0.11433985,0.017403428,0.01644182,0.0003972463,0.15360865,-0.16145907,-0.02742253,0.0032567116,0.068071626,0.045971856,-0.23566927,-0.008062799,0.058634415,0.017792264,0.10079488,-0.1463319,0.13237223,-0.10136718,0.039104395,0.10170456,-0.08927365,-0.14678845,-0.0007504859,-0.1046763,0.082272455,-0.04502098,-0.046102937,0.10168772,-0.11268282,0.17575091,0.12527615,0.09251633,-0.044255257,-0.15679449,-0.13406025,-0.13494553,-0.1545296,0.1076666,-0.17413557,0.0057418835,-0.13317712,-0.0827806,-0.15172529,-0.055739436,-0.07615182,-0.156434,-0.15565853,-0.16293004,-0.23272187,-0.048219632,0.10735068,-0.008331844,-0.0033526553,0.17806765,-0.11306953,-0.11612046,0.21022926,0.00921404,-0.14066236,-0.060904738,-0.016171394,0.034081854,-0.05065395,-0.12468163,0.15179719,-0.0039512566,0.009935302,-0.024085658,-0.085870944,-0.0013661686,0.055835888,-0.06603732,-0.09342836,0.094434395,0.0024815495,0.0060382467,-0.02748186,-0.013000388,0.011452784,0.17637429,0.10472439,0.13269961,0.05290587,-0.124196894,0.10209703,0.08311301,-0.1615915,0.116966955,0.14670946,0.19658723,0.20796719,0.18247719,-0.026711615,0.13599719,0.028730325,-0.12589215,-0.005706359,-0.03499803,-0.011672891,-0.12630929,-0.14844744,0.08318125,0.14845714,0.001954295,-0.029474305,-0.17164415,-0.025893314,0.07691532,-0.016363451,-0.07684894,-0.047203537,-0.009125946,-0.114061475,-0.09691621,-0.06337369,0.15542546,0.04423599,0.04636391,-0.0066307737,0.12721837,0.13400109,0.004697786,0.14497644,-0.054418374,-0.061604306,0.060785454,0.14138947,-0.10718259,-0.079994716,0.1015275,0.20375265,-0.1923816,-0.064848535,0.18313919,-0.10649577,0.15383826,-0.07849742,-0.011370415,-0.13144684,0.106386945,0.018934688,0.16197166,-0.047526512,-0.07595176,-0.14433287,0.19325855,0.18060578,0.07412615,0.15717241,-0.017736727,-0.07825718,0.12285231,0.03506546,-0.01686539,0.030478925,0.12740487,-0.1231686,0.01964323,-0.18649028,-0.047978908,-0.0042303368,-0.03888243,0.019501617,0.21186316,-0.09784632,-0.091229014,-0.08704127,-0.16518837,0.119118944,0.0070324107,0.102741465,-0.1517233,0.023373744,-0.10487617,