{"model_state":[{"clause_net":{"weight":[-0.30999953,-0.33641917,0.25445816,-0.1855308,-0.13330463,-0.26668453,-0.08909114,-0.04484087,-0.3726905,0.4188586,0.2869171,-0.18368478,0.16370542,0.064541556,0.2468523,0.21119599,0.2743561,-0.35067168,0.10918487,-0.063392654,-0.08417046,-0.12178802,-0.063305035,0.24056089,0.26398903,-0.008845511,0.38238528,0.3656072,-0.2557575,-0.31977138,0.14759573,0.26573226,-0.1731734,0.22942093,-0.0019672953,0.014442833,0.014308649,-0.27441776,0.09539426,-0.034956984,-0.32196552,0.24389237,-0.04696681,-0.2421217,0.21023197,0.26695925,0.1619203,-0.21072884,0.19676898,-0.117296994,0.19547181,0.24639118,0.056938622,0.039338585,0.30946848,-0.24409421,-0.18997554,-0.3012945,0.3531801,-0.33240515,0.2923431,-0.18183878,-0.10883097,0.25598067,0.10363254,0.16800898,0.007053996,-0.30468032,0.27066347,0.14740223,-0.010264763,-0.21411592,-0.3132348,-0.3507971,-0.37953594,0.1033905,0.31477314,-0.13951014,0.21095484,-0.1108091,-0.34321898,0.2520132,0.23598553,0.21018583,0.11081405,0.07237377,0.017413149,0.3136769,-0.2547259,-0.34381968,-0.19742756,-0.24921627,-0.035909213,-0.30902767,-0.31017193,-0.11272693,-0.28790292,0.18975838,-0.26483712,-0.20633104,0.03279689,-0.16280259,-0.27903032,0.12339351,0.019466156,0.04465673,-0.089683644,-0.036258113,-0.34810466,0.18450838,-0.29712138,0.20908608,0.3296085,-0.2566431,0.33437675,-0.2285611,0.17531073,-0.047749553,0.22294135,0.15472046,0.07878514,-0.071171954,-0.07922626,-0.32151195,0.345442,-0.02067259,0.07002275,0.15026246,0.013313467,-0.18804443,0.1831959,0.33046445,-0.2533944,0.26654455,0.3581183,0.07365715,0.16926283,-0.07962446,-0.1263153,-0.19567782,0.012351472,-0.13515614,-0.062110744,0.07221317,0.07234983,0.061570644,-0.12147188,0.2886618,0.35000286,0.19886363,0.24563685,-0.071750075,-0.29309493,0.24412009,-0.16640711,-0.26374185,-0.22126159,-0.011111246,-0.23154019,0.2532485,0.0018364629,0.032100666,0.08402303,-0.20529713,0.24761048,0.2996567,0.22541381,-0.27363807,-0.14470847,-0.07414825,0.2474945,-0.18716829,-0.1326579,0.023517823,-0.026874157,0.19484523,-0.04038121,0.23516054,0.21448871,-0.26758042,0.23993345,-0.12738092,0.06876513,0.021175204,0.028833548,-0.10502229,-0.049368333,0.16771053,-0.12049857,0.20094623,0.3587828,-0.14982258,0.23578595,-0.2902971,0.34916353,0.28705907,0.15510471,-0.38166624,-0.4022204,-0.041343298,-0.15251346,-0.1587901,-0.1448003,-0.0025448722,-0.19793674,0.26861638,-0.012191049,-0.009900075,0.3415895,-0.21066464,-0.21581273,0.102300346,0.08747555,0.13371633,0.32412726,-0.05512544,-0.15478912,-0.10456588,-0.33222753,-0.2246098,-0.29040504,-0.23301896,0.16248228,-0.14281535,-0.26006544,-0.17555511,0.05730026,0.36595687,0.13138399,-0.3793598,-0.17926618,-0.10194093,-0.25659186,-0.011600468,0.3530215,-0.07515637,-0.23071033,0.017775204,-0.3395943,-0.0034348543,0.15066738,0.002014927,0.13253152,-0.23719743,0.16219549,-0.0067323577,-0.23421644,-0.23012285,0.04172694,-0.07013361,-0.15044712,0.099885784,-0.06046005,-0.307912,0.2829274,0.26767486,-0.27618018,0.47376212,-0.10573405,-0.03421136,-0.22544815,-0.0645831,0.12091924,-0.026459318,0.2491052,-0.26959375,-0.15299349,-0.3189347,0.07282736,0.37495375,-0.153108,0.1992234,0.12846945,0.26043072,-0.0017804047,0.09158681,-0.07225348,-0.14308015,-0.35204047,-0.3177217,0.28960094,0.010107567,-0.17067997,-0.2759197,0.04461938,0.013309465,-0.19292945,-0.13223003,-0.09564171,-0.2480475,-0.1427042,0.23872928,0.21957485,0.15669109,0.058003947,0.087198205,0.14563148,-0.15716271,-0.19758284,-0.06187398,0.13188916,0.21518429,0.13129787,0.3504838,0.44609168,0.20722987,-0.0018180627,0.26848668,-0.07863543,-0.123963,0.13942559,0.23828186,-0.1773349,-0.25533926,-0.120337814,0.107714206,-0.17237043,-0.01985527,-0.085968524,-0.08457096,0.27444854,0.1628919,0.07268382,0.24798775,-0.18281591,0.31322637,0.18650867,-0.26246473,0.15759724,-0.21150032,-0.22354724,0.21259035,0.3017572,-0.046793856,-0.12986836,-0.108454555,-0.08681696,-0.07628494,0.20377696,0.27278936,0.17278989,0.022151234,0.09204254,0.1688563,-0.1506374,0.12283943,-0.4320826,-0.2586088,-0.17014308,-0.39457175,-0.09625,0.33549088,0.058233894,-0.022602038,-0.20470616,0.17496632,-0.10503037,0.14724635,0.24021862,0.059965536,-0.24609171,-0.21278414,-0.13693748,-0.2607186,-0.14045441,0.18289576,0.09505887,0.017800057,-0.19813325,-0.11308087,-0.13904844,0.32011813,0.18564484,0.31795195,0.24477561,-0.028428074,-0.111552924,-0.26763853,0.24927719,0.2675112,0.15838918,-0.19545177,-0.12055362,0.31632036,-0.16308482,0.30318716,-0.11374473,-0.23164845,-0.25650364,-0.045026768,-0.10648748,-0.02548976,0.3074186,-0.1348921,0.098328754,0.014127742,-0.122308396,0.22762613,0.30024377,-0.22822948,-0.3420617,0.11645601,0.26644054,-0.011034707,-0.271633,-0.10722019,0.007247703,-0.20804542,-0.299039,-0.24765064,0.032260396,0.0009426545,-0.17431746,-0.29368916,0.1728725,-0.13669156,-0.19236545,0.15872003,0.23132579,0.37779745,0.10370833,0.36460307,0.049729325,-0.10906475,0.19183981,0.02255087,-0.303329,-0.35153776,-0.054997034,0.16275308,0.1753141,-0.09439659,0.24226378,-0.15076536,-0.31377602,-0.23788613,0.10593159,-0.14992593,0.16151595,-0.25591087,-0.22862105,0.19679235,-0.19472425,0.12957177,0.010216143,-0.16402513,-0.26093742,0.050195243,0.07707996,-0.092580914,-0.4037896,0.21655512,-0.14291616,-0.19346929,-0.20332645,-0.24209063,-0.007534687,0.11888206,0.22265156,0.13569453,0.09447657,-0.20016733,0.056196176,-0.22062981,-0.10024984,0.16678081,-0.25247902,0.08215597,-0.1358136,-0.043375906,-0.39209896,-0.21713193,-0.30596256,-0.0015923138,-0.15033442,0.0425698,-0.27277428,-0.25112668,0.25342423,-0.3061765,0.1252425,0.34588182,-0.15116113,0.20777033,0.22279753,-0.379924,0.035675418,-0.014144518,0.016790166,-0.22296433,-0.23430474,-0.27486107,-0.31173354,0.079975046,-0.19799158,-0.054124095,0.016019728,0.119440064,0.08636029,-0.116398,-0.3387419,-0.38232866,-0.21215405,0.041955113,0.17455463,-0.32642916,0.06028591,0.049735036,-0.2288031,-0.2373824,0.06842055,-0.16240087,0.19554599,-0.1126171,0.18455105,-0.25834936,0.11181799,-0.30799973,-0.33658493,0.27674288,-0.04353478,-0.0037030266,-0.06687891,-0.25473306,0.22831902,-0.08847657,-0.17128222,0.36756873,-0.05913003,-0.18607572,-0.094001934,0.37380534,0.00613839,-0.27744707,-0.3300227,-0.35679904,0.010522267,0.009249488,-0.1642839,-0.27122128,0.4026958,-0.027357627,-0.08372238,0.08829844,-0.2600367,0.16392426,-0.12273417,0.17531137,0.24851197,0.121015064,0.023222968,-0.21387905,0.0903226,-0.10462044,-0.27560204,-0.17921522,-0.12247481,0.28900275,-0.22578898,-0.09258344,0.17009403,0.32403037,0.19858031,0.0058911066,0.2568264,0.25321603,-0.14056228,-0.21953128,-0.37943137,-0.052074626,0.3363046,-0.26964122,-0.15317811,0.17366718,-0.17299463,-0.19775343,0.25894934,-0.08950863,-0.22248304,0.0019559145,0.08208426,-0.15390377,-0.24684039,-0.3123395,0.34385523,0.24088879,0.09164321,0.077323,0.13284406,-0.19180875,-0.02808424,0.16649707,-0.24330924,0.26167032,0.048282906,-0.33719376,0.34649304,-0.12230686,-0.01179177,0.10223465,0.18707499,0.4619871,0.31564307,-0.09715489,0.069973774,0.06706595,0.30579183,-0.26560766,0.15777937,-0.1863072,0.24317212,0.084073074,-0.16660787,-0.23681906,-0.25632972,0.36871544,-0.21358949,0.31140605,-0.003342351,0.15744147,-0.09822369,0.16507532,0.10574894,0.2529167,0.1121064,0.20665298,0.038137637,0.39488757,0.18352453,-0.3615932,0.0075197336,-0.06961693,-0.090268,0.25365895,-0.24843791,-0.11021497,0.2548094,0.13101897,-0.14796221,0.034796987,-0.12184351,0.1292905,0.05058027,-0.16027527,-0.11939571,0.07839805,-0.06163178,0.19989769,0.20220217,-0.070633516,0.023403028,-0.12179596,-0.12839645,0.05693535,0.120613195,-0.13324873,0.1295201,-0.18866968,-0.15241379,0.18640201,-0.1263005,0.20490971,0.0014770441,-0.13489518,0.15264903,0.14795984,-0.03359193,0.192161,0.13069814,-0.0043529575,-0.005147557,0.044406798,-0.046674315,0.13492396,-0.042857718,0.09726938,0.06720896,-0.12312816,0.081084535,0.0067513706,-0.09990741,-0.17352153,-0.03823514,0.1535176,-0.17283551,0.030365657,0.11606663,0.17766592,-0.10942965,0.16387874,-0.09006442,-0.110253304,0.09126672,0.17795835,-0.05028629,-0.033754293,0.12615307,0.020640412,-0.1296088,-0.04743956,0.030639704,-0.012917685,-0.0689433,-0.03540054,-0.10997118,0.06036945,0.034139946,0.015437425,-0.19754209,0.13203843,-0.1271551,-0.034207508,-0.04146509,-0.11382494,-0.043201465,0.18842094,-0.06439693,-0.110185966,0.17809793,0.16761577,-0.18553708,0.1067029,0.17718713,-0.19782971,-0.097625926,0.076927096,0.10661724,0.052992456,0.03973699,-0.17337699,-0.089615725,0.14504257,-0.08772981,-0.19527172,0.0167919,-0.033911213,-0.20106348,-0.155469,-0.084388874,-0.03812097,-0.1698749,0.1017146,0.05491183,-0.12200006,0.07146967,-0.17252776,0.007186689,0.13496639,-0.12222703,0.09486627,-0.17729215,0.12988567,-0.07181178,0.123455375,0.11849047,-0.0364231,0.0012832849,0.10723098,0.0028377334,0.09416378,0.118482865,0.16369644,0.085560136,0.1627564,-0.06377216,-0.098060295,-0.16462684,-0.08750329,0.1151031,-0.049970634,0.14386542,-0.038660266,-0.04732743,-0.0757634,-0.1693386,0.06176409,0.045853864,0.020390725,0.15921217,0.11539323,-0.036217283,-0.025496969,-0.19523276,-0.19554123,0.06761043,0.1063082,0.0065344945,0.087721735,0.053197127,-0.08877693,0.046189357,-0.14868072,-0.0310181,0.16026913,0.10473707,0.14105032,0.0031739222,-0.1088737,0.08857331,0.07676105,-0.059986204,0.005502786,-0.005481434,-0.2063482,-0.1486867,0.18564157,0.034015168,0.13954699,0.09875514,-0.04231,-0.20516536,0.0789148,-0.03280451,-0.032099523,-0.039741937,-0.020959849,0.12913172,0.12371384,-0.010175477,-0.15786952,0.043987587,0.20237555,0.053146396,-0.18807848,0.14149457,-0.043035746,0.06298765,0.11161069,0.08383966,0.19996686,0.054953437,-0.032417193,0.017891293,-0.19722399,0.10236985,-0.115146205,-0.10418652,0.1965503,0.04028275,0.15514703,0.18355744,-0.07124656,-0.15852602,-0.08350375,-0.13173848,-0.1854214,0.027203243,-0.023835663,-0.09903849,-0.19421701,0.16483344,-0.16732304,0.1735581,-0.113026634,0.122789614,-0.09474768,-0.20228818,-0.17834459,0.0522249,0.012680551,-0.055855494,0.1776181,0.12056942,-0.007877511,0.16761859,0.001057535,0.04597293,-0.07528413,0.19020347,-0.12708871,-0.033511568,0.042995725,0.1845891,0.022843476,-0.16827923,-0.05921087,0.045508083,-0.041987706,-0.008038111,-0.10267957,0.11500688,-0.17878413,-0.13660254,0.0023637628,0.12152706,-0.028285611,0.030246295,0.17058133,0.14800018,0.09177094,0.08084879,0.0060074297,-0.101229124,0.037671287,0.07359041,-0.041672297,0.19448347,-0.118108846,-0.1993802,0.046136215,0.10909207,0.0046506184,-0.18973358,-0.17002092,0.06144093,-0.058362506,0.05796323,-0.12013274,-0.057378,0.12360238,0.16612732,0.13939011,-0.046303723,0.06923885,-0.14083791,0.04939219,0.19702886,-0.022709522,0.18443073,0.12775889,-0.11364597,0.0147291785,0.09884011,-0.11137838,-0.18402463,-0.06035635,-0.09114825,-0.059184425,0.20056394,0.058971647,0.18000972,0.14246595,-0.099166654,-0.12966524,-0.14157765,0.11991987,0.084284455,0.040648244,0.069038875,0.12147548,0.100956395,-0.045651853,0.12916297,0.14793961,0.16060062,0.03621788,0.021446496,-0.09643282,-0.0362405,-0.06380367,-0.046693705,0.17028162,0.11530469,0.114416085,0.0047994116,0.011331769,0.18567902,0.024719423,-0.027518727,0.17521869,-0.10602781,0.083469644,-0.169246,-0.08178743,0.18773943,0.09060794,-0.049140614,-0.106816076,-0.0736308,-0.010433466,0.16719535,0.033590462,-0.13564228,-0.048795227,-0.12307609,0.09080488,-0.019179102,-0.06706639,0.14574645,0.041644953,0.05927982,-0.1348144,-0.006274641,0.07582413,0.13633,-0.08397436,0.08226247,-0.12036393,0.20123367,-0.07338972,-0.06491065,-0.065760106,0.09968146,0.095836505,0.07993704,-0.12528974,0.14811599,-0.10180086,-0.1977307,0.11965845,0.13794096,0.20136291,0.18116176,0.032084532,0.18984471,0.15268593,0.20710382,0.15993398,-0.046584383,0.16144183,0.14804885,-0.035787262,-0.057885528,0.10556995,0.11807096,0.08899913,0.07310006,0.1809857,0.017094458,-0.07089854,-0.010003567,-0.03118233,-0.020980652,0.071717225,-0.18633229,0.18026945,0.19340946,-0.15820368,0.20074536,-0.04124585,-0.103096694,-0.19874871,0.09541284,-0.20289898,0.13764708,0.070206076,0.1890892,0.12600838,0.08539518,0.17604938,0.019567242,0.00012209688,-0.15311038,-0.20824619,0.08816019,0.1914962,-0.12048856,-0.16824217,-0.1981634,0.04023338,-0.16929027,0.026358683,-0.066696316,-0.024481045,0.03917525,0.17969565,0.056205403,0.1650784,0.14018498,-0.03683575,-0.02697635,-0.07132814,-0.16634144,0.053172518,0.062032994,0.021235486,-0.17700249,0.096548654,-0.12321036,0.11484511,0.035047818,0.16083638,-0.09740599,0.19521163,-0.20693302,-0.17068815,0.080174945,0.063031346,-0.07049355,-0.17838466,0.06915704,-0.1541356,-0.06296935,-0.13468757,0.1189277,0.074462965,0.0442021,0.1579876,-0.06574971,0.03727554,0.11412464,0.08226329,0.069787785,-0.096771866,-0.081640676,-0.19695872,-0.008051782,-0.15612578,0.013326083,-0.18443456,-0.009538446,-0.053673908,0.12793222,-0.08328702,0.019998858,0.057765666,-0.10174898,-0.20190175,0.19196504,-0.18974195,0.135455,0.11687475,0.113524765,-0.1265276,0.049361516,-0.0279751,0.15986587,0.052531213,-0.18599471,0.15321167,0.12554069,0.11574548,0.1532319,0.14058965,-0.14424889,0.07675404,0.18291259,0.020928927,-0.08231085,0.09850762,0.097371586,0.06279968,-0.17435907,0.1848674,-0.1664365,-0.14687973,0.11754755,0.12695225,0.14008178,0.038142126,0.17962599,-0.1414369,0.051393863,0.047156215,-0.034427267,0.19616777,-0.15861806,0.12795755,-0.08527505,-0.17417838,-0.12563507,-0.03293096,-0.02086047,-0.0703878,0.15702412,-0.09726555,-0.06107551,0.1236828,-0.066261366,-0.048706762,-0.14232722,0.10220806,0.032592036,-0.11698245,0.18516359,0.1847838,-0.037494205,-0.023047475,-0.024177767,0.11864794,0.047711045,0.008998928,0.042920608,-0.001984323,-0.1730689,0.054000873,-0.032202926,-0.19142766,0.12559395,-0.017350782,-0.051621675,-0.20233689,-0.11912159,0.2072076,-0.17764415,-0.11488747,-0.08317126,0.12933944,-0.0293726,0.16336796,-0.10700864,0.023145214,-0.04141679,0.14381361,-0.1154507,0.16427116,0.12552841,0.07443077,0.08797222,0.009400564,-0.06668118,-0.20317863,0.17055683,0.09336693,0.16401736,-0.15801252,0.08725701,-0.12249511,0.20527722,-0.10473884,0.00039925083,0.19736834,-0.0630266,0.19473252,-0.15362556,0.16176298,-0.113667645,-0.1984904,-0.04161945,-0.00067543535,0.054085065,0.0082279425,-0.07699501,0.090183735,-0.08963497,0.01127328,-0.15626787,-0.053982355,-0.06352706,0.06081036,0.060695868,-0.0147204045,-0.08433563,0.1611083,0.08961399,-0.020476704,0.076354794,0.07560531,0.029280083,0.090654224,-0.06365973,-0.044873882,0.06471388,-0.019306818,-0.1445374,0.029253561,-0.020838944,0.010999034,-0.1019499,-0.03685116,0.15991363,0.19582845,0.13236311,-0.12690236,-0.19451395,0.070909254,0.08776926,0.03248197,0.1606264,0.050181765,0.022433786,-0.04618153,0.111950435,0.16341773,0.049509164,0.15627304,-0.19723712,0.13754703,-0.068205625,0.020436263,0.20740852,0.13410692,-0.026654206,0.106128015,-0.07710134,-0.20746486,0.08986101,0.06157846,0.03418623,0.0024189202],"bias":[-0.047359325,-0.01659492,-0.015861206,-0.045903265,-0.023828663,-0.040059235,-0.04819961,-0.04358462,-0.015115605,-0.0764257,-0.048142556,-0.028471146,-0.050145768,-0.024454556,-0.025586365,-0.055778213,-0.011285088,-0.010581542,-0.050383255,-0.012889115,-0.013833159,-0.03159704,-0.018645192,-0.04047078,-0.04535431,-0.0145577695,-0.046401188,-0.012871639,-0.004317709,0.012316892,-0.00785529,-0.049019244,-0.0067873416,-0.042676974,-0.043082684,-0.054147683,-0.08223337,-0.009433607,-0.038852796,-0.089253284,-0.017009376,-0.0656175,-0.041458417,-0.013643379,-0.08723596,-0.038844284,-0.018116606,-0.059878036,-0.016918382,0.039909784,-0.017231861,-0.036610983,-0.072327115,-0.03887468,-0.011645881,-0.0198393,-0.019944543,-0.0024421532,-0.047671773,-0.04520919,-0.023231767,-0.05286371,-0.007254638,-0.022298379,-0.06786197,-0.040113524,-0.01416398,-0.031312585,-0.018815355,-0.07755899,-0.0420637,-0.015078026,-0.018476823,0.024870608,-0.004228186,-0.02692229,-0.03607374,-0.016116008,-0.07237668,-0.02405619,-0.09599754,-0.039129235,-0.036504053,-0.031742107,-0.08790217,-0.03512609,-0.050637532,-0.022192528,-0.010462859,0.015517162,-0.012089314,-0.030481705,-0.08972047,-0.0060557085,-0.0040340996,-0.07842519,-0.05968853,-0.01175674,-0.009551836,-0.06317415,-0.067948304,-0.021208765,-0.019428205,-0.08031492,-0.03739087,0.023017794,0.023630988,-0.06512698,-0.011108525,-0.08894716,-0.050208166,-0.05834307,-0.07107176,-0.00088142767,-0.028944122,-0.032393575,-0.015869578,-0.019213077,-0.03257535,-0.011746537,-0.08053189,-0.0072440105,-0.024503578,-0.06124755,-0.048544418,-0.10099747,-0.0657742,-0.027736658],"σ":[]},"aggregator":{"layers":[{"weight":[-0.013473122,0.0075714323,0.08204991,0.10033141,-0.2597317,0.18591411,0.11438247,0.09144193,0.2005498,0.15550931,0.090465486,0.0309574,-0.039459307,-0.13834259,0.03425019,-0.11269941,0.24201223,-0.12587638,-0.11798627,-0.091661826,-0.059622955,-0.06388892,-0.11939853,0.005253146,0.03456341,-0.109576546,-0.10011089,0.010062553,-0.01021845,-0.10667515,-0.056924608,-0.10722908,0.108660676,-0.020686612,0.16668472,0.07140478,-0.15011713,-0.08872088,-0.21540375,-0.0024131509,-0.083102964,-0.059921116,-0.10467349,0.12166678,0.06452411,0.16917378,0.2521592,0.05050046,0.13635719,0.100219026,0.23535235,0.039593045,0.026425777,-0.07151706,0.12196627,-0.00086277106,-0.19823402,-0.134395,0.13867484,-0.08952273,-0.12777445,0.1772555,0.15672122,-0.034013104,0.08725814,0.0770369,0.061883137,-0.09833215,-0.28473818,0.15209414,-0.15200892,-0.042025734,-0.16114831,0.00070999505,-0.09614199,0.08418079,0.033055235,0.04606188,-0.12758224,0.04640881,0.030193912,-0.13569868,0.14601108,-0.10006173,-0.079164326,0.22765857,-0.15762912,0.09757143,-0.08989803,0.06424634,0.062944755,0.030320087,-0.22760531,0.014563673,0.011609851,-0.10803337,-0.22060092,0.027760979,0.027082993,-0.13920526,0.0122145405,0.09427689,0.054937955,0.121165276,-0.095775254,-0.031188995,0.1726184,0.27165735,-0.2116639,0.10724918,0.06761138,-0.1314401,-0.14085123,-0.089458406,-0.112085655,-0.0675935,-0.23066063,0.08827799,0.10100951,-0.058792144,0.102329455,0.0014764181,-0.12568706,-0.1921813,0.029403742,0.086987905,0.014976926,-0.13033767,0.08350545,0.088656284,-0.00854841,0.0041129584,0.11810358,-0.026951129,-0.08412469,0.05631107,-0.1861533,-0.19126059,-0.07366301,0.048319645,-0.085646376,0.07650707,-0.095551275,0.09530081,-0.07552869,-0.054797895,-0.21132274,-0.05613679,-0.0030067298,-0.17138894,-0.14450301,-0.13803245,0.07530672,0.13214429,0.033462618,-0.10865255,-0.045525417,-0.11295262,0.2439904,0.076595955,0.0803422,0.05964005,-0.113612525,-0.008210818,0.22424617,0.16556911,-0.27668488,0.23342153,-0.06422928,-0.097191684,0.054820143,-0.15979925,0.24596591,0.077394396,0.112540245,-0.103623204,0.02522486,-0.16012046,0.20212337,0.10281294,-0.19198456,-0.16192149,-0.06597049,-0.12726784,-0.03272356,0.121937126,-0.13007551,-0.13940863,-0.5596296,-0.30196884,0.15938559,-0.07389908,0.12824264,-0.04681267,0.15903774,0.024769293,-0.039521396,-0.053444125,0.08677599,0.2306149,-0.069198884,-0.07687827,0.100291386,-0.011209724,-0.14757116,-0.07001733,0.099483386,0.020358717,-0.12653287,0.0028190617,-0.15378515,-0.019610774,-0.041687515,0.11024255,0.21160543,0.09104728,-0.18042335,0.024649836,0.12532637,0.2591432,-0.22512692,0.061311625,-0.13262485,-0.14407246,-0.49268973,0.08602554,-0.06995828,-0.026010467,0.23113963,0.09729555,-0.08867725,-0.15700337,0.05026118,-0.169972,-0.0050571687,0.081733644,0.16982381,-0.14806199,0.048167687,-0.14266486,-0.107057914,0.11780687,-0.07873305,0.024142709,0.19893098,0.060737964,-0.09827182,-0.050307862,-0.12322612,-0.14946817,-0.10979758,0.027660167,0.14538406,0.24024479,0.09931676,0.037995722,-0.11695442,0.054163206,0.09746857,-0.105705805,-0.079718344,0.2092407,0.15686537,-0.17411011,0.06879991,0.019308215,0.042677213,0.15378298,-0.24995571,0.10715439,0.022717047,-0.11839544,0.13014685,-0.05587673,0.048998863,0.041213606,-0.011861314,-0.025281757,0.12389336,0.08319747,-0.2369431,-0.09153806,-0.06776457,0.17580713,-0.12912568,-0.09086141,0.030030003,0.09224465,0.0029877743,-0.08154509,0.02839999,-0.15524365,0.011816878,0.1441898,0.18084635,-0.19350888,-0.120542035,0.0051560146,0.07340357,0.12391713,-0.10596708,-0.02786928,0.03991481,0.021369977,0.14168929,0.042157732,-0.14257888,-0.14221632,0.16576393,0.011890274,-0.0052597807,0.100379966,-0.13569388,-0.15430617,0.08128034,-0.09903933,0.0815486,0.18415502,-0.032881156,0.007708258,0.101406,-0.01074216,0.039597075,-0.077977166,0.10444232,0.12657969,0.09998216,-0.002753801,-0.12956111,0.026947783,0.0026320873,-0.00458468,0.080754876,0.1428369,0.110922106,0.0074866097,-0.07110561,0.021451328,0.029618947,-0.098240204,0.08174377,-0.07766943,-0.2982391,-0.09423829,-0.10549037,0.09831483,-0.020492008,-0.09018852,-0.107903875,0.0720408,-0.12761983,-0.114359185,0.1573389,-0.078128584,0.06071049,-0.005236535,-0.20768067,0.16065466,-0.11203764,0.08407276,-0.12992315,0.13492593,0.04831335,-0.11270852,-0.047619063,-0.059660453,0.05740422,0.059327953,0.11490164,-0.15307905,-0.1384265,0.11603428,0.006808554,0.020513937,-0.16753057,0.028642463,-0.14497675,-0.0067140567,-0.027525105,-0.15328121,-0.06217865,-0.14403498,0.08246163,-0.036271524,-0.12683527,-0.15838121,-0.13346542,0.008314357,-0.05010284,-0.024550064,0.067625746,0.107294925,0.18998621,-0.08455959,0.23876895,-0.20057954,0.14031433,-0.053772848,-0.056830715,-0.12097571,-0.33811465,-0.028027847,-0.14299543,0.12028526,-0.124117285,-0.17053184,-0.16519141,0.06639806,-0.08401011,0.10596232,0.059910648,0.26663855,0.0037966582,-0.1600092,-0.02016592,0.075624526,0.045564845,-0.2137641,0.043502625,-0.12257211,0.09597392,-0.27900764,0.009710359,-0.23772463,0.1522947,0.11867776,-0.01788704,0.054123152,0.16358271,-0.02640778,0.111498535,-0.022391591,-0.1468718,0.30436343,-0.09848145,0.021799691,0.08552791,-0.1575281,-0.051050194,-0.33351663,-0.11385498,0.10303977,-0.11557244,-0.2342388,0.22321072,0.016351743,0.02616813,-0.19487788,-0.14206427,-0.2757656,0.08143564,-0.1260327,0.088452086,0.004117289,0.075231075,0.18732803,0.08746914,-0.27435812,0.0025364019,-0.039138094,0.025747165,-0.18049121,0.048804514,-0.18299256,0.049899094,0.11068996,-0.21297556,-0.1058007,0.033630706,0.01874386,0.0046910266,0.044713262,0.16192096,0.08815327,0.0035597587,-0.049556956,-0.10443611,-0.03793878,0.25675368,-0.108057134,0.060702447,0.05358227,0.03058321,-0.06755188,-0.03688052,-0.2075322,0.08929646,0.1392702,-0.13643955,-0.1678775,-0.20026831,0.0038435357,-0.3057798,0.12394785,0.35595283,0.017088374,-0.084661305,0.02659577,-0.014667994,0.021200914,0.15403184,-0.08778172,-0.10229309,-0.15130238,0.00077209325,0.0037689053,-0.013201981,-0.36377636,0.03616453,0.002890829,0.028480543,-0.12949651,-0.15384528,-0.06449505,-0.07068139,-0.18477227,-0.1916409,0.10348097,0.012951995,-0.11695797,0.27381042,0.20398332,0.14814116,0.12799,-0.13916147,-0.067383,-0.025256274,-0.1854786,0.21166636,-0.12964301,-0.16885573,0.09843326,0.103258364,0.08587698,-0.008059271,-0.14102943,0.048532765,-0.026570443,-0.26268372,-0.10308689,0.24704933,0.031246588,-0.15409374,0.009447755,0.10822183,-0.07895181,0.00078261213,0.10990509,-0.03167772,-0.060667098,0.1586256,0.00686191,-0.13906835,0.06803665,-0.048200384,-0.09784496,-0.06916555,0.21607257,0.15987849,0.052783478,0.10873817,-0.22901817,0.024558244,0.23488225,-0.017833976,-0.021883877,-0.021124251,0.21057254,0.09282968,0.044038814,0.12511878,-0.104204446,0.09539216,0.018013844,0.15168108,0.035654843,-0.047868356,0.057882152,0.035250783,-0.033690426,-0.08702825,0.12021683,-0.17099282,-0.031129804,0.12511486,0.08334603,0.03701807,-0.040512618,-0.013908115,0.04897653,-0.028411865,0.08948046,0.0038198594,-0.06871899,0.2367116,-0.06066767,0.13316712,0.1878901,0.081225984,-0.13883325,0.08691129,-0.24940501,0.17457235,-0.20336041,0.10620964,0.03764793,0.083610244,0.02055064,-0.0510453,-0.17892645,0.019342644,-0.050718915,0.21868888,0.044343356,0.23717898,-0.034240194,-0.02570452,-0.06405781,0.098480366,0.17451847,0.051007304,-0.12646413,-0.15683019,-0.01866108,0.09398807,0.11026665,0.016963903,-0.027881699,-0.029333748,0.036712117,-0.1078112,-0.0334899,0.11330421,0.13532972,-0.073934644,0.123245806,-0.20044823,0.020363556,-0.12229423,-0.13029528,0.08712241,-0.08058674,-0.15450722,-0.019517837,0.036469854,-0.07772446,-0.028763449,-0.122819394,-0.021483203,0.015359036,0.092926994,-0.25040224,-0.003234765,0.056876045,0.041808333,-0.065560766,-0.25101924,0.04628073,-0.115500055,-0.14190863,-0.05261925,-0.040273014,-0.052601777,0.071560815,-0.054666117,0.073809266,0.0930372,0.012190821,0.18112871,-0.22712167,0.015780266,0.11748551,-0.1589055,0.12624826,-0.27954543,0.12593639,0.056492873,0.015987603,-0.25790277,0.06159832,0.026988007,0.061453007,-0.22701167,-0.13688202,0.16129245,-0.26899734,0.16676253,0.058595758,0.14104758,0.08374124,-0.02446884,0.010468136,0.06348197,-0.091809,0.073024884,-0.15629856,-0.19123079,-0.11969308,-0.11065979,-0.15311548,-0.14780027,0.08692882,0.20881021,-0.18538219,0.06602525,-0.12425911,0.051671166,-0.0567747,-0.14123604,0.043863796,0.10858853,0.22102834,0.023478523,-0.3602995,-0.100922056,0.12565976,-0.107437015,0.060788058,-0.15269978,-0.23066634,0.11200613,0.025237065,-0.067508206,0.017051226,0.08632505,-0.0896951,-0.032233264,-0.007906214,0.11729291,-0.045309965,0.17415632,-0.01774519,-0.25233018,0.16106111,0.20592874,0.056777064,0.1196005,0.10488596,-0.15108912,0.11197146,0.18038374,-0.098462395,0.061122067,-0.044177916,0.010222297,-0.20229067,-0.17019495,0.004434834,-0.2904626,-0.038897645,0.16524957,-0.011517581,0.044574518,0.056932747,0.0050887773,0.068442576,0.037934814,-0.13856477,0.13379127,0.028639961,0.11083063,0.0029395835,0.026592053,-0.098017275,0.1791938,-0.09393006,-0.06384805,0.061535124,0.05153361,-0.015647337,0.0027461273,-0.06174336,0.14468811,0.15926212,0.049114063,0.008102107,-0.07762012,-0.12958919,0.09014347,-0.07753857,-0.002075809,-0.1854822,0.16776907,0.021416755,-0.12194943,0.07989117,-0.022566188,0.063572705,-0.15963268,0.07920941,-0.024957929,-0.113940954,-0.11590914,0.25457144,0.0813128,0.23864555,0.03568016,-0.15916082,-0.10759987,-0.09534379,0.047309224,0.0029416638,0.07337459,-0.10735507,0.030608177,-0.16327208,-0.12884362,-0.07673949,0.14225942,0.046451736,-0.18966582,-0.14549631,-0.09287817,-0.23682721,0.06003713,-0.01933265,-0.053812545,0.14635861,-0.14637287,0.016895507,-0.082828335,-0.09869682,-0.062067248,-0.17978221,-0.048297253,-0.025197802,-0.08639197,-0.107483044,-0.13528179,-0.0051885424,0.20714775,-0.0022711733,-0.065046735,0.09622562,0.12974972,-0.06018931,-0.1526605,0.11049308,0.15634291,0.057859495,0.109957024,-0.23411031,-0.115892105,-0.015726928,0.049376003,0.0421456,0.06827971,-0.20730641,-0.0040754303,0.0534503,-0.08479595,-0.012555992,-0.16519757,-0.14692898,0.12972951,-0.17113394,0.063951604,-0.064912274,-0.18776385,0.12185059,-0.11263348,0.20888343,0.17211315,-0.119944766,-0.093319304,-0.111340865,-0.091597445,-0.0034727035,0.011845425,-0.21691465,-0.2286103,0.038663145,-0.05421722,-0.2397872,-0.2355401,-0.21143125,-0.014177393,-0.15326312,0.081124045,0.08466367,-0.04868837,-0.028579285,0.047639973,0.10721063,-0.07039222,0.02390759,0.08306167,0.11111132,0.030536229,-0.010975531,-0.10194099,-0.096922144,0.080807105,-0.21319595,0.03880003,-0.15711923,-0.013778673,-0.008250618,0.11735905,0.055957485,0.0092091365,0.14872698,-0.09214761,0.025312439,-0.11281135,0.015924435,0.09989867,0.024808923,-0.17449516,-0.13135654,-0.1141491,-0.11114627,-0.033834245,0.08472175,-0.17423144,-0.046124283,-0.1710224,0.12747402,0.075894006,-0.055801917,-0.21488966,0.075685084,-0.10389331,-0.035818953,0.00576067,0.124703825,-0.08867689,-0.10852661,-0.051075652,-0.027840873,0.1670285,-0.10348293,0.09198272,-0.21882598,0.07345134,0.10195929,0.10827823,-0.11321787,0.022073518,0.024599034,0.021136776,0.013684805,0.14291143,-0.014217122,-0.0902954,0.19458354,0.035263512,-0.093134604,0.23838866,0.060120974,-0.014269878,0.057596847,-0.21489353,-0.09918048,0.08431089,0.20462114,0.048605308,0.09817899,0.07124997,-0.2338698,-0.0056321896,0.14715758,-0.021438763,-0.19051452,-0.14854114,0.24947199,-0.124940634,-0.102608204,-0.006828653,0.04952647,-0.058666166,0.04147617,-0.17583577,-0.01474052,0.020580428,-0.033982728,0.08104639,0.038688388,0.008669099,0.0222795,-0.0062660812,0.13676596,-0.17011847,-0.16786611,-0.020767426,-0.05681836,0.22395226,0.003168749,0.15717123,-0.042576835,-0.13861813,-0.10023793,0.16188025,-0.12667592,0.09880326,-0.14119801,-0.08612875,0.21681213,0.1058498,0.07139876,-0.055226892,-0.09771602,0.05686118,0.06601223,0.03865088,-0.14619648,-0.009192762,-0.060322154,-0.017456286,-0.17066187,-0.12904195,-0.12816708,0.0066735623,0.12994637,-0.003012208,-0.092377335,0.28046754,0.006555557,-0.06536654,-0.03158857,-0.25098193,0.08090136,-0.11984391,-0.0017820696,0.103535205,-0.12884547,0.036781292,-0.004572286,-0.07477177,0.14436837,0.08559328,0.10337715,-0.16409492,-0.19473445,-0.19888587,-0.18865238,0.14276141,-0.09010406,-0.11555599,0.12839234,-0.1407434,0.10479755,-0.0064588203,-0.06357993,-0.076873414,-0.09269387,-0.13874486,-0.015897706,-0.09351636,0.08983267,-0.052220363,-0.014516963,-0.1374604,-0.15910672,0.24475892,-0.038810384,-0.044966448,0.13799979,-0.10719887,-0.02910215,0.14220119,0.055840008,-0.31278288,0.046135694,-0.043707233,-0.16067712,-0.039686095,0.116276,0.26195398,-0.2552156,0.0061545996,-0.13211085,-0.1315707,-0.025038216,0.22770692,0.07756681,-0.13495165,0.12192717,0.06500081,-0.04373056,-0.08693742,-0.063799255,0.0040626414,0.09671528,-0.25343752,-0.112966925,0.040603273,-0.14001055,0.019816764,-0.041202255,0.16065417,-0.019972308,0.053020418,0.017909218,-0.14176431,0.003322741,-0.11213749,0.046230372,-0.002551659,0.023939626,0.005156248,-0.0961569,-0.11187508,-0.28604278,-0.0024439911,-0.019186225,-0.19519159,0.22630562,0.07592709,0.09823715,0.06942477,-0.09542279,-0.28879628,0.076119006,0.07762506,0.2579593,-0.19619188,0.06309962,-0.14862123,-0.17006928,-0.32569802,0.07296113,0.057591874,0.045728203,-0.039084166,0.05092722,0.030909134,-0.1122743,-0.14790614,-0.12779354,-0.14919317,-0.06936668,-0.08174848,-0.0024000444,0.098654814,-0.05291586,-0.10521501,-0.17233965,-0.0016857191,0.06241236,0.17460492,-0.1402675,0.10226244,0.054083783,-0.15862586,0.10015879,-0.13092057,-0.044074338,0.14839734,-0.038767014,-0.053562757,0.117692836,0.0074941767,0.24746206,0.08372659,0.033778008,0.13954437,-0.047534473,0.026700066,-0.030786252,-0.013605861,0.20077415,0.17748405,0.15886976,-0.12725343,-0.090287745,0.034219913,0.017760178,0.023727277,-0.16851465,0.12531084,-0.046129383,-0.0034219585,0.13434155,0.009053267,0.09876469,-0.07677067,-0.035247564,-0.15503018,0.08525237,-0.05790894,0.07813631,-0.107113786,-0.0047963816,-0.07926117,-0.282013,-0.054468133,-0.06855009,0.023879595,0.15465686,0.13807085,-0.08270548,-0.25817326,0.08267552,-0.03597596,0.018475559,-0.26197714,0.16207613,-0.06325977,0.07473964,-0.053874195,-0.13047238,-0.19126377,-0.08745489,-0.13199875,-0.12816976,-0.1090453,-0.009917432,-0.118550405,0.005485601,0.05389137,0.20354435,0.25074357,0.08146617,-0.24007007,-0.030540887,-0.010643875,-0.17557564,0.075850636,-0.110648386,0.13496809,-0.20755222,0.21352856,-0.28407335,0.071724005,0.047174662,0.14755757,0.07414331,-0.10519594,-0.081555,-0.060491305,0.11407488,0.04172662,0.103701204,0.11321187,0.15691611,-0.14541966,-0.21263944,-0.17717384,-0.008512593,0.041399363,-0.07757361,-0.20066595,-0.31162733,0.19159846,0.22727692,0.080280855,0.104303025,0.0037947702,0.017975168,-0.08598467,0.08823349,-0.19009808,-0.15454638,-0.02528808,-0.1275251,-0.121762395,0.07383032,0.06528164,-0.071792625,0.00928078,0.05987069,-0.17750135,0.07417053,4.489402e-5,-0.11016223,-0.15328047,0.01046395,-0.101094894,-0.084091105,-0.06902474,-0.058318853,-0.028337337,0.090576254,-0.16764432,-0.010721261,-0.07991905,-0.29838622,-0.0711725,0.06790051,-0.11175987,0.31094426,0.011433501,-0.07623053,0.12979245,0.15952456,0.1114177,-0.1170749,0.031547356,0.017603854,0.028795745,0.19214663,-0.15149747,0.00793223,0.09507252,-0.12691845,-0.012971915,-0.08347921,0.23884085,0.032147106,0.033788882,-0.14543098,0.11707105,-0.053656057,0.0151266465,-0.06906197,-0.20165879,-0.15045668,0.15869969,0.100601204,-0.13332279,-0.092253976,0.05370656,-0.0006876162,-0.15154555,0.062299304,0.010614352,-0.0708343,0.16727507,0.038829185,-0.24091616,0.11776251,-0.2654833,-0.089668475,-0.05330858,0.14070275,0.03447544,-0.009838552,-0.0134683885,-0.1642756,-0.14850804,-0.21242961,0.0743651,-0.030627895,-0.17225884,0.16233101,-0.039420746,0.0035014723,0.047827143,-0.0032232087,0.13496776,-0.024522258,-0.28665155,0.090529785,0.1454962,-0.07044068,0.052758932,-0.18542129,0.20427349,-0.15224434,0.05384683,-0.13961585,0.016535925,-0.027481938,-0.033273112,0.100903206,0.06210837,0.014869142,0.02974851,-0.03386928,-0.0011226663,0.03487292,-0.12701322,0.118947476,-0.055747014,-0.026681526,-0.20869306,-0.13140477,0.1595063,-0.10863182,0.006420332,-0.063449584,0.07578826,0.122987285,-0.006488373,-0.0259722,0.1782628,0.023176648,0.06750847,0.053915013,0.047800485,-0.17591977,-0.12597984,-0.096997574,-0.0864092,-0.14475097,0.0615526,-0.19383796,-0.14879347,-0.13037449,-0.19299793,0.055235986,-0.09268749,-0.0031477455,0.09678964,0.1356894,-0.13699885,-0.09789219,0.011807967,-0.18052506,-0.21757825,0.13660619,0.02410704,-0.14856406,-0.06400818,-0.05314196,-0.013271143,-0.114041485,-0.09394941,0.13663565,0.080341645,-0.15565768,0.053459425,0.14548694,0.24969013,0.03708143,0.2201895,0.15021974,0.15242535,-0.08581481,0.07004347,0.106364354,-0.029257353,0.024044827,0.010932053,0.09799677,0.13060786,-0.091303565,0.09846868,-0.25647974,0.13313906,0.12556848,-0.07921768,-0.33395422,-0.030839918,-0.36735576,0.13048719,-0.07494645,0.089334674,0.008054101,0.12637676,0.1181005,-0.31807375,-0.03557091,0.044220965,0.03567155,-0.07073272,0.04254633,-0.0022228796,-0.092911206,-0.3253329,0.06627992,0.09388776,-0.025525918,0.2919191,0.00019455132,0.042460896,-0.32026944,-0.008442947,-0.13194472,-0.0451485,0.07609145,-0.03805409,0.07482575,0.08370969,-0.0106131695,-0.145272,-0.10963144,0.028763652,0.18479373,-0.02380832,0.11653989,-0.038447604,-0.31618592,-0.055445656,-0.004542465,0.14635316,-0.17952654,0.045281846,0.27674085,0.012235729,0.1333865,0.01891419,0.12893006,-0.02753297,-0.069026284,-0.27216998,0.15077858,0.22350429,0.116545625,0.05950411,0.008120395,0.05776293,0.22641754,-0.10827048,0.07500286,0.18678977,-0.17221332,0.17317137,-0.12051437,0.12461695,0.044539846,-0.0054770904,-0.04724413,-0.03158601,0.12422839,-0.07792648,0.046729404,0.09338489,0.17652145,0.13575318,0.13273935,0.018352468,0.09623765,-0.03698687,0.09971337,-0.021082409,-0.17186531,-0.10662559,0.062462382,-0.030506939,-0.02566643,-0.12766081,0.08936017,-0.23961733,0.023352176,0.015118571,0.10605455,0.09395204,-0.13164434,-0.15802762,-0.02759854,-0.035783213,0.084266745,0.06755252,0.10537735,0.020372687,-0.05102325,0.054378547,-0.016706059,-0.016121391,0.05850915,-0.09630015,0.01899554,0.085041404,-0.05686474,-0.045335907,0.21145684,-0.27688694,0.04834555,0.124498226,0.02280962,0.19773966,-0.085154034,0.035128642,-0.060016353,-0.06264124,-0.10849192,0.09444372,-0.19658038,-0.2187075,-0.14624171,-0.10871175,-0.024341512,-0.27679136,-0.049190782,-0.27410176,-0.15086886,-0.12256559,0.09343678,0.07039866,-0.061121915,-0.08037903,0.14016779,0.014646796,-0.10221642,-0.21764271,-0.1374182,0.16511628,0.018968659,-0.3387271,-0.014783468,-0.016291937,-0.16296688,0.1345582,0.10743076,-0.053633515,0.006981285,0.22419001,-0.06291626,-0.05227618,0.122965455,-0.21727611,-0.0069905287,0.07643941,0.18070929,0.016260784,0.10931773,0.053602614,-0.11737892,0.13083284,-0.071866,0.053297102,-0.07597025,0.10091864,0.059178423,0.059326947,-0.25101525,-0.006811375,-0.07088657,-0.09336945,-0.1512543,0.11695265,0.20247667,-0.011758631,0.123069555,0.14277557,0.006687757,0.20022438,0.17367405,0.021734672,-0.024099013,-0.05348109,-0.15285598,-0.015724707,0.14181782,-0.042966276,-0.11641871,0.11183163,-0.063546576,-0.2275998,-0.12571149,0.019977206,-0.13348895,0.005699236,-0.09155108,0.12225244,-0.10120846,-0.1675032,0.07454174,0.09482996,0.14531027,0.0073045804,0.17106575,-0.055923283,-0.10300986,0.13304682,-0.12546343,-0.011426014,-0.059072506,-0.17468138,-0.0021030195,0.009408814,0.06737018,-0.049965005,0.031208424,0.14374949,0.034316897,0.09531939,-0.14336608,-0.14892064,-0.11522853,-0.17033756,0.0342902,0.059375606,0.19636942,-0.03569784,-0.114453755,-0.043658946,0.1012564,0.0721262,-0.04366402,0.039075013,-0.065908395,-0.12547581,0.07590142,0.11591061,0.112876415,-0.06729432,-0.028283847,0.03086366,-0.020934634,0.12839147,-0.14296652,0.08850186,-0.1925516,-0.0743096,-0.07372487,0.07957358,0.10296189,0.045807816,0.005633212,0.08615387,0.06883258,0.04354244,-0.11964165,-0.0616377,0.19717313,-0.15437903,-0.11203988,-0.010053833,-0.066693164,0.05917184,0.12405606,0.024431854,-0.061045762,-0.098437116,0.050129943,0.21639879,-0.0488864,0.13816187,-0.054505154,-0.09687395,-0.057210285,0.006762915,0.043385435,-0.08887457,-0.09391823,-0.10276965,-0.005166149,0.109414384,0.07297014,0.09612715,-0.19279894,-0.17065741,-0.1515234,0.087135546,0.16797008,-0.040100366,0.07478728,-0.07159052,-0.037018467,0.2253207,-0.086705536,0.23962462,0.20316717,0.06880947,0.15995885,-0.036560543,-0.058829892,-0.12333116,0.01995963,-0.10621052,-0.007998712,-0.054417808,0.18099761,0.026206017,-0.08345062,-0.09286018,0.13866255,0.010448484,-0.13226043,-0.1875048,0.05599133,0.054469734,0.15787508,0.053156257,-0.08190429,-0.038051113,-0.14131023,-0.19506109,-0.074902244,-0.01823024,-0.10427808,-0.028101705,0.17807443,-0.063445844,-0.11972015,-0.029932233,-0.13656795,0.076126166,0.21197078,0.28100368,-0.038077842,-0.069297485,-0.066398814,0.10947437,0.033766713,-0.111639015,-0.16380207,0.18498139,0.08839962,-0.16518836,-0.045855608,-0.23643012,-0.023582665,-0.029965736,0.21258469,0.2012914,0.23555614,-0.015531589,-0.118222356,0.034704883,0.14585845,-0.13149442,-0.094371706,0.10794135,-0.032065134,0.12622839,0.1050688,0.06818226,0.1127146,0.10063016,-0.0116367005,-0.09113869,-0.066606,0.014506597,-0.0138437,-0.0073539526,0.04742505,0.11451086,0.090763815,-0.11447793,-0.1327609,0.029272238,0.0778426,0.19157465,-0.021984614,0.059986092,-0.12571426,0.1459303,0.11652575,0.106437914,-0.09215228,-0.111907706,0.022880834,-0.0051085446,-0.014202247,0.020787684,-0.101074845,0.12055731,-0.029142251,0.0041519585,0.0031072078,-0.2303437,0.045989692,0.2142181,-0.14364165,0.1007991,0.101971805,0.09328626,-0.20469742,-0.1397445,-0.29672366,-0.24272376,0.001369266,0.053400412,0.17076126,-0.17053299,0.010352077,-0.016448032,0.022554344,0.10179141,-0.025114669,-0.005700987,0.16747338,0.18621558,0.021987699,0.014458602,0.06670445,0.18037082,-0.13657774,0.050877627,0.07149229,0.080573216,0.13970205,-0.048677254,-0.09454564,0.11990899,0.0046217493,0.06657891,0.115566984,0.08170274,0.25546616,0.00012773869,0.1859939,-0.06264815,-0.07581847,0.0006862755,-0.13060106,0.05256867,-0.1978069,-0.06316554,0.13337156,0.16824263,0.21829237,0.24863935,-0.087727435,-0.096853286,-0.023841478,-0.01504051,-0.16660312,0.0043879305,-0.079459235,0.099569656,-0.15885703,0.108088925,-0.19857882,-0.16336039,-0.04324762,0.08129428,0.00017777635,-0.21531524,-0.033755038,-0.025064152,-0.1220251,0.052933395,-0.12594013,-0.09714672,-0.0649961,-0.110918224,0.06374611,-0.015640993,-0.110810794,0.07799596,0.058834452,0.17300507,-0.08040524,0.13300271,-0.14260279,0.04510129,-0.10618724,0.11139533,0.016239587,0.18299803,-0.028743178,-0.093289815,0.042230066,-0.20185016,-0.05407888,0.0893118,0.21024871,-0.031653054,0.0014468117,0.0049004713,0.08692769,0.059001528,-0.09421438,-0.11109616,0.06140113,-0.14803292,0.17535162,0.12123228,-0.13422051,-0.033344205,0.19830489,-0.15725325,0.14855735,-0.28430983,0.060805485,-0.14298621,-0.10295387,0.12910326,-0.044567052,0.17696181,-0.053596087,0.007868607,-0.076366864,0.04744552,-0.0087491525,-0.112364255,0.09890013,0.20027432,-0.06414024,-0.22766265,0.0028208105,-0.122187175,-0.12646118,-0.14616503,0.065726146,0.14062676,0.10132962,0.055921365,-0.08573874,-0.014728738,0.22310594,-0.15816067,-0.07956677,-0.14711381,0.08358147,0.12488303,-0.06987859,-0.21662539,-0.105798826,0.051835336,0.067340784,-0.08628239,0.07584825,-0.15348153,0.051979195,-0.1346018,-0.077090345,-0.08856276,-0.052674763,-0.0014152239,-0.29825577,0.021134166,0.14607346,0.09551357,-0.101732984,0.25449845,-0.23802982,0.106139936,-0.006409331,0.020167464,0.013371964,0.051296894,-0.10736895,-0.21893667,0.17182237,0.05886462,0.055268314,0.23204671,0.061572812,-0.3272516,-0.015018044,0.048921548,0.10018292,-0.03028781,-0.16349389,0.026136477,-0.027578838,-0.10531022,-0.11133187,-0.071345754,0.24125169,-0.01636289,0.16050811,0.016234955,-0.07407351,0.15955956,-0.060605768,0.020097142,-0.07283147,-0.17629099,0.024995934,-0.0021187577,-0.13084267,-0.11065482,-0.16717994,-0.010658378,-0.026777774,-0.15380466,0.034322582,-0.10791328,0.097232714,0.11806086,0.122271776,-0.08274329,-0.02789987,0.047183592,-0.07427014,0.17224194,-0.23128074,-0.0044335998,0.068982705,0.12494121,0.0036796674,-0.070644744,-0.14501898,0.035909813,0.070595905,0.037476595,0.12026555,0.06022081,0.09667237,-0.07020755,0.119640544,0.018559936,0.09158999,0.0636152,0.009578884,-0.099442065,0.09261614,-0.26238745,0.18317442,-0.04968482,-0.04792557,-0.06004705,-0.10122696,0.122110434,-0.14020629,0.17762907,0.08181337,-0.1339019,0.06905645,-0.020079505,0.024666367,0.018481746,-0.15881868,0.13107897,0.09213701,-0.17927036,-0.13780937,-0.1677176,-0.06309386,-0.15190841,-0.01637474,-0.02114268,0.22115071,-0.0024348653,-0.09794256,0.043419152,-0.32778516,-0.016650725,-0.16109128,-0.028107632,-0.07523502,0.21605088,0.0014173859,-0.090811074,-0.027837029,-0.00915813,0.112209156,0.06460274,0.034575265,0.14879903,0.15181261,-0.05449515,-0.24153152,-0.09090612,0.02341544,-0.037544936,-0.22765747,-0.13913047,-0.07682389,0.20393041,-0.0775468,-0.10907583,0.13299298,-0.11051714,0.017315052,0.06381332,-0.14597525,-0.065300465,0.060027964,0.025279056,0.15838121,-0.11590242,-0.16129377,-0.01657394,0.066288516,-0.11207007,-0.020961083,0.15109,-0.10431882,-0.04688286,-0.1686533,-0.21500334,-0.13670419,-0.15809134,-0.07356492,-0.009056059,0.05566772,0.07046287,-0.16491012,0.06670718,0.09052167,0.2807881,0.1721295,-0.00926929,-0.003315005,-0.074497476,-0.0263009,0.20821734,0.04499269,-0.121560566,0.044760756,-0.096375175,-0.12430532,0.084950335,0.12494368,0.04816791,-0.071198545,-0.15158468,-0.14133385,-0.04491578,-0.015555603,-0.099072695,-0.0022638326,0.14724994,0.12520733,-0.12304543,-0.17419544,-0.0463321,-0.2573031,-0.16495107,-0.17990603,0.08863982,-0.034725897,-0.06538396,0.17790939,-0.06395895,0.01904899,-0.08859598,-0.042429946,0.02093351,-0.17244332,0.119406894,-0.031260222,0.0071626008,-0.012459574,-0.06233512,0.13423795,0.008343829,-0.2740945,0.1685439,0.08608747,-0.08234879,0.18446735,-0.026815385,-0.14860293,-0.020355837,-0.07194387,-0.24673346,0.049736876,0.017435664,-0.12640361,-0.12305538,0.038805604,0.2142961,-0.22376914,-0.11612047,-0.0154013205,-0.08969918,-0.10059059,-0.08435818,0.15922308,-0.027889546,0.002908553,-0.14656617,-0.02848047,0.029450785,0.02233062,-0.075000405,-0.07990859,-0.40695837,-0.065588236,-0.074727125,-0.18611164,0.1036768,0.0711511,-0.052345093,0.055598114,0.14610787,-0.13166699,-0.092812024,0.21931456,-0.16287345,-0.05563557,-0.088277645,0.24938293,-0.0927843,-0.16955256,-0.063071474,-0.110901445,0.11547075,-0.086203866,-0.013817886,0.08956524,0.029026214,0.13618122,-0.14124842,-0.11397531,-0.18018399,-0.12008214,0.10146687,0.20138782,-0.41625604,-0.07121624,0.0005889205,-0.16125795,-0.17760912,-0.11573598,0.023075469,0.12546904,0.2252134,-0.06473609,0.11591232,0.023040898,-0.095514365,-0.02386518,-0.2950397,0.025352057,0.054791655,-0.018301865,-0.033888005,-0.14243656,-0.022230016,0.005907222,0.04556794,0.10812066,-0.0783522,-0.044133198,0.116047315,-0.112457424,-0.2692883,0.065390214,-0.07066546,0.16271335,0.053598017,0.02418574,0.056820944,0.06929595,0.061664924,0.17374183,-0.15365908,0.057716675,-0.10907038,-0.06147953,0.011091378,-0.083397105,-0.117427155,-0.16703157,0.025949366,-0.011992963,0.061124567,-0.102208905,-0.10130699,0.029986681,-0.060339615,0.10692406,0.059269533,0.12493697,-0.006028295,-0.18113221,0.14201543,-0.113789424,0.112134226,-0.11028221,-0.09829032,-0.23578303,-0.06783617,0.030853042,0.13786487,0.05547295,-0.08534677,0.1939532,-0.263024,-0.12983005,0.02791675,-0.060930472,0.11036097,0.11651136,-0.0696412,0.14383487,-0.25333956,-0.14145772,0.28273928,-0.037491407,0.065448485,0.031189704,-0.049791314,-0.08443833,0.004319912,-0.28657565,-0.13769014,-0.11500738,-0.122179255,0.17367966,0.22683929,-0.1272965,-0.038852792,0.04214268,0.041302394,-0.10542241,0.027243821,0.04160681,-0.015832786,-0.09204813,-0.017484408,0.07928148,0.11652173,-0.047863916,-0.055358816,0.32612842,-0.011319528,-0.14835411,0.08156289,0.032291394,-0.14295043,0.04649709,-0.15599765,0.04105777,-0.15797481,0.0682467,0.0036509985,0.10563446,-0.052212287,0.033131257,0.19453782,-0.15514737,-0.07220083,-0.002151726,-0.07026871,0.20747533,0.09574897,0.059593566,-0.10648655,0.12826304,-0.07552385,-0.10246518,0.04587028,-0.06883273,0.09828766,0.07324387,0.084100336,0.10511973,-0.06777205,0.02661101,0.040488932,-0.10766254,0.11329324,-0.04946822,-0.046912864,0.07157491,0.087962635,-0.07095812,0.035213355,-0.08851203,0.01724849,-0.14053345,0.02957199,-0.07785344,-0.16985266,0.13951634,0.12859127,0.1569184,0.055628095,0.05074289,0.024683544,0.041529033,0.03932094,-0.21451966,-0.07377111,-0.17888452,-0.14735764,0.14359696,-0.013339295,-0.120139845,-0.024099005,-0.25372633,0.16191147,0.16306308,-0.2563998,-0.17169347,-0.05046481,-0.08161911,0.010115697,0.09801815,-0.022357522,-0.07891373,-0.07892582,0.27668673,0.015353381,0.114421606,-0.10457947,0.024751935,0.19790016,0.14548132,-0.3430922,0.11587367,0.04542316,-0.11902833,-0.033997595,0.10133539,0.26717436,-0.054770395,-0.018033687,0.00046937953,0.0048764353,0.18774006,0.1109855,0.098894075,0.19710441,0.12261917,0.023207575,-0.08167864,-0.09335875,-0.029304035,-0.042366743,0.29344013,0.16872124,-0.17015561,0.14433521,-0.006235218,-0.006242038,0.06666513,0.04210631,0.061494898,-0.07475365,-0.02118832,0.0077322326,0.17971468,0.13177179,0.052503627,-0.033112157,-0.03441057,-0.04029671,-0.12474924,-0.07280209,0.15800644,-0.10770625,-0.12061322,-0.0065083876,0.08072711,-0.043658487,-0.117420316,-0.14985399,0.10345819,0.0073379236,-0.11586668,-0.028917097,0.02841151,0.14369652,0.15610671,-0.18362913,-0.09093578,-0.10238326,-0.13752848,0.008747121,-0.0015023355,0.05960567,0.007475135,-0.009231938,0.052391518,-0.089997545,-0.022496082,0.17532739,0.09616852,-0.11654445,-0.06004211,0.14424354,0.12809879,-0.20175298,-0.048085146,0.07381354,-0.1048109,-0.01924917,0.13447684,-0.23221269,-0.021512596,0.065683715,-0.1267984,-0.003506409,-0.0734173,-0.0070000207,-0.11276309,0.06726221,0.07784773,0.05247827,-0.021240039,-0.001456404,-0.020736486,-0.12651159,-0.05842217,-0.07937325,-0.10673872,-0.0151187545,0.081195444,0.006892082,0.1248275,0.11069671,-0.15599605,0.03763609,0.11420394,0.16727921,-0.10034932,0.065620095,-0.16594198,0.016122418,-0.20132382,-0.14375997,0.096881956,0.06575296,-0.11184286,-0.004157688,-0.12464849,-0.05138782,-0.039873987,-0.06574702,0.14856757,-0.08030379,0.058232978,-0.02192371,-0.016849758,-0.14093219,-0.042051177,0.1100986,-0.052709155,-0.1369731,-0.026156057,-0.097181074,-0.3105737,0.0823256,-0.0037294663,-0.0983408,-0.064378776,0.15601334,-0.07101886,0.28207916,-0.1427791,0.26209623,-0.14132346,0.020856984,-0.15218744,0.045027465,0.013975207,-0.031691227,0.33672863,0.02180031,-0.0011917164,0.27740362,-0.06857333,-0.043170508,-0.26015863,0.10528837,-0.12988107,0.0149959605,-0.043108534,0.16570213,0.31539553,0.23320183,-0.18582553,0.029728208,-0.15512095,0.18531749,-0.11483042,-0.12220115,0.042320203,-0.03947315,-0.02040962,0.0576081,-0.14914604,-0.12146405,0.098792076,0.031118432,0.035937127,-0.019994954,-0.13082801,0.12604165,0.03233543,-0.19140135,0.08164806,0.065960504,-0.20064154,-0.120922625,-0.09435161,-0.06509071,0.049771387,-0.06743784,0.02541016,0.036843292,-0.10679295,-0.046794068,-0.11340765,0.09842982,-0.15776621,0.038122464,-0.10105695,-0.07977177,-0.12771067,-0.11110399,-0.10019007,0.020790325,-0.10558412,-0.16823092,-0.080271535,-0.27409905,0.008284413,0.05949117,0.14072205,-0.15623559,-0.12538345,-0.07208152,-0.0039393166,0.072294496,-0.035505928,-0.11919415,-0.14043966,0.20623128,-0.08411534,0.07794079,-0.25443074,-0.10874523,-0.2399851,-0.017259466,-0.12866396,0.11322072,0.0042901435,0.012529387,0.115774214,0.02915402,0.21144536,0.18616135,-0.092838846,-0.011391992,-0.047472205,0.21250787,-0.26144806,0.16889302,0.10188062,-0.044896428,-0.08035432,-0.062135354,0.033413567,0.07440156,-0.061758216,-0.037142053,-0.16710551,-0.0906469,-0.03867945,0.1017191,0.23077886,-0.16144457,0.06950246,0.15921189,-0.21278031,0.14747731,-0.023843853,-0.0034804614,-0.12552735,0.022139825,-0.074425265,0.12854426,-0.083794415,0.078148514,-0.046351597,0.13316709,0.022968752,-0.01739809,0.069872856,0.0010689235,-0.17227551,0.18494193,-0.16879098,-0.110786684,0.12697923,-0.036691092,0.09876964,-0.13752979,-0.17636697,0.11211714,0.03667449,-0.12284644,-0.15620424,-0.097786866,-0.08121843,-0.09923178,0.03816531,-0.012089212,0.07524236,-0.07444779,-0.04654852,-0.061875544,-0.12902781,0.13671575,-0.09904756,0.18049094,0.2491183,-0.15619269,-0.30320528,0.07214143,-0.11013132,-0.023320084,-0.1247676,-0.0050616814,-0.17017272,-0.007433557,0.09838272,-0.09191389,-0.01813843,-0.04836302,0.1531531,-0.12899302,-0.010762887,0.038904753,-0.14637648,0.1350483,-0.061023045,-0.11158089,0.007749069,0.22490373,-0.084976815,-0.0060923686,-0.14804785,-0.12962931,0.044934798,0.008380515,0.10652911,0.091854535,0.038957044,0.13686155,-0.30495822,-0.030086959,-0.0014517982,-0.29435495,-0.15645239,0.028985959,0.1192767,-0.034898866,-0.022966405,0.10740587,-0.03997801,-0.073840685,0.04895728,-0.091429085,-0.14301018,-0.12740746,0.14587437,0.11678495,-0.13270405,0.18761364,-0.22621942,-0.08245338,-0.08050041,0.09914336,-0.06327902,0.13594125,-0.11399915,0.03634076,0.2544833,0.051241558,-0.07962592,0.14644083,0.08647934,0.15491542,-0.15300016,0.09744551,0.04110865,0.15960208,0.013003069,-0.06727844,0.12457684,0.21259902,0.07952015,-0.0030537012,-0.30330092,-0.09668359,-0.071023166,-0.107356325,-0.020264775,-0.019019801,-0.06439323,-0.028460193,-0.27936026,-0.065103434,0.06588835,-0.14271516,-0.17661922,-0.16646501,-0.03998111,0.107117325,0.13097194,0.05911669,0.033438653,0.14098006,0.002425735,-0.2497626,0.0101915505,0.2122953,-0.02412634,0.098881945,-0.048481893,-0.06221306,0.038732886,0.036788553,-0.04351842,-0.17997208,-0.13691042,-0.13108376,-0.07916392,-0.1354933,-0.02960911,-0.0976387,-0.009352095,0.03959505,0.12824123,0.19516747,0.08581561,0.07573136,-0.14436895,0.052575525,0.11395914,-0.11750747,0.066993676,-0.0991368,0.1659345,-0.12975389,-0.09223098,-0.0077628167,0.15188003,0.088540256,0.102062434,-0.05099892,-0.107684806,0.10261435,0.12675375,-0.10509926,0.26744097,-0.151882,-0.061875828,0.037344433,0.06583824,0.19254014,-0.10598323,-0.04369017,0.15438767,-0.08492405,0.2659556,0.28503305,0.00029488682,-0.024652215,0.05253287,0.064829975,0.09660768,0.037376653,0.048755426,-0.07743824,0.014334636,-0.12029664,-0.063030325,0.021455664,-0.12060128,-0.14034766,-0.008184536,0.07983782,0.16947621,-0.12505779,-0.027215343,-0.01768009,0.05887209,-0.21560484,-0.17586522,-0.036356788,0.047433008,0.11181241,0.106841035,-0.02876449,-0.1885695,0.10535082,-0.0017631506,0.0005750416,0.05691811,0.05866128,0.27222872,0.0150608625,0.04499322,0.090225674,-0.082650535,0.24479398,0.004420197,0.1692598,0.16486393,0.034158025,0.13981365,0.024080586,0.032246757,0.030328913,0.07506285,-0.07796253,-0.14942397,0.22437784,-0.15195847,-0.059410833,0.079892695,-0.030418584,0.0056549157,-0.19988401,-0.034834523,-0.043045167,-0.0506704,0.0053595756,0.016596576,-0.07270307,-0.14325663,0.016463386,-0.4891233,-0.15775394,-0.10391255,-0.13328545,0.06832199,0.23699969,-0.29843432,-0.001130224,-0.021688182,-0.042069152,-0.022320062,-0.09641309,-0.024384797,0.12021362,0.008010401,-0.15292275,-0.10717963,-0.23535192,0.07849739,-0.023975858,-0.031237384,0.12316316,-0.14435638,-0.13762484,0.14694127,-0.103725955,-0.13003182,0.22524166,-0.024113681,-0.029940682,-0.020912586,-0.018402252,-0.35611323,0.09597292,0.11064416,0.12766488,-0.14968981,0.20005532,-0.009292598,0.023099817,0.044812936,-0.14372393,0.03960273,0.14540729,-0.2168358,-0.22888844,0.19589907,0.01090188,-0.054395046,-0.09245663,-0.19443424,-0.098035544,-0.28785667,-0.092889324,-0.06252923,0.2342518,-0.21285321,-0.24681284,-0.33299676,0.20385213,0.0049827145,0.100800805,-0.06703842,0.19677544,-0.06757153,0.0012190623,0.10724123,-0.03262814,-0.20622993,0.113084584,0.109516785,-0.032975268,-0.17238748,0.09258258,-0.0690318,0.057443194,-0.03971727,-0.17603327,0.17557296,-0.1795731,-0.11856247,0.025066469,0.058229953,-0.039058533,-0.11011272,0.0767435,0.080441535,-0.05828045,0.10552479,-0.14214411,0.068730414,-0.1322983,-0.15302923,0.13904625,0.05444022,0.08811877,0.11943757,-0.15034032,-0.12682875,0.309232,-0.098031886,-0.18755957,0.0995674,-0.082880184,-0.050786875,-0.35136878,0.12027063,0.17483433,0.06844553,-0.2916679,0.03178715,0.07238527,-0.09793013,-0.13887236,-0.06266306,-0.09942161,0.1873494,0.02124023,0.017650567,0.0572996,0.25425196,-0.0701105,-0.06754991,-0.15289798,0.22982164,-0.1641288,-0.11525172,-0.076195285,0.042332713,0.060081273,-0.099015675,0.06065687,0.16671216,-0.01190543,0.07708842,-0.15893938,-0.14858018,-0.013596002,-0.086663194,-0.18992738,0.2683263,-0.1261352,-0.03998405,-0.06336406,-0.16656445,-0.13804814,0.23049611,-0.22020367,-0.0064992877,-0.0682758,-0.0072885887,-0.12415582,0.09638859,-0.099028535,0.020992476,-0.008859538,-0.12840639,-0.1864549,-0.05033944,0.03599487,0.18098138,-0.11770197,-0.018763049,0.16929384,-0.08089494,0.03626177,-0.33615604,0.062618434,0.25388274,-0.02640163,-0.3223027,0.12083685,-0.00089820544,0.24102,0.037038874,-0.21422255,-0.17707632,0.07602617,-0.17473309,-0.046853583,0.029156055,0.16935219,-0.05528837,0.042498108,0.070425875,-0.3365402,0.13304643,-0.13389912,0.027953096,-0.116644815,0.1339588,0.020863215,-0.065746985,0.012644348,-0.06803348,-0.23191513,-0.34943172,-0.21056668,0.014622455,-0.10230052,0.015197934,0.11323318,0.033727087,0.28323898,-0.021042353,0.043269962,-0.033361867,-0.11592799,0.02141662,0.08363373,0.0625084,0.19559601,0.07126383,0.10275771,0.115275845,0.08696395,-0.006889196,-0.037018128,0.19720857,0.044644132,-0.037571732,0.091648184,0.11350095,0.08258225,-0.028961869,-0.04403717,-0.09169625,0.05542793,0.09418445,-0.067968875,-0.07500623,-0.13129798,-0.2867273,-0.0029376997,0.06685112,-0.1719779,-0.07871063,0.06618358,0.038919907,-0.029887304,-0.10179295,0.10008689,0.0793673,-0.17898709,-0.07847754,-0.07843499,-0.062978454,0.043750457,0.08914377,-0.041088693,0.074974656,-0.13724944,-0.07713286,0.07237959,-0.124228515,-0.019745115,-0.17388195,0.16877416,-0.024151383,0.22150473,-0.15849404,0.039809927,0.0117094135,0.07449248,0.10753058,0.2074068,-0.019353839,0.1653079,-0.026098732,0.14714974,0.042737972,-0.02303304,0.33370906,-0.035203077,0.010132205,0.11951902,-0.016049188,-0.028952803,-0.1138442,0.026606318,-0.022815345,0.002782012,-0.18573278,0.061493553,0.14456406,0.042623,-0.09832179,0.02118028,0.10209336,0.11393696,-0.015316052,-0.10060243,0.22095847,0.008900834,0.017431859,0.115307614,-0.13130069,-0.13499297,0.13173322,-0.14449307,0.108273156,0.1451006,0.0036935967,0.103411116,-0.023039343,-0.15208496,0.14454451,-0.111487724,-0.22451064,0.0148722865,0.013278768,0.16094129,0.06010644,0.08890587,-0.09043366,0.06871391,0.17473908,0.10136546,0.046119377,0.15379511,0.0056527415,-0.116104335,0.11188314,0.10495322,0.07318513,-0.13358559,0.05422381,-0.118488684,-0.017755164,-0.19081739,-0.009158291,-0.118278526,-0.046744443,0.04794584,0.11509769,-0.00036284595,0.0057921605,0.08920109,-0.13648918,-0.09739309,-0.0011262306,0.034636293,-0.16313015,0.075855955,-0.15376405,-0.013923671,-0.29226372,0.16793618,-0.060492016,-0.025664581,-0.013700359,-0.041498963,0.06722042,0.12028289,-0.068631,0.15475152,-0.049103178,0.14252953,-0.14431202,0.24809407,0.03808425,-0.04402828,-0.0057623163,0.13290165,0.12573044,0.20074537,0.0055390624,0.011474957,0.03679339,0.21080424,0.10824337,-0.16158105,-0.070857026,-0.13376673,-0.022632698,0.093561076,-0.105508216,-0.18381864,-0.07619491,0.15604836,0.065412536,-0.07694846,0.021811556,0.06762216,-0.1974925,-0.13210304,-0.12725435,0.21458265,0.084665515,0.18473105,0.05731739,-0.24604714,0.11071321,-0.14159428,-0.117407955,-0.16638513,0.042880047,0.0044047832,-0.05883598,0.084794484,-0.039676875,-0.2666393,-0.15538235,-0.2138736,-0.12325878,-0.11480285,0.015432638,0.12586938,-0.14595614,-0.0057200445,-0.05811274,0.1272599,-0.05974377,-0.25856963,0.10526347,0.14650527,0.016594205,-0.09030066,-0.11966859,0.19299328,-0.25702927,0.26706752,-0.1531026,-0.14572453,0.12564246,-0.09797881,0.0030395372,0.11059105,-0.08665413,-0.12145419,0.15739276,0.1803483,0.0008528154,0.08195609,-0.06868632,-0.078253634,-0.108668655,-0.13037685,0.105044186,0.16280347,0.005490446,-0.10867405,-0.090517476,-0.008997917,0.2292415,0.14833187,-0.055394966,0.0028461246,-0.08598903,-0.019144827,0.025720939,-0.18431064,-0.06802033,0.071964376,-0.005576057,-0.14516428,-0.20196985,-0.042735904,-0.21378304,0.016832221,-0.023717755,-0.14829546,0.14620633,-0.035616048,-0.15379152,-0.17929827,-0.15257284,-0.17195912,-0.03165505,0.09155089,-0.033376195,0.06364586,-0.12398478,-0.007814294,0.025138102,-0.0850496,-0.1816754,-0.13171317,-0.09557754,0.13830064,0.15014964,0.0013504056,-0.0056458884,0.12294149,0.110642925,0.04041359,-0.13339987,0.080858044,0.12234352,0.16895713,0.21968861,-0.057792213,0.06855234,0.17147236,-0.109963894,0.17949742,-0.15216,0.17591089,-0.09696774,0.09710435,0.04605278,0.02438294,-0.011693162,-0.114690974,-0.20622987,0.009955655,-0.06510603,0.064369865,-0.06599752,-0.19006617,-0.15496767,0.04783014,-0.28180572,-0.26881242,0.030389007,-0.03058452,0.1841988,0.097424984,-0.21951075,-0.2564659,-0.106040284,-0.02749793,-0.11007385,-0.094644606,0.0027053158,0.12792987,0.09987354,-0.10604027,-0.3353643,-0.21079439,-0.14779365,-0.16724436,0.08525748,-0.04796861,-0.048824485,-0.037135307,-0.09348692,-0.06707651,0.07650307,0.22537981,-0.23073834,-0.21184167,0.068268396,0.1657412,-0.17492752,0.1368812,-0.10526582,0.19073646,-0.25167862,0.18376906,-0.2225927,-0.075728364,-0.06315546,0.06866469,-0.012087092,0.07049162,-0.042830803,0.07414372,0.2370163,0.18594535,0.107859604,0.12710796,-0.092577934,0.14049605,-0.15590367,0.049580477,-0.027445111,-0.08036281,-0.07179121,-0.24300334,-0.02547097,0.0055175293,0.0057590655,0.15183052,-0.00052980875,0.04009772,0.09363788,-0.068287335,-0.0669356,-0.11312368,-0.0021977278,0.03817351,0.052735478,-0.06600623,0.039474357,-0.06347827,-0.043802515,-0.02526967,0.076775424,-0.3588296,0.09336282,-0.04608784,0.06261231,0.065161295,-0.046097606,-0.18923739,0.053757165,-0.17067894,-0.13102798,-0.0048198765,-0.1309623,0.12287254,-0.015454946,-0.19811732,-0.2758684,-0.0062879054,-0.15898739,0.101110056,-0.22783382,0.13444604,0.02743059,-0.057207745,-0.017198855,0.11162332,0.05868366,0.0804211,0.017935054,-0.10633044,0.117562674,-0.2131856,-0.095484726,-0.08531505,-0.004692875,0.24581103,-0.04116152,-0.17261648,-0.1552628,0.03641106,0.16972879,-0.15467107,-0.0268994,0.06015032,-0.058534496,-0.048927605,-0.22995116,0.12164809,-0.008739237,-0.0049007777,-0.16213685,0.080059305,0.21170004,0.032129634,-0.049389903,-0.051429883,-0.15512884,-0.062565014,0.0019103497,-0.07701368,-0.10857268,0.1245825,-0.1475891,0.026840702,0.16752161,0.043696746,-0.17400849,-0.070613846,0.013736561,0.15624394,0.021226177,0.15451218,-0.04254049,0.069415376,0.16883211,-0.11307298,-0.07356989,0.048044413,0.28805995,-0.07209776,-0.08873257,-0.07227505,-0.18445095,0.0645176,0.1087589,0.07169207,-0.12345905,-0.08316022,0.04916908,-0.0501544,-0.03956949,0.06946274,0.057152104,-0.006435723,-0.0071043386,0.028042704,-0.030478481,-0.034317743,0.12021928,-0.013663715,-0.17195196,0.17641294,0.14648575,-0.13441604,0.012653606,0.18194118,-0.16981952,0.0035697634,0.04789163,0.23193617,0.082921244,0.017200986,-0.14091016,0.029609801,-0.079407275,-0.031088103,-0.026803866,-0.101400256,-0.16078289,0.010862004,-0.009608543,0.07514102,0.06581774,-0.11033146,0.21841443,0.037648898,0.24715103,0.11452627,0.040715326,0.016264124,-0.326538,-0.1024075,0.10529611,-0.1272028,0.114854746,0.25756577,-0.012948708,-0.1390644,-0.15366074,0.10958582,-0.01864153,-0.09549601,0.21280248,-0.17682593,0.2772442,0.1381118,-0.10263911,-0.1003356,-0.16501996,-0.15510353,0.015021309,-0.12014456,-0.048550915,0.05696147,-0.07004498,0.19296013,0.05797403,0.10310318,-0.09935481,0.061784517,0.07595207,0.058772504,0.07494686,-0.19372797,-0.12885128,-0.20414814,-0.12950632,-0.10016473,-0.056380637,0.11254105,-0.14237581,-0.119028784,-0.06283909,-0.025464254,0.02947123,0.1618316,0.04789901,-0.056727488,-0.013263573,-0.02905388,-0.1088792,0.05934502,-0.025244402,-0.21555917,-0.16795129,0.1148081,-0.17787065,0.18117817,-0.12610994,0.14590952,-0.009903325,0.08766332,-0.08253265,-0.017023634,0.09017294,-0.05536501,0.16982692,0.14021072,0.16650997,0.021191452,0.0133806225,0.068447866,-0.08823178,-0.13299286,-0.02636333,0.09529374,0.061514426,0.15715845,0.0030227776,-0.044731475,0.08416229,-0.18578643,0.01641981,0.08161772,-0.045596555,-0.1824927,0.02275702,-0.17944838,0.012402779,-0.013033983,-0.1058116,-0.1456447,-0.09415332,-0.013726264,-0.07360427,-0.022212708,-0.0137685975,-0.009053165,-0.14448462,-0.20022872,-0.2649173,-0.13090517,-0.045774385,0.110218875,-0.13795081,-0.034054093,-0.11564316,0.12034661,0.18569726,-0.21395689,-0.07716032,0.03738095,-0.08366172,0.21387738,0.10924749,-0.025104847,-0.11117024,0.1688643,-0.03761778,0.18414536,0.0803463,-0.16819519,-0.15450571,0.034282792,0.10024285,0.09710783,-0.0070643118,0.22953677,0.16502623,-0.074278146,-0.06653793,-0.102293804,0.029179992,0.015749149,-0.09532009,-0.094340086,-0.047589332,-0.03094453,-0.092625424,-0.07512254,0.0068500307,0.07911944,0.21455236,0.051441923,0.099365726,-0.03370323,0.21010675,-0.023810348,0.0101577155,-0.081807755,0.10128172,0.080100894,0.07857263,-0.0820388,0.13356528,0.13967857,0.095232114,-0.037487827,-0.15027753,0.12366394,-0.14401312,0.16184059,-0.13812836,0.08431984,0.028547356,-0.08603199,-0.1574783,-0.122041404,-0.16930361,0.17721309,-0.064299844,-0.0011174604,-0.15960704,0.16709514,0.011251938,0.097770214,-0.040148515,-0.0117211575,0.16701983,-0.17557758,0.040523842,-0.060954034,-0.09305976,0.072249226,0.037314303,-0.22215275,-0.053758398,-0.10813649,0.06420872,-0.05973773,-0.104062155,0.08620453,0.0991016,-0.15122403,-0.28218526,0.12497415,-0.08084582,-0.059923533,0.09240158,0.098970704,-0.013856938,-0.03163426,-0.13529827,-0.04171027,-0.08588474,0.02916269,-0.10436157,-0.21275602,0.07140066,0.175801,-0.10872169,-0.07532777,-0.05848062,0.19845706,-0.23803303,0.21556552,-0.049946938,0.01642517,0.0076057073,0.011307739,0.10716444,-0.14614409,-0.016284889,-0.12845264,0.046132535,0.06654985,0.23141582,0.08445613,0.015288167,-0.04257215,-0.08761487,-0.06242997,-0.14601693,0.049669567,-0.16851464,0.043550946,0.029552367,-0.018564818,-0.060044684,0.118188076,0.0816916,0.14691117,0.08166434,-0.13202159,-0.11686958,-0.07207093,0.16070765,0.16797626,0.024718085,-0.07342735,-0.13351719,0.063724756,0.15446746,0.11251866,0.051538274,-0.29039457,0.013393417,0.070608236,-0.13389531,0.09085182,-0.10112576,-0.2199428,-0.17242222,0.06497968,-0.16695225,-0.048163634,-0.10931892,-0.13691592,-0.040951695,0.043868657,0.14250413,-0.034117993,0.07362008,0.030161468,0.019009586,0.0069791097,-0.019714724,0.15709469,0.021359628,0.04486721,-0.018758098,-0.22292066,0.10824708,0.20282437,-0.09461268,-0.3042988,-0.05639173,0.20302777,0.015540458,-0.05886772,0.084599204,0.10441369,0.07548125,0.11827138,0.04402076,-0.13863617,-0.11156064,0.04143664,0.1693947,-0.033061005,0.050484013,-0.10683019,0.17723402,-0.08604852,0.11998324,0.046742443,-0.20782341,0.055738326,-0.06142794,0.2577294,0.12450579,0.20613982,-0.13826807,0.106121376,-0.031513263,0.17056575,-0.047312077,-0.10347165,-0.123885356,0.08235805,-0.1586404,-0.047897022,0.28757283,-0.107242264,-0.1937368,-0.030383425,-0.15329139,0.02202474,-0.03607728,-0.09513387,-0.005101524,-0.015884394,0.042890485,0.066703476,-0.06749196,0.08936788,0.16068846,-0.035875097,-0.028460892,-0.025532482,0.034085155,0.098581105,0.11205969,-0.08771518,0.0364909,-0.16181841,0.015336999,0.005613993,0.0002300283,0.033217557,0.063095935,-0.006854181,-0.06794389,0.098606415,-0.0019370437,-0.010484902,-0.010601712,-0.12433838,-0.1579889,-0.17846572,-0.0798945,-0.08975425,0.103400484,0.08154339,-0.22232233,-0.011610803,0.033070106,0.10063451,-0.058542997,-0.050887406,0.12106348,-0.13645633,0.0009374491,-0.31238148,-0.082242385,0.01816027,-0.015437437,0.066142045,0.031941514,0.015999485,-0.1426973,-0.11104857,0.06477774,0.13906533,0.12741184,-0.0028089783,-0.08401874,-0.16818933,-0.02888516,-0.030291688,-0.08204734,-0.03250528,-0.035363104,-0.1348285,0.03450835,-0.035990793,-0.16907583,-0.07178577,-0.16838464,-0.123390496,-0.036799043,0.015272804,0.23034687,-0.05867719,-0.16859558,0.031448327,-0.027171528,0.0690692,0.011407011,-0.022799082,0.026663896,-0.07583044,-0.021137677,0.012138769,0.06784205,-0.14565383,-0.15399915,-0.29010233,0.06935817,0.16344027,-0.12048595,-0.088006556,-0.1385353,0.058076728,0.11750945,0.071946084,-0.17256203,-0.06617234,0.0066454466,0.09347498,-0.042381063,-0.05072186,-0.1445485,-0.03398858,0.11950487,-0.17485884,0.09386496,-0.017549912,0.015021477,-0.063092425,-0.07744858,0.028840676,0.006069338,-0.20798115,0.07949207,0.2718402,-0.050333593,0.07907711,0.10744644,0.06442249,-0.069447175,-0.057607006,0.14955394,-0.007548411,-0.17928529,0.08961585,-0.07162689,-0.027641175,0.03443287,-0.00016704336,-0.24769028,0.0068912464,-0.034278244,0.20649506,-0.0009142626,0.07806004,-0.28412557,0.1400696,-0.14074053,0.10573585,-0.10746304,0.11766275,0.16185981,0.031350296,-0.179201,-0.05744297,0.2541314,-0.16093118,-0.12973884,-0.34574693,0.03078563,-0.05765535,0.13939531,-0.10789922,-0.21288854,0.029058695,0.004785765,-0.051077116,0.02212617,0.17465223,-0.21651587,-0.024775634,3.181884e-5,-0.1086166,-0.1684709,0.2823227,-0.07110797,-0.061246462,-0.1371297,-0.103603594,-0.1678587,0.002906078,-0.16979934,-0.019741585,-0.11860757,-0.018245531,-0.18604115,-0.025461694,-0.05298506,0.17497526,0.08720552,0.10808388,-0.054035794,-0.07044401,0.08960495,-0.06701579,-0.16412544,-0.00063727907,-0.10273174,-0.10143794,0.063546225,-0.0068455045,-0.07884044,-0.10091806,-0.06887853,0.13414337,0.0071422816,0.09417084,-0.15606534,-0.0638368,0.1953276,0.08751139,0.04100212,-0.068332575,0.20114306,0.052889172,-0.10055996,-0.04382094,-0.1399115,0.117993526,-0.006688431,-0.11186503,-0.041099697,0.11768847,-0.1465458,-0.05183803,0.09624057,-0.034689352,-0.12733427,0.03370409,0.06212623,0.1071247,0.06112847,-0.19555052,0.013623535,-0.007361981,-0.09561638,0.04465469,-0.09933439,0.1875556,0.07102521,-0.03722028,-0.043766223,0.10276998,-0.08785078,0.30002472,-0.04092414,0.1757461,0.058604922,-0.061675224,-0.12884466,-0.16246407,-0.002113472,0.12817086,0.08324774,-0.07268125,-0.06338553,-0.13923141,-0.09435302,0.10723739,-0.4757969,0.12056949,0.050600313,-0.14358704,0.09032331,0.115220375,0.009634811,0.13616663,0.14795901,0.0028719406,-0.05292158,-0.06133844,0.11280443,0.19424854,0.15539156,0.10353787,0.0029515694,0.13855055,0.04097082,0.21624927,-0.001743121,0.042389393,0.05651681,-0.038130034,-0.03400971,-0.12250222,0.120341495,-0.12496615,0.014552279,0.0019407057,0.10957961,0.052556854,0.010916633,-0.0014676119,0.02727014,-0.08842002,0.011392214,0.12631097,0.108845934,0.023528991,-0.021672746,-0.08585159,0.21711718,0.12663308,0.12850392,-0.024564903,0.12352372,-0.1546316,-0.034756053,-0.095788054,0.027447382,0.020322528,0.0007824964,0.108429596,-0.19686371,-0.058120143,-0.14345023,-0.014316457,0.11520999,0.0023236412,0.029600754,-0.12923042,-0.015182526,-0.062455256,0.096925795,-0.052048057,0.12207142,-0.022322187,-0.14835647,-0.213308,-0.04782377,0.12429352,-0.05098195,-0.057458162,-0.09091917,-0.08965447,-0.1127887,-0.12591523,-0.023591446,0.07325402,-0.020323014,0.08187299,0.09639915,0.039026912,-0.14999235,-0.025250217,0.0097812675,-0.048379928,0.01405478,0.114222735,-0.16151954,-0.05227482,-0.07368041,-0.0160305,-0.099781826,0.09720748,0.054840073,0.059392374,-0.022160118,0.11370581,-0.12925796,-0.10330752,-0.10232014,0.114462,-0.07642721,0.08812377,0.06279311,-0.029232116,-0.18025613,-0.032415327,0.12138231,-0.17149794,-0.13974608,0.16562447,0.09858986,-0.21550398,-0.04940647,0.09018062,-0.08817182,-0.2517785,-0.027502371,0.24086143,-0.072455876,-0.1184562,0.1273583,-0.1450163,0.019865964,-0.06785864,-0.2093593,-0.016763082,-0.11524356,-0.17188671,0.119119324,-0.11162027,0.046713077,-0.03259072,-0.09249011,-0.08944371,-0.056810685,0.016882982,0.012881663,0.16028847,-0.09549103,0.055662192,0.09505694,0.13293613,-0.12838311,0.12843995,0.05388059,0.090513065,0.06877014,0.051010896,0.1782135,-0.050036468,-0.016802844,-0.08296515,-0.10353555,-0.057125706,0.18418877,-0.17295876,0.074396595,-0.18912785,-0.067588985,0.10842204,0.05167908,-0.102898456,0.010785808,0.065593295,0.0730162,0.09134797,0.0061411965,0.0780389,-0.1644215,-0.039924394,0.0152327595,-0.07638006,-0.1486482,0.101394005,0.123539895,-0.020035418,-0.09740867,-0.099848226,-0.1292394,0.11227349,0.16581011,-0.10141888,-0.15898435,-0.22715814,-0.09358774,-0.03755324,0.081114545,-0.17396829,-0.021090845,-0.14873585,0.113750935,0.093870126,-0.09346966,-0.21830721,-0.024962652,0.11278911,-0.10805258,0.13809425,0.23244306,-0.1450365,0.058106534,-0.062334657,0.17817451,-0.028116055,-0.14725493,0.2710916,0.15665731,0.013682397,0.030966694,-0.2676351,-0.13664699,0.12260642,-0.022159973,-0.28022233,0.015881848,0.10920455,0.05912284,-0.09654524,0.030800188,-0.0034446968,0.123542406,-0.032328803,0.0763858,0.0545989,0.042404465,-0.0011845748,-0.12008574,0.04434189,-0.13679463,-0.055394426,-0.07257419,0.21377845,0.050857827,0.0027020494,-0.007051978,-0.018136892,-0.075739056,0.34038672,0.21076904,-0.050733346,0.17361203,-0.14479335,-0.020083154,-0.05359895,0.09259404,0.1322701,0.09365238,0.004754729,-0.15811256,-0.123399474,-0.027697438,0.14478904,-0.21788412,-0.106487766,-0.17671558,-0.1569618,-0.054885093,0.064107366,0.11580412,0.033763036,-0.075842924,-0.1973348,-0.22842468,-0.22894062,0.08860294,0.017583577,-0.006851496,0.17226166,-0.10842712,0.09155173,-0.21530648,0.2112079,0.0059927925,0.0470568,0.060963847,0.12016486,0.08132031,0.03910511,0.030852908,0.20330955,0.0051934626,-0.095181316,0.15177977,0.0021507572,0.12036542,0.045177836,-0.12073722,0.013686543,-0.12586397,-0.09467909,-0.13115475,0.14723353,0.16539384,0.08059301,0.23733483,0.09884795,-0.12990823,-0.16323471,0.0073569156,-0.13305415,0.012602556,0.080464676,0.23322666,-0.051313482,-0.03452125,-0.08099958,0.09205663,0.16292967,0.13972473,-0.072372004,-0.06258242,-0.23641601,-0.099657595,-0.034443073,0.04144737,-0.053192515,-0.08516779,0.17743972,0.07114888,0.0032646463,0.039005216,0.037918575,-0.15557699,0.07226577,0.032705083,-0.077141844,0.12978984,-0.14563017,-0.13579342,-0.043050982,0.02537095,-0.040556096,0.03165334,-0.015141801,0.04779623,-0.011763097,0.022742735,-0.2230764,-0.024488403,0.16475897,0.10843314,-0.070183255,-0.1623141,-0.06433709,-0.024778262,0.12182526,-0.050259802,-0.17752151,-0.0108008655,0.10617348,0.14670451,0.005781466,0.07113443,-0.051510032,0.23994833,0.12571663,0.27968976,-0.4798862,-0.09138797,-0.03192626,0.042207737,-0.038968228,0.045932986,0.2018024,0.10741884,0.1826033,0.11325096,0.13265115,0.058288712,-0.033192974,-0.152667,0.18389462,0.009024079,-0.1083571,0.028319398,-0.050225575,0.10748907,-0.06316933,0.2336657,0.24058092,-0.29379883,0.09585021,0.037921738,-0.16807447,0.15251371,0.14624332,-0.04485905,-0.1221562,0.22696033,-0.07720194,-0.16347802,-0.0058861906,0.12743203,0.21203178,0.18287939,0.059094153,0.009756568,-0.11259836,0.102877505,0.04776362,-0.002722764,0.002439513,0.010759166,0.10667444,-0.009774502,-0.15393253,-0.13196017,-0.16613528,-0.020325253,0.17394745,-0.10525692,0.078354076,0.042194333,-0.055051554,0.09341528,-0.12240686,-0.105951145,0.005460058,0.1601212,0.12848005,0.06959755,0.035255946,0.1831741,-0.12570873,0.059029922,-0.121954106,0.060839694,-0.0042559556,-0.07436225,-0.02367351,0.1841969,-0.12227037,0.12885284,0.12178553,-0.077024035,-0.074970976,-0.072310664,-0.09318923,0.1256183,-0.08473327,-0.1302445,0.098208755,-0.105710685,-0.089817405,-0.1318781,-0.052357644,0.033632174,0.022965118,-0.0042684264,-0.00087116525,0.12860163,0.036902823,-0.03362977,0.1069246,-0.2712159,-0.14936551,-0.16072941,-0.14093733,-0.1085475,-0.08657118,-0.03489067,-0.013869502,0.14929435,0.020470142,0.061152413,-0.39053878,-0.056039296,-0.08464727,-0.17763986,-0.09884674,-0.049821787,-0.17874776,0.06605012,-0.013215154,-0.1553409,-0.12495688,0.012476431,-0.045820497,-0.055448912,-0.15711896,0.09904798,0.04411087,0.14577666,0.09931416,0.038468175,-0.071671866,-0.035741538,0.24592648,0.07654617,-0.12535179,0.27844325,0.011776562,0.13359682,0.055410847,0.0024864483,-0.04105325,0.06591548,-0.035111148,0.13580248,0.11744697,0.07348929,0.09180136,-0.0010124894,0.023579562,0.052170098,-0.10899365,0.17000477,0.21458848,-0.087040566,-0.07478289,0.011741713,-0.097139016,0.09147673,0.18691838,-0.0041437317,0.10013902,0.06645375,-0.42954135,-0.014097731,-0.079010814,0.117265135,-0.07354899,0.19616304,0.19567549,0.051821876,-0.17221294,-0.053620245,-0.06556014,0.16182363,0.021796515,-0.12221214,-0.041810717,0.24057756,0.11962126,-0.066736855,-0.24882156,-0.22869858,-0.04166144,-0.11519651,-0.022199815,0.19551489,-0.17128381,0.084343955,-0.087248154,0.041283567,-0.3428537,-0.1678809,0.18160522,0.19263151,-0.16302872,0.15526281,-0.17820193,0.07521127,-0.17490868,-0.023242962,0.036006235,-0.011063506,0.07352695,0.06818959,0.069390416,-0.03827592,-0.06236405,-0.16122411,0.0059797405,0.013558188,-0.06548317,-0.030132007,0.17224279,-0.17399326,-0.18123667,-0.028625255,-0.023531007,-0.058236223,-0.016857514,-0.1653871,-0.06343541,-0.092653535,-0.19378018,0.12727512,-0.05379157,-0.04167029,0.07208962,-0.012177357,-0.046874445,-0.011689348,0.10082958,0.09541795,-0.13212667,-0.17310281,-0.07134163,0.105746925,0.06726187,0.08631769,-0.17798366,0.12499937,0.11120741,0.19633617,0.12613213,0.039201,0.005935288,0.10739217,0.10828683,0.02040913,-0.022548903,0.038728893,0.05878201,0.08125126,-0.107295096,0.10702766,-0.12523763,-0.026191408,-0.1055307,0.19846772,-0.1441608,0.022576181,-8.471104e-5,-0.0056103906,0.09084732,0.06889926,0.16136546,-0.12838846,0.19226027,0.026476884,-0.06836383,0.13371047,0.10794262,0.02184696,0.13686319,0.11456933,0.08721509,-0.01168258,-0.11284443,0.071528055,-0.12819032,0.20963535,-0.00410811,-0.3054607,0.03836813,-0.1170828,0.10601919,0.18730284,-0.111587405,-0.124585405,0.0055217566,-0.10283228,0.114520326,0.14805402,0.059566844,0.1891532,-0.040468916,0.025068764,0.079211995,0.02564844,-0.02997079,0.21847604,0.122137204,0.042560138,-0.11344688,0.16186461,-0.08377329,-0.12391501,-0.020148827,-0.1622124,0.07097651,-0.071613416,0.009136422,0.1317122,0.03019777,0.21109185,0.061242852,-0.119832635,-0.0948254,0.12959154,0.21583204,0.024756715,0.11267384,-0.028350862,-0.15248907,0.18704434,-0.018828494,0.09353836,-0.024454297,0.10589409,0.008564435,0.1174935,-0.20520715,0.15861449,0.005498153,0.057193216,0.04192228,-0.28723425,-0.08713423,-0.031221475,-0.11639509,-0.06332274,0.061569404,-0.027744971,-0.010126385,0.061599307,-0.17854048,-0.031566616,-0.076808006,0.04320852,-0.15785737,-0.0048396285,-0.22487639,-0.08663675,-0.08098962,-0.10143826,0.08703168,-0.11841182,0.008935511,0.124138206,0.14098345,0.19502975,0.038828894,-0.069943294,0.032213435,-0.13549346,-0.16911948,-0.16068418,0.18115534,0.18727787,-0.11908147,0.12870716,0.078708455,-0.07883584,-0.09900605,-0.08743083,-0.04995542,0.07712216,0.19054441,-0.008178554,0.052441396,0.088289976,0.004927302,0.04154582,-0.054238852,-0.061064217,0.059163153,-0.031049322,0.26360324,0.15036102,0.066430725,-0.07398096,-0.1004656,0.05999878,-0.016119901,0.13185225,-0.19059727,0.19397235,-0.07987464,-0.18818179,-0.04674404,0.08921637,0.13107948,-0.09934048,0.21070538,0.1788064,-0.020134376,0.028638482,0.14548287,-0.19771059,-0.124264546,0.14992458,-0.2079392,0.041915733,-0.0065575284,0.04302535,0.10269059,-0.15170836,-0.029502872,-0.21043055,-0.07243542,-0.26508313,-0.080930285,0.12542759,-0.096924156,-0.041842826,0.075273894,-0.06513464,0.13140517,-0.22648463,-0.082884446,0.055523574,-0.10754734,0.16836911,0.102000035,0.13717163,0.07945154,-0.22474788,-0.09979447,0.0065503255,-0.30234012,0.10599798,-0.013126172,-0.027489932,0.14136083,0.04657447,0.12608558,-0.06042281,0.083750255,-0.09339791,-0.28723416,0.019219477,-0.14767203,-0.107596055,0.13469107,0.1248738,-0.00096597755,-0.094528206,-0.023464862,0.12628922,-0.031610508,-0.14741142,0.124948494,0.046370547,0.00946282,0.10899941,0.07359608,-0.19686757,0.21579248,-0.031870387,-0.08530075,-0.00040003023,-0.042544037,0.058918986,-0.014660191,-0.029966723,-0.125192,-0.101335466,-0.089789316,-0.18094718,-0.26311547,-0.12524775,-0.14479789,0.16613214,-0.16953315,0.014540773,0.13170524,-0.11784179,-0.14066797,0.007556322,0.013788671,-0.04596546,0.04859944,-0.031949233,-0.07913669,-0.16968496,-0.3078043,0.078795694,-0.14797674,0.10549752,-0.1075318,-0.08360641,-0.16528328,0.045175247,0.08197154,0.11842178,-0.087333374,0.018844064,-0.027247665,0.0020442966,-0.08586385,0.083053835,0.09967257,-0.18621099,0.16610937,-0.21900275,0.13815807,-0.07194175,0.18142344,-0.08537141,-0.10180839,-0.0058326432,-0.008349088,0.14093861,0.20606796,0.011818639,-0.21746185,0.19044897,-0.028447654,-0.034343332,-0.01956044,0.025787871,0.19385415,0.005348503,0.090375595,-0.04298903,0.0062763994,-0.15910672,0.21096168,-0.12631875,0.07291153,-0.08634062,0.10868358,0.15928729,0.24280241,-0.087019995,0.044039477,0.17775606,-0.39797026,0.009872246,-0.054519903,-0.047769535,0.14240314,-0.077688634,-0.04778276,-0.07665289,-0.041048434,0.027790625,0.07561659,0.03007902,-0.086829364,-0.10099613,-0.07186821,0.17594424,0.0073606106,-0.06760319,-0.19945504,0.019765854,0.16714351,-0.060603213,-0.048709154,0.14203891,0.06470793,0.15854867,-0.07897485,0.011388047,-0.23944752,-0.17922953,0.0643732,-0.005879682,0.11193075,-0.024091326,-0.113750115,0.0915853,-0.3017956,-0.05493279,0.037106294,-0.12865129,0.16882086,0.18490626,-0.09019737,-0.04565666,-0.07906797,0.16231214,-0.065823376,0.25400016,0.18114229,-0.056959324,-0.020518366,-0.25339133,-0.07523775,-0.15218672,-0.015977018,0.12085786,0.17333542,-0.011925989,-0.09852254,-0.06228104,-0.060946252,-0.14459482,0.026854746,0.115089476,0.0025492061,0.06986662,0.09098838,-0.08713538,0.07742116,0.19672494,-0.08527357,-0.111529365,0.20577376,-0.09010204,0.12137604,0.08699234,0.032438707,0.0033626514,0.17817582,0.10509052,0.0318346,0.04929741,0.07809962,0.03105221,0.05940356,0.04244203,0.032705,-0.16414376,-0.17608224,-0.093222424,0.0083460165,-0.09522243,-0.22733195,-0.16739188,-0.018253926,-0.10827441,-0.029309126,-0.096103124,-0.18988927,0.008852289,-0.12929818,-0.12277375,0.014445863,-0.12541741,0.07846396,0.0059495345,0.23902644,-0.04173396,-0.26249564,-0.04624344,-0.15168716,0.1353239,-0.023631908,0.19133349,0.06572183,-0.11915932,-0.118152745,-0.031055221,-0.017638579,-0.07430682,-0.051913664,-0.008543224,0.009097741,0.16568962,0.068789475,-0.10895426,-0.031369988,0.024216454,0.2566344,0.04328264,-0.24245426,0.1776239,-0.07470658,-0.18745302,-0.0029857168,-0.110708654,0.050487313,-0.20561433,-0.01951569,-0.08445196,-0.05004554,0.017924715,0.052487697,0.11255092,-0.13975935,-0.002409444,0.067063265,0.06723791,0.09317609,0.08335604,0.04689655,-0.08571294,0.034203332,0.055395395,-0.0643458,-0.029029677,0.17228368,0.09175968,-0.07138296,-0.2030437,0.06874951,0.18736322,0.028113632,-0.044613194,0.043653276,-0.073029034,0.0752802,-0.08441138,-0.14993373,-0.14296558,-0.09946024,-0.044289734,0.06950764,-0.05486153,0.026811166,-0.09974324,-0.008351232,-0.050992746,-0.12845361,-0.059360597,-0.18018399,-0.10855296,0.02750646,-0.085805126,-0.041752163,-0.07734475,-0.14003932,0.057737842,0.0897758,0.053992584,-0.11974344,-0.10611166,-0.10917108,-0.25066328,-0.03249623,0.05622093,-0.04205273,0.03001949,-0.036385104,-0.11689771,0.0673968,0.120887466,0.19772758,-0.027877292,-0.015900036,0.15604776,0.24740429,-0.057965185,-0.15266098,-0.12586597,0.012783255,-0.014166279,-0.27445203,0.09912142,-0.010426436,-0.10823605,0.09917403,-0.048904076,0.055554558,-0.019948574,0.015915722,0.07961977,-0.007776466,0.08703463,0.3176712,-0.0008787483,-0.03357169,-0.07827418,-0.1071511,-0.35442853,-0.13320959,0.012550075,0.13864519,0.14165296,0.13156773,-0.21437944,0.12920296,-0.1356154,0.07562505,0.12189053,-0.0028927568,-0.21134211,0.11086412,0.041119367,0.097512424,-0.012385813,-0.013150265,0.19703707,-0.16874462,-0.075877026,-0.0557864,-0.1508825,-0.06871324,-0.084439486,-0.0715872,-0.045564782,0.108893365,0.10312907,0.19363907,0.09325897,0.06735899,-0.04565261,0.14365648,0.0063584414,0.06618482,0.07710219,0.01841265,-0.023358677,0.023358501,-0.26225346,-0.14353487,0.22004448,0.13563612,-0.17871092,0.02113523,0.13075787,-0.1356291,0.26665765,-0.104493596,-0.066037335,0.081570685,-0.10443888,-0.1816518,-0.16571036,0.24083312,0.06652936,0.039084844,-0.14553563,0.00969665,-0.05493903,0.13619944,0.11957981,-0.08995873,-0.08292773,-0.10748322,-0.17338018,-0.049969584,-0.018965207,0.15023373,-0.13868806,-0.022561474,-0.33619788,-0.0877489,-0.09284821,-0.23148416,0.09786951,0.18842752,0.12788042,-0.0910862,0.020201705,-0.10593905,-0.039472897,-0.090278216,-0.100981645,0.13233739,0.010766285,-0.00097304373,-0.07236697,-0.09230092,-0.19912243,0.0938467,-0.20279908,-0.02169168,-0.15977873,-0.03665772,0.013727824,0.0018518621,-0.1524933,0.0779252,-0.087463036,0.12837578,0.07180788,0.28472877,0.18964353,0.012952932,-0.0024566264,-0.110193916,-0.029756192,0.10948128,-0.045577075,-0.02977286,0.027853545,-0.019396735,-0.0690445,0.10063561,0.10163111,-0.10335495,-0.11906383,-0.15524781,0.02697903,0.031282403,-0.17932484,0.29993224,-0.080560796,-0.088121414,0.039842427,0.014271484,0.07907825,0.06623695,-0.010705648,-0.086562015,-0.08141744,0.12139837,-0.21727772,0.109070666,0.072410814,0.1683144,-0.14874622,-0.049822453,0.096641265,-0.03548535,-0.035333447,0.029279107,-0.14458305,-0.003657101,0.26160705,-0.21991841,-0.04331415,-0.08077574,-0.23178701,0.00602075,0.12965302,-0.051670127,-0.25392866,0.057686586,0.04453573,0.07251804,0.010047616,-0.038461536,-0.09146902,-0.11489465,-0.036316775,0.08989664,0.09476328,-0.09598435,0.19468606,-0.05298939,-0.017896881,0.12646423,0.186567,0.06455432,-0.012565765,-0.35768116,0.2829124,-0.13727835,-0.07590297,-0.15001298,-0.38664037,-0.038580175,0.113518886,0.021571638,-0.020596877,0.17726232,-0.111230366,-0.015339351,-0.027096165,-0.30103096,-0.27469876,0.26563156,0.019119179,0.041262742,-0.11236254,-0.0966002,-0.08604028,-0.06555129,0.026086362,0.15526299,-0.06837629,-0.13030013,0.03294012,0.19272967,-0.059187025,0.16122977,-0.01135699,0.09585239,0.0036241405,-0.1572724,-0.12911037,-0.135584,-0.14168316,-0.0015431381,-0.1690357,-0.077728145,-0.036955472,-0.024485625,-0.015422066,0.10955313,0.15091507,0.02847156,0.013906892,-0.16110606,-0.13709103,-0.083537996,0.09115581,0.059011135,0.12920187,0.11363866,-0.12328598,-0.16028897,0.029768843,0.05603364,-0.04865274,-0.022139842,0.033446256,-0.049845167,-0.10132072,0.0023894496,-0.038478382,0.030992681,0.08075607,0.16800061,-0.07379277,0.0011594752,0.038916327,0.110397324,0.070966795,0.10693691,0.16454776,-0.2819374,0.26891363,-0.03246583,0.04234849,0.10054808,0.11503934,-0.06352476,-0.03464745,-0.13090144,-0.030841315,0.09944665,0.15028861,0.19511789,-0.086506024,0.06433169,-0.1252178,0.043274324,-0.15256533,-0.1508968,0.10371773,-0.11302299,-0.1489606,-0.10034648,-0.03402359,0.028932294,0.18879156,0.060767155,0.0078368345,-0.0007424407,-0.1866825,-0.20718843,0.15539417,-0.13369715,0.03259371,-0.032919277,-0.18903635,-0.11919559,-0.03440655,0.1451427,-0.12677023,-0.09006262,0.005853204,-0.058527414,0.07168683,-0.011537498,0.06968492,-0.11391546,0.13470957,-0.014978678,-0.03198167,-0.14448233,0.12682606,-0.026750186,0.15588614,0.0118952235,0.21067993,-0.11748715,0.04118969,0.06921734,-0.04933181,0.17487192,-0.12683032,0.04788962,0.19062681,0.03751935,0.059308432,-0.03630803,0.10029515,0.1798776,0.04686741,0.08832919,0.033175472,-0.11395876,-0.008432162,-0.27878374,0.050999623,0.011412678,-0.104742214,-0.07286607,-0.144716,-0.124248005,-0.053018384,0.10138752,-0.17975058,0.21173434,-0.052502118,-0.11255693,0.08651403,0.10629017,0.035430092,0.18361208,0.04784027,-0.1229034,-0.17663155,-0.03722394,0.11984183,0.059084095,0.17876025,0.06403206,0.060861446,0.02153351,0.067768164,-0.12575619,0.15766442,-0.087566145,-0.08587721,0.23660332,0.21468012,0.009654057,-0.14513914,-0.0646707,-0.079649985,-0.04199194,0.14528194,0.10293405,-0.11354403,0.087535575,-0.12851964,-0.011963817,0.016629295,-0.097156905,-0.06940688,-0.027485771,-0.112755165,-0.07638126,-0.11004037,0.07431863,0.075292446,-0.017022332,0.20199813,-0.24390784,-0.017809734,0.102025054,0.03897787,-0.13261916,0.15817855,-0.12043446,0.05833788,0.091033794,0.2223879,0.19115047,0.015545104,-0.14702278,0.13844258,0.10662624,-0.11083464,0.1641488,0.0037877546,0.11355456,-0.023630572,0.025752034,0.0944796,-0.07594028,-0.31079167,0.10130548,0.10461225,-0.13476723,0.20697857,0.22077587,-0.020105029,-0.0013411102,0.107141905,0.056162477,-0.10116037,0.039306242,0.1966936,0.1079869,-0.022880564,0.0034566585,-0.1768764,0.13001099,-0.02270615,0.08116088,-0.0061251116,0.015633306,0.10992766,0.08977826,-0.09457378,0.070884675,0.14566694,0.15536173,0.10922634,0.11495298,0.117125586,0.111541145,0.100574285,0.087003365,-0.032319132,-0.015280283,-0.0124075515,0.038039707,0.17865562,0.075115316,-0.060873423,-0.08598982,0.18056193,-0.14339747,0.050252274,0.05450207,-0.015530436,-0.06822327,0.10758407,-0.19387668,0.123247184,-0.16843043,0.13098891,-0.08692866,-0.021170663,0.05124377,0.01691056,0.11934598,-0.12117171,-0.022211269,0.017317861,-0.1572947,-0.18663412,0.093342714,-0.11927015,0.01281098,0.0019721948,-0.060954817,-0.092521735,-0.18831868,-0.10080089,-0.08456526,-0.17949934,-0.13155685,-0.15992922,0.11505891,0.119817935,0.068116315,0.17117621,0.065665625,-0.0685473,-0.006178868,-0.02716242,0.14919485,-0.12013734,0.02926807,-0.043985166,0.15107231,-0.04642661,0.022575974,-0.09064843,0.061371382,-0.0046543092,0.102264896,-0.16713496,0.080161326,-0.011467274,-0.03036076,-0.021375444,0.080408975,-0.102690645,0.24004492,0.018104924,0.05378369,0.08425819,0.18149732,0.17507586,0.09723094,0.008097791,0.10023728,0.036600005,0.0037502642,-0.026123025,0.06263853,-0.12689231,-0.0797896,0.13270581,0.12064971,-0.03354396,-0.19771832,0.0071349908,0.2173901,0.050103776,0.1425501,-0.07032239,0.07621148,-0.10958103,0.08331518,-0.05050543,-0.21355398,-0.16231616,0.060917202,0.019755933,0.04659063,-0.06016643,-0.102069244,-0.17425065,-0.11486997,-0.04545839,0.1828238,0.1412475,-0.030307185,0.07865204,-0.04951505,0.094706975,0.07246515,-0.2768648,0.11642206,0.24214269,-0.0993205,-0.11425854,-0.12872645,-0.04949609,0.083965264,0.022873743,0.13431218,-0.021168934,-0.037934497,0.13769335,0.10285194,0.055529956,-0.12074718,0.14849079,0.018965133,0.12061809,0.104066566,-0.10909122,0.04964437,0.023668924,-0.20034315,0.004536357,-0.07671038,0.12513837,0.11970738,0.120325945,-0.08654811,-0.07579366,-0.1052076,0.0770185,-0.09729827,0.042193618,-0.13944137,-0.25395992,0.14152652,-0.016126763,0.20259495,0.108009875,0.05506141,0.011750777,-0.15992229,-0.12232225,-0.1301999,0.12794228,0.004404472,-0.15413775,0.039463103,-0.065978624,-0.16069622,-0.031260867,-0.0839933,0.045631442,0.13708228,0.06446231,-0.11886382,0.088053755,-0.0852645,-0.16854663,-0.07637891,-0.16859226,0.107643574,0.07099751,-0.24744688,-0.16307117,-0.08864002,-0.31002763,-0.011330342,-0.15331385,-0.05932043,-0.062373966,0.039497133,0.14456475,-0.25668693,-0.12776226,-0.29232234,-0.1601807,0.088039875,-0.04922654,-0.01596818,-0.098041885,-0.057935406,0.17082044,0.02031529,0.11992888,0.12265034,-0.12058556,0.11515473,0.06781405,-0.1457996,0.13964981,-0.08703579,0.0038845513,0.06192779,-0.013009599,-0.07147042,0.0032854977,0.022988709,0.050339736,0.01371728,0.12898077,0.21794666,-0.06396047,-0.16387716,0.020571113,-0.08843061,0.17323656,0.06210932,-0.106570095,-0.110570334,-0.17844349,-0.0836308,-0.19705233,-0.24607167,-0.11192508,-0.0008012716,-0.04946863,-0.20004019,-0.06798561,0.0002380498,-0.24127477,-0.0050734817,0.17053355,0.18697643,-0.088581905,0.054295313,0.056632012,-0.09862495,0.1418152,-0.0057989396,-0.25739914,-0.038944334,-0.07336322,-0.06082048,-0.12658575,-0.011865303,-0.37462935,0.19091682,-0.13491887,-0.13892344,0.04756171,-0.08547471,0.0024660444,0.12153331,-0.08267975,-0.022030583,-0.00852496,-0.15658845,0.12476814,-0.23546493,-0.0074057016,-0.17649536,0.0021836457,-0.19057488,-0.05387656,-0.151529,-0.14726692,-0.05627388,-0.014768816,0.03112147,-0.15517189,-0.082718976,-0.09874256,-0.25032577,-0.12905298,-0.074693985,-0.032042,0.21797702,0.06439903,-0.14863212,0.06273493,0.034222152,0.04039937,0.2059532,-0.14424743,-0.061251473,0.05971426,-0.072324,-0.11830824,-0.11416287,0.13003515,0.058486708,0.08905152,0.017849622,-0.106855705,-0.13555557,0.24314037,0.011264182,-0.12642391,0.219387,0.032510098,-0.1577057,-0.009115354,-0.14040326,0.035063025,0.07030243,0.18358259,0.04430475,-0.17157355,0.084913135,0.1454418,0.15582074,0.06719608,-0.032081153,-0.039725058,0.024157798,0.056722503,0.16432254,0.026373522,0.08333473,0.13298142,-0.14022262,0.1526986,0.008015192,0.096160606,0.091841206,-0.17272004,0.13272925,0.2030572,-0.07515408,0.020063436,0.31666285,0.1660638,0.15992038,0.27780873,-0.12943554,-0.14193188,-0.17078221,-0.046283603,0.0011591306,0.051492475,-0.08862094,-0.13384214,-0.10650406,0.039145246,0.20091906,-0.20169576,0.058410518,-0.08345289,0.029737417,0.052692235,0.08139902,0.025242185,-0.064275794,0.013665869,-0.33372954,-0.28639385,0.113091365,0.14502198,0.16456534,0.1879448,-0.06461019,0.10018919,0.17555578,-0.15322249,0.09772642,0.030418875,0.018119443,0.13299838,-0.03758702,0.16294476,-0.09780133,0.19331665,0.06184628,0.0852831,0.034760155,0.19624044,0.010243991,0.25715774,0.05923446,0.018020844,0.2922208,0.1090609,-0.108056575,0.1427996,0.06623225,0.09070371,0.04076675,0.19496937,0.04011934,-0.088856265,-0.16960038,-0.120868124,0.10946204,-0.037331924,-0.02019041,-0.06173334,-0.13419938,0.07784299,-0.042354614,0.0042215292,-0.100331716,0.033342104,0.14214337,-0.16230713,0.10834119,-0.030063186,0.013912369,-0.102490224,-0.08504271,-0.05268752,0.059731223,-0.014486032,0.053540207,-0.16720046,-0.2656777,0.01444783,-0.05859614,0.03544078,-0.066952914,0.07702301,0.09574642,0.069219336,0.026067704,-0.24126825,-0.15102722,0.11521737,-0.07584529,-0.06304993,-0.07148301,0.06890892,-0.2062471,-0.22475544,0.08690697,0.03359053,0.025487637,0.061924294,0.13417114,0.048416793,-0.037473463,0.032818113,-0.14067708,0.13156536,-0.070388235,0.19370492,-0.16809526,-0.07257615,-0.15647148,-0.05305772,0.16495338,0.25095817,-0.23409033,-0.16015035,0.043881275,0.026027357,-0.15744048,0.026253667,0.015310946,-0.060746193,0.044251394,-0.2390007,0.086140275,0.17098477,0.10547038,0.035660516,0.016830802,-0.035238508,-0.044270422,-0.04478764,-0.265116,-0.17986222,0.10343313,0.29299736,0.19165523,0.106069975,0.26114962,-0.0029973872,-0.08749214,0.10285807,-0.100404546,-0.14282532,-0.0091184,0.03767317,0.1320067,0.13510437,-0.11621953,-0.063927345,0.0028372402,0.15273993,0.06828833,0.08869547,-0.3394398,0.03866781,-0.12693334,0.02241001,0.112554014,-0.06962096,0.044829506,0.0024008912,-0.1351192,-0.112644464,5.044209e-5,-0.06419393,-0.0028482962,-0.12098639,0.008462057,0.12973717,-0.082006864,-0.11061111,-0.093802094,-0.067477696,-0.19618332,0.15147826,0.051629048,-0.031672217,0.034861196,0.11942969,-0.19590564,-0.110016696,-0.014064705,0.01625657,-0.12894796,-0.012179776,0.18201175,-0.0081472,-0.09555718,-0.14888938,-0.13921292,-0.017304158,0.03551511,0.004979692,0.01496012,-0.11637823,0.06571341,-0.18206537,-0.092784226,-0.09798954,-0.042413272,0.03626554,0.024542583,0.029436491,-0.161374,0.11441221,0.047445692,0.08387125,-0.050211623,-0.017362857,0.009863324,-0.09927366,0.11890666,0.051084127,-0.04054971,0.10684731,0.13214557,-0.14185081,0.018672278,-0.03593049,-0.13166991,-0.10735264,-0.18489717,-0.12664378,-0.12733787,-0.005378793,-0.28358215,-0.16580239,-0.003203187,0.08867067,-0.032198515,0.11042505,-0.06396662,-0.029445263,-0.052438807,0.13419268,-0.12070527,0.082711674,-0.10941519,0.08849454,-0.07348014,0.14180021,-0.074931644,0.17515789,-0.262156,-0.030157948,-0.02910285,-0.21105334,0.27577823,0.13609065,-0.11298945,-0.0029219813,-0.006045,-0.22472565,0.09502919,0.03081824,0.20874979,0.112689815,-0.04246355,0.19086386,-0.14604072,0.045858588,-0.11391461,0.19662993,0.03460204,0.09666074,0.14888155,0.039605338,-0.08624077,-0.11615651,-0.05586371,0.004823562,0.039404057,0.234942,0.18443502,0.2590032,-0.1526438,-0.16831048,-0.12290753,-0.027758565,-0.120946966,0.045026984,-0.08603426,0.16190772,-0.099909954,-0.10181247,-0.041390546,-0.003707605,0.0792394,-0.1680819,-0.12451831,-0.063103706,-0.022950586,0.07927327,0.0048610596,-0.11408276,0.034573257,0.103486404,0.007495567,-0.037036628,0.016611943,0.09705056,0.035787385,-0.044956654,0.16303755,-0.06385342,0.15524657,0.08616845,-0.22676915,0.09707369,0.1957938,-0.1071237,0.12121022,0.05273164,0.090531975,0.02997897,-0.0017478351,-0.023196466,0.113288485,0.059920568,0.050416786,-0.14795993,0.05117881,-0.031235531,0.21759404,-0.08284258,-0.13295949,-0.025001036,0.10714153,-0.035007723,-0.09965434,-0.16114503,-0.07449418,-0.116614245,0.028994627,0.14346361,0.026748514,-0.08693569,-0.24303818,-0.120058335,-0.11412097,-0.024324955,0.07086476,0.28165576,0.0013138489,0.026060797,0.22499046,-0.029757882,-0.3981306,0.08888389,0.109997176,0.037158623,-0.13956235,0.24395196,-0.046561442,0.11038114,0.034195714,0.10460941,0.16858101,0.0064329472,0.090945676,-0.09385692,-0.09015253,0.07506045,-0.017394345,-0.15238158,-0.020936595,0.28509286,-0.13831593,0.062092725,-0.2298881,0.04628672,-0.035185702,-0.022508333,-0.088231,0.037366986,0.13728528,0.14615121,0.100709066,0.07253917,-0.07210081,-0.04855829,-0.092686445,-0.1503741,0.13804999,-0.06878303,0.004553781,0.2994946,-0.32166842,-0.14391553,-0.114877924,0.13124003,-0.030921768,0.097412825,-0.015761424,0.10769992,-0.17831554,-0.10974111,-0.09711298,-0.13436896,0.069656186,0.20247094,-0.07488641,-0.08863948,-0.1495384,0.1071944,0.024539668,0.06312243,0.069096655,-0.047056597,0.026999572,-0.0645162,0.19301781,-0.14779499,-0.083283566,0.23236677,0.056285985,-0.29677185,-0.09824239,0.0605074,0.19454949,0.05733829,-0.044095926,0.11755691,0.012470049,-0.089673564,-0.16282883,-0.005406605,-0.011288521,0.0182994,0.11524621,-0.028024584,-0.27364534,0.13221528,-0.08365926,-0.025318684,-0.108165435,-0.12832253,0.09972157,0.023412231,0.011002012,0.048442267,-0.09314161,-0.20020582,-0.27936786,-0.008634479,-0.071943246,0.041140713,0.21620476,-0.30402812,0.18067002,0.057669606,0.09409222,-0.08770115,0.06287754,-0.017439688,-0.13935003,-0.15178011,0.28084707,-0.020833598,-0.14873448,-0.046606507,0.057995643,0.01336085,-0.016023971,0.29268405,0.05241489,-0.11760485,0.12740363,0.11351027,-0.09509607,0.07406049,-0.07832818,-0.046218768,0.002785466,0.118041806,0.07299176,-0.074869834,-0.22777241,-0.10114138,0.09094638,0.04572403,-0.27328438,0.0136633115,-0.16544709,-0.0067965295,0.117840394,-0.1663302,0.015533492,0.050658107,0.007327021,0.055310726,0.06109407,0.0065713674,0.009181241,-0.12652658,0.0035487371,0.15229698,-0.14854598,-0.10474175,-0.011060567,0.10233367,-0.14311099,0.19535859,0.20101604,-0.069426976,0.100300096,-0.10102808,0.011813317,-0.04768178,0.02747849,-0.050170504,0.28729215,0.03576546,-0.07345114,0.014230555,0.000340649,-0.082027294,-0.043590307,0.23987313,0.23019336,-0.31351078,0.029856656,-0.06101674,-0.087254986,0.19326141,0.10544307,0.08103196,-0.12783737,0.15009889,-0.0874473,-0.07433747,0.08423432,0.13765058,-0.10878976,0.20711303,-0.015306712,-0.21321611,-0.09899564,0.3200219,-0.1156439,-0.13042843,-0.0040705907,0.14333288,0.15188608,-0.13055657,-0.1685889,-0.21858308,-0.052698202,-0.06461284,-0.25217846,-0.10861859,0.109602526,0.13687149,-0.1746025,0.13490123,-0.35896716,-0.17044392,-0.025284532,-0.018006263,0.088054754,0.025840556,-0.09424023,-0.023109024,-0.11817561,-0.12396783,0.028423917,0.13350922,0.13385986,0.00437512,-0.119364366,0.0644594,0.029849295,0.14303657,-0.102894135,-0.1694764,0.2257099,0.07552604,-0.12284021,-0.046556618,0.099220775,-0.039600674,-0.08222082,-0.139531,0.026735669,-0.043377932,-0.15708886,0.11426046,-0.15576628,0.09572876,-0.18167469,-0.03979562,0.035852525,-0.2326433,0.04330743,0.071511865,-0.012666043,-0.086303435,-0.063799046,0.037550014,0.07882557,-0.10246293,-0.07785824,0.012240846,0.13269298,0.09837673,-0.020704444,0.16706839,0.11530048,0.0086368155,-0.21884514,-0.058098752,0.1955574,-0.14199859,0.2545236,-0.0454046,-0.086517885,0.038458005,0.106675476,-0.0775495,-0.1202887,0.09326234,0.011701741,-0.011075931,-0.026829695,-0.15966797,-0.026975287,0.054645848,-0.22626516,0.116876185,0.041134775,0.10151818,-0.011177778,0.103313945,-0.103177264,-0.055029586,0.1899798,-0.06977122,-0.25101566,-0.14448877,0.045683354,-0.050704196,-0.24687704,0.23450981,0.15990968,0.055432893,-0.03768924,0.09485588,-0.090260655,0.06919106,0.15543506,-0.15469496,-0.102803126,0.2719115,-0.17752895,0.07814884,0.11347757,0.28052178,0.16657369,-0.018377917,0.06666339,-0.019637162,-0.048386253,0.14392385,-0.03461454,-0.16896725,-0.00022355712,0.20977505,0.039545454,0.008296299,-0.04247467,0.016622486,0.11736905,-0.004775333,-0.11433985,0.012790045,0.019989066,0.006364876,0.171721,-0.18179089,-0.0064954804,-0.009295638,0.068071626,0.0792736,-0.30247968,-0.008062799,0.054707594,0.020660888,0.14779732,-0.18101631,0.19579704,-0.10226984,0.03399445,0.10170456,-0.117631905,-0.16634567,-0.0007504859,-0.1046763,0.11022938,-0.0034610415,-0.02956479,0.10168772,-0.11268282,0.25708756,0.1229946,0.123970464,-0.07521486,-0.15679449,-0.157092,-0.18110462,-0.1545296,0.1076666,-0.17413557,0.0057418835,-0.1587324,-0.101555884,-0.15172529,-0.055739436,-0.040852476,-0.156434,-0.15565853,-0.20002654,-0.3123701,-0.027374633,0.10735068,-0.008331844,-0.0033526553,0.17519456,-0.11306953,-0.11612046,0.1985316,0.02168164,-0.120434776,-0.060904738,-0.013232146,0.023382228,-0.025540704,-0.08513845,0.21648268,-0.0039512566,0.024620248,-0.030771688,-0.06280165,-0.0013661686,0.08380758,-0.06603732,-0.09342836,0.12722151,0.0076364563,0.0060382467,-0.004049976,0.011014825,-0.04450835,0.2326649,0.111967005,0.1686866,0.031645745,-0.124196894,0.10209703,0.15595402,-0.1518982,0.116966955,0.14401114,0.19321802,0.24005406,0.18886824,-0.015720623,0.13599719,0.009570535,-0.12589215,0.006191275,0.0040658982,0.0061347913,-0.12630929,-0.14844744,0.094541766,0.15560785,-0.0428112,-0.05364968,-0.17164415,-0.025893314,0.105566405,-0.03720614,-0.07684894,-0.047203537,-0.010024009,-0.09563192,-0.07198823,-0.059375796,0.14548327,0.02251698,0.10286921,0.041972354,0.117372885,0.1198969,-0.014001109,0.13451734,-0.02133281,-0.061604306,0.106623225,0.14138947,-0.14820094,-0.079994716,0.05176722,0.23790126,-0.18497159,-0.09439595,0.1941745,-0.068176605,0.14834465,-0.07849742,-0.008494497,-0.09100605,0.106386945,0.0017875517,0.15786032,-0.03532709,-0.074213244,-0.19923683,0.19777174,0.19966283,0.07412615,0.18041418,-0.0076601445,-0.07825718,0.12285231,0.011671751,0.015569202,0.032650195,0.12740487,-0.1231686,-0.1935456,-0.14538325,0.00026168575,0.022630116,-0.03888243,0.05357785,0.18198396,-0.09784632,-0.091229014,-0.08704127,-0.16518837,0.11061991,-0.0064140735,0.102741465,-0.1517233,0.03011858,-0.10487617,-0.092181034,0.14317793,0.09523091,-0.032541633,-0.04189984,0.09188019,-0.12610938,-0.06244752,-0.11155717,-0.050661378,-0.006901461,