{"model_state":[{"net":{"layers":[{"weight":[-0.0076260334,-0.07099228,0.048235428,-0.02104631,0.08224418,-0.04252886,-0.099331826,-0.06266458,-0.10568374,-0.01247336,0.049503643,-0.02539831,0.13029659,0.006152214,-0.048289556,0.12146342,0.0012281667,0.1624922,-0.012526527,-0.11616889,0.071716115,0.040377557,-0.16377407,-0.015832417,0.07631091,-0.08641572,-0.072064206,-0.09397424,0.09484661,-0.048648328,0.050924785,0.03670251,-0.0056477743,-0.15888771,0.056139927,0.12810676,-0.07651531,0.18895252,0.04726327,-0.13454975,0.046370942,0.04445891,0.09275049,0.14119437,-0.04751562,0.08643547,-0.15950124,0.13464174,-0.07037259,0.15611309,-0.12700638,0.06669919,0.03803897,0.018407328,-0.04701003,-0.12149396,-0.015870273,0.08404206,-0.09897431,-0.05197489,0.09333123,-0.082659066,0.09367651,0.12618573,-0.06874702,0.13663936,-0.12340294,0.03938538,0.033990696,-0.024474822,-0.014692903,-0.036254246,0.06645066,-0.017429762,-0.043801792,-0.15863802,0.0070884246,0.00022926471,0.118182875,0.0760213,-0.14494844,0.1274103,-0.034164865,-0.0919536,0.15740831,0.16891786,0.11735702,-0.09208406,0.050156962,-0.12119289,-0.04512964,0.14816943,-0.10682279,0.001706319,0.019190121,-0.04444977,-0.0016826803,0.12623838,0.14119186,0.0906831,0.0036038773,-0.0102828685,0.010320767,0.072482064,0.13356355,-0.081081726,0.12038189,-0.02335746,-0.015613177,-0.042252824,0.019134257,-0.036831014,-0.1043428,0.11006705,-0.020436859,0.17749265,-0.028932704,0.1614888,-0.104950525,-0.14198852,-0.13463137,0.05114514,-0.087132886,0.13761614,0.11274502,-0.04899942,0.092507295,0.049134087,0.12415285,0.09967721,-0.044884596,0.03677178,0.13957825,0.015601949,-0.031323165,0.18006785,0.045428906,-0.12694904,0.13698177,0.048662946,-0.11671454,0.16227184,0.16914703,0.17866151,0.11644594,0.0071999715,0.0348605,-0.12943655,0.16881084,0.02235799,-0.051099103,0.10069803,0.076516494,0.12962672,-0.08534099,0.10178937,0.06856751,-0.114369325,0.17011611,0.003442995,0.08250887,-0.11246939,-0.062654264,0.06307657,-0.1004483,0.076493934,0.05764627,-0.115949154,-0.058004756,-0.066858314,0.14883237,-0.030507777,0.10852515,0.13219617,0.050085146,-0.0040947045,0.045851406,-0.023631519,-0.10523611,-0.054214444,0.14650457,0.019292247,0.012953342,-0.14183763,-0.06859975,0.1255076,-0.013434171,-0.090696335,-0.06997258,0.15406263,-0.12963614,0.025730273,0.11910953,-0.010318796,-0.07813664,0.11077909,0.017855104,-0.03872494,0.006788963,-0.10453331,0.09643433,0.108877525,-0.08776659,0.05194512,0.1315747,-0.09978059,0.0153914085,0.08777517,-0.038173936,-0.09338879,-0.058959942,0.046930823,0.17945337,0.15973757,0.059022635,0.09799432,-0.030564113,0.0903899,0.12993029,0.05466546,-0.08704305,0.03899062,0.020645563,-0.08375193,0.038441524,0.04996953,-0.017703002,-0.048932828,0.15226325,0.15300582,-0.041069504,0.13105913,-0.011501113,-0.03998662,0.18634947,0.11478215,-0.11405986,0.17783912,-0.11143851,0.08319291,-0.03414586,0.15251556,0.10421878,-0.03157882,-0.09711045,-0.04313085,0.081459396,0.15114361,0.117107406,-0.120805964,-0.096250474,-0.07911377,0.035397116,-0.097343735,-0.14924729,-0.10113318,0.11306533,-0.010548265,0.074096106,0.0046655526,-0.038867313,0.09054538,0.15291023,-0.055140935,-0.015639046,-0.07877674,0.13323691,0.079417035,0.1175018,0.16137071,0.182323,0.033771068,-0.1304259,-0.0043883896,0.08734029,0.07001737,-0.053724777,0.09902091,0.021319857,-0.07030229,0.04640299,-0.12066475,-0.03441985,-0.09155345,0.15703337,0.04999003,0.10362475,0.056307945,-0.11972218,-0.12939888,0.02981106,0.0659768,0.06788198,0.07582787,-0.033636566,-0.038796395,0.048862353,0.00032727316,0.16738057,0.17527632,-0.040369943,-0.08303621,0.07442378,-0.040492326,-0.08739127,-0.0798416,0.06861384,0.17404045,0.008957663,-0.07686687,0.102978386,0.13641103,-0.07666909,0.078367464,0.047512352,-0.022756625,-0.10251154,0.06224231,-0.13250318,0.1068884,-0.012003347,0.1031091,0.12857005,-0.013478158,0.089276075,0.03789211,0.057999443,0.16765544,-0.0029996743,0.042124387,-0.09913446,-0.08500102,-0.06677687,0.013303916,-0.0049955584,-0.06626246,-0.09691426,0.13989495,0.06534443,0.13296197,0.049711775,-0.109169796,-0.0032717423,0.05279049,0.01854032,-0.09000999,0.03995318,-0.12117418,0.0024464114,-0.028510924,-0.06720985,-0.025413187,-0.014573188,0.11362582,-0.046066146,-0.04578371,0.07313405,0.072563045,-0.0026798947,0.11428928,-0.025436712,-0.08970363,0.12387918,0.06755243,0.0028061343,-0.078913085,0.072383136,0.13873418,-0.053203765,-0.042943332,0.13694996,0.057036486,0.124644436,-0.03434619,-0.15434308,0.06286096,-0.0315224,0.035206918,0.10213879,-0.08534291,-0.13509548,0.14995894,0.012350825,0.03867262,0.027034516,0.035247996,-0.06686192,0.114426896,-0.060082495,0.052087292,0.09457204,0.1633348,0.06580589,0.11976544,0.071958415,0.107632056,-0.08044556,0.077035815,0.13177384,-0.071252845,0.0444752,0.09627072,-0.006262442,-0.11454749,0.129375,0.07718731,-0.020136787,-0.12313674,-0.048262723,0.12129008,-0.10232104,0.103389435,0.13137668,-0.015584203,-0.058094952,0.045125913,-0.12544353,-0.066948965,0.005675118,-0.101390414,0.12197212,0.16896506,-0.069583714,-0.09414492,0.074201085,-0.07324664,0.18187226,0.15701674,-0.04552284,-0.08510501,0.109867536,0.047721986,0.052323345,0.17486826,-0.13009119,-0.080400355,-0.04779455,0.030317543,-0.02381454,-0.13349439,-0.08312753,-0.07266506,0.034176417,-0.08696901,-0.06930954,0.14053468,0.09870728,-0.11466098,0.037213575,-0.060272958,0.012852116,0.032597084,0.031930342,-0.035896458,-0.05158409,0.15703419,0.16274846,0.04392886,0.041818805,-0.12360854,-0.087406784,0.019649595,0.040743645,0.06268889,0.09061999,-0.12856035,0.068890765,-0.09366258,0.020854264,0.07292148,-0.09781584,0.008590772,-0.0102292,0.108296946,0.017776743,0.05108103,-0.04146627,-0.14282182,-0.04417641,0.039381854,-0.11295288,-0.088433646,0.07504832,-0.07410815,-0.07314124,0.025096312,0.032565165,-0.050631024,-0.1294291,0.12556784,-0.0074514723,0.11595907,0.074030526,-0.036194876,-0.15303577,-0.053632878,0.04767301,0.056639116,-0.029200949,0.07707031,0.1295685,0.02800613,0.09687946,-0.041843284,0.06992835,-0.10930247,-0.09636427,-0.005777979,-0.020044543,0.061216988,-0.03716973,-0.1306748,-0.11739896,-0.10658324,-0.13680382,0.15585588,0.10016454,-0.07973686,0.1249843,-0.005531885,0.09805422,0.014647902,-0.019204646,-0.093533404,-0.06273577,-0.016668625,0.06353123,-0.014731343,0.06175306,-0.11426448,0.15550579,-0.06325523,0.06997804,-0.07476813,0.13006648,0.057940204,0.07877971,-0.10193573,0.021602977,0.06841931,0.11343259,-0.11162344,0.07777326,0.1326083,0.057048425,0.0124687515,0.05189181,-0.13814661,0.035058286,0.14959572,0.008084215,3.0322659e-7,0.017882882,-0.12419835,-0.118757024,0.052759577,0.068955034,-0.11158844,0.011231403,0.092131756,-0.12916833,0.014918455,-0.024684528,0.13467489,-0.011208521,-0.13650136,-0.0014853287,0.09473432,0.13500915,0.011957141,-0.025005681,0.023576438,0.0031424258,0.06301088,-0.03869979,-0.075623944,-0.037914507,0.16232899,-0.060842715,-0.043519396,-0.035669435,-0.06779305,-0.08920135,-0.023292786,-0.11692926,0.019427408,-0.027186928,-0.12608577,-0.0028125835,0.088083856,0.08463762,0.04113294,0.13261452,-0.044075157,-0.04174674,0.11952156,0.06575839,0.13998269,0.1293029,-0.15256572,0.12532108,-0.074489035,-0.055187143,-0.12270199,0.1048027,0.11522314,0.09599595,-0.048525725,-0.06586903,-0.015285068,-0.11995435,0.13366564,0.11760079,-0.099520385,-0.06884245,0.07137672,-0.107814915,-0.03785593,-0.10348446,0.15611638,-0.01178156,0.012601363,0.12786326,-0.0012930895,0.09154008,-0.03188582,0.06499321,-0.020644447,0.109135516,-0.025587244,-0.06720735,0.0829935,0.06641745,0.10688089,-0.13865092,0.10835964,0.068728566,-0.060681682,-0.05286059,0.083370484,-0.037650242,-0.12806141,-0.024816295,0.1419004,-0.13004874,0.08129953,0.13980708,-0.076796256,0.14461392,0.009163567,0.052509617,0.0824556,0.088837884,-0.06632538,0.12403019,-0.09680987,0.100944385,0.05352639,-0.058710743,-0.051214848,-0.021629855,-0.11776514,0.057502847,-0.10868179,0.050534744,-0.09281401,0.12647288,-0.05187734,-0.029082261,-0.07034382,-0.11582207,0.081766844,-0.10953136,-0.04547219,-0.10333167,-0.14444062,0.12388839,0.15059157,0.096416995,0.026892558,-0.0076259705,0.021619914,-0.015113941,-0.12404691,0.0535908,-0.111612156,-0.048311118,0.071250364,0.15118358,-0.10939019,0.05796768,0.121492505,0.116941795,0.12339994,0.092905164,0.063077815,-0.06634171,0.06417106,0.062045913,0.07948794,0.005272523,0.12084378,-0.0014321965,0.074283,0.11256345,-0.09337121,0.01941326,0.11111998,-0.13400409,-0.0984908,0.035340656,0.16030332,-0.07856029,0.082593076,0.15332176,0.07631209,-0.08668582,0.09726572,0.09864135,-0.14091302,-0.10075483,-0.13233753,-0.1278716,0.06291103,-0.05077612,-0.09892602,-0.09482558,-0.05377051,-0.1308078,-0.033809032,-0.12319015,0.06801426,0.08788544,-0.05571405,0.10466099,-0.02325541,-0.051932957,0.13672546,0.06107287,-0.043445803,0.1470961,0.07504367,0.0003075615,-0.0044892873,-0.04999704,0.08761921,0.04477085,0.1565499,-0.12914656,0.0085557075,-0.11487713,0.15057464,0.13760471,0.041722074,-0.14239441,0.15531723,-0.13595998,-0.09844409,-0.002946524,0.048659775,0.09797647,-0.04297333,-0.03481948,0.055496033,-0.023872564,-0.117059834,0.105168395,-0.059528463,-0.06892255,0.119401835,0.06516892,0.028065888,-0.017329356,0.078410804,0.15593283,0.055898298,0.018495463,0.10136664,0.10214422,-0.13734268,0.062966555,-0.041639093,0.12474435,-0.10739196,-0.030551558,-0.048490454,-0.09859107,0.13745387,-0.0531574,0.11554134,-0.07322252,-0.12754545,0.09789326,0.0648927,0.04054231,-0.13695112,-0.1084253,-0.07354813,-0.09789377,-0.0002998554,-0.0040345276,0.116456345,0.106256336,-0.1616495,-0.056926142,0.06804135,0.1125806,-0.014899618,0.12479581,0.12550943,0.1209985,0.09037392,0.17612189,0.008284889,-0.16650213,0.17865537,-0.050984412,0.09529959,0.11454626,0.14440916,-0.11146992,-0.077234596,-0.13956687,0.10023956,0.06275791,0.115265936,-0.07069475,0.1264218,0.028587788,0.0028222809,0.023401134,0.082408875,-0.11508568,0.12091313,-0.13606113,0.05842368,0.09246463,0.058239646,-0.10815188,-0.015263793,-0.10702945,0.019520715,0.11066416,-0.058209993,-0.033803403,0.0023568803,0.15189396,-0.09544171,-0.1178082,0.1387447,-0.012816079,0.13305825,0.15858911,0.12710665,-0.0018739678,0.07611382,0.047664978,-0.06714706,0.024032697,0.09820207,-0.01377994,-0.14490913,-0.1051004,0.09609566,-0.035061363,-0.032863624,0.0030495608,-0.09420125,0.08847174,0.16449228,0.006357147,-0.1334148,0.10329534,0.010471181,0.0096756695,0.04671785,0.104829706,0.13972478,0.034842182,0.12900329,0.078374684,0.08462085,-0.12494779,-0.060714748,0.015062961,0.0010059918,0.0769905,0.0984248,-0.028458778,0.008387262,-0.0728239,-0.1466401,0.0021222,-0.0010954804,-0.0027049594,0.014126851,-0.12725618,0.03937988,-0.019859092,-0.095403746,-0.0613869,0.034402154,-0.060119085,0.054946106,0.03563279,-0.12844989,0.16030122,0.02467695,-0.00051131484,0.08390985,-0.04351973,0.04930576,0.0386389,-0.0033504525,0.06087765,0.062232066,-0.025729826,-0.07070414,-0.028064191,-0.06416827,0.018095335,-0.14277932,0.06411706,0.07629748,0.07778024,-0.11001943,-0.09777321,-0.08698794,-0.03523217,-0.027722979,-0.049400296,0.09194397,0.06552891,0.14129679,-0.015781872,0.06897402,0.024766313,0.06745644,0.1748596,0.12103788,-0.087944984,0.057441015,0.008816073,0.1423261,-0.094590686,-0.098798886,0.0680103,0.10002337,0.16700557,-0.00064286543,-0.09310238,0.10287726,0.059680484,0.12812988,-0.02429209,-0.08732507,-0.123067245,0.1102901,-0.06878826,0.12834129,-0.07255509,0.045366652,0.084302194,0.13294524,0.008745148,-0.07443436,0.100625664,-0.043917935,0.17431465,0.016516482,0.0431094,-0.1401734,-0.07268459,0.10338263,-0.1056806,-0.011092341,-0.0077004507,0.1522131,-0.042335868,-0.005525159,0.117957115,-0.03181525,0.08934391,0.08857875,-0.0031111431,-0.117020644,-0.08856666,-0.09377625,0.1408274,-0.07875583,0.10477891,0.1391239,0.064752676,-0.02561501,-0.038766704,-0.14079091,0.06628741,-0.027903108,0.14005283,-0.094223894,0.019281007,-0.06551653,-0.042954605,0.07969823,0.09952436,-0.08313245,-0.0729438,-0.04155583,0.14148009,0.1130525,0.09654806,0.08508606,0.06099414,-0.10814029,-0.023688393,-0.099092625,-0.1361733,-0.038684864,0.0019146152,-0.052530717,0.13086526,0.05080299,-0.06859367,-0.15709314,-0.013460232,0.053219974,-0.07512995,0.17436701,-0.011374551,-0.047243573,0.07700288,0.16480939,0.17552277,0.12771235,0.18024775,0.04750789,0.023122756,0.034385256,-0.018182551,0.06645284,-0.10571645,-0.029888978,-0.0743672,0.123666495,0.17220384,0.08913008,-0.042227063,0.08760661,-0.11641007,-0.10669034,0.037644595,-0.07208971,-0.06488115,-0.024018953,0.13217159,-0.14155927,0.0949276,-0.016328955,0.080611534,0.13030416,0.13386323,0.111632414,-0.042593148,-0.049194787,0.035650857,0.030586837,0.086830445,0.05529995,-0.07115223,0.12282586,-0.017321056,-0.071361564,-0.12298506,0.038799502,0.004915145,-0.07911603,0.066234276,-0.055184133,0.052525874,0.004639039,-0.018473456,0.00022266472,0.13166147,0.04740317,-0.053788155,0.094652206,-0.030852657,0.106196694,0.054771762,0.08375733,-0.07993117,-0.014729712,0.02506995,0.02011744,-0.10404306,-0.06941864,0.009213534,-0.011610239,0.099919066,0.052834854,0.12718259,0.09120354,0.14271544,0.030505773,0.09243709,-0.04150929,0.14885978,-0.109237686,0.041914415,0.122795224,-0.0153857265,0.092295885,0.13308261,-0.039466776,-0.08775399,-0.064861424,0.08497815,0.11526304,0.15352568,-0.13261,0.104975715,-0.0027965163,-0.089771524,-0.16077866,0.06707976,0.115696594,-0.009081154,0.018778209,-0.01600152,-0.09226325,-0.047357652,0.06802642,0.13606799,-0.071858585,-0.031192837,0.049369972,0.13338788,-0.04281899,0.017069835,0.07648092,0.07882581,0.16175833,-0.103265375,-0.13483734,0.09101733,-0.07584665,0.06293005,0.0013931241,0.06996912,-0.07014772,0.12518221,-0.108034134,0.0018249762,-0.078131095,-0.034249406,-0.022459442,-0.121795885,-0.047638915,0.0048895446,0.16691278,0.041739367,-0.080097966,-0.07261323,0.007999149,0.14074649,0.027115848,0.17198755,0.040662296,-0.05802617,0.107856624,0.057728387,-0.09075828,0.16214006,0.02103265,0.04355806,0.03785797,-0.08994549,-0.14758259,0.023635173,0.007121648,-0.044869546,-0.11656803,0.07950104,-0.017077044,0.054527022,-0.01821008,0.099367335,-0.072701275,-0.0061348854,-0.07002873,-0.0020135827,0.08459354,-0.104934216,-0.10252672,0.13408014,-0.033183895,-0.05852835,0.08676553,0.09921863,-0.02204354,0.09293066,0.09645346,0.10491875,0.03397226,-0.090267435,-0.0519767,-0.13157727,0.025086327,-0.037312012,-0.018925516,-0.08573352,0.028790196,-0.12866336,0.042438436,-0.15751112,-0.091189206,0.04909769,-0.04404298,0.040968604,0.06455381,0.03301284,0.038421683,-0.12131756,-0.097935244,-0.11275947,-0.06917942,-0.05835169,-0.15116198,0.059023015,0.06009624,0.120174,0.17144385,-0.115877755,-0.09107389,-0.0241073,-0.13589194,0.17110488,0.09256902,-0.16000257,0.042155623,0.15239292,0.121459134,0.06285057,0.070966996,0.132798,0.13461751,0.08975949,-0.13278446,-0.12068408,-0.016710935,0.13280068,-0.053345673,-0.082888246,-0.11403486,-0.09223495,-0.13255154,0.15414472,-0.083869405,-0.09138155,-0.0067775897,-0.094117746,0.06560418,0.05468754,0.023895498,-0.009125006,0.15144104,-0.1547967,0.05518412,-0.1183013,0.016883217,0.078705005,-0.004445295,0.095162645,0.09738823,0.0037138932,-0.083711974,0.13456884,0.17276774,-0.040444627,-0.05190424,-0.040736243,0.08379384,0.07903162,0.1401982,-0.031835362,-0.01989503,-0.024521666,0.011175039,0.006714709,-0.111310154,-0.0995112,-0.109134994,0.029322874,0.15833794,0.11432071,-0.044496763,0.035606492,0.15052912,0.047857087,-0.009527068,0.17645396,0.103609666,-0.04020136,-0.0984067,0.07353528,0.12875138,-0.05775517,0.059019394,0.06202231,-0.035856117,0.069857314,-0.121151075,-0.0013687451,-0.12579007,0.12379678,-0.12813336,-0.0048782183,0.123664156,0.1716954,-0.061010543,-0.07491537,0.1380552,0.039777778,0.018676562,-0.03887365,0.116666906,0.061000414,0.15616657,-0.11651709,0.07731774,-0.076921865,-0.09425377,-0.097983025,0.08762771,-0.094052516,0.075706735,-0.03728754,-0.1351645,0.09869742,-0.13904244,-0.028366767,-0.08058427,0.08068819,-0.027065946,-0.1391694,-0.062434662,-0.054959442,0.07665736,0.12594576,0.14073065,-0.10481828,-0.06647893,0.118976936,0.052911226,0.16318673,-0.055887636,0.13220009,0.14245051,-0.121512815,-0.096711524,0.10487092,0.16164273,0.11067709,-0.08319283,0.12407294,-0.06400851,-0.022433212,-0.12399978,-0.029230304,0.109743565,-0.03986507,-0.11907566,-0.13818532,0.103830025,-0.008033387,-0.13040815,0.029359538,0.022674078,0.05748952,-0.02813332,-0.052551135,-0.089058176,-0.07737751,0.104970865,0.04290238,-0.002160596,-0.015420237,0.029698249,-0.010970193,0.08669898,-0.08444944,-0.11627074,0.106902465,0.043991182,-0.05472249,-0.001844048,-0.08766809,0.039389353,-0.12773465,-0.031484846,-0.016838564,0.04548084,-0.10775518,-0.07419752,0.04137471,0.14563403,-0.0068407566,0.061320946,0.15305138,-0.12796004,0.07966545,-0.03565192,-0.045339793,-0.08605154,0.0403728,-0.09233957,0.012442284,-0.13118902,0.12306053,0.02073845,-0.008206724,0.050364308,-0.07689528,-0.07822242,-0.03724497,-0.09880435,-0.008784146,-0.13138063,-0.10483904,-0.03886384,0.07473039,0.0012333295,0.039698917,0.08183581,-0.12473192,-0.124034725,0.060659446,-0.00040653764,-0.058810543,-0.10743551,-0.11474863,-0.08837845,0.13708352,-0.11549445,0.09846963,-0.046973057,0.15156803,-0.09960198,0.0919245,0.15477599,0.09107565,-0.06980111,0.08432902,0.06464416,0.034672935,0.054623447,0.10798828,0.09734118,-0.14039658,-0.07053708,0.10474597,0.13918771,-0.103224695,-0.10111407,0.039053887,-0.08227967,-0.011928206,0.12405384,0.085105285,-0.07913409,0.04041617,0.076624036,-0.05172146,-0.014569281,0.027278155,-0.049891356,-0.016093265,0.1483288,-0.06647964,-0.098486006,-0.08276815,-0.07250506,-0.05892652,-0.12249417,-0.07461548,0.0026111342,-0.04454503,0.024010828,0.0721381,0.10065562,-0.051743723,0.07500648,-0.11882386,-0.09876466,-0.063141935,-0.14078681,0.118617535,0.007041492,-0.15010972,0.02099894,-0.14371245,-0.10653613,-0.03772033,-0.10781331,-0.1494477,0.11813354,0.13191877,0.10503301,0.035525132,0.12490172,-0.047791783,0.12040184,-0.016122783,-0.09307306,0.04485748,0.11837546,-0.0853374,0.040411875,-0.052760374,-0.10006131,-0.066654116,-0.10109673,-0.10171131,0.04604466,-0.12153401,0.13772199,-0.012084756,-0.10201372,0.061653756,0.13952416,0.0918695,-0.11215705,-0.059856836,0.13812508,-0.11255854,-0.01758618,0.011552977,0.10696265,-0.111599065,-0.08297965,-0.049123976,-0.10326774,0.06885885,0.09234858,0.10050075,-0.113072746,0.07420391,-0.110887125,-0.110445164,0.04266343,0.05805034,0.030126318,-0.14411852,-0.0023572007,0.01574475,0.043979503,0.16950169,0.004877692,-0.011345554,0.058981497,-0.1054119,0.00655913,0.13489608,-0.13932183,-0.07018023,0.058263805,0.0032952684,-0.14692973,0.00037645418,-0.05999716,-0.08257641,0.10373982,-0.09660859,0.17469278,0.15377207,-0.042400673,0.16509269,0.023739899,0.15314908,0.12726307,0.03275296,0.11132288,-0.032214362,0.02645025,0.087022774,-0.025888773,0.12664627,0.091900095,0.03898464,0.15932395,-0.0906638,0.076843366,-0.14744963,-0.0791439,-0.121307984,-0.12522367,0.088553995,0.093400665,0.067477226,0.14076163,-0.12185125,0.11369295,-0.1374882,-0.0038915705,0.11620717,0.12492364,0.11072294,0.17624709,0.08986442,-0.072591506,0.11381948,-0.070159085,-0.1004195,0.054894373,0.08228082,0.14575192,0.06339611,-0.120313525,0.18625839,0.083899684,0.1432611,0.1102034,0.05488414,0.12938373,-0.13286781,-0.016381674,-0.03513204,0.033958267,0.16345306,-0.010579127,-0.023813223,-0.0561584,-0.1127617,0.10398677,-0.0020663075,-0.095450036,-0.07635524,0.1746162,-0.06791356,0.05074265,-0.09519747,-0.09635897,0.17483422,-0.08669545,0.06440862,0.014759345,0.12395211,0.044064123,-0.017788682,0.09254441,-0.02375851,0.11665497,0.1815424,-0.0072056656,0.061426137,-0.13804616,-0.14628161,-0.11545493,-0.06545272,-0.15710385,-0.11847717,0.0066482755,-0.12195334,0.079042114,-0.11667839,-0.10331359,-0.07784675,-0.047518797,0.12271143,0.16414976,-0.008972282,-0.0801163,0.11624829,-0.09660632,-0.10215845,0.016151926,0.14298081,0.18189342,-0.036424022,0.17624652,0.14242126,-0.07337483,0.06622237,-0.13091318,-0.057621427,0.0854811,0.004463317,-0.09052536,0.028891461,-0.012551047,-0.052848335,-0.14233139,0.14826402,-0.12129106,0.098049425,0.11307601,-0.10260475,0.11303447,0.008846574,0.0655355,-0.040200792,-0.08441434,0.09988653,-0.14214762,0.09124838,0.12338744,-0.05787955,0.06849698,0.040577814,0.11706958,0.11098277,0.10951218,0.12277323,0.11238015,-0.12884355,-0.032261092,0.075025596,0.000106624204,0.0017953006,-0.020766066,0.056866825,-0.045111764,0.01233822,-0.020178296,-0.05824965,0.055665866,0.12633102,-0.066729605,-0.0020409543,0.13518234,-0.13574468,0.06340331,0.07495226,0.16278821,0.10241795,0.03975729,0.1081429,-0.038846683,-0.057364,0.083954036,-0.014308784,-0.07673015,-0.10062135,-0.07546991,0.015264971,0.11131496,0.099709556,0.12900165,0.122976534,0.102216326,-0.08777934,0.09149203,-0.012642016,-0.1064745,-0.039347515,-0.026163366,-0.052434348,0.077164814,-0.083839335,-0.013236838,-0.03785034,0.0396063,-0.0031767415,-0.15170518,0.09794385,-0.075580545,0.09167192,0.13648416,0.019262943,0.13711953,0.0878118,0.08184199,-0.11045931,0.10770284,-0.03478914,-0.06541668,0.08429994,0.06237619,0.06153205,0.07362103,0.03937962,-0.04522355,-0.021381069,0.12718011,-0.1382042,0.04874224,0.09507004,0.048085526,0.09659751,0.09700597,-0.07968503,-0.14613165,0.014344427,0.092249475,0.10494276,0.11225423,-0.012222562,0.10728595,0.15241484,0.07298658,0.064046465,0.0073936675,0.18668437,0.023610659,-0.036964584,-0.07452501,0.03746087,0.0874497,-0.06315661,0.046265375,-0.059575964,-0.09556835,0.07519414,0.15294152,-0.108845256,-0.066313505,-0.095936805,-0.090236895,-0.040388152,-0.0010396057,0.07209741,-0.0054821884,-0.06279243,-0.11287131,-0.068561554,-0.04427847,-0.006300888,-0.06927457,-0.11872035,-0.07808124,-0.070487656,-0.048870742,0.12565789,0.00961327,0.034382146,0.084881164,0.07504687,0.042768944,0.09540672,-0.07402107,0.11426405,-0.07030456,-0.03719536,0.10632629,0.045229487,-0.076133445,0.12679431,0.06460365,-0.072074905,0.012144084,0.019057719,0.0682987,-0.06859352,0.07677228,-0.015101778,-0.06813912,-0.13745958,-0.12488907,-0.13840856,0.08949995,-0.04110151,0.010608394,0.10874828,0.17871208,-0.02504641,0.046854705,0.016050607,-0.030533962,-0.09218574,0.17230923,-0.076648116,0.043059483,0.09205694,0.11706175,0.014712917,0.12436005,-0.043899175,0.060266975,-0.07323414,0.15010914,-0.13123362,0.06625449,-0.007349374,-0.12459663,0.051614285,0.13129002,-0.08372571,-0.12219011,-0.10909324,-0.099682674,-0.0451085,0.047401004,-0.024872238,0.1051564,-0.008571252,-0.08786275,-0.07653274,-0.1451207,0.133667,0.13907178,-0.036388423,-0.0017203473,-0.1599702,0.093512625,-0.06244732,0.14360167,-0.07221232,0.004249315,0.10632245,-0.0074243294,-0.090444654,0.073804215,-0.010684081,-0.15870357,0.034394003,0.09963539,0.062416412,0.06802528,-0.12035759,0.026037946,-0.053749613,-0.093533985,-0.11504796,0.07972002,0.025587793,0.021638334,0.014912693,0.09944709,0.010809147,-0.06525423,-0.047038443,-0.11963386,-0.021345038,0.17374934,0.09707036,0.06550292,0.12283166,-0.12285415,0.14801598,0.09893881,0.16211812,0.12723464,0.0806158,-0.10680101,0.060073934,0.12882721,0.008993459,-0.032527152,0.0024862771,0.048610162,0.00867707,-0.14427939,0.10603037,-0.03361059,0.15183134,0.010019775,0.013687884,0.18398878,0.16252005,0.03458713,0.082794644,-0.13178302,-0.03154669,-0.014353905,-0.034372844,0.08625333,-0.10394875,0.011388531,0.08240035,-0.0641248,0.038920593,0.15949345,0.027149389,0.0400213,0.02109162,-0.102505796,-0.115603864,-0.06345348,-0.086457916,0.06774924,0.06567923,-0.04053608,0.039092045,-0.06369401,0.088821344,-0.13169357,0.06408294,-0.042453554,0.039732512,-0.0754551,0.09501752,-0.0066967905,-0.09962149,0.06650401,0.09783004,0.057813313,-0.026596224,0.13295263,0.15943256,-0.07719043,0.055281423,0.11904581,-0.034422904,0.14336573,0.05227535,-0.009985624,-0.027941227,0.06475577,0.15537769,-0.1272368,-0.14413157,-0.08917432,0.11590449,0.022435948,0.08033352,-0.086361565,0.015212488,-0.036681514,-0.055294067,-0.041141458,-0.10302821,0.17600116,0.17411786,0.037842497,-0.040127084,0.0024674812,0.13065192,0.1554227,0.057806183,-0.119535975,-0.071264125,0.006932521,-0.101839766,-0.0053744344,-0.06596237,0.09167954,-0.013853743,0.022415275,0.007835857,-0.07978163,-0.13757816,-0.096118644,-0.1120427,-0.0012820843,-0.06733493,-0.001596616,-0.0037920077,-0.06521776,0.12253176,0.119872645,-0.1266053,0.11467946,-0.058073126,-0.033084,0.0629821,0.16060714,-0.09704216,-0.13663612,-0.053738296,-0.066715725,0.121653125,-0.06833703,0.06568378,-0.12331813,0.034158584,-0.061623383,-0.079861425,-0.09182114,0.13205773,0.13453235,0.118855365,-0.09208755,-0.10792659,0.08852094,-0.016853279,0.10099278,-0.13124819,0.11430278,-0.026717631,-0.12037287,-0.116017945,-0.019952158,0.08073217,-0.03955708,0.018284405,0.12578614,0.12915319,-0.1254374,-0.10693165,0.11295677,-0.014021207,0.033109672,-0.039317332,0.14761177,0.04888186,-0.075100794,-0.13224275,-0.08648882,-0.15145175,-0.050199553,0.14108725,0.062044006,0.062478747,0.11751329,0.115318775,-0.11382298,0.061617985,0.11350967,0.032541607,0.16982114,0.014107045,0.122289486,0.13888533,0.06296749,-0.006895961,-0.051460978,-0.13802877,0.012737635,-0.103715226,0.15404885,-0.10223055,-0.15019785,-0.0645642,0.0023731939,-0.073455654,0.057039835,0.10777475,0.030528873,-0.103900686,0.15959275,0.08700347,-0.09093883,0.12976335,-0.016489407,-0.027539644,-0.13237035,0.04048153,0.09108586,-0.109968,0.0019835427,0.086210914,-0.05509852,0.08184721,0.11412949,-0.02114026,-0.005054101,-0.06553058,-0.031300392,0.019006344,-0.09440751,-0.031926498,0.099092856,-0.031860188,0.004675938,0.15769534,-0.05727798,-0.0022334044,0.09739833,0.108972676,-0.083854735,0.13635567,0.04216796,-0.145356,-0.053911526,-0.032060172,-0.02655081,-0.003092572,0.026725797,-0.09013264,0.11759977,-0.12457672,0.14071631,-0.033895306,-0.056901928,-0.03412878,-0.13967195,0.09352179,0.140086,-0.06338411,-0.009763947,-0.12869453,-0.09411791,0.15331464,0.030739827,-0.07264265,-0.12769875,0.08974961,-0.0010485218,0.057633664,0.16088219,-0.026286967,0.014898419,0.0021706522,0.12316286,-0.028470093,-0.056496628,0.15721032,-0.04046945,-0.1083337,-0.11380827,0.04271444,-0.13761127,-0.14361693,-0.0070690853,0.124233454,0.11224135,-0.09525629,-0.046177804,-0.011716835,0.12326788,-0.024972668,-0.05815249,0.13780491,0.07284315,0.09153353,-0.05715343,-0.13129586,-0.06813497,0.027774526,0.17024195,0.010498966,0.1393443,-0.09143453,0.049104754,0.11317525,0.06121077,0.026667546,0.057839736,0.10774609,-0.0469127,-0.0033637101,0.11510258,-0.009298086,0.11787354,-0.11169252,-0.06443472,0.08568538,-0.11011816,-0.016329201,0.02941469,-0.0033661085,0.14064296,0.024451014,-0.09131642,0.041454535,0.096651696,0.040901616,0.09395472,0.1362911,-0.03799013,-0.031173037,0.08730498,-0.01477605,0.1300756,0.033244636,0.12805197,-0.035768893,-0.07159647,-0.07338042,-0.080257304,0.09520551,0.09408449,0.1166123,-0.12600222,-0.04460618,-0.018385876,0.11717733,-0.07919115,0.023013067,-0.055875078,-0.025551429,0.08928469,0.09420672,0.07378539,0.13956806,-0.038084082,-0.13733095,-0.026052704,0.11192188,0.03806874,-0.11024423,0.10240443,0.14167506,-0.00731647,-0.14107175,0.101954505,-0.04014858,-0.1145488,0.042206623,0.15004581,0.025716878,0.15489477,0.093453735,0.1361164,0.047208134,0.09262226,0.0778734,-0.13817032,-0.052817557,0.064375855,-0.13961607,-0.05999896,0.05639249,-0.07818446,-0.03173896,0.08149751,-0.03912998,-0.03977068,0.055693213,0.095871575,0.10946784,-0.12504444,0.13406186,0.14834799,-0.14586557,-0.026728816,0.102146916,-0.11039488,-0.042607043,0.030425558,0.13578834,-0.14831132,-0.08614558,-0.11978193,0.13980573,0.013031412,-0.038141266,0.08374813,0.105072595,-0.091759324,0.045610253,0.07393354,0.02405953,0.13164346,-0.05482112,-0.022839526,0.111541964,-0.14114885,0.074835084,-0.003982917,-0.0053125652,-0.018813157,0.106149204,-0.019900206,0.12512925,0.017545296,-0.02705416,0.044578124,0.059420493,-0.10831109,0.10564548,-0.04630291,-0.09805521,0.0172964,-0.13016884,0.047756508,0.041942034,-0.14806953,0.11851393,0.044302616,0.049644165,0.015979094,-0.056138743,0.06915901,-0.07018364,-0.022663636,-0.013488249,0.13418356,-0.008969335,0.096471645,0.024361793,0.014588334,0.1570115,0.10415101,0.057727654,-0.048753794,0.15122528,-0.1545009,0.07701412,-0.031470794,0.1568128,0.115871705,0.14733042,0.08204574,-0.14823517,0.16724655,-0.0027063042,0.08563293,-0.026296735,0.015615638,-0.042078685,0.007834873,-0.00021948459,-0.010831342,0.039512422,0.058923293,0.006963289,0.11609463,0.006246517,0.053273343,-0.08407146,0.08569651,-0.05669639,-0.13037746,-0.071538605,0.15935019,0.09417743,0.10070667,0.09846147,0.0064097648,-0.08108829,0.067244746,0.07465636,-0.12955062,-0.047662176,-0.08634279,0.16296475,-0.047690906,-0.051746294,0.068363175,0.026048332,0.049762998,-0.08332311,-0.03496357,-0.1409827,-0.098255105,-0.0866808,-0.14615229,-0.1317726,0.062055632,0.0023062318,0.07941944,0.08128027,-0.048231363,0.06884645,-0.07166912,0.03327546,-0.1378514,0.10599767,0.0048086117,-0.06766559,-0.09138522,0.12181062,-0.052683655,-0.04045083,0.15265816,0.054491136,-0.09745747,0.021361403,-0.12816085,0.052919902,0.0030226528,0.11060633,-0.020095887,-0.0739556,-0.09733429,-0.035735775,0.12951732,0.1249117,0.14208367,-0.028078897,0.017271804,0.14291053,-0.096435614,0.1412553,-0.07547342,-0.11603591,0.08200167,-0.10131379,0.14226379,0.16180797,-0.096393086,0.07907793,-0.07919798,0.011428135,0.059592217,-0.065542474,0.09746804,0.100821845,-0.084842585,-0.019548,0.14788193,-0.14672609,0.16099872,0.1252073,-0.11577984,-0.012762824,-0.035594836,-0.01986448,0.1196271,-0.09558123,0.05027673,-0.06590526,-0.02346147,0.06713638,0.11536687,-0.047727954,-0.032935277,-0.02953566,0.069702335,0.116262645,0.17037264,0.09337173,0.07185373,0.0697546,0.063074455,0.024809614,-0.10114973,-0.10931465,0.012588163,0.028273383,0.10331434,0.10928191,0.02031729,0.085676104,0.054276455,-0.03316083,0.00819496,0.10930916,0.067321874,0.004989316,0.11769747,0.08182452,-0.110346206,0.09493343,0.0823604,0.06550348,-0.07624989,-0.026742432,-0.03226291,0.00065161125,-0.12047489,0.037479293,-0.11726978,0.04948341,-0.06645225,0.005713476,-0.07526752,0.16530365,0.055860955,0.009226066,0.13057862,0.058977224,-0.10532698,0.04747842,-0.054282665,0.08685267,-0.056944404,0.03389718,0.14369316,0.13115919,-0.06501929,-0.13604823,0.0025914342,0.1429412,-0.06010142,-0.09115972,0.0069752233,0.100023806,-0.08295475,-0.07391039,-0.109369695,-0.07605053,0.1357413,0.049621414,-0.07998588,0.09621863,-0.015594177,0.055911537,0.054176055,0.13880304,-0.09015477,-0.02316626,0.12812798,0.12532087,0.12790194,0.0804979,0.05075733,0.020758582,0.07565745,-0.025006201,-0.12491945,0.049037557,-0.016314223,-0.13207777,-0.1268896,0.107445285,0.026657576,0.10270613,-0.15019886,0.0053393766,0.008205187,0.11156887,0.05207226,0.088788226,0.13618796,0.15487131,0.13772467,0.16664673,0.023198212,-0.047535937,-0.086325705,-0.051666364,-0.10623908,0.10463924,0.12709515,0.10273972,-0.06987841,0.11480262,0.029273855,-0.057772435,0.17176646,-0.059879992,-0.041147426,0.04436075,0.113430984,-0.020308387,-0.07148576,-0.116182044,-0.027200142,0.028408214,0.050706,0.0705218,-0.014452018,-0.111284465,0.11652622,0.09058865,0.07954751,0.15495127,-0.076738454,0.003586381,0.16913918,-0.016487436,-0.07305888,-0.11544252,0.07548764,0.058134153,-0.08288337,-0.050466534,0.15992413,0.12675935,-0.020440694,-0.10232094,0.033428222,-0.0323525,0.065909036,-0.07849518,-0.044701252,0.009664024,-0.054941677,-0.102010995,-0.031472206,-0.004249146,0.04955743,0.1312263,0.09975309,-0.0721082,0.06519025,-0.08212594,-0.012534882,0.12311282,0.12672149,-0.016823635,-0.12829377,-0.04009277,0.1372582,-0.12058101,0.037395,0.0053785727,0.1362684,0.013610109,0.04868489,0.038188968,0.086207636,0.1459799,-0.0061423946,-0.08325214,-0.007533475,-0.08782132,-0.042799488,0.06470468,0.11102863,-0.119156286,0.11042828,0.063606925,0.11268449,-0.14765446,-0.019824872,0.12615687,0.07021103,0.058092773,0.07728277,0.078168795,0.050374858,-0.110781156,-0.07550526,0.13160117,0.10414183,-0.11042571,0.061392892,-0.07715412,0.011453072,-0.056029793,0.05251514,-0.08910328,0.14889963,0.019801049,-0.051355004,0.022507818,0.17086233,-0.026775522,-0.06031607,-0.045617834,-0.011625279,0.099746205,0.057036508,-0.030301405,0.04033115,0.09070365,0.11217846,-0.066926554,0.13160956,-0.066174075,-0.111711785,0.014283414,0.109939255,-0.071599156,0.113354474,-0.02573538,-0.0042672143,-0.0055392664,0.1717878,0.113120474,0.1083929,-0.09764514,0.12754685,0.06047871,0.045630462,-0.012734168,0.05435248,0.1554955,0.039712753,-0.13421367,0.037845112,0.052308172,0.05449765,-0.15446694,0.06305606,0.122255675,-0.03090902,0.056388676,0.014695484,-0.0909491,0.12143835,-0.07623512,0.062610276,0.034543086,0.08726695,0.16231623,-0.079975635,0.04449573,-0.124668084,-0.12528904,0.12338698,-0.030476991,-0.024460683,-0.04645825,-0.10830464,0.10434557,-0.09624377,0.12241014,-0.032485988,-0.11911256,0.015152752,-0.013510911,0.089107625,-0.091058075,-0.11412075,0.046051484,-0.0023260333,0.09534883,0.11095565,-0.06955928,-0.083797894,0.0604314,0.0003518051,-0.11362693,0.10422598,0.100584105,-0.1276742,0.022305116,0.019559933,0.07108166,0.078314126,0.1177932,0.045570523,0.04638958,-0.09071747,0.049803946,0.10542644,0.021373283,-0.012695258,-0.079969324,0.0551259,0.10380313,0.045603603,-0.030954814,-0.10040021,0.10655614,-0.07249261,-0.10016864,-0.13948211,-0.007526785,0.06326789,-0.083589815,0.06807905,0.12915097,-0.012411104,0.09431914,0.043073263,-0.11751618,-0.02331831,0.08785331,0.0101475315,-0.03192455,0.054568253,-0.110838875,0.10720645,-0.14156651,0.1282225,-0.10367495,-0.01966001,-0.031076698,0.031068137,0.15850884,0.14688532,-0.1020179,0.12410938,0.114280835,-0.045626983,-0.108934246,-0.13181667,-0.0055713565,-0.017461019,-0.031627513,0.12748952,-0.03983966,-0.12065521,0.10042327,-0.068616174,0.078949794,0.08308064,-0.094101705,0.07415024,0.008569443,0.0057447166,0.036467254,-0.1084575,0.014084334,0.038649123,0.04510261,-0.11192108,-0.119618446,-0.0024914965,-0.12342353,-0.07659501,0.075159505,-0.11987776,-0.04147741,-0.035559684,0.12980507,0.019475445,0.12877597,0.122876234,-0.010907477,0.12987782,-0.022863943,-0.04415874,-0.09107164,-0.15084705,-0.08315202,0.11921872,-0.07614845,-0.118087865,-0.040957294,0.15220699,0.08409159,-0.0215466,-7.752556e-5,0.13035265,0.13219917,0.056435175,-0.0068452004,-0.050392818,0.037993655,0.123234026,0.065581754,-0.12445847,-0.083954364,-0.0962435,-0.10027286,-0.07038013,0.004016979,-0.0042619566,-0.1455252,0.11606912,0.0362917,-0.08279673,-0.06927404,-0.08879014,0.018681329,0.060875196,0.0059569576,-0.031155573,-0.044571348,0.004869837,0.052987155,-0.03459363,0.037034925,0.043955795,-0.08379467,0.075433776,-0.022753732,0.09414684,-0.12185209,0.017866593,0.024325514,0.041169226,0.15090565,-0.09350436,-0.14600097,0.07590313,0.0515112,-0.10766885,-0.13991764,-0.08555091,0.08441951,-0.08689774,-0.11606226,0.0953909,-0.118457094,0.08868533,-0.10140562,-0.09367696,-0.05883525,-0.05887576,-0.08664503,-0.07256036,0.042447653,0.15293732,-0.00025073328,-0.12747778,-0.1404541,-0.078733705,-0.05260429,-0.080278344,-0.0720119,0.06675632,0.04871746,0.14360349,-0.013163481,0.06814053,0.09437624,-0.0018775433,0.021029321,-0.12169387,-0.039817106,0.030982764,-0.039564606,0.0880176,0.036265623,0.1014144,0.048425354,0.116130695,0.034411184,-0.0661779,-0.0581638,0.031412005,0.13425286,0.081829116,-0.07714302,0.009866545,-0.06142354,-0.008507788,-0.0038140418,0.06489025,0.11710874,-0.04382353,0.086995155,0.021654995,-0.080834724,0.05256969,-0.021081816,-0.044593915,-0.0039891237,0.064669825,-0.1175746,0.056189522,-0.035746418,-0.022248683,0.11778392,-0.057987373,0.07105066,0.11724829,0.10466479,0.005755019,0.06464801,0.007822542,0.11435549,-0.049922477,0.12662576,0.12933114,0.059551734,-0.07521129,-0.12212084,0.13297243,0.011032705,-0.016851032,0.0038364336,-0.10392673,-0.08499135,-0.09523266,0.03106308,-0.04313552,-0.047884166,-0.022221928,0.15400457,-0.10308125,-0.078358494,-0.014443817,0.13898253,-0.09051613,-0.07054739,-0.1433207,0.12914641,0.016171359,0.00748626,0.1455493,0.14337143,0.068124734,0.14274727,-0.10239325,-0.10671164,0.038460776,0.11681765,0.06460559,0.11745439,0.07944049,-0.08925638,0.062499367,0.13012505,0.074329466,0.056955718,-0.0025335338,0.11373852,-0.039299507,0.025955442,-0.0013019254,0.07389446,0.14314532,-0.14322197,-0.13422231,0.0682964,0.0183418,0.014122493,-0.11873295,-0.106289245,-0.06706352,-0.118606664,-0.025223507,-0.12235847,0.09355171,-0.14347766,0.12857802,-0.038082227,0.007615023,-0.033233598,0.09304657,0.09786521,-0.069459476,-0.079526514,-0.03689482,-0.0022754183,-0.08445028,0.07743463,-0.027120672,0.17342168,-0.11527384,-0.054460417,0.08143974,0.16267572,0.1369617,0.1128436,0.123168655,0.05145229,0.11227907,-0.065990515,-0.005709685,-0.1259623,-0.08971196,-0.072531976,-0.08490302,-0.066077694,0.12777424,-0.0034488551,0.09077979,0.03520227,-0.10109911,0.02309906,-0.106047995,-0.0029637495,0.12823682,-0.11978484,0.14072505,-0.11623118,0.07197495,0.074431285,0.10458777,0.05806121,0.075736016,-0.056728046,0.17476824,0.09196663,0.088523015,-0.12127533,0.097213104,-0.14890319,-0.09080768,-0.013880357,-0.03781745,-0.1076748,0.10893624,-0.003756263,0.121312514,-0.022383025,-0.13571207,-0.10640372,-0.0038204943,-0.077488996,0.01768223,0.13267529,-0.12430509,0.14605719,0.13975477,-0.04358584,0.0847451,-0.025016317,-0.052680124,0.12720312,0.024739936,0.13654232,-0.09859266,-0.115657374,-0.07123859,-0.14444017,-0.12530097,0.03854798,-0.039771732,-0.13897254,-0.0833572,-0.13834661,0.10901448,0.022813447,0.03510716,0.08611715,0.06511821,0.123455845,-0.091442645,0.011592638,0.018571503,-0.07830163,-0.13901202,-0.07180425,0.13538817,-0.11257784,-0.043975934,-0.124111384,0.13491689,0.041336898,-0.059800025,-0.030631253,0.077123486,-0.09539078,0.06058804,-0.08111257,-0.1267366,-0.108062156,-0.018037308,-0.1332777,0.033279777,0.13276124,-0.14405742,0.06452246,-0.048915762,0.03597785,0.0364788,0.06502011,-0.12033675,0.0054009114,-0.07501244,0.037271556,-0.022363015,0.07867418,0.060523573,0.074304886,0.0032811624,0.041509137,-0.031674553,0.03515027,0.086358435,0.0758791,0.0109483795,0.031118458,0.024209598,-0.0994872,-0.037274297,-0.07529879,-0.021581197,0.15771885,-0.05694735,-0.08236797,-0.005895006,-0.13475767,-0.11661739,0.14180939,-0.1245607,0.059119504,-0.02426201,0.112176836,-0.0472084,-0.115818575,-0.14702244,-0.13184772,0.117125176,0.062281467,0.031432033,-0.028629338,-0.08662773,-0.056266356,0.057076767,0.05071463,0.059886336,-0.056153532,0.14953999,-0.039237212,-0.047491577,-0.11535301,0.14006196,0.10274173,0.1461541,-0.16010435,-0.037597764,-0.01255611,-0.105671465,0.0044171237,-0.014394772,0.14575732,0.010095748,-0.15949029,-0.079498105,0.014276442,0.075631075,-0.11640845,-0.04043465,0.1158016,0.15193863,0.077086456,-0.07954136,0.13327533,-0.10998052,-0.14613242,-0.105856374,-0.11272891,0.109878436,0.1592163,0.048977714,0.03361762,0.16623643,0.124652855,-0.07355142,-0.10970771,0.10527106,0.05408722,0.10460645,0.14874053,-0.12923677,0.09975872,0.019413939,0.09826696,-0.0589262,0.026936501,-0.08721165,-0.12624513,-0.017327223,0.13635115,-0.08400516,-0.13697071,-0.14250422,0.16105138,0.13972303,-0.029885473,-0.09669919,0.15068795,-0.0017452473,0.07299238,0.11470169,-0.02471533,-0.06591373,-0.01833042,-0.015904272,0.10804907,0.111058645,-0.03076709,-0.02176293,-0.14126566,0.16863264,-0.08090417,0.13336194,-0.091956474,0.12768432,0.036610506,0.0045352736,-0.01290222,0.08630007,-0.11750739,0.087987475,-0.09960964,-0.0024672274,0.11550786,-0.104287654,-0.07807278,0.12902963,-0.105198644,0.068059325,0.15720747,-0.030625816,0.019456172,0.093136065,-0.112717405,0.113306694,0.011418723,0.01589597,-0.025670748,-0.06631429,0.03365517,-0.07215371,-0.052253664,-0.066129245,-0.03343454,0.13454281,-0.1632342,0.064435974,-0.07753841,-0.11048216,-0.15011425,-0.02696923,-0.029177368,-0.100538336,0.16952313,-0.12867455,-0.09197016,0.005113121,0.0328312,0.09167315,-0.019689292,0.010432681,-0.04954427,-0.08407409,-0.0042730696,-0.0029786562,0.11957474,0.09684028,0.13446869,0.032360222,0.05978526,0.1519359,-0.100258514,-0.0036848327,0.09834598,0.0793881,0.15069497,0.14379546,-0.12934162,0.12716055,0.14492126,-0.14581272,0.10114086,-0.039381664,-0.12352003,0.11320513,-0.09519932,-0.092091426,-0.08863123,0.13354339,0.102077,-0.05047267,-0.09622549,0.074408196,-0.07230629,0.044453014,-0.1193762,0.086889096,0.031672243,-0.06912937,-0.092476115,-0.10447609,0.05429404,0.076163106,-0.08255788,-0.13210836,-0.014439251,0.010821503,-0.04382806,-0.083762206,0.11886954,0.09449362,0.04257106,0.0053221793,0.044205632,-0.14291866,0.0023729505,-0.07802225,-0.04601983,-0.026747135,0.07599451,0.014995932,-0.07096809,0.07337394,0.07231828,0.16050988,-0.118232146,0.06948084,-0.09816468,0.072896995,0.13456063,0.07963279,0.062382616,-0.022884874,-0.07440723,0.09030051,-0.06543462,-0.008017971,-0.10406928,0.018796304,-0.048992485,0.03295649,-0.04692929,0.09746003,0.14466839,-0.006057398,0.058651734,-0.0064951736,0.049209192,0.095975414,-0.111006565,-0.14043191,-0.017019555,0.08858854,-0.058188893,0.13894953,-0.13378048,-0.01138071,-0.026780557,0.12763761,-0.016657006,-0.048981853,-0.05104795,0.13249129,0.06605742,0.10102842,0.009683614,-0.05187624,-0.13268815,0.10119546,0.15986632,-0.00020381757,0.05569479,0.04325911,0.00477599,0.09374614,-0.11166882,-0.149601,-0.11897265,-0.01603434,-0.02599204,-0.07388333,0.0050837873,-0.03239118,-0.11777816,0.046528194,0.124081776,-0.093353346,0.036214177,0.1336,0.045132287,-0.11745385,-0.004322891,0.0990333,0.040594514,-0.0371184,-0.057717808,-0.005899536,0.066597186,0.09000806,0.08675958,0.13155195,0.09434283,0.1466212,0.042502448,-0.00985375,0.027270023,-0.008297657,-0.028847514,0.018055027,-0.020324588,-0.041432746,-0.022604238,0.0062644514,-0.03982156,-0.11113328,0.012851117,0.02836143,0.07066212,-0.1110516,-0.102671035,-0.05681986,0.10055698,0.11460281,0.11784163,-0.051237352,-0.10397627,0.009190044,-0.061849028,0.1330288,-0.037039995,-0.10075566,-0.004579834,-0.032678694,-0.061384987,0.002875801,-0.101302505,0.078175165,0.052911412,-0.05079259,-0.110583745,-0.010269071,-0.07128437,0.06597073,-0.1441035,0.12031337,-0.07232499,0.007542422,0.0433411,-0.14594814,-0.13300946,0.06829125,0.09739081,0.023525532,0.15595005,-0.081805356,0.055139508,-0.05480699,-0.0099906,-0.10635392,-0.10670948,0.12357396,-0.043338463,-0.027843626,-0.07420193,-0.11840987,0.14206094,-0.010472617,0.073509626,0.08596283,0.10977669,-0.09222635,-0.09321545,0.10300956,0.1424955,-0.142739,0.0323463,0.07519544,0.083558954,-0.080207154,0.017930076,0.1185452,0.08662994,-0.011935033,0.15234582,0.15382051,-0.0431483,-0.10824311,0.107002564,0.057478104,-0.0009433448,-0.06428886,0.10689321,0.06836482,0.07532178,-0.12693477,-0.101910576,0.063663006,-0.071113706,-0.043179035,0.14105614,-2.2248723e-5,0.08724287,-0.13782774,0.13415621,0.039156128,-0.029751161,0.027558317,0.0719806,-0.05858464,0.117475726,0.0035793043,0.039738733,0.07324105,0.02096459,0.05466123,0.02019378,-0.026412396,0.09801306,0.09745907,0.10673905,-0.12140928,0.081210844,0.13540879,0.1160809,-0.0975613,0.10586641,0.08462969,-0.1034726,0.036730554,0.045685805,0.11029386,0.08365649,-0.019501993,0.0020686295,0.023567392,0.09125431,-0.045172237,0.023526119,0.033887148,-0.058171928,-0.0010323139,-0.016301425,-0.015977276,0.12639321,-0.007757286,0.050690584,0.13536191,-0.019306488,0.05756857,-0.08983571,0.05268246,-0.021492401,-0.026898004,0.1426477,-0.03930225,-0.041570913,0.13409732,-0.055603635,-0.09446621,0.0005180715,0.092153706,0.14002758,0.04765287,0.05925717,-0.12784457,-0.05255249,0.021234725,-0.11267867,0.02789194,-0.06278103,0.029065534,0.13129392,-0.13536537,-0.03894782,0.059847545,0.033961073,0.06308928,-0.06506588,-0.017161418,-0.05975916,-0.04750452,0.10501411,0.05527892,-0.014299842,0.114470065,-0.113140546,-0.115358226,-0.105929144,0.15134823,-0.14530821,0.11584572,0.03193021,-0.085899085,-0.09064279,-0.07602813,0.067447655,-0.006186435,0.012850065,0.0027388157,-0.029036887,0.15380001,0.0751397,-0.11908373,-0.03059351,-0.010896925,-0.054977138,-0.12773708,0.111138925,0.111699305,0.078856155,0.036087118,-0.028248712,-0.0037840083,-0.087969646,-0.08784759,-0.000541605,0.09360203,-0.1286297,-0.0655133,-0.012692065,0.012740588,0.13513646,-0.008990114,0.11942172,0.07198044,0.11515746,-0.0031986302,-0.0117029315,-0.07716331,0.12946324,-0.1279459,0.017400853,0.01756581,0.08335144,0.0837792,0.14707853,0.040916715,-0.13622922,0.07758025,0.024179643,-0.035099465,0.15582815,-0.07833434,-0.015874907,0.020046972,0.14742073,-0.14519045,0.12331425,-0.001273176,0.14855638,0.11943864,-0.092907265,0.08657437,-0.13984232,-0.123779245,-0.0872536,-0.01174452,-0.058839478,-0.12686463,-0.10680309,0.07409057,-0.13146421,0.04056483,0.104323015,0.11033884,0.111411065,-0.09654769,0.0067574577,0.026699305,0.13389131,0.12097098,0.09102093,-0.09430169,-0.061002143,-0.010938422,0.016583906,-0.08787782,-0.10685332,-0.13232686,-0.088214636,-0.115789205,-0.043593735,0.05895916,0.021385357,0.054028742,-0.1048025,-0.04862052,0.13071544,-0.0437615,0.12092362,-0.08316083,0.033943,0.14633699,0.08633344,0.11066113,-0.12414654,-0.027534133,0.06992785,-0.077224106,0.02247987,-0.0909018,0.013754899,-0.0447589,0.12518495,0.08488741,-0.036182165,-0.096181475,0.076068655,-0.10213553,-0.010533303,-0.13707046,0.041445814,-0.061078805,-0.06340788,0.011955856,0.07361275,0.043368362,0.11538925,0.13648738,-0.069147035,0.11087124,-0.060685556,-0.101564534,-0.111373276,0.06387791,-0.12911794,0.10441115,-0.05832934,0.01609856,-0.013924102,0.015520456,0.029383494,-0.1214592,-0.021423064,0.09804414,0.030041764,-0.052811764,-0.11106943,0.08687516,-0.12988128,0.15686844,0.1388684,-0.0032515286,-0.006780868,-0.06828997,-0.05815588,-0.042262357,-0.09485856,-0.014981499,-0.08058666,-0.09871431,-0.0782988,-0.032584187,0.06981963,0.14114329,-0.06335738,0.07177619,0.119748294,0.056900553,-0.07560553,0.1392567,-0.07380782,-0.0064614564,-0.04040334,0.076744236,-0.11541325,-0.099412456,0.058607634,-0.038093977,-0.08466679,-0.060640704,-0.11039911,0.100665055,-0.11846991,0.11425246,-0.030935874,0.09461653,-0.039718993,-0.0059619276,-0.004952632,0.0015690309,-0.1361528,0.14297943,0.13199161,-0.015495296,-0.04962453,-0.036491748,-0.03592391,0.021504609,-0.12582818,0.07188163,0.07681277,-0.057636116,-0.15068258,0.08837473,-0.092575975,0.05585548,0.013082123,0.006093705,-0.0019748255,0.13372777,-0.0640028,0.0017052024,-0.0021441246,-0.12622191,0.04123184,-0.123925276,0.013925642,0.07719741,0.0075928275,0.0886888,0.096857056,0.15724841,-0.12947102,-0.10054611,-0.05489029,-0.0641612,0.07902948,0.1535876,0.08021474,0.15765941,-0.024963412,-0.11474731,-0.05381914,0.08064009,0.111502185,-0.05892429,-0.039192032,0.06300396,-0.010562473,-0.0838541,0.08437162,-0.15428233,0.14162472,-0.13178155,-0.06391232,-0.04879009,-0.027443863,0.04327167,-0.049972635,-0.08233665,0.13324158,-0.1174181,0.1627548,-0.04616531,-0.019759342,0.15473585,0.13400407,-0.0045044445,-0.0630073,0.14284544,0.028691098,0.019071419,0.0144805955,-0.056584038,0.13423301,0.08562625,0.08382568,-0.01652925,-0.01294522,-0.10129201,-0.027584614,-0.061119687,-0.018849455,-0.06619015,0.04579178,0.109238714,0.013894894,-0.11285228,-0.034999713,-0.056842923,0.06767111,0.12845339,-0.11163226,0.1369034,0.013219573,0.04982257,0.123644546,-0.08311537,-0.0079831,0.08830336,-0.104336075,0.031772472,0.09792026,0.011290445,0.022068152,-0.12268544,-0.13760512,-0.065268755,-2.5809932e-5,-0.099120826,0.09004104,0.13064256,0.036983866,-0.026485752,0.09284992,0.00068295543,0.116758965,0.011617395,0.106119916,0.021403193,-0.006595713,-0.013698403,-0.047896706,0.044297174,0.029936329,-0.12911832,-0.10626472,0.11331643,-0.065974645,-0.102846555,-0.10193673,-0.08060597,0.074701704,-0.022551388,0.09928036,-0.084221214,0.03468113,-0.094217725,0.07605772,-0.09342268,0.12168857,-0.14574373,-0.10254222,-0.09880706,0.015182555,-0.06963873,-0.07379001,0.0700154,-0.024463322,-0.05303347,-0.0031532403,-0.046098806,0.06689599,-0.05182234,-0.121304646,-0.119004674,-0.009029038,-0.14557229,0.121217735,-0.034002054,0.038500983,-0.086596325,0.003134752,-0.11906601,0.14983717,-0.13920474,0.023467502,-0.098098606,-0.065472625,0.11258712,0.13990496,-0.13046269,-0.09750998,-0.0384155,0.12509018,-0.064811416,0.08042385,0.09852006,-0.14856887,-0.0049340557,0.01711733,0.0039978465,0.08213852,-0.01766021,0.11499224,-0.011840184,-0.00034427052,0.04308616,0.01455373,-0.05387227,-0.118815295,0.1703859,0.098945096,-0.03471908,0.12593779,0.11170715,0.015376874,0.16426654,-0.07989901,-0.09685683,0.052253343,0.14939201,-0.04342522,-0.13528307,-0.02209736,0.11696006,0.13990866,0.13584726,-0.13553308,0.13024522,-0.047617197,0.11059443,0.13001917,0.0060668937,-0.00788281,0.10075591,-0.0961352,0.09650716,-0.108518645,-0.02316888,-0.09756028,0.027343646,0.12437538,-0.07410513,0.12377306,0.016402725,0.028429523,0.08716713,0.034813527,0.033792585,0.049998336,-0.05376102,0.05648342,0.07204422,0.10783893,0.04666573,-0.018614259,-0.03108321,-0.050847404,0.016382048,0.09709648,0.074084766,0.11580153,0.09351472,0.07062781,-0.13207477,-0.11509606,0.14560027,0.037886824,-0.1225784,0.013019187,-0.027467407,0.13654813,-0.037939977,-0.007397545,0.030717954,0.0077344566,-0.11468604,-0.027274095,-0.1179134,0.033267457,0.15592913,-0.06369307,-0.07267736,0.117270954,0.038533054,0.050385877,0.025186261,0.040381867,0.06759964,0.0122773945,0.056834936,0.04521872,0.12882413,0.12633845,0.061150208,0.14822498,0.13381326,-0.118760936,0.15011898,-0.048482116,-0.11056535,0.044462655,-0.07029605,-0.016950719,0.08936995,0.01171523,0.021637041,0.0064996965,-0.0540084,0.048721716,-0.10938573,0.061808314,0.097404286,0.11299218,-0.057637636,0.031822745,-0.04939869,0.064423226,-0.09240619,-0.0713567,0.13605085,-0.04631048,-0.09461611,0.1562337,-0.03563508,0.11358437,0.12646767,0.09001789,0.010076857,0.12235589,0.05064901,0.12575532,-0.05982537,0.14240131,0.029147258,0.15820774,0.1364473,0.08139169,-0.073964745,-0.08176196,-0.032444056,0.10622431,-0.11554807,0.03716375,0.08278678,-0.10404801,0.100559406,0.08925935,-0.020276284,0.041199215,-0.034763563,-0.10849115,-0.035712235,0.10622975,0.1291113,0.09754268,0.014981235,0.028367126,0.038276095,-0.04239209,-0.08464309,-0.03396044,-0.023841992,0.115736604,0.05971252,0.16736896,-0.09375935,0.067095704,0.109341204,0.03395758,-0.08295244,-0.012082951,0.14923975,0.108752765,0.07458675,0.004780394,0.14210981,-0.11780345,0.03376068,0.12246162,0.08248679,0.08204968,-0.06145971,-0.018135522,-0.14733712,0.0009189559,-0.027186401,-0.049061053,0.103935115,-0.10964995,0.013857626,0.044625197,0.039993845,0.14443786,0.09736534,-0.0549344,0.09109827,0.14613979,-0.13602555,0.040776424,-0.086326495,0.1054021,0.1452754,0.07174858,-0.010752532,0.022027256,0.15675916,0.075568594,0.0828237,-0.07477252,-0.00014911467,0.08762292,-0.045370344,-0.050263602,0.05651684,-0.051338587,-0.11671963,0.06834022,0.1645956,0.009828121,0.026164394,0.15316759,0.1039851,0.06946357,-0.013498625,-0.038737323,0.030334268,-0.046606224,-0.0840314,0.15101053,-0.15022369,0.10787198,0.00094788626,0.12467555,0.041743502,0.15148862,0.1235522,0.076911375,-0.008657914,-0.002966142,-0.03832752,0.032334022,-0.0073178364,0.050441872,0.13129188,0.05248979,-0.03563954,0.092026345,-0.11810081,0.048959494,-0.090495706,-0.14735103,0.0068031913,-0.046448227,0.039625183,0.065146424,-0.01838845,-0.046482056,0.11894006,-0.017521096,-0.063525826,0.14742625,-0.048773833,0.060123745,0.13964103,-0.097961344,0.05527548,-0.04614986,0.15089871,0.063620746,0.07679877,0.0032400712,0.0699945,0.049685307,-0.1378822,-0.11049366,0.04526078,-0.0141923595,-0.03147363,0.06508959,0.020335091,-0.05072276,-0.020104254,-0.06629767,0.1530875,0.027526034,-0.011111887,0.0357662,0.024163395,0.078257956,-0.032340173,0.043245178,0.10870725,0.08979096,0.09715694,0.08750404,0.02950557,0.065535665,0.118800804,-0.0017567172,0.12644461,0.012505189,0.00554397,-0.011555344,-0.060255546,-0.13304938,0.054317094,0.06889729,0.024977094,0.004976651,-0.0138612,0.04040533,0.04215452,-0.09080913,0.0670112,-0.073751755,-0.13959587,0.054858718,0.13454284,0.054489665,0.14244348,-0.032504268,0.100687094,-0.0077629793,0.012921947,0.04429511,-0.055846985,0.032464754,-0.0781639,0.1393118,-0.09965938,-0.049327504,0.114254765,-0.13453634,-0.0063376627,0.052259758,0.12406143,-0.121176444,0.04563589,-0.13527745,0.027098553,-0.13345739,0.12624955,0.1078137,-0.14500996,0.091818534,-0.012227105,0.065969184,0.0405606,-0.04377106,-0.022688193,0.057394333,0.12945867,-0.10887682,-0.071133636,0.12321694,0.12147681,-0.08655539,-0.07816942,0.051375363,0.09091373,-0.054522112,-0.0403333,0.16168016,0.0027076683,-0.032806557,0.134418,0.13708606,0.1112888,0.06221586,0.005944467,0.045802847,0.016076501,0.120021045,0.090337686,-0.07009875,-0.09896533,0.13898039,0.08332847,0.10285337,-0.056934,0.06285341,-0.11254598,0.015936691,-0.11829996,0.054662112,-0.052187737,-0.02096993,-0.112485,0.02543971,-0.079648115,0.014375231,0.06594076,0.103191085,0.057801854,-0.15627804,-0.024294417,0.10798312,0.079132274,0.06363123,0.015352378,0.031181283,0.042592242,0.13508178,-0.014449251,-0.08795247,-0.09847023,0.03991266,0.0037866344,0.07489411,0.047489583,-0.044882476,-0.08721545,0.1234749,0.10501346,0.053394936,-0.084988736,-0.09519974,0.059262592,-0.03563855,-0.036061153,-0.14022268,0.006805675,-0.022135587,-0.076168664,-0.13661751,0.07781059,-0.12709697,-0.012172075,0.023907917,0.021854447,0.097033724,-0.1047698,0.0365582,0.0141697,0.035140168,0.025977438,-0.029938094,0.088620536,0.020616679,-0.095155016,0.15393376,-0.037049633,0.111205116,0.08532061,-0.081798844,-0.14822641,0.15361461,0.05126311,0.07109659,0.07368567,0.10453453,-0.02882231,-0.04089965,0.011152921,-0.06014111,-0.03260136,0.0036573547,-0.06515387,-0.072534114,0.016592968,-0.03854836,0.09913337,-0.08071408,0.06965083,-0.11971311,0.00059963105,0.0557263,-0.066230536,-0.062741235,-0.02724227,0.11783263,-0.13768055,-0.14625597,0.04538911,0.0003466354,-0.03639971,0.08181676,0.101945885,-0.05985746,0.15123162,-0.051588222,-0.1433585,-0.08327971,-0.035157405,0.065107144,0.14135565,0.08287174,0.14187147,0.071610175,0.122363634,0.14774978,-0.07574372,-0.082243554,0.05772635,0.13669613,0.022510739,-0.059296153,0.060808346,-0.1334334,-0.07936387,0.09515073,-0.09881057,0.10602294,0.017389936,-0.011289096,0.06065334,-0.11383484,0.022028519,-0.10566659,0.08610152,-0.012116937,-0.0101785315,0.14210933,-0.055931255,-0.078233235,-0.032727815,0.13259152,-0.103603244,0.12797207,0.14673434,-0.05809935,-0.06920153,0.1299584,-0.11050335,-0.10317867,0.032827057,0.05506138,-0.1096888,-0.051269103,0.133197,-0.04209639,-0.005892104,-0.03614664,-0.14264016,0.056402676,-0.09317031,-0.13090545,-0.14166814,0.12865378,-0.14309846,-0.07745502,0.031397194,-0.14737251,-0.018694608,-0.11449222,0.050916925,-0.024453731,0.09344583,-0.109426804,-0.03964348,0.16031662,0.07590994,-0.06870155,0.1750304,-0.09735222,0.14665262,0.12162219,0.09939283,-0.11484722,-0.08747508,0.048068743,0.054310165,-0.004995049,0.06976661,0.04450083,0.016502857,0.11878581,-0.11044578,-0.0805621,0.077237055,0.14530255,0.13688639,0.10987012,0.08151168,0.12126951,0.019911226,0.11545505,0.16039443,-0.016661597,0.13638322,0.07247838,0.05798407,0.10191141,-0.118901506,0.11650505,0.051686723,-0.07698944,0.026298912,0.02906212,-0.0831096,-0.0066003865,0.0569113,-0.058876816,0.045254823,-0.08963237,0.08977478,-0.13330807,-0.031164197,0.030365553,0.08280805,-0.095801726,-0.055897392,0.04033671,-0.09496858,-0.120041505,-0.110216774,-0.00010313271,-0.076992214,0.1313999,0.14496829,-0.019182086,0.026477542,0.019345742,0.13081807,0.08851177,0.11278429,0.119258426,-0.011219015,-0.0071934815,0.059513208,0.013708793,-0.065946795,0.16498761,0.028661113,0.1644286,-0.08688396,-0.035300057,-0.103918485,0.1253555,0.119031414,-0.13218795,0.106885664,-0.11434093,0.0037082292,0.09489787,0.12664452,0.07042356,-0.105670914,0.10034811,-0.064208426,-0.020660697,0.11264219,0.16042648,-0.04976438,0.037692912,0.012963828,-0.09502217,0.11427839,0.1656422,-0.029937245,0.062869266,0.094839334,0.1609211,0.0059133032,-0.027372546,0.106382735,0.030978533,-0.13863745,0.03652892,-0.059326775,0.13339841,-0.020016495,-0.024458839,0.13647433,-0.12355439,0.0017676204,0.005085245,-0.017537205,-0.0153273,0.080112115,-0.022521833,0.068350025,-0.050404392,0.101849385,0.0021886458,0.10323112,-0.081746794,-0.0993503,-0.044352747,-0.010527819,-0.057150494,-0.08035638,-0.041292273,-0.08568982,-0.024015278,0.041306715,-0.10584579,-0.10170558,-0.12190845,0.011800749,0.062100217,-0.13754314,-0.07311733,0.121965826,0.06975911,0.1553256,0.042607553,-0.033434585,0.1355613,-0.09534726,0.02879584,0.0039052318,0.0380434,-0.08828756,0.114710845,0.107421644,-0.08741148,0.059475344,0.0030437957,-0.078150295,0.0491975,0.082276724,0.16377719,-0.08903742,-0.05301329,0.03466761,0.12351057,-0.12964739,-0.08674139,0.010263697,0.04165507,0.03726596,0.00018691242,-0.090173036,-0.06961661,0.05733669,-0.047407936,0.1052188,-0.04128683,-0.014745552,0.008192433,0.07951999,0.10602474,0.015679918,0.10800554,0.023356633,0.10299067,0.040547494,0.14730859,-0.019979313,-0.045845397,0.07434088,-0.037559677,0.14686549,-0.14368735,0.039008956,-0.056705475,0.031071484,-0.1303947,-0.020014131,-0.072850324,-0.02990333,0.034091674,0.0966097,-0.08798854,0.024611527,0.11517974,-0.0845009,0.022658998,-0.092955016,-0.010442481,-0.06647447,0.11226272,0.1145422,0.0816492,-0.10980648,0.12524073,-0.027055927,-0.06267374,-0.08817474,0.123432286,0.07445413,-0.10574217,-0.12155034,0.13463444,0.07750109,-0.14410871,0.078081094,-0.11917041,-0.06285259,-0.030114448,-0.11628632,0.014740147,0.13692784,-0.09095247,-0.12221467,-0.06338848,-0.09284083,0.10967862,-0.10612896,0.06994566,0.11634115,-0.0076163737,-0.08672514,-0.008145272,-0.03515641,-0.060039107,-0.07219889,0.03542241,0.0037200376,0.09938908,0.06650402,-0.1375336,0.1375485,0.056937937,-0.10297802,0.13370758,-0.1200623,0.010667552,0.09477682,0.10676388,0.08274296,0.005640851,-0.06681693,-0.048689295,0.10884503,-0.088766076,0.14736615,0.029182013,-0.067472726,-0.04437943,0.1486866,-0.02209269,-0.014990393,-0.13117844,0.13045743,0.014847339,-0.028464181,0.032934252,-0.07777104,0.06842879,0.09225074,0.105073504,0.054239858,-0.11008773,0.012709856,0.08629934,-0.1444869,-0.021630093,0.060601193,0.06421624,0.06388624,0.006026688,-0.12020136,-0.1395882,0.116573356,-0.051638696,-0.058625076,-0.020794367,0.08946587,-0.049346678,0.12432761,0.052807085,0.033568025,0.09860061,0.01876247,0.06768162,0.13034447,0.042976122,-0.11828108,-0.041150182,-0.13028303,0.08905686,0.12988451,-0.02384099,-0.07699352,0.004300726,-0.035509046,0.044349756,-0.13031003,-0.1248202,-0.0817067,0.121807486,-0.13097188,-0.021443706,-0.04940077,0.015203191,0.15014844,-0.063873544,0.14821358,-0.08840653,0.051923525,-0.15787673,0.030816283,0.14309075,-0.111156315,0.028119497,0.120988436,-0.04695085,-0.07600258,0.06514559,0.10605783,0.07273216,0.010048401,0.124158055,-0.049078397,-0.04800478,0.15439603,0.13119583,-0.0560603,-0.06366459,-0.036210455,0.028150337,-0.10284121,0.04889822,0.015826672,-0.08215576,0.1304336,0.116910204,0.02945012,-0.07354558,0.02950974,0.0062043914,0.09783888,-0.117099896,0.1496854,-0.14656827,0.028072312,-0.094478,-0.04657892,-0.13091922,-0.06981584,-0.14226933,0.029194957,0.035738688,0.0960636,-0.077220194,0.10458529,0.032069795,-0.090641916,0.09935469,-0.055390652,-0.12288125,-0.07264249,-0.07850061,-0.04939858,0.06620382,0.039051812,-0.007939736,-0.05108106,0.051443253,-0.012374478,-0.10043801,-0.14185184,-0.1284242,0.011129229,0.08106812,0.0372649,0.14362629,0.1134636,0.017663175,-0.02950573,-0.03165908,-0.09254498,0.09624804,-0.13757536,-0.018132688,0.07006241,0.12498602,-0.109697044,-0.0052854693,0.14174347,0.14899993,-0.008888962,-0.085931055,0.008100364,-0.06755823,-0.0499224,0.103190824,0.030509707,0.06908054,-0.05386368,0.12288704,-0.08743778,0.13585447,-0.061378263,0.127264,0.059339363,0.09511031,-0.021019448,0.07078509,-0.13858132,-0.039218534,-0.117960356,0.018524593,0.13373388,-0.11803997,-0.051075242,0.06482895,0.10197462,0.088970475,-0.13620812,0.11462241,-0.10591334,0.01735442,-0.059361756,0.12537725,0.100357786,0.15914893,0.11679152,-0.09852527,0.005074102,0.05175706,0.1341697,-0.12111852,0.121273175,-0.1257946,0.11901255,0.15631486,-0.06375338,0.010108832,-0.08795839,-0.040655274,-0.12421019,-0.018679837,0.0886503,-0.119469516,-0.035325594,-0.017600982,-0.010197171,0.12568526,0.023337409,-0.07811682,0.1367629,-0.08632694,0.07672355,0.0950816,0.07578137,-0.14693908,-0.034494888,0.012357756,0.07656032,0.11917096,0.07535125,-0.11386968,0.065349735,-0.015163791,0.0947519,0.13253851,-0.106909834,0.0008379462,0.027808208,-0.07948262,0.1295938,-0.06814116,0.07895578,0.11724263,0.11668379,0.06264317,0.121497795,-0.13996118,0.12560676,0.12726949,-0.033329166,0.002513445,-0.1000875,-0.088216424,-0.034368753,-0.009425168,0.11563412,-0.05741745,0.030724308,0.041408308,0.018456973,-0.025748465,0.1078047,0.14294556,0.14118108,0.026568094,-0.07097116,0.120971575,-0.10552006,0.053563874,0.07304405,0.040294178,-0.012084832,-0.06637182,-0.09708624,0.08271382,-0.02111062,0.009487834,0.07455956,0.00598688,-0.0910398,-0.055895805,-0.06274902,-0.11882015,0.026204823,-0.0623854,0.11838721,-0.011135727,0.022253513,-0.032065626,-0.09886456,-0.0871431,0.0751822,0.05177417,-0.07257716,-0.03797552,-0.11199834,-0.020083388,0.10087766,-0.0032029613,-0.0025371343,0.16395658,-0.07483259,0.0928107,0.035127472,-0.12481628,-0.07153298,-0.10093795,-0.11403236,0.117920786,0.033897743,0.025299767,-0.011519816,-0.024078103,0.036627326,-0.11769836,0.14962122,0.1497442,-0.059514634,-0.12302381,-0.022201663,0.06886116,-0.014285289,0.06794584,-0.08585982,-0.013768254,-0.11683133,0.110734716,0.13593598,-0.13627224,-0.05903184,-0.066778116,-0.05422866,0.06234318,-0.033874232,-0.11263991,0.0640122,-0.021419581,0.08027265,0.07299418,-0.038972605,0.12192858,0.030868983,-0.03093218,-0.1154754,-0.09001536,0.05402905,0.007801157,0.12701094,-0.086836584,-0.079223275,0.11236129,-0.07968518,0.026049275,0.122983746,0.12101866,0.053006656,-0.13923171,0.1615463,-0.021227665,0.15534331,0.06488069,0.05967778,0.047772553,0.07205344,0.1480477,-0.09448968,-0.119299755,-0.1326651,0.024041783,-0.02497921,0.038690306,-0.15018752,-0.03258937,-0.084837824,-0.119562805,-0.041421674,-0.08972569,-0.0024728759,-0.0075462037,-0.07012829,-0.1511343,-0.10005929,-0.03497621,0.02165034,0.060123015,0.13674642,0.10552471,0.14162147,-0.11666433,0.13723971,-0.051428206,0.06958344,-0.06467436,0.01037099,-0.08913627,0.008007607,0.0746918,0.1431425,-0.09287074,0.08958192,-0.030899815,0.14125372,-0.094784625,0.023065215,0.06393921,0.11376116,-0.031120816,0.13131621,0.043925546,-0.046605602,-0.023147987,0.08432708,0.108574174,0.0009461244,0.12879808,-0.09539046,-0.037673097,0.14596763,-0.055155564,-0.031052621,0.15523264,-0.019374127,0.12513293,-0.03218627,-0.005555013,-0.03959979,0.06607926,0.013567954,0.051711887,-0.13200098,-0.120136246,0.118348494,-0.04280309,0.09393335,-0.03472918,-0.09625672,0.019610964,0.110334195,0.09160992,-0.052515637,-0.016848143,0.1348003,0.013985006,0.08571193,0.017399855,-0.11265094,-0.014203417,0.10290243,0.006277564,-0.0056323633,0.03263883,0.059043173,0.016373271,-0.026336975,-0.03162489,-0.13758194,0.08498039,0.0272575,-0.032258525,0.1294263,-0.047744777,0.077193074,-0.093341574,0.043335482,0.08462715,-0.062105797,0.13313194,0.112600766,-0.048676018,0.11671614,0.095579475,0.0033256821,0.14465058,0.048441328,0.00086839125,-0.052715246,0.006762084,0.04906718,-0.021490686,-0.019385383,-0.12901276,0.03285394,-0.034790494,-0.1367836,-0.032364905,-0.06168761,-0.032731898,-0.07394126,-0.020911401,-0.061761983,-0.06046878,-0.06303808,-0.12646438,0.006857023,0.025324056,-0.07052426,0.096140005,0.043578856,-0.06766751,0.08447407,-0.12497619,0.10797025,0.13280118,-0.027301058,0.06568881,-0.005366127,0.13933286,0.14360504,-0.015471926,0.16410342,-0.06981457,-0.00010575703,-0.12842043,-0.017478809,-0.026265584,0.028292365,0.032619946,-0.06311562,-0.06703293,-0.06019919,-0.01212565,-0.13345195,-0.09119403,-0.0058816657,0.048094884,-0.09111264,-0.029647904,0.12799782,0.14103448,0.09115021,0.06426404,-0.030274255,-0.052330524,-0.09184078,-0.045877803,-0.028691476,-0.064329244,-0.09755436,-0.11392469,-0.008710527,0.15749347,0.011877369,0.01662026,-0.14285427,0.16294467,-0.1226973,-0.0537677,0.1640866,0.089147374,-0.054975554,0.034874864,0.09273989,0.064398125,-0.08613524,0.024868824,0.039061293,-0.05055012,-0.11547993,-0.018136898,-0.06504634,0.091217205,-0.009753821,0.015313854,-0.14989081,-0.053446922,0.05433305,-0.12931037,-0.06965923,-0.047940947,0.047056682,0.09468153,0.019650621,-0.10013143,0.013668937,0.15742643,0.03707344,0.0070252614,0.10440249,0.0051235063,0.12381018,0.102639556,0.102757186,0.08587622,-0.14014876,-0.10954923,0.114683904,0.0023231688,-0.0016579824,-0.120516725,0.0665361,-0.09178128,-0.036665745,-0.14185403,0.11400342,-0.057413105,-0.011615522,0.091817304,0.120770104,-0.14372908,0.035536673,0.010801099,-0.15811113,0.02256082,0.013063893,0.038864434,0.07899018,-0.1013612,0.03393141,-0.095418125,0.14087391,-0.021019937,-0.0034820088,0.06500014,0.14633246,-0.060367376,0.10497864,-0.09789756,0.16322397,0.13941608,-0.088395976,0.15434456,0.1475003,0.09953132,-0.15261357,-0.11386843,-0.14757523,0.025478482,0.13633528,-0.023925945,0.13958775,0.05123429,0.13094074,0.13982052,-0.008328104,0.0067492886,-0.070405155,-0.025188982,-0.07932704,-0.039780132,0.081006415,0.08132536,-0.022521032,-0.044243816,0.075404614,-0.09785779,-0.05284487,0.016018372,-0.059235804,0.06643946,-0.05439839,0.0803636,0.024006013,-0.114499584,-0.04627879,-0.02564559,-0.08788031,-0.11380667,0.035628714,-0.036130138,0.1370668,-0.12229656,-0.028710019,0.079820015,-0.10966517,0.04228168,-0.062906414,0.10503991,0.09732852,0.07009323,0.084822156,0.08907953,-0.10780654,-0.055933435,0.13926025,0.10833652,0.01172688,0.09050506,0.099309824,-0.09899833,0.1190174,0.14564683,0.1625918,0.059929807,-0.05445587,0.09706835,0.12618156,0.04074422,0.01935704,-0.022195864,0.03575831,-0.07296183,0.15196863,-0.12484613,-0.037699502,0.1352752,0.075012386,0.059533313,-0.04022844,-0.09423371,0.023851143,0.107801415,0.14888836,-0.1280787,-0.005475259,-0.0705242,-0.061085723,-0.056630217,0.076871604,0.13251805,-0.07365633,0.034551796,-0.0996569,-0.13923664,-0.06615427,-0.03700003,-0.12019639,0.069765426,0.03160591,-0.05237551,-0.0043011773,-0.023084693,-0.10698986,-0.047207035,-0.10519574,0.12774149,-0.13848417,0.040669274,-0.12049437,0.14718346,0.11791612,0.16417636,0.002669824,0.022677261,0.17896661,0.04672228,0.06849693,0.049069613,-0.14787287,0.025572442,0.12172682,0.10404537,-0.1193536,-0.05657711,0.0012853638,0.047490213,0.16281094,-0.09868035,-0.015739271,-0.024811752,-0.04099906,-0.12455672,-0.08328952,-0.06010163,-0.12565249,0.08046098,-0.0529371,-0.12630169,0.059819106,-0.06501799,-0.013528903,-0.08557989,0.08220328,-0.123060204,-0.14548421,0.04936666,-0.03970258,-0.065387316,0.124242455,0.13568999,0.017602338,-0.013676089,-0.02062426,0.11945222,0.02976342,0.1442803,0.14830834,0.09560803,-0.066028334,-0.14612544,-0.10611901,0.03754589,-0.11528007,-0.038519852,0.13532786,-0.07742994,0.123414695,0.04352803,0.008343172,0.08108043,-0.14253263,-0.05019404,0.14215706,-0.106603,0.05862679,0.03988726,-0.10176939,0.1300989,0.09677853,0.046366446,0.038479507,-0.13251859,0.045813967,-0.05743668,0.027000649,0.138534,-0.029568568,0.041640107,-0.055404738,-0.09652879,0.001271322,-0.01625876,-0.015279944,-0.11051278,0.11613394,0.039897785,0.082858495,-0.060486495,0.09390511,-0.12012289,0.11002658,-0.086559646,-0.0413262,-0.08445112,0.030853232,-0.07682185,-0.13369465,0.009470765,0.14333488,0.09095724,0.12852298,0.02393549,0.042135306,-0.07868537,-0.016346654,0.06611978,-0.12554866,0.12269892,0.14446582,-0.017632343,-0.096927136,0.11456336,-0.08703894,0.03969909,-0.068281494,-0.03353699,0.13307126,0.044649206,-0.034347985,-0.12695028,0.00990511,0.016092762,-0.13571526,0.04388732,0.09051807,-0.053131036,-0.1229171,0.12542604,0.0786498,0.1305435,0.03976121,0.06303495,-0.118815936,-0.06821691,0.08932476,0.12207632,0.087253034,-0.10496059,0.030541081,0.11780659,-0.0894997,0.04653549,-0.068928786,-0.0320591,-0.10852582,-0.10911611,0.13521656,0.072722755,0.13030729,-0.14792944,-0.06949117,-0.04022479,0.12879546,0.009290402,0.06685356,-0.11814453,-0.07007797,-0.024441632,0.0964269,0.11826557,0.08678277,-0.0020869302,0.008415021,0.15486258,0.030233301,-0.04295141,0.14601961,0.1599206,0.033682447,-0.091193095,-0.006643452,-0.08058015,-0.0992011,0.15983304,0.03720418,-0.018251607,0.05131811,-0.09160769,0.08178549,-0.05577008,0.031379234,0.09485477,-0.13161537,0.14800029,0.14407758,-0.037262462,0.09716245,-0.019303763,0.14469378,0.10520831,0.075786754,-0.055759173,-0.12781064,0.14312471,0.003983229,0.03526775,0.0039186045,-0.10243871,0.008214703,0.12754878,-0.10123382,0.15927146,0.08095753,0.12773432,0.09155383,-0.029024689,0.14735702,-0.030203696,-0.095344245,-0.08811896,0.15480609,0.06473235,-0.12236022,0.06484279,0.14276749,0.13704596,0.007087426,-0.084506094,-0.0656528,-0.09521628,0.1386604,0.093005955,0.06234099,0.028849274,-0.043209054,0.0132987145,0.06543351,0.039167397,0.093014255,0.08979527,-0.11448678,0.12401284,-0.09253235,0.013261114,-0.108666256,0.009329708,-0.08227629,0.07810731,-0.13289471,-0.049827922,0.098518655,0.0997261,0.029552015,0.06580582,0.027883686,0.091646984,-0.063557394,0.10351061,-0.034180593,-0.034938015,-0.03609108,-0.14245684,0.018185265,0.09220352,0.09573327,0.1391018,-0.010281334,-0.078100815,-0.107625805,-0.016947785,0.04042166,-0.14159778,0.07806081,0.06997873,0.05774703,-0.06586146,-0.09063585,0.12627867,-0.14131615,0.08693072,0.0683185,0.086894274,-0.064683944,0.02580781,0.14163534,0.014454643,-0.07482469,0.026775656,-0.12057814,-0.112145886,-0.0037162863,0.13227014,-0.095626906,-0.13067502,0.005669301,-0.032199733,-0.05213209,-0.07085954,-0.07804021,-0.10854634,0.046855785,0.0035603405,0.0063034175,-0.017720532,-0.03887101,-0.05633628,-0.023025254,0.13729867,0.09331145,0.026749413,-0.023592254,-0.019886354,0.1511622,-0.14446233,0.12374928,0.10933,0.14901666,-0.02940152,-0.021519203,-0.14777653,0.06874553,0.14741772,-0.009245164,0.11087465,-0.096143834,-0.13634205,0.106507204,-0.13599363,-0.056391884,0.076339304,-0.07441552,0.018931476,0.13587849,-0.10081022,0.08159496,0.10152768,-0.0699439,0.046787366,-0.12748116,0.051084947,-0.13505146,0.03225922,-0.11639312,0.06973849,0.0048075477,0.051340237,-0.12960869,-0.023629406,0.12811257,0.040879067,-0.12852994,-0.021159168,-0.13647361,-0.0626968,-0.0067174034,0.06257243,0.13859744,-0.040198,-0.06601818,-0.11289448,0.13968533,-0.1365942,0.10433373,-0.111758776,-0.06809764,0.11585669,-0.119152166,-0.03354661,0.0927167,-0.012216096,0.03405087,0.08215883,-0.04566496,0.11812818,0.09630489,0.13544308,0.079917915,-0.079537936,0.08564146,0.05788269,0.047380507,0.13454627,0.045508824,0.057537656,-0.08801572,-0.042775184,0.053635377,0.11610305,-0.14664747,0.13499635,-0.00482594,-0.1310803,-0.037544336,0.013919562,0.04731995,0.15735963,-0.010128101,-0.0473127,-0.024519801,0.10581314,0.038789384,0.09591681,0.090580694,-0.13020721,0.15709978,0.06451322,0.13150716,-0.08927737,0.049770873,0.038733277,0.03179728,-0.12591963,-0.015170618,-0.054655347,-0.119424105,0.047013745,0.10509017,0.016928943,0.084257826,0.075371765,-0.008850675,-0.033871837,-0.02347951,-0.107261226,0.040889718,-0.066663384,-0.059797436,0.081417836,-0.051039703,-0.06871434,-0.09279259,-0.13809471,0.030402157,0.00029444517,-0.067870885,-0.019799894,0.11542646,-0.02869845,0.12236231,0.030909678,0.08666952,-0.01735372,0.04590901,-0.09560769,-0.09960245,-0.13750449,-0.13522308,-0.087882236,-0.10960859,0.13521868,-0.094637334,-0.04921181,-0.040339336,-0.12540002,-0.017668245,0.061709385,0.013307188,-0.070580356,-0.051655844,0.031807628,0.12615056,0.0049733277,-0.13125283,-0.12657587,0.018321414,-0.05994534,-0.09080832,0.076915905,0.098731175,0.030145759,-0.13255398,-0.09065875,0.06842946,-0.055401653,0.12735982,0.11289918,-0.13332196,-0.119709596,-0.12587038,0.06062707,0.0025964016,0.023850946,-0.10874227,0.12412264,-0.10085317,-0.10136702,-0.12410704,-0.06706782,-0.10671252,-0.088356026,-0.10794774,0.05856577,0.10201694,0.039548486,-0.032834556,0.12780185,-0.049015164,-0.097356625,-0.019270655,0.113408364,0.087384336,-0.120042026,-0.0005923661,-0.13960643,-0.027532075,-0.04235936,0.081919454,0.10335825,-0.064234,0.08823245,0.023587057,-0.020553574,-0.14766194,-0.06294077,-0.07050398,-0.0195027,0.102020584,0.075359434,0.098450266,-0.105485685,0.01564872,-0.016496204,0.016373854,0.022347525,-0.022397688,-0.09415276,-0.041700464,0.008275119,0.07657386,-0.13847391,0.041525446,0.09003534,0.12839495,-0.13761498,0.010354316,-0.084964864,-0.11575424,0.15016939,0.033691637,0.01748203,0.048133984,-0.063770294,-0.10696529,0.12972786,0.08511851,0.07466808,-0.01338526,0.13410884,0.034830544,-0.118246965,0.0012959924,0.041827306,0.042801864,-0.047769886,-0.12521762,-0.03855583,0.11459684,0.015403995,0.14686538,0.061775308,-0.05636559,0.1339545,-0.09644845,-0.11553241,0.008247498,0.10839258,0.08938821,0.15737964,-0.11851,0.051380027,0.13351384,0.15038666,0.024281867,0.0033546742,-0.040995594,0.021966266,-0.022384826,0.035428338,0.058204502,-0.06517881,-0.069093205,0.012902132,0.11747053,-0.008149334,-0.116308205,0.09919564,0.021846047,-0.015785713,-0.14905526,-0.027075926,-0.017357469,0.12342136,0.030204693,-0.024927283,-0.050351053,0.009449633,0.13435712,-0.09339223,0.1635644,0.086615585,-0.06501425,-0.11388275,0.06381476,0.024678545,0.0556671,-0.10557443,0.15314774,-0.03896354,-0.12340674,0.075936265,-0.10327724,-0.12686011,0.048162967,-0.09190612,-0.037312634,-0.027711475,0.0575031,-0.06851495,0.06506025,-0.07424863,0.053140357,-0.0944049,0.004719512,0.07058872,-0.09602894,0.021945974,0.109532185,0.10365087,0.06376779,0.14180401,0.14706811,0.07478196,-0.106579155,-0.06574237,0.069571376,0.12663141,0.12177042,0.12507507,0.014207968,-0.14611782,0.024426585,0.026666146,0.032829147,0.1124686,0.08218402,-0.13031176,-0.11752604,0.07400081,-0.04480203,-0.053335104,-0.04041146,0.07086845,0.07775447,0.009581216,0.011453525,-0.05472145,-0.13388297,-0.10218982,-0.037884153,-0.08829942,0.17825237,0.07265137,-0.014505263,0.06302497,0.049151167,0.058782008,0.13509472,-0.0088463705,0.054390125,-0.028233407,-0.075169325,0.0018446868,0.12829721,-0.0049343347,0.09338583,0.10288868,-0.09470613,-0.13396628,0.040990774,-0.04631136,-0.06680885,0.020830214,0.16123763,0.09497666,0.020670505,-0.031948652,0.111365266,-0.10867561,0.056228045,0.16668612,0.06766279,0.042816248,0.08852791,-0.12534514,-0.016529275,0.047850315,-0.08609014,0.07512834,-0.008426323,0.050872885,-0.078399934,0.14061639,0.15778989,0.0034413568,0.09419945,0.1156251,-0.10584607,0.032896984,-0.10182177,0.04288818,-0.050532315,0.16870742,0.104759164,0.15183797,-0.12817796,-0.09683855,0.003460997,0.027281752,-0.0037877143,0.16171964,-0.026355267,-0.030876504,0.13715728,0.13846898,0.026725287,-0.09845265,0.17193747,-0.0805302,0.06406067,0.12519073,-0.12168578,-0.089544185,-0.05387564,0.097976975,0.050943967,-0.075806804,0.033942387,-0.09733011,0.04558264,0.0013531698,-0.09820858,0.106722146,0.06086213,0.08929526,0.12496694,0.023634335,0.047975678,-0.028171016,-0.11386405,0.12783849,-0.066192284,-0.038360022,-0.0148361465,-0.12364044,-0.044963278,0.06402566,0.105593674,-0.077497035,0.032509014,-0.010790998,0.12387528,-0.12003346,0.05313431,0.1452407,-0.11497375,0.14304675,0.100335106,-0.02147094,0.1301052,0.14554101,0.048612338,-0.13287586,-0.07038206,-0.12624271,0.08363149,0.012764961,0.04089319,0.08569413,-0.121597074,0.11806567,-0.031644244,-0.08870532,0.10994019,0.03606771,0.14145735,-0.09941526,0.07621997,0.122988865,-0.05195195,0.002309167,0.102139324,0.0316572,0.061410498,0.112360016,-0.06897953,0.10418051,0.13440815,-0.0017851113,0.11114952,-0.103950836,0.022350015,0.105389126,0.077520944,0.042855285,-0.050482072,0.1340239,0.11593336,0.073026754,-0.04968215,-0.13932317,0.120049454,0.0982524,-0.08713421,0.07052838,0.065215774,-0.09981052,0.01760183,-0.0027105259,-0.08804741,0.10647154,0.122079164,0.13313332,0.037987687,0.14087804,0.1283261,0.089963436,0.027906671,0.02403365,-0.09851709,0.16242105,0.1208196,-0.07796988,0.0149141615,-0.120502464,0.052298877,-0.13002545,0.07576132,-0.07196274,0.015163868,-0.09327848,0.11842539,-0.019984663,-0.06748901,-0.05395344,-0.010562117,0.024197401,0.116641395,0.063659474,-0.07702157,0.037688747,0.15010321,-0.008828019,0.01787483,0.16759326,-0.055081517,0.040494952,-0.10729133,0.024636952,0.016930467,0.06320493,0.096002884,0.15922764,-0.0021560178,0.011343457,-0.013161173,0.09838857,-0.1504626,-0.05963601,0.032138303,0.056858543,-0.066207394,0.032317515,0.1273199,0.009536886,0.0028251798,-0.0991073,-0.08651994,-0.012464074,0.13239807,-0.05799674,0.073676996,-0.12595652,0.10588233,0.099670716,-0.11859291,0.103942,-0.071109325,0.05714899,-0.1491522,0.018565476,-0.050606072,-0.10798325,0.13825743,-0.039544687,-0.12631561,-0.046097342,0.017937778,-0.012639999,0.12711811,0.048623595,-0.03387066,0.10133028,0.10064752,-0.13146129,-0.016440036,-0.12528548,0.018783655,-0.0991791,0.05052138,-0.14748375,-0.0030774286,-0.11994723,-0.0076270043,-0.09565655,0.13352706,-0.0052059544,0.09052236,0.0017234506,-0.012633953,0.08238457,0.045447636,-0.13039331,0.093302,-0.021923352,0.06312109,0.13240123,-0.1444793,0.11239225,0.039291263,0.08194384,-0.110384464,-0.1171414,-0.052704666,0.093870655,0.080123626,0.068724945,-0.056500938,-0.096170805,-0.07136827,0.06368698,0.044294596,0.13650633,-0.10825625,0.013939134,0.13920206,-0.13064022,0.10092452,-0.08386204,-0.1373545,0.06405495,0.0055567594,-0.028438117,-0.1252735,-0.04454474,-0.0889168,-0.05353699,-0.036401276,-0.0066472744,-0.061353788,-0.024947299,0.15020022,-0.08626428,0.02752525,0.14164987,0.09148666,-0.0076397317,-0.09901204,0.053809237,0.00080162403,-0.011381486,-0.13299683,0.15019356,-0.08872053,-0.03769418,0.109145,0.09512645,-0.024207434,0.08696436,-0.11815568,0.07072959,0.07371675,-0.07421548,0.12718296,-0.15479322,0.16876373,0.0020135236,-0.03346123,-0.15069655,-0.101192035,0.048710648,0.084246226,0.10174036,-0.11402537,0.0132802,0.014429069,-0.09463853,-0.11880868,0.061587058,-0.047710918,-0.024624312,0.062912986,-0.024889711,-0.13161328,0.018862566,0.019925326,-0.068095036,0.044257175,0.05218201,0.14506203,0.14591014,-0.108558536,0.14375718,-0.13021697,-0.13400371,0.004493478,0.022402989,-0.12837677,-0.07197937,-0.08657487,0.10450724,0.065052785,-0.06512968,-0.07683101,0.120206855,0.10388643,0.00018370389,0.13239557,-0.13056515,0.086265326,0.052311704,-0.07080728,0.10607227,-0.045393053,-0.012174689,-0.12549704,0.042972572,-0.14216635,-0.13517712,-0.023391778,0.15321356,0.06375431,-0.10692662,-0.009187212,0.07798577,0.13952687,0.13775952,-0.02652351,0.041721255,0.07353821,0.030247917,0.01888333,-0.016201328,0.058351886,0.1418813,-0.078254856,0.14233789,-0.035708334,-0.13109423,0.000802834,-0.06840519,-0.1138954,-0.043410167,0.08447177,-0.018602468,-0.04080283,0.069121815,0.0851491,0.025737925,-0.06823905,-0.13200597,0.026926529,-0.021969585,0.1349903,0.1423177,-0.14126776,0.0022828209,0.060240597,0.06224186,-0.117538966,-0.10689508,-0.035274364,0.028119164,-0.12862845,0.14959222,-0.10868568,0.063446626,0.049636867,-0.16200785,-0.07785599,-0.09385772,-0.102196224,-0.097516,-0.029899292,-0.13894226,-0.09052672,0.1498067,-0.14897484,-0.0379922,-0.081261404,-0.015225817,-0.040414732,-0.13245122,-0.06612324,-0.054572463,0.10796739,0.032536056,0.09090537,-0.07400006,-0.026840009,-0.01950528,0.15538019,-0.01636674,-0.052165445,-0.106243104,0.053476572,0.031292535,-0.06633515,-0.019891024,0.14797668,0.031205742,0.12517847,-0.011606514,-0.040860165,0.01899158,0.060107835,-0.022127192,-0.089119144,-0.07186923,-0.013438941,-0.0005704336,-0.12185521,0.14392309,0.07292367,-0.13660087,0.092307925,-0.033703476,-0.027013835,-0.083118185,-0.14605634,0.059009526,0.0809867,-0.059832882,0.004181108,0.0413848,0.0145244505,-0.103941046,0.08575459,-0.06564195,-0.089625515,0.10067254,-0.08904431,0.016986161,-0.09784991,-0.12507778,-0.09706834,0.13034928,-0.0026167561,0.07032358,-0.051860467,0.11668466,0.08776529,-0.0043386905,0.112934954,0.102127865,0.08702205,0.077957615,-0.015934248,-0.13679264,0.14529344,-0.09040496,-0.11281015,0.049585618,-0.03797256,0.14645393,0.13299538,0.021595059,0.05989269,-0.047489263,-0.123062454,0.043032706,0.08957661,-0.06965277,-0.13343728,-0.09236403,-0.14773527,0.12249323,-0.106084004,0.098101884,-0.046463016,0.13898838,0.1306931,0.10435609,0.09937088,0.10715939,-0.06278102,-0.1461096,0.12827191,-0.10486663,0.076838456,0.02044357,-0.0816591,-0.1198318,0.09841369,0.084448546,0.031894814,-0.021639215,0.051243376,0.04311364,-0.119270265,-0.0004823955,-0.067089036,0.05512561,-0.062185884,0.06694397,-0.1180659,-0.069146745,0.10935308,0.0010918935,-0.06703999,-0.07213278,-0.052520964,-0.09878266,0.06983918,-0.013725677,-0.12398658,0.12563802,0.09049353,0.07242025,0.052654848,-0.1217901,0.04924234,0.1350344,0.09970234,0.08207956,-0.06933876,0.050593793,-0.048949428,0.13685696,0.07187294,0.05115477,0.13767077,-0.017293032,-0.002594016,0.0864147,-0.060528267,0.07164901,-0.13335675,0.053381592,-0.097486705,0.010064179,0.13227506,-0.08033956,0.016986746,-0.07020313,0.029593624,-0.05989999,-0.15271606,0.058753673,0.092446804,-0.008316988,0.046010815,-0.13206641,0.13869281,-0.12138569,-0.06787766,0.09486629,-0.113069154,0.13483502,0.02923131,-0.006641857,0.0817686,0.02086705,-0.102935895,-0.0714293,-0.06566707,0.014959389,0.106167324,0.15565759,0.045691263,-0.12003221,0.11708734,0.023976702,-0.08822823,-0.051349957,0.0072541963,0.11693134,-0.032047678,0.11604596,-0.073430255,-0.10792201,0.122936934,-0.1148836,-0.13251112,0.1527862,0.08286962,0.07963575,0.07284487,0.15086769,-0.06950463,-0.0875929,0.1140248,-0.03451514,0.1524148,0.05259811,0.12355087,0.06285904,-0.0037407996,-0.06325297,-0.03383273,-0.0728031,0.016312685,0.11143429,0.11390524,-0.036373794,-0.028194325,-0.1329572,-0.08555764,-0.09160041,-0.042041708,-0.034441527,0.019213773,-0.11974856,-0.11562808,-0.04920124,0.15604374,0.15259898,0.09679235,-0.0009738462,0.021503167,0.081536025,0.068688735,0.018562278,-0.1510797,-0.019281134,-0.110188484,0.1415035,-0.054312132,0.115174145,-0.10778275,-0.06931483,-0.114505164,0.1387912,-0.026544148,0.06671051,0.11381469,-0.087281644,-0.14297307,0.028705638,-0.036013205,0.12180668,-0.107656404,0.046777323,-0.1252738,0.1313444,-0.104253754,-0.06267687,0.10642003,-0.07110152,-0.00041763036,0.04621896,-0.11846247,-0.103447326,0.070806414,-0.06652511,-0.10537436,-0.046727795,-0.09598569,0.10052876,0.091398515,-0.09705602,-0.06912538,0.12826526,0.11925041,0.13401079,-0.12140951,-0.12193431,0.06728094,-0.010545026,-0.15779005,0.1362914,0.0831214,-0.030091,0.013104209,0.1124725,-0.11605662,0.09832038,-0.042685784,-0.09857973,-0.017717892,0.008907236,0.0742495,0.057351943,-0.054094307,0.15510045,0.09572024,0.07996669,-0.13376673,-0.12859435,0.06132754,-0.0049301274,0.11897659,-0.12852918,-0.009627301,0.13871612,0.024669154,-0.0367304,-0.11646925,-0.07185314,0.020476397,0.08552146,-0.05378674,0.0067743957,0.022304649,0.049021732,0.0049132695,-0.10543472,-0.12266465,0.058446325,0.08980313,0.13932511,0.055019606,-0.06768884,-0.018752435,-0.07612812,-0.15025482,0.15021898,0.0917491,-0.12692404,-0.021135721,-0.06829759,0.035193652,-0.02548814,0.15217377,-0.06950223,0.16137528,0.022721976,-0.041274652,-0.013699489,0.02090508,0.104492344,-0.03455904,0.12798439,0.098310016,0.11151526,0.13397816,-0.10796655,-0.04001395,0.005249677,-0.114139624,-0.06957391,0.13650112,-0.14865683,0.057563897,0.139251,-0.11290806,0.06961953,0.09472434,-0.0022752946,0.036639612,0.124478795,0.0492626,0.046664305,0.050888687,0.115069814,0.032861277,-0.09385007,0.15161543,0.09541002,-0.0065275263,-0.04486019,0.14173728,-0.07993788,0.025670426,0.0875632,0.0018416377,-0.10167119,0.09101065,0.08448732,-0.0994946,0.015176819,0.12938263,0.099245995,0.07382427,-0.020655217,0.0076385243,0.00816654,-0.0795133,0.094425894,-0.14107588,0.09568193,0.05452029,0.005788758,-0.12426768,0.15639187,-0.019459756,-0.123466074,0.007739725,-0.06914687,0.008525589,-0.15732177,-0.08389474,0.09555244,0.0072083166,0.012030586,-0.011519925,-0.11146061,-0.03291018,0.102890395,-0.038802627,-0.09848073,0.11076929,-0.03182568,-0.029961415,0.058800936,0.016122768,-0.050788205,-0.096438825,0.103240184,-0.123166546,-0.11665342,0.064309604,-0.11057291,-0.027296921,0.03789217,0.0020833574,-0.022085898,0.036350396,-0.0020983028,0.119222105,-0.1350038,-0.12770356,0.15236743,-0.1349229,-0.09703151,0.10050296,-0.005877658,-0.04475956,-0.045462403,-0.119033106,0.12102407,0.14004326,-0.019010598,-0.14544393,-0.117793016,-0.1218541,0.07895484,0.013811349,0.096981235,-0.028059589,0.13896361,0.11574025,-0.07848099,0.038782466,0.085982904,-0.065720156,0.031892978,-0.029105114,-0.077276364,0.0062930533,-0.13309793,-0.003376616,0.15401989,0.056860797,0.07203838,0.14251205,-0.07087048,-0.13403293,-0.13725835,-0.061472863,0.012003028,-0.034347706,0.100101046,-0.07385095,-0.011390806,0.10891549,-0.032284208,0.062003653,0.11859728,0.021748768,0.050734248,0.064353935,-0.11744434,0.0077202064,0.047114078,0.0905706,0.017835129,-0.1264319,0.08314172,-0.113031566,-0.007913215,-0.059858225,0.011952487,0.04444091,-0.09749943,0.05677517,0.16401134,0.0517562,0.067595676,-0.10601177,-0.0064564417,0.09479989,-0.05092771,0.041326463,-0.07266723,0.08931573,-0.0046621724,-0.0057654786,0.020883178,0.012969197,0.12933587,0.068596706,-0.013504819,0.06597222,-0.10856368,0.10154859,0.051892404,-0.07819309,0.13817567,-0.10460789,0.030350558,0.059862234,-0.002542001,-0.12468487,0.09908815,0.021130674,0.046743687,0.016325008,-0.10796861,0.10523527,-0.10101734,0.12244647,-0.13682309,-0.109470904,-0.13671617,-0.15665108,-0.14663522,-0.0052645756,0.12319944,0.0049655144,-0.06542783,-0.12226766,-0.016944587,0.11736527,-0.056675132,-0.025211364,-0.05817752,-0.050316706,0.005187797,0.11506265,-0.013313577,0.04464736,0.110431686,-0.020865124,0.08381537,0.13401756,-0.0403123,0.14453943,0.011549795,-0.1072552,0.15932806,-0.044271987,0.10079454,-0.030356113,-0.03521972,0.040021162,0.011874374,0.1219468,-0.13820125,-0.0984702,0.13128626,0.120139375,0.12227486,0.08414495,-0.14742538,-0.033753213,-0.10553989,0.083579235,0.11366987,0.02204024,-0.011692248,-0.1455635,-0.05886147,0.074603155,0.15814245,0.08590187,0.132306,0.032021903,0.025013974,0.14505613,0.032388095,0.087916106,-0.0010579589,-0.118074216,-0.027775796,-0.118923314,-0.05521367,-0.13461202,0.089786194,0.09323486,0.033799753,0.11945726,-0.044327874,-0.12957077,0.10766773,-0.06447412,-0.07153698,-0.115540564,-0.016381674,-0.07118246,-0.124986336,-0.046435066,-0.021960132,0.031104928,0.029310593,-0.053209662,0.14529663,0.13769452,-0.12501404,0.057437517,0.14804053,-0.08786532,-0.14529154,-0.10278963,0.0086454535,-0.061977513,-0.1298547,-0.03581277,-0.14753154,0.037551634,0.12254563,-0.10720037,-0.036441322,-0.11228571,-0.13142563,0.07939763,-0.0942717,0.062871054,0.008915681,-0.043335214,0.07599179,0.07916581,-0.14563772,-0.07241339,0.10784972,0.0798019,-0.05597534,0.021176666,-0.07013529,0.006193242,0.09444138,-0.045027435,0.1302883,0.10913055,0.005184229,0.101604074,0.09906359,0.12604162,-0.06945945,0.11798396,0.024573695,0.03784485,-0.030973185,0.10942375,-0.14922948,-0.07962928,0.07014417,0.13454026,0.0680968,-0.064934954,-0.0016947252,-0.04781636,-0.12354682,0.14439844,-0.085867174,-0.010840662,0.10488899,-0.003424785,0.081839405,0.0050908034,-0.062593505,0.024357567,0.14341475,0.12355362,0.095061906,0.15528956,0.014555157,0.07303583,0.10587283,0.12920389,0.14910744,0.040890053,-0.120786145,-0.092396535,-0.07402209,0.06589442,-0.037453298,0.00037317464,-0.11625365,-0.05810977,-0.10891522,-0.034624428,-0.06313773,0.07344195,0.072150744,-0.13494506,0.0009379938,-0.1209592,-0.083616324,-0.14864127,0.07534618,-0.12419031,0.016458714,0.13684073,0.1393483,-0.057464644,0.030735936,0.12929012,0.093859345,0.103279114,0.05253498,-0.0569127,-0.12674046,-0.06651605,-0.11085867,-0.103795215,0.107692026,0.06283881,0.08092428,0.05935193,-0.07624696,-0.10600056,0.10497932,-0.06358268,0.11085043,0.089365326,-0.017891206,0.13809222,-0.0074741594,0.09922157,0.052131623,0.10529216,-0.068870105,-0.089413926,0.04715251,-0.0965454,0.09588388,-0.0067415144,-0.13431264,-0.07815273,-0.09516801,0.0044662873,-0.112349145,-0.0068173427,-0.0663278,-0.11727325,-0.090884425,-0.14176351,-0.06394575,-0.034586415,-0.12619005,0.027489614,0.13880141,-0.13511296,-0.13999905,-0.05907262,0.059533633,0.009320613,-0.04294811,-0.14424948,0.082631774,-0.07332837,-0.021112343,-0.015475222,0.1598551,0.0025196613,-0.054792758,-0.1079728,-0.1376403,0.09834478,0.045076545,-0.063182384,0.116286166,-0.13673894,-0.13594489,0.14381786,-0.11912127,0.12747216,0.10117426,-0.10982323,-0.006155,0.09525892,-0.0888753,0.07371155,-0.02555672,0.027976742,-0.032973196,-0.10669615,-0.14774628,0.02163771,-0.029733239,-0.02105814,-0.12919463,0.13092336,0.109424695,-0.061127853,0.021450737,-0.089962415,-0.034289002,-0.023033716,0.117509834,0.07761653,-0.043724015,-0.08840835,-0.11229523,0.06430475,-0.015375034,0.14488313,-0.039133385,0.12530194,-0.07043302,-0.017759498,0.038553413,0.041595157,0.0016448128,-0.085385926,-0.09854259,0.019397564,-0.113945805,-0.04921312,0.11496482,-0.10578711,-0.0637326,-0.10724685,-0.11995025,-0.046012692,-0.061649717,-0.006478703,-0.13757531,0.075686336,-0.055253293,0.12804234,-0.05160573,-0.12216991,0.014278047,-0.115173124,-0.06933481,0.025132967,0.049904943,0.030268861,-0.021334698,-0.0096107535,-0.056354586,-0.05199657,-0.08176082,-0.00054267416,-0.031215696,0.020798968,-0.14942399,0.13031067,0.043558925,0.009649189,0.044354968,0.14122058,0.002598509,-0.060366802,0.027028136,0.12617719,-0.046271827,0.08875492,0.04730501,0.028992983,0.089406416,0.12360766,-0.04500522,-0.03949321,-0.067405835,0.0070457254,-0.0771575,0.08286103,-0.094437785,0.07940489,-0.13640758,0.122177765,0.13424805,-0.10683111,0.03600607,0.021271344,0.06027167,-0.004092738,0.14390509,0.023916889,-0.08538192,0.12921359,-0.09820082,0.062370874,0.15562268,0.021808982,-0.0010911905,0.052477986,-0.031941403,-0.10145926,0.086010784,0.08164634,-0.044579826,0.117958955,-0.004496841,0.11135184,-0.030147454,-0.062448695,0.08316757,-0.102741234,0.052525155,-0.06635608,0.101554215,-0.12920295,-0.04197667,0.070862114,-0.019377498,0.08211787,0.022290649,0.0730689,-0.043957613,0.09114924,-0.026721075,0.058566265,-0.045162685,0.037870906,0.026790425,-0.015940547,-0.12505303,0.03655159,-0.08369162,-0.08274785,0.07133679,-0.020174006,-0.06552309,0.06447929,-0.049206518,-0.111998044,0.042518035,0.060472112,-0.00027568647,0.08836363,0.058109235,0.139062,0.1023291,-0.10056744,-0.021286687,0.09989548,0.0083850715,-0.11285089,0.010119277,0.0054072435,-0.06616091,0.0034144383,-0.14057577,-0.07488956,-0.13196622,0.0906705,0.01009978,-0.034449216,-0.13189955,0.15646018,-0.062778994,-0.08003341,0.108966276,0.024022192,-0.017933236,0.1510209,0.1434368,-0.0055764704,0.14444816,-0.03062908,0.100569956,0.14689532,0.08085449,-0.041553184,0.025329357,0.12621541,0.08406661,0.035523117,-0.101472564,0.003094049,0.1043993,-0.12441064,-0.1229437,-0.1007624,0.004689274,-0.14794372,-0.07712262,0.0085102245,0.08898565,0.07454652,0.16430725,-0.034472488,-0.10727911,-0.13457797,-0.10977409,-0.13768053,-0.016013546,-0.13755816,0.15771717,0.07463779,0.12334757,-0.08965787,0.016107718,0.14132518,-0.020977033,0.11759488,-0.06498906,0.14311172,-0.045182284,0.022948764,0.1196491,-0.0149855465,-0.1489565,0.07446047,-0.1292506,-0.062937796,-0.12839617,-0.00210334,-0.042084657,0.017714808,-0.011585285,0.08267913,-0.13429952,0.06426623,-0.1293335,-0.047822453,0.06644066,0.044577103,0.10296361,0.04664006,0.0655834,0.06654671,-0.108810455,0.016390672,0.100487456,0.08737664,-0.04925157,0.02911688,0.1569913,0.16153784,-0.09206378,0.1330246,0.022682918,-0.10312497,-0.037178572,0.011761284,-0.10487118,0.13246544,0.090137154,0.04930416,0.08787451,-0.051945228,0.080537945,0.066717595,0.08222104,-0.014569091,0.051970035,0.038971957,0.12297658,0.045773078,0.10007085,-0.1281899,0.035456862,0.15400031,-0.09054003,-0.05349881,0.112885796,-0.070846476,-0.029633394,0.06293312,0.03060042,-0.07793325,0.026865102,-0.033022396,-0.00049868645,-0.086552314,-0.12289448,0.014777957,0.007144019,-0.049451202,-0.038245734,-0.056092814,-0.09290743,0.053771652,0.044671267,-0.04662262,0.06743904,0.064984195,0.07496017,-0.124108784,0.033603348,0.13407518,0.12833369,-0.13251552,-0.09920948,0.027884562,0.0469784,0.10403687,0.12798692,-0.10241044,-0.018372087,-0.030396556,0.1474488,-0.059816834,0.14130458,0.12339472,-0.06841534,0.03234276,-0.14711289,-0.118636124,-0.1113026,-0.07628908,0.11890919,0.07864355,-0.09390309,0.12657829,-0.117810674,0.07361109,0.0012792344,0.08383293,-0.10985367,0.05086425,-0.11003072,0.058493644,0.15537986,0.016725104,0.123767935,0.07095562,-0.11607904,-0.05555075,0.024078863,-0.10717395,-0.07625898,-0.041019257,0.16757153,0.14114957,0.0883595,0.13270468,-0.0042780824,0.017402261,0.1354043,-0.0059906226,-0.07446046,-0.008760804,-0.041796505,-0.08831875,-0.101363294,0.061822798,0.10088,-0.035439588,0.01622522,0.13711652,0.06733096,-0.12840445,0.13047086,0.06576766,0.13358128,0.013390624,0.111062214,0.09596475,0.029313361,0.15104978,-0.12843104,0.042887073,0.13500714,0.016468542,0.15059425,0.109543726,-0.093405165,-0.057855304,0.055192355,0.067154765,0.039021954,0.12133827,-0.09729941,0.039293353,0.14286606,-0.11482158,0.15640368,-0.12960935,0.003627446,-0.026440907,-0.093916945,0.00681561,-0.13761431,-0.031490725,0.1118432,-0.06215353,0.031642966,0.016403042,0.039385498,-0.08195801,0.14635444,0.12238277,-0.14413692,-0.12598228,0.14228639,0.054493017,0.09176321,0.15340678,-0.0059518972,-0.078981824,0.0014003464,-0.026315304,-0.039356455,-0.089059144,0.032656882,-0.14033268,0.033936985,-0.0181914,0.0841542,0.07608145,-0.0064507895,-0.016364317,0.04143604,-0.1166514,-0.04754407,-0.0785771,0.014060822,-0.131898,-0.02512976,-0.10572555,0.021202486,0.051778413,0.0856272,0.08862282,0.11293564,0.15780811,0.10934626,0.024691178,0.07152701,0.08398845,0.005057302,-0.14089924,0.06750075,-0.14234804,-0.123562366,0.111629024,-0.014844447,-0.109156296,-0.054411244,-0.08340484,-0.13173598,-0.060061596,0.121160634,0.1013104,0.1060068,-0.11619329,-0.090290874,-0.0095980065,0.03261621,0.06764737,0.16640496,-0.03728634,0.031713888,-0.1147161,-0.05835649,0.037552554,0.031458404,-0.11158194,-0.09384378,0.12037053,-0.10867077,-0.028615633,0.03366645,0.088756606,0.09451091,-0.037201084,-0.14781517,0.011414055,0.041273706,-0.0050369343,0.035396315,0.09944744,0.045302738,0.09628423,0.03284678,0.08417359,0.13098578,0.062609784,0.09692532,-0.006401737,-0.008749112,-0.04722548,-0.01456077,0.13584664,0.021015413,-0.10079421,-0.053671468,0.11506069,-0.08578125,-0.12108044,-0.007627756,0.11574392,0.07728957,0.09353332,0.098160006,0.0024862897,0.07846264,-0.03772643,0.084462434,-0.098142974,-0.028017636,0.15418206,-0.12165228,-0.10197869,0.111207664,-0.04403782,0.030196516,0.05157604,0.1416304,-0.10177004,0.12890503,0.012592098,0.13237233,-0.031738147,-0.028575758,-0.14372793,0.07434954,-0.06264648,0.13548794,0.15006505,-0.043745186,-0.06030136,0.116988234,-0.14637151,0.025388058,0.00021389103,0.09949381,0.050793763,0.11104733,-0.04402022,-0.08355319,0.012703838,0.06875507,-0.067574754,-0.007467718,0.03106945,0.0897696,-0.04001811,0.12688866,0.0988129,-0.03535339,-0.038847458,-0.11327734,-0.039921757,-0.010931338,-0.034739442,0.032992974,-0.034436584,-0.06678202,-0.08248367,-0.03064366,0.09700358,-0.09333105,0.06466603,0.13331996,-0.10839002,0.077807084,0.0014785884,-0.021706795,-0.094251655,-0.02553091,-0.09127655,-0.12219778,0.044773933,0.12367636,0.09555035,0.07689284,0.05657717,-0.0036012793,0.107532315,0.02631336,-0.12189867,-0.0294816,-0.09308367,0.09495032,0.1005995,-0.05841017,0.020930989,0.046378776,-0.033321496,-0.09097177,-0.13402465,0.14286737,-0.041105088,0.0012222728,-0.13235475,0.015215354,0.13228852,-0.08874383,-0.088109806,0.050483096,-0.13241048,-0.058493663,-0.14141884,0.09488905,-0.011160939,-0.09245463,-0.11986655,-0.09684664,-0.071862236,-0.021157064,-0.019622454,-0.073803276,0.035105914,-0.017108047,0.009933349,0.12681882,-0.12616165,-0.02113004,0.1535166,0.010532973,0.118453845,0.15481542,0.11172842,-0.1498919,0.15832308,-0.11604098,-0.044297867,-0.07024538,0.0910535,0.04648171,0.06359569,0.14118418,0.009051222,-0.12350046,-0.11354812,0.057798985,-0.030716222,-0.13213965,-0.068226665,0.115206845,-0.09720074,-0.0011238469,-0.071291335,-0.08093547,-0.0800564,0.08277868,-0.14738978,0.048230935,-0.1136508,-0.04821274,-0.1280771,-0.05418097,0.060071073,0.10395793,0.06570446,-0.056169495,-0.05615107,-0.081849985,-0.0474388,0.082207896,-0.09148622,-0.023758247,0.0629038,0.015253938,0.005975258,-0.07581667,0.123763174,-0.090119615,0.06447398,-0.038886826,0.11096646,0.042099405,0.015732143,-0.07551342,-0.068954565,-0.071596965,0.01705942,0.0996793,0.13941689,-0.1238039,0.06655688,0.0032522478,0.020216044,-0.13422273,0.06740702,-0.12728703,-0.050207935,-0.1342122,-0.12458128,-0.026983062,-0.00900986,-0.02498851,0.05045558,0.0007706771,-0.021859264,-0.1403964,-0.07242638,-0.06857318,-0.14211144,0.05873672,0.061381835,0.1002959,-0.041963186,0.12445615,-0.08714883,0.0030746176,0.09187111,0.06386312,0.004110928,-0.0070161344,0.03980644,-0.023570491,-0.05500721,0.07211161,-0.124224566,-0.05896225,-0.022385595,0.014049114,0.06730237,0.071485505,-0.07306385,-0.0076593943,0.029889097,-0.09035047,0.083751135,0.023495723,0.037853673,0.087302975,-0.08024309,-0.10979765,-0.041661922,0.08110818,-0.14532992,-0.018310687,-0.10855743,-0.01048063,-0.053752653,0.013792564,-0.08536916,-0.07894615,0.054045577,0.092202365,-0.0059265047,0.15871346,0.12678586,-0.05570634,-0.06994031,-0.092222355,-0.015597597,0.11729932,-0.018374722,-0.1452521,0.0413135,-0.009841659,-0.034947693,0.13955927,0.021112727,0.12845306,0.058039468,0.10613185,-0.050892092,-0.12740465,0.02363936,1.4367662e-5,-0.03080093,-0.1421186,0.15132073,-0.07977249,-0.07119876,0.07223128,-0.08627517,-0.07145056,0.04356958,0.018781705,0.020300008,0.0058654896,0.15548202,-0.10809507,0.14933509,0.041324317,0.016871527,0.094686866,-0.0052600265,-0.06266986,0.06788168,-0.12992342,0.07261501,0.15226893,0.102735445,0.14639853,0.034029875,0.085659504,-0.035689045,0.00876888,0.11416468,-0.14847769,-0.064319156,-0.07718996,-0.08452318,-0.12730555,0.057766624,0.12779202,-0.073496334,0.15827574,0.12764281,-0.0134687405,-0.08624676,-0.058960777,-0.12833104,0.07922378,0.03848744,-0.03834222,0.14987588,0.12799266,-0.12957464,-0.08536727,0.15013951,0.07001366,0.14631186,0.062163737,-0.022010999,-0.024748009,0.040672045,-0.10807013,0.10771119,0.116330914,0.05125251,0.11783982,0.041560594,-0.041814018,-0.13184527,-0.049131606,0.11937429,0.04446328,-0.106603585,0.04489908,0.056846563,-0.056427743,-0.12409804,0.13438822,0.13397086,0.07989983,0.14012977,0.051235657,-0.0010797898,-0.12841266,-0.010194052,-0.11830786,-0.029295765,-0.06571951,0.122152865,-0.10298652,0.008034292,-0.009551205,-0.04923091,0.1292088,0.12429296,0.12014219,-0.10072068,-0.014045455,-0.09408871,-0.04090687,-0.07739769,-0.14074273,0.065011956,-0.006017656,-0.11561464,0.027026996,-0.10002888,-0.10535877,0.03599387,0.057155326,-0.073092446,-0.06864168,0.0075749564,-0.13621102,0.038427763,0.037345372,-0.042818822,-0.031802617,0.11345608,0.0069765393,-0.0050575896,-0.042250823,0.13762566,-0.06231008,-0.13188244,0.058519073,-0.06656142,-0.0845636,0.12261274,-0.020496173,-0.118157335,0.06679213,0.13605806,0.029790066,-0.148787,-0.073916666,0.14630543,-0.14755204,0.07259204,0.1396029,0.10802114,0.05467241,-0.04070141,-0.0629604,0.11353586,0.049809203,0.024613382,0.033161238,-0.12615421,0.021120781,-0.030161258,-0.11695445,0.067542404,-0.012286845,0.06471866,-0.10209047,-0.0021142063,0.06298934,-0.1374363,-0.082150936,-0.12744144,-0.087172516,0.14511776,-0.09333698,0.023562364,0.021752078,0.04270504,0.12815732,0.121905185,0.15457499,0.047470674,0.12135244,0.06020828,0.15673698,-0.034098186,0.1052932,0.004939986,-0.094972566,-0.13126831,