{"model_state":[{"net":{"layers":[{"weight":[-0.0023680087,-0.063111916,0.048235428,-0.008438156,0.0870603,-0.034202844,-0.088446006,-0.056669425,-0.09883894,-0.0061196634,0.053913515,-0.025453571,0.14538044,0.010485236,-0.042095046,0.12873802,0.0012353964,0.17677575,-0.006669105,-0.09108602,0.076536775,0.043535326,-0.17027637,-0.013255286,0.08451485,-0.08641572,-0.07168972,-0.079190366,0.09601534,-0.046441294,0.056523804,0.03670251,0.00026234819,-0.16646022,0.06501161,0.12511323,-0.06238928,0.1959412,0.056887213,-0.14443548,0.059915595,0.029060114,0.09809891,0.14841035,-0.041844647,0.09206743,-0.15981746,0.14214893,-0.061046343,0.16238849,-0.118980855,0.07197491,0.04179928,0.021866001,-0.04701003,-0.11349173,-0.015870273,0.10478703,-0.10011161,-0.029576553,0.08307277,-0.07661276,0.091325976,0.12137192,-0.06311977,0.15462923,-0.12340294,0.057128914,0.049087808,-0.008287887,0.0025075101,-0.024276149,0.08260163,-0.012658442,-0.030331781,-0.15805686,0.028306918,0.011987479,0.13272224,0.09382213,-0.14516571,0.1458049,-0.02153315,-0.071613885,0.17112802,0.18315184,0.110583305,-0.08735561,0.06486278,-0.12119289,-0.044778574,0.16351487,-0.09398904,0.0038108171,0.03460375,-0.04444977,0.0040669097,0.12040494,0.15792537,0.087410174,0.025103297,0.0056227664,0.027954966,0.061720658,0.15670753,-0.09827389,0.13492744,-0.008586908,-0.002883336,-0.027612418,0.018870765,-0.022917831,-0.08819024,0.124982245,-0.010908326,0.19074687,-0.011911055,0.16866331,-0.10495053,-0.124591105,-0.13463137,0.07215981,-0.088692755,0.16291042,0.099610604,-0.03446446,0.09162641,0.0506111,0.12707308,0.10993482,-0.044884596,0.052090164,0.1485117,0.027256181,-0.01894742,0.18724525,0.054632436,-0.12177756,0.14599028,0.04861873,-0.09809341,0.16937739,0.17923357,0.18792304,0.11632171,0.023518514,0.042665645,-0.107587166,0.17699136,0.031052763,-0.05756068,0.10306998,0.08777012,0.12962672,-0.084931545,0.1128909,0.07596668,-0.11375005,0.18020943,0.003442995,0.09048831,-0.118680164,-0.051249757,0.05984574,-0.0839179,0.08669936,0.068208836,-0.12501045,-0.040989876,-0.08609053,0.15765731,-0.020795517,0.116568446,0.14143707,0.049472682,0.005822473,0.055815976,-0.013051146,-0.10175223,-0.04591778,0.15629719,0.02642194,0.012953341,-0.1312274,-0.06859975,0.141452,-0.013320472,-0.07432808,-0.08272919,0.16568847,-0.13125162,0.022726174,0.123009205,0.0011857088,-0.07813664,0.123890996,0.02321257,-0.030304343,0.015576971,-0.09681244,0.10585481,0.113827996,-0.081444494,0.051427122,0.14733233,-0.09457403,0.023170592,0.09685647,-0.038218714,-0.08069977,-0.052092094,0.067760125,0.18678147,0.16555193,0.05328029,0.10401463,-0.021055395,0.0903899,0.13079885,0.06334072,-0.081383936,0.03899062,0.029487085,-0.08375193,0.045822766,0.04339963,-0.007866042,-0.052026864,0.16549197,0.16213273,-0.031636454,0.12090023,0.0030972569,-0.05394462,0.19368082,0.122454144,-0.10801165,0.18568902,-0.11223071,0.092016295,-0.022647545,0.16086122,0.11284847,-0.024423255,-0.08894431,-0.03944382,0.081459396,0.15755717,0.117107406,-0.10670851,-0.09640498,-0.060627427,0.023402097,-0.09058166,-0.14984559,-0.10088099,0.117046684,0.0002662098,0.074096106,0.017659215,-0.032204784,0.100728534,0.16210148,-0.049766555,-0.008277658,-0.0720576,0.13910006,0.07989384,0.13383065,0.16808783,0.1903042,0.042448085,-0.1304656,0.010856254,0.09370341,0.093017794,-0.04733371,0.10470418,0.015957817,-0.07004131,0.056469686,-0.12066475,-0.033770055,-0.085327566,0.16033033,0.051632427,0.11064811,0.056307945,-0.11071949,-0.1355268,0.040590767,0.06319363,0.08327017,0.08474758,-0.021315444,-0.04916203,0.06294832,-0.015631579,0.1747968,0.18385027,-0.033145618,-0.07507557,0.07316053,-0.031700633,-0.07458189,-0.07120088,0.07394219,0.1811633,0.015868828,-0.07283106,0.102978386,0.14457591,-0.07666909,0.092805296,0.04681547,0.002858382,-0.111942135,0.07100374,-0.13382111,0.10451137,-0.0077128164,0.116954714,0.12857005,0.0007082545,0.09983232,0.048551567,0.06837143,0.17774676,0.009323196,0.044970814,-0.09117366,-0.084979884,-0.0504715,0.020371176,0.0056071347,-0.051616635,-0.096811,0.15524495,0.07570449,0.15081398,0.060038768,-0.10059499,-0.008427349,0.054394495,0.029896019,-0.09000999,0.040718872,-0.10437204,0.010915629,-0.026694179,-0.05673898,-0.025413187,-0.008486077,0.10792805,-0.033702634,-0.04833888,0.092319764,0.083999045,0.0105352625,0.10605478,-0.0073976973,-0.10305779,0.13406841,0.07785411,0.011667313,-0.06791737,0.07245696,0.14952733,-0.04056438,-0.033096872,0.14417493,0.06607907,0.13600719,-0.031410392,-0.15434314,0.07287424,-0.0315224,0.056140114,0.101258434,-0.06016362,-0.14640641,0.15972222,0.010884743,0.036325388,0.031497806,0.042393904,-0.06686192,0.12723294,-0.05769511,0.056276303,0.10078554,0.16941175,0.071918204,0.12432891,0.07460865,0.10609001,-0.06389469,0.08077274,0.13765763,-0.06553769,0.044306897,0.10690396,-0.00083478255,-0.09692276,0.13403828,0.0788811,-0.025762608,-0.122113585,-0.04000919,0.12129008,-0.10119314,0.10768142,0.132917,-0.015584207,-0.053038362,0.045125913,-0.13155256,-0.07106812,0.011192887,-0.10261309,0.13500974,0.17485829,-0.0643426,-0.09414492,0.089282304,-0.07759211,0.18729551,0.16160373,-0.04044492,-0.08027763,0.10833595,0.05377609,0.057030976,0.17978144,-0.12425558,-0.07544631,-0.044825573,0.029048484,-0.02381454,-0.13266633,-0.08312753,-0.05847924,0.033350613,-0.086066715,-0.06899563,0.14504354,0.09537176,-0.124866344,0.042000547,-0.05467984,0.012852116,0.045376655,0.039651666,-0.033739273,-0.04304746,0.1632553,0.1692928,0.04735976,0.04682453,-0.123608574,-0.07894072,0.02415197,0.046774928,0.06885375,0.09039608,-0.11907267,0.07613982,-0.08018761,0.028186869,0.07761562,-0.10329124,0.006353988,-0.001538528,0.108296946,0.01840238,0.06371622,-0.035206594,-0.14282185,-0.03583462,0.039381854,-0.11295289,-0.09283994,0.082079165,-0.07410815,-0.06284852,0.031797063,0.04018287,-0.050631024,-0.11593377,0.121880405,-6.154852e-5,0.122085325,0.08057349,-0.029131146,-0.15298432,-0.046874817,0.053877126,0.062850215,-0.030441128,0.08277363,0.13685393,0.03023482,0.09687946,-0.045097046,0.06992835,-0.09839293,-0.09668199,0.0065853293,-0.020044543,0.06825422,-0.04033767,-0.1374167,-0.11189557,-0.10324008,-0.13680382,0.16491883,0.1013373,-0.07628559,0.12941791,0.0003447327,0.10236004,0.018495053,-0.018005172,-0.09353342,-0.051582117,-0.013216617,0.06812162,-0.014203269,0.061567634,-0.10909973,0.16077648,-0.04959696,0.07366364,-0.07702272,0.12125925,0.06125411,0.086394705,-0.10193573,0.021601817,0.08173665,0.109072454,-0.11162344,0.08031122,0.1326083,0.057048425,0.009400808,0.056809045,-0.13814661,0.04627054,0.15290615,0.013424507,3.0322659e-7,0.027474217,-0.12967463,-0.11227833,0.056147285,0.07409511,-0.11080641,0.010266464,0.09757416,-0.12511449,0.018395638,-0.0214741,0.1380127,-0.011131703,-0.13642673,-0.0014853287,0.0932509,0.13500915,0.024285814,-0.0258847,0.028016916,0.0031424235,0.067272976,-0.04018972,-0.07776911,-0.03503332,0.16132964,-0.060842715,-0.036860876,-0.03779006,-0.067445405,-0.08395015,-0.02113146,-0.11742424,0.024243899,-0.030292226,-0.12608577,0.0018914482,0.08817555,0.08593845,0.038998645,0.13216156,-0.041835796,-0.04117951,0.116942555,0.066344984,0.1388735,0.12407472,-0.15256594,0.12791252,-0.074489035,-0.055187143,-0.10981471,0.1027422,0.115223125,0.09656752,-0.048525725,-0.06586903,-0.012411859,-0.11854271,0.13366564,0.12156266,-0.09867431,-0.067589745,0.07137672,-0.099165544,-0.043332238,-0.100102656,0.15675327,-0.009253045,0.011844033,0.12836953,0.0006715697,0.095280975,-0.030820524,0.06368706,-0.021371448,0.10866231,-0.03001545,-0.06720735,0.07664825,0.06641745,0.11222768,-0.1387646,0.111447476,0.06872857,-0.058729876,-0.054723334,0.0832521,-0.032835156,-0.11921807,-0.024816295,0.15154335,-0.11597324,0.09047963,0.14974454,-0.07311369,0.14993154,0.009244116,0.05780844,0.0824556,0.102021985,-0.06175363,0.12989324,-0.09087147,0.100944385,0.05892049,-0.05270423,-0.051214997,-0.016474541,-0.1141294,0.04836955,-0.10868179,0.055611365,-0.09281401,0.12647288,-0.05187734,-0.02552665,-0.07034382,-0.11134447,0.081766844,-0.10953136,-0.04253863,-0.097597495,-0.14444062,0.1340424,0.15707389,0.10311711,0.026892558,0.0065081855,0.016143605,-0.0068754037,-0.11895146,0.0577524,-0.1055732,-0.04780836,0.077056326,0.15732573,-0.10284244,0.05796768,0.12685418,0.12838465,0.11992855,0.092905164,0.06307782,-0.06634171,0.07058983,0.061606344,0.08399127,0.0052725226,0.12817661,-0.0014322082,0.0740096,0.11484279,-0.08921647,0.01941326,0.11621467,-0.11992864,-0.095312625,0.03894275,0.1614524,-0.0764675,0.082642294,0.15587385,0.07631209,-0.07982846,0.098760486,0.100682735,-0.13884398,-0.10075483,-0.12795007,-0.12551698,0.062910944,-0.04885764,-0.09587726,-0.10005186,-0.05377051,-0.1288196,-0.033809032,-0.12319015,0.06801426,0.09070525,-0.05571405,0.1067389,-0.02325541,-0.051932957,0.13936388,0.06309762,-0.043445803,0.15193461,0.0773614,0.0024481586,-0.0044892873,-0.041452333,0.082142904,0.04795537,0.15821743,-0.12914652,0.011113865,-0.11487713,0.15266956,0.13973798,0.04435152,-0.14239441,0.15722896,-0.12592326,-0.10581072,-0.002946524,0.048659775,0.09797647,-0.040373914,-0.03481948,0.06024651,-0.023872564,-0.11319449,0.105168395,-0.059679363,-0.06553284,0.13339724,0.06516892,0.04300296,-0.007258174,0.08983923,0.16723499,0.06403858,0.0301206,0.10505682,0.111122236,-0.13759755,0.080162995,-0.03346596,0.13616851,-0.09458672,-0.0306297,-0.03279215,-0.08994101,0.15461548,-0.043292034,0.12560365,-0.07890453,-0.12442357,0.1100148,0.0648927,0.0409556,-0.12831259,-0.099924475,-0.07141574,-0.08743181,-0.0002998554,0.0018655878,0.10931534,0.11974932,-0.16486883,-0.040083606,0.08017232,0.12658185,-0.024071978,0.14321645,0.10885943,0.12994571,0.101103306,0.18453945,0.018849557,-0.16685371,0.1900784,-0.038896088,0.10609408,0.1210815,0.1539636,-0.100639336,-0.073970184,-0.1395669,0.111689396,0.06275791,0.13271293,-0.07084056,0.14629798,0.015789073,0.013868632,0.022390805,0.079107106,-0.112504505,0.13156936,-0.13606113,0.07240703,0.10088353,0.06918703,-0.0971134,-0.0051551345,-0.0972927,0.020872632,0.119275734,-0.058106665,-0.017479958,0.0085127195,0.16126491,-0.08620865,-0.117945455,0.15595065,-0.004185341,0.1553633,0.16748813,0.13543479,-0.0064058304,0.07792295,0.059111677,-0.06714706,0.024303608,0.11367501,-0.008227026,-0.14295879,-0.095636286,0.09609566,-0.031123884,-0.0375296,0.014470425,-0.09724621,0.10477261,0.1739965,0.017799096,-0.13956423,0.11850667,-0.007549684,0.018953482,0.057222378,0.11355809,0.14807658,0.034746297,0.13907963,0.08750044,0.09387124,-0.12031121,-0.052938003,0.024081005,0.0061509437,0.0769905,0.10912638,-0.028458778,0.030684335,-0.07315684,-0.12707329,-0.009337412,0.009085706,-0.004157157,0.009566648,-0.12491978,0.052745763,-0.019859092,-0.07835628,-0.05139726,0.047193013,-0.04669044,0.06510573,0.047877923,-0.12549746,0.16998143,0.02441384,0.01964258,0.09236736,-0.032584555,0.062012184,0.03868682,0.015586983,0.0708615,0.088214375,-0.015981244,-0.06147231,-0.032274626,-0.05965882,0.030883497,-0.14277932,0.064972356,0.09143844,0.08717939,-0.10831892,-0.0861451,-0.08698794,-0.027140252,-0.03439922,-0.0369063,0.08851738,0.083731346,0.1532535,-0.0025764382,0.05988651,0.04420101,0.05220552,0.18521464,0.13198493,-0.07818043,0.068513475,0.008957941,0.15328495,-0.08336778,-0.08720412,0.07444624,0.10986487,0.17865157,0.0052873194,-0.09310238,0.1173153,0.059680484,0.14743622,-0.024790093,-0.06745826,-0.13558017,0.121187314,-0.07280451,0.12454115,-0.066899605,0.06524637,0.084302194,0.15201749,0.0257976,-0.058114395,0.11777775,-0.03146215,0.19120051,0.02225718,0.056299612,-0.13986894,-0.05005707,0.114859335,-0.0916603,0.008228464,-0.007706898,0.17209814,-0.0285292,0.016980983,0.13279855,-0.01669106,0.08131948,0.09142168,0.012608453,-0.117020644,-0.08725179,-0.08310096,0.15524705,-0.0769564,0.120869406,0.1391239,0.07322933,-0.030617453,-0.021977145,-0.14424945,0.08995131,-0.011409441,0.15834832,-0.10597323,0.045087125,-0.08007848,-0.028503237,0.09479841,0.11232369,-0.06659555,-0.07460275,-0.027415417,0.15926456,0.12873095,0.10554184,0.09885851,0.0792209,-0.10307872,-0.023688404,-0.082473315,-0.1361733,-0.012975973,0.0005526383,-0.023057885,0.118124954,0.06556651,-0.06959808,-0.15423149,-0.008917386,0.06018914,-0.07512995,0.1870302,-0.0054604127,-0.038710117,0.08812123,0.16798155,0.18253805,0.13568555,0.18312909,0.047326658,0.03895551,0.0390125,-0.011445147,0.07374153,-0.105638705,-0.014997071,-0.06958484,0.14041123,0.177344,0.09325116,-0.048646558,0.086402185,-0.10851502,-0.10669034,0.03869481,-0.061346933,-0.060905367,-0.022757014,0.13831513,-0.14155927,0.1051972,-0.021187557,0.089414716,0.12834589,0.14500786,0.118626215,-0.032878876,-0.060934868,0.051343407,0.014104005,0.09271448,0.061647482,-0.06578951,0.12930298,-0.017387649,-0.06446161,-0.1120874,0.04548638,0.010195335,-0.07384438,0.07263291,-0.051409345,0.052525874,0.010962178,-0.018473456,0.016333051,0.13152204,0.06993167,-0.066501744,0.10124333,-0.03499886,0.10525366,0.057338804,0.0931567,-0.07993117,-0.0011744999,0.03170159,0.029437445,-0.09546224,-0.059483573,0.018389445,-0.0077488185,0.10650717,0.05329054,0.13990928,0.09800401,0.15121116,0.039218824,0.09241952,-0.025261918,0.15663518,-0.08333218,0.048944093,0.1290609,-0.01928974,0.09575841,0.14278206,-0.039466776,-0.0871172,-0.052528813,0.089307584,0.11661598,0.16197138,-0.13261,0.10933191,-0.008463479,-0.08006592,-0.1644328,0.08190231,0.124567,0.0015053632,0.0076329177,-0.004237402,-0.10872117,-0.040107902,0.077286795,0.14360355,-0.0635299,-0.031473618,0.057561185,0.14366134,-0.034435343,0.027471066,0.08381763,0.085387856,0.16549303,-0.103265375,-0.12644383,0.09101733,-0.057360914,0.062079243,0.025464496,0.06184749,-0.06286429,0.122912005,-0.11114878,0.0074280743,-0.07242215,-0.034249406,-0.011716981,-0.11764299,-0.045776643,0.011621648,0.1711552,0.046665035,-0.07319183,-0.07054656,0.007168744,0.15234959,0.029674219,0.17681532,0.04531262,-0.058262937,0.115994945,0.061767478,-0.078917,0.16690525,0.022929369,0.03821357,0.037897103,-0.0812437,-0.14758259,0.02398495,0.007551523,-0.04253433,-0.11656804,0.08397918,-0.017077044,0.05222371,-0.01886897,0.10555217,-0.07363572,0.0018246799,-0.06460164,0.004010871,0.08459354,-0.089910835,-0.10783993,0.13987485,-0.02880624,-0.054115444,0.09013945,0.097851664,-0.01602214,0.09917501,0.10071426,0.106019005,0.037702873,-0.08642682,-0.051082358,-0.13157727,0.022655206,-0.037312012,-0.014089295,-0.085462704,0.030528659,-0.12770015,0.047179602,-0.16064411,-0.09487227,0.05380467,-0.036629166,0.040968604,0.07592752,0.03747721,0.042492945,-0.11403995,-0.092196524,-0.106639735,-0.065893196,-0.05408819,-0.15116203,0.07096291,0.06526278,0.12719288,0.17656732,-0.11617317,-0.08410835,-0.017708436,-0.11978529,0.17665361,0.09360403,-0.16806008,0.042837095,0.16074449,0.121459134,0.06323761,0.083142444,0.13348402,0.13461751,0.09509157,-0.13278446,-0.12068408,-0.022114402,0.14076668,-0.053345677,-0.0685248,-0.106879145,-0.08438226,-0.13255154,0.16551858,-0.08843464,-0.08387401,-0.0011792893,-0.08819582,0.0710762,0.05326885,0.03186254,-0.0020347307,0.15734577,-0.15125199,0.06098291,-0.11517677,0.012517379,0.078705005,-0.007018086,0.095162645,0.10810605,0.003090493,-0.07243519,0.13456884,0.17908297,-0.0412853,-0.0562775,-0.039021716,0.08880689,0.07903162,0.14807713,-0.034086913,-0.01842227,-0.02129345,0.01584746,0.009749402,-0.10726689,-0.098599985,-0.109135136,0.035341717,0.16109528,0.118618034,-0.043824237,0.03517436,0.15485767,0.051660676,0.0035600984,0.17872317,0.102285326,-0.044034302,-0.090843886,0.077790625,0.12875138,-0.057723757,0.07108802,0.059305064,-0.035856124,0.072673835,-0.121151075,-0.0013687545,-0.12790036,0.12735157,-0.12813336,0.004382155,0.12611178,0.1758054,-0.061010543,-0.06780501,0.13257897,0.045051534,0.021043235,-0.034760784,0.11849781,0.06057127,0.16078477,-0.11388723,0.0789593,-0.07294068,-0.09164237,-0.10029172,0.08643347,-0.094052516,0.074050285,-0.03728754,-0.12708257,0.0978408,-0.13781017,-0.028366769,-0.07895988,0.07952637,-0.029317679,-0.13491505,-0.06669753,-0.054959442,0.0831211,0.12248956,0.13889207,-0.10144732,-0.065226965,0.11692565,0.059728876,0.1571725,-0.055887636,0.13608557,0.14101744,-0.12255344,-0.10164296,0.10441697,0.16158605,0.10993551,-0.08416477,0.12289145,-0.068985924,-0.02921265,-0.123999864,-0.026655162,0.109743565,-0.03986507,-0.10618819,-0.14344028,0.103830025,-0.009081515,-0.13040815,0.029359538,0.025386734,0.056935318,-0.028133323,-0.04846059,-0.09046883,-0.07817802,0.104970865,0.051965833,-0.007636904,-0.012529373,0.028441792,-0.009744037,0.082625285,-0.08426542,-0.11557223,0.11068934,0.042884022,-0.05734417,-0.00450044,-0.09157873,0.035451,-0.12773465,-0.03845838,-0.016838564,0.05229619,-0.108275265,-0.069568716,0.04137471,0.14509399,-0.00914316,0.061055332,0.15780996,-0.11964056,0.07966545,-0.024337769,-0.031264283,-0.07755896,0.05029003,-0.08977289,0.01684011,-0.13111015,0.12678505,0.02073845,0.008448461,0.0541333,-0.072165936,-0.07298187,-0.03724497,-0.09463126,-0.0034211264,-0.13138084,-0.101365596,-0.03746653,0.06324768,0.0012333295,0.04443816,0.08183581,-0.12473192,-0.124034725,0.063256696,-0.00040653764,-0.05496489,-0.10743551,-0.11474863,-0.08548204,0.14155607,-0.11549445,0.10928158,-0.04122927,0.15647957,-0.09960198,0.10874506,0.14929973,0.0994484,-0.06636847,0.08702779,0.06957217,0.035175107,0.060539946,0.11326492,0.1029638,-0.14039658,-0.06645827,0.1157211,0.13421485,-0.103224695,-0.10111407,0.039053887,-0.07112456,-0.0120093,0.12964976,0.085105285,-0.07298026,0.040416166,0.076146565,-0.047194377,-0.0074804323,0.027278155,-0.042307023,-0.0020177315,0.15530016,-0.060805127,-0.09653195,-0.0784246,-0.072507724,-0.054198947,-0.12249417,-0.064884305,0.005959802,-0.04034564,0.028945932,0.0721381,0.10604207,-0.047170904,0.07500643,-0.11477011,-0.09367925,-0.0720832,-0.14078681,0.12273628,0.007041492,-0.15010974,0.02099894,-0.1408013,-0.10653613,-0.03381878,-0.10781331,-0.1494477,0.12090226,0.13614656,0.10503301,0.0447212,0.12987557,-0.043672603,0.12040184,-0.0042099413,-0.098549366,0.051363688,0.12188855,-0.08533737,0.045495186,-0.052760374,-0.09574388,-0.06206846,-0.09576577,-0.10171131,0.050260376,-0.10869133,0.12834461,-0.012084756,-0.102013715,0.061653756,0.145178,0.0918695,-0.105225444,-0.059856836,0.14478122,-0.11255854,-0.017577415,0.015482661,0.12225747,-0.111599065,-0.06798596,-0.037643585,-0.09057552,0.08078279,0.1026494,0.113380104,-0.108171545,0.0843588,-0.11126046,-0.09166945,0.051205978,0.06919792,0.043937292,-0.14409615,0.015174779,0.02644915,0.06629748,0.18047658,0.015696138,-0.016394667,0.06272273,-0.0922955,0.00655913,0.13572201,-0.12603772,-0.06124797,0.060528863,0.015748505,-0.14692973,0.009449605,-0.0659778,-0.06895502,0.1008498,-0.07877079,0.18681122,0.1682307,-0.051818065,0.18347037,0.010453455,0.16355197,0.13960315,0.043195266,0.12325093,-0.032133292,0.037206486,0.10015892,-0.0141835315,0.1334057,0.101981886,0.051255047,0.16708589,-0.0906638,0.09057752,-0.14744963,-0.0526557,-0.12187331,-0.09772013,0.07520718,0.103966065,0.06581524,0.13983274,-0.11792156,0.12898774,-0.1374882,0.011102143,0.12768754,0.1376158,0.12264688,0.18654785,0.10274375,-0.06769031,0.12397439,-0.07053242,-0.08164375,0.06343689,0.093428425,0.1595629,0.06341848,-0.10278153,0.19696279,0.106217705,0.15423599,0.12102182,0.04983503,0.13312489,-0.11975141,-0.016381674,-0.034306157,0.047242455,0.17238532,-0.008314062,-0.011359984,-0.0561584,-0.103688546,0.09800614,0.011555096,-0.09834006,-0.05851741,0.18673466,-0.05345494,0.041325256,-0.07681976,-0.10964539,0.1852371,-0.07435526,0.0748509,0.026687294,0.12403313,0.054820344,-0.0046525397,0.10424963,-0.016998831,0.12673673,0.1938128,0.000556232,0.061426137,-0.124312006,-0.14628161,-0.08896672,-0.06601803,-0.1296003,-0.13182385,0.017213626,-0.123615324,0.07811319,-0.1127487,-0.08801873,-0.07784675,-0.032525104,0.1341918,0.17684196,0.0029516248,-0.06981545,0.1291276,-0.09170511,-0.0920035,0.015778627,0.16175663,0.1904357,-0.025276389,0.19005753,0.14244363,-0.055842858,0.076926775,-0.108595304,-0.0466465,0.09629953,-0.00058580545,-0.086784124,0.042007875,-0.012551047,-0.052022446,-0.12904727,0.15719627,-0.11902598,0.11050266,0.11307601,-0.09353159,0.107053794,0.022467995,0.06264548,-0.022362972,-0.07229583,0.11434518,-0.15156493,0.109626085,0.110101,-0.047476582,0.080837205,0.05102012,0.12899762,0.111063816,0.120268404,0.13590932,0.12408535,-0.122084044,-0.022179246,0.08729601,0.007868516,0.0017952954,-0.007031881,0.056866825,-0.01862357,0.0117728645,0.0073253377,-0.0715965,0.06623122,0.12466897,-0.06765853,0.0018887321,0.15047713,-0.13574468,0.078397006,0.08643265,0.17548041,0.1143419,0.05005806,0.121022254,-0.03394544,-0.047209095,0.0835807,0.0044670687,-0.06818757,-0.08947376,-0.061658897,0.015287333,0.12884691,0.110413946,0.15131956,0.13395143,0.11303474,-0.09282843,0.09523326,0.000474428,-0.1064745,-0.03852163,-0.012879142,-0.04350205,0.07942989,-0.071386114,-0.013236838,-0.028777214,0.033625655,0.010444662,-0.15459514,0.11578165,-0.06346203,0.10613058,0.12706685,0.03764065,0.12383307,0.09821476,0.09418221,-0.10001704,0.11963089,-0.03470808,-0.054660454,0.0974361,0.07408143,0.06829167,0.083702825,0.05165003,-0.03746167,-0.02138107,0.14091432,-0.1382042,0.07523042,0.094504714,0.07558914,0.083250694,0.10757136,-0.08134702,-0.14706054,0.018274102,0.107544295,0.10494276,0.12724791,-0.0007421238,0.11997817,0.16433872,0.083287396,0.07692582,0.012294934,0.19683926,0.023237357,-0.018188728,-0.06598244,0.048608523,0.10126071,-0.06313422,0.06379731,-0.048871562,-0.07325033,0.08616913,0.16375992,-0.113894336,-0.06257227,-0.0828204,-0.090236895,-0.039562263,0.01224462,0.081029624,-0.0032171237,-0.050339185,-0.11287131,-0.05948839,-0.050259132,0.007320524,-0.072164595,-0.10088253,-0.06596272,-0.056029033,-0.058288135,0.14403556,-0.003673177,0.044785123,0.09722139,0.085489154,0.054696914,0.09548781,-0.06326485,0.12740013,-0.058599297,-0.030435687,0.11640807,0.0574999,-0.06837161,0.12679428,0.07833782,-0.072074905,0.03863225,0.018492356,0.09580226,-0.08194033,0.087337665,-0.016763745,-0.069068044,-0.13352992,-0.10959426,-0.13840856,0.10449363,-0.029621117,0.023300584,0.12067223,0.18901286,-0.012167107,0.051755942,0.02620549,-0.030907245,-0.07341,0.1808515,-0.065500505,0.056870468,0.09207933,0.13459371,0.025417306,0.14667803,-0.032924242,0.07108541,-0.07828324,0.15385029,-0.11811722,0.06625449,-0.0065234695,-0.11131246,0.060546573,0.13355505,-0.07127249,-0.12219011,-0.10002009,-0.10566331,-0.031487104,0.04451094,-0.007034393,0.11727493,0.0058874125,-0.097280085,-0.058155023,-0.15840715,0.1440699,0.15141185,-0.025946142,0.010207618,-0.15988925,0.104268864,-0.04931116,0.15530688,-0.06545272,0.014331125,0.11859287,0.00033756913,-0.090444654,0.08753837,-0.010684081,-0.13221551,0.033828635,0.12713894,0.049069587,0.078590676,-0.12201957,0.025109107,-0.049819916,-0.08752149,-0.11504796,0.09135464,0.029157493,0.023326771,0.0191633,0.1044035,0.016943563,-0.060025413,-0.04497285,-0.121328324,-0.008037123,0.17677942,0.10197374,0.07151251,0.12285405,-0.11356123,0.15325919,0.115878284,0.16683385,0.12849398,0.07548339,-0.109166004,0.067853,0.12882721,0.01033733,-0.025611814,0.0035516683,0.04861015,0.013691061,-0.14427939,0.10122195,-0.038992047,0.15759316,0.00834424,0.025811445,0.1896349,0.1683589,0.03458713,0.097479396,-0.13598268,-0.027100215,-0.009894097,-0.029890662,0.090963945,-0.104770176,0.01683896,0.08715836,-0.059773922,0.04212255,0.1638829,0.030772816,0.037912305,0.02109162,-0.10193866,-0.115603864,-0.051128883,-0.08712655,0.06945662,0.06613977,-0.03693924,0.036028203,-0.071947925,0.09275103,-0.12404185,0.06408294,-0.029431112,0.046709023,-0.07299722,0.10164198,0.00036626132,-0.0921774,0.070437215,0.1014729,0.057813283,-0.015349154,0.13828646,0.16596752,-0.07022786,0.05483171,0.12778017,-0.026971221,0.15902309,0.05904533,-0.007197186,-0.034155272,0.062302273,0.16378285,-0.1272368,-0.14382304,-0.077133656,0.11932259,0.022435943,0.08764815,-0.086361565,0.015212487,-0.042388447,-0.0475648,-0.041141458,-0.08860488,0.18316571,0.1821945,0.037842497,-0.027600909,-0.0017320659,0.13800123,0.16197918,0.0645833,-0.11297494,-0.07162864,0.014452757,-0.09420708,0.0011122099,-0.06337696,0.09780718,-0.0079385005,0.020429563,0.007835857,-0.0828203,-0.13757816,-0.08580043,-0.11242451,0.010167159,-0.06733493,0.0049132546,-0.006855855,-0.07141064,0.12646145,0.124517135,-0.1266053,0.123856604,-0.05702584,-0.029395755,0.066379264,0.16593769,-0.09281732,-0.13270287,-0.053476244,-0.066715755,0.13307321,-0.065199465,0.0701756,-0.12140102,0.03370888,-0.055538785,-0.07528974,-0.07778951,0.13516726,0.13345471,0.11261091,-0.089868255,-0.10186286,0.08852094,-0.016897876,0.11303344,-0.13391174,0.114302754,-0.023594342,-0.12037287,-0.116017945,-0.02267315,0.08531441,-0.03955708,0.028926719,0.1296471,0.13402304,-0.1254374,-0.0980943,0.107480496,-0.009000151,0.036611054,-0.035504624,0.14993945,0.048487104,-0.069833145,-0.12838967,-0.082936026,-0.14776245,-0.047042213,0.1411643,0.06100494,0.062478747,0.11571582,0.115318775,-0.10289229,0.061260555,0.11788782,0.032541603,0.17321275,0.011043204,0.11949716,0.142815,0.062129736,-0.006895961,-0.044838306,-0.13996153,0.013203056,-0.100185156,0.15573269,-0.10175809,-0.14359587,-0.06827922,0.0023731939,-0.067041814,0.05718552,0.10880069,0.028756252,-0.10435036,0.16068251,0.08829966,-0.09141355,0.13014628,-0.019164821,-0.033178173,-0.13237049,0.043066293,0.09108586,-0.109968,0.014871066,0.081938945,-0.05509853,0.08199857,0.11412949,-0.02114026,-0.0025052663,-0.0643397,-0.031300392,0.024610234,-0.09395595,-0.030852947,0.099092856,-0.022155281,-0.0008003576,0.1614219,-0.057200085,-0.00047986142,0.09582107,0.10964358,-0.081742585,0.14020875,0.04245498,-0.14845586,-0.054337904,-0.03280509,-0.031065518,-0.003092572,0.019744685,-0.09013264,0.12568319,-0.12493818,0.14509434,-0.03389531,-0.055994656,-0.03613657,-0.1396544,0.09745148,0.14745647,-0.06338411,-0.0002538517,-0.114619106,-0.08691549,0.16296485,0.03423492,-0.06812415,-0.12764251,0.09348675,-0.0010485218,0.07086487,0.16456932,-0.021594085,0.01942089,0.0021706538,0.12812209,-0.023387248,-0.056496836,0.16108935,-0.038339768,-0.11560452,-0.11380827,0.046817366,-0.13761127,-0.14361693,-0.0070690853,0.12576099,0.11224135,-0.09158539,-0.046177804,-0.011716835,0.12594788,-0.020309422,-0.05815249,0.14716922,0.07796954,0.09711895,-0.05715343,-0.116894625,-0.073611245,0.03471297,0.1740356,0.01426692,0.14385734,-0.09102434,0.05438038,0.118133575,0.06614265,0.026667546,0.061946373,0.11793208,-0.050396673,-0.0033637101,0.11510258,-0.009298086,0.12701073,-0.11201187,-0.05984602,0.08568538,-0.10449189,-0.01632923,0.029063951,0.0005635788,0.14724888,0.024451014,-0.08471685,0.055529933,0.102489054,0.0457185,0.09573519,0.13996151,-0.037933875,-0.026929976,0.08730498,-0.0058441926,0.1328887,0.036852114,0.13209441,-0.035768893,-0.06644845,-0.069379315,-0.08025748,0.09864678,0.09841913,0.10851026,-0.12600222,-0.041161243,-0.018385876,0.11717733,-0.07919115,0.027130615,-0.055875078,-0.02208233,0.08928469,0.09420672,0.076465376,0.14303094,-0.038084082,-0.12989262,-0.021870514,0.115490705,0.03806874,-0.09875682,0.09692816,0.14726773,-0.0043025655,-0.1410717,0.106367394,-0.040148582,-0.11102813,0.046039227,0.15465802,0.025716878,0.1584542,0.10559714,0.1273805,0.047208134,0.09262226,0.0778734,-0.13464487,-0.052817564,0.070330895,-0.13961607,-0.054034725,0.05639249,-0.07832979,-0.03173896,0.08149751,-0.03912998,-0.03977068,0.055693213,0.095871575,0.10946784,-0.12504444,0.13406186,0.14834799,-0.14586557,-0.026728816,0.102146916,-0.11039488,-0.042607043,0.030425558,0.13578834,-0.14831132,-0.08614558,-0.11978193,0.13980573,0.013031412,-0.038141266,0.08374813,0.105072595,-0.091759324,0.045610253,0.07393354,0.02405953,0.13164346,-0.05482112,-0.022839526,0.111541964,-0.14114885,0.074835084,-0.003982917,-0.0053125652,-0.018813157,0.106149204,-0.019900206,0.12512925,0.017545296,-0.02705416,0.044578124,0.059420493,-0.10831109,0.10564548,-0.04630291,-0.09805521,0.0172964,-0.13016884,0.047756508,0.041942034,-0.14806953,0.11851393,0.044302616,0.049644165,0.015979094,-0.056138743,0.06915901,-0.07018364,-0.022663636,-0.013488249,0.13418356,-0.008969335,0.107107624,0.024361793,0.026120039,0.16800277,0.11842667,0.075657986,-0.041633945,0.16284035,-0.15443327,0.08726623,-0.032816984,0.16711952,0.122060984,0.15437305,0.09546169,-0.14823525,0.18043113,0.00626433,0.09724793,-0.015575789,0.029323524,-0.0421636,0.009462766,0.006944498,-0.010831342,0.039463945,0.06615352,0.020361211,0.11609463,0.017017413,0.053273343,-0.0768142,0.08072769,-0.045491595,-0.13033971,-0.058661953,0.17048897,0.105763145,0.090222664,0.11132463,-0.007479966,-0.0729391,0.07881343,0.083578765,-0.117877886,-0.046999272,-0.077633314,0.17460477,-0.037237898,-0.039835524,0.07830875,0.03686003,0.054321356,-0.08332311,-0.027322192,-0.1409827,-0.08155273,-0.086793505,-0.11964238,-0.14623292,0.068719946,0.0023062136,0.08336933,0.08128027,-0.03010238,0.06884645,-0.05899435,0.050289672,-0.12501375,0.113648735,0.017037265,-0.052064225,-0.08695985,0.13676287,-0.052784946,-0.025523324,0.16575232,0.06927279,-0.079550564,0.021361403,-0.11250045,0.0655045,0.012846815,0.12492541,-0.004895731,-0.077427104,-0.08930911,-0.021780925,0.12951732,0.12552546,0.15302186,-0.010880113,0.017271804,0.1585919,-0.096435614,0.15216744,-0.07944676,-0.101459906,0.0819162,-0.080632314,0.15759014,0.17698453,-0.096393086,0.098109946,-0.072357014,0.024201753,0.07468034,-0.05155178,0.11249232,0.100054845,-0.07346725,-0.0057431827,0.16343693,-0.14854039,0.17588349,0.14236538,-0.10429031,-0.012762824,-0.021305943,-0.01986448,0.13049851,-0.095663734,0.06515619,-0.08032541,-0.008633419,0.06609323,0.11604216,-0.04318626,-0.030306948,-0.02953566,0.07368389,0.115116365,0.16861157,0.0944939,0.07312103,0.071138695,0.069664836,0.024398334,-0.10115307,-0.10289843,0.012368037,0.024803134,0.10386574,0.10928191,0.019034198,0.08671198,0.065956965,-0.03276618,0.004258289,0.1030641,0.06440209,0.008759,0.11769747,0.08082494,-0.10945607,0.09365421,0.0823604,0.066188775,-0.07624989,-0.036760136,-0.038175,0.001965128,-0.120661356,0.041554835,-0.116303325,0.050394166,-0.06645225,0.012195377,-0.07526752,0.16548106,0.05550867,0.009854642,0.13070454,0.055960152,-0.104378134,0.048263732,-0.05324727,0.0879037,-0.056335494,0.033156876,0.14328198,0.13115917,-0.06834392,-0.13604823,0.010429834,0.14282793,-0.05761758,-0.09115977,0.0017797784,0.100023784,-0.09350833,-0.073908046,-0.103245,-0.07605053,0.14211184,0.05147145,-0.07327023,0.09971343,-0.013208486,0.057888754,0.055837296,0.13884401,-0.090596326,-0.017073832,0.12882671,0.12875304,0.13104072,0.08045137,0.05504315,0.024409564,0.08368767,-0.023676831,-0.12437082,0.042527437,-0.018010048,-0.1288633,-0.1268896,0.10726403,0.03343383,0.100763716,-0.15019892,0.006096485,0.008205187,0.109347865,0.049309313,0.09277093,0.13358183,0.1692679,0.14135855,0.16971318,0.010043868,-0.04042534,-0.09925647,-0.047847547,-0.10433701,0.10587513,0.13020638,0.1022347,-0.06571847,0.11951014,0.031854443,-0.05532248,0.17341185,-0.057986867,-0.046434376,0.044360735,0.117135495,-0.020308387,-0.06460355,-0.117213435,-0.018480187,0.029243072,0.055048905,0.07052173,-0.020567179,-0.11128446,0.12413857,0.09058865,0.09140526,0.16202638,-0.064374775,0.013502239,0.17872573,-0.0069375862,-0.07459979,-0.107277945,0.07712651,0.06859831,-0.08122643,-0.0422379,0.17026931,0.12675926,-0.009533716,-0.093340375,0.044262137,-0.023289813,0.07554835,-0.07831341,-0.044038143,0.017485205,-0.054941677,-0.10201102,-0.02469587,0.0017185513,0.049557578,0.14009316,0.09975309,-0.07210809,0.060823884,-0.071380466,-0.014474984,0.13562071,0.13559064,-0.0039629675,-0.13780038,-0.027866501,0.124125615,-0.112065606,0.04825016,0.012054893,0.14486125,0.016252778,0.05771411,0.04818384,0.09464925,0.14786762,0.0007776175,-0.0747319,-0.0041818707,-0.08782132,-0.036630806,0.06470468,0.13486658,-0.11929931,0.13189313,0.063606925,0.120866954,-0.14765444,-0.024899948,0.12615687,0.07406729,0.058092773,0.078237556,0.072060086,0.051902257,-0.11427807,-0.07551429,0.13427164,0.10672302,-0.11146132,0.058062565,-0.06536326,0.008348223,-0.056404393,0.05491196,-0.08910341,0.1503406,0.01880477,-0.04377923,0.0218501,0.16886121,-0.030210279,-0.050973423,-0.05131429,-0.011625279,0.099746205,0.06516809,-0.03173106,0.04033115,0.08991823,0.11217846,-0.083681844,0.12598847,-0.066826336,-0.11325648,0.02439925,0.11127244,-0.07374927,0.113354474,-0.01970161,0.0025743758,-0.011313149,0.16977347,0.10966448,0.107518815,-0.100116916,0.12789409,0.057051964,0.04543607,-0.0028904346,0.054217152,0.15510237,0.036159042,-0.13421367,0.036695197,0.052308172,0.06305923,-0.15490606,0.05132362,0.122255675,-0.033076547,0.05638852,0.009673598,-0.0909491,0.122090004,-0.07623512,0.07044578,0.037187144,0.086950846,0.16712537,-0.078391396,0.046159957,-0.124668084,-0.123729944,0.12338698,-0.030241793,-0.022917531,-0.04464862,-0.10595983,0.10434541,-0.087881476,0.12471225,-0.020230118,-0.11682149,0.018971108,-0.013433974,0.08344596,-0.08853834,-0.11412075,0.046051484,-0.0023260333,0.09547132,0.11095565,-0.06767274,-0.083797894,0.0604314,-0.000820463,-0.111572415,0.10422597,0.111654215,-0.12595448,0.024955383,0.019559933,0.07731274,0.08515574,0.119813316,0.047452856,0.0483424,-0.08731206,0.050722525,0.10768296,0.023470653,-0.011158358,-0.07967985,0.056884453,0.10474322,0.04318971,-0.030954814,-0.09960531,0.10655614,-0.06495949,-0.10006543,-0.1260205,-0.0075267954,0.06701425,-0.08408691,0.057510536,0.13183507,-0.0071891258,0.09431914,0.049434606,-0.11218708,-0.017511372,0.09336877,0.012517022,-0.028243693,0.054568253,-0.10615685,0.10720645,-0.13380775,0.13121289,-0.10003164,-0.015905373,-0.031076698,0.03580171,0.16227104,0.14688532,-0.098632105,0.12719046,0.10460453,-0.045626983,-0.1056123,-0.13181667,-0.005571357,-0.01746081,-0.026856406,0.12748952,-0.035687502,-0.12065521,0.10042327,-0.06444881,0.08263678,0.08308064,-0.08744826,0.07814448,0.01229853,0.0057447166,0.045912493,-0.11393375,0.018604498,0.041776314,0.048102327,-0.10746926,-0.12157699,0.0010444124,-0.12145339,-0.07216185,0.075159505,-0.11611095,-0.036162756,-0.045080893,0.12980507,0.019475445,0.12877597,0.12562886,-0.01090748,0.13314897,-0.022863943,-0.03891426,-0.09107164,-0.15112148,-0.08315202,0.117779,-0.07614845,-0.11680295,-0.040957294,0.15220699,0.08511915,-0.021560352,-7.75253e-5,0.13049257,0.1280373,0.056435175,-0.006586767,-0.050337538,0.03814972,0.12323401,0.065581754,-0.12534755,-0.084001355,-0.09890837,-0.10017849,-0.072529025,0.0038085312,-0.0042619566,-0.14588855,0.11606912,0.0362917,-0.08279673,-0.0717771,-0.08879016,0.018478865,0.060875196,0.0059569576,-0.02873261,-0.045000277,0.004869837,0.055152353,-0.0347079,0.03781267,0.043955795,-0.08310135,0.069957525,-0.022827363,0.093836784,-0.12185209,0.017769141,0.024743011,0.040897384,0.15087533,-0.09382812,-0.14600097,0.0753042,0.052406102,-0.107669406,-0.13991764,-0.08555091,0.08441951,-0.08599514,-0.11606226,0.09471876,-0.118457094,0.08880226,-0.1014057,-0.093961105,-0.05883525,-0.058857024,-0.08664503,-0.07133637,0.042447653,0.1529373,0.0050084568,-0.12748027,-0.14045408,-0.078733705,-0.052797146,-0.080278344,-0.07149625,0.06659135,0.048710234,0.14341643,-0.013163481,0.06836442,0.09437624,-0.0018775433,0.020958468,-0.12235404,-0.039817113,0.030982764,-0.039552845,0.0880176,0.03626562,0.1014144,0.04811756,0.116130695,0.034411184,-0.0661779,-0.0581638,0.03580078,0.1343801,0.081829116,-0.0768962,0.009953698,-0.061250534,-0.008507788,-0.0017378475,0.059413984,0.11745116,-0.043891367,0.086995155,0.021665897,-0.080834724,0.05279387,-0.021036081,-0.044634335,-0.0039891237,0.064533494,-0.11757459,0.050407924,-0.035746418,-0.022248683,0.11778392,-0.05691414,0.07105066,0.115618676,0.10466479,0.005821574,0.06464801,0.007686097,0.11437255,-0.035848606,0.12662576,0.143405,0.07362603,-0.0611362,-0.12211912,0.13297279,0.011046073,-0.016851032,0.003849889,-0.10392673,-0.07091671,-0.09523171,0.031065619,-0.029061122,-0.047884166,-0.02222121,0.15401113,-0.10308125,-0.078356914,-0.014442829,0.12490768,-0.09051613,-0.07054562,-0.1433207,0.12914641,0.016171359,0.0074880137,0.1455493,0.14337265,0.068124734,0.14274727,-0.10239325,-0.10670954,0.038460776,0.13089244,0.07868076,0.117455505,0.07944049,-0.07518145,0.062499367,0.14419965,0.07432983,0.056956083,0.01154012,0.11373852,-0.025225565,0.040029883,0.012772761,0.07389446,0.1431633,-0.12914814,-0.1412595,0.0682964,0.0183418,0.014122493,-0.10466185,-0.106289245,-0.060026202,-0.118606664,-0.01114874,-0.12235847,0.09355171,-0.14347766,0.1309206,-0.038082227,0.012658324,-0.03275486,0.09345839,0.0991409,-0.06690008,-0.07850973,-0.032000236,-0.0034285397,-0.08503229,0.08176775,-0.02592201,0.17296354,-0.1149723,-0.054575257,0.087538764,0.16416453,0.15777917,0.11405739,0.12079884,0.047813706,0.104418434,-0.061414402,-0.005709685,-0.1256406,-0.08703815,-0.075650774,-0.08295269,-0.064786285,0.12777424,-0.010642342,0.088112086,0.03696481,-0.10131802,0.03127629,-0.10502411,0.001939178,0.12823682,-0.117157,0.14072503,-0.11554311,0.07352355,0.076163456,0.10536986,0.056600753,0.077248946,-0.055491805,0.1757817,0.093606144,0.089247756,-0.121646084,0.09902354,-0.14890322,-0.08858082,-0.013880357,-0.015894799,-0.10779098,0.11828388,-0.0037980324,0.11969665,-0.022213498,-0.14321782,-0.10640372,-0.0038204943,-0.077488996,0.01768223,0.13267529,-0.12430509,0.14605719,0.13975477,-0.04358584,0.0847451,-0.025016317,-0.052680124,0.12720312,0.024739936,0.13654232,-0.09859266,-0.115657374,-0.07123859,-0.14444017,-0.12530097,0.03854798,-0.039771732,-0.13897254,-0.0833572,-0.13834661,0.10901448,0.022813447,0.03510716,0.08611715,0.06511821,0.123455845,-0.091442645,0.011592638,0.018571503,-0.07830163,-0.13901202,-0.07180425,0.13538817,-0.11257784,-0.043975934,-0.124111384,0.13491689,0.041336898,-0.059800025,-0.030631253,0.077123486,-0.09539078,0.06058804,-0.08111257,-0.1267366,-0.108062156,-0.018037308,-0.1332777,0.033279777,0.13276124,-0.14405742,0.06452246,-0.048915762,0.03597785,0.0364788,0.06502011,-0.12033675,0.0054009114,-0.07501244,0.03727156,-0.020403842,0.07867418,0.06724265,0.07767383,0.010091067,0.048469245,-0.027216252,0.039926153,0.08654963,0.080313474,0.0108186165,0.036636684,0.026096221,-0.09570156,-0.03351438,-0.07529879,-0.010756344,0.16156243,-0.045220755,-0.07787701,-0.0025908046,-0.13493887,-0.115919665,0.14645974,-0.1245607,0.05854049,-0.011481925,0.11428906,-0.0472084,-0.11036329,-0.14702244,-0.13184772,0.1180049,0.06808518,0.030096533,-0.024026474,-0.082459785,-0.051870883,0.05707677,0.056715004,0.04550463,-0.05163518,0.1550944,-0.034787852,-0.04362453,-0.113655105,0.1442136,0.10572328,0.15033476,-0.15875536,-0.034756634,-0.0077584265,-0.10409643,0.0044171186,-0.0127612185,0.14575732,0.01879339,-0.15964091,-0.069767684,0.014276442,0.07993777,-0.116408594,-0.043510593,0.11581131,0.16202003,0.077086456,-0.06863397,0.14319058,-0.09808846,-0.13373378,-0.09662614,-0.102553,0.108321235,0.16923715,0.049713783,0.0500574,0.17033696,0.13357158,-0.063103765,-0.10974996,0.11743714,0.06353001,0.118144564,0.15771605,-0.11759939,0.098390676,0.016342891,0.1043133,-0.0589262,0.027180638,-0.080435365,-0.11628435,-0.017327223,0.14598571,-0.08400516,-0.13835439,-0.14754656,0.17055288,0.13842598,-0.016233362,-0.08740185,0.15999171,-0.0017452473,0.08915352,0.100256085,-0.014407135,-0.056212954,-0.011424748,-0.0065214713,0.107466385,0.11962269,-0.021916816,-0.012397146,-0.13676706,0.17664391,-0.0706338,0.1345024,-0.091956474,0.13266836,0.036610506,0.014593764,-0.013229364,0.10013282,-0.10719848,0.09758919,-0.09960964,-0.0028854369,0.11789386,-0.10262399,-0.07807278,0.13193321,-0.104648605,0.07390132,0.1595398,-0.029746998,0.020862741,0.0976499,-0.11073743,0.11474764,0.014812814,0.0124268895,-0.024237076,-0.06432402,0.033283014,-0.06992198,-0.05035005,-0.06595119,-0.031908683,0.13701122,-0.16749652,0.07106099,-0.07930615,-0.11048216,-0.14952432,-0.022460548,-0.030419322,-0.100538336,0.16950431,-0.12867455,-0.09227571,0.002682171,0.03357306,0.09166711,-0.010360092,0.01246793,-0.051309735,-0.09402894,0.0011045105,-0.009781479,0.12106046,0.099494524,0.13523728,0.03454606,0.06217421,0.15336652,-0.101024516,-0.0022864502,0.104817174,0.08015611,0.15108772,0.14534381,-0.12934162,0.1300416,0.14492126,-0.13236363,0.10105656,-0.050961822,-0.1132124,0.11397626,-0.09689623,-0.095670864,-0.08862529,0.15145344,0.102077,-0.03581081,-0.08183904,0.08568458,-0.06336568,0.057800476,-0.10579726,0.08665412,0.044307396,-0.06889533,-0.077551335,-0.09250591,0.06227563,0.09129753,-0.08255788,-0.11313459,-0.0032246457,0.03263143,-0.03218072,-0.070723645,0.11458598,0.09946877,0.055507172,0.0053221793,0.044582002,-0.12545362,0.015653946,-0.07802225,-0.03199223,-0.026747135,0.07892289,0.013557893,-0.057407495,0.07092952,0.09711263,0.17335011,-0.1035403,0.06948084,-0.082848996,0.07973878,0.14574237,0.0917959,0.07508322,-0.009909316,-0.07482546,0.10173268,-0.052039836,0.004729265,-0.1021448,0.031136747,-0.035528474,0.043113332,-0.04692929,0.110461906,0.14466839,0.011508606,0.057972368,0.011725532,0.035809316,0.104197785,-0.1130376,-0.14075099,-0.017019555,0.09296361,-0.058188893,0.14306106,-0.131103,-0.010318329,-0.019996786,0.13053396,-0.012832579,-0.04260413,-0.048377655,0.13249128,0.07847679,0.104345076,0.013064595,-0.046716973,-0.13268815,0.10398621,0.16381551,0.0047652805,0.059024833,0.045529436,0.004016421,0.08644552,-0.10748144,-0.149601,-0.11897262,-0.013702864,-0.02288374,-0.07388333,0.0087192375,-0.03239118,-0.11777816,0.043905254,0.1275986,-0.09335353,0.040339734,0.13733527,0.049058173,-0.11745385,0.011163217,0.10587445,0.043037903,-0.03391879,-0.054165486,-0.0019771745,0.05899018,0.09344353,0.08996084,0.13458359,0.09179785,0.1504291,0.05066839,-0.011826924,0.027270023,-0.012887521,-0.028847514,0.029136317,-0.020324664,-0.02819207,-0.022604238,0.009036049,-0.039822258,-0.11435656,0.012851117,0.031121442,0.07066212,-0.106774,-0.10012582,-0.05396558,0.10161179,0.11664894,0.12011369,-0.051284343,-0.10146785,0.009190005,-0.059155814,0.13507412,-0.034460217,-0.09827754,-0.0045798253,-0.03191427,-0.059301328,0.002875801,-0.098734185,0.0809586,0.048399817,-0.052156076,-0.107734725,-0.010269071,-0.07136794,0.06597167,-0.14110573,0.12031337,-0.0702498,0.007542422,0.0433411,-0.14594814,-0.13085835,0.06829125,0.10116661,0.025950337,0.15921488,-0.081805356,0.060256332,-0.05480699,-0.0069017257,-0.102776475,-0.105280526,0.12759152,-0.044042695,-0.025251888,-0.07421857,-0.11589436,0.13892378,-0.008043489,0.07642369,0.08018133,0.10977669,-0.09141037,-0.09321545,0.103146814,0.1424955,-0.14304265,0.0323463,0.07786495,0.083558954,-0.08020718,0.017938819,0.12433028,0.08662994,-0.008330981,0.15310337,0.15523784,-0.04006757,-0.102909535,0.11224017,0.057147138,0.001496129,-0.06428889,0.11634074,0.0704998,0.078499705,-0.12436584,-0.101910576,0.065220766,-0.0667285,-0.0330916,0.14443731,0.0011337303,0.08089322,-0.13215485,0.13867064,0.039156128,-0.029751161,0.043961857,0.0717378,-0.05858464,0.117862456,0.0035793043,0.03973873,0.073239855,0.025248028,0.05466123,0.028939359,-0.023382716,0.103772886,0.09745907,0.1114052,-0.12140928,0.08547259,0.13719065,0.11838548,-0.09440898,0.10606579,0.08963356,-0.10163901,0.03989834,0.050203294,0.11466643,0.08557146,-0.019830046,0.0020686295,0.02358955,0.09125431,-0.036471732,0.023526143,0.039723925,-0.05817195,0.0023706716,-0.016603999,-0.015977276,0.12639321,-0.015949996,0.050690584,0.13569954,-0.026005039,0.05049974,-0.08153291,0.054953627,-0.026714778,-0.026898004,0.13739936,-0.03930225,-0.0454854,0.1311531,-0.058930933,-0.102816656,0.0005180715,0.09205191,0.1335173,0.054077942,0.056776326,-0.13353604,-0.052366916,0.021234725,-0.111249894,0.02789194,-0.06278103,0.029065534,0.111405216,-0.13536537,-0.038947888,0.059847545,0.033961073,0.06595781,-0.06717082,-0.017161418,-0.06503469,-0.050614398,0.10275637,0.05527892,-0.012844983,0.10899379,-0.11484497,-0.11708152,-0.103656255,0.14505053,-0.14530818,0.1142595,0.029535478,-0.08878373,-0.09064279,-0.080989085,0.06544601,-0.006186292,0.012850065,0.002738815,-0.029036887,0.15806618,0.07513969,-0.11908373,-0.03059351,-0.0133689,-0.054977138,-0.12774043,0.111138925,0.11275499,0.078856155,0.03739714,-0.028248712,-0.0027616236,-0.086845,-0.08781628,-0.00054159353,0.09360203,-0.12795262,-0.0655133,-0.012770469,0.013467556,0.13604045,-0.008040051,0.11942172,0.07414196,0.11515747,-0.0031986302,-0.010781405,-0.077162944,0.12946321,-0.1279459,0.01785839,0.01756581,0.08335144,0.0837792,0.14634179,0.040916715,-0.13622919,0.07758025,0.024179643,-0.030636981,0.15660432,-0.07833434,-0.014797928,0.021051846,0.14871314,-0.14519045,0.1246777,-0.006749467,0.1496037,0.12048551,-0.092907265,0.087214865,-0.13984232,-0.12306797,-0.0863054,-0.01100832,-0.058839478,-0.12601857,-0.10680307,0.06824462,-0.13146421,0.04056483,0.104323015,0.110652074,0.11141106,-0.09654769,0.0067574577,0.027412288,0.13389131,0.12088899,0.091020934,-0.094301626,-0.061002143,-0.010937727,0.016583906,-0.087877795,-0.10685358,-0.13232681,-0.08821463,-0.115789205,-0.043593735,0.05895916,0.021385357,0.05402875,-0.1048025,-0.048620507,0.13071544,-0.03791553,0.12092363,-0.08316083,0.033943005,0.146337,0.08633344,0.11066113,-0.12414652,-0.027534133,0.06992785,-0.077224106,0.022479871,-0.0909018,0.01375491,-0.0447589,0.12518495,0.08488741,-0.036182158,-0.096181475,0.07606871,-0.102135524,-0.010533277,-0.13707046,0.041446045,-0.061078805,-0.06340783,0.011955857,0.07361275,0.043368373,0.11538925,0.13648741,-0.06914703,0.11087124,-0.060685556,-0.101564534,-0.11137326,0.058031965,-0.12911794,0.10441115,-0.05832934,0.016098747,-0.013924114,0.015520456,0.029383494,-0.12145919,-0.021423064,0.09804414,0.03004424,-0.035748105,-0.11106943,0.104322664,-0.12059559,0.1705519,0.15391506,0.008880127,0.0064839157,-0.065862,-0.046245646,-0.04186109,-0.07570287,-0.004770196,-0.070037775,-0.08556352,-0.0782988,-0.015320346,0.08098391,0.16346192,-0.052038427,0.081580386,0.11656378,0.06878469,-0.06156785,0.1392567,-0.07374457,0.010450675,-0.030100206,0.076744236,-0.10307542,-0.099412456,0.06775517,-0.040128395,-0.07586169,-0.06077459,-0.09557472,0.11316014,-0.10749543,0.10606938,-0.011952446,0.09295077,-0.027314592,0.0048065805,0.0063294843,0.013333358,-0.13598356,0.15453747,0.14351468,-0.0033574642,-0.03958233,-0.025059175,-0.024206804,0.03262206,-0.12582818,0.08511767,0.07681277,-0.042415455,-0.15085386,0.107994676,-0.10533584,0.065587796,0.009926591,0.008889122,-0.0019748255,0.14580277,-0.0640028,0.008926307,0.0066497694,-0.111957796,0.05337382,-0.11970169,0.023191141,0.08024375,0.016204821,0.08996189,0.11220556,0.16394958,-0.119692676,-0.08809359,-0.05489029,-0.05772708,0.08601979,0.15060446,0.087450184,0.16657425,-0.027616095,-0.10304654,-0.04545527,0.08064009,0.11183192,-0.056733746,-0.033755872,0.06300396,0.00016155813,-0.0838541,0.08717682,-0.1589398,0.1506719,-0.1331926,-0.052617162,-0.03947825,-0.018687734,0.030117085,-0.032592826,-0.09668072,0.1411501,-0.10781445,0.17115279,-0.037309147,-0.019772993,0.16126975,0.14125758,0.005367624,-0.054513216,0.15028054,0.040378954,0.031898618,0.014480556,-0.039960567,0.13423301,0.097223684,0.08373796,-0.009509386,-0.026573332,-0.09301048,-0.027584653,-0.058441915,-0.018849455,-0.06619015,0.04579178,0.109238714,0.013894894,-0.11285228,-0.034999713,-0.056842923,0.06767111,0.12845339,-0.11163226,0.1369034,0.013219573,0.04982257,0.123644546,-0.08311537,-0.0079831,0.08830336,-0.104336075,0.031772472,0.09792026,0.011290445,0.022068152,-0.12268544,-0.13760512,-0.065268755,-2.5809932e-5,-0.099120826,0.09004104,0.13064256,0.036983866,-0.026485752,0.09284992,0.00068295543,0.116758965,0.011617395,0.106119916,0.021403193,-0.006595713,-0.013698403,-0.047896706,0.044297174,0.029936329,-0.12911832,-0.10626472,0.11331643,-0.065974645,-0.102846555,-0.10193673,-0.08060597,0.074701704,-0.022551388,0.09928036,-0.084221214,0.03468113,-0.094217725,0.07605772,-0.09342268,0.12168857,-0.14574373,-0.10254222,-0.09880706,0.015182555,-0.06963873,-0.07379001,0.07785291,-0.024463322,-0.043096974,0.00025371645,-0.04151235,0.07390494,-0.04691716,-0.11562964,-0.118343815,-0.0038670094,-0.1451511,0.13264126,-0.030704321,0.038602907,-0.08174904,0.0031347524,-0.109103,0.15414785,-0.113084115,0.027017023,-0.09491939,-0.06693257,0.11748771,0.14540812,-0.13046269,-0.09620217,-0.03566176,0.12821221,-0.064811416,0.08536319,0.09852006,-0.14645872,-0.0109764505,0.022372263,0.0020270366,0.08982992,-0.012982721,0.1192956,-0.024994753,0.008586739,0.04308616,0.016926138,-0.049904548,-0.11573157,0.17490071,0.098074354,-0.030248381,0.12887357,0.11692976,0.024196835,0.1686828,-0.07595361,-0.08774233,0.05225333,0.15620919,-0.04342522,-0.120866306,-0.022217399,0.11916141,0.12865824,0.13309254,-0.13553306,0.12242017,-0.04761719,0.11416728,0.13001917,0.01051695,-0.0061191204,0.10257143,-0.09666674,0.09653401,-0.10663135,-0.0231273,-0.09879533,0.02665682,0.129221,-0.072885215,0.12459324,0.018608412,0.028429523,0.09582373,0.036372863,0.05244025,0.051669575,-0.053753223,0.053484254,0.0522744,0.11173981,0.04666573,-0.017815067,-0.025014175,-0.050985813,0.018441703,0.0989179,0.074084766,0.11580153,0.09503007,0.07389757,-0.13195641,-0.107156165,0.14747594,0.043379534,-0.1225784,0.014423541,-0.03242192,0.13830459,-0.036741205,-0.005794118,0.032889012,0.005089595,-0.11210864,-0.02720532,-0.11662709,0.034395013,0.15690465,-0.061524883,-0.07508072,0.117270954,0.04160437,0.050385877,0.03850234,0.040276498,0.07992251,0.0122773945,0.056501623,0.041391328,0.1240078,0.12634121,0.06624794,0.14822498,0.13988864,-0.115501285,0.1582616,-0.043538045,-0.10508132,0.050070573,-0.070030026,-0.011823445,0.08885358,0.020237757,0.022935605,0.011266378,-0.04684363,0.04872172,-0.10665691,0.06684866,0.10594875,0.11742641,-0.054522946,0.027368892,-0.056636892,0.06914478,-0.09240619,-0.07203365,0.14670198,-0.04279261,-0.09461583,0.16081254,-0.03563508,0.11358438,0.12398605,0.093823224,0.0085383775,0.13454571,0.056126375,0.13081248,-0.05982537,0.15087256,0.020149183,0.16349308,0.14254954,0.08455543,-0.06873287,-0.0809215,-0.027702589,0.109323144,-0.110947415,0.037944313,0.08602478,-0.09988479,0.097269766,0.08925931,-0.015794458,0.041199215,-0.018008338,-0.10841395,-0.021290105,0.10622975,0.13395263,0.09574579,0.009872737,0.028367126,0.04920356,-0.04239209,-0.06840604,-0.022168985,-0.018154722,0.12661824,0.06939776,0.1771262,-0.09570826,0.07422846,0.10968007,0.0498007,-0.07481835,-0.0030565725,0.1601713,0.10858742,0.090206146,0.01408511,0.16196856,-0.1085759,0.043536894,0.12248931,0.08143949,0.09183499,-0.06145971,-0.017960582,-0.13470529,0.008822249,-0.02718642,-0.03909227,0.103935115,-0.10982264,0.009471962,0.05500679,0.0389808,0.16007715,0.10728438,-0.044607308,0.09109827,0.16290462,-0.14059103,0.04924149,-0.07678494,0.11358366,0.15462618,0.071857005,-0.00081091636,0.030614274,0.16572379,0.08002992,0.09201452,-0.06634821,0.00051508925,0.08762292,-0.04321741,-0.050263602,0.07228721,-0.05188476,-0.106059544,0.07085393,0.17371608,0.0064512817,0.018830128,0.15316762,0.11148641,0.06946357,-0.0042594196,-0.026895821,0.030334277,-0.04028217,-0.079265274,0.15751535,-0.15022369,0.113522284,0.00094788626,0.13037358,0.0469767,0.15015824,0.13142537,0.076911375,-0.0004949367,0.0032007978,-0.036623128,0.039532553,0.0010538741,0.050612766,0.12502961,0.057300005,-0.03563954,0.092026405,-0.118100405,0.057449706,-0.090495706,-0.13802503,0.0068031913,-0.046448227,0.035739493,0.072390415,-0.01838845,-0.040366217,0.12563924,-0.010216068,-0.063525826,0.1582757,-0.048773833,0.065672934,0.14627595,-0.09188888,0.062971346,-0.04495586,0.15655072,0.070587695,0.083288185,0.0023690136,0.07617947,0.059301313,-0.14518973,-0.11049366,0.04526078,-0.0141923595,-0.02816846,0.0645714,0.032702472,-0.05072276,-0.020462556,-0.06629767,0.15308763,0.027526034,-0.018814389,0.0357662,0.028189333,0.07357631,-0.037406642,0.03882688,0.10771562,0.08551258,0.104285136,0.082838885,0.029505514,0.06198174,0.1154071,-0.00579823,0.11865155,0.012505189,0.010702018,-0.014722069,-0.048226446,-0.13642932,0.046178274,0.06878673,0.024799313,0.006789407,-0.0138612,0.04040533,0.05504183,-0.101648375,0.0670112,-0.075894654,-0.13959587,0.054858714,0.13454285,0.05038624,0.14244348,-0.031230794,0.096115336,-0.010859758,0.012921947,0.03892985,-0.055846985,0.029953506,-0.08098722,0.13861446,-0.105568364,-0.048675098,0.11184631,-0.13467866,-0.010123275,0.052259773,0.11955613,-0.12612471,0.051164355,-0.13527745,0.020327948,-0.13345739,0.124623254,0.10794844,-0.14500996,0.091818534,-0.016469251,0.061957605,0.03628686,-0.04377106,-0.019688122,0.057394333,0.13678494,-0.108876735,-0.066528425,0.12621224,0.12514384,-0.082766205,-0.07820604,0.05227085,0.09091373,-0.04825474,-0.03766827,0.16568631,0.0056379405,-0.03330012,0.13975394,0.14076482,0.116554536,0.06591065,0.010298894,0.045555554,0.016076501,0.123703696,0.090337686,-0.07009875,-0.08607805,0.14333737,0.083328456,0.10665877,-0.056934,0.06285341,-0.11254598,0.019957041,-0.11829996,0.06328021,-0.048709273,-0.018238215,-0.112485,0.034755826,-0.079648115,0.01996859,0.06850585,0.1069523,0.061339464,-0.15645403,-0.020474149,0.109781906,0.08297394,0.063906804,0.018904071,0.03404934,0.0401715,0.13508178,-0.01444925,-0.08795247,-0.09231832,0.03991266,0.0019623423,0.07489411,0.051724162,-0.04488269,-0.08709751,0.123486854,0.110227115,0.053394936,-0.082888186,-0.08112503,0.06390056,-0.030074336,-0.033048686,-0.135208,0.006805675,-0.017747847,-0.076168664,-0.13179192,0.08044514,-0.12449322,-0.008372093,0.023907917,0.022924488,0.10324171,-0.104770616,0.039414003,0.019055108,0.029595315,0.025977438,-0.027857998,0.088620536,0.020616679,-0.095155016,0.1456911,-0.037049633,0.116246276,0.08532061,-0.081798844,-0.14571026,0.15570952,0.05126311,0.08075144,0.076309115,0.1095787,-0.02882231,-0.032682393,0.0056766514,-0.056022953,-0.029770836,0.0066247415,-0.06163698,-0.072534084,0.01808701,-0.036345247,0.102662005,-0.08071408,0.07297897,-0.09587075,-0.003799204,0.0557263,-0.066230536,-0.062741235,-0.025989102,0.11783264,-0.13064307,-0.14625598,0.04935955,0.00034652182,-0.036399744,0.08181676,0.10193582,-0.05985746,0.1548247,-0.051588222,-0.14335847,-0.08465796,-0.035161458,0.065107144,0.14135565,0.08287321,0.14187147,0.07161007,0.12236885,0.14775498,-0.07574371,-0.082243554,0.063572355,0.13669616,0.022510739,-0.059304725,0.060806647,-0.13343345,-0.07936387,0.095165,-0.09881057,0.10602294,0.017389936,-0.011246211,0.06065334,-0.11383484,0.022028519,-0.10566659,0.08610152,-0.012111441,-0.0101785315,0.14233583,-0.05593066,-0.07824214,-0.032727815,0.13477872,-0.103603244,0.12801814,0.14673015,-0.05809935,-0.06920153,0.1299584,-0.110490136,-0.10317867,0.032824915,0.05506138,-0.10969311,-0.051269103,0.12735105,-0.04209639,-0.005892103,-0.03614664,-0.14129458,0.056402676,-0.09317029,-0.13090545,-0.14166814,0.12865378,-0.14309846,-0.07745266,0.041550517,-0.14737251,-0.00589979,-0.10693438,0.057654984,-0.012255795,0.09969017,-0.1009634,-0.039337795,0.16686621,0.07497043,-0.057960916,0.17816715,-0.09036763,0.15677413,0.121984266,0.10737798,-0.10721197,-0.08458041,0.05527804,0.06148405,-0.010839252,0.06134869,0.051947735,0.016502857,0.11908764,-0.11044578,-0.072130084,0.0772372,0.1531008,0.13688639,0.10651992,0.07797693,0.1299047,0.018011233,0.12956496,0.16838281,-0.0062691644,0.12322891,0.086962335,0.044831965,0.108716995,-0.11125695,0.12215953,0.06012577,-0.07694695,0.03351134,0.039448902,-0.075903505,-0.0034646029,0.06325081,-0.050833993,0.040346343,-0.08963237,0.09830378,-0.13330807,-0.0106987525,0.03024881,0.1029457,-0.095291734,-0.048358925,0.040336654,-0.095286936,-0.12003942,-0.08972873,-0.00010313271,-0.06331771,0.14834468,0.1633572,-0.002783011,0.03938359,0.035839662,0.13509224,0.10448265,0.11385372,0.13890307,6.413963e-5,0.008358941,0.07871309,0.013686437,-0.050308317,0.17845954,0.033038866,0.17921925,-0.06798215,-0.042548005,-0.092486344,0.13632278,0.119031414,-0.13193111,0.11689202,-0.0980976,0.0037082292,0.111441396,0.12664452,0.07930165,-0.11042221,0.11664822,-0.06547762,0.0029151442,0.12974921,0.17578186,-0.06291893,0.06027782,0.0026413389,-0.080347955,0.13111824,0.17914937,-0.01267981,0.06212464,0.10798107,0.17524968,0.022292506,-0.017596448,0.1210193,0.050419666,-0.12797125,0.03652892,-0.03976197,0.13339841,-0.0030845192,-0.025307251,0.15922846,-0.1366554,0.017352447,0.0034079477,-0.012019352,-0.015324755,0.09155392,-0.022521833,0.07881569,-0.04197498,0.10709671,0.008950696,0.10998382,-0.07241518,-0.09969487,-0.036090974,-0.012425751,-0.046060886,-0.073196806,-0.035207305,-0.07393902,-0.024015278,0.048765615,-0.097980246,-0.09109744,-0.113795735,0.019648854,0.056167193,-0.14660135,-0.063850515,0.121965826,0.07033569,0.15532571,0.052959744,-0.033433836,0.14374135,-0.09534726,0.02883926,0.0015021784,0.047214027,-0.08828776,0.12752979,0.11651336,-0.07702687,0.059475347,0.015984718,-0.07815035,0.05767952,0.090112574,0.16946289,-0.078927785,-0.055935577,0.042241,0.13115704,-0.12115085,-0.08740824,0.018196192,0.052094605,0.034032777,0.00018691242,-0.085747145,-0.06961661,0.06847086,-0.048173793,0.12433237,-0.04128683,-0.0068014488,0.008192422,0.07988944,0.10602474,0.015679918,0.10800554,0.023356633,0.10299067,0.040547494,0.14730859,-0.019979313,-0.045845397,0.07434088,-0.037559677,0.14686549,-0.14368735,0.039008956,-0.056705475,0.031071484,-0.1303947,-0.020014131,-0.072850324,-0.02990333,0.034091674,0.0966097,-0.08798854,0.024611527,0.11517974,-0.0845009,0.022658998,-0.092955016,-0.010442481,-0.06647447,0.11226272,0.1145422,0.0816492,-0.10980648,0.12524073,-0.027055927,-0.06267374,-0.08817474,0.123432286,0.07445413,-0.10574217,-0.12155034,0.13463444,0.07750109,-0.14410871,0.078081094,-0.11917041,-0.06285259,-0.030114448,-0.11628632,0.014740147,0.13692784,-0.09095247,-0.12221467,-0.06338848,-0.09284083,0.10967862,-0.10612896,0.06994566,0.11634115,-0.0076163737,-0.08672514,-0.008145272,-0.03515641,-0.056726612,-0.05714293,0.03542241,0.017112736,0.11185218,0.08017796,-0.12676072,0.1458445,0.068803705,-0.09672442,0.14591509,-0.12037753,0.027416654,0.1055798,0.11733608,0.09550079,0.0056408537,-0.044899512,-0.039327458,0.13897686,-0.07895084,0.15880494,0.024157055,-0.058719516,-0.033871848,0.1486866,-0.022092653,-0.009292539,-0.12101141,0.13045743,0.026697813,-0.028464181,0.047504522,-0.08158884,0.08042793,0.08950149,0.1259138,0.06583551,-0.09692204,-0.00044462582,0.09925408,-0.1444869,-0.01323418,0.071713716,0.073180944,0.0764635,0.0010939314,-0.11074986,-0.12426063,0.12865019,-0.040834434,-0.04711431,-0.007879367,0.10121977,-0.04934669,0.1361472,0.052807085,0.04370641,0.09803184,0.04132267,0.057132587,0.14023337,0.04257144,-0.11520211,-0.041150182,-0.122498535,0.08905686,0.14455204,-0.01204323,-0.07074785,0.018361242,-0.02672333,0.05693143,-0.13016883,-0.11862457,-0.08170669,0.1294522,-0.12227281,-0.009652796,-0.032210346,0.015203191,0.16625176,-0.0535121,0.16212334,-0.07640487,0.06098103,-0.15805951,0.030038733,0.15628389,-0.111156315,0.028923474,0.13387583,-0.037749227,-0.07600259,0.080029026,0.10605783,0.07273216,0.0072846105,0.13606678,-0.049078397,-0.033405557,0.16585208,0.14439724,-0.0560603,-0.047859706,-0.0416867,0.037422936,-0.09232158,0.05833624,0.027786052,-0.081906304,0.13997538,0.1274611,0.039719045,-0.06604719,0.041110933,0.018239846,0.099248394,-0.117099896,0.14992775,-0.14656827,0.037156492,-0.09457338,-0.026205739,-0.13091923,-0.05930135,-0.14514807,0.028388403,0.03574092,0.09895695,-0.077220194,0.11012104,0.03305831,-0.08714678,0.10245455,-0.05195676,-0.12001094,-0.067437224,-0.079776146,-0.049397755,0.07466557,0.041007467,-0.008014244,-0.0489212,0.051117305,-0.009380011,-0.09751113,-0.13055095,-0.12559918,0.012359839,0.0766538,0.043750074,0.1509153,0.1134636,0.018145785,-0.02950573,-0.031319816,-0.092545,0.09774033,-0.13757536,-0.018132724,0.07180911,0.12640373,-0.109697044,0.0034553069,0.14421725,0.15113872,-0.008888962,-0.079278454,0.0026241406,-0.0629323,-0.048694868,0.104751475,0.033209607,0.069087766,-0.050122693,0.1288808,-0.0848003,0.14079209,-0.0600097,0.1287789,0.05994562,0.09511031,-0.028002597,0.07078509,-0.13283525,-0.039347354,-0.11123286,0.018524593,0.13424617,-0.11803997,-0.051369056,0.06482895,0.105821714,0.088970475,-0.12347412,0.120419435,-0.109877445,0.03034543,-0.049820907,0.13267624,0.107481174,0.16467513,0.11679152,-0.095328204,0.0112493625,0.057963636,0.14175807,-0.12111852,0.12976997,-0.118911505,0.12964123,0.16464992,-0.05980773,0.0100531075,-0.09549224,-0.029507894,-0.12421019,-0.018679839,0.08865052,-0.1111015,-0.035325594,-0.0091879545,-0.010197171,0.12568526,0.016637312,-0.0702998,0.1367629,-0.08140358,0.08457431,0.10380345,0.07578137,-0.13061029,-0.027653765,0.019673232,0.08501151,0.12757096,0.08309741,-0.11713963,0.07253431,-0.0057230634,0.10217957,0.12524976,-0.100703895,0.008018525,0.031242708,-0.07948262,0.12024842,-0.06814116,0.089264005,0.11724262,0.12961702,0.06264317,0.12834163,-0.13996118,0.1221792,0.12727275,-0.027918374,0.002513445,-0.09107537,-0.08505792,-0.030865902,-0.006201714,0.12119766,-0.05349689,0.03063054,0.044902142,0.018456973,-0.016376488,0.11068504,0.14561357,0.1430201,0.026568096,-0.06331846,0.12512754,-0.088190384,0.05684603,0.07315115,0.031599365,-0.0035767416,-0.05987005,-0.09708624,0.08271382,-0.015206354,0.010572196,0.07455956,0.009159963,-0.0910398,-0.055895805,-0.068463124,-0.11493382,0.026204823,-0.05334098,0.12169779,-0.0076693892,0.022253513,-0.023945374,-0.09886456,-0.0829201,0.07771571,0.054993216,-0.07111238,-0.03694154,-0.10740139,-0.0176688,0.10505025,-0.001678809,0.00073534745,0.16564141,-0.07528769,0.0928107,0.03535479,-0.12481628,-0.050252248,-0.10093795,-0.1069099,0.117920786,0.037437744,0.025299795,-0.018366586,-0.024078097,0.038406074,-0.11769836,0.1528458,0.14974423,-0.059540894,-0.117000975,-0.021302685,0.0696393,-0.014285289,0.06743473,-0.08585982,-0.013283772,-0.11704175,0.11143774,0.1357344,-0.13627231,-0.056237224,-0.06704938,-0.054228928,0.06303365,-0.029297264,-0.112652525,0.06401137,-0.027678043,0.08027265,0.07299418,-0.038972605,0.118867494,0.030868983,-0.030674295,-0.1154754,-0.09001536,0.05641708,0.008546878,0.12701094,-0.07910111,-0.07870465,0.113608554,-0.07968518,0.028051337,0.1175075,0.12182346,0.052913982,-0.13881715,0.16143204,-0.020738307,0.1564318,0.06566389,0.059547402,0.044592295,0.07221783,0.14716552,-0.103230715,-0.119299755,-0.1326651,0.024041783,-0.022518031,0.03852347,-0.15018117,-0.032589372,-0.08415862,-0.11956287,-0.04142172,-0.08972292,0.0072142906,-0.0075462037,-0.06356259,-0.137059,-0.08908555,-0.02706893,0.023846015,0.064656235,0.13674642,0.11058435,0.14162147,-0.10057566,0.14188789,-0.04612591,0.07526964,-0.06467436,0.013268223,-0.082602255,0.008007607,0.07874554,0.14535423,-0.10210742,0.08958192,-0.028687874,0.14125372,-0.09478463,0.023065215,0.06041498,0.11376116,-0.027096624,0.13131621,0.043925546,-0.042185515,-0.018735185,0.08432708,0.12364386,0.0071355402,0.13579471,-0.09539046,-0.022596465,0.14049159,-0.045737546,-0.026979506,0.15970849,-0.01498096,0.12508367,-0.02598858,-0.00012329532,-0.033843417,0.06607926,0.018460678,0.056841224,-0.13469823,-0.120136246,0.118348494,-0.04280309,0.10489422,-0.03472918,-0.090646945,0.019610964,0.1165064,0.09160984,-0.052978296,-0.016848143,0.13480112,0.013985006,0.085711956,0.017399855,-0.11265094,-0.014203341,0.10290243,0.006277563,-0.0056323633,0.03263883,0.059043173,0.016373271,-0.02633697,-0.03162489,-0.13758194,0.08498039,0.027257483,-0.032258525,0.12942588,-0.04774478,0.0771933,-0.093341574,0.043335482,0.08462715,-0.062105797,0.13313194,0.112600766,-0.048676018,0.11671614,0.095579475,0.0033256821,0.14465058,0.048441328,0.0008683893,-0.052715246,0.0067620687,0.04906718,-0.021490686,-0.019385383,-0.12901264,0.03285394,-0.03479051,-0.1367836,-0.032364905,-0.06168761,-0.032731898,-0.07394127,-0.020911405,-0.061761975,-0.06046878,-0.06303808,-0.115834095,0.006857023,0.025324056,-0.07052426,0.096140005,0.043578856,-0.06766751,0.08447407,-0.12497619,0.10797025,0.13280118,-0.027301058,0.06568881,-0.0007047222,0.13933286,0.1503164,-0.012836933,0.17216744,-0.058646966,0.0012394391,-0.12463152,-0.009935893,-0.022665767,0.028989976,0.044037394,-0.06228422,-0.064130105,-0.056020875,-0.0121256495,-0.124812946,-0.088534795,0.0058675464,0.05058549,-0.08777107,-0.028790953,0.12818791,0.14392643,0.09115021,0.06487909,-0.018348467,-0.05006922,-0.09184078,-0.041127965,-0.028691476,-0.052558,-0.09758787,-0.10888564,-0.010682176,0.16120152,0.015628505,0.020863261,-0.14285427,0.17351192,-0.13703516,-0.051004324,0.16907008,0.093086444,-0.051453535,0.034132957,0.09569302,0.07003704,-0.08229081,0.025146991,0.041819595,-0.04644216,-0.10376048,-0.018136902,-0.059989568,0.091217205,0.002383646,0.01491228,-0.13595313,-0.06371436,0.056936514,-0.12931079,-0.06983733,-0.04793462,0.06341271,0.09468153,0.03263875,-0.08436449,0.030369192,0.17136596,0.04834384,0.021752547,0.10841185,0.018404596,0.123817995,0.11723976,0.113537215,0.09815567,-0.122961655,-0.10954923,0.13193843,0.0144262565,0.014487257,-0.10773428,0.08076427,-0.09515034,-0.029202243,-0.1276888,0.11400342,-0.057384644,0.004093276,0.10524604,0.120770246,-0.12847733,0.035536673,0.022754781,-0.15923838,0.040085014,0.013063893,0.05575859,0.092709035,-0.08294355,0.03393141,-0.0811453,0.1269766,-0.008778374,0.009726634,0.07847408,0.16053067,-0.06016026,0.116434224,-0.081094995,0.1765151,0.14008172,-0.075577535,0.17075354,0.15698881,0.09953132,-0.13436435,-0.11386843,-0.13517794,0.025470445,0.16423026,-0.038386464,0.14879146,0.04810411,0.1305994,0.1426386,-0.0028710861,0.0067492886,-0.06023999,-0.021194471,-0.07402076,-0.033215452,0.08411494,0.08548323,-0.020307973,-0.041201044,0.07404937,-0.08458353,-0.04948959,0.020232404,-0.055273306,0.06608217,-0.043013927,0.0841681,0.046346653,-0.11136876,-0.042802863,-0.028905433,-0.0909528,-0.11067108,0.035628714,-0.035987027,0.1370668,-0.12122058,-0.028710041,0.08339978,-0.10966517,0.04228191,-0.0654194,0.109479085,0.09535617,0.08159919,0.08897398,0.09299248,-0.12096056,-0.046297606,0.13926025,0.11362224,0.015228602,0.09225229,0.10447443,-0.09913952,0.123293005,0.15114531,0.16713671,0.06517221,-0.05090942,0.10022677,0.12480134,0.0407442,0.019760223,-0.022195864,0.057438746,-0.07339845,0.15984957,-0.12484613,-0.033689328,0.13544278,0.07019904,0.059533313,-0.036192022,-0.09423371,0.030355511,0.10805649,0.15175518,-0.12195101,-0.0028118135,-0.06677579,-0.05724838,-0.05492491,0.074983604,0.1374982,-0.070198014,0.03537188,-0.09754218,-0.13923666,-0.058032397,-0.034437843,-0.115089856,0.072140664,0.032333374,-0.056118507,-0.0072651347,-0.018503098,-0.10698986,-0.04652417,-0.10519558,0.12602262,-0.13848424,0.044694383,-0.12049437,0.14925814,0.11427021,0.16864137,0.001522108,0.027485473,0.18260737,0.050977312,0.05534236,0.053542808,-0.14103132,0.028374214,0.12483105,0.10883448,-0.11659538,-0.05862334,0.0046560084,0.049371447,0.16525418,-0.08921559,-0.013663246,-0.021869252,-0.03755349,-0.12455672,-0.0798427,-0.06010163,-0.1139368,0.080578916,-0.039081547,-0.12630169,0.06037227,-0.065018065,-0.0155063085,-0.08557989,0.08220328,-0.123060204,-0.14548421,0.04936666,-0.03970258,-0.065387316,0.124242455,0.13568999,0.017602338,-0.013676089,-0.02062426,0.11945222,0.02976342,0.1442803,0.14830834,0.09560803,-0.066028334,-0.14612544,-0.10611901,0.03754589,-0.11528007,-0.038519852,0.13532786,-0.07742994,0.123414695,0.04352803,0.008343172,0.08108043,-0.14253263,-0.05019404,0.14215706,-0.106603,0.05862679,0.03988726,-0.10176939,0.1300989,0.09677853,0.046366446,0.038479507,-0.13251859,0.045813967,-0.05743668,0.027000649,0.138534,-0.029568568,0.041640107,-0.055404738,-0.09652879,0.001271322,-0.01625876,-0.015279944,-0.11051278,0.11613394,0.039897785,0.082858495,-0.060486495,0.09390511,-0.12012289,0.11002658,-0.086559646,-0.0413262,-0.08445112,0.030853232,-0.07682185,-0.13284913,0.009470765,0.1443924,0.090226345,0.12833175,0.021059848,0.04261613,-0.07825612,-0.0122559,0.058714274,-0.124993086,0.12453137,0.14462957,-0.017664487,-0.09673964,0.114784546,-0.08684339,0.04063809,-0.06600006,-0.034071427,0.13099903,0.044916347,-0.03562622,-0.12895727,0.00990511,0.018071821,-0.12893893,0.041730512,0.09051804,-0.0541889,-0.1229171,0.12632234,0.0731772,0.13089426,0.0397164,0.07001108,-0.11899422,-0.06712941,0.07617041,0.12549557,0.087253034,-0.106094636,0.030245272,0.11780274,-0.08946398,0.047752213,-0.06861559,-0.029933983,-0.108554274,-0.10545551,0.13644943,0.07125061,0.1359742,-0.14792944,-0.06756678,-0.04022479,0.13893828,0.009085596,0.0718419,-0.113924265,-0.0706906,-0.024441632,0.09778473,0.11826762,0.08217553,-0.0020869302,0.005173579,0.14695251,0.026501529,-0.047903407,0.13497066,0.15339822,0.04128091,-0.09903445,-0.008640933,-0.07278793,-0.10863178,0.15231074,0.032424,-0.018251661,0.046700194,-0.09916778,0.07724266,-0.06352469,0.022046175,0.08999836,-0.13410531,0.12536258,0.14407758,-0.037262462,0.08999602,-0.027954604,0.14469378,0.09740553,0.075786754,-0.06292551,-0.12743863,0.13597311,0.003983197,0.040332183,-0.002008011,-0.1129834,0.008214705,0.13344337,-0.10123382,0.15705924,0.07185987,0.11747061,0.08400216,-0.031010468,0.14031427,-0.0333303,-0.10156092,-0.08993972,0.14721866,0.05890905,-0.12748213,0.06484279,0.13618228,0.13704596,0.011798346,-0.085004315,-0.07601527,-0.09521628,0.13193883,0.09300596,0.05150518,0.028852118,-0.035585698,0.0132987145,0.074211255,0.04854567,0.09274928,0.09374331,-0.111265145,0.13280195,-0.08543003,0.02115428,-0.108666256,0.011064721,-0.07571073,0.08609886,-0.12403276,-0.049827922,0.10342648,0.10836377,0.03288688,0.07454421,0.03422948,0.0818287,-0.080942534,0.11116697,-0.034180593,-0.034938015,-0.023231374,-0.13408235,0.018185265,0.100952744,0.09573327,0.1391018,-0.017255517,-0.06902007,-0.107625805,0.00072477147,0.04947896,-0.13334125,0.07806081,0.07973917,0.0645874,-0.056505077,-0.08306773,0.13231775,-0.13201196,0.08701147,0.07611228,0.10184024,-0.05632829,0.022049885,0.15052839,0.028447447,-0.08063876,0.026775656,-0.12844089,-0.112145886,-0.0069103446,0.13227014,-0.08121531,-0.13067502,0.015231484,-0.03219994,-0.05646101,-0.070851184,-0.08568282,-0.10854634,0.04995503,0.0047372803,0.002501793,-0.0086282175,-0.03300321,-0.059142545,-0.022831865,0.12882477,0.09331145,0.028795216,-0.023874411,-0.022610795,0.14449264,-0.14454249,0.12636802,0.10983959,0.15001068,-0.028815929,-0.024395138,-0.15253192,0.0687465,0.15478118,-0.009245164,0.11087465,-0.096143834,-0.13650769,0.1065072,-0.13426372,-0.056391884,0.076339304,-0.07425737,0.018302478,0.13587849,-0.09777789,0.07994833,0.10083845,-0.0699439,0.060428135,-0.12748116,0.05480591,-0.13372616,0.03772161,-0.12295087,0.069805324,0.005428562,0.051354565,-0.12808959,-0.023163954,0.12501036,0.039068557,-0.12938859,-0.021159168,-0.13647361,-0.0626968,0.009989894,0.06257243,0.14410855,-0.040198,-0.06261527,-0.11289448,0.13968533,-0.1365942,0.10127378,-0.111758776,-0.06518308,0.113531955,-0.12231191,-0.027158476,0.09361621,-0.013719082,0.034050867,0.07975559,-0.04566496,0.11871766,0.09509922,0.134551,0.07722946,-0.079537936,0.08657205,0.05697255,0.054353107,0.13390641,0.042912338,0.05767131,-0.08801598,-0.042317644,0.053635377,0.11610304,-0.14664747,0.13280718,-0.00482594,-0.13149884,-0.037544336,0.013919562,0.051126823,0.15677775,-0.010128102,-0.048178166,-0.025554465,0.10530201,0.038789384,0.09984377,0.08510444,-0.12964775,0.15635285,0.06503801,0.12875111,-0.08884603,0.049555086,0.038089752,0.030719273,-0.12592025,-0.016773995,-0.050879136,-0.1305887,0.047013745,0.10508756,0.016928943,0.08812041,0.07537176,-0.009742062,-0.033871837,-0.024167337,-0.107261226,0.040765595,-0.06665574,-0.05461564,0.081417836,-0.047019817,-0.054639306,-0.07871718,-0.13468298,0.031735737,0.0032188664,-0.06787089,-0.015626587,0.11542646,-0.021634245,0.12432052,0.033585392,0.08977532,-0.017353714,0.048435103,-0.09240354,-0.09960245,-0.13467845,-0.1325369,-0.09918268,-0.10960859,0.13773526,-0.094637334,-0.04921181,-0.040339336,-0.12107283,-0.017668245,0.06170994,0.013307188,-0.070580356,-0.051655844,0.03420279,0.12615056,0.009672895,-0.12829705,-0.12414072,0.018321414,-0.05371634,-0.09080832,0.08154703,0.10085673,0.031575326,-0.12879357,-0.09065875,0.07096646,-0.052799527,0.13090338,0.11289918,-0.13042432,-0.11490118,-0.13312817,0.06062707,0.0025964016,0.023850946,-0.106742695,0.12412264,-0.09870936,-0.10136702,-0.119554766,-0.06706782,-0.10671252,-0.08835602,-0.10629743,0.05856577,0.10366088,0.039548486,-0.03192667,0.1284334,-0.048984323,-0.09727635,-0.019257074,0.11408471,0.087384336,-0.12005544,0.0002668184,-0.13873044,-0.026730094,-0.04235936,0.084153555,0.10335825,-0.06423466,0.08898546,0.025462285,-0.020564217,-0.14766194,-0.062352005,-0.07050398,-0.019502705,0.102020584,0.07317911,0.098450266,-0.105485685,0.01564872,-0.016496204,0.018666193,0.023348534,-0.022397688,-0.093810506,-0.040632624,0.009620359,0.07657386,-0.13656968,0.036049146,0.09021024,0.12953553,-0.13761498,0.010997131,-0.084964864,-0.11502299,0.15113063,0.03454142,0.01748203,0.048915055,-0.05754152,-0.11281125,0.12972786,0.08511851,0.07466808,-0.012642314,0.13410884,0.03483056,-0.118246965,0.0020389692,0.041827306,0.04281973,-0.047769886,-0.12040089,-0.03855583,0.11977055,0.017824048,0.15118906,0.065897815,-0.053878587,0.13792214,-0.094549984,-0.11784431,0.007855034,0.114493065,0.09173336,0.1599297,-0.11543267,0.050881535,0.14234148,0.15339047,0.038941383,0.0057800044,-0.039243627,0.021302257,-0.019505063,0.034531455,0.058204502,-0.06517881,-0.06954986,0.013793145,0.11747052,-0.0050627906,-0.116308205,0.101188816,0.020615486,-0.012409991,-0.1491541,-0.015884977,-0.014401711,0.1257803,0.017050147,-0.020246292,-0.05582724,0.012955417,0.13642867,-0.09118451,0.16631864,0.08709289,-0.062246215,-0.1121644,0.06695738,0.034838654,0.058369793,-0.10373309,0.15519339,-0.03896356,-0.117755294,0.075936265,-0.0883421,-0.12752582,0.053588238,-0.09190612,-0.03527974,-0.027980423,0.052200884,-0.06851495,0.06820542,-0.07424863,0.05945292,-0.091631316,0.00311308,0.07407727,-0.09293486,0.02568898,0.11174407,0.10554743,0.06251494,0.14502895,0.14926441,0.07762925,-0.10311397,-0.06613825,0.078841835,0.12952663,0.14570528,0.12754157,0.014975531,-0.14609629,0.013094391,0.028688908,0.032829147,0.11297092,0.08896036,-0.13049188,-0.11752604,0.07715263,-0.04480203,-0.053583693,-0.045424864,0.075007446,0.07559811,0.020739987,0.014363967,-0.050351147,-0.13388297,-0.098830156,-0.031042606,-0.08664848,0.18067692,0.07520702,-0.011719978,0.06304508,0.052024364,0.06359936,0.13708168,-0.001952823,0.05739013,-0.027188677,-0.076403536,0.001844657,0.12951283,-0.0049343347,0.111619644,0.10256858,-0.084033675,-0.13275602,0.04281778,-0.04535154,-0.07313562,0.023572719,0.16404112,0.09497666,0.034997467,-0.03128912,0.120081805,-0.1009951,0.06426705,0.17211863,0.06792026,0.047799163,0.08964225,-0.11661175,-0.014605211,0.052787248,-0.07992756,0.07512834,0.0057065953,0.056282572,-0.064008825,0.14500098,0.16179645,-0.0007350706,0.09529023,0.12489481,-0.10584607,0.032672673,-0.09419019,0.047183365,-0.050532315,0.17462838,0.104759164,0.14804465,-0.13224427,-0.0943176,0.0016531534,0.03729771,0.0021140971,0.16527228,-0.039509736,-0.020420922,0.13181691,0.14171109,0.03393999,-0.09532945,0.1768273,-0.08145645,0.06908528,0.12730186,-0.116591915,-0.08209036,-0.050089832,0.10069288,0.056531638,-0.075806804,0.04025549,-0.09733011,0.06382678,0.0008565318,-0.09161592,0.10783485,0.06533036,0.08532185,0.11516242,0.023634335,0.06208703,-0.028171016,-0.10332089,0.13834637,-0.054763082,-0.027457671,-0.0031504985,-0.11260633,-0.03791798,0.07496223,0.10595591,-0.06536391,0.043913145,0.00039333093,0.1359937,-0.12003345,0.06578895,0.15456003,-0.10061928,0.15343451,0.11150719,-0.021105316,0.14465003,0.15959541,0.048612338,-0.13242532,-0.05211283,-0.1198556,0.08363149,0.024632726,0.04089319,0.09953351,-0.122303136,0.12976885,-0.033588767,-0.074875176,0.12118139,0.048829917,0.13331568,-0.086286984,0.07093211,0.1332509,-0.039968368,0.012447924,0.11319563,0.032256145,0.071911596,0.12774907,-0.05749467,0.109215416,0.14555697,0.009776345,0.12725616,-0.103950836,0.03481593,0.105389126,0.08614967,0.043127827,-0.036101043,0.1294649,0.12684481,0.07184334,-0.042214528,-0.13932317,0.120547675,0.0982524,-0.08311331,0.069692895,0.07208548,-0.09906839,0.017769715,-0.0009200046,-0.08127454,0.10306252,0.12119787,0.1356134,0.03753833,0.14019392,0.12958503,0.0897908,0.035494205,0.024292096,-0.084265865,0.16337377,0.1187335,-0.079991125,0.0073056486,-0.12237832,0.052298877,-0.12965992,0.075761676,-0.074901074,0.017117437,-0.09292541,0.11842539,-0.019984687,-0.06654466,-0.05238934,-0.010562118,0.028581303,0.117302395,0.06774322,-0.07702157,0.034923542,0.13635677,-0.009384848,0.01858384,0.16785824,-0.05396894,0.040503573,-0.10588534,0.028492581,0.017188627,0.06832394,0.09548387,0.15946327,-0.0063321996,0.011343457,-0.012077891,0.09838857,-0.14550531,-0.0595866,0.05127492,0.05685854,-0.068389885,0.031877138,0.12493225,0.009536886,0.0028251798,-0.0991073,-0.08651994,-0.012464074,0.13239807,-0.05799674,0.073676996,-0.12595652,0.10588233,0.099670716,-0.11859291,0.103942,-0.071109325,0.05714899,-0.1491522,0.018565476,-0.050606072,-0.10798325,0.13825743,-0.039544687,-0.12631561,-0.046097342,0.017937778,-0.012639999,0.12711811,0.048623595,-0.03387066,0.10133028,0.10064752,-0.13146129,-0.016440036,-0.12528548,0.018783655,-0.0991791,0.05052138,-0.14748375,-0.0030774286,-0.11994723,-0.0076270043,-0.09565655,0.13352706,-0.0052059544,0.09052236,0.0017234506,-0.012633953,0.08238457,0.045447636,-0.13039331,0.093302,-0.021923352,0.06312109,0.13240123,-0.1444793,0.11239225,0.039291263,0.08194384,-0.110384464,-0.1171414,-0.052704666,0.093870655,0.080123626,0.068724945,-0.056500938,-0.096170805,-0.06528834,0.06368698,0.056133647,0.14072989,-0.10374767,0.022378227,0.14690393,-0.12467009,0.10079092,-0.0789925,-0.13834904,0.07462765,0.011017308,-0.02289274,-0.11787429,-0.04412305,-0.07679223,-0.047819056,-0.01680395,-0.0017336037,-0.05748813,-0.02786304,0.15389766,-0.07637567,0.02752525,0.1426885,0.097087145,-0.0049103056,-0.09901204,0.059244145,0.00080162403,-0.012702717,-0.1353414,0.15601829,-0.08957329,-0.02977377,0.11467154,0.10134321,-0.024207434,0.0965723,-0.11815568,0.075162455,0.07901806,-0.06844163,0.13228904,-0.15746547,0.17449626,0.0064643663,-0.028835641,-0.14405258,-0.09544974,0.05273975,0.08591146,0.10174036,-0.111718096,0.0132802,0.02236616,-0.09543383,-0.11422703,0.06330342,-0.042571694,-0.02825526,0.05638976,-0.024889711,-0.12235318,0.018862566,0.026997881,-0.0634567,0.047380816,0.06004682,0.1517171,0.15246792,-0.109075576,0.14973515,-0.13021697,-0.12271218,0.009285719,0.027816612,-0.12261836,-0.07197942,-0.082380846,0.1106702,0.07808623,-0.059637904,-0.0708315,0.12026843,0.11111604,0.0054932586,0.13239557,-0.13056515,0.092174605,0.056929883,-0.07080728,0.11121048,-0.045393053,-0.012174689,-0.13275327,0.04926597,-0.14216635,-0.1265635,-0.017525893,0.15918,0.06375431,-0.0976244,-0.009187212,0.082384855,0.14465907,0.14228384,-0.019546224,0.04275856,0.079219,0.034310512,0.025129166,-0.0139384065,0.06440097,0.14271931,-0.07665222,0.14233789,-0.034960132,-0.13109423,0.011736707,-0.06840519,-0.10593486,-0.043410167,0.08941742,-0.018602468,-0.040448762,0.069121815,0.076761626,0.025737925,-0.06826027,-0.13867423,0.01661018,-0.024537945,0.1380386,0.1399517,-0.13409917,0.00019228164,0.060240597,0.051756106,-0.118000194,-0.10896649,-0.03939984,0.028119164,-0.12893158,0.1483072,-0.10489341,0.06256904,0.045215145,-0.16561978,-0.07785599,-0.092149936,-0.102196224,-0.097516015,-0.024397654,-0.14620218,-0.09052672,0.15023182,-0.14897484,-0.0379922,-0.07677052,-0.017751833,-0.040414732,-0.13581352,-0.067955,-0.0520702,0.10796739,0.03040214,0.08542922,-0.07530168,-0.026535265,-0.016761437,0.15179048,-0.01862148,-0.053095832,-0.11314701,0.052474655,0.031292535,-0.068994075,-0.026368547,0.15667997,0.031205742,0.118176915,-0.011606514,-0.04304485,0.018991582,0.060107864,-0.022127194,-0.091072395,-0.07404728,-0.013497792,0.0030361512,-0.12089343,0.14392309,0.084323786,-0.1251462,0.09516055,-0.015423441,-0.023464486,-0.08191617,-0.14605634,0.061545175,0.0809867,-0.05227293,0.005588281,0.042768918,0.014829235,-0.1039411,0.093154304,-0.063174315,-0.08265281,0.103015445,-0.080920175,0.005381131,-0.09784991,-0.1277099,-0.09706834,0.13034928,-0.0026167561,0.07322563,-0.051860467,0.11942844,0.08776529,-0.0043386905,0.112934954,0.10404299,0.08702205,0.09080595,-0.013699435,-0.13526547,0.14529344,-0.07761482,-0.11281015,0.055113982,-0.035770442,0.15211019,0.13381211,0.021595055,0.06262038,-0.04501664,-0.11963678,0.04303279,0.09074465,-0.07465451,-0.14233671,-0.09236403,-0.14773527,0.12249323,-0.09594047,0.098101884,-0.039425325,0.13898838,0.13565424,0.10435609,0.09937088,0.10841626,-0.057583068,-0.1461096,0.1362985,-0.09079196,0.08187098,0.029089456,-0.07885395,-0.11692996,0.09841369,0.08747859,0.031894814,-0.011741027,0.054418802,0.04737812,-0.11566035,-0.00048238886,-0.06152672,0.05848888,-0.062185884,0.070169866,-0.11603964,-0.07420862,0.10935308,0.0046825893,-0.06703999,-0.07213278,-0.052520964,-0.09821283,0.06983918,-0.010770038,-0.12398658,0.12563802,0.095003046,0.07680035,0.052654848,-0.114882745,0.053823024,0.14064844,0.09970234,0.09222649,-0.07481502,0.055706892,-0.045143303,0.13976568,0.07567309,0.051620595,0.14232287,-0.012799823,0.001841908,0.0864147,-0.057192247,0.07462092,-0.1352682,0.053381592,-0.0974867,0.010064179,0.13819633,-0.080477096,0.01934871,-0.07020313,0.034333542,-0.05990006,-0.15292096,0.05875369,0.092583716,-0.008316988,0.048781563,-0.13206641,0.13869283,-0.12338696,-0.066906564,0.0958404,-0.113069154,0.13505432,0.02923131,-0.006641857,0.08186805,0.021579154,-0.10293583,-0.0714293,-0.06299206,0.014959416,0.1061667,0.15664744,0.045719832,-0.12003221,0.11708734,0.023976712,-0.08822823,-0.051349957,0.0072541963,0.11693134,-0.032047678,0.116046004,-0.073430255,-0.10792201,0.122936934,-0.114210926,-0.13251112,0.15425637,0.083518006,0.08069102,0.07284487,0.1518525,-0.06950463,-0.08700297,0.114344865,-0.03451514,0.15275206,0.05259811,0.12461977,0.06368487,-0.0036306547,-0.06325297,-0.03321799,-0.066318,0.010466793,0.11143429,0.11390524,-0.036373794,-0.026287112,-0.13295722,-0.08555764,-0.09160041,-0.041487806,-0.034441527,0.019213773,-0.11430949,-0.111335315,-0.04920124,0.15983571,0.14982335,0.0982576,-0.000834721,0.020401625,0.08174628,0.07553945,0.01732332,-0.15109012,-0.010396638,-0.11223338,0.1418787,-0.05302826,0.11473732,-0.104286425,-0.06981086,-0.1031418,0.13742757,-0.028190816,0.062015753,0.11670681,-0.08718355,-0.14297307,0.02876994,-0.043179613,0.119121924,-0.107656404,0.04475388,-0.1252738,0.13037212,-0.10191286,-0.06290997,0.104953915,-0.06626192,0.00035246063,0.0452554,-0.11846247,-0.09476107,0.06533016,-0.064694636,-0.10691961,-0.051193662,-0.09590769,0.100106604,0.09288444,-0.0928942,-0.070250295,0.13338058,0.11839216,0.13300729,-0.12732224,-0.12193431,0.06405366,-0.010545026,-0.15520102,0.13610701,0.08056372,-0.019781545,0.012103008,0.1124725,-0.117303506,0.09832038,-0.040220696,-0.09857973,-0.00875745,0.01167482,0.07548372,0.064814314,-0.045952514,0.15982397,0.09597905,0.08320374,-0.13389653,-0.12437661,0.064614035,0.00016991404,0.12074715,-0.12852918,-0.0018592345,0.14198416,0.032009166,-0.0319674,-0.11458002,-0.07493608,0.028535431,0.09693231,-0.05378674,0.0068650586,0.033540946,0.050449435,0.0049132695,-0.10095739,-0.12266465,0.05533611,0.089523666,0.14403066,0.05501958,-0.06210009,-0.014841245,-0.07108478,-0.15025482,0.15977259,0.0917491,-0.12210023,-0.016954582,-0.06297514,0.036911067,-0.026473168,0.15745677,-0.06676259,0.1644015,0.024451412,-0.03783283,-0.01154799,0.024629395,0.104492344,-0.03449865,0.12798439,0.10875859,0.11151526,0.13425314,-0.10800988,-0.03647705,0.0046557756,-0.1143629,-0.06957391,0.13130924,-0.14865683,0.05660277,0.12178067,-0.11546314,0.070628755,0.08679002,-0.009525927,0.04235341,0.116095155,0.048691984,0.047963917,0.04287426,0.10299084,0.02688017,-0.094287045,0.14653057,0.08430345,-0.018437093,-0.052204445,0.13393241,-0.08106817,0.030081576,0.08379199,0.0018416377,-0.10167111,0.08384422,0.07507826,-0.0994946,0.0061443765,0.12938263,0.09205075,0.07625658,-0.025164112,0.0057758885,0.004196494,-0.084057175,0.08830129,-0.14107588,0.101657294,0.04904401,0.0026124578,-0.1304333,0.1492734,-0.028348112,-0.123874106,0.0029429544,-0.07124818,0.0041882307,-0.15601699,-0.092109114,0.090782866,0.01445119,0.012030586,-0.01642856,-0.11146061,-0.035912275,0.10147585,-0.053135417,-0.08817609,0.098909095,-0.03182568,-0.031324092,0.058811672,0.022662686,-0.050788205,-0.09299178,0.10164944,-0.119223215,-0.116297804,0.066576056,-0.107312664,-0.025958218,0.0401849,-0.0020819458,-0.018141095,0.038046237,0.0013539359,0.122973695,-0.1350038,-0.12753503,0.15567729,-0.13411665,-0.094796285,0.10061783,-0.010531523,-0.043693136,-0.04206045,-0.119033106,0.12133612,0.13974108,-0.017800521,-0.14544393,-0.1147435,-0.1218541,0.07806466,0.012848487,0.09997991,-0.028059589,0.14630589,0.11956425,-0.0750241,0.038782466,0.08822794,-0.0708112,0.034336958,-0.026212212,-0.07848381,0.009620259,-0.13408242,-0.00038692763,0.15020983,0.059959795,0.07289716,0.14553298,-0.06852028,-0.13754837,-0.13725835,-0.057667524,0.012003028,-0.033985384,0.100099474,-0.07954733,-0.011390815,0.111436985,-0.032284316,0.058634408,0.122134864,0.030186601,0.050734248,0.07905532,-0.10945489,0.008707507,0.057551634,0.096262485,0.02618293,-0.12247189,0.089165695,-0.114430696,0.0050896797,-0.055079892,0.01950357,0.054525863,-0.09748483,0.06980126,0.17125908,0.06538797,0.07555121,-0.09899657,-0.009022501,0.088269755,-0.043843936,0.041326463,-0.07280166,0.08214931,0.0034615062,-0.0057654786,0.029298503,0.012969197,0.1269472,0.0628726,-0.004847282,0.06432609,-0.098118156,0.11025162,0.06102644,-0.07819308,0.15823686,-0.10460789,0.039184917,0.06765418,0.0042134323,-0.11662173,0.09873217,0.028316954,0.055223867,0.023763778,-0.11161141,0.11211674,-0.09307339,0.11954685,-0.13682309,-0.10669357,-0.13671617,-0.14802893,-0.14688729,0.0022119547,0.12379558,0.01250667,-0.06542782,-0.12807372,-0.016944587,0.12802815,-0.056675132,-0.016193882,-0.047484342,-0.04703649,0.011699898,0.12004612,-0.0039602015,0.04758848,0.116241544,-0.02000351,0.09717134,0.14080355,-0.03411332,0.15554136,0.011234469,-0.09880016,0.1665195,-0.029011372,0.10896869,-0.022263044,-0.0376228,0.042378567,0.023593938,0.1219468,-0.13771805,-0.10110228,0.13852857,0.120139375,0.12970428,0.08414495,-0.14924914,-0.040521476,-0.095622584,0.08357921,0.12391452,0.031155681,-0.0020116654,-0.1455635,-0.04428491,0.074603155,0.16453922,0.09359867,0.13896623,0.040678572,0.021988591,0.15199444,0.04243959,0.095621295,0.0033359656,-0.11010615,-0.018843083,-0.11804848,-0.05521367,-0.1332185,0.089786194,0.09744409,0.033586834,0.12397158,-0.044327874,-0.12299706,0.10766773,-0.066068456,-0.07153698,-0.115540564,-0.016381674,-0.07118246,-0.124986336,-0.046435066,-0.021960132,0.031104928,0.029310593,-0.053209662,0.14529663,0.13769452,-0.12501404,0.057437517,0.14804053,-0.08786532,-0.14529154,-0.10278963,0.0086454535,-0.061977513,-0.1298547,-0.03581277,-0.14753154,0.037551634,0.12254563,-0.10720037,-0.036441322,-0.11228571,-0.13142563,0.07939763,-0.0942717,0.062871054,0.008915681,-0.043335214,0.07599179,0.07916581,-0.14563772,-0.07241339,0.10784972,0.0798019,-0.05597534,0.021176666,-0.07013529,0.006193242,0.09444138,-0.045027435,0.1302883,0.10913055,0.005184229,0.101604074,0.09906359,0.12604162,-0.06945945,0.11798396,0.024573695,0.03784485,-0.030973185,0.10942375,-0.14922948,-0.07962928,0.07014417,0.13454026,0.0680968,-0.064934954,-0.0016917932,-0.04838625,-0.12354682,0.15126337,-0.08597483,-0.0116063105,0.10636545,-0.0021079658,0.08112017,0.01104173,-0.064153746,0.024357567,0.14696185,0.1234702,0.0909723,0.1529655,0.014506292,0.07720245,0.10669724,0.13843705,0.14934094,0.03665122,-0.12725654,-0.095300235,-0.06825427,0.06589442,-0.037453268,0.013260568,-0.117821306,-0.058109794,-0.1080046,-0.034624428,-0.06313773,0.074572496,0.071731925,-0.13494506,0.0050264574,-0.12142578,-0.08441671,-0.14864127,0.083111465,-0.12793179,0.019869562,0.13669235,0.1413678,-0.061446518,0.030681003,0.1300985,0.094486766,0.102917776,0.048520803,-0.05910651,-0.12735109,-0.06508784,-0.11085867,-0.114842735,0.107692026,0.06837907,0.08079831,0.0667716,-0.07624696,-0.10772642,0.10140307,-0.07389907,0.11085043,0.09357601,-0.017891206,0.14051938,-0.007474081,0.103251755,0.05947822,0.10799854,-0.06553255,-0.089413926,0.04983914,-0.0965454,0.09974898,-0.0039883396,-0.13135974,-0.07494812,-0.09516801,0.007148002,-0.109738015,-0.006817567,-0.0634751,-0.11378647,-0.09480419,-0.14176351,-0.06108687,-0.034586415,-0.12619005,0.027489886,0.14047585,-0.13511296,-0.13999897,-0.05907262,0.059533633,0.011978985,-0.039931808,-0.14424948,0.08662728,-0.07018741,-0.017750315,-0.015475222,0.15976787,-0.0029566197,-0.05271453,-0.104975864,-0.13560666,0.10156851,0.04507508,-0.06058457,0.11674,-0.13389106,-0.13594489,0.14671673,-0.11060487,0.12169066,0.10117426,-0.10982323,-0.006155,0.094512366,-0.0888753,0.073711194,-0.02555672,0.031181775,-0.032973196,-0.10669617,-0.14774628,0.014883575,-0.029733239,-0.018488389,-0.13178913,0.11925444,0.12095331,-0.059332397,0.015456999,-0.0828881,-0.041463215,-0.023033716,0.11356474,0.0731195,-0.049701136,-0.098711595,-0.1125027,0.06069977,-0.01964163,0.1414424,-0.04340408,0.119626,-0.07040381,-0.017759498,0.03745848,0.041595157,0.0016448116,-0.085385926,-0.105239004,0.019397564,-0.117379844,-0.04921312,0.11496482,-0.10287608,-0.06846902,-0.10724685,-0.124567375,-0.05240519,-0.06605435,-0.006478703,-0.134542,0.070210315,-0.055856917,0.12437137,-0.05113318,-0.13115433,0.014200197,-0.11763663,-0.068788,0.020680277,0.04990501,0.023485433,-0.038682595,-0.00671362,-0.056354586,-0.058968227,-0.08176082,0.004498196,-0.031215696,0.019254718,-0.14942399,0.1248065,0.043558925,0.009162134,0.044354968,0.1417435,0.002598509,-0.0586214,0.027028136,0.12617719,-0.04380958,0.08850197,0.047222447,0.029054541,0.08926767,0.12360766,-0.044961844,-0.039357733,-0.06734994,0.007045736,-0.0771575,0.08280199,-0.09443778,0.07940333,-0.13654913,0.122638755,0.13434336,-0.10683111,0.03610478,0.021271344,0.06027167,-0.004092738,0.14446336,0.023916889,-0.08538192,0.12921359,-0.09820082,0.06217217,0.15549248,0.021808982,-0.0012740417,0.052410983,-0.0321187,-0.10145926,0.08901929,0.08164634,-0.044159383,0.11793134,-0.0044968384,0.11127599,-0.030147456,-0.062612906,0.08308407,-0.102816954,0.052525155,-0.06646673,0.107252344,-0.13498445,-0.04197667,0.07086212,-0.019377498,0.08348786,0.022290649,0.07174617,-0.043957613,0.091070466,-0.026721075,0.058566265,-0.045153633,0.043885376,0.026790425,-0.013594293,-0.110978186,0.04215013,-0.07759816,-0.0803337,0.074335426,-0.020174008,-0.06266495,0.06447929,-0.043631986,-0.10967395,0.044806603,0.06507703,-0.00027568647,0.08987225,0.05811275,0.1390617,0.105186984,-0.0956301,-0.02454675,0.09989548,0.011107246,-0.11285089,0.010119277,0.0054072435,-0.06620536,0.0034144383,-0.1405752,-0.07488956,-0.13196622,0.09332624,0.012090244,-0.034449216,-0.12629347,0.15876849,-0.06043948,-0.08003341,0.11700207,0.018545926,-0.012553082,0.153532,0.14343697,-0.0024656248,0.14444816,-0.028877087,0.10266851,0.14948861,0.08085449,-0.038902055,0.048770297,0.119177945,0.08406661,0.035523117,-0.101472564,0.004635036,0.1043993,-0.11737309,-0.1229437,-0.09671101,0.004689274,-0.14794376,-0.07712261,0.010633313,0.08898565,0.080350995,0.16255064,-0.038042255,-0.10541727,-0.13095692,-0.10757045,-0.13768055,-0.015655145,-0.13755816,0.1597643,0.07405302,0.12244343,-0.09083931,0.016107718,0.14337367,-0.019540457,0.13285916,-0.064790085,0.13710433,-0.045188185,0.025507113,0.12302381,-0.0149855465,-0.1489565,0.09116576,-0.13493964,-0.062937796,-0.12779124,-0.00210334,-0.042084657,0.012066879,-0.008937696,0.08267913,-0.12388857,0.06470582,-0.126696,-0.047822453,0.06675876,0.051418897,0.10282292,0.046093136,0.06954823,0.06296309,-0.108515024,0.018535355,0.09562411,0.087507315,-0.04272994,0.029458363,0.15385878,0.16175097,-0.09206378,0.13113345,0.022682918,-0.09492079,-0.037372816,0.011761284,-0.10487118,0.13131951,0.089921616,0.03562622,0.087876745,-0.046056382,0.080537945,0.079845786,0.092339724,-0.012181666,0.06215901,0.048825856,0.13267481,0.0491448,0.10587804,-0.1281899,0.04124141,0.16105658,-0.08225267,-0.045014627,0.11279112,-0.06528678,-0.02033861,0.074706435,0.039988227,-0.07264649,0.015689114,-0.028092135,0.012910434,-0.086552314,-0.12289448,0.026968764,0.0171788,-0.04945122,-0.027631734,-0.056092814,-0.09290743,0.046253603,0.053974636,-0.04662262,0.079194896,0.074470475,0.084812194,-0.124108784,0.049810417,0.12859906,0.13807076,-0.12435276,-0.09158754,0.03763707,0.044622537,0.11296859,0.13623913,-0.09245122,-0.018911177,-0.022456532,0.15643252,-0.05800074,0.14130458,0.12171466,-0.06841534,0.04189251,-0.14711289,-0.106772825,-0.1113026,-0.06684541,0.11890902,0.078175895,-0.08980278,0.13286608,-0.117810674,0.07853891,-0.0002736317,0.0886663,-0.10832642,0.05372911,-0.105949864,0.06088117,0.15889688,0.016725104,0.12971282,0.07452351,-0.11982795,-0.052332062,0.024078863,-0.10380206,-0.07194515,-0.036518402,0.17059414,0.14148168,0.07981973,0.13517389,0.0014861076,0.017402261,0.13540453,0.006138596,-0.075949736,-0.008760804,-0.040735442,-0.08831875,-0.101363294,0.059624318,0.106254876,-0.035439588,0.026111653,0.1418845,0.07211194,-0.12840445,0.13167681,0.061578576,0.13721924,0.01593945,0.11308315,0.09902939,0.025819115,0.15671171,-0.12602277,0.046546772,0.14184372,0.021019183,0.15154944,0.10565569,-0.093405165,-0.061305672,0.055192355,0.073556185,0.039016075,0.12867332,-0.09729941,0.035682853,0.1428659,-0.11993066,0.15640734,-0.11754746,0.003627446,-0.014145376,-0.07842575,0.014270547,-0.11611952,-0.020866483,0.12506413,-0.06215353,0.041908335,0.016403042,0.05364937,-0.07240543,0.15699291,0.1360443,-0.14413701,-0.11699412,0.15550385,0.07069624,0.10313138,0.16544771,-0.016254198,-0.0841748,0.0077894386,-0.026315304,-0.039356455,-0.089059144,0.043652847,-0.14033268,0.046526223,-0.0181914,0.0841542,0.073948495,0.0040263566,-0.016364317,0.0652007,-0.10490267,-0.03647727,-0.0785771,0.03540968,-0.13737424,-0.011143731,-0.09513774,0.030566238,0.06412929,0.08583852,0.09856689,0.12440242,0.16947637,0.11118831,0.035806682,0.08200665,0.077369675,0.005057302,-0.14089924,0.06750075,-0.13334621,-0.123562336,0.12634104,-0.014844451,-0.097358786,-0.054411344,-0.083712116,-0.13173598,-0.05472227,0.121160634,0.10437243,0.106099404,-0.11002397,-0.09001787,-0.005242183,0.03777847,0.067719005,0.17059545,-0.037286427,0.036184628,-0.110947415,-0.054802865,0.042463943,0.0314584,-0.108814314,-0.088791,0.12665652,-0.10436745,-0.026103793,0.030284127,0.08942064,0.098303996,-0.037201084,-0.14729303,0.015783006,0.043513417,-0.0050369543,0.04063758,0.09944744,0.045302726,0.10029416,0.03761166,0.08417359,0.14067636,0.06742511,0.10230613,-0.006401737,-0.0057689482,-0.05270178,-0.011363137,0.14027934,0.02558442,-0.09617144,-0.0544681,0.11813655,-0.08578125,-0.1165119,-0.0078180665,0.120026745,0.08220416,0.09819371,0.098160006,0.0027573332,0.07846264,-0.036640543,0.08449731,-0.09880723,-0.028017638,0.1588068,-0.12317486,-0.10190099,0.111207664,-0.041455828,0.030196516,0.050492346,0.13811243,-0.1010255,0.12972856,0.01476216,0.13322148,-0.029602256,-0.028565692,-0.14372793,0.080895565,-0.061789114,0.12912646,0.14948446,-0.043745164,-0.062401682,0.11873451,-0.14476092,0.024850102,-0.0022309725,0.099498376,0.052303445,0.11305503,-0.04402022,-0.08355314,0.019480174,0.06604177,-0.067574754,-0.0071380483,0.03106945,0.0897696,-0.044322986,0.12718624,0.0988129,-0.030510314,-0.038875688,-0.11335471,-0.039921757,-0.009869001,-0.034226216,0.033763513,-0.034944993,-0.06881636,-0.08282034,-0.029924313,0.09831711,-0.09333511,0.064569116,0.13989455,-0.10758217,0.07693491,-0.0007288151,-0.021706795,-0.09652972,-0.02553091,-0.07869106,-0.12221777,0.044772472,0.12367636,0.087806076,0.07689284,0.0522774,-0.0036012793,0.10563919,0.02631336,-0.11669813,-0.031058667,-0.09391043,0.09867362,0.10530596,-0.057275496,0.020930989,0.04734634,-0.033321496,-0.0930896,-0.13242595,0.14397699,-0.03988321,0.0012222731,-0.12783793,0.016722513,0.1460716,-0.08696042,-0.089342594,0.046986453,-0.13241051,-0.055030618,-0.14141884,0.09488904,-0.011150732,-0.09297138,-0.11986655,-0.09395506,-0.071862236,-0.021157064,-0.016531033,-0.073049754,0.035105914,-0.013104467,0.011736596,0.12966281,-0.12616165,-0.018538252,0.14804049,0.012579784,0.12096153,0.15862799,0.11248348,-0.15137914,0.15978067,-0.11886498,-0.042353105,-0.07024538,0.09167461,0.04645,0.06150826,0.14118418,0.009051223,-0.12350046,-0.111363225,0.057545517,-0.031698663,-0.13213965,-0.06685833,0.11644712,-0.10277793,-0.0011238469,-0.071291335,-0.08093547,-0.0800564,0.08277868,-0.14738978,0.048230935,-0.1136508,-0.04821274,-0.1280771,-0.05418097,0.060071073,0.10395793,0.06570446,-0.056169495,-0.05615107,-0.081849985,-0.0474388,0.082207896,-0.09148622,-0.023758247,0.0629038,0.015253938,0.005975258,-0.07581667,0.123763174,-0.090119615,0.06447398,-0.038886826,0.11096646,0.042099405,0.015732143,-0.07551342,-0.068954565,-0.071596965,0.01705942,0.0996793,0.13941689,-0.1238039,0.06655688,0.0032522478,0.020216044,-0.13422273,0.06740702,-0.12728703,-0.050207935,-0.1342122,-0.12458128,-0.026983062,-0.00900986,-0.02498851,0.05045558,0.0007706771,-0.021859264,-0.1403964,-0.07242638,-0.06857318,-0.14211144,0.05873672,0.061381835,0.1002959,-0.041963186,0.12445615,-0.08714883,0.0030778847,0.09747925,0.06386312,0.00779409,-0.0072398447,0.04263844,-0.021552525,-0.053788777,0.07523454,-0.11525503,-0.05781798,-0.022385595,0.025594145,0.06852003,0.07402956,-0.071845226,-0.0078560095,0.028513333,-0.08667061,0.09857302,0.02426629,0.03722182,0.08054358,-0.07526412,-0.111493155,-0.041661922,0.08110818,-0.12860338,-0.026759489,-0.10855743,-0.010531186,-0.053752653,0.013792564,-0.09002267,-0.07705286,0.054045577,0.10694009,-0.0043137996,0.160014,0.12678586,-0.047017343,-0.06994031,-0.087221794,-0.01573295,0.11858225,-0.019366944,-0.14495681,0.044955686,-0.00455833,-0.03386286,0.14351116,0.023376793,0.12538956,0.053409383,0.10613185,-0.054536495,-0.12740465,0.030187534,1.4900014e-5,-0.0208592,-0.14211862,0.15237783,-0.08217176,-0.07155106,0.07223128,-0.09076161,-0.07145056,0.038954966,0.0120683275,0.01272987,0.0053856648,0.1512944,-0.11262787,0.1564373,0.035072673,0.016871527,0.08927353,-0.009319256,-0.06672954,0.06273649,-0.12995897,0.06588128,0.14787243,0.09563322,0.14136684,0.0316981,0.08541951,-0.035689544,0.00036089306,0.11416468,-0.14847769,-0.064319156,-0.08863181,-0.08452318,-0.13387793,0.057766624,0.12779202,-0.07349632,0.15359202,0.12764281,-0.012325769,-0.09127806,-0.06450775,-0.12833104,0.07506802,0.03848744,-0.04258815,0.1447365,0.1243884,-0.13557246,-0.08545007,0.14671609,0.070073634,0.14024445,0.059491783,-0.026798233,-0.032454308,0.03359281,-0.10807013,0.10130378,0.116330914,0.048442453,0.11783981,0.043105263,-0.041814018,-0.1382324,-0.049131606,0.119374335,0.044466108,-0.09252825,0.04489908,0.0709219,-0.042352404,-0.110022485,0.13438843,0.13397092,0.07990206,0.14012977,0.05123789,-0.0010797898,-0.11433725,-0.0101939,-0.11830743,-0.015220378,-0.06571951,0.122153,-0.102985404,0.008034292,-0.009550947,-0.04923075,0.11513336,0.12429296,0.120142505,-0.10072068,-0.014045455,-0.09408871,-0.040906586,-0.07739769,-0.14074254,0.065011956,-0.006017656,-0.11561464,0.027027344,-0.10002888,-0.09128324,0.05006934,0.05715551,-0.073092446,-0.054566186,0.0075749564,-0.12213562,0.038427815,0.037345443,-0.028743565,-0.031802617,0.12753133,0.021051943,0.009017846,-0.042250823,0.13762861,-0.048234805,-0.13892008,0.058519073,-0.06656142,-0.0845636,0.13668758,-0.020496173,-0.11111959,0.06679213,0.15013342,0.029790066,-0.148787,-0.07391666,0.14665754,-0.14755204,0.0752505,0.1396029,0.1078799,0.05469736,-0.04104638,-0.06308508,0.113588005,0.049381606,0.024613382,0.03289517,-0.12619725,0.021225734,-0.030361677,-0.11695445,0.07072189,-0.012286839,0.06471737,-0.10228398,-0.0028576443,0.06313318,-0.1374363,-0.08222311,-0.12744144,-0.08717252,0.14511776,-0.09342788,0.023562364,0.021752084,0.04270504,0.12815732,0.124963984,0.15460423,0.047470674,0.1220719,0.06038522,0.15703912,-0.034098186,0.10779759,-0.00053626514,-0.09422232,-0.1313234,0.044214875,0.09922744,0.075732484,0.119863294,0.09910495,-0.10491279,-0.043546885,-0.005403472,-0.09315186,0.1257904,0.029187413,-0.1155551,0.06395187,0.12853658,0.0667768,0.07251714,-0.09153784,-0.113438815,