{"model_state":[{"net":{"layers":[{"weight":[0.002052887,-0.069816455,0.024369763,-0.038683612,0.033153176,-0.048937958,-0.06430445,-0.06342658,-0.09744249,-0.0029657672,0.020049617,-0.0047573806,0.066093266,-0.012395028,-0.06433314,0.062149838,0.0058421236,0.098782726,-0.030612262,-0.07773247,0.010256181,-0.0019860982,-0.09109178,-0.006168314,0.05599871,-0.062008634,-0.038840894,-0.067351565,0.051123064,-0.029810674,0.004019133,0.02924757,-0.012594513,-0.08290428,0.010339586,0.0975616,-0.06157205,0.093231395,0.0060743457,-0.094748594,0.013021566,0.03263275,0.03815492,0.06935425,-0.04846328,0.030991703,-0.083601795,0.051535334,-0.063707575,0.07388846,-0.08531374,0.002605135,0.017474161,-0.0025365204,-0.03185739,-0.08033843,-0.009686067,0.074084625,-0.052554835,-0.03464572,0.055730533,-0.0727077,0.07298076,0.08940323,-0.03918051,0.07950134,-0.08360263,0.017072428,0.009898243,-0.019980414,-0.009519193,-0.0486158,0.028004814,0.004467047,-0.050066933,-0.08222583,-0.0027898771,-0.021133868,0.058884222,0.05249155,-0.08471,0.08362963,-0.046360027,-0.07400872,0.08914696,0.09635457,0.09151084,-0.056511123,0.029693762,-0.084750794,-0.011162909,0.08844878,-0.080623195,-0.0060413186,-0.00035170396,-0.03416006,-0.013555531,0.10008393,0.07556698,0.058858193,-0.0073467297,-0.026065433,-0.019412411,0.048391886,0.07873644,-0.053637695,0.06297123,-0.04110957,-0.031108312,-0.04014859,0.022702016,-0.04833502,-0.083162345,0.05650558,0.0012663216,0.09486454,-0.028338553,0.09427043,-0.056541197,-0.10015537,-0.079286955,0.03647045,-0.053784084,0.088231154,0.079333596,-0.046283774,0.073484756,0.03875209,0.09171459,0.046636544,-0.03701976,-0.0018991843,0.073717356,0.005901964,-0.016082196,0.09648826,0.0063605923,-0.07606375,0.080312856,0.046986125,-0.08749836,0.098753184,0.08459591,0.102332115,0.08307479,-0.0028636227,0.01707726,-0.087675035,0.075401954,-0.012086078,-0.019762948,0.072158635,0.06485536,0.07912374,-0.04389049,0.058424808,0.034107443,-0.07157135,0.087685406,0.007646022,0.046881627,-0.06574007,-0.06394669,0.06226496,-0.06948142,0.022472259,0.013471209,-0.0820611,-0.049321726,-0.04814431,0.085863456,-0.026820503,0.05457087,0.058529533,0.051303063,-0.038681276,0.014923509,-0.030404959,-0.07237614,-0.07349058,0.09436762,-0.0025928763,0.00731439,-0.09306929,-0.035253536,0.106258705,0.0059399735,-0.0643347,-0.05213755,0.08700049,-0.06968861,0.03352875,0.07202569,-0.0121162385,-0.048323557,0.068006456,-0.0039576446,-0.038058527,-0.005253763,-0.095800616,0.052623168,0.09165989,-0.080641925,0.05345463,0.07223107,-0.08619658,-0.01474941,0.061843313,-0.01838914,-0.060874097,-0.054021467,0.018955113,0.105724595,0.08447819,0.038475662,0.065215796,-0.020902468,0.05346808,0.102592126,0.025375418,-0.07674571,0.020467317,-0.0053510442,-0.059834663,0.009566613,0.048076108,-0.030937146,-0.03357535,0.090100035,0.07953895,-0.054561958,0.09121709,-0.021169787,-0.029635753,0.093483284,0.049542155,-0.077474505,0.09421901,-0.060769983,0.032161485,-0.045143403,0.07840707,0.09300108,-0.045166522,-0.08228814,-0.04278157,0.06581802,0.089251064,0.08547632,-0.059241507,-0.05890968,-0.057056304,0.026979178,-0.07835844,-0.08810222,-0.06032824,0.08245102,-0.02637253,0.04123326,-0.015961058,-0.04464607,0.048502836,0.097142205,-0.05689958,-0.036316376,-0.04549915,0.074226156,0.06778102,0.060557045,0.09364704,0.09222791,0.0091166785,-0.07738537,-0.008675698,0.043600406,0.0437175,-0.07057473,0.036478,0.024032451,-0.03910229,0.041661274,-0.08438221,-0.011827785,-0.07028552,0.09947572,0.035246447,0.045193594,0.042027287,-0.08622442,-0.06641029,-0.0012386809,0.06727924,0.031624578,0.026785685,-0.04351686,-0.032515533,0.016615491,0.0012579516,0.097071625,0.09911892,-0.051612165,-0.08052323,0.073758654,-0.058912866,-0.07199149,-0.07517679,0.0377881,0.07230247,0.005485801,-0.06586384,0.06612431,0.087724335,-0.039490383,0.075720154,0.04049046,-0.015693512,-0.07208052,0.026825726,-0.07185487,0.07758079,-0.0054968274,0.05834316,0.08286288,-0.016391013,0.03063243,0.014678971,0.031733308,0.07770466,-0.019343123,0.04325414,-0.08795382,-0.03413781,-0.06078919,-0.018178327,-0.025176734,-0.041495327,-0.061587363,0.090235755,0.026454179,0.07261,0.021125238,-0.087630436,0.0112533495,0.0311012,0.0071179154,-0.064380296,0.05131877,-0.08777241,-0.019995619,-0.022703385,-0.053583596,-0.021724159,-0.024584288,0.09566599,-0.049602404,-0.033587094,0.038043857,0.024701225,-0.031316575,0.08035216,-0.030881898,-0.05862791,0.057131376,0.014383451,-0.011845925,-0.07755391,0.06420375,0.06868353,-0.05129709,-0.05474979,0.10216764,0.018740233,0.069227956,-0.03381303,-0.088752925,0.030580265,-0.004580334,0.038964152,0.07647802,-0.057202283,-0.08106724,0.074010864,0.018337743,0.02780294,0.02836431,0.0030621898,-0.05128322,0.050667476,-0.05274761,0.019548995,0.06101932,0.08984087,0.028373165,0.09721106,0.043728624,0.08248631,-0.061730318,0.047468502,0.060925417,-0.058342703,0.03778227,0.06266199,-0.009594852,-0.07295499,0.051382665,0.022332747,7.18431e-5,-0.07577796,-0.016539339,0.073677726,-0.062018793,0.057816066,0.07519909,-0.00676484,-0.0638926,0.035815757,-0.08964901,-0.027341949,-0.022145117,-0.048248738,0.07201841,0.08381125,-0.073262304,-0.06555116,0.041693598,-0.047147185,0.10696451,0.09181551,-0.036535114,-0.08069056,0.089370765,-0.0020855346,0.020078221,0.09467365,-0.085519135,-0.091462575,-0.038377523,0.0054963683,-0.020782974,-0.08691377,-0.051700804,-0.021895407,0.03743663,-0.067357704,-0.048081513,0.0720598,0.075744495,-0.06412803,0.02124032,-0.04326774,0.0072045727,0.021237949,0.016402759,-0.02737903,-0.033146758,0.08494746,0.10297065,0.04370816,0.012164147,-0.069518775,-0.06405754,-0.00018297367,0.014498075,0.05256891,0.05778922,-0.075395055,0.033688035,-0.0704602,0.0095625855,0.041241772,-0.060581245,0.016918097,-0.0027781078,0.06516607,0.02815954,0.023573603,-0.041295078,-0.09892367,-0.042416193,0.020604,-0.08506296,-0.04436007,0.03585125,-0.056724597,-0.052213278,-0.0040733586,-0.001575077,-0.03584394,-0.092066124,0.080206074,-0.02229167,0.060058396,0.04782835,-0.03338232,-0.086748466,-0.047027193,0.01800264,0.023035511,-0.002658721,0.039203987,0.076885566,0.0067066974,0.07132365,-0.03507508,0.05604902,-0.06252718,-0.06529391,-0.008102498,-0.003675324,0.03283845,-0.01611013,-0.0850021,-0.07418851,-0.09222475,-0.09606693,0.08475134,0.05474227,-0.05679658,0.07958689,-0.021370856,0.051191237,0.016616303,-0.013023766,-0.054491278,-0.05816099,-0.005890152,0.019355847,-0.023631789,0.04094497,-0.07329097,0.09384143,-0.03915558,0.016236879,-0.06911084,0.090891756,0.05964293,0.06102097,-0.07214724,0.016621523,0.03721012,0.07420071,-0.069503665,0.035495095,0.087517865,0.03267068,0.018549971,0.015384001,-0.07473777,0.012453861,0.0794268,-0.013931179,-0.0071990057,-0.0032069078,-0.080108225,-0.085905075,0.026925392,0.03069065,-0.094924845,0.029137515,0.039243236,-0.09381235,-0.008591011,-0.024970857,0.05326499,-0.0133724185,-0.10480232,-0.0061960644,0.061259784,0.094027646,0.027141657,-0.007252921,0.008639223,-0.0014614688,0.031353682,-0.009774503,-0.042872015,-0.022697313,0.10100286,-0.039826654,-0.02415766,-0.038047314,-0.034767266,-0.050213084,-0.031907994,-0.08421078,0.02022102,-0.027962195,-0.07195807,-0.012800938,0.043991253,0.049666643,0.0374328,0.09067186,-0.023802668,-0.034801625,0.06571433,0.04442718,0.08773857,0.09034439,-0.09455767,0.0840466,-0.054241102,-0.023766829,-0.08345942,0.06121576,0.07119148,0.06527779,-0.03682271,-0.052990388,0.006099309,-0.0913236,0.07943058,0.06783757,-0.08408564,-0.06672333,0.04370936,-0.07404021,-0.015279205,-0.06828545,0.08809618,-0.011402234,-0.004101295,0.099257834,-0.016905468,0.05255684,-0.04170827,0.055063095,-0.02245179,0.071614414,-0.02438311,-0.035714276,0.050957102,0.0582293,0.08237159,-0.07839867,0.061082423,0.055328254,-0.053471122,-0.029449878,0.061481256,-0.01482753,-0.10024702,-0.023758005,0.07798905,-0.08035849,0.049576703,0.0936605,-0.062233992,0.07698987,0.00114711,0.030427342,0.05158353,0.051143367,-0.043168485,0.06707861,-0.06782538,0.067754894,0.027873285,-0.043982934,-0.03881692,-0.036565464,-0.093600996,0.044214938,-0.06411457,0.04508722,-0.066188395,0.08770802,-0.039354477,-0.02463165,-0.045952965,-0.08839078,0.059693057,-0.078839906,-0.018487213,-0.08344701,-0.08797494,0.0841505,0.08010715,0.05018135,0.010024273,-0.008441565,0.013602046,-0.016164562,-0.09163252,0.03216452,-0.08705022,-0.023339015,0.024679122,0.09055757,-0.08666914,0.027519573,0.052001607,0.08613766,0.06315805,0.05546565,0.050162923,-0.041705612,0.0534614,0.05475004,0.04600352,-0.000855408,0.075013556,0.007947268,0.06043427,0.07495123,-0.06640377,0.012169007,0.07386473,-0.075870596,-0.06494054,0.02760461,0.093211465,-0.051224623,0.06070448,0.08899124,0.054587923,-0.05731835,0.0621558,0.058610857,-0.0750166,-0.05818897,-0.08209779,-0.08639826,0.029586015,-0.03459706,-0.07355759,-0.06561271,-0.034931283,-0.07787225,-0.02766632,-0.07062895,0.036887955,0.051568374,-0.046087317,0.06534499,-0.020314567,-0.045847263,0.10028659,0.029714685,-0.03741546,0.087145746,0.047074873,-0.017999263,0.0037136883,-0.035334077,0.058932804,0.020870209,0.085784994,-0.08345311,0.003769473,-0.071597606,0.08456262,0.07492456,0.022106018,-0.085546106,0.08865357,-0.088978924,-0.074317075,0.006989636,0.03015421,0.06847177,-0.02474041,-0.022200348,0.027172104,-0.01441995,-0.07716114,0.074992046,-0.032121353,-0.03785347,0.059136204,0.035751153,-0.007521976,-0.029258853,0.040878072,0.10527377,0.01080129,-0.023392072,0.07416849,0.05437632,-0.076725684,0.0254319,-0.04312315,0.048845578,-0.08611807,-0.0154560255,-0.043374494,-0.08132205,0.08707764,-0.070209,0.050783716,-0.031944208,-0.07505482,0.07302513,0.036835443,0.03905381,-0.09907756,-0.07920082,-0.04593348,-0.09397343,0.0051535903,-0.011720117,0.09196768,0.047322657,-0.08954479,-0.04273526,0.01412235,0.048288263,-0.016051793,0.06927999,0.08279459,0.062829606,0.047489345,0.101788916,-0.02203505,-0.09022337,0.081161186,-0.048351336,0.03341586,0.07404295,0.054410618,-0.07942258,-0.068366185,-0.09232132,0.06336866,0.049074586,0.09550696,-0.033975348,0.07758962,0.012984754,-0.01002352,0.028259598,0.07097064,-0.075932205,0.07147684,-0.08542806,0.029441563,0.046490397,0.025491722,-0.06712168,-0.03786513,-0.08655018,0.033723522,0.049208075,-0.016785368,-0.033334542,-0.021078896,0.074559,-0.063423984,-0.06571473,0.0879413,-0.026368432,0.076048136,0.09008393,0.06035652,0.003183142,0.049835294,0.028169472,-0.049444813,0.037591208,0.05529479,-0.026871333,-0.10064991,-0.08229727,0.05765298,-0.038342003,-0.0100687975,-0.017980741,-0.06258143,0.04891607,0.09245312,-0.024476845,-0.07602556,0.048467714,0.0026112972,-0.021747816,0.0043975525,0.04526962,0.068855904,0.032563053,0.057497256,0.025001427,0.03674234,-0.06396437,-0.063980095,-0.0045848493,-0.012558916,0.063191414,0.051490374,-0.012698003,0.011324986,-0.045789022,-0.0974904,0.004568293,-0.016971383,0.009375116,0.015377255,-0.07344021,0.0068452726,-0.020272462,-0.084057845,-0.05848142,0.013029474,-0.037037063,0.014080374,-0.007753942,-0.07736208,0.09230983,0.031826787,-0.014368243,0.042015698,-0.055461258,0.017368525,0.026901336,-0.0048876456,0.026216934,0.036890477,-0.051284906,-0.07148723,-0.0102093,-0.039879236,0.024979321,-0.09882883,0.05394153,0.04328287,0.04457601,-0.06932322,-0.086878665,-0.055994626,-0.030424053,0.0016718257,-0.059790075,0.078554004,0.029327078,0.07148845,-0.03595592,0.038732268,0.009528439,0.04636345,0.102943376,0.06911779,-0.08068025,0.011837681,0.032327916,0.054925416,-0.07766874,-0.09175209,0.04208133,0.026178157,0.108208254,-0.014402702,-0.061967816,0.06813479,0.04907644,0.111001514,-0.007949501,-0.060623884,-0.08688269,0.06020522,-0.027849132,0.10021394,-0.05061674,0.0305688,0.053828347,0.08639348,-0.0117465295,-0.059732758,0.067352824,-0.051018823,0.09600002,0.03522867,0.008540483,-0.06471903,-0.05896851,0.041779876,-0.08400874,-0.0010814645,-0.0011963339,0.10279832,-0.047080923,-0.015600335,0.0739688,-0.037365414,0.06975814,0.05195851,-0.016325258,-0.08202541,-0.03421252,-0.07255638,0.078192554,-0.056129683,0.06518629,0.08576171,0.033320017,0.0033810555,-0.043238655,-0.09168306,0.039691336,-0.034462642,0.06386048,-0.060755648,0.0013844711,-0.037269168,-0.045065172,0.026520394,0.05507965,-0.07374743,-0.04190547,-0.053130392,0.075195916,0.057948243,0.08363283,0.036565837,0.029415281,-0.08288956,-0.0030164067,-0.07080536,-0.07756869,-0.012003442,0.0033661844,-0.032659195,0.09068898,0.017721469,-0.030683486,-0.097728275,-0.01056679,0.012687932,-0.055637456,0.09192831,-0.025088014,-0.04590256,0.04538061,0.07911392,0.085535936,0.08635863,0.09727647,0.045448057,-0.0019548156,0.013311214,-0.042333014,0.019522047,-0.064853385,-0.028191723,-0.071753174,0.07243543,0.07777659,0.03255911,-0.011290935,0.074210696,-0.07090619,-0.07525328,0.027926927,-0.05418323,-0.049724247,-0.012867103,0.06541022,-0.09806515,0.055013515,0.0043130745,0.027841728,0.09972227,0.07854028,0.037493683,-0.051851418,-0.040059626,0.018394796,0.017424814,0.030085811,0.01460111,-0.0637918,0.053212743,0.0014495598,-0.07877952,-0.09624153,-0.0029464765,0.00495349,-0.092197984,0.032005567,-0.05345626,0.033165663,-0.0015938178,-0.014001663,0.016520392,0.10333511,0.027184749,-0.042304847,0.039954375,-0.011128091,0.074381135,0.0359934,0.036090713,-0.05558405,-0.023753705,-0.0031494556,0.0040034917,-0.066665605,-0.06876052,-0.01159472,0.00468719,0.039030667,0.05088442,0.06731203,0.034183566,0.06495051,0.020198664,0.07136631,-0.022955185,0.07402017,-0.08219845,0.00936712,0.05833211,0.00011123193,0.056474503,0.08825725,-0.031362366,-0.050344322,-0.051147982,0.042730663,0.07007993,0.08483531,-0.091751784,0.061996806,0.00844718,-0.078871734,-0.102627285,0.02852359,0.047981888,-0.036506627,0.009890466,-0.027127014,-0.05599628,-0.044912625,0.014445318,0.07516543,-0.07219021,-0.004285357,-0.0021635182,0.073071755,-0.052991662,0.018238867,0.022611825,0.038421,0.09291908,-0.056339376,-0.0964865,0.063874595,-0.041874982,0.04630679,-0.0020175532,0.054610666,-0.06828688,0.095371135,-0.06870553,4.5754743e-5,-0.06568378,-0.027838597,-0.03388377,-0.08820962,-0.048245423,-0.001984099,0.09191891,0.0070408504,-0.05193848,-0.065296255,0.011772656,0.08440892,0.010527402,0.08644416,0.006198397,-0.030593786,0.061206,0.018691082,-0.06725542,0.07637948,-0.010974847,0.046206675,0.048700318,-0.049971562,-0.101966634,0.015378806,-0.005201897,-0.037462246,-0.072733805,0.032385223,-0.00853141,0.03077105,-0.0020590955,0.03727866,-0.03616675,-0.0015521697,-0.07663874,-0.019840108,0.050819077,-0.06797907,-0.07533281,0.06861785,-0.044011347,-0.0422936,0.034769744,0.07373137,-0.041560475,0.049574755,0.05670161,0.067241356,-0.011641548,-0.06394718,-0.045979705,-0.09118028,0.016939605,-0.03042921,-0.0019130846,-0.039971173,0.013010913,-0.08412895,0.009648468,-0.09365523,-0.053551655,0.031955212,-0.0447807,0.023087831,0.029115077,0.014070284,0.02097668,-0.098489344,-0.088522084,-0.07916544,-0.04306305,-0.060296506,-0.09448069,0.027949946,0.022670126,0.056667913,0.11798435,-0.07404904,-0.059567053,-0.034308586,-0.09785581,0.094691455,0.042041745,-0.09832233,0.036983807,0.10427706,0.073764436,0.045522742,0.04374397,0.07155055,0.08277074,0.040365346,-0.091865756,-0.08454677,-0.0025656936,0.07130329,-0.036924295,-0.06871473,-0.097453356,-0.085188374,-0.089127325,0.09069507,-0.05753465,-0.066226445,-0.03529399,-0.055288576,0.02805869,0.049971763,-0.004516309,-0.011392477,0.079652004,-0.09315761,0.011047025,-0.102577165,-0.0052724993,0.058456797,-0.011504632,0.066511065,0.06570339,0.00785618,-0.061675947,0.094337314,0.09311635,-0.019719427,-0.030338692,-0.036408864,0.032981385,0.051628374,0.07694814,-0.032605782,-0.03422908,-0.03935704,-0.013054676,-0.008352963,-0.080292515,-0.0913067,-0.0717051,0.0018383579,0.10531736,0.049527783,-0.049078908,0.025063606,0.090468295,0.0066444315,-0.00869144,0.086088896,0.043563616,-0.007837859,-0.0303879,0.04338558,0.07855193,-0.0488978,0.0359944,0.041344676,-0.020007748,0.03793689,-0.08604059,-0.005553821,-0.07453261,0.056949563,-0.08014286,-0.006480896,0.049959168,0.09699844,-0.039855886,-0.054755982,0.08937454,0.0019476889,-0.016864954,-0.039679736,0.054995883,0.05128561,0.086610526,-0.086611554,0.029301614,-0.05906228,-0.09434841,-0.086407796,0.042933702,-0.06144096,0.039640233,-0.037402768,-0.085857265,0.0832102,-0.09647765,-0.020449659,-0.083387665,0.060153086,-0.027980039,-0.09088646,-0.06621704,-0.04198572,0.036962416,0.06851543,0.09677171,-0.077311054,-0.06284385,0.06369184,0.027488008,0.08820711,-0.03816692,0.07789673,0.07819397,-0.09990244,-0.075685024,0.07470038,0.102887295,0.05173498,-0.06683535,0.06411664,-0.05164397,-0.0024984425,-0.08191341,-0.013590942,0.071691334,-0.03230658,-0.07357822,-0.09692039,0.062133245,-0.013444584,-0.09031341,0.017595602,0.023037385,0.022967964,-0.014936583,-0.05256453,-0.0835001,-0.07399717,0.058799002,0.024758227,0.0022896854,-0.005923756,-0.008568176,-0.018240388,0.04461018,-0.034545027,-0.10029996,0.07738038,0.013434679,-0.040610228,-0.019623337,-0.076822296,0.020202095,-0.08344422,-0.022569243,-0.005339707,0.040357385,-0.05421385,-0.058270287,0.039149877,0.076860435,0.000687698,0.046596266,0.09324814,-0.10037104,0.052042432,-0.03582459,-0.025021283,-0.06501203,0.017835725,-0.076871395,0.0030564517,-0.0970207,0.066909626,0.0146270115,-0.0076863673,0.040554814,-0.0687732,-0.06448573,-0.023244288,-0.0722172,-0.016474724,-0.08929875,-0.09285675,-0.048580945,0.06366226,0.020683382,0.027874833,0.047903735,-0.08950524,-0.0810272,0.033366278,-0.0002655757,-0.041215025,-0.0770806,-0.08174252,-0.04821901,0.07584775,-0.075946696,0.06485068,-0.058848202,0.083998114,-0.06506621,0.057721153,0.102224536,0.039349798,-0.06516505,0.052304637,0.028942533,0.02631132,0.020580737,0.061296113,0.047295008,-0.10029341,-0.07471671,0.059605114,0.076144636,-0.0674328,-0.06373073,0.012619826,-0.047307406,0.015011975,0.07176632,0.05367732,-0.07549196,0.024524536,0.048518527,-0.036681715,-0.02524271,0.0117370095,-0.043881632,-0.0004955352,0.10354072,-0.05393751,-0.08019605,-0.055690255,-0.046053033,-0.050583486,-0.08282035,-0.04885729,-0.00029390032,-0.040656555,0.0104920585,0.058112223,0.07108463,-0.039096963,0.03705043,-0.090509005,-0.072566,-0.043164287,-0.085556805,0.09353638,0.004599941,-0.10157108,0.013717815,-0.095880546,-0.07842739,-0.036660932,-0.075553045,-0.10049843,0.080076076,0.076068215,0.0686141,0.008888543,0.070643686,-0.048882104,0.07273731,-0.015233068,-0.058326975,0.024104835,0.06431372,-0.06270832,0.020719597,-0.017891385,-0.08334417,-0.043833442,-0.07141936,-0.07432963,0.020026313,-0.08773037,0.081984974,-0.007894515,-0.06827517,0.04153619,0.09926465,0.06343096,-0.0823492,-0.028685022,0.08921371,-0.07353025,-0.0046378453,-0.0016561921,0.049994748,-0.072903454,-0.08007547,-0.051054727,-0.097802475,0.018257402,0.031515352,0.04361189,-0.06449248,0.008464762,-0.06423387,-0.08931876,0.017310787,0.0009795218,-0.0060602133,-0.0878979,-0.011662675,-0.034630235,0.022679446,0.07327698,-0.022478778,0.016727885,0.059473153,-0.08215006,-0.0012716672,0.077768646,-0.09373776,-0.054998532,0.03980409,-0.010491268,-0.10288076,-0.007889158,-0.025720349,-0.08442328,0.07943998,-0.06668791,0.073099785,0.078561425,-0.026435992,0.09357789,0.01527335,0.06404178,0.040779836,-0.0063928566,0.04295671,-0.00710268,-0.009485963,0.03928105,-0.042191908,0.08291889,0.02258105,-0.0056415456,0.08830507,-0.055148967,0.032752424,-0.11525297,-0.043955963,-0.0527859,-0.07375147,0.05320055,0.026919879,0.058635276,0.08346351,-0.07815441,0.055581603,-0.09589865,-0.031495802,0.050363727,0.07291307,0.056202326,0.08432501,0.03603071,-0.053484358,0.044462442,-0.031923275,-0.077353135,0.007446661,0.018673927,0.074818105,0.049714297,-0.08813066,0.08693593,0.042291347,0.06257999,0.05516186,0.059527684,0.0777488,-0.077588305,-0.010701529,-0.024893725,0.019459631,0.087029904,-0.014211569,-0.033047922,-0.041808844,-0.076349676,0.0842695,-0.02231858,-0.05174992,-0.074454434,0.06802511,-0.074281015,0.020918533,-0.079007894,-0.053470112,0.11063518,-0.10107758,0.017949868,-0.013273627,0.106480494,-0.010397616,-0.011283116,0.030455323,-0.013071776,0.045179926,0.089377254,-0.016766958,0.044205654,-0.10187947,-0.0888219,-0.062427156,-0.018890956,-0.10214874,-0.06899021,-0.030691458,-0.07079039,0.055232137,-0.08047478,-0.08737079,-0.050854348,-0.057031527,0.061198875,0.073532045,-0.032647025,-0.08114945,0.049445257,-0.05373559,-0.10657072,0.016953161,0.0774504,0.1052734,-0.061296232,0.089394696,0.10046424,-0.05986369,0.00013273845,-0.09157142,-0.075263314,0.027431874,0.02750839,-0.041235052,0.0052721784,-0.013755643,-0.04511856,-0.095703796,0.083229415,-0.0774923,0.050853647,0.0669712,-0.07456995,0.092533216,-0.030095488,0.053249855,-0.02397561,-0.098103255,0.044602204,-0.09159692,0.05079437,0.077242665,-0.07467319,0.0046995142,0.004588755,0.04707703,0.08459662,0.042602062,0.06263547,0.048133966,-0.084470354,-0.060871705,0.016474828,-0.01606093,0.005251098,-0.025695506,0.017327137,-0.023057641,0.034682266,-0.009565116,-0.042700782,-0.0022072266,0.09555446,-0.04953909,-0.0035134521,0.06672283,-0.094759665,0.01357673,0.030950999,0.0898801,0.050776944,-0.004838601,0.04947137,-0.027190788,-0.07076299,0.06747308,-0.018043658,-0.076276824,-0.10174966,-0.0696978,0.014639224,0.06224487,0.025924927,0.070840426,0.050611928,0.046059035,-0.03417983,0.050581414,-0.003339424,-0.069555774,-0.025478566,-0.019815559,-0.0548823,0.042242117,-0.072877176,-0.013769806,-0.026800498,0.03920257,-0.023043983,-0.08849933,0.042408805,-0.08766776,0.03018104,0.08489912,-0.004235243,0.09650048,0.051230237,0.0074783685,-0.096284755,0.047664404,-0.0031934886,-0.08273949,0.052251536,0.019531764,0.042003945,0.015725564,-0.00349234,-0.04389394,-0.009889153,0.07138287,-0.08987447,0.04532684,0.08463586,0.031893786,0.065370694,0.027881749,-0.0431781,-0.091865346,0.005554847,0.040383186,0.06855515,0.043404628,-0.026948418,0.0387341,0.07761892,0.01886688,0.012724955,0.0142036835,0.08118916,0.01941099,-0.03824801,-0.06627138,-0.014813011,0.031387027,-0.031773902,0.014570934,-0.08432287,-0.068481885,0.0110630635,0.071955025,-0.040716574,-0.025454303,-0.07927742,-0.064504854,-0.035907015,-0.003403149,0.02920219,-0.0018387552,-0.057965778,-0.08063155,-0.051468387,-0.015661966,-0.0388609,-0.038219977,-0.07160328,-0.09871178,-0.06669179,-0.030662645,0.07182442,0.0025270612,-0.015959037,0.013660071,0.032980226,-0.002913928,0.072116986,-0.08257822,0.057076745,-0.071207054,-0.023587659,0.029459687,-0.0028690319,-0.06787334,0.08690824,0.034890253,-0.06641319,0.014231762,0.042938862,0.046919324,-0.0494579,0.012768371,0.00029380678,-0.045674216,-0.09275643,-0.10173983,-0.09649987,0.030701376,-0.03741446,-0.012240508,0.054912467,0.0859353,-0.034042913,0.03442652,-0.020774076,-0.008480559,-0.067503154,0.09092861,-0.089288905,0.007732958,0.07094513,0.062393256,-0.027028596,0.06717768,-0.060409695,0.015596366,-0.032745138,0.09404926,-0.07801726,0.04328156,-0.0030679165,-0.08411831,0.015911076,0.07735117,-0.07814451,-0.084944874,-0.07346995,-0.05519592,-0.05043642,0.041569263,-0.03880665,0.037330482,-0.034473725,-0.056064166,-0.06681492,-0.09021902,0.074302495,0.047995366,-0.047897045,-0.020471802,-0.08752645,0.02152268,-0.047716238,0.07536841,-0.04516312,-0.03310498,0.040238917,-0.02130144,-0.055005807,0.036514413,-0.009636292,-0.092166826,0.03865903,0.065569334,0.0413996,0.011674188,-0.06974794,0.020606576,-0.03874532,-0.08122248,-0.075156495,0.030624539,0.00393042,-0.018166881,-0.011453099,0.040119693,-0.00659068,-0.03407752,-0.06434268,-0.076597564,-0.024501273,0.10174223,0.027707696,0.02040157,0.08852507,-0.09106226,0.059738547,0.061211754,0.07248251,0.055532902,0.08202367,-0.048783325,0.021529641,0.07860146,-0.00091978896,-0.023972787,-0.009956934,0.035170883,-0.010443105,-0.101149485,0.061213154,-0.009491336,0.06570087,0.008331527,0.012350548,0.07904403,0.089861676,0.025943235,0.049707823,-0.090687945,-0.055742476,-0.045669854,-0.032121234,0.032176703,-0.057352547,-0.01903638,0.039497197,-0.06369254,0.028558835,0.06704104,-0.011344945,0.00985115,0.01377836,-0.07240084,-0.094300464,-0.03649361,-0.03139129,0.039691873,0.042731762,-0.06522272,0.0315418,-0.048094623,0.06046132,-0.10951752,0.035780177,-0.048774805,0.023724806,-0.052128904,0.049807873,-0.026806151,-0.07642939,0.041550077,0.038038407,0.03919935,-0.021124722,0.070718236,0.07677651,-0.064637564,0.045032807,0.06964353,-0.052769333,0.083904676,0.0094638355,-0.01950094,-0.001542369,0.049789008,0.10422329,-0.083119,-0.09529662,-0.06097823,0.06525843,0.0083026765,0.036527008,-0.06153945,0.011880017,-0.015695255,-0.05203451,-0.023434248,-0.08440281,0.09049131,0.089115515,0.018970843,-0.03636052,0.00066649955,0.0843312,0.06558963,0.023477694,-0.083273135,-0.026963515,-0.024286833,-0.061912026,-0.009820031,-0.044840198,0.033203058,-0.031602327,-0.0009591504,0.0051188692,-0.061508812,-0.09091054,-0.059281494,-0.05957334,-0.007574125,-0.037516207,-0.025476094,0.0037364704,-0.040721886,0.08232563,0.056177672,-0.08270647,0.051809583,-0.048604537,-0.04542618,0.027209936,0.083256334,-0.09602513,-0.08330993,-0.06333098,-0.045035854,0.067411646,-0.054516472,0.012180593,-0.10044021,0.033199422,-0.057861835,-0.08627404,-0.061802108,0.05593763,0.066769145,0.102377266,-0.04541007,-0.08170453,0.052270874,-0.016611407,0.06325076,-0.09998865,0.078085385,-0.047847014,-0.08553225,-0.07973949,0.003514878,0.031621348,-0.033236433,0.015599663,0.042606156,0.060501818,-0.08194352,-0.07281395,0.06736529,-0.035604604,-0.011587338,-0.035414483,0.07509251,0.03858341,-0.076234564,-0.09669585,-0.07176575,-0.098204575,-0.065646514,0.065644555,0.025475198,0.040815007,0.07826693,0.056353543,-0.081875555,0.06688539,0.07019693,0.019339416,0.08364692,0.017885916,0.08030743,0.096851744,0.022903567,-0.010587657,-0.05023198,-0.08532391,-0.0013760141,-0.07894205,0.079806626,-0.07591143,-0.101667784,-0.06654888,0.00089674146,-0.044685274,0.027320303,0.043929026,0.00785456,-0.052917447,0.09217802,0.031177456,-0.07266209,0.060456228,-0.020800283,-0.012079396,-0.087946534,0.03153354,0.05950295,-0.073454954,0.005505208,0.04759431,-0.04270146,0.035801854,0.06943381,-0.016410036,0.002832518,-0.058116734,-0.017005445,-0.008564972,-0.07979136,-0.04470462,0.06265375,-0.025895448,0.0058875303,0.10036477,-0.074312925,-0.014093773,0.06012046,0.07679173,-0.08095864,0.081504315,0.020603118,-0.09778623,-0.06528685,-0.03979566,-0.032156233,-0.0020202608,0.012642876,-0.06261014,0.07407682,-0.077962376,0.082661696,-0.018169602,-0.041630615,-0.016729848,-0.085634455,0.06844096,0.07991381,-0.04140645,-0.017514637,-0.07947388,-0.081040435,0.083299585,0.007714711,-0.063027136,-0.07713765,0.035459448,-0.008967961,0.034861553,0.09645652,-0.032619268,0.0016007834,0.0074751014,0.06580556,-0.031544417,-0.04037987,0.07888013,-0.04458779,-0.057033177,-0.082549624,0.021530356,-0.09545275,-0.099174716,-0.0046179667,0.0651508,0.07332304,-0.08117465,-0.03706328,-0.014107827,0.1070054,-0.04391759,-0.043022417,0.10066255,0.02136808,0.047652874,-0.037336178,-0.079043806,-0.054719012,0.00036958285,0.087277055,0.008125582,0.08000303,-0.060651857,0.015034785,0.06481097,0.026587307,0.02256001,0.01362899,0.056613117,-0.039632786,-0.002197385,0.08283903,-0.01989625,0.07217086,-0.050782476,-0.052088518,0.054056324,-0.09420613,-0.0069944668,0.027219838,-0.0058382587,0.077481635,0.009890152,-0.07019609,0.04335029,0.049443815,0.01634615,0.045742813,0.08749399,-0.022242244,-0.041213535,0.052272603,-0.00068641425,0.084487654,0.013098139,0.07830191,-0.027813636,-0.052035682,-0.06663841,-0.061458286,0.048031956,0.052690983,0.0807866,-0.08376686,-0.022787947,-0.012010799,0.07508154,-0.051732592,0.0064940145,-0.042057566,-0.026833205,0.05320366,0.058253974,0.05047578,0.08109179,-0.024878893,-0.09384916,-0.022276234,0.055848528,0.038989406,-0.068224736,0.06332515,0.08597303,-0.032314457,-0.099117376,0.06519876,-0.03105145,-0.09003183,0.01667741,0.10832823,0.011037392,0.08877938,0.05980699,0.0776564,0.030839292,0.05887324,0.042460095,-0.0932472,-0.034058053,0.032972995,-0.097670734,-0.047742665,0.036839087,-0.044302985,-0.013654303,0.05323925,-0.02556214,-0.026348418,0.036382277,0.04754956,0.059593532,-0.08168681,0.080583096,0.09691014,-0.11149634,-0.03423871,0.06458565,-0.07500931,-0.036785737,0.01987587,0.0921598,-0.10114717,-0.062785655,-0.07824902,0.08359049,-0.00023268395,-0.0154706715,0.05456247,0.0614,-0.0654994,0.022021811,0.048297994,0.014198954,0.08599771,-0.035812568,-0.0149202,0.06495311,-0.09119471,0.029016582,-0.014426908,0.007770604,-0.026201868,0.07690512,-0.013000054,0.0900012,0.0072813625,-0.027828839,0.025811704,0.04626562,-0.07163813,0.068651795,-0.035804465,-0.06405577,0.011299086,-0.0901528,0.022800593,0.018811641,-0.10293132,0.07742068,0.029950097,0.02069314,0.0058454084,-0.024941113,0.035977002,-0.04584833,-0.028284136,-0.008972505,0.087500155,-0.008366459,0.04837102,0.009831853,-0.0066371323,0.10169564,0.053118013,0.03178179,-0.042539794,0.09068037,-0.09319986,0.033266842,-0.024745803,0.10106696,0.0647569,0.07752926,0.042114828,-0.10329908,0.098116346,-0.03055595,0.044559475,-0.03177671,-0.0050891745,-0.014557308,0.0060372534,-0.018341348,-0.0070757074,0.025058901,0.038492363,0.004709826,0.0702838,-0.003653687,0.02967878,-0.05309524,0.05772756,-0.048602734,-0.07844862,-0.051981047,0.09879542,0.042063836,0.072968416,0.059486385,-0.007945922,-0.061207943,0.01919716,0.03477352,-0.07955413,-0.04040162,-0.076600954,0.10986209,-0.021872053,-0.032006238,0.029755449,0.0060428027,0.025415383,-0.054431845,-0.035314597,-0.10098991,-0.062586576,-0.05682839,-0.088388436,-0.09634098,0.016833378,0.0056723347,0.05231196,0.056357916,-0.03411895,0.04497479,-0.062777564,0.01783079,-0.09135268,0.07781567,-0.008064496,-0.050743766,-0.052387793,0.07140687,-0.04053805,-0.023573983,0.0862974,0.015379427,-0.06746105,0.02326194,-0.10059987,0.025197463,0.00018940563,0.05464418,-0.019304257,-0.0190366,-0.06330212,-0.023337966,0.07905227,0.09185035,0.090343654,-0.024743441,0.011283018,0.08968088,-0.06299774,0.08858708,-0.04533055,-0.090008214,0.052350484,-0.043655362,0.06807198,0.10075656,-0.06296997,0.043155946,-0.047886003,-0.008121844,0.02918209,-0.03131065,0.04860342,0.06865868,-0.073928535,-0.018115953,0.08999425,-0.08796326,0.08794653,0.0687828,-0.0836722,-0.008337472,-0.016963944,-0.026307125,0.08029594,-0.038856328,0.029223127,-0.04450672,-0.028707381,0.045851447,0.09356727,-0.04047235,-0.025384597,-0.019294532,0.030817226,0.07761171,0.08474761,0.053019058,0.036382694,0.039483592,0.055117927,-0.0009160425,-0.060382493,-0.07172171,-7.980634e-5,-0.0017149032,0.051945463,0.07138975,0.0054636416,0.03458171,0.031347163,-0.038123634,-0.017980509,0.07404766,0.061310817,0.0048255543,0.07688732,0.052647468,-0.076206945,0.04310149,0.04824648,0.018972691,-0.049811177,-0.025172167,-0.019265253,-0.012015972,-0.07099011,0.012293198,-0.08534209,0.01229339,-0.02370973,-0.0014125897,-0.0553725,0.08568356,0.019072903,-0.007809513,0.08485121,0.03268665,-0.08975323,0.006896667,-0.03589748,0.06431711,-0.052721307,0.00878623,0.08095298,0.08975964,-0.05748617,-0.09357693,0.011884839,0.08780298,-0.03610689,-0.06241412,-0.015989108,0.06950752,-0.051369917,-0.039001662,-0.0815974,-0.056595918,0.07494158,0.020483319,-0.057297632,0.06405795,-0.021235576,0.0140753025,0.037757985,0.088445686,-0.050240986,-0.031613577,0.07773351,0.062393613,0.0779143,0.058469698,0.035907894,0.009418119,0.051018905,-0.039703503,-0.10623425,0.0328432,-0.012520155,-0.07631987,-0.08844868,0.079870224,0.011949428,0.059172045,-0.09470373,-0.015566863,0.00734188,0.063552216,0.04930905,0.038914498,0.10811147,0.09202729,0.078659244,0.090591535,0.003037789,-0.04069392,-0.05926208,-0.036000557,-0.07048869,0.055294883,0.06843944,0.086853795,-0.07137958,0.063433126,0.0017709153,-0.050960436,0.08222532,-0.03307752,-0.03883268,0.027831648,0.071635224,-0.0045934194,-0.027301839,-0.069244236,-0.023728257,0.01618776,0.02805875,0.057663172,0.004334638,-0.07431508,0.073014654,0.059768975,0.055899777,0.08513302,-0.05562643,7.741709e-5,0.09399091,-0.024002451,-0.03413958,-0.08761901,0.067738645,0.022415297,-0.07442714,-0.043740865,0.1129739,0.086465515,-0.012203128,-0.079293214,0.0037667686,-0.019471196,0.029851886,-0.050107226,-0.030611169,-0.0044498597,-0.04147154,-0.047333803,-0.0281407,-0.018291011,0.021167517,0.08510018,0.060042232,-0.06345774,0.052733734,-0.065682635,-0.014289116,0.07557203,0.07294968,-0.031000493,-0.07828357,-0.04045289,0.09383901,-0.0907489,0.009355978,-0.0054172217,0.073245876,0.015090942,0.015772643,0.0094608255,0.04507478,0.10398018,-0.01231974,-0.05829185,-0.01476684,-0.048557185,-0.043352216,0.052993286,0.07598117,-0.074628726,0.07442782,0.043307703,0.06433842,-0.090035856,-0.016958347,0.08527734,0.027124014,0.030120187,0.03166505,0.0372577,0.018936524,-0.07859066,-0.06247961,0.0731326,0.079867736,-0.070380956,0.051655263,-0.057715546,0.011950256,-0.057331692,0.023224374,-0.051495,0.10247885,0.00588995,-0.031022774,-0.011457831,0.08289196,-0.01731355,-0.025108574,-0.025327643,-0.013150851,0.06317559,0.030390225,-0.02582765,0.02634682,0.041210167,0.080943435,-0.059281766,0.09549274,-0.060046993,-0.054662548,-0.0054189526,0.055996414,-0.07187566,0.066234626,-0.031140469,0.007301239,-0.010925804,0.10523389,0.0626832,0.052251134,-0.049484324,0.06392481,0.028461799,0.013471754,-0.016165389,0.0030924603,0.10429738,0.01588314,-0.09290253,0.01191858,0.036093384,0.056247544,-0.091955595,0.03460272,0.07583423,-0.035461724,0.046478853,0.013958444,-0.056053784,0.07022381,-0.047241833,0.043521672,0.0036640973,0.06443023,0.108691856,-0.06592944,0.025148686,-0.08311668,-0.09072265,0.08819578,-0.033876274,-0.03239131,-0.034772947,-0.054502603,0.07560751,-0.049776196,0.07647245,-0.029696252,-0.07596603,0.004825603,-0.008676002,0.06396415,-0.055283796,-0.08013101,0.046055093,-0.008991058,0.050345868,0.06471712,-0.051324643,-0.059864663,0.0230861,0.009202211,-0.082852826,0.060303304,0.05732302,-0.102226086,-0.0026350713,0.0063834693,0.03506256,0.061276507,0.07337752,0.016771007,0.02455718,-0.07383784,0.04908073,0.06282627,0.00369504,-0.028359104,-0.04044438,0.03194356,0.063706174,0.020396316,-0.0126322005,-0.07725896,0.08296411,-0.050185006,-0.059218332,-0.09039014,0.007295373,0.03345255,-0.04899976,0.036183793,0.08971208,-0.023925664,0.054715957,0.015551826,-0.07944147,-0.011001854,0.061522324,-0.0044886926,-0.034324184,0.03656576,-0.07103059,0.072508164,-0.10088676,0.09448728,-0.07601373,-0.017735025,-0.024707844,0.0231226,0.10852546,0.095600486,-0.08647583,0.06631956,0.069842756,-0.018923596,-0.055522785,-0.091667354,0.0034069917,-0.020993449,-0.016846433,0.083284095,-0.032357797,-0.07663629,0.057712983,-0.036960676,0.032303944,0.065142155,-0.06510968,0.036110688,-0.010305218,-0.004021444,0.023602419,-0.07063019,0.0084790625,0.029374005,0.026261853,-0.0853032,-0.065709725,-0.022651577,-0.08763828,-0.065073244,0.035843473,-0.10500685,-0.016636593,-0.037420124,0.079570904,0.017283717,0.09388212,0.10320548,-0.0030781503,0.07546989,-0.021983434,-0.025596641,-0.05304888,-0.08537615,-0.053978447,0.07717525,-0.047365863,-0.07095022,-0.032225527,0.10737707,0.061899148,-0.02392999,-0.0015687372,0.09627605,0.079460785,0.046533786,-0.012097468,-0.041494053,0.021548739,0.09710995,0.052312903,-0.07445951,-0.05401893,-0.07557165,-0.058362495,-0.049613334,-0.0023336585,-0.005811282,-0.090263315,0.070243336,0.04347105,-0.061599284,-0.04445434,-0.061766323,0.017912777,0.034644783,-0.008675286,-0.010739511,-0.038139116,-0.006963896,0.034376398,-0.029861238,0.0076931254,0.02801803,-0.05788304,0.04985756,-0.014611185,0.05054324,-0.077026576,0.0021296947,0.024805212,0.017767822,0.09036718,-0.07230856,-0.084227435,0.041643154,0.03958254,-0.07864323,-0.08224829,-0.057520565,0.06579298,-0.052513506,-0.07571979,0.051723298,-0.0701023,0.05404064,-0.05910597,-0.054097615,-0.023665559,-0.053443566,-0.06405653,-0.06013823,0.02772945,0.098677725,0.0033549503,-0.08635474,-0.10368743,-0.05723784,-0.031190718,-0.0614759,-0.054588728,0.044024542,0.021958875,0.096887775,-0.009314682,0.040508598,0.062009618,0.000666969,-0.0028736223,-0.09299462,-0.021426259,0.022575876,-0.011925962,0.05194206,0.027254434,0.06078526,0.036309328,0.0758638,0.02040195,-0.038834177,-0.04618188,0.025193028,0.06844742,0.054307308,-0.050572876,-0.006869696,-0.047685724,-0.013283695,-0.0042470936,0.040203623,0.074632816,-0.036720686,0.05565527,0.0038720067,-0.042240396,0.012399211,-0.019459259,-0.039516564,-0.014679784,0.02179437,-0.06348176,0.023503136,-0.028577616,-0.010116124,0.0797616,-0.027720302,0.05045837,0.072461955,0.060851827,0.006301765,0.048677363,0.017792676,0.07581167,-0.022292422,0.079664744,0.097406715,0.046355985,-0.03813835,-0.08102009,0.07642086,0.0071427035,-0.006619896,-0.0010109441,-0.06439103,-0.05487585,-0.06557054,0.012005328,-0.0022507345,-0.04139959,-0.009335219,0.09248256,-0.07482496,-0.043590344,-0.019290943,0.08458871,-0.06345172,-0.05196943,-0.09920623,0.09445239,0.003928468,-0.0063988776,0.087068215,0.096808314,0.03938062,0.083493456,-0.06318381,-0.07430679,0.013409569,0.07159975,0.0547362,0.06381638,0.05293016,-0.059054755,0.03887535,0.09442907,0.035911452,0.0409393,0.0150386775,0.06960143,-0.021040836,0.022972258,0.009967333,0.056919593,0.086635426,-0.08837038,-0.09160932,0.0544124,0.0064254813,0.016719501,-0.0719052,-0.07086848,-0.04896828,-0.077588595,-0.008687296,-0.0785,0.061113805,-0.08307408,0.06774009,-0.0320474,-0.014125467,-0.03530705,0.04034913,0.052607514,-0.061226953,-0.06965095,-0.017392753,-0.0059450194,-0.04641639,0.036137667,-0.025568571,0.08228519,-0.0894285,-0.030576203,0.047615338,0.095845,0.09440778,0.044173118,0.05161735,0.04354372,0.081376754,-0.035450626,-0.009286445,-0.079329535,-0.068192266,-0.060690317,-0.053127214,-0.059440855,0.0855535,-0.018959228,0.0727322,0.0057290285,-0.0542232,0.0035374984,-0.09526614,-0.016194722,0.07930776,-0.094970256,0.10022821,-0.091713555,0.034551695,0.0372359,0.049139105,0.0531594,0.027288659,-0.04879778,0.08840809,0.051131807,0.024908228,-0.089325726,0.04825332,-0.098420344,-0.06580594,-0.0099642,-0.0056468304,-0.054916885,0.06756023,-0.0050205323,0.057394125,-0.005057423,-0.09071323,-0.06543566,-0.0015802236,-0.05447253,0.019953303,0.09028994,-0.07265132,0.10315961,0.084503554,-0.023288958,0.056510173,-0.017256923,-0.02828292,0.07992262,0.01839073,0.09067803,-0.043950673,-0.070344955,-0.027737515,-0.096257664,-0.0903312,0.037270676,-0.027546711,-0.092965804,-0.049190935,-0.08816993,0.06563482,0.017947698,0.0155064855,0.051279966,0.034542028,0.08399717,-0.06485871,-0.0002640849,0.013664526,-0.0511515,-0.10304833,-0.050087053,0.09629229,-0.08177861,-0.028624186,-0.08642157,0.09060251,0.031709146,-0.042134497,-0.018544009,0.057012867,-0.059492297,0.04061696,-0.051225048,-0.06996751,-0.06162232,-0.0053240797,-0.078661636,0.017167162,0.096001305,-0.09966378,0.048377052,-0.022279497,0.020891631,0.018672008,0.04838716,-0.07531515,0.003063885,-0.049002796,0.025777575,-0.033064555,0.04537011,0.0222358,0.035550524,0.0020552648,0.027703686,-0.040400364,0.003847442,0.060616035,0.046224177,0.016742405,0.0070453594,0.015594973,-0.089419425,-0.039972354,-0.05085263,-0.01470649,0.095918626,-0.030003196,-0.081620656,-0.02441179,-0.078682765,-0.06343697,0.101565234,-0.0869273,0.041477643,-0.019929588,0.07436065,-0.030839467,-0.08205198,-0.094854824,-0.093748316,0.086361825,0.027896948,0.035305813,-0.032304358,-0.078078054,-0.055668026,0.033072446,0.017384335,0.040890854,-0.04787991,0.09335848,-0.039965734,-0.05159307,-0.055572174,0.06891826,0.052730948,0.07152164,-0.11098743,-0.05611203,-0.009259952,-0.078869484,0.0017380017,-0.012174036,0.10086467,0.027097479,-0.09126405,-0.0586561,0.0021437793,0.036914527,-0.06839616,-0.015153077,0.07172032,0.09655591,0.050096728,-0.05179262,0.075592086,-0.071572684,-0.07830996,-0.089266635,-0.08065205,0.08705853,0.0994801,0.048601173,0.011068509,0.09519972,0.067062356,-0.035228454,-0.065866955,0.07906375,0.03229571,0.059216246,0.09951103,-0.09382148,0.071458876,0.01252032,0.061709855,-0.044074483,0.02929806,-0.064359866,-0.09073815,-0.020020619,0.08714916,-0.06000009,-0.097047165,-0.08862124,0.09454056,0.08466508,-0.027928649,-0.06967036,0.07651748,0.0010231597,0.03239098,0.074676685,-0.0292558,-0.0513931,-0.022931665,-0.026231391,0.08366111,0.053450767,-0.029536888,-0.024084661,-0.080137685,0.10488099,-0.055052064,0.086295374,-0.051254377,0.07105062,0.034508456,0.015016482,-0.0021127197,0.057190526,-0.06239071,0.04473691,-0.06477936,0.0034918918,0.083904386,-0.08358983,-0.058229737,0.06704194,-0.08343229,0.042591862,0.10984865,-0.033584863,-0.0035343966,0.05443478,-0.07120487,0.08099306,-0.011843097,-0.0016182943,-0.037390538,-0.048753574,0.026988558,-0.056838967,-0.041657258,-0.060408086,-0.048074685,0.0659104,-0.09969657,0.056979727,-0.041746855,-0.07773032,-0.08552014,-0.018873593,-0.014775117,-0.0656779,0.096826516,-0.078371204,-0.07019299,0.0098692635,-0.00037599273,0.075535886,-0.017267974,-0.010291688,-0.04912485,-0.061770592,-0.023009967,0.0034334394,0.07253348,0.05676118,0.07930593,-5.948567e-5,0.05859266,0.066584125,-0.07901044,-0.016701553,0.061618842,0.023456572,0.10702861,0.0821636,-0.08971983,0.078079134,0.10393482,-0.075280234,0.07414307,-0.03397704,-0.0848465,0.07089533,-0.05229193,-0.04889361,-0.056892116,0.093975574,0.067289226,-0.033073716,-0.072059914,0.053076524,-0.050855596,0.016093466,-0.083109036,0.071531005,0.011654752,-0.030089363,-0.06909295,-0.08603172,0.020939441,0.060523584,-0.054162487,-0.07427967,-0.021570548,0.0036810995,-0.0283364,-0.0732228,0.08314794,0.06584837,0.031418953,-0.002103396,0.052465916,-0.101216674,-0.017940374,-0.0590224,-0.03316656,-0.022595584,0.03429302,0.025633728,-0.054463435,0.044369075,0.043013543,0.09662455,-0.09343875,0.046021543,-0.080525555,0.05084522,0.0746369,0.03536982,0.045153778,-0.021367254,-0.037022684,0.045325022,-0.052206308,-0.02053319,-0.06158369,0.0014276237,-0.03668235,0.013682653,-0.021413373,0.056455318,0.10971568,0.001640787,0.045411926,-0.0019737086,0.03765257,0.053788457,-0.055549707,-0.08798874,-0.0025882474,0.042051747,-0.04564942,0.072126254,-0.09370548,-0.013504406,-0.0083080055,0.07384495,-0.025680186,-0.027351309,-0.029534347,0.09075528,0.03291138,0.07053045,-0.0050932863,-0.039099872,-0.08555383,0.06391851,0.10097849,-0.008408043,0.016408475,0.008590657,0.0066791256,0.069530986,-0.061452527,-0.10328519,-0.076781936,-0.019048972,-0.02352639,-0.048265193,-0.010877145,-0.011277559,-0.08469659,0.03523454,0.06374471,-0.04803219,0.015224857,0.07242049,0.012582814,-0.084505826,-0.013765055,0.078104526,0.021877334,-0.026427789,-0.04191466,-0.019081395,0.050669923,0.0332355,0.04737985,0.074404344,0.058589403,0.070722155,0.038993265,-0.022902653,0.012588662,-0.012405423,-0.01301046,0.03216309,-0.008531245,-0.0236984,-0.021891454,0.0039925813,-0.014691835,-0.07553255,0.012479013,0.017915176,0.045944575,-0.069621176,-0.071730465,-0.030595768,0.07730076,0.06771654,0.0778333,-0.023037655,-0.07545483,0.016342193,-0.04550462,0.07902823,-0.028497212,-0.050533913,0.0024469728,-0.013970981,-0.038018797,-0.0053085587,-0.06589066,0.045663524,0.02550868,-0.026929723,-0.062278543,-0.012288543,-0.026954297,0.031841576,-0.09744597,0.07018135,-0.052794043,-0.00019550577,0.013937618,-0.08668862,-0.096240595,0.0373109,0.05936736,0.004317331,0.08659074,-0.060469452,0.02920712,-0.03134574,-0.013798926,-0.07657479,-0.06968247,0.076589435,-0.02165796,-0.0276746,-0.061701618,-0.08786667,0.106718116,-0.018421302,0.039611023,0.04737829,0.079481214,-0.0637129,-0.05073269,0.06251991,0.08696639,-0.10117228,0.029732509,0.049988568,0.060994275,-0.04847331,0.017464569,0.0636568,0.050182987,-0.014660824,0.093150355,0.108600534,-0.019909102,-0.077060804,0.06441887,0.031403933,0.0023365505,-0.040659927,0.05682165,0.038631294,0.034997478,-0.09444336,-0.065896474,0.039866492,-0.050027236,-0.036988202,0.07197876,-0.014473822,0.05335487,-0.065163694,0.098288,0.020022713,-0.01005002,0.016747195,0.049660347,-0.038271137,0.06766916,0.0004838866,0.022278829,0.052465443,0.0053910553,0.053928062,0.007055829,-0.022978382,0.05450823,0.055936657,0.04902211,-0.07774263,0.055747394,0.09039926,0.060424965,-0.07961667,0.08420964,0.038137145,-0.07120579,0.020892184,0.017501555,0.047516096,0.060158968,-0.030725477,-0.0038744784,0.01488333,0.072163984,-0.018983308,0.020536683,0.028667528,-0.041018862,0.0046159015,0.009483847,-0.0024887915,0.08912625,-0.0013886265,0.03553272,0.10037718,-0.018224996,0.03792939,-0.04559108,0.029536055,-0.0108467275,-0.010797163,0.09533959,-0.015238625,-0.04417617,0.08248134,-0.03967654,-0.04778521,-0.0025509263,0.07553203,0.09978849,0.020846795,0.05105737,-0.09196311,-0.030779742,0.011340025,-0.0649868,0.012640582,-0.032283697,0.013805819,0.06897253,-0.09620988,-0.0058442294,0.033973485,0.0103773475,0.05921552,-0.048475035,-0.0150520895,-0.052474305,-0.03825259,0.055112567,0.040835284,-0.020318976,0.0807244,-0.06972033,-0.081923924,-0.048406754,0.09073135,-0.08854543,0.06206646,0.013105691,-0.07142446,-0.05854894,-0.050518513,0.056222375,-0.0014086283,0.015436247,-0.00720925,-0.0016430733,0.10706868,0.05575337,-0.082951136,-0.014214684,-0.01866145,-0.02582481,-0.081459396,0.07514527,0.058732722,0.046048943,0.0066042733,-0.018453818,-0.008643927,-0.05399373,-0.06290856,-0.0127541125,0.049584974,-0.08382474,-0.04158583,-0.012951691,0.01907547,0.0811822,-0.015862009,0.08451263,0.04561513,0.07326283,-0.00774303,-0.024814624,-0.06471466,0.09190329,-0.069093585,0.022556579,0.0059185564,0.056083445,0.04926482,0.092671916,0.026729347,-0.10571433,0.05518567,0.008372395,-0.015202471,0.087279215,-0.05084816,-0.008082202,-0.005776119,0.08020551,-0.10239719,0.08217078,-0.0068279533,0.08963067,0.0698113,-0.053023484,0.047052152,-0.08786561,-0.101573065,-0.061657634,-0.0072717997,-0.046542913,-0.10409458,-0.062350024,0.037645016,-0.09110637,0.034251183,0.06132945,0.0774686,0.08654745,-0.06982133,-0.0008932831,0.014055655,0.0911845,0.08959599,0.06056403,-0.06075875,-0.04343679,-0.007250568,0.018886512,-0.057646602,-0.081697546,-0.09758967,-0.050421424,-0.07427158,-0.03383403,0.041727126,0.011443756,0.031230414,-0.0756472,-0.013726292,0.08921816,-0.016324615,0.07364032,-0.06236388,0.021935532,0.087230794,0.045369,0.076234676,-0.07564026,-0.023567246,0.04254406,-0.050447594,0.006940065,-0.06845121,-0.0017990251,-0.034361996,0.07341669,0.054830234,-0.027455416,-0.06835123,0.03504821,-0.071823604,-0.018703667,-0.091142744,0.017911823,-0.033106826,-0.043271806,-0.0018788566,0.06638483,0.029787345,0.07232733,0.080645114,-0.05223758,0.06874731,-0.031536262,-0.07615661,-0.08697893,0.032409605,-0.07730606,0.06265136,-0.03501067,0.0135803055,-0.013651501,0.0049807127,0.023672827,-0.06954789,-0.01399488,0.064048536,0.016462857,-0.048234284,-0.07255747,0.040990148,-0.09334464,0.08384832,0.08372454,-0.01905456,-0.018129962,-0.05268018,-0.056732792,-0.026120787,-0.064868756,-0.01048135,-0.0782675,-0.08022418,-0.0413893,-0.018545896,0.02424117,0.09241466,-0.06416277,0.026490133,0.100896426,0.05155206,-0.046066582,0.08541465,-0.05661614,-1.161719e-5,-0.037659023,0.050134115,-0.08006834,-0.071839415,0.034638092,-0.024037551,-0.07157969,-0.03787413,-0.06780334,0.034422915,-0.09042748,0.07666937,-0.024261253,0.062615104,-0.04768271,-0.028261455,-0.008356769,-0.017879464,-0.08323471,0.07305092,0.07577128,-0.02786404,-0.037343707,-0.053244147,-0.039464176,-0.0022968217,-0.082198806,0.055091564,0.03567743,-0.028611898,-0.07322233,0.05721438,-0.06686786,0.013385185,0.013255925,0.006727727,-0.0005854799,0.0781898,-0.0478934,-0.013532791,-0.00013580213,-0.08460769,0.01774352,-0.10057986,0.0056768847,0.051949065,-0.0087644765,0.06213447,0.06430551,0.09931657,-0.10130711,-0.07245205,-0.02310782,-0.047521874,0.035185374,0.088039264,0.036424387,0.09120261,-0.008694832,-0.069595,-0.022967722,0.05267913,0.07045887,-0.042614717,-0.030823184,0.0311472,-0.016624106,-0.059901405,0.051573068,-0.09496929,0.08232967,-0.07877445,-0.058066595,-0.041308045,-0.037692286,0.023174398,-0.03666981,-0.050640613,0.08316981,-0.098450735,0.0931066,-0.031552106,-0.0003532,0.07637437,0.0844697,-0.005623703,-0.03954771,0.07623589,0.008539366,0.009234221,0.013537871,-0.044415504,0.08676656,0.068638556,0.061211534,-0.016520886,-0.0022277823,-0.07761342,-0.0146311335,-0.028870825,-0.011506644,-0.04924289,0.029914042,0.06878818,0.00907701,-0.0879828,-0.037451774,-0.040293504,0.041731,0.06853291,-0.082625315,0.08077863,0.004010851,0.043535735,0.069978215,-0.059640538,-0.0014163984,0.060780514,-0.07828284,0.020755759,0.055678166,-0.0065131416,0.022012126,-0.061713178,-0.08766507,-0.048194125,-0.015761547,-0.06475189,0.05843461,0.08534386,0.031450164,-0.024199223,0.0530694,0.003840448,0.062963724,0.0045374073,0.07748758,-0.0006998496,-0.00097229314,-0.00894865,-0.028693574,0.027839394,0.010257769,-0.093606345,-0.06688357,0.0700896,-0.044053305,-0.06888714,-0.06659142,-0.05551346,0.0380552,-0.028056359,0.05596698,-0.06171409,0.022655873,-0.06488543,0.032526404,-0.062432192,0.09495924,-0.10069961,-0.07229461,-0.07879507,0.011007306,-0.05283988,-0.048646353,0.028833836,-0.022063745,-0.047353487,-0.008571075,-0.03995417,0.035136852,-0.048984624,-0.08921306,-0.08126175,-0.026455235,-0.0923026,0.07707047,-0.03734926,0.0019716008,-0.06961289,0.009631429,-0.07235227,0.07022723,-0.090681456,0.00092383486,-0.08600467,-0.03052634,0.06452467,0.09613393,-0.08522636,-0.068447866,-0.029216917,0.06293313,-0.052358672,0.042444285,0.059236746,-0.097109,0.00067481305,0.001839431,0.010828164,0.03628352,-0.028680533,0.05334386,-0.014325125,-0.014776233,0.034676764,0.009726963,-0.06757705,-0.092321575,0.102061346,0.07502484,-0.047246795,0.086044125,0.068587184,0.0049365293,0.08985611,-0.073060244,-0.07281989,0.03821341,0.08884799,-0.030152343,-0.070915155,-0.0036026794,0.07220072,0.09328067,0.06663788,-0.08499779,0.08179881,-0.037542757,0.056824554,0.08493662,-0.014763341,-0.01792283,0.03693253,-0.09051043,0.043846317,-0.08372886,-0.012240068,-0.09647694,0.019941267,0.06942744,-0.052303962,0.05334706,-0.009658074,0.02573952,0.046542183,-0.009550468,0.021056825,0.00404683,-0.058989976,0.054940213,0.066351436,0.05374287,0.024928441,-0.020137163,-0.024167448,-0.04016654,0.01291659,0.05120233,0.04149954,0.063802175,0.074692845,0.018627485,-0.08296252,-0.07126273,0.06157229,0.014259757,-0.080075845,0.0005769534,-0.020631837,0.058020663,-0.055980172,-0.018132439,0.0025572798,0.011109746,-0.09141855,-0.024254967,-0.09624117,0.018084524,0.070129916,-0.06805363,-0.06460852,0.07660869,0.015997779,0.015624491,0.01905563,0.044855222,0.039992392,0.002712746,0.0038571416,0.03629441,0.06782681,0.084085576,0.012930333,0.09074699,0.064776585,-0.09311798,0.09566006,-0.052094057,-0.095486484,0.011674762,-0.05668616,-0.036302667,0.06562976,0.0026080094,-0.002779013,-0.02143036,-0.051155135,0.037157048,-0.0853358,0.011080958,0.050666563,0.050419144,-0.0521432,0.0348686,-0.034983072,0.04444205,-0.06036548,-0.05027045,0.087854825,-0.041327156,-0.07528415,0.091528624,-0.02840175,0.06774184,0.08896839,0.042386893,0.011151849,0.061466824,0.005493932,0.056077268,-0.03915902,0.080969505,0.025698224,0.105167955,0.050798465,0.032937735,-0.061757118,-0.0350097,-0.05282109,0.07140461,-0.08835642,0.021473238,0.030863708,-0.091730125,0.052982636,0.062388003,-0.022775183,0.026020255,-0.009999444,-0.055082828,-0.02795654,0.07433458,0.060373757,0.071284376,0.00902771,0.012162262,0.010199902,-0.027693154,-0.07213295,-0.025606254,-0.04431743,0.060437642,0.0183694,0.09216884,-0.054819066,0.014621282,0.076664396,0.01130562,-0.059440248,-0.03827929,0.077342466,0.07862763,0.04053155,-0.030230412,0.09043193,-0.10505449,-0.0010741097,0.104345955,0.076864116,0.037148904,-0.045705814,-0.026593061,-0.09667696,-0.012346251,-0.014344164,-0.04200813,0.060999792,-0.074796855,0.015714286,0.0046715923,0.030618375,0.09969036,0.025676366,-0.051856287,0.06285984,0.090023495,-0.0939475,-0.0046053864,-0.08728532,0.067129925,0.073219925,0.049512368,-0.026630191,0.0027206014,0.08706929,0.04712125,0.022419786,-0.07655036,-0.014863215,0.057240747,-0.04093024,-0.05449256,0.034004178,-0.010135026,-0.075869076,0.042857848,0.076656476,0.008500492,0.0071221595,0.0981631,0.05767345,0.039295144,-0.023705069,-0.019822547,0.023145005,-0.041878473,-0.06501213,0.09488204,-0.11070683,0.05581427,-0.0026094525,0.08651979,0.017381206,0.07791146,0.07403149,0.05452271,-0.0040907804,-0.018290332,-0.032966223,0.007661308,-0.01666331,0.037792433,0.085597284,0.051821902,-0.023281965,0.056509987,-0.08076592,0.023134075,-0.0685152,-0.10210787,-0.0006784048,-0.033306465,0.026368963,0.037473932,-0.0085705845,-0.04938499,0.058625467,-0.02500842,-0.048733804,0.085029766,-0.026043486,0.048763353,0.06646704,-0.07051522,0.032228716,-0.015061177,0.08039638,0.04971903,0.043773443,-0.0037683533,0.034090284,0.020863216,-0.100153424,-0.07218134,0.020568736,-0.010900922,-0.018395096,0.052145094,0.013983028,-0.029407449,-0.0242873,-0.043309767,0.09656454,0.013884617,-0.02142602,0.023364708,0.008480445,0.04643148,-0.037203725,0.019449996,0.060833644,0.05146305,0.06175594,0.04236355,0.025273383,0.031572007,0.08762807,-0.021791691,0.07106539,0.014187463,0.0036355222,-0.030537538,-0.035821833,-0.1061695,0.01692532,0.06246566,0.040312912,-0.0048190868,-0.014611505,0.012205133,0.031747285,-0.06671319,0.04377589,-0.050558124,-0.098089844,0.032304443,0.095197365,0.024648227,0.09479072,-0.014946276,0.03559499,-0.021083128,0.00844142,0.020313155,-0.03664701,0.0006827373,-0.07250238,0.09420375,-0.07682443,-0.03369932,0.06459488,-0.08342539,-0.008224003,0.030378766,0.058682695,-0.09718679,0.022471536,-0.08837166,0.004316779,-0.109903395,0.0685424,0.09257223,-0.09654951,0.058062788,-0.029940773,0.042998664,0.0065864744,-0.026559038,-0.036234483,0.03141078,0.06502532,-0.07446346,-0.03695857,0.07084758,0.061906897,-0.0633901,-0.066208534,0.017504493,0.057491876,-0.038396142,-0.037405282,0.08402838,-0.0046887305,-0.008789533,0.08693229,0.07378344,0.062168878,0.02015465,0.0048483177,0.029624287,0.008547507,0.0990282,0.059014205,-0.049446527,-0.060440987,0.08865647,0.049196508,0.050990175,-0.042315472,0.037038177,-0.0770505,0.00090582616,-0.0772809,0.014246401,-0.06453359,-0.03309911,-0.08744055,0.013885915,-0.044431087,0.017844727,0.016968062,0.06005158,0.024767874,-0.0796469,-0.037888072,0.073369004,0.03470191,0.03592066,-0.010260485,0.003512218,0.02107332,0.088243835,-0.01107252,-0.056748435,-0.06313708,0.033782035,-0.0074835937,0.0580952,0.024638481,-0.025110677,-0.051627852,0.077341974,0.057560343,0.034880895,-0.06623021,-0.057593435,0.023484837,-0.03847714,-0.031830046,-0.10180513,0.002574359,-0.03463654,-0.061423622,-0.0985669,0.050917286,-0.10053712,-0.016612787,0.023042353,0.006944103,0.041262645,-0.07191485,0.00846244,-0.009239805,0.037051708,0.035744324,-0.032309305,0.05233594,-0.0023242994,-0.06216118,0.09241621,-0.024203127,0.069232255,0.048839543,-0.06062178,-0.089008816,0.078825265,0.030523077,0.054982573,0.025734356,0.066012286,-0.018828528,-0.028676854,-0.0004232349,-0.054777563,-0.044492412,0.0018971097,-0.052993182,-0.048589896,0.00027500282,-0.030065939,0.058655597,-0.06157516,0.026228497,-0.081014395,-0.014345107,0.03640389,-0.04525685,-0.05980598,-0.028189385,0.097611904,-0.091744244,-0.09746224,0.013650052,0.006926584,-0.027189737,0.05477277,0.051729564,-0.04518541,0.089242876,-0.02677126,-0.09724102,-0.067770615,-0.035497904,0.04175765,0.08320258,0.040571593,0.0892194,0.054664575,0.082051806,0.0842708,-0.0532995,-0.0516074,0.04025357,0.07175423,0.0067938473,-0.048692606,0.03255961,-0.08164868,-0.058867924,0.07655991,-0.064549215,0.06652423,0.01136019,-0.014542716,0.029323803,-0.07866362,0.009267719,-0.072082885,0.057229217,-0.015292451,-0.0066492506,0.07740616,-0.04935651,-0.066286884,-0.02158043,0.08267646,-0.06432094,0.09274347,0.06876121,-0.040317215,-0.043016396,0.09109145,-0.08982124,-0.061020553,0.020435806,0.027728176,-0.08734346,-0.044582,0.07645402,-0.027499985,-0.005482489,-0.025221689,-0.08638427,0.047515463,-0.06994593,-0.08741034,-0.10542879,0.08404466,-0.0895578,-0.054506876,0.005441544,-0.09627291,-0.027552474,-0.086741485,0.0046609566,-0.03499682,0.04447512,-0.09747713,-0.023235938,0.07797282,0.05759604,-0.061473984,0.10640885,-0.08839005,0.07878681,0.085873455,0.052974533,-0.10574365,-0.06334049,0.007939197,0.009254306,0.009907253,0.05410684,0.015001527,0.0052242004,0.07193732,-0.07215007,-0.06859515,0.046203017,0.06717467,0.08252558,0.058719855,0.065209836,0.057115514,0.011649813,0.07761952,0.07081558,-0.032265756,0.08479752,0.04494612,0.029633746,0.04172645,-0.10789565,0.060785037,0.016576556,-0.050851885,-0.006830937,0.008048696,-0.06934475,-0.006872208,0.011541442,-0.059096865,0.017951362,-0.058553442,0.054010034,-0.10585237,-0.028650029,0.03897856,0.060780227,-0.06268782,-0.060419038,0.033047955,-0.076283105,-0.072224855,-0.08526374,-0.006150155,-0.07080699,0.08036422,0.091439985,-0.02562746,-0.004505659,-0.0025518741,0.07703846,0.034810234,0.07963093,0.081492834,-0.025929859,-0.033247523,0.029989291,0.021053534,-0.051661592,0.08151622,0.0060801525,0.08392594,-0.06421153,-0.015683318,-0.07429541,0.08836203,0.07775873,-0.08324763,0.06698341,-0.07949778,-0.0067336597,0.053411588,0.077609405,0.04575949,-0.06496163,0.053753108,-0.035678383,-0.02324493,0.050546348,0.081839725,-0.03659287,0.014104533,0.011383806,-0.061650038,0.038238432,0.09366169,-0.032685436,0.054656364,0.032054506,0.104284,-0.0010038675,-0.015950901,0.04523708,0.004444352,-0.0957456,0.023862965,-0.041936703,0.079452075,-0.012725947,-0.012744063,0.08970986,-0.08379897,-0.0043249866,0.007883434,-0.0024174007,-0.002417032,0.04755574,-0.014712663,0.030960249,-0.041962814,0.0384344,-0.017161902,0.055942442,-0.07143711,-0.057805423,-0.05039996,-0.0033400026,-0.04403814,-0.06724388,-0.05006911,-0.06653521,-0.0053503746,0.008665005,-0.08662199,-0.06823966,-0.10378323,-0.011305676,0.05939757,-0.09298067,-0.05222054,0.07411917,0.042564187,0.09734648,0.010679429,-0.026094003,0.06775858,-0.06918396,0.010600043,0.02931253,0.005802404,-0.06266561,0.081805855,0.043743197,-0.066167355,0.042201743,0.0024059543,-0.053346675,0.009749717,0.031545836,0.102572,-0.068200216,-0.033270705,0.003986757,0.07321472,-0.097276576,-0.04262315,-0.015389239,0.006882409,0.015538605,0.00012210284,-0.061472196,-0.059697594,0.036235828,-0.0136750145,0.071919665,-0.032278746,-0.03563388,0.010217637,0.045386553,0.07788941,0.0018112184,0.06447316,0.010527165,0.07928184,0.020753972,0.090091124,-0.01820994,-0.026211452,0.04250549,-0.035906713,0.093283504,-0.08720258,0.027425475,-0.04126047,0.020297829,-0.08681212,-0.010834265,-0.06314212,-0.02509121,0.016875634,0.06066819,-0.0537889,0.015746875,0.0811461,-0.055201247,0.009268264,-0.060724005,-0.012349275,-0.048981734,0.0684101,0.069703415,0.050517306,-0.07504431,0.08181504,-0.017674616,-0.049317192,-0.05438612,0.07254038,0.05622032,-0.06907737,-0.08073803,0.09298163,0.03256831,-0.09650388,0.061918207,-0.08551727,-0.04661574,-0.017790811,-0.05466152,0.003866716,0.08522149,-0.059415817,-0.085394695,-0.041409303,-0.06620591,0.0649538,-0.075780004,0.04118356,0.070843056,-0.010873005,-0.05448846,-0.005320999,-0.022966357,-0.03599739,-0.05601001,0.023140125,-0.005043569,0.05700563,0.018205304,-0.10837801,0.077555835,0.019655032,-0.061630156,0.058662657,-0.0890766,-0.0018385781,0.046750706,0.04932562,0.0453765,0.010055765,-0.04652035,-0.051801603,0.07636482,-0.07559697,0.075983495,0.034433372,-0.04848013,-0.043916117,0.09157484,-0.0198095,-0.016426729,-0.09822863,0.08522292,-0.001317042,-0.018594576,0.017449511,-0.042865116,0.012081014,0.057403117,0.07727798,0.010130673,-0.07393571,0.004006299,0.05941637,-0.10116286,-0.03827513,0.02252752,0.036906306,0.029949341,0.0077927737,-0.098111056,-0.09537441,0.06485066,-0.03798578,-0.0594788,-0.033028543,0.04586724,-0.028158052,0.08184323,0.02199499,0.02076672,0.08494528,0.007471535,0.043247756,0.058972783,0.033961516,-0.08149758,-0.031806476,-0.10603733,0.052094694,0.071487755,-0.010266711,-0.07046497,0.00059995736,-0.037192635,0.022174865,-0.078170024,-0.10261427,-0.057811983,0.07528948,-0.09327507,-0.027960982,-0.03597748,0.0035326432,0.08945903,-0.0709076,0.08570421,-0.070506856,0.022320164,-0.0893516,0.011625483,0.0802233,-0.07261423,0.013893553,0.08324657,-0.030502938,-0.051790416,0.042197727,0.06416089,0.052635867,0.0073526297,0.06949993,-0.032061066,-0.034970306,0.09573959,0.06763992,-0.023545742,-0.04022645,-0.03284764,0.012675313,-0.09498095,0.022106541,0.010836794,-0.061655756,0.065658174,0.083300106,0.029139152,-0.050585203,0.0011517953,-0.0044919723,0.046848424,-0.076496944,0.09217538,-0.107021995,0.01918378,-0.058472276,-0.029396687,-0.090141155,-0.06685464,-0.08641015,0.02192378,0.025830273,0.059686694,-0.050445043,0.053190246,0.011682407,-0.061264455,0.07293001,-0.04375708,-0.08866386,-0.044038866,-0.059377626,-0.04118864,0.049861647,0.0066564856,-0.029030105,-0.042397313,0.047098123,-0.030600136,-0.07716125,-0.09089311,-0.102010496,-0.0044492763,0.079191685,0.018721849,0.09327374,0.06856499,0.020031188,-0.01927498,-0.03460501,-0.057040446,0.051643442,-0.08987279,-0.021056402,0.047661036,0.06574856,-0.07688953,0.013324868,0.06550544,0.08995324,-0.0058068237,-0.067386374,0.0010963517,-0.059166096,-0.045285996,0.07426649,0.004270972,0.047881596,-0.050367262,0.07378387,-0.06945476,0.097049184,-0.05693496,0.06351399,0.032096606,0.06213198,-0.013939898,0.03291077,-0.08536073,-0.0068318937,-0.08603123,0.012101417,0.07026495,-0.080381714,-0.02185818,0.03311981,0.05803147,0.058121055,-0.094103575,0.08659883,-0.089750804,0.010556891,-0.044544138,0.08447166,0.07573914,0.09463782,0.07471022,-0.06825823,0.0094797155,0.027367635,0.08267155,-0.07912216,0.08182856,-0.0937257,0.072558135,0.094696894,-0.05078271,0.008861699,-0.03806583,-0.020018969,-0.08114183,-0.013586337,0.053790033,-0.08031669,-0.028633375,-0.02817871,-0.0066614267,0.082105435,0.016122947,-0.059369944,0.08934205,-0.06465135,0.049774986,0.049113154,0.06585744,-0.090130664,-0.02426824,-0.006991582,0.04171971,0.073620506,0.06027638,-0.07968972,0.028448192,-0.023699334,0.069898576,0.08824824,-0.08063899,-0.004732589,0.010789918,-0.051923,0.07999958,-0.04921584,0.061215293,0.07420607,0.07717505,0.03471935,0.06865768,-0.09143136,0.079587266,0.09299981,-0.039256986,-0.0053740465,-0.07852668,-0.06348443,-0.015728675,-0.0003488118,0.06655582,-0.047385894,0.025894877,0.037402548,0.01655747,-0.02611513,0.07834997,0.08546255,0.08960357,0.014574577,-0.03837704,0.08672935,-0.06309259,0.013056129,0.029369395,0.023733737,0.006187975,-0.023329075,-0.06897924,0.066824704,-0.022870371,0.008143093,0.04870695,-0.0075447583,-0.054871097,-0.044313997,-0.034258734,-0.09052132,0.03326823,-0.0497175,0.07110105,-0.024217146,0.0067171333,-0.03172955,-0.055393707,-0.05164204,0.056404192,0.028775912,-0.061638795,-0.00308383,-0.09780174,-0.018303098,0.050687056,-0.017608378,-0.030988354,0.1145911,-0.06346847,0.05540394,0.028122628,-0.0657048,-0.009831158,-0.06615868,-0.0826402,0.07012557,0.029505616,0.028931625,0.0049102562,-0.017743954,0.029049683,-0.072034925,0.110278964,0.08757888,-0.03078921,-0.0734198,-0.026486712,0.043321546,0.007001479,0.04416508,-0.04323466,-0.021724496,-0.08818995,0.071315154,0.1038625,-0.08511287,-0.029019779,-0.042198513,-0.046512824,0.05291365,-0.030137077,-0.080824286,0.04882456,-0.02043822,0.046858918,0.06685164,-0.033047643,0.06855289,0.013531097,-0.017185707,-0.08055839,-0.07365226,0.04882647,-0.0034535446,0.07149329,-0.058629807,-0.0555181,0.05626013,-0.050330397,0.0045114956,0.07928933,0.06599825,0.03079764,-0.08999033,0.095505536,-0.007272289,0.09663141,0.027227959,0.025786744,0.042543333,0.04668594,0.09964929,-0.06789991,-0.069136634,-0.0922216,0.034688536,-0.012970806,0.026051713,-0.09941037,-0.011115692,-0.058122505,-0.07237585,-0.023481801,-0.0487553,-0.016423235,-0.011945635,-0.059023578,-0.09413295,-0.052979928,-0.011393349,0.0057030492,0.03283814,0.09089851,0.0807118,0.0970162,-0.08208583,0.09835615,-0.03989005,0.04559039,-0.045030653,0.013506528,-0.048281774,0.007529883,0.027916275,0.0757722,-0.06576301,0.064100936,-0.0043557985,0.086719275,-0.04912837,0.009602698,0.045043,0.07431587,-0.030831728,0.090385705,0.020895524,-0.021407098,-0.029860409,0.071237296,0.064136535,-0.0034062476,0.0684278,-0.070135206,-0.032267727,0.10096861,-0.02573861,-0.011370133,0.09593256,-0.024734715,0.104164466,-0.04325907,-0.010489285,-0.03972028,0.027758528,-0.019155908,0.04651555,-0.10229662,-0.08370627,0.08686083,-0.012128678,0.090297565,-0.02305891,-0.071925215,0.009292374,0.08074036,0.072097585,-0.019003296,-0.009201918,0.098283075,0.01398882,0.0726866,0.0049847867,-0.058846198,-0.0036275336,0.059816215,0.0067786514,0.012654107,0.026256647,0.051424995,0.004286832,-0.021981355,-0.015305187,-0.0680215,0.056071226,0.031734794,-0.011195486,0.0734621,-0.012622604,0.046527706,-0.07088818,0.0314564,0.057157997,-0.046151552,0.106137395,0.065969534,-0.040216424,0.06961181,0.07412499,-0.0029501028,0.07964615,0.0436162,-0.0029054743,-0.045915037,0.0036251966,0.034491003,-0.025746265,-0.010938825,-0.0930959,0.023988346,-0.029626738,-0.08641377,-0.014442173,-0.045162734,-0.019657154,-0.04698973,-0.024867225,-0.047297597,-0.025420688,-0.035169818,-0.070518084,0.000788318,0.02534062,-0.051627338,0.08178758,0.03266093,-0.04958702,0.050025567,-0.07485735,0.07416147,0.08909522,-0.017834751,0.057366822,-0.014857675,0.08400492,0.0777639,-0.022240615,0.10955151,-0.025346043,-0.013966938,-0.09718792,-0.0049782717,-0.009861885,0.032207236,0.007922101,-0.045782875,-0.062519565,-0.046731066,-0.0035577056,-0.07911621,-0.057587225,0.0017663466,0.00684559,-0.081809156,-0.016171474,0.085138775,0.112265244,0.05398851,0.054424565,-0.02103276,-0.037548974,-0.059996117,-0.04397074,-0.014141281,-0.04232422,-0.055040974,-0.08695947,0.020852715,0.08990206,-0.0034670136,-0.007551518,-0.10114152,0.08606411,-0.076957546,-0.03516696,0.114140026,0.047096737,-0.055723514,0.045198318,0.029987227,0.02829451,-0.0718725,0.0072715045,-0.006351782,-0.030334484,-0.08120715,-0.012995673,-0.043858785,0.07542173,0.02793343,0.0100519275,-0.096431054,-0.04297759,0.035489194,-0.07140094,-0.028020237,-0.034107015,0.040831402,0.066704825,0.023445673,-0.07624757,0.018777216,0.106584944,0.012562717,0.00623607,0.08427151,0.0016440256,0.09484454,0.060011804,0.0608416,0.058518983,-0.075256675,-0.0710076,0.08633227,0.0052307076,-0.009212252,-0.06718853,0.040456075,-0.06499588,-0.014164358,-0.08863167,0.06889395,-0.013916822,-0.010967166,0.050327733,0.068007074,-0.0839627,0.018092126,-0.007802404,-0.083923124,0.009715338,-0.002944021,0.029287638,0.046543393,-0.07972993,0.023891028,-0.06596006,0.09287494,-0.028401632,-0.0063887294,0.043342955,0.08829704,-0.032754492,0.06267578,-0.075575076,0.0929394,0.104580015,-0.05694926,0.102333315,0.088232726,0.07381745,-0.09741111,-0.055403013,-0.08609269,0.012176872,0.087812304,-0.013568328,0.08826671,0.041711036,0.08979644,0.10194562,-0.025169551,-0.0026069288,-0.06556426,-0.02786408,-0.050928902,-0.019922072,0.036061242,0.035978593,-0.005840808,-0.025072642,0.061304644,-0.07775443,-0.035178024,-0.007495945,-0.046279136,0.0491867,-0.034664046,0.05183766,0.022680115,-0.10471487,-0.050251264,-0.011837027,-0.0532471,-0.0598521,0.017718405,-0.010187083,0.08407564,-0.07671408,-0.015339491,0.03180089,-0.067038335,0.0155250635,-0.029255278,0.05016803,0.08854709,0.03217361,0.042066216,0.036292136,-0.08254246,-0.050898574,0.10016421,0.070326254,0.008999328,0.047011092,0.04498159,-0.039211623,0.046040624,0.082383715,0.08388145,0.028418705,-0.07233616,0.06539677,0.067832485,0.02546913,0.01252068,0.0013332447,0.061907407,-0.042403433,0.086392984,-0.08507601,-0.026227586,0.10252431,0.060062047,0.03687623,-0.022366963,-0.05670638,0.020714713,0.049248386,0.09943211,-0.081018195,-0.022157365,-0.0530306,-0.01825023,-0.04809208,0.07081812,0.07145134,-0.068175055,0.0116253905,-0.05857718,-0.08698565,-0.039287407,-0.03081868,-0.09404065,0.047436036,0.0058675776,-0.035999764,-0.0016817981,-0.019113323,-0.07547262,-0.004181449,-0.08043061,0.061721202,-0.093685366,0.02294381,-0.08383709,0.07904381,0.095937304,0.09284352,-0.0058402456,0.009660623,0.1035047,0.0067888377,0.042174757,0.010941191,-0.08960433,-0.0054070204,0.06892964,0.06141454,-0.09576468,-0.025664687,-0.011865463,0.011407217,0.08559899,-0.039514925,-0.018969683,-0.023817232,-0.040435452,-0.072570816,-0.07064995,-0.020279182,-0.072463825,0.055177297,-0.040759224,-0.07233437,0.025766023,-0.036743734,-0.018084887,-0.04145131,0.047696978,-0.087406576,-0.099246755,0.032249376,-0.011587143,-0.025032984,0.08388369,0.0882359,0.009143103,0.014499226,-0.008972815,0.07065449,0.034117494,0.093355164,0.10388953,0.06345266,-0.029192071,-0.07823618,-0.06702468,0.015761442,-0.08591979,-0.034189217,0.093985096,-0.02846725,0.07506571,0.037302982,-1.4656041e-5,0.062476754,-0.093111195,-0.03663237,0.09746762,-0.07743909,0.04052671,0.023462022,-0.050332494,0.07730797,0.0699496,0.025397936,0.01731696,-0.09622834,0.039119314,-0.019904384,0.03864433,0.09283567,-0.023479663,0.0433654,-0.048752133,-0.063058615,-0.0019383461,-0.026029788,-0.026300993,-0.053578038,0.06895033,0.020837914,0.059753545,-0.023680585,0.08773997,-0.08223228,0.064899944,-0.063453786,-0.010093674,-0.04630532,0.031890772,-0.048380468,-0.07951721,0.011039837,0.10440859,0.043408014,0.08708258,0.025202803,0.010721153,-0.05149388,0.010365253,0.037656818,-0.059311464,0.0617457,0.07822118,-0.016260508,-0.049293965,0.08071423,-0.04536682,0.02264688,-0.05901927,-0.012290319,0.0790068,0.022043355,-0.02135327,-0.088845745,0.00089045224,0.033951614,-0.09624596,0.015227317,0.05591331,-0.033866912,-0.08541977,0.066984765,0.062565036,0.077071734,0.018881204,0.039769113,-0.08639601,-0.064439625,0.05578092,0.06720359,0.059525214,-0.08500488,0.01690386,0.074516624,-0.07296987,0.039278038,-0.05455818,-0.037587967,-0.083409525,-0.05121643,0.08342353,0.042264916,0.0765686,-0.08783933,-0.056158904,-0.0072943945,0.09660909,0.008637552,0.03635267,-0.06674001,-0.05382941,-0.013625571,0.06535782,0.08711702,0.043158736,-0.0083792955,-0.005958916,0.09744536,0.028525183,-0.016201926,0.084860414,0.093825966,0.025328675,-0.046219595,0.0065356856,-0.05524277,-0.061257113,0.09230688,0.025578594,-0.0075756456,0.039708402,-0.05173429,0.04981331,-0.05619707,0.0027295882,0.062499095,-0.07547256,0.111666515,0.08856399,-0.015474398,0.058007624,-0.006608126,0.09452299,0.057217658,0.0541104,-0.048906237,-0.07875977,0.08202076,0.022487082,0.015040316,-0.00015357329,-0.078914784,0.0008948721,0.084054865,-0.056941453,0.11480637,0.062163338,0.07981935,0.045045957,0.0017346112,0.07292803,-0.024110492,-0.07437122,-0.06377827,0.073943935,0.056257006,-0.090800524,0.03713356,0.09515451,0.10535993,0.03978863,-0.052440766,-0.054546267,-0.06910884,0.10033206,0.07316156,0.053336218,0.016054843,-0.016042018,0.013540491,0.06165363,0.01943196,0.07467489,0.06605536,-0.08360933,0.085936405,-0.047587126,0.0150491735,-0.05813327,-0.004304961,-0.058426086,0.05760987,-0.06564218,-0.031993944,0.07954895,0.07300771,0.010241449,0.06335253,0.0150558,0.04914203,-0.045594465,0.066584155,-0.027909081,-0.0036563785,-0.029711852,-0.10266874,0.0052453065,0.071938075,0.057416294,0.076021336,0.0038439634,-0.051326934,-0.07834415,-0.002009118,0.031177234,-0.10302861,0.05271911,0.0406022,0.044718612,-0.046841886,-0.05548623,0.08641326,-0.093419686,0.06289728,0.047369163,0.052991208,-0.047295444,0.02755177,0.100365914,0.020754894,-0.06082298,0.026288893,-0.08855598,-0.05427773,-0.0003135697,0.084466554,-0.063636646,-0.07858018,0.010049394,-0.014484286,-0.040295776,-0.03642709,-0.062056754,-0.077925205,0.02294766,0.0003266679,0.01652678,0.012723771,-0.02643669,-0.044414047,-0.01278319,0.10579373,0.065457076,0.0031466675,-0.007289253,-0.022840563,0.09897877,-0.08980466,0.08914691,0.08238749,0.09521774,-0.033922493,-0.022782978,-0.100840196,0.053902853,0.117531225,-0.011596001,0.081298016,-0.06827207,-0.075967595,0.07299283,-0.096614055,-0.03223692,0.042070214,-0.04132034,0.004638313,0.104913875,-0.07709826,0.051974073,0.055115893,-0.053511947,0.026261404,-0.07408789,0.04776522,-0.06991344,0.022060968,-0.08854804,0.06661395,-0.014539823,0.030633235,-0.09194834,-0.027206793,0.057905134,0.03981566,-0.08468756,-0.019048292,-0.08352787,-0.025124492,0.028351508,0.037115682,0.08014852,-0.033167448,-0.032565583,-0.06488629,0.10640241,-0.08742751,0.06969025,-0.06815481,-0.031633504,0.06303868,-0.0696143,-0.01669018,0.04701477,-0.009451041,0.039028056,0.050462563,-0.016976874,0.06741336,0.056706637,0.091607146,0.064647876,-0.055179287,0.06600986,0.040239334,0.023337357,0.09865406,0.02566468,0.030708984,-0.05048909,-0.027913718,0.029457783,0.09893621,-0.10338756,0.07881766,-0.009787048,-0.07726186,-0.029648943,-0.0057554697,0.046838626,0.09227383,-0.014652587,-0.029524522,-0.021577617,0.050355174,0.027064558,0.05923742,0.058121618,-0.09801118,0.0980995,0.041935794,0.078090414,-0.05200138,0.02662629,0.010571139,0.006062287,-0.064316176,-0.012177136,-0.031122826,-0.08444504,0.039509673,0.065558076,0.030041987,0.06551222,0.047297034,-0.013888522,-0.015342359,-0.016494062,-0.0677285,0.03227267,-0.033686366,-0.051397894,0.046171203,-0.042228967,-0.04029129,-0.041671403,-0.07732791,0.014491902,-0.004009113,-0.04277018,0.0031920127,0.079903975,-0.024278447,0.094274335,0.018983707,0.06021163,-0.014117882,0.03924201,-0.0490494,-0.062767655,-0.105950676,-0.09860442,-0.06568251,-0.06602265,0.1106801,-0.06737945,-0.019357312,-0.031817097,-0.070876926,-0.011541998,0.03187279,0.0132948635,-0.053906858,-0.027593639,0.011316772,0.09855899,-0.0023210198,-0.085952885,-0.095136814,0.0041484428,-0.044782177,-0.05013087,0.062336355,0.07789313,0.017648082,-0.09434291,-0.03913732,0.02553018,-0.03972592,0.073440835,0.058344197,-0.11070284,-0.06291475,-0.0938832,0.034379587,0.01124448,0.031413887,-0.040279415,0.07732411,-0.076344825,-0.073126875,-0.06747788,-0.034949455,-0.054052614,-0.059734285,-0.06552652,0.04311173,0.07902619,0.019453645,-0.011883255,0.091003045,-0.045083743,-0.0634743,0.0068577263,0.07254401,0.06993923,-0.085142404,-0.0050084246,-0.085665084,-0.0014283331,-0.027115013,0.065858915,0.073578835,-0.053048886,0.07008278,0.012861036,-0.020253833,-0.09331501,-0.04089365,-0.05163777,0.010350056,0.059057884,0.040807404,0.057679407,-0.06104228,0.005100072,-0.02562494,0.027311688,0.005578803,-0.026109738,-0.06233441,-0.030478403,-0.0116849495,0.05174774,-0.097150326,0.026075652,0.04556119,0.0809838,-0.08319807,-0.0011557365,-0.049855903,-0.07969217,0.08426284,0.009101888,0.025501642,0.031191789,-0.034848817,-0.07738646,0.09354371,0.05397126,0.0677608,-0.0008519223,0.08604476,0.013672288,-0.0704614,0.0018953257,0.029665431,0.034836944,-0.02274981,-0.09996042,-0.032203067,0.058895446,-0.0016433138,0.09750232,0.04919508,-0.052444976,0.06961874,-0.059717946,-0.0749923,0.014425074,0.050014187,0.048655335,0.07852234,-0.094049096,0.035714682,0.08875102,0.09109742,0.012655007,-0.025411054,-0.04586149,0.01621165,0.005142817,0.027419742,0.03246632,-0.03259862,-0.050600927,0.011633288,0.080154754,-0.02211207,-0.07685226,0.055641912,0.029402174,-0.026357269,-0.07589193,-0.030405777,-0.025339056,0.060877476,0.0076147183,-0.0333484,-0.033719335,0.00082076713,0.092377864,-0.071156844,0.08573751,0.07842917,-0.068764314,-0.08536025,0.025701765,0.0094055,0.001223569,-0.07414851,0.08448157,-0.026600944,-0.08598727,0.060329556,-0.04913088,-0.07756522,0.021955121,-0.06694644,-0.028435558,-0.0021480399,0.04860924,-0.04253558,0.038827114,-0.046587538,0.036190107,-0.077568896,-0.0077460227,0.04742003,-0.08270428,0.005878218,0.09533484,0.056703556,0.065316364,0.07519336,0.07846347,0.040199332,-0.062341984,-0.038231466,0.057625562,0.07385889,0.07338606,0.083058506,-0.0076948614,-0.08604526,0.013570691,0.012355894,0.015865851,0.08780364,0.048506126,-0.09686939,-0.083409764,0.04832428,-0.03439011,-0.04856677,-0.0071150344,0.030715918,0.05269908,0.0037610382,-0.010935581,-0.05897104,-0.081512295,-0.081331186,-0.013472223,-0.070533946,0.10068111,0.03818977,-0.02826626,0.050761968,0.008679979,0.024331372,0.064011484,0.006190959,0.023549614,-0.02251259,-0.062257167,0.012325073,0.07155566,0.012000774,0.07657243,0.073569484,-0.06768748,-0.07700819,0.006974313,-0.019254899,-0.04652589,0.015112211,0.08731392,0.056580286,0.00061169633,-0.037232485,0.07214616,-0.067420766,0.025835562,0.087269336,0.036123168,0.024625624,0.063318126,-0.09677457,-0.021013185,0.008059555,-0.07191903,0.053974308,-0.0034881898,0.02306586,-0.057830825,0.06746052,0.07467934,0.008513773,0.079874024,0.08173693,-0.074701704,0.03245924,-0.07516078,0.016239574,-0.033010855,0.094468996,0.06899399,0.08930695,-0.086838335,-0.08600706,0.019682067,0.0064562485,-0.020828731,0.08467922,-0.029333724,-0.034653626,0.08611711,0.083100244,0.014256036,-0.07779388,0.09283641,-0.037136618,0.012229464,0.068591274,-0.08719186,-0.07280429,-0.063570015,0.06427053,0.021417895,-0.054747514,0.022494847,-0.055938654,0.048980124,0.010184669,-0.064051405,0.06783224,0.034663867,0.06858362,0.08339085,0.016205363,0.03439439,-0.016307266,-0.06896471,0.07810786,-0.04388635,-0.029294936,-0.02483419,-0.076507464,-0.018651392,0.035009827,0.08730899,-0.06934645,0.006217522,-0.017292663,0.094720826,-0.074488595,0.046060305,0.0909728,-0.08897007,0.09645286,0.052326143,-0.0173426,0.092504375,0.09633684,0.026176415,-0.076811306,-0.041768666,-0.09292379,0.047998868,0.007340804,0.021591336,0.048706193,-0.072597,0.069130935,-0.02187054,-0.065539,0.0659174,0.007262964,0.09511366,-0.07606559,0.050167248,0.07511951,-0.045409042,0.014449542,0.05348155,0.02513029,0.026444506,0.067144245,-0.0555261,0.082913674,0.07486725,-0.012972244,0.065781236,-0.060865387,0.00793502,0.08047066,0.050912507,0.032257657,-0.0363656,0.091976516,0.06703408,0.05290968,-0.026837677,-0.093957245,0.062136482,0.06418458,-0.076337606,0.03160935,0.025141884,-0.07970442,-0.0072835307,-0.0150430435,-0.06841676,0.046801705,0.08203915,0.07567453,0.022008335,0.0652753,0.064050384,0.063880295,0.008572804,-0.0064187865,-0.065819055,0.07821136,0.054960098,-0.030319272,0.027440624,-0.07617357,0.028608395,-0.08947649,0.045370277,-0.056534547,0.012239507,-0.070175886,0.07046629,-0.02450909,-0.03198916,-0.05289247,-0.005087991,0.010922861,0.043626055,0.026338125,-0.050315283,0.011546514,0.099898085,-0.034288198,-0.015054264,0.09359719,-0.052244265,0.035801236,-0.09062852,0.0039526527,-0.010396802,0.038820732,0.031984456,0.0843433,-0.017686514,0.007410252,-0.01525298,0.051351804,-0.09285376,-0.018592367,0.019698827,0.035225064,-0.07230501,0.025941223,0.075214766,0.010168842,-0.00413994,-0.07082584,-0.058952864,-0.0059554754,0.09552711,-0.044026833,0.04297226,-0.080650605,0.0610003,0.06256239,-0.07988191,0.06680112,-0.045311995,0.02997112,-0.09743551,0.02001334,-0.024391951,-0.07551855,0.08270386,-0.027167434,-0.08597151,-0.030766537,0.009494893,0.004350621,0.08304147,0.023644086,-0.022126423,0.06304567,0.05624912,-0.08737878,-0.015862301,-0.08358422,0.010184162,-0.064789966,0.033003714,-0.109501086,-0.0042709606,-0.08659148,-0.011972291,-0.067832954,0.094472274,0.0062794853,0.05030711,-0.0012372133,-0.004702295,0.06281814,0.020323953,-0.07390977,0.064716846,-0.022428693,0.040123813,0.079222,-0.09548324,0.07342162,0.020110982,0.05641058,-0.06595567,-0.07322176,-0.039588127,0.07003729,0.053711273,0.044895414,-0.03690993,-0.06576743,-0.06769796,0.041604303,0.014637898,0.07851138,-0.08920499,-0.0045129457,0.074159764,-0.09821592,0.05776663,-0.07543909,-0.08566427,0.030467035,0.006423596,-0.039778005,-0.09554623,-0.024963502,-0.058235727,-0.053192798,-0.023513343,-0.028580274,-0.06369754,0.005798719,0.11514507,-0.050446473,0.012424723,0.08419449,0.058169365,-0.01281002,-0.06468083,0.027256213,-0.0063728937,-0.015309449,-0.078042276,0.080084175,-0.05595551,-0.02906445,0.04137034,0.04811533,-0.015813803,0.049950417,-0.07376555,0.021911247,0.022426642,-0.06035451,0.06470744,-0.0932333,0.091140285,-0.00823428,-0.04197227,-0.10606375,-0.096318804,0.013686608,0.038753193,0.06646314,-0.07348961,-0.004246282,0.013713487,-0.03840959,-0.08219811,0.038680412,-0.056697823,-0.010425249,0.03382148,-0.012320757,-0.10231936,0.006239435,-0.0012427389,-0.049793195,0.03185879,0.018550633,0.07800631,0.086624876,-0.06930576,0.07874866,-0.08747547,-0.091477014,-0.004077192,-0.0011079218,-0.09244779,-0.035784293,-0.05853725,0.0535979,0.032818493,-0.05732632,-0.05774008,0.087481804,0.074469104,0.009545428,0.08648903,-0.089490056,0.052738674,0.02928439,-0.055755824,0.057717845,-0.034776203,-0.009693222,-0.07631858,0.01716657,-0.09287191,-0.10308901,-0.030766485,0.078831114,0.034658413,-0.076560676,0.0012424055,0.048469026,0.0688486,0.07976122,-0.021964367,0.04448622,0.025654541,0.025174873,0.002907095,-0.020187914,0.023877928,0.07491436,-0.053210814,0.092983976,-0.028980697,-0.08275913,0.011203727,-0.041384205,-0.08122325,-0.019643104,0.045088816,-0.012152291,-0.02367448,0.042436473,0.036379736,0.016813615,-0.058124006,-0.09200782,-0.0075101913,-0.037405852,0.078873076,0.08700512,-0.093705975,-0.019961426,0.032592278,0.026514048,-0.066463426,-0.08739155,-0.035400935,0.022345958,-0.08599192,0.07262318,-0.071000256,0.022261046,0.01330237,-0.08838431,-0.030814437,-0.07121767,-0.07231739,-0.07794135,-0.023781471,-0.09441801,-0.059137695,0.09677001,-0.10421619,-0.032618243,-0.045147326,-0.033284664,-0.029460615,-0.08366328,-0.071657464,-0.04390489,0.070531026,0.01857959,0.054435056,-0.06914635,-0.04092065,-0.0127078835,0.090145506,-0.0066023716,-0.04528928,-0.072979115,0.025066387,0.010650017,-0.06767857,-0.03127442,0.08924845,0.020385534,0.07982819,-0.02833611,-0.03173542,0.031745125,0.032677267,-0.016373325,-0.08034227,-0.042643327,-0.01429816,-0.0009465644,-0.09798113,0.08793675,0.040404357,-0.08185459,0.06601058,-0.026955763,-0.028792217,-0.05937202,-0.11264027,0.029356921,0.050495904,-0.0383718,-0.0043677767,0.010182541,0.004793145,-0.05666368,0.05911184,-0.061397363,-0.06616347,0.055327754,-0.06386738,0.011028089,-0.067706354,-0.07197238,-0.06341108,0.07737686,-0.001709428,0.04105049,-0.043378584,0.06888301,0.05221112,-0.0045742607,0.06978666,0.062737904,0.05684822,0.03363898,-0.026332073,-0.104385234,0.0858426,-0.063376576,-0.0675773,0.04937418,-0.04913892,0.09350499,0.08325054,0.02688016,0.022248933,-0.018453859,-0.08218889,0.016652802,0.04459395,-0.059493426,-0.09311305,-0.060337935,-0.10206637,0.07986463,-0.06021363,0.076922856,-0.035510693,0.09557094,0.075247385,0.068171896,0.06491525,0.063454054,-0.057899173,-0.09544789,0.07114028,-0.063908465,0.029393494,-0.006497714,-0.06651196,-0.085059725,0.06286893,0.031512167,0.014075052,-0.019950876,0.041919045,0.010243096,-0.090703726,-0.00011522473,-0.048380516,0.01001705,-0.04062369,0.022677075,-0.09599157,-0.031320233,0.091482185,-0.011181471,-0.04935118,-0.06135942,-0.034309965,-0.067133375,0.045623302,-0.011704705,-0.0878923,0.0742752,0.067065984,0.023651266,0.031338245,-0.07469201,0.00334526,0.07857326,0.065131776,0.05540462,-0.05024646,0.009821888,-0.05742828,0.08510317,0.03529312,0.03610339,0.078158446,-0.018070614,-0.013299386,0.04665926,-0.06467326,0.02951743,-0.10266499,0.03487218,-0.06563046,-0.014179455,0.084077336,-0.03035159,0.0048031416,-0.047779523,-0.0033538037,-0.03577774,-0.106056884,0.037849285,0.042930003,-0.01151594,0.018733617,-0.08399544,0.09582034,-0.091379814,-0.054689888,0.058529593,-0.08761826,0.07750006,0.016686063,-0.0016899453,0.046778075,-0.0014592678,-0.07106306,-0.038776863,-0.040346846,-0.0060272343,0.05826787,0.092377186,0.02037068,-0.07493012,0.07270405,0.026680829,-0.057636175,-0.041320387,0.004738893,0.06941835,-0.030435616,0.0708134,-0.05309185,-0.07224132,0.0797933,-0.08024098,-0.08656451,0.07782397,0.039132252,0.038562782,0.038514722,0.08798514,-0.03928743,-0.041093234,0.050898552,-0.024910519,0.097630225,0.043781314,0.06448934,0.051885374,-0.0040042102,-0.04942779,-0.03439871,-0.056602646,0.0016893278,0.072795816,0.06885351,-0.023917252,-0.017951867,-0.07401944,-0.061049737,-0.05506402,-0.037567984,-0.02249935,0.012551634,-0.08488046,-0.09290399,-0.032141313,0.08724311,0.08940303,0.039261453,-0.015609202,-0.005097909,0.041120064,0.048783693,-0.014888373,-0.096200466,-0.020116873,-0.070642926,0.066504054,-0.050266545,0.08349662,-0.07177451,-0.07600173,-0.07144771,0.06620037,-0.038160488,0.06339455,0.0948648,-0.06924945,-0.09895536,0.0058152233,-0.023526067,0.07492135,-0.07032786,0.02317923,-0.088733196,0.08186086,-0.0587135,-0.06716796,0.07217305,-0.03946975,-0.033154126,0.01631376,-0.077387065,-0.06730227,0.041305106,-0.07038888,-0.09806983,-0.03886093,-0.08105006,0.07087605,0.04266256,-0.071906514,-0.056092337,0.07940048,0.048223548,0.06371979,-0.09123942,-0.07965508,0.040351894,-0.027642678,-0.10047496,0.11354169,0.04536727,-0.021597767,-0.020570282,0.07343791,-0.08021186,0.06751564,-0.054298233,-0.07048119,-0.029757543,0.00063626724,0.04587338,0.021978112,-0.053240277,0.091245085,0.052697796,0.031122904,-0.08481231,-0.09171129,0.029245468,-0.025454976,0.06399332,-0.07985489,-0.008569171,0.06477683,0.0029820078,-0.044108387,-0.08693219,-0.035501644,0.018870747,0.070610106,-0.03513685,0.0019513464,0.013250086,0.021822726,-0.0062904255,-0.08012713,-0.085254855,0.0389465,0.0586081,0.077407114,0.039282344,-0.06618117,-0.03806302,-0.07313785,-0.1038792,0.09152495,0.066053554,-0.07553805,-0.047390003,-0.056299802,0.01181694,0.00053086854,0.0732846,-0.039089177,0.09561439,0.011851612,-0.050433908,-0.02773327,0.0018673842,0.0682609,-0.024333658,0.0834518,0.06893349,0.08525515,0.081076294,-0.060732137,-0.04433117,0.010183754,-0.0703817,-0.048168212,0.08179574,-0.097111896,0.025292363,0.0812623,-0.09412618,0.030408282,0.05088551,-0.012145985,0.02219558,0.05766473,0.030662036,0.02854744,0.03413868,0.050221335,0.006287881,-0.05305048,0.09596369,0.031743884,-0.005989669,-0.050263297,0.06679416,-0.035701297,0.03730195,0.048261117,-0.0043534124,-0.08108587,0.059453826,0.048324365,-0.06499606,0.0036939832,0.07762424,0.055701643,0.057420224,-0.034235943,0.006557677,0.012304321,-0.080939636,0.05297557,-0.09215955,0.061268725,0.030665973,-0.016031947,-0.1060472,0.09928961,-0.028608074,-0.07831243,-0.0056759715,-0.051677454,-0.0045648445,-0.10524547,-0.07749953,0.046128735,0.00029475352,0.007859128,-0.011885002,-0.09356702,-0.022140713,0.08429834,-0.03269573,-0.066277005,0.0461574,-0.020826671,-0.026107315,0.03710866,-0.0032871175,-0.03926079,-0.08110995,0.060954344,-0.07734588,-0.08748212,0.025794601,-0.07823649,-0.02653651,0.004939798,0.0025826623,-0.013492789,0.013781244,-0.021954726,0.06874056,-0.08030769,-0.088235945,0.0798812,-0.09887912,-0.08195455,0.057529908,0.008059668,-0.028375827,-0.016404273,-0.07775984,0.07731052,0.08476833,-0.019918112,-0.10451313,-0.086684704,-0.08472534,0.05288809,0.014486212,0.052674774,-0.01833027,0.07762176,0.052585788,-0.070360005,0.016263045,0.048618563,-0.04014096,0.029639324,-0.049605284,-0.063611396,-0.0030722877,-0.06908604,-0.026520705,0.110193,0.03090608,0.047402207,0.073191814,-0.06305787,-0.10289301,-0.089665696,-0.044521812,0.0076855156,-0.018525606,0.07696711,-0.058652494,0.00072275393,0.05440436,-0.017701276,0.047448855,0.07475084,-0.00471162,0.033142768,0.028212426,-0.07907564,-0.023082158,0.0237747,0.04010103,-0.0151902735,-0.07802302,0.027662955,-0.06598015,-0.012700509,-0.041534524,-0.017390216,0.014011356,-0.05599552,0.03191288,0.07708615,0.0329893,0.021028923,-0.0845897,0.020804776,0.077849485,-0.038416237,0.021440532,-0.05438373,0.058346596,-0.010425688,-0.0037663698,-0.011510298,0.0015757238,0.07961771,0.05159036,-0.027712382,0.038248368,-0.059764218,0.028923359,0.016927728,-0.047731828,0.1018318,-0.07271543,-0.0037123098,0.011346968,-0.005139273,-0.09757278,0.066389024,-0.0099199265,0.02258271,0.00074422255,-0.06700065,0.04086727,-0.082580335,0.06700525,-0.08938136,-0.066412754,-0.10989303,-0.10242501,-0.069784224,-0.004601655,0.07855906,-0.018021252,-0.039343245,-0.08507101,-0.0030904533,0.06824221,-0.0431065,-0.033284493,-0.031478014,-0.03886947,-0.004467059,0.057602286,-0.017194675,0.023464322,0.05119472,-0.0066281543,0.06452276,0.07357579,-0.05464856,0.08629583,0.025903206,-0.07977372,0.0817841,-0.03571624,0.04330328,-0.026044581,-0.017753549,0.026123015,0.019694159,0.07966324,-0.09142823,-0.07100172,0.08099234,0.072398104,0.06429796,0.049846083,-0.09560738,-0.024355773,-0.076140866,0.058334522,0.06008459,-0.0010972692,-0.024250131,-0.09379958,-0.04665939,0.055235166,0.104656614,0.025565986,0.07761373,0.014516409,0.025609938,0.071067244,0.026484603,0.055768773,0.0051400643,-0.101896994,-0.034502786,-0.08569069,-0.03606901,-0.10111658,0.051578872,0.06105646,0.016870873,0.071168974,-0.027875585,-0.08418876,0.07033527,-0.035779625,-0.0341272,-0.07547829,-0.010701529,-0.046174694,-0.08164886,-0.048235852,-0.029911531,0.020319676,0.012153009,-0.034759864,0.08588436,0.08433029,-0.08612674,0.039092395,0.08965274,-0.0573991,-0.08677484,-0.07196423,0.00053224165,-0.040487573,-0.09366844,-0.034111317,-0.09068578,0.016082114,0.077095315,-0.075586416,-0.03317619,-0.07335202,-0.09408294,0.051867478,-0.07216176,0.03417472,-0.0019750968,-0.009445042,0.036174923,0.0437113,-0.086571485,-0.05896419,0.07053301,0.05213157,-0.028523257,0.0062786182,-0.053502724,-0.004119021,0.06646993,-0.026482247,0.08009968,0.06797026,0.0033866612,0.06637411,0.06983708,0.07300199,-0.053962648,0.07830047,0.016053068,0.02823704,-0.03572997,0.06208162,-0.0850212,-0.058344748,0.040515184,0.07413846,0.045959897,-0.044613168,-0.00025975454,-0.043562345,-0.08679125,0.08111686,-0.051416006,-0.021574244,0.058204282,-0.014627282,0.045542307,0.002012348,-0.06706327,0.01245286,0.10126203,0.067946784,0.04456408,0.0909731,0.00581936,0.04101053,0.04077364,0.079593815,0.07887745,0.012439022,-0.06781204,-0.057093702,-0.046676673,0.043046337,-0.026561404,0.0044531473,-0.09105219,-0.040101588,-0.08091224,-0.027741473,-0.04298546,0.05022807,0.03762563,-0.08815452,-0.006015531,-0.089084774,-0.07301699,-0.089692205,0.044526402,-0.08356417,0.007915786,0.056661885,0.0827821,-0.04167989,0.015167731,0.0691695,0.057703644,0.077536866,0.033565044,-0.050489888,-0.09300936,-0.05487516,-0.072419785,-0.07783151,0.06109492,0.038635295,0.048877515,0.03455542,-0.0560743,-0.08186808,0.07325876,-0.041840874,0.07949386,0.05222155,-0.01168765,0.08491711,-0.009004569,0.044235334,0.019014446,0.06251025,-0.05779545,-0.054938015,0.005667613,-0.079591,0.053627096,-0.014591484,-0.102059506,-0.05699414,-0.06288083,-0.008999728,-0.08445591,-0.007926268,-0.058573052,-0.09370396,-0.04912318,-0.09263191,-0.05460077,-0.028150488,-0.09187594,0.013836096,0.08368605,-0.088264205,-0.09557801,-0.038589913,0.03109169,0.015106436,-0.058265388,-0.10454553,0.062111367,-0.068036206,-0.01321956,-0.010109379,0.10644563,-0.009118272,-0.05335675,-0.082649946,-0.08950779,0.05584897,0.031374235,-0.053843997,0.069220304,-0.09649751,-0.09391318,0.07741203,-0.0892355,0.073292844,0.066093326,-0.07238189,-0.016601056,0.050813474,-0.047218286,0.04207379,-0.01669524,-0.001353981,-0.020300686,-0.06643559,-0.10236596,-0.0072375075,-0.025506364,-0.021456344,-0.07138015,0.06723556,0.07414746,-0.046552457,0.0069779474,-0.056201506,-0.041023552,-0.022689413,0.079146825,0.047760017,-0.0408958,-0.06783462,-0.08432866,0.034621514,-0.036621023,0.0890903,-0.036501594,0.0701621,-0.036977533,-0.016981006,0.013163109,0.027172549,-0.000589922,-0.055779405,-0.064628705,0.0071153794,-0.0740487,-0.03727171,0.08022481,-0.07082397,-0.05187746,-0.07006032,-0.077716134,-0.03427859,-0.059787713,0.0065465095,-0.086108394,0.04059311,-0.035239942,0.056832157,-0.03873121,-0.0829012,0.0004251916,-0.09072822,-0.0391233,0.028762804,0.023486696,0.0027439927,-0.024937106,-0.009966114,-0.036814325,-0.03560079,-0.065152265,0.00655206,-0.022440765,0.010623436,-0.1060084,0.06675202,0.028455403,0.009332833,0.036054898,0.08492802,0.0016975079,-0.051339623,0.017656462,0.08783864,-0.027358264,0.04913696,0.025042955,0.02383204,0.0535862,0.066531725,-0.024027366,-0.03254755,-0.05770664,0.00082579924,-0.04487367,0.036105864,-0.06546955,0.04839959,-0.10326428,0.07429733,0.112170376,-0.07501717,0.023531683,0.008339283,0.045898456,-0.0026736315,0.08717087,0.015624002,-0.055776782,0.08441036,-0.069707304,0.04071993,0.087429725,0.00901842,0.016353477,0.011406224,-0.0251495,-0.0662795,0.050398853,0.05271858,-0.041181438,0.06871537,0.0096232705,0.061345823,-0.019901529,-0.0543217,0.048499435,-0.07602786,0.034312703,-0.057601653,0.055825252,-0.094383314,-0.027421776,0.054906048,-0.025988668,0.054837037,0.032733656,0.03902126,-0.02871585,0.04974817,-0.020726498,0.049230557,-0.039506093,0.022092305,0.017501174,-0.016708475,-0.062598415,0.00954782,-0.053191453,-0.058297504,0.051283937,-0.0034500782,-0.04776965,0.04053649,-0.03487027,-0.069325164,0.019820942,0.03626733,-0.00018009557,0.058701083,0.027808879,0.081814855,0.062223405,-0.07836717,-0.016546173,0.08117218,0.0072485176,-0.07372123,0.001303918,0.003532348,-0.05007502,-0.0033257962,-0.10824406,-0.048922524,-0.08620855,0.060070083,0.0012505316,-0.022504373,-0.09785072,0.10472011,-0.052011367,-0.035930973,0.06872355,0.0059123063,-0.023127329,0.092721015,0.08910453,0.0040816767,0.08245422,-0.030784646,0.0493652,0.10670477,0.05281919,-0.033909593,0.024095496,0.07229808,0.054917544,0.0176494,-0.070989974,-0.0023385624,0.061997093,-0.08127277,-0.08651753,-0.07606908,0.0030633258,-0.09306866,-0.054200236,-0.004029044,0.058130972,0.041451506,0.096598,-0.033860285,-0.07851337,-0.09665096,-0.0819221,-0.08551477,-0.022519892,-0.08986156,0.093922906,0.03587176,0.067544565,-0.07063953,0.010522564,0.08178323,-0.025236182,0.07579969,-0.055529106,0.078159824,-0.023855962,0.01660419,0.06730349,-0.009789492,-0.09730767,0.050129443,-0.094004855,-0.04111489,-0.09639714,-0.0013740327,-0.027492318,0.015071456,-0.017068973,0.05401116,-0.09320447,0.030341698,-0.09476266,-0.031240603,0.029878585,0.033590026,0.053721603,0.016965827,0.03524694,0.030570231,-0.066135414,0.0003187328,0.058404867,0.045271628,-0.027932582,0.006555684,0.088174924,0.09571812,-0.060141794,0.08065675,0.014817894,-0.07125109,-0.018149965,0.0076832036,-0.06511954,0.0735561,0.06590044,0.027738877,0.05280904,-0.043408312,0.052612398,0.036797885,0.05069406,-0.01820346,0.030756213,0.015602084,0.075924635,0.03857408,0.054860074,-0.08374163,0.015374599,0.09499623,-0.06750257,-0.041303605,0.073433265,-0.057175495,-0.027675303,0.0379387,0.008978036,-0.053385086,0.02152226,-0.015027341,-0.0015527067,-0.05654136,-0.07635919,0.009585906,0.005579117,-0.02888892,-0.030918002,-0.03664332,-0.060692918,0.040505655,0.019764917,-0.030456798,0.043961413,0.032020375,0.03925786,-0.08107559,0.026874054,0.08400892,0.07407552,-0.09691769,-0.07132041,0.012997665,0.036001053,0.05808815,0.07930142,-0.07602336,-0.010828665,-0.031241069,0.0886336,-0.0443739,0.09230895,0.08119399,-0.044693157,0.025327675,-0.096103296,-0.079026155,-0.072709784,-0.05886683,0.08188824,0.05851873,-0.06012953,0.07626381,-0.083418876,0.040543392,-0.008780509,0.047447354,-0.07840028,0.02861377,-0.07338381,0.020006657,0.094485216,0.032754574,0.066153795,0.051485687,-0.081430815,-0.054995157,0.007661989,-0.07334203,-0.045717474,-0.027860165,0.08820423,0.06810842,0.05076226,0.09985536,0.0025673697,0.011368241,0.0850189,-0.009387441,-0.053308498,-0.005723103,-0.05182527,-0.04995848,-0.07133938,0.059474442,0.060150467,-0.020310538,-0.009603351,0.083441995,0.02609836,-0.08388178,0.0714602,0.043318186,0.07768542,0.004031851,0.049895443,0.063556045,0.035875063,0.08544895,-0.091849975,0.020245275,0.089282826,-0.006973938,0.1040024,0.07091588,-0.06101807,-0.03848532,0.042507667,0.05493879,0.02203284,0.07309005,-0.06886905,0.013343507,0.097936295,-0.075352274,0.10450917,-0.092139326,-0.0039064595,-0.0149445785,-0.0750578,0.0137518095,-0.090816356,-0.024400165,0.07061865,-0.03454715,0.01866573,0.015805868,0.024741983,-0.06969586,0.09580353,0.08546799,-0.07707613,-0.07600365,0.095161065,0.039534915,0.06098831,0.10811448,-0.0073706633,-0.046332434,-0.016898837,-0.017190795,-0.008506559,-0.05817898,0.033726223,-0.09701833,0.024715617,-0.017006401,0.05023001,0.059239082,-0.009711271,-0.016100258,0.03105512,-0.080969416,-0.04197623,-0.04307806,0.0054136436,-0.07861149,-0.019106142,-0.072748035,0.01774842,0.023701636,0.058886904,0.04811843,0.08526273,0.10502008,0.07139694,0.018390134,0.05402736,0.050733604,0.010345417,-0.09204416,0.04784508,-0.08114739,-0.093499444,0.07691398,0.0046597132,-0.05391123,-0.03215601,-0.052233588,-0.06962207,-0.046607878,0.07914967,0.054014754,0.06357736,-0.07462406,-0.056053028,-0.007793283,0.0027895605,0.047713798,0.1015377,-0.023116296,0.010732425,-0.08398399,-0.043778315,0.029140841,0.026302831,-0.08561855,-0.059080202,0.074325494,-0.08881242,-0.034190014,0.026695583,0.05612721,0.074397095,-0.024302065,-0.07702436,0.002767338,0.028075866,0.00012524892,0.0031450593,0.06577525,0.028103685,0.067892306,0.006151443,0.06419319,0.0876519,0.031860635,0.051948033,-0.011988581,-0.009178954,-0.035022005,-0.0061209914,0.07778781,-0.003662536,-0.07922556,-0.01873213,0.043785293,-0.059615117,-0.091474414,-0.009058008,0.05442202,0.06647789,0.050172187,0.05889851,0.00029451656,0.06812543,-0.010077136,0.04879045,-0.06625808,-0.014913978,0.109724,-0.064962335,-0.057574935,0.08176225,-0.033250477,0.019476091,0.030649716,0.063428,-0.071201935,0.06257856,-0.004173966,0.06404591,-0.01877063,-0.036530122,-0.09207215,0.040405616,-0.0607584,0.065712206,0.09805331,-0.04305257,-0.05903768,0.072946556,-0.10257758,0.010248417,-0.022779545,0.060366865,0.018969016,0.06795192,-0.02875675,-0.025763797,0.0031727378,0.019318013,-0.045816563,-1.154418e-5,0.015173996,0.04554119,-0.010421773,0.070935726,0.060358483,-0.032770738,-0.0328775,-0.091435045,-0.023962537,-0.020299926,-0.030361941,0.0022883401,-0.05146434,-0.053558413,-0.06718268,-0.014074625,0.06487209,-0.07862986,0.027955363,0.09829621,-0.08265466,0.034562208,0.010338901,-0.008663923,-0.070306465,-0.002172507,-0.05662269,-0.08043636,0.027866319,0.07433058,0.056701332,0.05023119,0.02980824,0.010040146,0.057112444,0.01178129,-0.082319014,-0.023346415,-0.061365757,0.057354674,0.05661849,-0.05685307,0.009138099,0.01600593,-0.009416413,-0.075012036,-0.093385555,0.09118064,-0.04063928,-0.007826398,-0.088107646,-0.0025808571,0.08253798,-0.07026967,-0.062368475,0.026581828,-0.08188812,-0.013553614,-0.09238359,0.07659618,-0.014013722,-0.07281489,-0.0783043,-0.056536414,-0.057216614,-0.013821111,0.02071625,-0.06927159,0.04285451,-0.006343455,0.0097207315,0.06863956,-0.08241664,-0.0070269937,0.0949178,0.009444332,0.08012399,0.09448883,0.06934481,-0.08786405,0.087922804,-0.08153275,-0.04669645,-0.04972552,0.0385034,0.033255406,0.045570746,0.0922303,0.01560916,-0.07059684,-0.06723175,0.037592523,-0.026298752,-0.08823943,-0.04466373,0.0955556,-0.043324407,-0.013181106,-0.03630636,-0.036105778,-0.03861957,0.054629695,-0.10291259,0.04187462,-0.05747332,-0.047403462,-0.07691439,-0.042142425,0.053078536,0.07050488,0.036242224,-0.021127526,-0.033693504,-0.05987098,-0.015764734,0.04894771,-0.059764497,0.00014930699,0.035426665,0.011775197,-0.011476521,-0.04785059,0.08084981,-0.052550077,0.036936883,-0.034619056,0.0724902,0.041761372,0.010277216,-0.05041676,-0.03791859,-0.046771597,0.006879987,0.08075062,0.10238975,-0.08087642,0.05634291,0.0021245708,0.038215153,-0.07672045,0.040929824,-0.08613351,-0.042494535,-0.099990696,-0.098062664,-0.0364935,-0.0004895533,-0.023337731,0.03284027,0.012601335,-0.014279833,-0.09171567,-0.047313422,-0.048146743,-0.10194641,0.038364105,0.040098436,0.057242576,-0.033868074,0.09215518,-0.056931045,0.0067783054,0.050116487,0.041719366,-7.095726e-5,-0.0132605145,0.028928656,-0.01648315,-0.04728385,0.045415755,-0.06336391,-0.026955163,-0.010590682,0.0031972588,0.04503366,0.032819927,-0.054072797,-0.0029786886,0.03335191,-0.052701354,0.060774837,0.0020144929,0.013437833,0.044888444,-0.04548973,-0.07120542,-0.027216163,0.06239948,-0.09072926,-0.010422401,-0.070916474,-0.0076111406,-0.042977303,0.009010161,-0.035301074,-0.05785287,0.05744468,0.038109705,0.0039465027,0.09260661,0.07502469,-0.05703433,-0.02845152,-0.05361223,0.005436174,0.05801297,-0.018343365,-0.063998275,0.020382337,-0.012837204,-0.043615766,0.08577279,-0.00943405,0.06963058,0.03880646,0.06410619,-0.03276611,-0.06838219,0.038129877,0.0007595682,-0.020771142,-0.09609896,0.09375247,-0.039026905,-0.039527275,0.03989991,-0.04826494,-0.03896062,0.039989363,-0.011551291,0.009913164,0.011880105,