{"model_state":[{"embedding":{"weight":[0.9355871,0.14145748,-2.5037994,1.4450333,0.11720291,-1.2565655,0.7639392,-1.4333322,-0.41261944,1.0237758,-1.191058,1.0353631,-0.9494285,0.07818753,-0.38515612,1.5019264,-0.25133753,0.09453335,0.33634043,0.5987168,0.50182176,0.9273523,-1.1969606,-1.1457062,-1.7829465,0.72813195,0.08212774,0.18885162,0.11966247,2.2149887,-0.0039272024,0.5821169,-1.8780096,-0.507341,0.10370745,1.1208671,-1.0971301,1.3224671,-1.5538229,-0.97724044,0.8428803,0.23723266,-1.112976,1.560881,1.153785,-2.3118644,0.4370531,-1.6257018,0.9560674,0.7223719,-0.8583988,-1.2341865,-0.53471327,0.06828134,2.488287,-0.37724772,-0.13160193,1.5641811,0.7348395,-0.70254624,2.0802984,-0.24111015,-0.6825068,1.7987068,0.5357828,-0.23187682,-0.5339642,0.38224363,-1.2003324,1.8147339,-1.0327367,0.9935073,1.1804658,0.7341234,0.18863131,-0.11950165,1.7892264,0.40807307,0.5399091,-1.2511845,0.125084,-0.60473365,-0.23791479,1.3982282,-0.5534551,0.25650722,-2.1761887,-0.40788707,-0.6873962,-1.7240173,1.1985368,-0.73323804,-1.1535976,0.8332427,0.6377028,-0.026102077,0.16431195,-0.1685862,0.42254707,-0.87184936,-2.1845355,-1.0637274,1.0509695,-0.056441814,1.3045505,0.05039337,-1.1797521,1.0048608,-1.0710382,0.35829237,0.26223812,-1.0608555,1.5125741,1.9226695,-1.7644619,-0.8267281,1.6884263,0.8185455,0.86655056,-1.1790818,0.3531545,0.5331787,-0.21311407,0.9070242,0.6637167,-0.906209,-0.090926826,-0.20084107,0.11863951,1.6630868,0.3425932,0.5025314,-0.37368852,1.0357362,-1.0041398,1.7261747,0.8322499,-0.37840506,-0.39122128,1.1423453,-0.14786369,0.28387484,-0.36559767,0.5166475,-0.67805153,-0.40796918,-0.20736545,-0.25185788,0.42336658,0.30896264,0.1663213,1.1694942,-0.4832579,1.8828185,-0.35095677,0.27783826,-0.9880439,1.7023667,0.43944573,0.9847167,1.1830825,0.19263716,-0.6096579,1.4197295,-1.1201061,1.9892384,-1.6008434,-2.039476,1.006882,0.97110707,0.10604263,-0.13109298,-0.6224576,-0.46308476,-1.6723876,-2.2298594,-0.338959,1.6684419,-0.557077,-2.042086,-1.0192248,2.0069575,2.5649867,-2.029988,-1.0283011,-0.71056336,1.7055945,0.31624195,-2.039178,0.10680435,-2.1356404,0.10500031,-0.74017924,0.50891286,-2.5621061,1.5665271,0.31343615,0.858782,-0.33819032,-0.3883813,1.5821512,1.312476,-0.39842078,0.17727883,-0.20954622,0.14411084,-1.2074413,0.71250975,-1.5837748,0.8169574,0.59356207,-1.4118936,-0.34972614,0.071187295,-0.31072912,-1.4600173,-2.0526567,-1.5072256,-0.8060954,0.4456504,-0.695148,0.48061222,-1.5360256,-0.5811326,0.5910417,1.7838525,-1.317578,0.074922636,-0.829073,0.326133,-1.0493026,-0.36975202,-0.14589836,-0.5026178,-1.0597154,0.21674593,0.17376554,0.27663678,-0.23070778,-0.23374167,-1.4293463,-0.14778285,0.7306949,-0.028754396,-0.24301782,-0.30596575,-0.7270368,-0.2346747,0.28184897,0.9206347,0.11333397,-1.1807373,1.3413023,1.4571483,0.15821233,0.062723,-0.69910306,-1.8630917,-0.6699198,-0.57640547,-2.5981388,0.41873598,-0.12774728,-0.996013,0.86025107,0.061928313,-3.326598,-1.9809577,-1.1961547,-1.2289565,-0.9531165,0.91855776,0.16920944,2.1768157,-0.4701308,-0.6629351,-2.7058883,-0.5145625,-0.0066737016,-0.9898856,0.27012444,0.87036663,0.27248085,-0.39000133,0.25453338,-0.96752876,-0.124275565,1.532627,-0.26043952,0.23969862,-0.57272685,1.8926175,-0.7308564,-1.0987635,-0.7097647,-1.9358861,1.8091519,-0.237108,-1.3403676,-0.3560383,0.05612509,0.30152676,-1.7571805,-0.81445444,-1.1403369,-0.31596008,-2.6785054,0.78578824,-0.5125681,1.7580414,1.5685071,0.49874237,-1.9289936,0.22884016,1.516354,0.25247055,1.5264999,-0.3326767,0.28253603,0.3811934,0.14739805,-0.58135563,1.363011,0.16248183,-0.38611603,-0.9376131,1.2521228,-0.08783564,0.57598627,-1.2840573,0.762163,-0.47653937,1.2702678,0.12126316,1.1955329,0.36654717,0.76702833,-0.36854202,-1.1958256,1.1453925,-0.34850055,-0.92892724,0.84809726,1.0929819,1.2950529,-0.4165929,0.5401146,-1.4875889,-1.3161227,0.3756954,-3.265529,1.7346442,1.613283,0.38464817,-0.4312896,0.88352,-0.02870944,1.1502521,1.4646329,-0.6998877,-0.03114896,-0.7867244,0.51273996,0.48377058,-0.32935297,-0.57344514,-0.16796876,0.9375498,-1.0667377,-0.056935254,-0.76976633,-0.01758017,-0.23994881,-0.46460196,-0.8134954,0.13699424,0.51565886,0.8758094,1.5061036,-0.011705804,2.2444756,0.7998766,-0.0561773,0.049333937,1.2580267,0.834606,-0.17516279,1.0019814,-0.10075427,-1.2040448,-0.3501212,0.13584222,1.4450629,-0.1844081,-2.0041406,-2.0490599,-0.15752943,-1.7873229,0.2482004,-1.6275655,-0.69788504,0.9319817,-1.306234,-0.7352035,-0.8689831,0.44971582,-1.0814252,-0.39074907,-0.06776962,-0.5836951,0.7751773,0.7839618,0.52693003,-1.4629598,-0.79888946,1.0442032,-1.494562,0.6776912,0.20491065,0.056277666,0.08775652,1.3679692,0.6653341,-0.4524595,1.2398518,0.4684271,0.460567,-0.35543653,0.75993824,-0.8955152,-0.9014073,-1.175913,0.055723306,-0.8571505,0.40535313,1.6287684,0.11743358,0.36704051,1.1471899,-1.2630595,-0.92065084,0.90084755,-0.3180518,1.8009712,-1.4881148,0.49271145,-1.5288564,0.29466614,-0.110633194,2.6793041,-0.13579875,-0.090995535,0.35485005,1.395262,-0.09195881,0.17249744,0.6638911,-0.05113528,1.6258954,0.04457034,-0.69001955,-2.3168588,-0.8944649,-0.26357123,-0.47594407,1.782261,-0.0021770925,-0.7716486,-0.52443224,0.6990919,-0.9777773,-0.04956851,1.1513761,0.34929973,2.0367262,1.307476,0.40542847,1.148589,-0.046616837,0.70288986,1.4387097,0.119601205,-1.1228273,-0.51492596,-0.45572624,-0.57807344,0.7321917,0.45542374,0.16317314,0.22141488,0.11292728,-0.50120306,-0.82242656,0.671428,-2.6951935,0.75077415,0.13441944,1.0903255,-1.058642,-0.8384693,-0.77022743,-1.64275,-1.7768319,-1.0171883,-0.98173535,0.68206537,-0.1047724,1.6869426,-1.850405,1.7698475,-0.14520271,-1.1089919]},"net":{"layers":[{"weight":[0.10322532,0.0635479,0.0958102,0.23642565,0.19232035,0.32120773,0.3308781,0.09461521,0.093401,0.32341617,0.056614686,0.32835335,-0.003077405,0.31024963,0.15749514,-0.1729933,0.33563223,-0.1774196,-0.11897088,-0.054491345,0.31204382,0.17903303,-0.05920258,0.08737294,0.2843936,0.16874684,0.29131222,0.11595358,-0.020407984,-0.18887684,-0.12844965,-0.15644452,0.32758987,-0.25668016,0.23093957,0.10166642,0.09314598,-0.05692502,0.06194282,0.17573254,-0.11564213,-0.056246508,-0.12256946,0.12945688,0.327808,0.39941671,-0.046643768,0.16297705,0.15662813,0.018665204,-0.11468667,0.026129734,0.25329,-0.1181869,-0.018783025,-0.075986266,-0.06486583,0.253162,0.061691873,-0.098038994,0.13838442,0.28380975,0.07956071,0.12819088,-0.17008103,-0.18810716,0.10225304,0.014172242,0.07677985,0.2601888,-0.003893202,-0.1203909,-0.07093387,0.10953493,-0.17589968,0.13837466,-0.18650071,0.17662232,0.13463025,0.12428882,0.31077632,0.36602157,0.12780148,0.092073716,0.21727096,0.36147153,-0.044177096,0.15701787,0.3023935,-0.16965356,0.049680904,0.27334604,0.43772873,0.12415327,0.3970216,0.11165699,0.023366598,0.2429394,0.132103,0.08268665,0.17544815,0.01594281,0.12723371,-0.0042846976,0.05708478,-0.020668957,0.035682246,0.21794684,-0.20214526,0.011471127,0.11845095,0.3739998,0.109834135,0.15869252,-0.108098894,0.011578563,0.20119056,0.08148608,-0.010103242,0.03455404,-0.036596775,0.30971235,-0.1787478,-0.1626127,-0.15340994,0.0056615844,0.17057425,-0.084969826,0.006799189,0.16995122,0.30924442,0.38597724,0.059796277,0.3813124,0.21663278,-0.050914336,0.11184615,0.33228713,0.4102245,0.28094688,0.017220963,0.1316542,0.14947847,-0.09687477,0.3111631,0.0045275716,0.16123937,-0.027690893,0.087458774,-0.1747807,0.1136712,0.35049933,0.31318507,0.0459267,0.12452669,0.30910996,0.14939451,-0.064293884,0.043538503,0.04864635,0.32316175,-0.02222498,0.20000541,-0.19010751,0.13328247,0.09788239,-0.009860961,0.040835988,-0.13344209,0.13781478,0.08650662,0.16815643,0.07084094,0.1715261,-0.12084767,-0.024710318,0.09926204,-0.022936476,-0.08342119,-0.14008118,0.061688513,-0.06851096,-0.04601917,-0.15865919,-0.107089005,-0.013694744,0.122092105,0.019578245,-0.11234305,0.05399345,-0.08267634,-0.12274695,-0.041365705,-0.020249993,0.13184738,-0.100757845,0.15224995,0.271401,0.11385931,-0.23200774,0.16123934,-0.009540062,-0.082854055,0.077611685,-0.17842059,0.36207256,-0.0327776,0.3036638,0.26992762,0.15366337,-0.043928698,0.4056163,0.3187914,0.11496678,0.111287825,-0.20365049,0.25299928,-0.120411366,-0.13533047,0.2687516,0.221459,0.34211954,0.08210062,0.1542468,0.1390744,0.41298187,0.10754904,0.3019448,0.07586211,0.1607303,0.18469,-0.009640997,-0.0291649,-0.07590229,0.1791132,0.39339292,-0.15285255,-0.17084457,0.23578727,0.2724634,0.0632991,0.21229678,-0.13520661,0.08714757,0.10969816,0.13629204,-0.14348221,0.07420653,-0.17769605,0.3097801,0.09326086,0.03601893,-0.005811746,-0.4250305,-0.03548149,-0.16993801,0.18739928,-0.379562,-0.26456866,-0.21876062,-0.10088603,-0.35117656,-0.3831153,0.10145396,0.06792044,-0.09145175,-0.2279917,-0.11328752,-0.043597307,-0.12684849,-0.07489,0.13309658,-0.13623275,-0.012792593,0.1519862,0.124434374,-0.2445683,-0.15102385,-0.045806903,-0.42144027,-0.3559647,-0.37132868,-0.24018937,-0.33921224,0.13058735,-0.102370225,0.22747348,0.10560632,-0.090410456,0.033466958,-0.11916507,0.1176797,0.093000345,-0.044484884,0.028040197,0.17572148,0.17814966,0.052744795,-0.13351291,-0.40418518,-0.24900004,-0.3499635,0.004070901,0.0042285314,-0.3697517,-0.14134258,-0.040664606,-0.039250057,-0.3175761,0.024905857,0.1612594,-0.05659806,0.1963856,-0.30104318,-0.3577985,-0.16770272,-0.15063983,-0.3483947,0.016476352,0.043354478,0.117514595,-0.10755294,0.14304838,0.16338651,0.1309729,-0.1283564,-0.18722214,0.13868742,-0.18547206,0.17223728,0.03171643,-0.2691655,0.07334792,-0.118168704,-0.13049044,-0.07280398,-0.21083407,-0.15935709,0.11015633,-0.15864678,-0.18712197,-0.3793506,-0.07691035,-0.11603809,-0.3856829,-0.033714503,-0.15441523,-0.037364785,-0.09393023,-0.4263252,-0.23614451,-0.22713687,-0.16755176,-0.125811,-0.05936949,-0.34045357,-0.2540172,0.03925906,-0.2460433,0.019238133,-0.06531558,-0.0095147295,-0.026872467,-0.369121,-0.1336941,0.06702391,-0.011064992,-0.39137813,-0.41586924,-0.36622062,0.18589732,0.13727266,-0.073471755,-0.054115415,-0.17010452,0.17390051,-0.11532351,-0.08471452,0.053467304,0.021144867,-0.1394946,0.14396873,0.02807728,-0.064711474,0.116657004,0.34586596,0.18987077,0.23320605,-0.11904595,0.31303558,0.17124008,-0.04389294,0.0739869,0.09892823,0.2576305,0.2779037,-0.15179193,0.35370314,-0.16263291,-0.056775894,0.42179874,0.030613234,-0.13603014,-0.02588278,0.13929114,0.039320555,0.114562586,0.40029746,0.14878616,0.08535669,0.07501414,0.1712314,-0.012451146,0.004349677,-0.007761599,0.138679,0.34619707,-0.16147758,0.31047487,-0.18321249,0.097168304,0.08557053,-0.031964682,-0.045935858,0.15079573,0.28675085,-0.06314206,0.19504443,0.37318754,0.22680153,-0.0770787,-0.1462154,0.22206403,-0.17463037,0.052986264,0.019868284,0.1444498,-0.09719932,0.10963151,0.12758246,-0.14230455,0.24544357,0.07349356,-0.073671915,-0.12672219,0.08042294,0.09381826,-0.19318195,0.12872344,-0.17816474,0.006493815,-0.15567724,-0.09219894,0.34349826,0.0421481,-0.06558068,-0.17609213,-0.1482189,0.09299979,0.31156132,0.011069406,0.21664503,0.082376294,0.37651405,0.342238,0.2359391,-0.092240155,0.06591141,0.28162646,0.05045595,-0.18068388,0.029315235,0.23588203,-0.19888419,-0.030336907,0.2948943,0.18679158,0.23736551,0.18681568,0.24556321,-0.03386364,0.16917868,0.07963405,0.09523696,0.06948451,-0.08421559,0.324641,-0.14477944,0.080962166,-0.086025015,-0.019593582,0.39948958,-0.014787252,-0.11316097,-0.06401026,0.40085444,0.3966757,0.2285507,0.033092495,0.038771987,0.16740164,-0.09989153,-0.16967623,-0.08201293,0.025125725,0.07756694,-0.082927674,0.04403075,0.053823017,-0.008789549,0.085586935,-0.110538624,-0.067545354,-0.34792307,-0.40730828,-0.18643786,0.13187587,-0.33779243,-0.33296406,0.10522606,0.18772425,-0.3229437,-0.2662906,0.023259835,0.045926154,-0.25353423,-0.0758272,0.05370878,-0.25472757,0.10884121,0.113038965,0.18852052,-0.15088707,0.16522469,0.014765609,-0.11198967,-0.32214937,-0.0893328,-0.10851882,-0.30927598,-0.1295511,0.10768385,0.21329653,-0.18695837,-0.30903524,0.057655085,-0.19397525,-0.17879105,0.035013903,0.019780802,-0.16999306,-0.08104755,0.044829484,-0.23345703,0.04003939,-0.40616837,-0.3705019,-0.2638867,0.17346905,0.18531922,-0.3530665,-0.023835111,-0.0377057,0.14530164,-0.25548962,0.16797817,0.2001079,-0.15390806,-0.086727716,-0.12536444,-0.08907721,-0.11443834,0.07875555,-0.26507744,0.16731992,-0.15982068,-0.12784566,0.14516336,-0.048290785,0.10467725,0.010609855,-0.16690783,-0.07773511,-0.024591753,-0.17126344,0.18911064,0.1997665,-0.13509075,-0.095688514,-0.20528285,0.14280058,-0.3493846,-0.28695306,-0.31563762,0.09592061,-0.31323808,-0.33953652,-0.06764318,-0.16166012,0.124196865,-0.33152008,-0.03725049,0.06787266,-0.3633918,-0.37861437,-0.20517159,-0.40905967,-0.21111156,0.16690212,-0.39144415,-0.3843753,-0.35406488,-0.07648709,-0.11153146,-0.38822347,-0.10843014,0.07914521,0.11592008,0.08992623,-0.25303677,-0.15092255,-0.08068034,-0.029800393,-0.21736656,-0.22892953,-0.18452154,0.018868322,-0.15260397,-0.23143728,-0.15004598,0.19409873,-0.07563754,0.15605353,-0.08248729,-0.11225735,0.027129045,0.08803894,-0.17935005,0.17617951,0.14241077,-0.12286726,0.14252096,0.11763217,0.10096319,-0.14144696,0.23408514,0.33707407,-0.12208199,-0.1678802,0.3278998,0.20651111,0.27283788,-0.12629399,0.08804175,-0.013065765,-0.09504909,0.085166864,-0.1923732,-0.11873576,0.15007643,0.3625904,-0.11778513,-0.18208826,0.3466726,0.33619863,0.20574851,0.3979948,0.113840885,-0.04339389,-0.14831164,-0.009508608,0.07340607,0.3500558,-0.010465144,0.22469851,-0.102984756,-0.102492064,-0.048672676,-0.05631136,-0.18567617,0.1533175,0.13882574,0.094921075,0.21776077,0.048871376,0.16490626,-0.006657737,0.055343084,0.28914848,-0.07529466,-0.073119774,-0.14000414,0.2997551,-0.13877477,0.040923465,-0.17845163,-0.14726114,0.40425733,0.2217981,0.043856397,0.002727559,0.043309256,-0.07501369,-0.1164709,0.14007686,0.07179256,0.17308052,0.1640591,0.14645152,0.24912304,0.09634872,0.056995388,-0.01920042,-0.12711981,-0.11584832,0.39559504,-0.16906081,0.23007989,0.07802009,0.14565407,0.11632678,0.3758336,-0.18208715,0.30587104,0.25223714,0.30112356,-0.122623764,-0.18756902,0.26877183,-0.18667391,-0.017869776,0.41496128,0.10278188,0.2067646,0.37578288,0.041099828,0.05420909,0.38483334,0.2765979,0.34752983,0.04420505,-0.07544187,0.13052338,0.040350813,-0.03632561,-0.0047467807,-0.072052844,0.1667167,0.14390628,0.04376057,0.088543385,0.32410812,0.083566345,0.3053038,-0.034945924,-0.051393576,0.17404175,-0.08860007,0.13845098,0.022258146,-0.20746134,0.41351923,-0.027444106,0.17665832,-0.030477053,0.029806547,0.08712584,0.15986772,-0.14124307,-0.13155209,-0.16879237,-0.09448491,0.07249824,-0.319138,-0.30978644,-0.17024769,0.010129125,-0.20909242,-0.24171498,0.005281242,-0.18283829,-0.3132252,0.12506022,0.10778442,-0.36687297,-0.10676369,0.014555,-0.01345477,-0.4108471,0.057777077,0.0036360065,-0.37390378,-0.38877016,-0.14627674,-0.45311287,-0.13192655,-0.09758068,0.07354434,0.045883536,0.08526638,-0.10353691,0.11068954,-0.1748733,0.12838024,-0.1537892,-0.13768257,0.007429452,0.07469874,0.17591214,-0.06787734,-0.16525267,-0.34859878,-0.42416364,-0.25300005,0.055185243,-0.11440757,-0.28233254,-0.09054385,0.047630373,0.0068812133,-0.20350043,-0.18233584,0.032015678,-0.07045088,0.046359103,-0.102267556,-0.15997048,0.03812847,0.15062833,-0.34984657,-0.027561361,0.19904731,-0.046693154,-0.16445495,-0.13205305,-0.10961392,0.09531705,-0.12262151,-0.015114991,0.18079372,-0.05346546,0.095427215,-0.1284448,-0.29412594,-0.10628935,-0.22708939,-0.05797673,-0.17630361,-0.15257317,-0.2569193,-0.04492947,-0.13019024,-0.22945368,-0.3523367,-0.05944125,0.11788314,-0.24087605,-0.069211096,0.09150526,-0.16362254,-0.3425271,-0.32959422,-0.16658105,-0.10794162,-0.16489452,-0.29360366,-0.10161914,-0.28546295,-0.3459541,-0.18170059,-0.40491384,0.069222435,-0.06231416,0.17613067,-0.023834405,-0.2552768,-0.04944461,0.071510345,-0.057429686,-0.27655557,-0.39560968,-0.2517437,-0.06267816,0.18503691,-0.32769814,0.036206163,-0.017447034,-0.16211541,0.16413833,-0.17627004,-0.055874724,0.111368984,0.01374337,0.12986521,-0.13977869,0.058620624,-0.07574841,-0.3961342,-0.2822304,-0.34634057,-0.15030417,-0.25674227,-0.09200264,0.18141378,0.037745573,-0.120345294,-0.2294223,0.0029069239,-0.07601741,-0.2857195,0.12788999,0.17811967,-0.42109317,0.04348801,0.1763023,-0.060212303,-0.21280539,-0.048860915,0.021819184,-0.12970486,-0.31986424,-0.28438687,-0.19648334,-0.3991781,0.004201984,0.006889326,-0.0530886,0.17895631,-0.18605198,-0.09887089,-0.37949616,-0.13430052,0.07971339,-0.08105247,0.11737929,0.11745027,-0.016873855,0.0695075,0.13490818,-0.31817174,-0.2511209,-0.25468114,0.12650104,-0.13700081,-0.30301246,0.042176653,-0.008292466,0.10137857,-0.33849767,0.03722843,0.035241738,-0.1800259,-0.112855054,-0.22624235,-0.13986418,0.1768641,-0.073640704,-0.07925519,0.13990058,0.1300823,0.11599063,0.098919645,0.057464477,0.20288117,0.19914253,-0.34993508,0.0065018516,-0.17323397,0.017242968,0.03196531,0.14580102,-0.029930402,-0.09081698,-0.05606176,-0.008963597,-0.14857352,-0.38611272,-0.4098594,0.093716525,-0.041808877,-0.09783134,-0.37797576,-0.07066857,-0.11197546,-0.37069458,-0.06743151,-0.056627855,-0.22020698,-0.098011024,-0.20109482,-0.15015563,-0.38542873,0.1631447,-0.094096534,-0.41717467,-0.3332813,-0.18206242,-0.048367094,-0.17406501,0.14529306,-0.117487326,-0.099173255,-0.055050056,-0.11125151,0.11305357,0.10275585,0.044034947,-0.39982006,-0.09743106,-0.30031937,0.098385,-0.019836687,-0.1802793,0.013514188,-0.09378732,0.16574922,0.17348006,-0.112606674,-0.1071089,-0.034718707,0.1380479,0.029395077,-0.061900407,0.17998531,-0.16468072,0.12557077,0.3084213,0.2785911,-0.036607936,0.05692542,0.18457061,-0.07118714,0.07476883,0.12901141,0.179023,0.22504465,-0.120556474,0.18890823,0.053979266,-0.19613203,0.36264986,-0.18562357,0.15574929,-0.18117534,0.27893242,-0.00044028414,0.13543911,0.24749313,0.10024867,0.22748035,0.31655288,0.40082768,-0.104161024,-0.15495296,0.013834219,-0.14050683,0.3296508,-0.036941834,0.3395298,-0.09828981,-0.06987974,-0.09016178,-0.15944073,-0.09434607,-0.16830607,0.2927351,-0.16079842,0.071268044,0.24675573,0.14299145,-0.14042607,-0.15245908,0.4054639,0.14529295,-0.0025639306,0.0051365634,0.34179813,0.14437315,0.0423936,-0.07626984,-0.17551915,0.27155674,0.30768222,0.061277468,-0.16787109,0.08700051,-0.10072092,-0.17390496,0.003127164,-0.15978117,0.019597868,-0.15828127,0.04559432,0.125578,0.016762344,-0.038859274,0.15090108,-0.105432115,0.163828,0.24980143,-0.1120843,0.30965838,0.17089252,0.2900062,0.32776007,0.030051194,-0.108721234,0.40687427,0.34721765,0.27667627,0.060373623,-0.10852877,0.41012824,-0.19906282,-0.19277464,0.2173486,0.27005142,0.040452816,0.15209161,0.36041874,-0.17032205,0.31073496,0.40168518,0.071776666,0.3409267,0.024430577,0.279518,-0.051917534,-0.069718786,-0.103836425,-0.10933653,0.115033865,-0.14507627,-0.03328627,0.13622631,0.40116432,0.049511164,-0.0063794334,-0.15489045,-0.013970889,0.09354008,-0.15288301,0.11747417,-0.017018624,0.09236921,0.07881635,-0.04898838,-0.07675482,-0.09970747,-0.040038656,0.071092814,-0.15695667,0.037566174,0.15331955,0.23064423,0.31782573,-0.15515593,0.25497907,0.3792547,-0.0018176956,0.11645825,0.07935353,0.28162822,0.20742054,0.036031365,0.13087244,-0.02725366,-0.0017951512,0.06443609,0.17208116,0.15288526,-0.089930385,0.36393353,-0.07215277,-0.0599987,0.32997143,0.229966,0.105514914,0.08882505,0.13848504,0.17533906,0.17594093,-0.096518174,-0.06274378,0.31610635,-0.106437445,0.35165566,0.14671606,-0.18737148,-0.11886118,0.1369219,-0.0028589424,-0.1435782,0.19228117,0.04692797,0.24032053,0.19902337,0.34317926,-0.19993713,-0.15881331,0.18202929,-0.17455925,-0.09265562,0.037419874,0.34907812,0.17715286,-0.15025397,0.0005842908,0.017534032,0.06638836,0.07602959,-0.18810768,-0.029133132,0.18734664,0.03204574,0.14561759,-0.16464272,-0.11378368,0.012625874,-0.16444798,-0.19394714,0.36255515,0.05101531,-0.16293837,0.06501819,0.13982148,0.08210647,0.038805753,0.16021118,0.089379564,0.10393103,0.10667842,0.22025587,0.2914714,0.15209006,0.3689855,0.2798397,0.09444834,-0.0033795333,0.041656084,0.42130265,0.17006344,-0.073100194,0.3907344,0.2595055,0.3071926,0.27442494,0.36770698,0.06860665,0.4041029,0.14791279,0.19564351,0.24985358,-0.16666923,0.40836796,-0.16381906,-0.10811289,-0.15262258,-0.038597886,0.19328852,0.17036259,-0.096610405,0.17570838,0.14863165,0.085577674,0.017747233,0.041565992,0.08283116,0.34820226,-0.16585724,-0.19406942,0.08540158,-0.16313754,0.3757777,-0.09585683,-0.1681048,0.03685132,-0.14491901,0.11199355,0.1750412,0.19055787,-0.41750216,-0.12355864,-0.11175004,-0.1745151,-0.07651204,-0.2862224,0.05097722,-0.035356887,-0.43331853,-0.30800506,-0.21550877,-0.07009394,-0.054372974,0.03996011,0.08193362,-0.29896882,0.06810352,0.048039265,0.14142522,-0.30343455,0.06838766,-0.07817748,-0.23287185,-0.26867455,-0.29662818,-0.073516615,-0.21318702,0.091227055,0.1769357,-0.11000928,0.08165484,-0.3146871,-0.07952228,-0.12980975,-0.034266904,-0.06364617,-0.11891622,0.047629133,0.07109016,-0.04674818,-0.23049958,0.022141216,-0.077497035,-0.11569168,-0.09346052,-0.15696011,-0.14120707,-0.13813992,0.041985545,-0.17128892,0.046776492,-0.07482376,0.16981815,0.1742647,0.04496274,0.16063233,-0.1464504,-0.14495987,-0.089151464,0.1920975,-0.3256233,-0.12178209,0.088145256,0.07646654,-0.06728791,0.08827409,-0.08626073,0.08784338,-0.20027253,0.13092554,-0.07301948,0.064422466,-0.048839685,-0.08863098,-0.16468947,0.17765749,-0.2118457,-0.0022531508,-0.38502938,-0.18452178,-0.13826665,-0.059144452,-0.15286489,-0.036872182,-0.15824468,-0.0105929775,0.20253016,-0.20307301,-0.09319749,0.09942388,-0.33362085,-0.29327095,-0.25862503,-0.28415367,-0.21752605,-0.16552494,-0.24990214,-0.3824802,-0.04502704,-0.41339678,0.13311008,-0.40373975,-0.17214413,0.18434727,0.10286393,-0.025905136,-0.33202508,-0.16242981,0.1626733,-0.13522297,-0.38711804,-0.33476716,-0.337776,-0.054733414,0.09207631,-0.29415682,-0.04649361,0.07041248,0.1740011,0.13560833,-0.37862664,0.07616508,-0.10935155,0.09904521,0.07210691,0.12193367,0.045866244,0.092810735,0.24701504,0.28312516,0.2481013,-0.14276797,0.08386608,0.053884428,0.067639396,0.011244309,0.15145664,0.11050324,0.2427869,-0.12196667,0.26116014,-0.07044094,0.106466785,0.17201063,0.17976746,0.15492542,-0.14201932,0.24908489,0.18902794,-0.0012605302,0.32848713,0.3607573,0.41935834,0.09769574,0.40184486,0.06526451,0.2499939,-0.033370268,-0.1817352,0.18415803,-0.3368449,0.09982578,0.11558797,0.10982834,-0.019809468,0.14148965,-0.0013761052,-0.17903264,0.23647511,0.051594637,0.057588425,0.0726991,0.13131659,-0.12057685,0.16941844,0.26716655,0.026536329,0.0885902,0.058981698,0.3128164,0.111262545,-0.10479277,0.1300723,0.1517891,0.086064816,0.2633971,0.15321837,0.042782284,0.016547112,0.020762607,-0.14517309,-0.10104967,0.005972748,-0.11243013,-0.08581568,-0.11330492,0.3317702,0.11873156,-0.16580105,-0.07555058,-0.11548323,0.17041028,0.048600513,-0.13796626,0.08349881,-0.099146865,0.35870674,0.3799172,0.08870016,0.18014996,0.2873281,0.3334487,0.10278057,-0.029448522,-0.12927563,0.24592844,0.009429895,-0.08176871,0.11105781,0.27685377,0.28164887,0.42658105,0.3937413,0.052028548,0.28061715,0.27235872,0.38124508,0.2852594,0.09431758,0.3851183,0.118660614,0.10395071,0.016651582,-0.11161185,0.055079933,-0.24388938,-0.108790055,-0.095378645,0.087369494,0.14107296,0.13330694,0.15726292,-0.052129637,0.043202978,0.041948892,0.17744882,-0.18900336,-0.033530448,0.40516752,0.15577003,0.020408962,-0.07852091,-0.061408676,0.17315859,0.033516437,0.17357592,-0.13851607,-0.19720016,-0.24641548,-0.17835638,-0.2974682,-0.18186532,0.17700952,-0.06724816,-0.111143015,-0.2515079,-0.18788005,-0.06955614,-0.26088676,-0.027200408,0.051388156,-0.20756593,-0.13893355,0.0062096673,0.012718333,-0.31981677,-0.028642407,0.07634777,-0.17840445,-0.047380354,-0.22798061,-0.109073564,-0.15379581,-0.012880915,0.007062352,-0.105667375,-0.030353831,-0.3981679,0.012506924,-0.16951728,-0.2093375,-0.042286698,0.15244685,0.08859771,-0.1442547,-0.024029743,-0.069467574,-0.12527914,-0.14219582,-0.3470133,-0.13753337,-0.1683919,-0.055754453,-0.33398852,-0.16325924,0.12634166,0.042762015,-0.22443037,-0.10430036,-0.05158966,-0.05989766,-0.07093913,0.10728452,0.02984146,-0.18527086,-0.010678072,-0.015338326,-0.06219126,-0.065003194,0.114302516,-0.119753085,-0.08457401,0.006704619,0.15708281,-0.37208566,0.04810469,0.19964336,0.025935797,0.19217865,0.16601118,-0.14323413,-0.18141174,-0.23118892,-0.004943024,-0.3172134,-0.05175917,-0.15142119,0.13002694,-0.20083502,-0.40007812,-0.09941021,-0.0006826562,-0.17514578,-0.31796145,-0.09261531,0.23642012,-0.09919044,-0.070868775,-0.2801492,-0.41932315,-0.19096524,-0.13271289,-0.21746966,-0.3932944,-0.24287105,-0.14964893,-0.17095987,-0.37389368,0.17393523,-0.00830775,0.24344257,0.014327847,-0.267431,-0.18185686,0.12249475,-0.08642607,-0.21845193,-0.053327076,-0.36336163,0.042585835,0.022105686,-0.37247148,0.17458786,-0.06610945,0.10181441,-0.046153646,-0.43182623,-0.019362232,0.06952436,-0.118677154,-0.26478902,0.12786122,-0.0140385,-0.11559637,-0.07613018,-0.24531505,-0.22114743,-0.050161887,-0.31174552,-0.25045282,-0.17304982,0.13182119,-0.4210433,-0.19772789,-0.18190147,0.15139413,-0.20013511,0.13097505,-0.077460796,-0.25452015,0.14578283,0.13709082,-0.12999395,-0.13173878,-0.03886834,0.06640749,-0.06332715,-0.21601206,-0.382026,-0.20242856,-0.37411356,-0.024078002,0.14510195,0.025655214,0.1877064,-0.053704735,-0.07064441,-0.36804882,0.10664664,-0.14181544,-0.16294356,-0.14666061,-0.07338609,-0.07651441,-0.17617193,0.051074367,-0.30744967,-0.11401903,-0.4174985,-0.071081914,-0.004492275,-0.040789522,-0.03638818,0.105716355,-0.17774667,-0.112427846,0.16617914,-0.12951869,0.06383088,0.059948582,-0.4834607,-0.2366083,0.124530025,0.03112064,-0.34238297,0.05572618,-0.0053928294,0.1340203,0.11730499,0.029130634,-0.12233282,-0.09610378,-0.3966044,0.005137102,0.035689067,0.15913449,0.17753597,0.12310865,-0.22808795,0.1259929,-0.29935005,-0.1344016,-0.25510833,-0.37812784,-0.087978624,-0.10147298,-0.28848505,-0.22419272,-0.16359507,-0.15906855,-0.17680448,-0.34411123,0.046881758,-0.09668818,-0.32908046,-0.297556,-0.37575927,-0.13664202,-0.3914388,0.13372643,-0.14632843,-0.09600219,-0.26752213,-0.2692184,0.03034605,-0.21314847,0.1018333,-0.105376214,0.00037489636,-0.16029339,-0.35310483,-0.1446842,-0.06402213,-0.13429347,-0.05204317,-0.3827952,-0.1619597,0.12759459,-0.072744794,-0.3614607,0.10308792,-0.032883786,0.056006283,-0.036048125,-0.34288153,-0.024787027,-0.17980386,0.19707032,-0.15178686,0.08819785,-0.08930449,0.16277298,-0.3027705,-0.16960624,-0.32536873,0.027542729,-0.25094295,-0.11559474,-0.05767095,0.093256116,-0.35692272,-0.34961855,-0.14204486,-0.009383711,-0.35098946,0.039260756,0.10671932,-0.08149283,0.064490244,0.1700901,-0.16869088,-0.37099558,0.1864135,0.13661124,-0.26066294,-0.41491547,-0.41506395,-0.10926303,-0.2874094,0.16616559,0.1024023,-0.04391115,0.11280556,-0.35936263,0.017987506,-0.36060658,-0.082841,-0.023524662,-0.015954204,0.11212545,0.21448153,0.12250307,-0.13110822,-0.14431964,-0.2724864,-0.21509156,-0.20690736,0.15575655,-0.026743233,-0.06659801,-0.07098842,-0.10116984,-0.08525601,-0.19960287,0.12690955,-0.019242981,0.15839303,-0.17170218,-0.1319861,-0.20517248,-0.084049985,-0.080189876,-0.36807746,0.12349135,-0.047829207,0.046414502,0.024202937,0.10514372,0.018929211,0.12637265,-0.19910166,0.09886819,-0.13484196,0.028822133,0.13429269,0.08001445,-0.059726246,0.18514365,-0.20973809,-0.13047856,-0.37476936,-0.16817535,-0.041218422,0.13019611,-0.2670742,-0.2967504,-0.40639684,0.19244564,-0.123776436,-0.1634936,-0.09112178,-0.050120257,-0.124270864,-0.29309687,-0.24814488,-0.295845,-0.37646028,0.052178044,-0.36757663,-0.44943398,-0.17111911,-0.314609,0.0029304745,-0.29346773,0.06861865,0.111276925,0.12078448,-0.104972325,-0.2584067,0.053485487,0.13717364,-0.025014231,-0.06828283,-0.40867326,-0.2767234,-0.042995933,-0.15307394,-0.27223587,0.12896751,0.03274271,0.060241193,-0.16092832,-0.35744914,0.1904556,0.15081544,0.17989874,0.15455008,0.039639752,0.08520462,0.07452515,-0.33109772,-0.38881332,-0.30788356,0.034736224,-0.33477747,-0.29323944,-0.044154074,-0.057374854,-0.27830768,-0.08516345,-0.26435542,0.14750195,-0.3018531,-0.025139313,-0.15317683,-0.25655672,0.09112777,-0.01550427,-0.12999777,-0.114545904,0.13341671,-0.15542507,-0.28072914,-0.28987387,-0.37079298,-0.336968,-0.39672315,0.14398012,-0.07515391,-0.046931185,-0.13019346,-0.29867586,0.06764946,-0.31861687,-0.18012902,0.16146155,0.14197825,0.027013384,-0.07141384,-0.06831585,-0.14760152,0.05135838,-0.18481351,-0.113779165,-0.33554116,-0.147948,0.18519092,-0.3727844,0.07589046,0.18465619,0.03666001,-0.13983248,0.09814209,0.13091475,-0.059158873,0.02544083,-0.47463,-0.026883641,0.113866195,-0.09717624,-0.082621604,0.17017129,0.02157434,0.19259328,0.15853484,-0.008717657,-0.031852536,0.08495757,-0.18627042,-0.09497236,0.05758912,0.16479681,-0.17805935,0.035443474,-0.40403003,0.012672598,-0.15254034,0.059307892,-0.38759175,-0.19287568,-0.29413912,0.038640205,-0.3867008,-0.39409253,-0.363396,0.15342063,-0.11914349,-0.17317097,-0.17256558,-0.052112773,-0.12352601,-0.4044998,-0.04420521,-0.10784902,-0.17991036,0.1385797,-0.29965088,-0.15659258,-0.39406398,-0.36775988,0.13214038,-0.37378356,0.14348315,0.06465067,-0.15077178,-0.13803083,-0.37300822,0.0073802164,0.16228952,-0.2336023,-0.26261035,-0.34324723,-0.16778234,0.17033313,0.020812599,-0.08876195,-0.06194062,0.17877819,0.05518419,-0.0331163,-0.065705076,-0.0058407676,0.04760112,-0.12257873,0.13073052,-0.17011048,-0.12938987,-0.11101109,-0.2600375,-0.13439475,-0.20404667,0.114325576,-0.21521668,-0.29423845,0.19084854,0.041516554,-0.02807626,-0.39084113,-0.3248583,-0.14208132,-0.21858206,0.09608076,0.08870753,-0.04414506,0.015699636,0.051997844,-0.009557811,-0.26014745,0.01025884,-0.06357943,-0.3400512,-0.40516466,-0.25191796,-0.032291874,-0.17648856,-0.16750993,0.114786655,0.12790388,0.1132043,-0.29274717,0.02306505,-0.25239944,-0.026659492,0.04640894,0.11638011,-0.15077832,0.029237399,0.28907818,0.0509181,0.0913216,-0.12819071,-0.12123124,-0.23594706,-0.051290274,0.0076258034,-0.15148625,-0.0028514292,0.031442113,-0.07187651,-0.3764914,-0.18647645,0.066251814,0.037532266,0.27370214,-0.21249564,-0.008849579,-0.06892416,-0.11963265,-0.043592636,-0.10770583,-0.19099413,-0.15575343,0.15040776,-0.15244243,0.08842196,0.032133706,-0.23865849,0.09048916,0.07737313,0.10071368,-0.05415514,0.15364341,-0.28463033,0.030674802,-0.3267969,-0.15614355,-0.25776762,-0.08313869,-0.18023962,-0.07326213,-0.24969792,-0.2914718,-0.24795835,0.00017411211,0.05522514,-0.11104633,-0.17121473,-0.08161352,-0.3766161,-0.19244167,-0.31823525,-0.058497503,-0.37450016,0.16144563,-0.24169602,-0.33288175,-0.35332552,-0.3128316,0.032505196,-0.29543826,0.048734885,0.09297277,0.09953101,-0.14880234,-0.18836069,0.21372235,-0.00095365534,-0.1915168,-0.1748492,-0.3131875,-0.05001156,0.05811538,-0.20156735,-0.21122137,0.13155116,-0.113934085,-0.12254071,-0.076239206,-0.32432938,-0.06999985,0.11832157,0.14904417,0.16066931,-0.07448715,-0.03268168,0.046870045,0.30099148,0.19976997,0.3351678,-0.12590589,0.24750602,0.23694563,-0.05842707,-0.19271623,0.18004787,0.25779805,-0.050939873,-0.13021547,0.24359947,0.08555166,-0.12228415,0.10225299,0.047994412,-0.108829044,0.14600141,0.06837961,-0.037816375,-0.05166834,0.2787037,0.23204337,0.16103016,0.3277047,0.21617664,0.17163384,0.13171108,-0.18441556,-0.13440426,0.30429277,0.047455583,0.3591649,0.10585606,-0.17241418,0.027165668,0.039179094,-0.061421998,0.05844042,-0.019282818,0.009129026,0.2856711,0.21655467,0.3923608,-0.0789013,-0.16717634,0.3745949,0.06261921,-0.085762724,0.07178143,0.123063505,-0.109830774,-0.16664723,-0.04739724,-0.2018475,0.2368946,0.071820565,0.037302606,0.12395562,0.35846952,-0.024959207,0.120959595,0.12760352,0.02658561,-0.16833963,-0.14174403,0.096318595,0.36930954,-0.18555985,0.18110193,-0.14804596,0.066811234,-0.12036357,0.329036,-0.037196,0.21365812,0.107767716,0.2949193,0.32645252,0.12475706,0.08695146,0.25734794,0.14549899,0.29009083,-0.11772295,-0.18299106,0.29379213,-0.12358443,0.06321978,0.3084484,0.18906106,0.2322037,0.37900525,0.04642206,-0.05553517,0.3816568,0.271739,0.045163807,0.26187357,-0.07404734,0.28893408,-0.06379994,-0.07343034,-0.032693323,-0.05883076,0.23762801,0.050688352,-0.16156994,-0.07181282,0.21247734,0.31175447,0.15122141,-0.11257159,-0.095736265,0.30527833,-0.06270825,-0.157896,0.038351372,0.13590023,0.33395052,-0.036153004,0.17668523,0.04654919,-0.052144706,-0.036660153,0.101627596,0.213489,-0.34799466,-0.36167994,-0.046312597,-0.17211752,-0.21511123,-0.08178434,-0.15275192,0.15343554,-0.37726548,-0.11534172,-0.19583036,-0.08206284,-0.2409417,-0.10834138,-0.09364132,-0.22479361,0.14300466,0.14797963,0.15691079,-0.09483098,-0.096425794,0.20678283,-0.04157056,-0.03102568,-0.11984504,-0.15318248,-0.23625147,-0.07914834,-0.18834412,-0.059937213,-0.045740623,-0.22827962,0.1456144,-0.35963956,0.07600129,0.035438027,0.08613355,-0.02007691,-0.12248874,-0.17282522,-0.054853693,0.016650306,-0.20268947,-0.3380663,-0.25451645,-0.024364222,-0.032122057,-0.03264938,-0.07515641,-0.14046313,-0.030898394,-0.05978874,0.04254304,-0.06024733,0.11863962,0.0594017,-0.5004524,-0.32084933,0.0038477394,0.16870113,-0.27754396,-0.10783008,0.1763607,0.14651984,0.17641099,0.10339663,-0.01726451,0.16336018,-0.115230024,-0.19242921,-0.15381373,0.05269706,0.17724799,-0.12843342,-0.26424605,0.040360715,-0.233948,-0.24406911,-0.14663349,-0.37938967,-0.030609673,0.17034248,-0.30384058,-0.35995317,-0.3619952,0.033589303,0.19863762,-0.11001319,-0.024619807,-0.06879498,-0.3440448,-0.2658074,-0.08550516,-0.20521244,-0.30792406,0.11710872,-0.32193148,-0.17521235,-0.27671054,-0.3538431,0.18735404,-0.07925062,-0.03467799,0.19053093,-0.04353335,-0.07288116,-0.10092288,-0.20785575,-0.033309747,0.09277456,-0.15794745,-0.4086363,-0.09532001,-0.02764594,-0.17699489,-0.3791875,-0.14181373,0.1358077,-0.04872031,0.057644438,-0.42625535,0.096296184,0.12899481,-0.09467977,-0.09652475,-0.0040289173,0.18123274,0.028276656,-0.101708226,-0.21115994,-0.25960898,-0.08376615,-0.2579093,-0.18369344,-0.030055,-0.09386732,-0.17265679,-0.30289677,-0.31984344,-0.014121248,-0.088954836,-0.030634325,0.17698964,-0.37579444,0.090823054,0.13593438,0.081441455,-0.10782008,0.16534424,0.15202102,-0.38468918,-0.0798469,-0.2824078,-0.32154724,-0.24469543,0.08367684,0.14439265,0.15662868,-0.07079664,-0.27656135,0.0726587,-0.23504207,0.1939832,0.017561272,0.1695736,0.015523359,0.15681253,0.038979564,0.01853318,-0.011534905,-0.36514395,-0.20017555,-0.16305378,0.20810951,0.075720735,-0.41696376,-0.060631055,0.14418516,0.044362474,-0.08393726,0.10467556,-0.12910172,0.05169256,0.041088477,-0.061526913,-0.2741888,-0.10030416,-0.14180715,-0.29598746,0.06113811,0.04041514,0.14882112,-0.10065193,-0.15034659,0.15742756,-0.019401854,-0.053078692,-0.0016796255,-0.1332823,0.015478853,-0.08686341,-0.073650174,-0.3443174,0.16299078,-0.08362894,0.054209277,-0.21847041,-0.40375975,-0.24538286,-0.050479442,-0.32362786,-0.3058294,-0.08647417,0.05912694,-0.011936028,-0.080501124,0.14473383,0.107133605,-0.30472526,-0.093408115,-0.21883431,-0.16750342,-0.25427008,-0.05523193,-0.3540462,-0.21584862,-0.09867389,-0.06651,0.016417919,-0.34387434,0.13065568,0.16228713,0.119775586,-0.14526448,-0.27535024,-0.031733014,-0.0705229,-0.16568696,-0.24554707,-0.3957958,-0.225705,0.11271675,0.04178458,-0.095028795,-0.07073948,0.12659113,-0.16129512,-0.14356646,-0.21498054,-0.17194977,0.035499558,-0.012172508,0.03398999,0.148364,-0.020125574,0.021756755,-0.34101042,-0.28610936,-0.08816657,0.12808232,-0.3689578,-0.3740668,-0.15283081,0.13839349,-0.24321401,-0.40361962,-0.048452757,-0.021351121,-0.40543208,-0.11641105,-0.17718667,-0.100254476,-0.05030647,0.04796364,0.06649114,-0.29979193,-0.08143907,-0.16452849,-0.38955787,-0.24655417,-0.08958025,-0.3538506,-0.3175944,0.06069446,-0.09342455,0.014331549,0.026350861,-0.25383982,-0.13687006,-0.17150727,-0.12147899,-0.15065522,-0.015433404,-0.00903551,-0.079933904,-0.09872934,-0.04946059,-0.047820967,-0.30793715,-0.36915487,-0.28561404,-0.030352715,0.14396542,-0.1899979,0.12064896,-0.026571875,0.16090408,-0.09770319,0.0832518,0.12782338,-0.063441634,-0.019581424,-0.13643526,-0.1318033,0.17667949,0.061469115,-0.20636873,0.113478996,0.040512767,0.19223002,0.17874423,-0.04647876,-0.045323025,-0.16195296,-0.35207823,0.1512546,-0.13545868,0.10241071,0.02485035,-0.14714824,-0.20504989,-0.042780507,-0.119774826,-0.14706737,-0.2723939,-0.3281412,-0.390051,0.095328465,-0.20217712,-0.29152995,-0.2324057,0.14433333,-0.04343493,-0.2906853,-0.14825204,0.04287299,-0.14763235,-0.34747896,-0.30437407,-0.27702746,-0.36973774,0.1118164,-0.22452857,-0.3803446,-0.22413805,-0.12090546,0.11163218,-0.2607108,-0.061143793,0.19289929,-0.2030025,0.02826221,-0.24101454,-0.12188156,-0.019032178,-0.16597451,-0.22125378,-0.06308339,-0.13823165,0.10917356,0.18620077,-0.06917488,0.21609579,-0.17271575,-0.037688255,-0.0025830176,-0.07198277,-0.112667926,0.05981571,-0.14855315,-0.19430736,0.073620364,0.056117833,0.09908825,0.17250831,0.21023157,0.4018144,0.06583195,0.11120713,0.2136131,-0.048422612,0.07256256,0.070677206,0.26033968,0.014063212,0.0367444,0.2953283,-0.15554501,0.08071741,0.34886393,-0.13277078,-0.035017718,-0.036400776,0.39128307,-0.105113655,0.031721946,0.32745057,0.18172231,0.39885643,0.18755725,0.16686721,-0.010884682,0.110187516,-0.22570775,0.016541677,0.298598,0.11725865,0.15191528,-0.15270117,-0.14017233,0.04907168,0.16970009,-0.1125061,-0.09460412,0.25990874,-0.13968034,0.34521723,0.36164787,0.09932421,0.14322956,-0.08287164,0.073525704,0.019308396,0.014256326,-0.11785148,0.4042053,0.16957092,-0.16878013,-0.06381425,-0.19098501,0.32316548,0.056087635,-0.19562924,-0.15075412,0.1283179,0.11491775,0.07960202,-0.2044788,-0.104540445,0.013605582,-0.044571973,-0.17955622,0.3691547,-0.13774931,-0.14106354,-0.002068604,-0.02279165,0.07021678,0.18771175,0.12589596,0.34376937,-0.09883543,0.4169203,0.30936596,0.28126407,0.13348278,0.40697297,0.20736434,0.2459176,0.107694715,0.13916443,0.35314608,-0.16141139,0.0035724975,0.36327913,0.35884106,0.23204333,0.19923647,0.15886277,0.008957287,0.35928038,0.34627327,0.33213234,0.17625844,0.17039232,0.27476084,-0.09702482,0.10242985,-0.037526563,0.07629212,0.3784765,-0.110628396,-0.13784163,0.17356576,0.098962106,0.29813606,0.23935294,0.061669953,0.16706014,0.30075166,-0.014401913,0.01600092,0.095716484,-0.12801647,0.11696219,0.16550373,-0.027664814,0.15277801,-0.0267302,0.044017203,-0.02951171,-0.04001069,0.23620087,0.2418322,0.09477124,-0.14189568,0.22300345,0.32260644,-0.14807631,0.16308291,0.08334202,0.34386724,0.104208164,0.1181491,0.33542314,-0.14329563,-0.1375588,0.2656252,-0.0783482,-0.1268309,-0.036890224,0.18256904,-0.14432105,-0.13239905,0.10751014,0.13985877,0.29623103,0.33998704,0.28268358,0.1463497,0.07385001,-0.16469373,-0.1323979,0.17963238,0.1717556,0.36052883,0.18513234,-0.005981435,-0.110188514,0.038445897,0.12128041,-0.064153105,-0.069356844,0.017125843,0.27081817,0.24231215,0.28404084,-0.14154463,0.010784909,0.26437688,-0.07400771,0.1767152,0.0075087966,0.38107204,0.011511074,-0.092747994,-0.04378795,0.10604265,0.197373,0.4081909,0.048668213,-0.08936137,0.07518983,0.042242512,-0.10945064,-0.07042068,-0.15141614,0.019761443,0.13084526,0.10449561,0.055602927,-0.17588416,-0.1822631,-0.035957802,-0.16787456,-0.097407304,0.20711441,0.059106387,0.3661614,-0.13666587,0.34952796,0.34156755,0.2872037,0.16677348,0.044543266,0.35822088,0.26748508,0.06449914,-0.09232175,0.40648365,0.09163326,0.019369878,0.094557054,0.36803764,0.10206612,0.21789744,0.23590775,-0.07831205,0.41690212,0.2816817,0.33574656,0.3920815,-0.022172838,0.38828132,-0.18434423,-0.030379636,0.18603529,0.10684738,0.30092138,-0.05680858,-0.14668596,-0.103141375,0.3319026,0.06646646,0.2843509,-0.00093059364,0.005510338,0.21949273,0.106843546,-0.16601875,-0.13218938,0.03064512,0.3892541,-0.20028427,0.04894942,0.08636579,0.1967683,-0.15590648,0.13234518,0.16348514,-0.13033654,-0.35797957,-0.33113393,0.094121404,-0.1545967,-0.25988773,0.13831119,-0.0051831133,-0.10298627,-0.07471538,-0.2601288,0.003249395,-0.36816588,-0.046665337,-0.1743001,-0.37258235,-0.16569632,0.084382355,0.11687976,-0.2920114,-0.010802003,0.18694763,-0.13963076,-0.3865442,-0.10658363,-0.44080424,-0.06294179,0.18109,-0.03551056,-0.06216845,-0.1552827,-0.3646261,-0.083175585,-0.41611978,-0.09985762,-0.021170765,-0.06214723,0.012896432,0.16714017,0.13705897,-0.2634112,0.027859043,-0.20504677,-0.11883847,-0.13314974,-0.1581568,0.031978145,-0.172302,0.06320121,0.11407102,0.032722916,-0.27513474,-0.026565565,-0.08861689,-0.16314597,-0.14539884,-0.31481528,-0.2149002,0.078621335,0.09336002,-0.09585593,0.15660113,0.066041425,-0.011113441,0.022847814,0.023981744,-0.088864766,-0.12328094,-0.24407339,0.12744646,0.044590216,-0.014545859,0.101134144,-0.1641042,-0.2066024,-0.005517193,-0.17205904,0.060007047,-0.23359455,-0.13723217,-0.35579598,0.16355237,-0.22353144,-0.15425026,-0.27600083,-0.1471252,-0.14646031,-0.07869945,0.12301159,0.20558462,-0.38772026,-0.12237458,-0.2616731,-0.37851098,-0.28345427,0.090878755,-0.35296622,-0.14167142,-0.23435733,-0.06704024,0.12966833,-0.34466413,-0.004342864,-0.09479317,-0.088444225,0.1144186,-0.42334613,0.069668844,-0.16462874,0.13599443,-0.14714329,-0.22695637,-0.23693578,0.09942264,0.19565873,-0.27989182,0.07537076,-0.018374957,-0.0023950103,-0.12031576,-0.19278161,0.030315906,-0.138946,-0.082932435,-0.12443147,0.08371035,0.11816147,-0.10422716,-0.23607637,-0.3421163,-0.39437857,-0.049547486,-0.35803363,-0.062428296,-0.07072632,-0.028728731,-0.42911443,-0.3097502,-0.119208835,-0.021134801,-0.17875136,0.084829785,-0.019436862,-0.13354231,0.12832703,0.08204252,0.042329658,-0.38777882,-0.10239828,-0.15506421,-0.09680723,-0.3757481,-0.14144981,-0.24925756,-0.150447,0.17537609,-0.07366273,-0.111303285,0.082482725,-0.043929663,0.13962092,-0.14524144,0.06485205,-0.077058636,-0.059558075,-0.16653204,0.045493495,-0.10154213,-0.028321937,-0.1821563,-0.2156344,-0.3858946,-0.4248303,-0.049466677,0.18571664,-0.17160392,0.122754626,0.011353818,-0.0429991,-0.24512245,-0.12390565,-0.1292679,0.16841492,-0.07312566,-0.38845715,-0.31662056,0.023865934,0.091854684,-0.19836849,-0.11489669,0.15544888,-0.16066886,0.15085013,0.09325718,0.15675214,-0.00970665,-0.15877682,-0.0025789393,0.18111233,-0.004641726,-0.14606832,0.21866964,-0.34113634,-0.08635464,-0.24789509,-0.006178966,-0.32005712,-0.22778253,-0.29285625,-0.07857385,-0.13642006,-0.4090659,-0.09663666,0.15932094,-0.0006934804,-0.23448335,0.17286156,0.068746194,-0.13472974,-0.2397837,-0.3612909,-0.42301205,-0.37880144,-0.092673086,-0.16964939,-0.4235262,-0.18924432,-0.41513234,-0.19239332,-0.047919452,0.13378528,-0.030478185,-0.10424089,0.11005565,-0.41671792,0.19314037,0.011984072,0.021183133,-0.1219703,-0.2033849,-0.0052375756,-0.08538603,0.100731015,-0.35396495,-0.10305174,0.07097526,-0.09720558,0.11840554,-0.37618273,0.16558163,0.071457,-0.095608704,0.07535838,0.044069886,-0.07932915,-0.26450574,0.4016404,0.09875514,0.06924434,-0.06990828,0.32718605,0.20158596,-0.084325194,-0.076774165,0.10619662,0.346746,-0.045088578,0.08536798,0.08470941,0.0018749068,0.17648749,0.10156719,-0.06615698,0.18880996,0.015542865,0.23279822,-0.008233204,0.08199107,0.05779442,0.29566008,0.32014456,0.21332599,0.26757324,0.12561777,0.16151586,0.05069675,-0.08472105,0.3989607,0.03312981,0.078906246,-0.010251222,0.046737935,-0.11768693,-0.13314964,-0.10926938,-0.066998504,0.3471977,-0.07834769,0.24803928,0.24376045,0.38641474,0.08434795,-0.09783099,0.25675306,0.13079593,0.037052937,-0.04009717,0.06561123,-0.08723932,0.1575455,0.10547038,-0.097785614,0.2643404,0.048116896,0.00239973,-0.15426554,0.23585106,-0.15978684,-0.11925716,0.105515435,-0.1903888,-0.08129815,0.04110425,0.16352747,0.34937322,0.018630872,-0.057640895,0.12177471,-0.005541686,-0.08785087,0.36933604,0.15410794,0.18812625,-0.12706073,0.17265826,0.21457738,0.2535764,0.16256538,0.1852176,0.115383655,0.35669747,-0.0054494916,-0.12253058,0.27538657,0.11376667,0.03136565,0.3821315,0.26023802,0.10637884,0.27454296,0.1864407,0.14722365,0.41141924,0.2501818,0.25311625,0.3631064,0.05163075,0.25566223,0.16669,0.052555542,0.0012095454,-0.1527068,0.2758518,0.14736097,-0.1138621,-0.0014024123,0.4063453,0.061529506,0.30122566,-0.09244019,0.02627233,0.29887804,-0.051610593,0.040399145,0.17671841,0.15216458,0.18988581,-0.0830214,0.11240865,-0.04437592,0.16911454,0.09335508,-0.14334965,0.053540725,0.16902654,0.20811245,0.2985596,-0.09772651,0.09748673,0.36666915,-0.17306542,-0.080738336,0.35927477,0.3825017,0.20766357,0.12905681,0.1595484,-0.01604619,0.14733778,0.14121631,-0.11524072,0.034265455,-0.112863705,0.3292154,0.027481738,0.0049102665,0.3763242,0.09269561,0.27509072,0.14555617,0.28628588,-0.07351062,0.0692583,0.106965795,0.14687502,0.12692033,0.124209374,0.23246306,-0.0050175,0.11542911,-0.004149638,-0.1196346,0.052856274,-0.15604031,0.15798451,-0.08945467,0.15194052,0.36264947,0.120253064,0.13956062,0.10231477,0.14446618,-0.13185906,0.13423248,-0.18434928,0.27856156,0.07853941,0.09815291,0.1076184,0.015752744,0.11203338,0.01690242,-0.1317416,-0.1235629,0.22899298,0.11525139,0.035273388,0.1692543,-0.11399639,-0.19325319,0.110451326,0.060080417,0.27467602,-0.096482724,-0.13589923,-0.050435096,0.033515614,-0.1700403,0.37059295,0.08563592,0.3153034,-0.029104074,0.34801164,0.23881197,0.20954412,0.18776572,0.39130923,0.17326327,0.36141625,0.086269006,-0.18509884,0.24735026,-0.063838005,0.04167355,0.20297231,0.37356818,0.30972287,0.36719406,0.31546786,0.09931151,0.3022825,0.36919087,0.40268612,0.27141538,-0.106847376,0.42142686,0.12959178,-0.016741734,0.0026265397,-0.120076746,0.114820816,-0.12785918,-0.18811178,0.09415835,0.2739198,0.38633782,0.20218864,-0.15051815,-0.121802144,0.32036367,0.0538088,-0.19068666,0.098292775,-0.105334006,0.2594367,0.19971408,-0.19347632,-0.13134037,0.1194062,-0.010011962,-0.00045446903,-0.17299637,0.1915554,0.07707229,0.07861271,-0.14150313,0.31999138,0.3731081,0.030327491,-0.03256448,0.31534186,0.10161578,0.16198057,-0.1400086,0.086034946,0.058398712,0.19255322,0.062005796,-0.05139099,-0.00017830684,-0.1128567,0.10442266,-0.13861015,0.09889117,0.28317773,0.28548926,0.38081333,0.36772078,0.32158685,-0.17652546,0.12762176,0.0844807,0.06800612,0.15584324,-0.16053957,0.19169568,0.1495747,-0.1416418,-0.32733703,0.042144537,-0.06514582,-0.12224165,-0.016523395,-0.1349883,0.063586935,0.121320955,0.07136538,-0.044925876,0.18093763,0.16946489,-0.05261429,0.14498697,-0.19874488,0.03382693,-0.034668297,0.10788416,0.095836006,0.06259367,-0.058087647,-0.13828786,0.023392431,0.18912223,0.05888829,-0.03363485,0.17043537,0.01069333,0.010836481,-0.03974752,0.11885976,0.09578948,0.200968,-0.09109425,-0.2430048,-0.013310407,0.1840163,-0.017482482,0.3296435,0.09449519,0.20655596,0.1924157,0.15658389,0.42994905,0.2834309,0.1879603,0.4029366,0.27959684,0.08351734,-0.039981,0.1581896,0.36904183,0.072136186,-0.023220735,0.35218048,0.059831172,0.1683052,0.3729722,0.28237227,-0.017183825,0.25472882,0.25379512,0.36672586,0.2244151,-0.07379195,0.08190376,0.046316702,0.14791878,-0.23469217,-0.031296834,0.27478972,-0.18551913,0.17035197,0.22566105,0.09737757,0.25345737,0.01343963,-0.051653467,-0.06482459,0.20233625,0.15395118,0.008288709,0.15635684,0.12907502,0.13586174,0.03463278,0.11500383,-0.16425578,-0.0005684585,-0.009490546,-0.00073658355,0.10739268,-0.40473965,-0.36732554,-0.21241702,-0.05442223,-0.3019179,-0.42694473,0.07079881,0.085481554,-0.4194489,-0.13498643,-0.22991592,0.05577107,-0.1627203,-0.11419839,0.11369834,-0.045766667,-0.018158304,-0.161003,-0.13897556,-0.28025943,-0.038323473,-0.014708907,-0.09605648,-0.34992626,-0.18374361,-0.26894447,-0.40517813,0.065368064,0.16123393,-0.1337932,-0.122265905,-0.28101388,0.032616016,-0.16372268,0.058893453,0.032071453,0.24685228,-0.17185096,-0.014222722,-0.102626845,-0.062777035,0.0010030697,-0.11433897,-0.10704723,-0.20700948,-0.18775645,-0.15781125,-0.10297995,-0.13256983,0.067250185,0.071565114,-0.288769,0.016182028,-0.083810255,-0.120675005,-0.18674074,-0.33205602,-0.23785712,0.11330617,0.07492373,-0.19734928,0.068277195,0.15888445,-0.0591288,-0.073738076,0.18911356,0.06300632,-0.10578917,-0.15667202,-0.18199861,-0.030483257,0.16111514,0.15539545,-0.04515731,-0.3851214,-0.09181662,-0.19014686,-0.22004825,-0.40555203,-0.10922313,-0.08918967,-0.08047024,-0.09455365,-0.13721181,-0.36426786,0.14396366,-0.023982545,-0.1756463,0.06550554,-0.16562223,-0.09805337,-0.32613224,-0.23386183,-0.1492663,-0.10860909,0.1379706,-0.10032193,-0.25241318,-0.31849512,-0.14414904,0.050662275,-0.38575658,-0.088954434,0.022453418,-0.07581551,0.079851404,-0.41076517,0.24229804,-0.12452018,-0.13088009,-0.20764557,-0.11460407,-0.32620254,-0.020396974,0.13403665,-0.18053441,0.19925639,0.15176181,0.14876296,0.055849254,-0.38983864,0.18319766,0.02229339,-0.17962225,0.18900456,-0.122445434,-0.14634594,0.055764828,0.13989164,0.16848794,0.16579655,0.1056885,0.10056707,0.31424496,-0.12525202,-0.09110311,0.18209091,0.19162272,0.076433055,-0.115415424,0.24013427,-0.14764522,-0.16244589,0.25205183,0.16695486,-0.19184057,-0.14052819,0.22174244,0.020730874,-0.12937303,0.2686545,0.12012881,0.40008605,0.07645997,0.2647494,-0.12384567,-0.20477438,-0.071597315,-0.109984964,0.23631327,-0.23475707,0.10444257,-0.11002828,0.13262807,-0.18136665,-0.05169638,-0.048259925,-0.16367781,0.02982594,-0.16966386,0.3900719,0.23911554,0.45814982,-0.054130703,0.12290515,0.23328902,0.06999864,0.06524618,0.1276653,0.40294126,-0.024536017,0.00045438635,-0.04565243,0.042208094,0.088550694,0.18797515,-0.21710232,-0.062158566,0.1421783,0.048441697,0.12905516,0.075474754,-0.18127947,-0.12486214,-0.11228424,-0.09116247,0.41180694,-0.12914442,-0.087288275,-0.067976736,-0.06635575,-0.044893444,0.040147435,-0.18295866,0.36767343,0.06025412,0.042059116,0.23750827,0.20165697,-0.07599053,0.17973271,0.20317078,0.23425543,0.02233954,0.01698673,0.2961732,0.12101589,-0.09620354,0.07859403,0.059979778,0.30767027,0.41783458,0.16763406,-0.18342462,0.12710682,0.090186685,0.42144325,0.3959489,-0.12956662,0.34175572,0.17967324,-0.18276772,-0.17652737,-0.13103752,0.11139472,0.007860689,0.07322326,0.182148,0.12814409,0.22444068,0.07093384,-0.048231423,-0.21001808,0.34165475,-0.18468669,0.05712179,-0.19991563,0.09731155,0.21415024,0.011758159,-0.14444041,-0.16404381,-0.009068921,-0.18486482,-0.0017351668,0.15088157,-0.43826336,-0.06952771,-0.320342,0.0891844,-0.4245474,-0.29091674,0.020252809,-0.07504287,-0.39002296,-0.16926609,-0.055810604,-0.088343635,-0.27427298,0.09238634,-0.037672743,-0.20376772,-0.18709132,-0.05763951,0.08286487,-0.4010388,0.09885749,-0.0010774999,-0.1004901,-0.38539934,-0.42223015,-0.3650947,-0.32594645,0.06568657,0.15999648,-0.15120602,0.09476902,-0.3127457,-0.05037036,-0.095106214,0.042291403,-0.0877244,-0.033908,0.20458588,-0.05665751,-0.11961924,-0.17476256,0.07108986,-0.29531413,-0.26334047,-0.4309698,0.16498643,0.16205622,-0.2254877,-0.17934108,-0.1326643,0.029710043,-0.2314045,0.063106924,-0.17539178,0.14715213,-0.10678928,-0.29988712,-0.3781468,0.12397204,0.12783968,-0.3053664,-0.05793989,0.021040058,-0.01592433,-0.13727568,-0.14941667,0.017047646,0.12513897,-0.14938825,0.09618685,-0.14488219,-0.027344314,-0.07078814,-0.1616408,-0.30443165,0.12100534,-0.04665804,-0.12503603,-0.09698889,-0.04467955,-0.29150656,-0.05040876,-0.40144938,-0.3432568,-0.05696101,-0.026555251,0.068327405,-0.22696653,-0.0239723,0.17822531,-0.18051884,-0.32423052,-0.22264317,-0.41841683,-0.13465819,0.08492085,-0.15679857,-0.24205635,-0.051262707,-0.2245606,0.16733207,-0.06307685,-0.07334126,0.092799515,-0.17418222,0.057708893,-0.064741924,-0.16078655,-0.09372855,-0.17072794,-0.22688816,-0.21035545,-0.16082837,0.11856858,-0.030286929,-0.09185059,-0.11209709,-0.15212037,-0.07783137,-0.044733338,-0.38211253,0.17784621,-0.0069483155,0.17360158,0.0005186692,0.14605382,0.021701438,0.13104019,0.24088669,0.25047714,0.166165,0.085470386,0.25364566,0.29254073,-0.1724257,-0.20488244,0.33256966,0.31176496,0.019035077,0.07879609,0.2415023,-0.0572875,-0.015536541,0.060952507,-0.07595165,0.061395034,0.06984736,0.32353455,0.13097738,0.07241463,0.41756466,0.06839414,0.23250462,0.39199972,0.19203766,-0.16365452,0.07212315,-0.13516167,-0.13524163,0.31154415,0.17722662,0.04449129,-0.19391695,-0.014397762,0.10337126,0.13343106,-0.11050595,0.0005320801,-0.05913769,-0.13460213,0.25781134,0.31417087,0.21244282,0.0151170185,-0.1456262,0.18089296,-0.17611843,-0.19864334,-0.01727831,0.15868995,0.15268151,0.018497333,-0.039533805,-0.18220514,0.4509423,0.03044239,0.16907433,-0.1340596,0.03906972,-0.08519819,0.08651057,0.07957439,-0.16371539,-0.07974925,0.169783,-0.1599335,0.34429726,-0.07590428,-0.00022316,0.023578495,-0.09124338,0.09042583,0.05661002,-0.051112752,0.2962364,0.09801694,0.30464303,0.15563847,0.13007607,-0.17878395,0.13505314,0.28787372,0.21080492,0.003981318,-0.20330721,0.100081556,-0.15426974,0.024653373,0.28224686,0.17603871,0.2768751,0.1832622,0.41750807,0.061887756,0.037569784,0.08815284,0.25386953,0.38914075,0.1525536,0.40227738,-0.17394778,0.08576045,-0.04643813,-0.09893275,0.2218408,0.06256746,-0.03272009,0.0727023,0.055623945,0.057418913,0.13552792,-0.09994202,-0.097432494,0.0642186,-0.011903073,-0.112333074,0.035323672,0.008118127,0.33215132,-0.00537098,0.06186932,-0.051483978,0.09012789,-0.02810639,-0.14635329],"bias":[-0.016051855,0.26322454,0.23359305,0.22320774,0.0,0.2322976,0.23204067,0.0,-0.018791296,0.25388435,0.2155059,0.13884729,-0.0031079815,0.20946631,-0.016702706,-0.0126264915,0.23286276,0.0,0.0,-0.01228336,0.23097864,-0.0067761256,-0.019823218,0.23094855,0.22206447,0.23132853,0.26210776,0.23247428,0.0,-0.0100907395,-0.036388014,0.0,0.22968486,0.0041515105,0.23199753,-0.009302431,-0.010087131,0.02508848,-0.017310606,-0.025441965,-0.015642852,0.11391349,-0.00799878,0.21908711,0.22951931,0.2799291,-0.013476621,0.0,0.2226214,0.008703982,-0.011479451,-0.014242833,0.22789934,-0.006039174,-0.015808271,-0.01330372,-0.020466,0.29068106,0.20399033,-0.0027773937,0.0,0.17382927,-0.008746633,-0.013276781,-0.023727322,0.0,-0.008399832,-0.013777348,-0.019193107,0.22064088,0.0,-0.005782128,0.0,0.0,-0.025333846,0.21039769,0.0,0.18092726,0.039598696,0.23309845,0.2274312,0.21731006,0.0,0.22199543,0.21647169,0.22132127,-0.009990201,-0.016786447,0.22483583,-0.013118444,-0.029569913,0.21993211,0.24418376,0.23165058,0.22981428,0.2310974,0.0,0.22862366,0.24929391,0.2315009,0.22740203,0.0,0.23356101,-0.010042351,-0.017738348,0.00013830463,-0.019507557,0.23234026,0.0159281,0.0,0.05098818,0.22401893,0.22824764,0.18151033,0.0,-0.01818723,0.199569,-0.025861127,-0.011308728,-0.00724123,-0.023290912,0.24573705,0.00713078,-0.011718335,-0.0053470456,0.023201372,0.0,-0.007293665],"σ":[]},{"weight":[0.027319854,-0.026708897,0.1485596,-0.0981306,-0.049824763,0.11186157,-0.15249059,0.07939245,-0.022208951,-0.16181904,0.011038787,0.0041625323,0.052350413,-0.0898077,-0.052661482,-0.054116525,0.10015963,-0.07440458,-0.048268516,-0.033726636,0.03398853,0.08978611,0.06258536,-0.024796616,0.18752758,-0.13919209,0.0048973537,0.10875648,0.13927798,0.14335339,0.12667483,0.09627512,0.16745894,-0.04442218,-0.038458727,0.102097236,0.0065200417,0.059956886,0.0649452,-0.16062866,-0.16312107,-0.033295754,-0.057701115,-0.06136926,-0.18283196,-0.08891427,-0.011514328,-0.045921255,-0.10099069,0.1449756,0.12919663,-0.028104167,-0.1255501,0.17452763,0.10879228,0.0034892801,-0.122181356,-0.10966866,-0.0019444908,-0.0080144275,0.07473957,0.1309387,0.0046048374,-0.026495047,0.23631269,-0.2526392,0.26306203,0.21730767,0.43482146,0.32266688,0.26452237,0.439328,-0.22570008,-0.25008506,0.32328504,-0.3157905,-0.23367655,0.16256496,0.10243951,-0.2751804,-0.21484098,-0.009152143,0.27078938,0.2893391,0.13748573,-0.35644424,-0.13714224,0.39060262,-0.22981583,-0.3482029,0.2028955,0.19356324,-0.34919026,-0.41957715,0.20984766,0.1752092,-0.26949507,-0.38003656,0.11732584,-0.14288153,-0.15443192,-0.072174236,-0.17530996,0.16911921,0.33685982,0.4365283,0.36465257,-0.4062355,0.12317662,-0.2591552,0.30280924,0.3458453,-0.14404288,-0.33362594,0.33692735,-0.4179847,-0.32688633,-0.41176093,0.26266533,-0.13424237,0.30286294,0.15522256,0.3754583,0.1579068,-0.083605625,0.39545357,-0.26527643,0.18214414,0.19585273,-0.16434015,0.37928414,0.14179385,0.14599276,0.3329673,0.36724257,0.115198456,-0.26647064,-0.2698921,0.07525499,-0.09114205,-0.2688144,0.260354,0.30662334,-0.17633778,-0.17908101,-0.17334442,0.3823362,0.39832982,0.39188278,-0.10770772,-0.12454004,0.13891631,-0.30305186,-0.19188134,-0.029863596,0.15684377,-0.3220668,-0.38069412,0.31232518,0.054873876,-0.20357986,-0.06465211,0.28730637,-0.3068681,-0.31128606,-0.11861091,-0.32493588,0.40336874,0.20988302,0.24486543,0.2308829,-0.19277373,0.123862706,-0.03527916,0.21773122,0.14159423,-0.20732576,-0.21686804,0.3054021,-0.12627837,-0.3544376,-0.2783828,0.079481095,-0.17720671,0.14104684,0.24663252,0.20000257,0.12442365,-0.17193957,0.16347027,-0.34601247,0.32008922,0.26542956,-0.12263464,0.18405831,0.0897903,0.06224477,0.29608434,0.13013992,0.16515799,-0.19605368,-0.20085962,0.30910817,-0.22936235,-0.3091229,0.32600558,0.21878248,0.039859172,-0.2733468,0.012383871,0.08243437,0.3983928,0.0898288,-0.07382681,-0.15429392,0.18436319,-0.3650252,-0.23066112,0.16414571,0.008241842,-0.32722446,-0.18598308,0.35805348,0.36345488,-0.19994964,-0.18450345,0.1666789,-0.21607867,-0.35584864,0.13802059,-0.28549182,0.40685427,0.32163092,0.40107247,0.08339654,-0.38854444,0.3960356,-0.16430147,0.17588161,0.3702438,-0.27523142,-0.16493826,0.35144678,-0.3400843,-0.23475102,-0.199207,0.30014437,-0.32298496,0.25432193,0.22030868,0.11047847,0.3752185,-0.24177198,0.19650297,-0.29987568,0.11878109,-0.09768202,0.025158338,-0.10771002,-0.09004225,-0.0469734,-0.11243026,-0.03789912,0.019865664,-0.042584628,-0.07252545,0.10623193,-0.007476282,0.128663,0.05702262,-0.038966846,-0.11332887,0.023734998,-0.0096096285,-0.0021834597,0.09697745,-0.072757974,0.1568365,0.15202543,-0.102358006,0.054884363,-0.1578449,0.040317062,-0.11015561,-0.110918425,-0.17217116,0.12540998,-0.15102567,0.10532535,-0.16627958,-0.15747559,-0.08843241,-0.0115687195,0.038896948,0.11577756,0.033577107,0.09253703,-0.049131002,0.03133749,0.022393106,-0.12977247,-0.09913071,-0.07533526,0.0784041,0.08918962,0.12780572,0.09734708,-0.13037428,-0.105183065,0.1000158,0.0024694891,-0.13572927,0.109391615,-0.17342298,-0.04102182,-0.11209306,-0.09706661,-0.032084372,0.098087154,-0.11738664,0.18578099,-0.37400836,0.3665093,0.27302027,0.35844994,0.24603137,0.1889403,0.25806555,-0.3057745,-0.1736323,0.12067885,-0.109681964,-0.30773497,0.37199283,0.2703032,0.029460648,-0.1246213,0.004397951,0.26691684,0.37245125,0.21129358,-0.0632945,-0.082532495,0.32285157,-0.17586896,-0.3921585,0.22354367,-0.019027058,-0.22597559,-0.060040306,0.35268873,0.11917103,-0.13714516,-0.32449263,0.3343035,-0.19789125,-0.06667984,0.11629047,-0.23760723,0.11032769,0.2505666,0.31721324,0.2742596,-0.30117834,0.3832935,-0.22976686,0.10007244,0.29890385,-0.13867754,-0.31175864,0.3405053,-0.3031771,-0.2649703,-0.25782603,0.053429503,-0.21142021,0.14955083,0.19812764,0.39282528,0.13426422,-0.41086295,0.33537766,-0.19128224,0.084012024,0.20032647,-0.21674943,0.37202337,0.06450965,0.10018127,0.34206572,0.35746258,0.15443398,-0.099689625,-0.26663032,0.19029969,-0.40137088,-0.037091874,0.27461466,0.1314346,-0.16862395,-0.19166455,-0.195608,0.19784823,0.27162117,0.32429758,-0.34135118,-0.22144409,0.15142073,-0.3019397,-0.33569652,0.02551613,0.20950279,-0.38777682,-0.35152084,0.38560417,0.091279596,-0.32417858,-0.26764044,0.3013075,-0.08358281,-0.38782865,0.21389487,-0.20574376,0.32564533,0.35138112,0.27346626,0.071176425,-0.06367847,0.2646779,-0.121464044,0.39054543,0.13015659,-0.053329073,-0.25822636,0.08486673,-0.33248022,-0.30507964,-0.3501203,0.26110986,-0.22994842,0.31042904,0.34156042,0.22285073,0.13387059,-0.19984445,0.33690333,-0.38312346,0.18793446,-0.026289623,0.1451301,0.0074384552,-0.12528118,0.14562836,-0.085986204,-0.019078761,0.11862696,-0.12170296,-0.023262342,0.09676076,0.08158308,0.13300909,0.15854806,-0.1458994,-0.11253103,-0.15005364,0.030185446,-0.12538853,-0.17086764,-0.022780413,-0.1329343,-0.002599997,0.16078873,0.16742776,0.023901477,-0.17217162,0.12479534,-0.16005702,-0.10231261,-0.0939743,-0.018358935,-0.14930609,0.020206274,-0.066868186,0.099863455,0.028155992,-0.112132445,-0.046826687,-0.095298976,-0.17129232,0.022435589,0.0066417954,0.10597009,-0.07323552,0.074909724,-0.034787104,-0.11577855,0.08387364,0.04316874,0.034405082,0.08630971,0.12633787,-0.14375179,-0.054536294,0.16898842,0.06400604,-0.093682684,-0.12827832,0.11089095,0.054484222,0.089712955,-0.13353942,-0.13747111,0.14798957,0.12016099,0.16712789,-0.06507999,0.0464373,-0.16293322,-0.09332345,-0.016381288,-0.15405983,-0.090413995,-0.16240306,-0.021493569,-0.102540806,-0.092218265,-0.1050863,-0.07564395,-0.03631644,0.056843985,-0.0333785,0.14588058,0.120753966,-0.0684074,-0.03647548,0.063437305,-0.030187216,0.16206078,0.14961663,0.08943579,0.06815031,-0.17305891,-0.052387755,0.019803008,-0.036770027,0.0781182,-0.17456244,-0.17995085,-0.17965434,0.11142937,-0.13564757,0.014181592,-0.060466323,-0.17036292,-0.1316347,0.07030759,-0.015265324,0.045560114,-0.14149208,-0.031142712,-0.004842819,-0.031582765,-0.10542225,0.043827634,-0.04539586,0.12547457,-0.059880488,-0.053477608,0.08554775,-0.105907865,0.09396307,-0.035349432,0.08842862,0.061275754,0.16149074,0.07607562,0.15974778,-0.15222532,0.4279135,0.36578214,0.3467246,0.19388065,0.32605034,0.18344235,-0.3786007,-0.16914451,0.34134084,-0.2431631,-0.3510024,0.41683874,0.37935987,-0.050098058,-0.40978578,-0.22093008,0.14934728,0.3337393,0.38691625,-0.3092981,-0.22543205,0.25520015,-0.41444555,-0.34231558,0.28127503,-0.07584232,-0.23334454,-0.3699648,0.22896427,0.4022726,-0.32723927,-0.22493404,0.40250853,-0.3652099,-0.1522971,0.061873015,-0.31791076,0.2444684,0.19847015,0.35505366,0.28537485,-0.3588433,0.06641381,-0.18556479,0.37113774,0.1925473,-0.36623603,-0.1260875,0.33443293,-0.368601,-0.3138591,-0.08856617,0.27189276,-0.38642678,0.2315608,0.35967997,0.4357604,0.16506068,-0.30667597,0.43606243,-0.35873443,0.29347336,0.08810514,-0.37820783,0.2864387,0.16265988,0.23209207,0.34769595,0.23882687,0.23803192,-0.31938064,-0.08615826,0.16686812,-0.2874126,-0.16451877,0.11405774,0.24588127,-0.18307552,-0.09686974,0.10359427,0.38155037,0.33596045,0.2486187,-0.22766541,-0.19937046,0.10894056,-0.22701198,-0.19650196,0.11438808,0.2837502,-0.28946707,-0.3633918,0.058280736,0.12292843,-0.40528223,-0.06447186,0.25190008,-0.22870548,-0.21041201,0.1357762,-0.35049653,0.3354616,0.3619597,0.21362127,0.37730965,-0.07017716,0.19585343,-0.37262136,0.14483514,0.27160552,-0.21106216,-0.073199905,0.07954598,-0.08959288,-0.21498041,-0.13601507,0.19293097,-0.32043543,0.055148255,0.38185,0.3390178,0.23895825,-0.12807348,0.14636417,-0.35927832,0.35375378,0.09694635,0.0068879733,0.09976442,0.05114235,-0.015834466,0.25015303,0.31380492,0.17414263,-0.14160405,0.020490484,0.081275105,-0.175394,-0.23277384,0.18734542,0.309031,-0.01973827,-0.28973395,-0.02780292,0.07113951,0.12805262,-0.01970356,-0.14765741,-0.125316,0.22517136,0.017246222,-0.009808938,0.1534623,0.10832716,-0.117734715,-0.18532673,0.033561297,0.20782632,-0.09740967,-0.057191737,0.30653647,-0.17538038,-0.15984416,0.0813437,-0.05461448,0.22977279,0.08082656,0.26759344,0.18035929,-0.28354028,0.07488506,-0.10364783,0.28457242,0.16127813,-0.25359154,0.034707483,0.25316417,-0.03184407,-0.29077354,-0.2778964,0.23005825,-0.1341405,0.1511163,0.28718752,0.16271362,0.1647411,-0.022963092,0.22292124,-0.31824052,0.24506642,-0.04792408,-0.14018768,-0.093281284,-0.07245675,-0.090860255,-0.076698095,-0.10473767,-0.061173566,-0.06362724,0.0029781088,0.14555089,-0.03819675,0.18134822,0.019578936,0.110822424,-0.13113463,0.1352108,0.10408224,-0.09879784,-0.16896111,-0.14700639,-0.0101779755,0.12604116,-0.019530505,0.12128931,-0.15984553,0.10013774,0.1737862,-0.15111144,0.13476892,0.10863073,0.028342016,-0.0006426617,-0.104412325,-0.14925213,-0.1309854,0.014935772,-0.14247423,0.096475236,0.0666351,0.13869351,-0.031613123,-0.010133261,-0.1699847,0.0067834724,0.10889898,0.17611676,0.026489612,0.055793315,-0.050565485,-0.051147282,0.14360933,0.1576378,0.06427857,-0.11769439,-0.043926008,-0.14361261,-0.1324391,0.04405663,-0.18053448,0.081373505,-0.065088734,-0.15473427,0.07684706,0.28587258,-0.29102883,0.054549307,0.39143988,0.24371374,0.12824379,0.36677584,0.3574208,-0.21787913,-0.08672882,0.056446563,-0.38106662,-0.19481395,0.19130798,0.21921752,-0.065648116,-0.36410877,0.051924817,0.38906464,0.37845057,0.10037076,-0.15451084,-0.13820527,0.091517076,-0.15925863,-0.16123433,-0.009565007,-0.021522338,-0.2278728,-0.1535104,0.19621763,0.36693597,-0.18387932,-0.3977695,0.12413404,-0.29484844,-0.20611815,-0.1168573,-0.27455664,0.18225488,0.22030745,0.09632901,0.081785485,-0.2281501,0.35995543,-0.049840063,0.24635316,0.30852553,-0.14111799,-0.16854267,0.37369028,-0.1781312,-0.25816092,-0.24404077,0.31631327,-0.34295166,0.12677616,0.3038347,0.054261327,0.30800423,-0.34214035,0.3477506,-0.30491728,0.06799768,0.08364091,-0.14540194,-0.08173045,0.1609094,-0.039953344,0.0065196846,-0.1915226,0.08777682,0.14705648,0.062215373,-0.17806596,0.10689032,-0.010418484,-0.0819462,0.13604197,0.0686748,-0.025243025,-0.07285634,0.121784486,0.15202427,-0.044789016,-0.06041797,0.15010601,0.10194439,0.013147551,-0.047825273,-0.11343546,0.1321316,0.1352994,0.0174757,-0.07522243,0.05335229,-0.10626807,-0.11571006,-0.05545737,-0.08192558,-0.08391509,-0.12095601,-0.09328976,0.095795244,0.0764732,0.065861665,0.16571173,-0.047850206,0.16675009,0.053163372,0.17135325,-0.13679615,0.101871096,-0.07603007,-0.12245482,-0.117283665,-0.16162647,0.047362797,0.08419499,0.068221726,0.16327684,0.09085725,-0.13671501,-0.062060542,-0.122862935,-0.17756581,-0.010027862,0.013860697,-0.018708775,0.042102966,0.015188938,0.059690103,-0.1444558,0.13187306,-0.010733177,0.0053927875,0.028998265,-0.13849844,0.10745208,0.031196956,-0.044327468,0.099424005,-0.0161533,0.17562452,0.17810932,0.039986216,0.046237078,-0.16558737,-0.047187228,0.09046735,0.12326396,0.08912988,0.13848582,-0.1554263,-0.070114985,-0.008732196,0.091158435,0.15834183,0.0460125,0.14226732,0.17056331,-0.1526497,0.11223469,-0.10814627,0.1548028,-0.16367267,0.12540996,-0.078276135,0.0657445,0.05810748,0.123406865,0.08783158,0.05944736,-0.08173379,0.14764132,-0.098976076,0.14959006,-0.06964763,-0.08054831,0.13149251,0.09956538,0.10503701,-0.07311149,-0.002739283,0.121071815,0.053930055,0.14818369,0.014407988,-0.024828233,0.03936277,-0.018992152,0.03789035,0.12042213,-0.24008285,0.0898192,0.116205394,0.2966195,0.32607913,0.19186759,0.102423355,-0.14030683,-0.30170146,0.32296792,-0.15595946,-0.3820777,0.3109964,0.18771076,-0.055147022,-0.30795366,-0.023551757,0.059549443,0.32333222,0.37619895,-0.24701284,-0.33989128,0.12805326,-0.12011284,-0.19478807,0.07350969,0.1372993,-0.26817387,-0.0806298,0.070845276,0.115625426,-0.30341336,-0.2981474,0.32075402,-0.3317835,-0.38982642,-0.098445445,-0.30288413,0.37956288,0.38544905,0.1088615,0.19935092,-0.22473678,0.19443664,-0.104914054,0.13389392,0.083254546,-0.23868272,-0.26417837,0.35912254,-0.2845252,-0.056676496,-0.39359367,0.24015814,-0.38264027,0.37158445,0.1851049,0.12804683,0.28300732,-0.13192989,0.2743851,-0.35191914,0.10210425,0.12946123,-0.15034729,0.11948745,-0.15558362,0.16611291,-0.14887446,0.04501467,-0.07785777,0.07423133,0.07059675,0.17161223,0.050817423,-0.14336255,0.0007260216,0.17610298,0.045565844,0.038627103,0.09508535,-0.17608151,0.08776898,-0.029005144,0.13381898,0.15592207,-0.08527536,-0.07160718,0.09070925,0.0023292666,0.16471346,0.15408966,-0.01051271,0.171797,-0.15352662,-0.027680406,0.1563965,-0.018455325,-0.11113799,-0.044132892,0.058338065,-0.05898698,0.12585616,0.17283167,-0.046296857,-0.014376374,-0.079255946,-0.067077085,-0.008717886,0.1284127,-0.093072884,0.13822691,0.044592123,-0.036860455,-0.15204583,-0.15579237,-0.030635215,-0.14770915,-0.08138942,0.12207537,-0.104600176,-0.063793935,0.030695971,0.07162484,0.08010451,0.13548625,0.1632361,-0.09477519,-0.16791226,-0.099842556,-0.004942835,-0.122661635,0.08018794,0.14009613,-0.0059810593,-0.026257,-0.026508912,0.14973517,-0.09414988,0.12867884,0.09367065,0.04816139,-0.011224991,-0.097655445,0.0111382315,0.11529443,0.14459844,-0.108235784,0.028781049,-0.037692286,-0.17039591,-0.12051141,-0.107258625,0.01844325,-0.17364223,0.16137797,-0.0043228758,-0.0141454935,-0.08685521,-0.1382878,-0.0017202868,0.15395692,-0.1322508,0.099342525,-0.082593575,-0.023209637,0.06600624,0.08560236,-0.07547548,-0.03347922,0.025285453,0.10605749,-0.14117883,0.10049825,-0.015342148,-0.14434926,0.0926327,-0.062866345,-0.17359741,-0.15672337,0.121068105,0.11066628,0.06739534,-0.14734331,-0.11495365,-0.12648612,0.02229998,-0.09236743,0.105415106,0.13768081,-0.030892923,-0.025561526,-0.087750755,-0.0051140347,0.13788603,0.03267135,0.06006407,0.05978607,-0.05701302,-0.07796049,-0.14980824,-0.043181445,-0.06256207,0.007017511,0.1502435,0.054319713,0.1519882,0.036913246,0.05614902,-0.0026065183,-0.14125207,-0.1401511,-0.032431748,-0.13469532,-0.04850694,0.09921436,-0.09082445,-0.13844936,-0.13136669,0.05979696,-0.047100384,0.013628654,-0.10512026,0.09105747,0.15814021,0.15776676,-0.104558215,-0.07007269,0.1259974,0.07274545,-0.079112105,-0.1192976,0.07018623,0.03184255,-0.15282294,-0.0022281676,0.11626513,0.03616833,0.07937278,0.0025081942,-0.18821505,-0.10519419,-0.14745945,0.16825366,-0.11915564,0.01975035,0.003656649,-0.18628322,0.060062394,-0.088445194,0.027514908,0.14037128,0.15937394,0.13985129,0.0074453494,0.23554224,-0.32648334,0.32443583,0.20947604,0.23548001,0.26726657,0.20996186,0.25383183,-0.35580313,-0.4027203,0.14658877,-0.24275647,-0.29516652,0.1170731,0.26779515,-0.23817438,-0.06209638,-0.22334453,0.37736005,0.1916792,0.25777304,-0.08410244,-0.067083605,0.3905915,-0.39112464,-0.21034336,0.10736777,0.20967902,-0.12461981,-0.09632512,0.094166666,0.16436113,-0.35977358,-0.40459013,0.18118235,-0.20622812,-0.2956405,0.15882328,-0.28957656,0.0923569,0.39685312,0.12973042,0.17638823,-0.088553265,0.10073913,-0.30444682,0.28499463,0.1202913,-0.29014125,-0.32987952,0.17154028,-0.35891813,-0.28811103,-0.27527538,0.23274526,-0.35693577,0.08544362,0.36716467,0.23031344,0.19539435,-0.25346485,0.28477192,-0.21810097,0.29199302,0.1022875,-0.023536867,-0.16498034,0.034179162,0.1695924,-0.1072734,0.12817451,0.009136792,0.09645705,0.16810411,-0.15100393,0.010062402,0.03361159,-0.12582305,0.10977598,-0.06083335,0.111548156,-0.10287609,0.0058532674,0.08331248,-0.1346687,-0.1431069,-0.11851108,0.14748205,-0.09599178,-0.04917041,0.18240307,-0.031913064,0.046402976,0.076404154,-0.022265932,-0.00707488,0.12065965,-0.09772285,-0.13500647,-0.11128952,-0.1661252,0.049982503,-0.10077088,-0.16973715,0.16067246,-0.0012669045,0.10178632,0.120476715,-0.12899645,-0.061127216,0.15147893,0.18625122,0.015717123,-0.06297432,-0.056309838,-0.080679275,-0.1726266,-0.008046704,-0.13031937,0.12361482,-0.012538247,0.1444125,-0.14604254,-0.13369752,0.15802388,-0.1038586,-0.049537446,-0.052514937,0.023791665,0.093017675,-0.15329532,0.12200329,0.042274594,-0.100406095,-0.09565194,0.12644897,0.1346908,0.15015057,-0.16172068,-0.046943553,-0.08119777,0.12150254,0.15384318,-0.04040341,-0.11756837,-0.17261378,0.17151314,-0.11050755,-0.050224558,-0.17220148,0.09674655,0.14013578,0.14422773,-0.17915687,-0.16385001,0.03216862,0.11653906,-0.07509738,-0.09189418,0.018825738,0.022243477,-0.13167866,-0.08375877,0.056487307,-0.08925462,0.058634657,-0.1457351,-0.028525382,0.17162171,0.039782867,-0.002570588,-0.07414526,0.08178538,-0.027392017,0.029026726,0.09673814,0.06881817,-0.07522937,0.00972639,-0.13366793,-0.08407843,-0.055219084,0.10477955,0.030551761,0.07706368,0.13628878,-0.13868213,0.1611769,-0.0033194495,-0.017411077,-0.16446267,-0.1341166,0.24913597,-0.39144635,0.12899509,0.3249817,0.33353254,0.14845538,0.2936643,0.080149956,-0.32323328,-0.29107141,0.1740211,-0.09175913,-0.30856353,0.3402978,0.09472874,-0.2018589,-0.27943972,-0.19535886,0.10787516,0.0934146,0.29593047,-0.16893852,-0.26245332,0.056713536,-0.23562287,-0.37352872,0.09622601,0.18862605,-0.37196928,-0.3422212,0.15556552,0.20280792,-0.12330114,-0.12355317,0.38788617,-0.2760296,-0.34611505,0.15070319,-0.18819138,0.36147133,0.20197162,0.24799831,0.40612125,-0.14497796,0.2139667,-0.17833725,0.39202687,0.35994974,-0.3345538,-0.23666388,0.16025868,-0.10561264,-0.3648367,-0.17567196,0.13168858,-0.3396408,0.3112139,0.38624215,0.07000247,0.37326425,-0.24042661,0.34960595,-0.14071363,0.16256666,0.333257,-0.2633703,0.36055472,0.35634845,0.08080857,0.11434341,0.0659045,0.23562065,-0.24580708,-0.228086,0.27811536,-0.40712646,-0.36680895,0.35661453,0.21642946,0.027761962,-0.17271064,-0.22762968,0.12410238,0.22856352,0.39519274,-0.21680103,-0.1952326,0.262092,-0.35970107,-0.09903935,0.22760607,0.14326903,-0.379466,-0.19318636,0.2142412,0.36157623,-0.29230934,-0.081832595,0.13126338,-0.092680685,-0.25763512,0.20587842,-0.29117462,0.3749465,0.062497683,0.27073595,0.4062084,-0.3163646,0.2570015,-0.068013765,0.25465637,0.25746065,-0.36291227,-0.3323767,0.28054366,-0.24609901,-0.33897167,-0.2583945,-0.0163858,-0.39426944,0.23904754,0.19608635,0.20350401,0.16833535,-0.2549027,0.16981182,-0.32852316,0.31244022,0.05945165,-0.3275132,0.25059536,0.22431655,0.32489258,0.19016592,0.2776504,0.39590847,-0.27308413,-0.38118553,0.3606018,-0.14667758,-0.279081,0.07896918,0.2623907,0.014383585,-0.167189,0.036239102,0.2507192,0.30664977,0.24944073,-0.10728115,-0.3734599,0.2572519,-0.3350958,-0.30944377,0.31037384,-0.009557551,-0.39968646,-0.37081942,0.34589466,0.104087986,-0.354794,-0.31927958,0.20593216,-0.102684855,-0.38962883,0.05805599,-0.34182343,0.29524094,0.38538027,0.25865132,0.0969393,-0.36856446,0.29962492,-0.35376415,0.3021864,0.036831588,-0.261359,-0.35115162,0.054801613,-0.22073385,-0.15095402,-0.22978006,0.08104296,-0.36968026,0.10319944,0.2459856,0.34319812,0.051551122,-0.088612355,0.20067611,-0.31384766,0.20614745,0.11059265,-0.26290455,0.39686474,0.19753814,0.3152434,0.08078667,0.33584505,0.26788503,-0.27968082,-0.1259437,0.22397684,-0.15260366,-0.05406581,0.38710746,0.39590716,-0.1239495,-0.14360254,0.06071464,0.43978605,0.1524954,0.33786651,-0.36258045,-0.33244663,0.24107665,-0.3412195,-0.32908982,0.07894816,0.19338726,-0.19640593,-0.3893667,0.43023437,0.38620389,-0.40335992,-0.3372282,0.3392703,-0.29032657,-0.1828524,-0.13294284,-0.35232696,0.28770354,0.09795561,0.21163277,0.20745504,-0.16527939,0.24988553,-0.19757086,0.14300112,0.19952829,-0.26072526,-0.2336722,0.18087104,-0.17119047,-0.18123008,-0.3438599,0.252213,-0.26922488,0.2736098,0.37194064,0.15398401,0.30106473,-0.44128737,0.17342848,-0.108727515,0.23511332,0.07539477,-0.34249583,0.27215838,0.26720262,0.23989052,0.27413872,0.31770733,0.37854996,-0.14062604,-0.34514785,0.35381165,-0.1761349,-0.2846161,0.0824202,0.38840404,-0.09993122,-0.054768186,-0.1433154,0.066152476,0.26184165,0.39017606,-0.18562073,-0.267844,0.12593064,-0.15045805,-0.13272144,0.22601719,0.16807996,-0.29145715,-0.2735364,0.39065856,0.35011262,-0.38777557,-0.13564406,0.30740315,-0.38088113,-0.22165327,-0.040026914,-0.11539401,0.18808469,0.40838286,0.16794752,0.35454524,-0.14839387,0.10833092,-0.32702348,0.1575608,0.38469115,-0.15595731,-0.32339218,0.31221667,-0.3035632,-0.30818003,-0.28660303,-0.00540378,-0.15111125,0.09052262,0.29902494,0.057385724,0.35780424,-0.16688117,0.18386452,-0.31896976,0.2940007,-0.012797406,-0.030790295,0.060713906,-0.11824732,-0.14345913,0.11686571,0.1552951,-0.1620921,-0.02607162,-0.0451001,-0.102197066,0.053689435,-0.07826372,0.16944402,0.14263219,0.039663073,-0.17074105,-0.077040285,-0.04329636,0.10098671,-0.07914031,0.16008747,0.04027384,-0.16964386,0.0926342,0.09957035,-0.0017090125,0.06433653,-0.115567714,-0.14205433,-0.14274235,0.17256626,0.03235879,0.100993164,0.15615201,0.13705032,0.10579027,-0.016742898,0.16511832,-0.10382857,-0.03634913,-0.13357267,-0.06431447,-0.15275224,-0.15295416,-0.02765693,-0.02612289,-0.104344994,-0.13093597,0.0365292,-0.02064026,0.10532069,-0.038941726,0.13016668,-0.015383115,0.110486194,0.14239538,0.09685447,0.052804373,0.15484962,-0.14412399,-0.016345643,0.084839836,0.15373339,-0.16709824,-0.058562268,-0.02630982,-0.19607982,-0.1352875,0.045384068,0.093714476,-0.029144576,-0.009255872,0.16070984,0.06076259,0.03148657,0.03868609,0.055588286,-0.14297548,-0.023392854,0.19219649,-0.01186671,-0.048928313,-0.02325656,0.08546663,0.18987526,0.035924893,-0.050987277,0.16966516,0.17046721,-0.18490162,-0.1457873,0.22618552,-0.0069909864,-0.1191274,-0.13223492,0.1461196,0.019045204,-0.17641461,-0.0027405121,0.22962686,-0.063950196,0.12837155,-0.10909932,0.06716044,-0.028815536,0.00684424,0.15918948,-0.33197418,-0.020830939,-0.06793449,-0.03451958,-0.059156198,0.4244181,-0.1380257,0.11579103,0.03700365,0.059455443,-0.032944154,0.066431016,-0.29039264,-0.1788468,-0.007743814,-0.022446858,-0.122626334,0.10995959,0.13885525,-0.20124286,-0.10352034,-0.073921524,0.13238317,-0.04594639,-0.090347074,-0.05811854,0.21019702,-0.07035707,-0.2066367,-0.06841511,0.016400684,-0.09181743,0.041237842,-0.06327493,-0.116656,0.11566885,-0.17477672,0.03984728,-0.052090675,-0.052982762,-0.11002275,0.10001637,-0.12031423,-0.007104118,0.010432809,-0.05942639,0.013294514,-0.08181535,-0.12644349,-0.09067966,-0.022891054,0.0029236355,-0.1817511,-0.12211202,-0.1295575,0.11940147,-0.18824916,0.09998076,-0.10459912,0.026313411,-0.021514975,0.17434704,-0.035328783,-0.03335807,-0.1036561,-0.109314166,-0.10857405,-0.07654212,0.12736556,0.06945313,-0.007826999,-0.061027937,0.13044874,-0.16945384,0.15885228,-0.101055555,0.02950104,-0.08611513,-0.09826443,-0.03649688,-0.07907463,-0.11705192,0.06320512,-0.025319658,-0.16971488,0.073590465,0.022554992,0.030915808,-0.15340734,-0.08826869,0.047811933,0.0007719195,0.061148565,0.030746885,-0.12496778,-0.086416125,0.09669732,0.11437767,0.03048473,0.117537,0.040615316,-0.0077909925,-0.05240362,-0.06533505,0.08034449,-0.04983001,-0.15033732,-0.15260513,-0.011934955,-0.089473926,0.0016211363,-0.14517583,-0.03703842,0.15994884,0.031316455,0.08569575,-0.15539981,-0.10338428,0.08431315,-0.015006153,0.10833004,-0.16982387,0.12265148,-0.13298017,-0.115579255,-0.058689486,0.031640567,-0.014464482,-0.09438917,-0.11074485,-0.16983368,0.13874133,-0.17297934,-0.03674923,-0.080874704,0.11501142,-0.041221533,0.17382072,-0.038197014,-0.056161284,0.15686499,-0.0010649033,-0.012138671,0.095521785,0.10305878,-0.035283234,-0.14858353,0.08108927,0.34747276,-0.16125505,0.2671545,0.2731033,0.18717438,0.29573917,0.2778936,0.11106318,-0.28819263,-0.3324859,0.27787763,-0.27907175,-0.36614913,0.25128403,0.09148739,-0.10450907,-0.21513456,-0.0904959,0.37163392,0.30643243,0.3593347,-0.2971932,-0.22781153,0.2618399,-0.18887962,-0.32450816,0.22088964,0.23711516,-0.24064593,-0.3472941,0.16412997,0.38792792,-0.22459058,-0.24796501,0.37083364,-0.18917717,-0.36617306,-0.12753968,-0.13212997,0.23767726,0.37810066,0.3596698,0.27982482,-0.23607224,0.34441856,-0.3269166,0.13152996,0.33142182,-0.3356638,-0.35886937,0.14411442,-0.26194683,-0.27712476,-0.4046235,0.00908748,-0.3061038,0.19811454,0.2787056,0.14696835,0.27524012,-0.35479695,0.08307981,-0.22269796,0.37157664,0.07302553,0.16273145,-0.22660041,-0.017163884,-0.18045312,0.047937248,0.021512795,0.054312453,0.19074821,0.12317039,-0.072899655,0.071514584,0.11953298,-0.121737115,-0.18822968,-0.16794808,-0.023162998,-0.010429896,-0.23016313,0.045189198,-0.17118742,-0.0029343239,0.07774506,0.010672974,0.028345162,-0.026547294,-0.04081327,0.09336669,0.08444585,0.09041231,0.13123475,0.09917029,-0.05494754,-0.08931264,-0.16271189,0.17311262,0.15624088,-0.074147575,0.106149144,0.01429813,-0.23300204,0.04208344,0.08179043,0.1800967,0.104857005,0.076695375,-0.00958986,0.02230951,0.11581268,-0.07930802,-0.01348931,-0.08936179,-0.07592623,-0.04127889,-0.06793712,0.15030098,-0.25699165,-0.047598496,-0.1846374,0.037447862,0.16389516,-0.12967156,0.11723464,0.035545826,0.19558734,-0.35742593,0.3191598,0.15466535,0.38187063,0.14875093,0.07894332,0.30020988,-0.07986393,-0.18715174,0.21672945,-0.105961725,-0.15753831,0.22539188,0.14130642,-0.055948295,-0.34989262,-0.076022156,0.3082072,0.34834373,0.3366928,-0.28796756,-0.098736286,0.35765105,-0.21047641,-0.24487484,0.1106566,0.25666195,-0.22870499,-0.29883403,0.3339937,0.079836875,-0.2144967,-0.21131717,0.22662796,-0.26251918,-0.13243769,0.102985576,-0.20247531,0.40125766,0.25438356,0.13012382,0.214908,-0.07100574,0.13868174,-0.03842984,0.24970037,0.16463949,-0.33616278,-0.22181173,0.40191478,-0.2590966,-0.18350634,-0.16372973,0.22618666,-0.19681107,0.048439052,0.15329666,0.36242732,0.26562268,-0.25997707,0.19286118,-0.14439458,0.1667859,0.04332904,0.098041445,-0.17402735,-0.08712414,-0.1837354,0.03524726,-0.07784765,0.007858509,0.0028929664,0.09853219,-0.18444552,0.050739966,0.05964598,-0.07898761,-0.0424706,-0.084250316,0.21433532,-0.038923148,-0.15322241,0.05227575,-0.0034508193,0.15171151,0.18697563,-0.099017814,0.055990994,0.19680849,0.06520369,-0.09055545,0.12198724,0.006075851,-0.16319652,-0.03596953,0.09638511,0.0101929465,0.040524356,0.1990984,0.14680082,-0.011258833,0.011856642,-0.00508505,-0.20364584,0.018716728,-0.11948915,0.009983785,0.010088148,0.27569792,-0.18252034,-0.21680228,-0.07396706,0.19055922,-0.022922218,0.048743963,0.07897369,0.10751835,-0.1853526,-0.11030479,0.063984685,-0.18203738,-0.13194185,-0.21438764,0.19026317,-0.20271981,0.122350805,0.05770748,-0.03860118,0.072219364,-0.14735858,0.023390807,0.014225038,0.15976876,0.07181194,-0.16299507,0.10170681,-0.013266981,-0.08744286,0.013199485,-0.07950569,-0.08662511,0.007920799,-0.14973462,-0.07042829,-0.025664981,0.07427371,0.14733976,0.09898905,-0.11701952,-0.113409616,-0.14032412,-0.11297301,0.17418656,-0.009749397,0.11110365,0.05151942,0.051841266,-0.11475692,-0.13553117,0.18451329,0.14266449,-0.055102497,0.20764008,0.17731817,0.048078373,0.09407268,0.11156099,0.111120425,-0.21672353,0.07909995,0.050001606,-0.18876536,-0.12292227,-0.15776218,0.15038349,-0.09004581,-0.12090294,-0.17677416,0.13206345,-0.0886502,0.13546565,0.10151461,-0.09262953,-0.19635832,0.10883459,0.013867237,-0.22152396,-0.101448536,0.03966871,-0.14968933,-0.04859547,-0.20075245,-0.13307382,-0.1823527,0.061526176,-0.05714993,-0.13512021,-0.04486055,-0.033676576,-0.0865952,0.03372225,-0.115661636,0.1546195,0.06977431,0.12947935,-0.0037703055,0.21828774,0.19625182,0.15569183,-0.20906167,-0.04340083,0.01516128,0.01977338,-0.1209561,-0.0014022809,-0.10511192,0.07671687,-0.12083678,0.23961982,0.186036,-0.063508324,-0.1365879,-0.19975837,0.025932653,0.21952772,-0.17195524,-0.12011202,0.06574892,0.04999306,-0.047452025,-0.035716034,-0.16714291,-0.1483326,-0.1528619,0.04638476,-0.004152129,0.13592367,0.06414086,-0.14303248,-0.049287803,0.10764068,0.039184786,0.057322774,-0.084486544,0.1910885,-0.21157025,-0.064734556,-0.111048765,0.082607575,-0.15816027,0.034678597,-0.003648795,0.013884913,0.005677524,0.025451591,0.08895913,0.11407774,0.13386609,0.15926369,-0.11659339,-0.057108033,0.00023639148,-0.11916627,-0.062342864,0.04423566,-0.012294331,-0.005445391,-0.09014409,0.05380581,0.11990466,0.110987395,-0.17002885,-0.063116424,-0.101984896,-0.091464296,0.058341905,0.11173247,-0.060348094,-0.046498388,-0.046606176,0.07351929,-0.13995163,0.07322463,-0.011039324,0.13113591,0.14039132,-0.11046257,0.10516583,0.04353063,0.010556215,-0.09828576,0.12969916,0.13766505,-0.116643816,-0.09697523,0.06342014,0.15734543,0.10040689,-0.08152435,0.029004008,-0.016574448,-0.11763052,0.15994237,0.06317524,0.058863148,-0.08658431,0.14919399,0.0073021236,-0.1811212,0.09136912,0.0982499,-0.0029882884,-0.06498922,0.00135105,0.022228343,-0.17408207,0.12569842,0.009631905,0.1776189,-0.10289524,0.04526379,0.11161857,-0.16121839,0.13776483,0.10227121,-0.13981026,-0.09468156,0.047309056,-0.15472026,0.024948085,0.18370701,0.0040428215,-0.13349299,0.052894212,0.15618016,0.024965594,0.14399306,-0.14541881,-0.00887043,0.061115846,-0.011454768,-0.1333318,0.09096367,-0.03290491,0.05534112,-0.10042069,-0.14249673,-0.12845054,0.12171275,0.14534883,-0.14419508,0.1131228,-0.10217604,-0.15465549,-0.125593,0.06155934,0.11266062,-0.1234837,-0.008260372,-0.18894453,-0.052374445,-0.05725796,0.11257012,0.13009998,0.113293424,-0.12571518,-0.0585788,-0.045851193,0.066262975,-0.11819558,-0.09831426,0.13613732,-0.14296173,0.10141131,0.18380061,0.012164766,0.14983574,0.13224359,0.008092339,0.13678649,0.08597602,-0.06641101,0.14965028,0.08251173,-0.023255385,-0.043439694,0.10766182,-0.058296967,0.16085723,-0.069103956,-0.15178111,0.09007177,0.10612671,-0.05250417,-0.031810924,0.13545264,-0.08236547,0.15678447,-0.16933322,-0.12871195,0.104216434,0.06575145,-0.05888261,-0.10996443,-0.010205557,0.116495825,-0.11667352,0.047580156,0.068646826,0.102566384,0.05389971,0.16437596,0.09256531,0.007041786,0.06787072,0.07757955,0.007921286,0.14715692,-0.039394867,-0.14954382,-0.028339934,-0.1315653,-0.029241258,-0.15256464,-0.12173781,-0.10389365,-0.14708413,0.08735677,0.09218262,-0.06973381,-0.15437846,-0.10475345,0.11405588,-0.090980224,0.009318579,-0.046815403,0.054408014,-0.09247237,-0.092094935,-0.16346042,0.03590417,0.1513058,0.16494763,-0.074182294,0.14760163,-0.005936685,-0.028791543,0.13445665,0.04194177,0.03734351,0.0702998,0.29782072,0.2339629,0.13253051,0.037686914,-0.05771932,-0.08610955,-0.004179553,-0.14237504,0.051950306,0.05176442,0.06657785,-0.12571587,-0.2707316,-0.11497143,0.006006695,0.10578079,0.09123533,-0.14635043,-0.25138286,0.24089435,-0.08163273,-0.11220059,0.11097669,-0.037498713,-0.005480647,0.034405824,0.089206606,-0.0052981908,-0.21239023,0.0373332,0.17566398,-0.16731524,-0.017801614,0.15265758,-0.24510854,0.19981253,0.10073185,0.27433938,0.1146208,-0.18922836,-0.033289187,0.010890075,0.0853949,0.24344838,0.052286606,-0.19995172,0.26166353,-0.2988447,-0.17961955,-0.23565112,-0.0035712842,0.030825812,0.18836078,0.030912196,-0.058897056,-0.0007804091,-0.23209837,0.123777926,-0.0977871,0.01184274,-0.03648767,-0.11649584,-0.023722861,0.13636461,0.113182686,0.05431062,-0.04262245,0.13541262,-0.008209689,-0.017276268,0.0887125,-0.14080775,0.16151138,0.097522326,-0.022788035,-0.111666255,-0.1242444,-0.18857384,0.037294433,0.0577534,0.14443426,0.034414954,0.06260544,-0.16759218,-0.14192446,-0.06829274,0.14924493,0.029794633,0.049571935,-0.14520961,0.010559008,0.012513063,0.07574556,0.121734135,0.046309475,0.020905746,-0.15983315,-0.14742696,-0.14328533,-0.16115555,0.1069365,-0.13010544,-0.05627431,-0.015010283,-0.18206711,-0.049248293,-0.13013977,0.07974211,0.056679673,0.046096977,-0.1122483,0.042332157,-0.081200235,-0.09569291,-0.12145682,0.014340337,0.13216694,0.05915013,-0.124177806,-0.14568365,0.086624585,0.08233309,-0.1403275,-0.04615133,0.38264087,-0.18721479,0.15319625,0.34851688,0.27728134,0.2678777,0.09953662,0.19243325,-0.09070055,-0.20203418,0.23954907,-0.06160152,-0.25459296,0.3119656,0.28185,0.07726177,-0.40230998,0.03623369,0.13398153,0.14570881,0.07720314,-0.3911898,-0.362956,0.16698211,-0.24124287,-0.36264536,0.03990024,-0.013384673,-0.23691818,-0.3960792,0.28111634,0.21042927,-0.079152174,-0.27312377,0.40268752,-0.2796013,-0.0800808,-0.05292676,-0.36181292,0.11648244,0.22432363,0.14151695,0.3395243,-0.3542893,0.33593684,-0.34803513,0.38109228,0.33268538,-0.15652776,-0.1217564,0.19118094,-0.17286287,-0.07206297,-0.38075134,0.028579444,-0.16073313,0.37614357,0.27421936,0.39034283,0.25061765,-0.24897723,0.0696732,-0.18312228,0.085409395,0.3115529,-0.3620863,0.36177388,0.10228596,0.2746453,0.064677306,0.31223115,0.2529042,-0.32441404,-0.25805923,0.10844323,-0.16860573,-0.17333853,0.12605445,0.14486298,-0.032962456,-0.3686152,0.06500761,0.24809383,0.24065076,0.30604738,-0.16895348,-0.14616919,0.17388201,-0.17987831,-0.3996569,0.26474428,0.13268119,-0.35953662,-0.33041587,0.36496043,0.14546409,-0.3317886,-0.21800204,0.27204156,-0.295582,-0.09960884,0.08694509,-0.17144081,0.091180086,0.09068525,0.34991592,0.10073962,-0.22032502,0.3171884,-0.34474757,0.40294555,0.31407538,-0.34559557,-0.10702191,0.3681478,-0.36395165,-0.25884318,-0.33900696,0.045924388,-0.2897375,0.09819873,0.27828634,0.38085034,0.33791447,-0.20810494,0.30964714,-0.3985981,0.24388064,0.22104111,-0.15224628,0.44242045,0.15590411,0.3950713,0.019050742,0.23750877,0.44380575,-0.45666778,-0.35067376,0.41914147,-0.19386868,-0.32555068,0.33588797,0.44863108,-0.1075007,-0.28925854,-0.20139624,0.33917034,0.30576897,0.37222928,-0.1128031,-0.2765017,0.3618372,-0.30147943,-0.43811268,0.06776922,0.21982625,-0.11254901,-0.37108982,0.27572873,0.113093846,-0.32582563,-0.37707317,0.24399559,-0.21238683,-0.27333888,0.02274257,-0.46215215,0.17275023,0.34488785,0.2344471,0.25031397,-0.29251063,0.28659976,-0.2198284,0.45559773,0.12698098,-0.122615404,-0.25776884,0.4152216,-0.38750818,-0.19981278,-0.16469227,0.12422182,-0.14905562,0.3249495,0.41509354,0.28431106,0.42607296,-0.46097726,0.22379011,-0.28581536,0.2279479,0.06667129,0.07881847,-0.13377544,0.1516327,0.08108381,-0.09988874,-0.14834091,-0.11578279,-0.10759956,-0.012220263,0.025045859,-0.05093406,-0.14261289,0.017581424,0.02234063,-0.11820523,-0.13217925,-0.07418355,0.05053622,-0.05136247,-0.1790173,-0.056269288,-0.13439254,-0.15195109,0.0015174601,-0.14378372,0.08257546,0.07080549,-0.1094097,0.07879718,-0.07008927,0.05338542,-0.14005823,0.0321993,0.11486564,0.14711256,-0.1050188,0.04245568,-0.0012272836,0.04009476,0.11348883,0.0841922,-0.10995352,-0.034101356,-0.04305376,0.12632881,-0.12806682,0.06447508,-0.14237043,-0.15328671,-0.1363523,0.12163681,-0.016406322,-0.10774265,0.11235384,0.022476546,0.06302658,0.028950764,-0.097735435,0.12331104,0.14812039,0.044671196,0.118421614,-0.09547693,0.17180339,-0.043516956,-0.13066962,0.14305115,0.11019919,0.05668039,-0.11668898,-0.07771978,0.13362454,0.13957636,-0.11508033,-0.049952697,0.008608304,-0.12486341,0.13900684,0.08906354,0.13072355,-0.055967137,0.14300786,-0.05004209,0.05442452,0.014011382,-0.013931914,-0.11483794,0.16560504,-0.10038022,0.16735357,0.14671817,0.074031614,0.14165123,-0.059692413,-0.03756523,0.089998275,-0.004372103,-0.10937347,-0.084453724,0.05040919,0.056395497,0.0944373,0.16908024,-0.07955974,-0.12444076,-0.15882756,0.067210354,0.09549083,-0.06397091,0.13706309,-0.009716028,-0.018346671,-0.13438477,0.09227667,0.119750194,-0.0671468,0.1281567,-0.040484935,0.17487542,0.047956515,-0.012607386,-0.006045797,0.0683581,0.12623525,-0.1434085,0.04587796,-0.09900082,0.35859808,-0.0664391,0.25821543,0.13591495,0.40392748,0.2221486,0.2073792,0.2575616,-0.2990633,-0.2329082,0.29086974,-0.31274703,-0.24514316,0.075377546,0.21344711,0.0709688,-0.2812908,-0.13669664,0.37789443,0.2244639,0.26266724,-0.22653382,-0.39446563,0.1996963,-0.3271733,-0.34398854,0.06199508,0.26672357,-0.3667876,-0.14601916,0.19938898,0.19468105,-0.20817775,-0.18493463,0.32256037,-0.2462953,-0.3043764,0.18333867,-0.18676735,0.12681024,0.1873469,0.33297697,0.3991255,-0.32623428,0.16414231,-0.3698008,0.3278164,0.230184,-0.07389154,-0.21022613,0.12858696,-0.12792845,-0.35164255,-0.11460414,0.25390363,-0.11126143,0.16814205,0.25352857,0.12019939,0.37514195,-0.35670492,0.11074109,-0.3616207,0.12934169,0.018167336,0.1467605,0.058447964,-0.14033495,0.010465105,-0.10853004,-0.1569699,0.017488223,-0.017457169,-0.15129875,-0.053321984,0.0032017368,0.12910709,-0.016691174,-0.15902942,0.16113119,-0.05111274,0.15627696,-0.009267344,0.08092351,0.036000468,-0.02675714,-0.16372281,0.088338934,-0.055677455,-0.016948514,-0.17720419,-0.065948054,-0.07796546,0.025533924,0.10093118,-0.1088338,0.052635252,0.033149276,0.06421582,0.17005259,-0.18942963,-0.0017549571,-0.15760885,-0.010683286,-0.12201438,-0.110895194,0.02976574,0.054321002,0.12762627,0.11101737,-0.1413242,-0.092836276,0.0735327,-0.107642435,-0.027163131,0.15037121,-0.1160117,-0.08181018,0.16025873,0.009738856,-0.1578211,-0.01714833,0.016813008,-0.13731164,0.1530424,-0.06267865,-0.08810664,-0.05963634,-0.14992608,0.1652731,0.08657384,0.042885613,0.15218039,-0.005886991,-0.15379347,-0.012512503,-0.07563662,0.074600466,0.025909966,0.0028634588,0.00020444288,0.037285324,0.15422867,-0.16099264,-0.16451016,0.012644836,-0.05431464,0.03584945,0.090913534,0.07649163,-0.07456052,0.13360183,0.010879695,-0.043981694,0.118645035,0.12973239,0.03270987,-0.05726871,-0.1627941,0.12763242,-0.054320198,0.18175629,-0.118438564,0.06912689,-0.1382194,-0.15499234,-0.036503986,0.15664572,0.057187654,0.089692555,0.11073477,0.1452731,0.042384766,0.094549336,-0.12455805,-0.020173255,-0.07435522,0.10176183,-0.0451119,-0.17682655,0.16612379,0.010286894,-0.0773938,0.12853047,-0.10781428,-0.053258587,0.12275206,0.09772355,-0.1616155,-0.052595522,0.13154954,-0.04012907,0.008449513,-0.09205886,0.12423634,-0.10358088,0.1316167,0.045451686,-0.16537923,0.030451203,0.092497714,-0.08927787,-0.1630697,0.12718098,0.11974093,0.1516545,0.06356531,0.058543205,-0.048925534,-0.058371995,0.1563387,0.10545905,0.12945971,-0.1243158,-0.10803802,-0.011316349,-0.07117734,0.10306648,0.16529019,0.09182342,0.14457436,0.14472198,-0.11579148,-0.046822567,-0.07057877,0.09601075,0.065764084,0.057879604,0.0005307539,-0.11839517,-0.061285477,-0.011739596,-0.17077908,0.028387528,-0.17009883,0.15710095,0.0059967665,0.089084685,0.11212168,0.008194504,-0.038800575,-0.13254613,-0.1117776,-0.11034563,0.048695028,-0.08789174,-0.017910186,0.119162805,0.015945312,0.117101654,-0.07940768,0.09662839,-0.11847997,-0.062895365,-0.084209494,0.11000605,0.39884588,-0.17648748,0.28646407,0.13169648,0.30104974,0.18299988,0.23135456,0.05208738,-0.3558751,-0.398865,0.13009189,-0.089857556,-0.093038395,0.26824895,0.24182847,-0.16823171,-0.3084148,-0.037805982,0.3189361,0.22135483,0.38229248,-0.24829824,-0.304459,0.26721272,-0.22116645,-0.37617692,-0.030036291,0.07372768,-0.11156656,-0.34498212,0.37186125,0.13090014,-0.30584818,-0.20344271,0.113496184,-0.14622402,-0.15297759,0.039129306,-0.3043762,0.16540286,0.062051278,0.36388108,0.084145315,-0.1618781,0.34541065,-0.21324189,0.17614774,0.37205285,-0.20492421,-0.06764704,0.3530077,-0.38988072,-0.4111938,-0.19152716,0.3084314,-0.20114031,0.23077993,0.106053814,0.32420313,0.23944764,-0.13853231,0.09734641,-0.37794638,0.35257423,0.14268665,-0.08173981,0.17623232,-0.1398621,0.035647538,0.096200466,0.13732518,0.08742007,0.07547546,-0.1058434,-0.059958994,-0.16925326,-0.13645083,0.11580836,-0.14051197,0.1505066,-0.11548317,-0.13754001,0.10501233,-0.12949534,-0.0070025357,0.036456257,0.1710494,-0.061344847,-0.18709776,0.03195015,0.020599065,0.1311613,0.07544706,0.13817501,-0.15991451,-0.04623272,0.011263703,0.071534246,0.059830602,-0.040472865,-0.041619685,0.17077003,0.118012674,0.027441954,0.014706074,0.10807295,-0.08158862,0.05248174,-0.15188198,0.028324232,-0.11738004,-0.09580993,-0.18144651,-0.070721656,-0.1054091,-0.13153657,-0.054321963,-0.07537656,-0.12515378,0.14766133,0.1910843,0.1648617,-0.09340182,0.110003784,-0.18930481,-0.06417156,-0.092242554,0.05814768,-0.055026256,-0.14838113,0.0688279,0.045339614,0.11379571,-0.090485446,0.07704793,0.1322694,0.09463156,-0.14851317,0.19263615,0.090155266,0.017890513,-0.15557945,-0.16576967,-0.1149263,0.032069568,-0.014472812,0.16459104,0.13991764,0.01932828,-0.17697452,0.009643885,0.021455266,-0.111024484,-0.029946199,-0.083194114,0.04240278,0.033605143,0.069350936,-0.02049357,-0.088768035,-0.038742255,-0.047749262,-0.07877583,-0.13461132,0.006980891,-0.11512715,0.1324148,0.037083995,-0.15453449,0.17382798,0.0001929375,-0.17132515,-0.045026723,0.16320464,-0.14424664,0.030277824,-0.10922023,-0.055441067,0.15452878,0.02770384,0.14978984,0.07471305,-0.01756652,0.10746749,0.12521167,0.15522233,-0.13955125,-0.11248928,0.07265707,-0.027142525,0.15658695,-0.084207,0.09791115,0.13767728,-0.0037092816,0.059402037,0.17980742,0.06595343,0.094519936,0.11310099,0.0065704095,0.13838731,-0.05409425,-0.1182846,-0.15462779,0.0028539912,-0.099623755,0.0017220825,0.07588728,0.068218194,-0.106902555,-0.15158921,-0.067179054,0.062310264,-0.046080697,0.09738853,-0.11738513,-0.015775593,0.116556756,-0.1305672,-0.049215894,0.15994635,0.038576853,-0.065286696,0.03911003,0.03366715,-0.09341489,-0.08762926,0.1712319,0.16687542,0.08750994,0.010857803,0.10519236,0.099086635,0.037423648,0.051646408,-0.073712945,-0.029540392,0.07705469,0.12758647,-0.08491981,-0.16285521,-0.030475672,-0.084713094,-0.044669934,0.14107946,-0.16506797,0.09230445,-0.10215422,0.05564761,0.038642064,0.11658493,-0.17712808,0.13935603,-0.15469132,-0.10886022,0.1499288,0.09566721,0.15540256,0.006790242,-0.15708192,0.14082804,0.0091268355,0.062016785,0.12806536,-0.097280376,-0.15884846,0.005780307,0.029315492,-0.1514955,-0.037430763,-0.118379995,-0.0734165,0.16623342,0.08934112,-0.049007352,0.039221134,-0.12701899,0.09737919,-0.09884571,0.04416711,0.08960085,-0.17936887,-0.17632012,0.029607924,0.1538541,0.03333577,-0.17276545,0.08202662,-0.049906135,0.16309938,0.142418,0.0048088487,-0.10205181,0.038302105,0.14650866,-0.016789954,0.14847548,0.07032918,0.17168455,0.013457606,0.22644089,-0.14207056,-0.17574771,0.25172493,-0.072955325,0.1263064,0.055682037,-0.13242334,-0.14914796,0.07279,-0.015071205,-0.11607973,0.07285604,0.14329363,-0.17420918,0.18269941,-0.0038246342,0.119930446,0.05325134,-0.16964355,0.33409518,-0.29634652,-0.4172406,-0.435037,-0.18939793,-0.36823902,-0.14096077,0.26043105,0.2947949,-0.25300822,0.28613982,0.487587,-0.15142646,-0.38674125,0.14323507,0.41048908,0.20209834,-0.39692923,-0.4763559,-0.28420898,0.37270156,0.19467886,-0.18659963,0.2525157,0.47197738,-0.32005244,-0.31268522,0.17251264,0.3939115,-0.32102427,-0.39925367,0.2485914,0.33175394,-0.46057844,0.48052493,0.17870279,-0.13779688,0.42164004,-0.21075779,-0.15539055,-0.47952652,-0.40678635,0.28333232,-0.19697577,0.38765785,-0.3814751,-0.17672342,0.3355122,0.2893014,-0.3177689,0.45067725,0.46474162,0.20188577,-0.11212314,0.47610143,-0.35065946,-0.22041959,-0.4296613,-0.41476294,0.25418922,-0.40522978,0.26832744,-0.223692,-0.058378194,0.26919067,-0.17139636,-0.2458665,-0.3683891,-0.21365526,-0.24183033,-0.09053562,0.24693747,0.34596494,-0.262441,0.38848028,0.119097106,-0.2079153,-0.2002242,-0.28586423,0.32841912,-0.3605987,-0.08828151,-0.17104374,-0.3844007,0.11232301,0.083571404,-0.16612934,0.14159791,0.29252696,-0.27274868,-0.3377443,0.08310414,0.20319462,-0.25651377,-0.1358336,0.330301,0.24443017,-0.14775746,0.38036683,0.28916177,0.47364888,0.13876006,-0.39808336,-0.12365133,-0.3353944,-0.1300997,0.3563004,-0.33038867,0.3215019,-0.33241484,-0.40407938,0.35334155,0.2795071,-0.27220267,0.23925206,0.14481804,0.37135693,-0.13779931,0.059041563,-0.25563928,-0.25661716,-0.4180686,-0.26594895,0.22465956,-0.38176322,0.34625256,-0.19879541,-0.023405887,0.16153498,0.16712819,-0.102251336,-0.17342424,0.093501754,0.0520498,-0.052004803,-0.08333623,0.07868859,0.0069990926,0.007993798,0.08240825,0.07004614,-0.11325723,-0.048322707,0.15303187,-0.14160727,-0.046573155,-0.14092228,0.13138379,-0.082069494,-0.13708104,-0.14643556,0.09493833,0.15147115,0.053190377,0.079563744,-0.16186832,0.05172855,-0.13661894,-0.14244388,0.068901554,0.05146966,-0.005647535,-0.15707707,0.09501011,0.045010973,0.0069990763,-0.14861774,-0.11945057,0.12516557,0.10634276,-0.05125285,-0.00779967,-0.039124344,0.03831164,-0.10831176,-0.050096877,-0.14385553,0.0642124,0.012063477,-0.100358486,-0.1345399,-0.1447261,0.010873177,0.034487154,0.0060103647,0.11037109,0.14997008,-0.108647384,0.033011056,0.03356269,-0.16661853,0.061461274,0.10919492,0.16556789,0.14037132,0.05096203,-0.021153629,0.08628773,-0.10153289,0.09803715,0.007963647,-0.14618021,-0.15906444,0.13375768,0.066091925,-0.14136533,0.09939913,-0.010388398,-0.014323311,-0.09691012,0.06961389,0.084553085,-0.12493324,-0.15979142,-0.05034991,-0.07845455,0.05166778,-0.019174414,-0.15469636,-0.019706497,-0.12354128,-0.15373653,0.026738254,0.14621602,-0.10770045,0.024081318,0.118780605,0.06019004,0.018135894,-0.050919313,-0.077498846,0.012230699,-0.022707542,0.1494556,0.03627379,0.03216641,-0.120420225,-0.1356034,-0.02461182,-0.084845506,0.16732214,0.11195303,0.1545357,-0.013030962,0.064500354,-0.1471751,-0.044466335,-0.15331554,-0.11388521,0.05015245,0.12790833,0.007748424,0.15407859,-0.108414,0.14429064,0.025345434,-0.11300153,0.26992783,0.24623995,0.082960725,0.12509233,0.269054,0.15573576,-0.18691815,