{"model_state":[{"net":{"layers":[{"weight":[0.08786518,-0.06841263,0.053476825,-0.036701333,0.06906013,-0.0061111334,-0.052463584,-0.05216935,-0.19335344,-0.021314804,-0.021525897,-0.02051848,0.17313418,0.0019627777,-0.11716812,0.13287197,0.031350043,0.17015977,-0.01976302,-0.15771843,0.062372465,0.06522223,-0.17661858,0.013253892,0.05076794,-0.094666384,0.030042699,-0.064582184,0.07336985,-0.058551855,0.0641087,0.021505289,0.010573255,-0.06430313,0.016770963,0.12454159,-0.057727266,0.18868883,-0.013039113,-0.124819286,0.07611463,0.047666527,0.050296582,0.09932308,-0.06332881,0.030166965,-0.20081969,0.1193418,-0.073470324,0.13111794,-0.06717139,0.054540742,-0.0060819564,-0.013772551,-0.049022786,-0.17284411,0.10047361,0.06316153,-0.050139233,0.0006328445,0.16811664,-0.09344025,0.15653105,0.11888635,-0.0654265,0.070143014,-0.073977664,0.08157439,0.030020397,-0.06350066,-0.022112988,0.008144165,0.07161083,-0.000307419,-0.04038091,-0.11525809,-0.017588507,-0.02871127,0.14851232,0.05501101,-0.22329731,0.13504145,-0.023741761,-0.14609349,0.14066371,0.12767525,0.15413557,-0.09440647,0.053339485,-0.13206837,-0.062011562,0.23803581,-0.112881064,-0.008690229,0.027232876,-0.05967074,0.056353156,0.09044117,0.15652883,0.088726215,0.061084606,-0.012404088,0.03005294,0.0907844,0.12208896,-0.03460944,0.08916739,-0.066450134,-0.025459852,-0.08530935,0.078646146,-0.04354258,-0.10096929,0.103593655,-5.5468845e-5,0.13596918,-0.052863386,0.11482896,-0.11006265,-0.12576324,-0.116794154,0.054122664,-0.1244821,0.16217364,0.14249319,-0.07354356,0.13919409,0.04995074,0.13987254,0.0838093,-0.019252287,0.091331914,0.13446932,0.01162101,0.00079669815,0.16200757,0.030098613,-0.07611988,0.13541548,0.056204278,-0.12164033,0.12304307,0.10755563,0.19545816,0.082947135,0.04533085,0.043161187,-0.19625862,0.06829992,-0.054016292,-0.014702334,0.10603831,0.0226869,0.11804169,-0.08098638,0.14408806,0.05865655,-0.12562484,0.097782634,-0.011724621,0.1478409,-0.09454176,-0.056858465,0.057471566,-0.0134632895,0.03824694,0.02064711,-0.033706382,6.470858e-5,-0.075631864,0.11905812,-0.106567845,0.04182269,0.109429255,0.07370367,-0.05070192,0.049531013,-0.06913738,-0.07940128,-0.10038402,0.1293661,-0.019932857,0.010634392,-0.15501696,-0.015020145,0.1787474,-0.0037991686,-0.19330403,-0.05640636,0.11467951,-0.1814498,0.010564414,0.069711804,-0.006470044,-0.07632745,0.07203039,-0.030763088,-0.096360214,0.0006362869,-0.05573839,0.050252922,0.14443669,-0.131063,0.06940008,0.13564461,-0.07577224,-0.055252865,0.055427972,-0.004049612,-0.10490337,-0.10001344,0.089556545,0.20488954,0.14803028,0.014143268,0.038223866,-0.08082302,0.08168124,0.19101246,0.013052969,-0.10789351,0.024455257,0.043926273,-0.08818482,0.0057413867,0.08360979,-0.046585113,-0.05053733,0.101423495,0.128923,-0.041292083,0.13607852,-0.051756963,-0.04821432,0.11051024,0.107654445,-0.14840965,0.16533536,-0.07650786,0.029043052,-0.053509314,0.11153824,0.1430901,-0.06096697,-0.09286364,0.048853237,0.07785827,0.15803732,0.1868113,-0.14729844,-0.067216896,-0.03734233,0.030778088,-0.14260608,-0.18207096,-0.00058838923,0.13925704,0.01190359,0.0931225,-0.03486398,-0.011993096,0.038198408,0.13573517,-0.0879242,-0.058676954,-0.114121296,0.11541299,0.049848013,0.12682462,0.1757508,0.09422417,0.038553793,-0.07169792,-0.07650442,0.053080697,0.05490926,-0.08031545,0.095637396,-0.052233983,-0.034066077,0.011694662,-0.13454801,-0.0043421993,-0.09546991,0.1540402,0.04144,0.11979112,0.04172985,-0.08310263,-0.1261941,0.048121285,0.06009778,4.2408356e-5,0.029536985,0.0042077117,0.03029376,0.026577506,0.05675087,0.061624397,0.15717909,-0.07245474,-0.066150576,0.11718676,-0.11776873,-0.1365048,-0.11585309,0.108015455,0.18218699,-0.03747834,-0.09242196,0.10036988,0.18739095,-0.022231359,0.08224947,0.14716302,-0.0191604,-0.12713648,-0.002417972,-0.119713,0.17822954,0.003838529,0.03720921,0.17123738,-0.043809816,0.07432221,0.019534377,0.07621448,0.12129079,0.03844232,0.0673988,-0.15970567,-0.013725043,-0.06674902,-0.04428556,-0.026689814,-0.15832265,-0.051100075,0.18000637,0.020833435,0.1359011,0.012125355,-0.104324415,0.02739013,0.06607459,0.0062309788,-0.10145499,0.10545547,-0.11056789,-0.024304323,-0.036717057,-0.08206767,-0.038436465,-0.01693283,0.11929532,-0.05192187,-0.05315477,0.038191937,0.050582834,-0.030524507,0.0911717,-0.037952133,-0.10306329,0.042050913,0.05255253,-0.04929938,-0.12588952,0.041952044,0.08790773,-0.07845669,-0.09256743,0.12144413,0.03511293,0.08203362,-0.045949306,-0.16195081,0.033941973,0.037927877,-0.037446994,0.11345743,-0.15600343,-0.09087057,0.1178437,0.033480614,0.050036848,0.049962524,0.037076242,-0.042254094,0.03298352,-0.08348368,0.023339018,0.007285823,0.08825282,-0.0023425925,0.16431704,0.07592201,0.1231642,-0.060513783,0.053992588,0.08583434,-0.056459773,0.022596149,0.09535768,-0.06298359,-0.15429422,0.057526294,0.063932166,-0.04364742,-0.07808732,0.0115806805,0.1104857,-0.13942926,0.038991734,0.07575633,-0.015584205,-0.06453818,0.045125913,-0.2155714,0.0038934154,-0.02908678,-0.107579865,0.16658548,0.14456199,-0.06334409,-0.18135722,0.039947968,-0.034132626,0.11906616,0.07629824,-0.09306824,-0.11745338,0.11592828,0.007838787,-0.006363094,0.17303944,-0.12244536,-0.12716556,-0.05577024,0.0018195865,-0.039228655,-0.22143391,-0.12589706,-0.025871882,0.06931703,-0.12545274,-0.11436985,0.16392827,0.123033516,-0.14155142,0.08954583,-0.111095324,-0.09906833,-0.048675478,0.059516516,-0.065007836,-0.14621389,0.03810859,0.10030439,0.0073130303,0.030829553,-0.096201636,-0.074971214,-0.022325313,0.0054309126,0.02740989,0.13031518,-0.10854904,0.002928074,-0.099709205,-0.0070311544,0.09630613,-0.059307832,0.036750287,0.045936815,0.096637085,-0.065697186,-0.03840609,-0.047491204,-0.14282183,-0.06162683,0.039381854,-0.13625763,-0.12780313,0.033890188,-0.074108124,-0.10210222,0.0038106248,-0.002278293,-0.15672925,-0.13442504,0.11193724,-0.00530536,0.09086782,0.14053035,-0.08297322,-0.14478917,-0.058311317,-0.027238896,0.055709317,-0.058381192,0.017000156,0.1297722,0.09077938,0.08094464,-0.050974358,0.12067034,-0.11756246,-0.10096666,-0.023562413,-0.04963887,0.117889926,0.047538653,-0.063056916,-0.021537483,-0.22622709,-0.14523433,0.07336824,0.09628011,-0.154262,0.11836241,-0.11969251,0.050283834,0.00806084,-0.05274905,-0.04475373,-0.035080995,-0.14027737,0.028918775,-0.018118795,0.11837493,-0.099736586,0.09587573,-0.066712394,-0.0061518024,-0.09548279,0.19328657,0.04233656,0.12702703,-0.11400072,-0.0016659795,0.0838657,0.1381472,-0.11162344,0.06480168,0.1326083,-0.038573436,0.004408676,-0.006032371,-0.1381466,0.04767406,0.12603605,-0.08899063,-0.07883313,0.034297284,-0.15672182,-0.09566503,0.0046291365,0.06626844,-0.15884927,0.05467928,0.0404435,-0.17103904,0.0068231095,-0.029611701,0.021292616,-0.025803499,-0.155496,-0.0140140625,0.107056975,0.15604448,0.010951477,-0.112794735,-0.018720824,-0.042052336,0.10223136,0.002311401,-0.060194798,-0.009169268,0.14098944,-0.11501011,-0.09366933,-0.082089156,-0.0437772,-0.17783281,0.024168853,-0.18341637,-0.010537319,-0.02867791,-0.1663499,-0.031878173,0.08974168,0.0994859,0.020268004,0.08898701,0.00045623071,-0.068926975,0.11581547,0.08860386,0.059033677,0.11943731,-0.11349882,0.16528232,-0.08722386,-0.093033895,-0.06371705,0.035493493,0.11522314,0.11108001,-0.048525725,-0.13035645,0.016696792,-0.13759539,0.13366565,0.08231972,-0.12873779,-0.14344725,0.02213308,-0.13931799,-0.044433217,-0.08146669,0.103000276,0.055962693,0.023708835,0.13847719,0.011390828,0.094728805,-0.033244412,0.010208487,-0.039304238,0.07652098,0.010937271,-0.06720735,0.09334013,0.08834666,0.11621155,-0.18806657,0.026953822,-0.009571145,-0.12095559,-0.12298334,0.0071429247,-0.037943214,-0.14762937,-0.03372868,0.062358983,-0.14904955,0.07062515,0.11331911,-0.112162285,0.050080087,-0.045028117,0.08177168,0.048786152,0.029760472,-0.114150725,0.08201197,-0.12718439,-0.03865569,0.04934702,-0.039603155,-0.06184652,-0.07302911,-0.23203443,0.06803282,-0.161759,-0.0023638958,-0.10071895,0.17294541,-0.02707203,-0.06374949,-0.07034382,-0.19887558,0.081766844,-0.16615064,0.06016815,-0.042755328,-0.14444062,0.062110048,0.06692615,0.07905596,0.0012029941,-0.06581662,0.035578076,-0.09809161,-0.20121084,-0.091237806,-0.06185786,0.008882136,-0.026694033,0.1712138,-0.15371738,0.04564216,0.14509511,0.14037468,0.061627895,0.092905164,0.06276779,-0.043275606,0.12159432,-0.022926515,0.018369272,-0.023882015,0.060814347,0.06961818,0.08095527,0.12700847,-0.14501594,0.03606415,0.15106115,-0.14509387,-0.0899527,-0.07611861,0.057379086,-0.1324,0.054988638,0.11261133,0.07631209,-0.08647527,0.08162072,0.08257135,-0.11023127,-0.16881628,-0.099147275,-0.17453776,0.052279286,-0.12270357,-0.18556246,-0.044516664,0.06768036,-0.124759294,-0.033809032,-0.13027094,0.18381369,0.034727294,-0.05571405,0.029134223,-0.02325541,-0.09911985,0.10322381,0.05526733,-0.043445803,0.14740539,-0.0015868992,-0.055734314,-0.0044892873,-0.014676347,0.081973895,0.04320128,0.1157483,-0.2272438,-0.036017712,-0.13678063,0.094039135,0.11458095,-0.027688198,-0.18738934,0.0881855,-0.11499906,-0.12883136,-0.002946524,-0.06346208,0.21639863,0.024883313,-0.041945286,-0.0013378824,-0.10862121,-0.17839202,0.0666728,-0.058558617,-0.08534313,0.034034114,0.11821614,-0.024261571,-0.02345572,0.0007003332,0.09726794,0.028081553,-0.019243548,0.14475955,0.071873456,-0.111320496,0.04500895,-0.07354103,0.062613,-0.13392137,-0.021923784,-0.028308993,-0.14163862,0.07671955,-0.122292764,0.09664686,-0.14148256,-0.16769421,0.04532487,0.054074045,0.006076756,-0.10009358,-0.10727845,-0.08406962,-0.10236454,-0.0154094575,-0.011579893,0.09682964,0.09140241,-0.1677827,-0.050468203,0.038221713,0.11507231,0.028368214,0.13946716,0.15074056,0.04675369,0.06113248,0.13710906,-0.01689976,-0.097228155,0.13978954,-0.07096164,0.057629056,0.1008278,0.10095859,-0.13607706,-0.0123720085,-0.14346398,0.083855085,0.1323575,0.118530095,-0.080402255,0.058209512,0.0015526274,-0.030968742,0.033257555,0.17028451,-0.069217496,0.11800376,-0.15604489,0.026317768,0.13156404,0.08756955,-0.13168894,-0.07692062,-0.09519054,0.005039464,0.08502168,-0.064333156,-0.026243107,-0.056396913,0.07180803,-0.12832578,-0.2070531,0.18583886,-0.05590785,0.14622661,0.08473443,0.09576858,0.007390538,0.13176793,0.09058922,-0.07943933,0.117540784,0.14209153,-0.06890294,-0.15469827,-0.12204331,0.08412593,0.004365975,-0.007459816,-0.0014832057,-0.101911105,0.12379386,0.12532628,-0.049957644,-0.0033392876,0.080102965,-0.059709776,-0.018004328,-0.0186214,0.13128088,0.0979661,0.020019088,0.14800997,0.03559693,0.04408582,-0.02534186,-0.107225135,-0.03817406,-0.0054896493,0.075287536,0.15419972,-0.007961783,-0.011341103,-0.083183266,-0.2619317,0.04792763,0.001205177,0.06029965,0.041380417,-0.19032302,-0.029262763,0.013737069,-0.119287014,-0.10563245,0.03438818,-0.07083876,0.03925859,0.03118169,-0.16286644,0.09977929,0.07656419,0.05025898,0.026534097,-0.07809623,0.05389556,0.11941571,-0.06339253,0.021178853,0.049296714,-0.07585862,-0.07633443,-0.06190479,-0.075448304,0.014816934,-0.15308343,0.07439632,0.048685286,0.08712379,-0.11772535,-0.1263959,-0.101357825,-0.04819418,-0.039298013,-0.043031417,0.08905963,0.0745525,0.12589088,-0.017201807,0.079185605,0.05791998,0.17068559,0.13034467,0.09111629,-0.085913375,0.03173652,0.040125627,0.055315714,-0.074429534,-0.13664992,0.106434174,0.045210123,0.15957037,-0.057828534,-0.095622174,0.1091673,0.12107765,0.18137637,-0.094088085,-0.17716518,-0.15591696,0.06571093,-0.00963846,0.10076445,0.017709643,0.07641553,0.1552298,0.113511465,0.032093953,-0.1458376,0.17283438,-0.053060133,0.17980336,0.011377541,0.05692711,-0.14301002,-0.07281156,0.107045844,-0.15896077,-0.030151177,0.0025216183,0.14101061,-0.007054747,0.05535915,0.11491202,-0.05619268,0.07927289,0.16856134,-0.04009149,-0.1263799,-0.07776535,-0.17472316,0.13345212,-0.087994784,0.09888751,0.1239224,0.11994025,-0.015775528,-0.04288906,-0.14263265,0.07538327,-0.07709406,0.0958201,-0.09232192,0.03921282,-0.016929775,-0.058158964,0.01714073,0.1330067,-0.11129931,-0.054143794,-0.023254499,0.079019226,0.08551269,0.08038686,0.060627114,0.03135607,-0.10673981,-0.030614404,-0.09316808,-0.07081989,0.016071413,0.07731854,-0.0209253,0.18970771,0.015525014,-0.07159181,-0.20033643,0.033142634,-0.0266443,-0.071274586,0.13269944,-0.03964916,-0.06646243,0.022075925,0.15530989,0.125037,0.17377077,0.1477767,0.030056048,-0.00340753,-0.028830038,-0.016970618,-0.0060560247,-0.13850133,0.008492626,-0.14570235,0.11043403,0.150052,0.040208347,0.014832381,0.06573173,-0.105062746,-0.11847115,0.002266771,-0.0669493,-0.07977103,-0.033402774,0.12922579,-0.15649717,0.15984297,0.032000914,0.11418995,0.12363307,0.12980993,0.0845458,-0.040748633,-0.0067490228,0.006894677,0.054958604,-0.008115505,0.020225348,-0.13246486,0.0868499,-0.0036209112,-0.09685634,-0.096622154,0.013961477,-0.0087321075,-0.12817883,0.07991316,-0.10020968,0.04957379,-0.05739576,0.04480142,0.030443862,0.16396481,0.07429247,-0.054393515,0.07116641,-0.0391117,0.15037432,0.018893542,0.117636986,-0.1789832,-0.0722592,0.0044764634,0.046136763,-0.11597643,-0.067929424,-0.080697164,-0.014438355,0.07648071,0.08486158,0.16263182,0.08794365,0.09954011,0.03372291,0.13216673,-0.096295096,0.12885179,-0.1759235,-0.023047052,0.09798728,-0.0108151985,0.111571565,0.14136006,-0.049957484,-0.052282676,-0.056677517,0.037085813,0.10460964,0.1876218,-0.1426442,0.0735553,0.054779377,-0.13087429,-0.16332829,0.084665604,0.08883164,-0.033320554,-0.027503312,-0.032017056,-0.086313196,-0.06493748,-0.01591397,0.046469137,-0.08519805,-0.017823746,-0.023661857,0.117162205,-0.071035884,0.073598206,0.03324434,0.069088176,0.11691732,-0.106122114,-0.22041273,0.103093006,-0.14717837,0.12807693,0.11237411,0.05178187,-0.06359216,0.1313618,-0.091733284,0.020960428,-0.10783567,-0.053732336,0.0074098487,-0.18191335,-0.06505718,-0.04443159,0.16750145,-0.018093718,-0.03689941,-0.08899387,0.085107036,0.12453638,0.00014980527,0.11680241,0.018565936,0.050488133,0.14888605,0.05399768,-0.14139274,0.14065732,-0.047178317,0.054726843,0.03979568,-0.09130491,-0.15724578,0.08798105,0.05323431,-0.085297205,-0.11656803,0.08199561,-0.017077044,0.020375166,0.026710471,0.043862674,-0.07967671,-0.01743097,-0.09346939,-0.015413659,-0.078403585,-0.08838684,-0.108810365,0.06650129,-0.09014123,-0.057293076,0.052224334,0.11741559,-0.025217088,0.03249242,0.0707856,0.1655944,-0.030868838,-0.10139891,-0.043534286,-0.14342254,-0.035524886,0.005032888,0.009238305,-0.039651383,-0.012899696,-0.088527,0.02158139,-0.13602276,-0.13588855,0.08147344,-0.09780957,0.07319382,0.023886831,0.018492525,-0.0050011124,-0.093730435,-0.15153913,-0.15275414,-0.04713934,-0.04245672,-0.22276808,0.02492304,0.059652075,0.06962025,0.1686358,-0.13243084,-0.05632366,-0.045260742,-0.15023133,0.106963396,0.10964553,-0.06979287,0.059181668,0.17641923,0.109751955,0.0363066,0.08368159,0.16158435,0.13461751,0.018623903,-0.13278446,-0.22867398,-0.026044654,0.10714917,-0.053345665,-0.11851697,-0.18259634,-0.073273696,-0.2306272,0.10396249,-0.062496554,-0.15082799,0.007956992,-0.04748065,0.030637546,0.07237053,-0.024168542,-0.06536329,0.14073262,-0.24484426,0.04546053,-0.18281066,0.037043586,0.067375496,0.0022579522,0.12303168,0.060846068,0.023351913,-0.056634646,0.1122598,0.16163547,0.005632378,-0.0032422864,-0.0061524366,0.09189093,0.06822611,0.0651909,-0.013648647,-0.12780045,-0.08872774,-0.00619588,-0.06626932,-0.1646966,-0.09490897,-0.1067867,0.04488274,0.10692242,0.1287531,-0.05744151,0.069469854,0.18522644,0.00047902446,-0.014679353,0.24432272,0.08654832,-0.082607985,-0.13522975,0.07957288,0.11635191,0.020243414,0.08229545,0.031905152,-0.035856117,0.106318705,-0.121151075,-0.080270216,-0.09069431,0.10900549,-0.12813336,-0.060428005,0.15088244,0.12632881,-0.1621347,-0.11524044,0.19687675,-0.04720431,-0.02836565,-0.15709452,0.089760125,0.032794576,0.06498698,-0.12708908,0.036990393,-0.10112444,-0.03976789,-0.09391006,0.0556638,-0.11211859,0.047186416,0.021483041,-0.14077945,0.05575101,-0.21335386,-0.0026691775,-0.10926704,0.06692269,-0.033698622,-0.09963236,-0.13153349,-0.12070133,0.04741138,0.14076601,0.14615372,-0.17395997,-0.13821867,0.04270682,0.054820232,0.12875174,-0.102089584,0.10749847,0.055203866,-0.20789307,-0.07129778,0.007655076,0.15998983,0.056430694,-0.08648624,0.026421195,-0.10442196,0.011241492,-0.053936753,-0.056421064,0.09705235,-0.042959414,-0.0951728,-0.1472581,0.103830025,-0.093150616,-0.13040815,-0.033748336,0.09791655,0.019129578,-0.028133133,-0.09582134,-0.141456,-0.14922385,0.05236314,0.031659808,-0.10836691,0.009312405,-0.017276507,-0.036354546,0.1140081,-0.035442796,-0.17386763,0.07220832,0.05615685,-0.03571148,-0.07504799,-0.093554385,0.07848523,-0.12773465,0.0068846135,0.0033250405,-0.012807139,-0.09619358,-0.15778965,0.012719278,0.110124215,-0.027422031,0.13240659,0.23737162,-0.10327634,0.10333053,-0.06620678,-0.111974075,-0.10373849,0.022859974,-0.10255241,-0.07221189,-0.20035315,0.061919324,-0.012266452,0.060170423,0.06744504,-0.07443721,-0.089092284,-0.21188805,-0.09863086,-0.011699982,-0.14201204,-0.02816046,-0.047620364,0.10817393,-0.10529361,0.040400226,0.073930845,-0.106605396,-0.11612328,-0.01297094,-0.00040653764,-0.012339556,-0.10743551,-0.1739836,-0.06517528,0.16294044,-0.11549445,0.15419441,-0.031854436,0.077177286,-0.12529172,0.085853346,0.11605135,0.07446196,-0.12347626,0.0027894329,0.025792105,-0.038676556,-0.06034237,0.11984166,0.069165975,-0.16026565,-0.06300721,0.06682632,0.07793413,-0.103224695,-0.0034560417,0.09350819,-0.015229557,-0.08142018,0.05814745,0.012309934,-0.10387851,0.11224057,0.002047348,-0.0039337897,-0.07713413,0.050981272,-0.05006251,-0.017096093,0.15128894,-0.051079467,-0.2034283,-0.10701426,-0.10022096,-0.062595494,-0.12249417,-0.13637236,0.029661546,-0.054986876,0.01833864,0.020573616,0.14505205,-0.16485114,0.06437471,-0.20031476,-0.1870244,-0.026420945,-0.04812649,0.15434803,0.007041492,-0.12025302,0.12998971,-0.21132745,-0.10653613,-0.10202807,-0.10781331,-0.196634,0.08211723,0.13121381,0.10503301,0.03726109,0.04948189,-0.05961344,0.12040184,-0.031484812,-0.14271867,0.03552697,0.092315845,-0.15021002,0.041276902,-0.0019399154,-0.055940278,-0.056993812,-0.13070865,-0.12554948,-0.0045370986,-0.0964038,0.1656123,-0.012084756,-0.20348798,0.112804696,0.20849627,0.1355558,-0.13639802,-0.15529281,0.10839484,-0.1973794,-0.005664653,-0.014239094,0.089594945,-0.08524543,-0.12237772,-0.047458235,-0.08938211,0.09087,0.091874,0.10633193,-0.09961364,0.053261925,-0.0917897,-0.11868493,-0.0033013716,0.042227454,-0.0013074428,-0.124488,-0.06298412,0.030675873,0.025413224,0.1169051,-0.011545307,-0.010849603,0.087292016,-0.12181331,-0.005738943,0.20369475,-0.1579507,-0.056709025,0.048118465,-0.015726235,-0.162105,0.009746042,-0.010396208,-0.08826875,0.09795317,-0.08836227,0.14832917,0.14429393,0.01396547,0.1735537,0.041949227,0.13467602,0.109474346,0.035745513,0.08764536,0.008859696,0.002898245,0.076324865,-0.040085744,0.18591256,0.055942126,0.047773466,0.19044948,-0.09272137,0.12259276,-0.10767289,-0.12255651,-0.08197344,-0.1216191,0.14761078,0.084559515,0.063267715,0.16194534,-0.14764355,0.09632526,-0.11113487,-0.043290135,0.11787315,0.13880956,0.13273391,0.17577265,0.09569557,-0.059132386,0.092877604,-0.051061746,-0.10865924,0.0089296065,0.06645819,0.1143183,0.08302684,-0.18094088,0.20118982,0.06533353,0.090664566,0.09378038,0.055380106,0.15769425,-0.14926952,-0.028679745,0.03366659,0.015329422,0.17692441,-0.020724475,-0.042834714,-0.071333654,-0.10339206,0.15358758,-0.007758827,-0.101236686,-0.06810891,0.1482526,-0.077391885,0.107108615,-0.086735964,-0.078149624,0.15636103,-0.1044842,0.067401364,-0.00891834,0.16502632,0.020512098,-0.028486583,0.07834726,0.035508446,0.080696836,0.19033115,0.023919707,0.05936859,-0.09229722,-0.10650485,-0.1588672,-0.02611814,-0.15349872,-0.059420247,-0.0021930302,-0.12616281,0.100225896,-0.14247061,-0.12068121,-0.051493168,-0.08691689,0.12437735,0.1780357,0.013038785,-0.080590874,0.12207943,-0.0831472,-0.12310024,0.03524914,0.13474172,0.1359283,-0.05224689,0.14481288,0.16205154,-0.13400204,0.08115382,-0.1494796,-0.110217944,0.06905809,0.0049592466,-0.062214773,0.0124898795,-0.02484912,0.01595032,-0.16096026,0.16173536,-0.13143641,0.079027794,0.097900756,-0.09323511,0.16263518,0.00315408,0.059748825,-0.031954065,-0.11077747,0.09040821,-0.08578146,0.09970988,0.14159657,-0.07635243,0.05070818,0.04357041,0.09339205,0.15205695,0.085960224,0.1120753,0.09818297,-0.06957677,-0.06821914,0.083814576,0.031231925,-0.00026226006,0.02498332,0.096643545,-0.088524334,0.051672835,-0.016573304,0.00080729934,0.046824597,0.12212155,-0.045546107,-0.027833048,0.11781449,-0.10939132,0.024004806,0.076618165,0.17667413,0.12442897,0.039282795,0.11397408,-0.02538738,-0.07830588,0.10305146,-0.022548322,-0.122694865,-0.116443954,-0.106903754,0.034895673,0.05068812,0.114641,0.11043528,0.07038011,0.08579332,-0.08728344,0.119802676,-0.029043527,-0.118772544,0.029451115,-0.0447922,-0.03896305,0.06701955,-0.102860965,-0.028412146,-0.028480766,0.08920721,-0.0088692615,-0.15749192,0.10619017,-0.10194367,0.08219359,0.19284992,0.02772451,0.15532856,0.069338806,0.06405328,-0.10746649,0.084025316,0.006284969,-0.088968635,0.073602095,0.048179302,0.120798595,0.03766308,0.04816843,-0.0140981,-0.023438644,0.17292905,-0.09842744,0.00532956,0.13440469,0.05169055,0.15565428,0.08816482,-0.083894596,-0.12494786,-0.011447636,0.07488181,0.13129619,0.07285614,-0.010556868,0.12117162,0.17442583,0.07251215,0.06987735,0.020852972,0.16574293,0.042707864,-0.045204062,-0.12048972,0.0216381,0.056015838,-0.043525912,-0.014361553,-0.044644754,-0.114134766,0.022597684,0.13651863,-0.108349286,-0.038003054,-0.11233821,-0.10253494,0.028410476,-0.01966845,0.08556884,-0.015627535,-0.08181406,-0.12804657,-0.05919193,0.0053225104,-0.01199343,-0.07506121,-0.11047395,-0.10444437,-0.07996597,0.0074953325,0.13411885,0.027822677,0.015909199,0.06709245,0.07803948,0.01909126,0.13648091,-0.09757303,0.103566125,-0.084501736,0.02207155,0.070368156,0.054018296,-0.0450081,0.12473672,0.110353045,-0.032298397,-0.031268675,0.058392297,0.07190348,-0.009536506,0.06793116,-0.019311192,-0.046955608,-0.16325207,-0.14225698,-0.112055205,0.050101567,-0.039435755,0.024494017,0.13075934,0.17823766,-0.0192156,0.060313985,-0.0048913998,-0.0114367185,-0.10042548,0.12634414,-0.09247092,0.011625659,0.11168762,0.056435008,0.02964403,0.10579376,-0.09649572,0.04384379,-0.07273826,0.17841965,-0.14763534,0.053956438,0.06144931,-0.14322537,0.06508582,0.121144794,-0.10274734,-0.13736536,-0.099723585,-0.05008157,-0.050800994,0.041614268,-0.016625714,0.07879329,-0.018049533,-0.03149671,-0.0680712,-0.12691155,0.11519419,0.12128347,-0.033395838,-0.025398005,-0.118896164,0.0699606,-0.07314524,0.12940514,-0.012945441,-0.031708695,0.11511138,0.02370105,-0.09250223,0.11955356,0.029092407,-0.20211595,0.073728524,0.10324027,0.12147313,0.05918414,-0.12456706,0.047221623,-0.08973493,-0.15876912,-0.12783577,0.060931973,-0.029286426,-0.016461948,-0.04845011,0.083162434,-0.029798694,-0.02768255,-0.040201914,-0.113488935,-0.07689646,0.13401553,0.06545252,0.027890788,0.1872826,-0.13273586,0.13256063,0.059178904,0.106494315,0.09635905,0.10014884,-0.1196388,0.052596655,0.11652917,0.08116514,-0.029466268,0.042507403,0.048610162,-0.08934529,-0.14427939,0.081549786,0.030986821,0.16183253,0.00801036,-0.03961999,0.1565935,0.23207127,-0.08773549,0.091158375,-0.037867453,-0.13583809,-0.024809336,-0.037674658,0.071291275,0.00029863886,-0.035433955,0.02234049,-0.07867876,0.06375315,0.13652483,0.053112153,0.027449764,0.0075693727,-0.20647697,-0.10105468,-0.07302939,-0.088652246,0.02129313,0.13594624,-0.083966285,0.073871896,-0.028646525,0.053077817,-0.2386808,0.04532732,-0.014063996,-0.044848796,-0.074519455,0.09374638,-0.017632049,-0.12613179,0.023039484,0.0888227,0.07240039,-0.054327253,0.10629926,0.054862946,-0.07402625,0.1442058,0.205371,-0.054480847,0.1268177,0.01695792,-0.043306395,-0.01458409,0.026436897,0.13745701,-0.13953482,-0.1831128,-0.08495067,0.18107967,0.022435946,-0.009349199,-0.086361565,-0.066140264,-0.11280571,-0.06837166,-0.04114143,-0.14788204,0.12910248,0.22589335,-0.0862749,-0.015523649,0.06573024,0.010057862,0.14158611,0.11385895,-0.13271162,0.039292354,-0.045474246,-0.12182893,-0.060292173,-0.102810115,0.08464947,-0.07790371,0.043294158,-0.0056863907,-0.18461345,-0.03247151,-0.08817024,-0.11421975,0.03345133,-0.12256253,-0.115134865,0.05843029,-0.024598591,0.10179536,0.04105019,-0.161422,0.04102447,-0.09475146,-0.13083296,-0.011898893,0.11006845,-0.1508353,-0.15926354,-0.033225738,-0.0020536133,0.09481854,-0.13776448,0.024080897,-0.16848418,0.06346153,-0.0003136989,-0.13190433,-0.09585339,0.10101489,0.114664875,0.13383237,-0.07581285,-0.10778718,0.07622289,0.023078524,0.11213427,-0.12644744,0.11430276,-0.059081595,-0.12037287,-0.15735327,0.0032615524,0.04082103,-0.03955705,-0.034526516,0.10648793,0.07135647,-0.24154112,-0.15303864,0.13875596,-0.08822844,-0.0008091051,-0.09122482,0.15820646,0.070382126,-0.102805436,-0.16115288,-0.09978929,-0.18428968,-0.07551459,0.14746734,0.06620766,0.04895651,0.05594403,0.15810095,-0.12718451,-0.065068625,0.07551144,0.04458877,0.1517636,0.04395426,0.18069287,0.18694371,0.0293261,-0.0680176,-0.18079554,-0.13539113,-0.009853669,-0.24657103,0.09537116,-0.20322743,-0.13399893,-0.068403296,-0.03737415,-0.13030945,0.013588033,0.09851093,-0.01619649,-0.12806076,0.17259815,0.029541438,-0.09471947,0.14284284,-0.036411945,-0.012216572,-0.031083673,0.08319956,0.07878781,-0.16459353,0.046430074,0.08134336,-0.055098522,0.07749368,0.11412949,-0.110084474,0.020454913,-0.107567646,-0.031300362,-0.08372882,-0.15137346,-0.09149677,0.046013344,-0.09725872,0.024323419,0.13248046,-0.06651829,0.03234262,0.099543326,0.11583523,-0.12503542,0.108086966,0.030718323,-0.21527709,-0.07711173,-0.05647251,0.022074603,-0.003092572,0.047348734,-0.04334886,0.114645824,-0.13284872,0.0576953,-0.070262775,-0.056281064,-0.015679162,-0.11010906,0.12064364,0.16987924,-0.084148936,-0.07866414,-0.14173411,-0.11767939,0.09939895,-0.06257742,-0.18504739,-0.18227594,0.04923795,-0.032938045,0.101018496,0.13556963,-0.06602235,0.011719952,-0.15120783,0.08294515,-0.045832325,-0.06712803,0.14487769,-0.08148944,-0.094119355,-0.19711609,0.022824487,-0.1455161,-0.09542231,-0.017688043,0.0565844,0.11224135,-0.11476524,-0.046177804,-0.0702652,0.15077575,-0.023111636,-0.05815249,0.13896683,0.013802887,0.03268519,-0.082842104,-0.12836951,-0.07408717,0.010721001,0.07990476,-0.12808317,0.12758961,-0.09002859,-0.082646735,0.09960942,0.008070215,0.033920262,0.073625356,0.07078826,-0.089741915,-0.0033637101,0.1638393,0.05056753,0.13491757,-0.1763379,-0.12289494,0.018106021,-0.1603647,0.05581101,-0.021567285,0.04369062,0.08151304,0.02760258,-0.07466461,0.038222868,0.11042499,-0.044998594,-0.024303345,0.065255634,-0.062132325,-0.11751816,0.08730498,-0.026228592,0.10371086,-0.0032384389,0.17903961,-0.0953583,-0.13099414,-0.13868625,-0.09088866,-0.013231364,0.022857612,0.17431287,-0.011815007,-0.08678963,-0.018385876,0.13797146,0.03888863,-0.062110167,-0.055875078,-0.13014467,0.08928469,0.047020223,0.028510801,0.12163692,-0.038084082,-0.20817985,-0.12806125,0.09365607,0.03806874,-0.052541547,0.11619447,0.13556956,-0.05657457,-0.24000417,0.053923625,-0.013588982,-0.18802732,0.010722183,0.053483497,0.021925397,0.090613455,0.109784134,0.11113984,0.047208134,-0.026688058,0.22991367,-0.08280163,-0.056137998,0.010006307,-0.23434135,-0.16225722,-0.010296577,-0.038758434,-0.03173896,0.08149751,-0.03912998,-0.03977068,0.055693213,0.095871575,0.10946784,-0.12504444,0.13406186,0.14834799,-0.14586557,-0.026728816,0.102146916,-0.11039488,-0.042607043,0.030425558,0.13578834,-0.14831132,-0.08614558,-0.11978193,0.13980573,0.013031412,-0.038141266,0.08374813,0.105072595,-0.091759324,0.045610253,0.07393354,0.02405953,0.13164346,-0.05482112,-0.022839526,0.111541964,-0.14114885,0.074835084,-0.003982917,-0.0053125652,-0.018813157,0.106149204,-0.019900206,0.12512925,0.017545296,-0.02705416,0.044578124,0.059420493,-0.10831109,0.10564548,-0.04630291,-0.09805521,0.0172964,-0.13016884,0.047756508,0.041942034,-0.14806953,0.11851393,0.044302616,0.049644165,0.015979094,-0.056138743,0.06915901,-0.07018364,-0.022663636,-0.013488249,0.13418356,-0.039074067,0.1423997,0.07146288,0.12595208,0.13185722,0.16197962,0.029967187,-0.11462067,0.15585876,-0.23282903,0.0540917,-0.019223012,0.1336995,0.05799077,0.09240075,0.052908905,-0.28367317,0.28226838,-0.032782365,0.07255598,-0.17211251,-0.12183914,0.02532716,0.1607882,-0.04096432,-0.010831342,0.14815466,0.05327919,-0.21457748,0.11609463,0.028123708,0.038533237,0.16597587,0.008019225,-0.14578177,-0.111462004,0.16090183,0.14301698,-0.004850032,0.12682557,0.07213105,-0.21432851,-0.014512043,-0.029335788,0.09621835,-0.14332856,0.033706382,-0.0019011647,0.1574431,-0.043416727,-0.05935652,-0.05406022,-0.13918985,0.06929824,-0.08332311,0.07650631,-0.08247556,-0.17007156,-0.048818797,-0.031696588,0.03549032,0.03899161,-0.111907154,0.13176546,0.081136994,-0.020835748,0.03356566,-0.063331455,0.11557549,-0.14694543,0.183457,-0.09037746,-0.1821549,-0.044128653,0.14721617,-0.04084021,0.14266615,0.14861652,-0.07925654,-0.061575122,0.06644996,-0.12555395,0.084237844,-0.062130187,0.036098562,-0.027641121,-0.06481643,-0.13819645,-0.15703769,0.12276192,0.21142682,0.14166471,-0.0008031607,-0.0028833405,0.17542462,-0.096435614,0.06087607,-0.014559685,-0.15349387,0.07258529,-0.038655996,0.19149666,0.117588565,-0.0717166,0.29386625,-0.16051768,-0.022680523,-0.015880512,-0.20315483,0.10211361,0.09577172,-0.09544985,-0.06510387,0.14219028,-0.09438398,0.25132614,0.15136312,-0.13425145,-0.025355117,-0.110845625,-0.043865167,0.10458755,-0.0032855081,-0.084044844,-0.016054273,0.02093325,-0.095172785,0.14879768,-0.11391182,-0.013058922,0.18973505,0.25842363,0.014622456,0.17256388,0.0920349,0.27972603,0.01971793,0.08889675,0.103590444,-0.09820431,-0.26294932,0.16773182,5.1866227e-6,0.09487703,0.13459107,0.18004555,0.18196659,0.03153631,0.031174965,-0.010725272,-0.068598166,0.08428189,-0.1017945,0.10365354,0.05245357,-0.3163392,0.11654239,0.06402596,-0.008912829,-0.08817483,0.070937276,-0.008126165,-0.01763621,-0.13805696,0.121292345,-0.18003638,0.0086275805,-0.09813219,-0.021156777,-0.059545327,0.14770834,0.07678768,0.16314822,0.19427161,0.19082513,-0.030898547,0.007780742,-0.049593706,0.072327025,-0.13853914,0.021490656,0.36063963,0.12771997,0.06285208,-0.021879425,0.09401714,0.2018953,-0.014223747,-0.20352378,-0.011913784,0.09612969,0.011868476,0.08141078,-0.2531636,-0.011417431,0.20924023,0.16056477,-0.1491392,0.19178078,0.012223447,0.18481655,-0.00059266126,0.11233075,-0.2379703,0.08819468,0.102740765,0.049588315,0.20497163,0.11191111,-0.07454522,0.06401566,0.044968016,-0.072340585,-0.082862675,0.0036313578,-0.081727825,-0.40871298,-0.13781342,-0.04455633,-0.037723716,0.20165676,-0.1501989,-0.021260386,-0.006639428,-0.13152666,0.06684053,0.14047278,0.13022697,0.08233026,0.14385886,0.25679845,0.2411901,0.015984422,-0.18222716,-0.15471287,-0.013677398,0.033273675,0.17797731,0.11305438,-0.19383691,0.24180366,0.040442012,-0.07116475,0.2346974,-0.0679298,-0.092792764,0.044360735,0.2594255,-0.07618639,-0.12538609,-0.18643963,-0.107679635,-0.1263749,0.0035318653,-0.0035537048,0.15032166,-0.20600066,0.07116103,-0.0031886357,-0.09293418,0.16984615,-0.13461594,-0.075338535,0.1582594,0.002746556,0.031714562,-0.14930569,0.20290507,-0.0054634255,-0.103956655,-0.004897633,0.10568393,0.087651536,-0.04758756,-0.13404848,-0.045052,-0.12677453,0.083724,-0.087397546,-0.0014604861,-0.056798596,-0.06586687,-0.06050477,0.012456514,-0.06409087,0.03628588,0.18127285,0.08511708,-0.047134206,-0.06292014,-0.14445141,-0.01567964,0.22172026,0.10811017,0.014094291,-0.12309444,-0.129867,0.16263132,-0.122992605,0.049704023,-0.07887342,0.13687746,0.031435434,0.02571696,-0.042710744,0.13840848,0.15823598,-0.07799988,-0.031590607,0.060331997,-0.100410275,-0.14214616,0.022923518,0.04483219,-0.1234737,0.07777347,0.16490611,0.16514371,-0.007660742,0.0543156,0.09567582,-0.08137492,0.201022,-0.0691687,-0.049380127,-0.16583443,-0.23343943,-0.056249704,0.089469075,0.14539066,-0.15808067,0.035232365,-0.10055079,-0.08934785,-0.120444156,0.016345698,-0.10639711,0.19248812,-0.22031343,-0.08845867,0.06274973,0.21952237,-0.1716049,-0.17026341,0.09073901,-0.019529931,0.1992549,0.13203157,-0.1211893,0.04033115,0.105155714,0.11217846,-0.16291241,0.18690544,0.008149095,-0.11270415,-0.06745358,0.10263324,-0.09958403,-0.029887792,-0.108522356,0.15192644,-0.2093528,0.08939494,-0.018665642,0.028255075,-0.1527667,0.092786826,0.04766924,-0.14119565,-0.11188667,0.036134847,0.14955184,0.04896016,-0.13421367,-0.21688744,0.10313848,0.07923329,-0.28582066,-0.1605542,0.15528993,-0.18471584,0.088645995,-0.07105117,-0.039926063,-0.095688604,-0.038706005,-0.08439863,-0.004937281,0.08240214,0.021814125,-0.20267077,-0.05535345,-0.041064173,-0.19158664,0.19921577,0.02735928,-0.11313982,-0.02732187,-0.14123219,0.18079016,-0.100187615,-8.613312e-5,-0.02758072,-0.033344146,0.17832193,0.05228945,-0.03427278,-0.12945348,-0.13145927,-0.024156615,-0.042345315,0.20172517,0.11095565,-0.05157498,-0.083797894,0.102661975,0.11183288,-0.06313346,0.10422605,0.10725454,-0.025101205,-0.0004248065,-0.01233636,0.108116575,0.27283773,-0.07579907,0.05014559,0.05523204,-0.18411323,-0.02783885,0.0103074005,-0.03259961,-0.094853476,-0.099154495,0.09586631,0.07899714,-0.05016237,-0.04354629,-0.2645968,0.1493437,-0.06575817,-0.15016003,-0.12797657,-0.1587,0.03799137,0.02306398,0.11267364,0.13929753,-0.04104292,0.16297403,0.013622921,-0.22195953,-0.04111394,0.106569,-0.0059103277,-0.033528842,0.032714136,-0.2423351,0.13455534,-0.12701638,0.08820431,-0.18398021,0.0070636873,-0.064523935,0.020888599,0.18947563,0.14688532,-0.05893583,0.106103756,0.06496458,-0.12846668,-0.09299219,-0.13181667,-0.22957017,0.15382852,0.016672947,0.12748952,-0.029251462,-0.12065521,0.0995799,-0.27640417,0.043179527,0.08308064,-0.16048174,0.067874864,-0.0038064672,-0.047226284,0.09603378,-0.022496814,0.008696752,0.009836752,0.06097129,-0.23598062,-0.019390563,-0.1227352,-0.07351896,-0.13128051,0.1064553,-0.2031947,-0.11336225,-0.00038758013,0.12232374,0.12859301,0.31932127,0.21634042,-0.080484234,0.117220536,-0.07918053,-0.12233566,-0.029581215,-0.22071818,-0.19387999,0.11503808,-0.10777596,-0.22920471,0.042429134,0.060103834,0.04578361,-0.11530952,0.0040680896,0.23798251,0.06510468,0.030000221,-0.10812766,-0.18543364,-0.05522982,0.07675705,0.15552719,-0.08309205,-0.07964222,-0.09953727,-0.35623625,-0.13396879,-0.033463314,0.024913361,-0.09354944,0.11606912,-0.09990302,-0.009029006,-0.053170238,-0.08879014,-0.03220452,0.060875196,-0.017524222,-0.002664617,-0.09046935,0.004869837,-0.07883113,-0.23244792,0.05889436,0.015484664,-0.056565918,0.05557239,0.014826166,-0.027308432,0.010724935,-0.014310499,0.1266594,0.018130349,0.13518102,-0.1810534,-0.19532734,0.041154556,-0.016334886,-0.0050154333,-0.13991764,-0.12794459,0.13527213,-0.12704578,-0.19682996,0.0077145426,-0.11406859,0.007076116,-0.08305094,-0.096679166,0.027010823,-0.1310769,-0.15932705,-0.28040254,0.025101103,0.13833116,-0.17461038,-0.16625006,-0.22317067,-0.12758942,-0.13396883,-0.11109963,-0.16369662,0.054912556,0.06276265,0.12788735,-0.109329656,-0.13431765,0.046116322,-0.0018775433,0.043679006,-0.19171558,-0.10696841,-0.13558541,-0.010319928,0.08011278,-0.04761658,0.3352222,0.21093279,0.116130695,-0.04080989,-0.0661779,-0.10535021,-0.013866195,0.2064317,0.081829116,-0.32606906,-0.031170668,0.032821625,-0.03419318,0.0008055866,0.34699476,0.097552165,-0.026034491,0.050175,-0.003889664,0.0495346,-0.11032511,-0.039894026,-0.12833327,-0.06744961,0.09494217,0.0010682712,0.08023905,-0.035746418,-0.15744886,0.17975429,0.0004899673,0.105787285,0.050536923,0.03057475,-0.09351014,0.19254169,0.051306833,0.07958383,-0.11814005,0.1712922,0.15703689,-0.10658158,-0.13954408,-0.09832527,0.039093714,0.04048905,-0.047788024,0.18907495,-0.10392673,-0.2622209,-0.057689734,0.1746992,-0.23999394,0.044241067,0.2553115,0.02344701,-0.10308125,-0.059992608,-0.21441564,0.056371,-0.075844616,0.14726892,-0.1433207,0.23453575,0.097139545,0.021688621,0.1455493,0.045465518,0.068124734,0.14274727,-0.12188793,-0.09877928,0.038460776,0.17637782,-0.12882404,0.20564513,0.07944049,-0.2241196,-0.013841017,0.12697247,0.15425195,0.026872283,-0.019943975,0.18526535,0.21067642,0.036669318,0.011366793,0.01311282,-0.01297632,-0.09429429,-0.01580615,0.0682964,-0.009753185,-0.06737651,-0.047413822,-0.082266755,-0.06706352,-0.1782409,0.051997304,-0.2118053,0.083522834,-0.23507044,0.008104793,0.005774663,-0.08190419,0.010040754,0.016010644,-0.065373525,-0.21721797,-0.085254215,0.02728805,-0.088186234,-0.02316661,0.14931582,-0.15639488,0.14564238,-0.16784543,0.07082257,0.099114306,0.013926495,0.13774186,0.053467155,0.21835852,0.03575958,0.13307235,-0.08533387,-0.009206509,-0.018219845,-0.12317512,-0.051542707,-0.09283126,-0.0027878238,0.11300428,-0.053636286,0.2867202,0.028680708,-0.10099629,-0.027897822,-0.09827311,-0.08071932,0.34526446,-0.20873876,0.19699682,-0.12860143,0.09840579,0.18052427,0.07650026,-0.054117627,0.031096738,-0.06846487,0.15496103,0.06560709,0.08810511,-0.11073468,0.09814528,-0.14985561,-0.05597925,0.035302773,-0.12524894,-0.15194653,0.0252783,-0.0040144445,0.16641134,0.13243704,-0.08451413,-0.10640372,-0.0038204943,-0.077488996,0.01768223,0.13267529,-0.12430509,0.14605719,0.13975477,-0.04358584,0.0847451,-0.025016317,-0.052680124,0.12720312,0.024739936,0.13654232,-0.09859266,-0.115657374,-0.07123859,-0.14444017,-0.12530097,0.03854798,-0.039771732,-0.13897254,-0.0833572,-0.13834661,0.10901448,0.022813447,0.03510716,0.08611715,0.06511821,0.123455845,-0.091442645,0.011592638,0.018571503,-0.07830163,-0.13901202,-0.07180425,0.13538817,-0.11257784,-0.043975934,-0.124111384,0.13491689,0.041336898,-0.059800025,-0.030631253,0.077123486,-0.09539078,0.06058804,-0.08111257,-0.1267366,-0.108062156,-0.018037308,-0.1332777,0.033279777,0.13276124,-0.14405742,0.06452246,-0.048915762,0.03597785,0.0364788,0.06502011,-0.12033675,0.0054009114,-0.07501244,0.08847203,0.0028320716,-0.100873925,0.18803592,0.067237,0.17330211,0.17170854,-0.0035946611,0.13240558,-0.041318327,0.100359894,0.0060478547,0.024269864,-0.0028986342,-0.110229254,-0.04369574,-0.21467634,0.027935702,0.24650942,-0.06758165,-0.17744547,-0.11309629,-0.100077406,0.013260763,0.07247674,-0.1172097,-0.04163995,0.051003963,0.07778961,-0.0472084,-0.2781407,-0.14702244,0.13560267,-0.031853426,0.012250528,0.022953603,0.1676776,-0.119932555,-0.2435417,0.27491137,0.15425138,0.03985552,0.026382763,0.052674737,-0.085467786,-0.109998405,-0.032749448,0.16857517,0.20535263,0.12493518,-0.021797435,-0.11318312,-0.01048382,-0.0879517,0.004417119,0.005643968,0.22117366,0.09223835,-0.16878022,-0.093206644,0.030383142,0.049879447,-0.03461328,-0.18868934,0.02018355,0.17916192,0.006864149,-0.26229608,0.12766793,-0.19314472,-0.19734365,-0.08801578,-0.07502784,0.16319118,0.12595293,0.021801855,-0.054783784,0.2810886,0.061479107,-0.105873026,-0.18535383,-0.005669635,0.024351848,-0.024421463,0.25266734,-0.090494335,-0.0021185407,-0.09447044,0.15250655,-0.0589262,0.05298009,-0.021216886,-0.16430409,-0.017327223,0.27540687,-0.095930465,-0.29130638,-0.15803504,0.27269945,0.12884149,-0.18773349,-0.12758306,0.19716299,0.01837894,0.0014104806,0.226234,-0.1105209,-0.06280522,-0.13478069,-0.07080022,0.16865456,0.034915533,-0.23115088,-0.08693423,-0.13896938,0.1778661,-0.13127802,0.23811823,-0.091956474,0.12968157,0.05578184,-0.019012272,0.05775411,-0.0038899917,-0.1445955,0.04263241,-0.054743133,0.13027811,0.22751933,-0.028954979,-0.024030635,0.19711345,-0.20566626,0.04342276,0.15178035,-0.10210632,-0.114491254,0.026168467,-0.120285675,-0.0168379,0.069653064,0.12296686,-0.19323424,-0.034931425,-0.08159331,-0.0028506492,-0.11474354,-0.06513477,-0.021758405,0.08081818,-0.09929735,0.16422611,-0.22923261,-0.11838654,-0.07818099,0.09070444,-0.005852578,-0.12923317,0.016276835,-0.1405983,-0.087229244,-0.10213535,0.049992602,0.08395911,-0.07176418,-0.022118345,0.054196257,0.18750292,0.055870872,-0.037190862,-0.0830279,0.073261395,0.08826544,0.100099124,0.14011492,0.12116512,-0.14484358,-0.049260385,0.16504931,0.16759717,0.03639887,0.18215331,-0.14193211,0.11593398,0.29594648,-0.016466832,0.30652592,-0.014990867,-0.10570433,-0.094703585,-0.18572702,-0.017589081,0.2094498,0.20737258,0.2951851,-0.0056439447,-0.098252796,0.10243279,0.018896531,-0.03377749,-0.037125908,0.1340348,-0.016870063,-0.072537884,-0.061963696,-0.3136969,0.072461635,-0.056873348,-0.09671922,0.013163496,0.042778768,0.1531891,-0.121775195,-0.21692792,0.24565174,0.14743626,0.2120487,0.012677747,0.15255003,-0.08784073,-0.16312425,-0.07802225,-0.055347312,-0.03866847,0.24402373,0.17996025,0.01269021,0.07022848,0.26611942,0.16002426,-0.29080477,-0.015771141,-0.12403281,-0.03414951,0.08596023,-0.07096092,0.037506957,-0.13164164,-0.24870434,0.08590424,-0.041135687,-0.09583687,-0.024004985,0.0008244989,-0.15505971,-0.22844301,-0.059520155,0.2611169,0.1758092,-0.074926585,-0.09948698,-0.10719064,0.18764551,0.05844079,-0.120143004,-0.33778793,0.10886178,0.11923407,-0.0050926968,-0.00074798864,0.06397802,0.15377626,-0.061090507,-0.043105625,-0.06794013,-0.116193905,-0.07620075,0.10865253,0.153872,-0.054917708,-0.020424826,0.01981783,-0.33507493,-0.013959976,0.15156955,0.009708928,-0.115645126,0.07010139,0.11448455,0.23604809,-0.03602211,-0.16172935,-0.04776479,-0.23530203,-0.084049806,-0.07388333,0.062385824,-0.03239118,-0.04380222,0.11246525,0.07950535,-0.104345605,0.12848517,0.09512253,0.048064023,-0.3132869,-0.016014261,0.04056621,0.12344212,-0.16518456,-0.038510557,-0.045568306,-0.0054989005,0.06512109,0.009897313,0.18266259,0.24050657,0.032313496,0.09072083,-0.09576133,0.014678706,-0.054596726,-0.15875776,0.030204237,-0.0040337187,-0.12183831,0.030430676,0.09523056,0.07216936,-0.11731024,-0.082081504,-0.04035529,-0.037296113,-0.05362387,-0.05611735,-0.027329125,0.10976514,0.17726812,0.122301504,-0.1422125,-0.10347992,0.053764805,-0.11146851,0.18406993,-0.026757404,-0.13162717,-0.116931334,0.1300974,-0.103768304,0.002875801,0.01913354,0.13708207,-0.09470407,0.03053136,-0.03016377,-0.0120334625,0.07418963,0.07060284,-0.167374,0.12031337,-0.11548266,0.007542422,0.039746985,-0.23042491,-0.16049242,0.06829125,0.016665675,0.06953465,0.1332673,-0.14311767,0.060001645,-0.016387284,-0.07280365,-0.08062492,0.1253122,0.0647429,-0.10196083,0.02846122,-0.21865848,-0.17393036,0.20600113,0.021174194,0.05931109,0.1744842,0.10229594,-0.018663317,-0.082979016,0.22882321,0.18822543,-0.20612389,0.14947516,0.14822842,0.26325282,-0.122655,-0.039715856,0.024287356,0.042136032,0.05957355,0.124699965,0.111005805,-0.109496616,-0.049966544,0.0758063,0.13476522,-0.07314161,-0.01890242,0.051539473,-0.033998005,-0.08537538,-0.06886923,0.01825135,0.10531788,-0.105660915,-0.043179035,0.010756033,0.009922182,0.075684726,-0.18330443,0.118092544,0.02823051,0.057005454,-0.016619133,0.170372,-0.05858464,0.123194374,0.0035793043,-0.013491384,0.09757062,-0.07407185,0.05466123,-0.02362776,-0.108966865,0.27936113,0.09745907,0.13405588,-0.34373882,0.03690416,0.15688553,0.26712307,-0.08682079,0.1850167,0.122457325,-0.0067381156,0.0132823065,0.07974089,0.020481264,-0.014122479,0.023509536,-0.0054127625,0.11146388,0.15598306,-0.22451293,-0.12355171,0.0720941,-0.15105303,-0.014193673,-0.03360284,0.20701969,0.19173333,-0.029971743,-0.037063867,0.13750592,0.041786935,0.090967104,-0.061753325,0.1149472,0.011469363,-0.10698699,0.18316807,-0.08859279,0.0068764337,0.13629372,-0.04639906,-0.11838941,-0.08233515,0.12499908,0.08157201,0.037021454,0.07107235,-0.17332946,-0.03308444,-0.03482194,-0.004473825,0.01696654,-0.05745777,0.09226493,-0.042411752,-0.13536537,-0.0037103563,0.059847545,0.008318339,0.051956207,-0.13134466,-0.017161338,0.029422078,-0.031595536,-0.052459016,0.029601745,-0.06421052,-0.037168343,-0.016047172,-0.16583881,-0.0014906456,0.15076175,-0.22339368,0.30664906,0.033187866,-0.11558604,-0.08691699,-0.09672096,0.031327084,0.014846869,0.012850065,0.0862349,-0.14869745,0.10376563,-0.03878173,-0.127594,-0.057616025,0.02872199,-0.15496652,-0.24318974,0.12859468,0.076382376,0.062619604,-0.15149558,0.0309855,0.0022546726,-0.07071792,-0.12491199,-0.026927555,0.041957125,-0.041730855,-0.064788796,-0.03896859,0.000110661495,0.14769463,-0.045518875,0.005811235,0.022064777,0.0551647,-0.0031986302,-0.051045436,-0.083289154,0.11477935,-0.21815507,0.045854103,0.009661642,0.050257917,0.21530189,0.23854963,0.040916715,-0.27942294,0.07758025,0.007481401,0.0062185815,0.16203445,-0.07833434,-0.07755224,-0.042594586,0.16831623,-0.14519045,0.06627878,0.03360119,0.11433931,0.16613398,-0.29075578,0.10959189,0.020727407,-0.19642103,-0.0838864,0.03146407,-0.0705463,-0.13511679,-0.015914638,0.091192774,-0.13146421,0.076602906,-0.007112964,0.029687278,0.05869054,-0.13387793,0.13451058,0.10185451,0.13307397,0.21445665,-0.103726715,-0.06983893,-0.13430633,0.1489316,0.096692525,-0.095484965,-0.12519465,-0.07905179,-0.06696906,-0.14672348,0.042496618,0.05895916,-0.09373184,0.12869628,-0.14679204,-0.055210225,0.060533885,0.20582937,0.06063747,-0.08316083,-0.07464962,-0.008235519,-0.07623169,0.086862765,-0.093248814,-0.027534133,0.058573358,-0.06358408,-0.12123061,-0.0909018,0.014645599,-0.0447589,0.12518495,0.061106913,-0.12524894,-0.096181475,0.19057335,-0.14119913,0.0088914605,-0.13707046,-0.030181423,-0.2566441,0.09317884,-0.0037056843,0.053199057,0.085732825,0.1003036,0.3397446,-0.1036879,0.19836721,-0.062436353,-0.26749986,-0.12009835,0.20182107,-0.12911794,0.048539948,-0.056695063,0.026013358,0.08851831,0.015520456,0.006309934,-0.0351706,-0.13703181,0.16028021,0.0660857,-0.07560066,0.10653023,0.016421212,-0.1464237,0.23685849,0.27526334,-0.0066066827,-0.10038462,-0.051277302,-0.1328156,0.09341739,-0.10167325,-0.038433194,-0.08368315,-0.031439006,-0.06885285,-0.08968024,0.1364895,0.086717255,-0.089522414,0.07775892,0.11613596,0.070079975,-0.08834778,0.14660953,0.00428103,0.1582566,-0.0064140023,0.076744236,-0.17778353,-0.111336455,-0.05894906,0.033851463,-0.040194362,-0.06348005,-0.10351467,0.0875793,-0.27355224,0.1424856,0.08846312,0.19192791,-0.13542034,0.031386394,-0.22139376,-0.02563288,-0.1808241,0.0959489,0.12829229,-0.14025237,0.02468249,0.014646144,-0.01774682,-0.09625674,-0.12582818,-0.07839902,0.20339847,-0.04039382,-0.16627705,0.016326906,-0.15595168,0.06642735,-0.011477676,-0.07680253,-0.18195161,0.022017943,-0.05764661,0.031379666,-0.010249752,-0.09669759,0.06490596,0.16160981,0.082605004,0.18782665,-0.028791942,0.13108173,-0.040956236,0.060175676,0.06083356,-0.14119981,-0.12299381,-0.14269562,0.17176509,0.13747077,0.11152392,0.1764553,-0.040632788,-0.33894494,-0.015254431,0.08064009,0.07435823,-0.016841076,0.057416894,0.06300396,-0.07948991,-0.0838541,-0.10220329,-0.15825632,0.3190262,-0.13642271,-0.05193356,0.046222806,-0.0002993258,-0.0023213485,0.013384593,0.14021267,0.10918479,-0.14776744,0.28599808,-0.1329578,0.13243254,0.18096389,0.249075,0.0075454707,0.123242036,0.1454741,0.13324292,-0.084441334,0.013699178,-0.13991809,-0.055828482,-0.0024544152,-0.13095677,0.0944677,-0.010971248,-0.21716008,0.017202387,-0.18390477,-0.018849455,-0.06619015,0.04579178,0.109238714,0.013894894,-0.11285228,-0.034999713,-0.056842923,0.06767111,0.12845339,-0.11163226,0.1369034,0.013219573,0.04982257,0.123644546,-0.08311537,-0.0079831,0.08830336,-0.104336075,0.031772472,0.09792026,0.011290445,0.022068152,-0.12268544,-0.13760512,-0.065268755,-2.5809932e-5,-0.099120826,0.09004104,0.13064256,0.036983866,-0.026485752,0.09284992,0.00068295543,0.116758965,0.011617395,0.106119916,0.021403193,-0.006595713,-0.013698403,-0.047896706,0.044297174,0.029936329,-0.12911832,-0.10626472,0.11331643,-0.065974645,-0.102846555,-0.10193673,-0.08060597,0.074701704,-0.022551388,0.09928036,-0.084221214,0.03468113,-0.094217725,0.07605772,-0.09342268,0.12168857,-0.14574373,-0.10254222,-0.09880706,0.015182555,-0.06963873,0.03144593,0.055739235,-0.088336244,-0.028257031,-0.04879406,-0.06431868,0.14157052,-0.092563614,-0.081391245,-0.19768874,-0.06194958,-0.26544076,0.19593912,-0.1378769,-0.05089931,-0.1934163,0.019809049,-0.12401398,0.089025095,-0.026408335,-0.08909291,-0.18997425,-0.14207436,0.12664232,0.22500555,-0.1383667,-0.083481215,-0.23257376,0.10038259,-0.08873814,0.023142707,0.09852006,-0.06119205,-0.16248894,0.0046620215,0.010232494,0.122374505,-0.08933246,0.11871748,0.1885543,-0.03796691,-0.06714629,-0.023253344,-0.06531513,-0.03106427,0.16206592,0.05114247,-0.06414289,0.22949953,0.08163477,0.07212623,0.077404775,-0.19362183,-0.060372934,0.050689,0.44127133,0.017674454,-0.17398597,-0.028002236,0.19229184,0.13186885,0.073432885,-0.11064488,0.09114376,-0.24546686,0.115348905,0.29012057,0.02029848,-0.014979656,0.098228335,-0.08643844,0.18037719,-0.15942346,-0.047666453,-0.07659517,-0.01958163,0.19799814,-0.08427873,0.04023197,0.021737892,0.061848562,0.04628809,-0.034921438,-0.00065744284,0.08045234,-0.041908797,0.024954937,-0.012997543,0.052131943,0.04666573,0.1815862,0.000514656,-0.015772376,0.008449313,0.11291309,0.059591778,0.24267812,0.29134676,0.1861608,-0.1255417,-0.1583742,0.19057322,0.17642725,-0.09436748,0.074898854,0.09066077,-0.014039583,-0.06367329,-0.1679016,0.06073477,0.04387103,-0.30287483,-0.06768059,-0.16854326,0.05645669,0.20949893,-0.05771373,-0.24363531,0.10468021,0.004849704,0.05372677,0.13628976,0.12163472,-0.06339337,0.015977243,-0.050887935,0.043270636,0.19059807,0.18980023,0.07456672,0.25187987,0.04067335,-0.13737157,0.199401,-0.12523809,-0.28132093,0.043287754,-0.08562425,-0.04998949,0.22110473,0.08508707,-0.071538225,0.0281584,-0.056695748,0.17151822,-0.19746904,0.07648419,0.031016571,0.056992803,-0.034071907,0.044550028,0.06680926,0.046347085,-0.08505158,-0.009939658,0.112882346,-0.022486228,-0.10763699,0.103810705,-0.040924598,0.27225268,0.22265388,0.021150967,0.0019358932,0.16789891,0.049745016,0.13540693,-0.27650028,0.13708457,0.08582267,0.18644664,0.13602814,0.028886756,-0.09808163,-0.079914235,-0.08073894,0.04964959,-0.11939239,0.12170851,0.0028696652,-0.034627493,0.104284,0.086501576,-0.16525975,0.031100273,-0.023987656,-0.21738744,-0.13787375,0.27309522,0.1858023,0.08574655,0.030580094,-0.10515533,0.08432657,-0.022649724,-0.042386055,-0.10334854,-0.15480901,0.022882449,0.043460127,0.21790369,-0.135578,0.05892037,0.18181244,0.034077827,-0.053816397,-0.046678264,0.13843592,0.15133649,0.0828737,-0.008038372,0.08958763,-0.19171149,0.006070478,0.024170086,0.116689175,0.083004184,-0.06936444,-0.14795657,-0.08346589,-0.073538944,-0.027186409,0.029265998,0.103935115,-0.25247777,-0.009470264,-0.046987854,0.031202877,0.2535474,0.0654148,-0.08946175,0.10334925,0.114135586,-0.083064005,0.11318308,-0.16938102,0.19728236,0.115574926,0.15932915,-0.047250684,-0.035932336,0.19148435,0.055660106,-0.049490947,-0.12826888,0.0075076385,0.08762292,-0.04088145,-0.011108312,0.18507154,-0.05456699,-0.3103961,0.013602625,0.16200244,0.14019905,-0.03214629,0.18597974,0.061728932,-0.09166643,-0.07695917,-0.017844485,-0.034520697,-0.15532516,-0.2658741,0.10224225,-0.20986165,0.15197754,-0.043024886,0.117889635,0.08695123,0.030078148,0.11924157,0.254207,-0.09825792,-0.033667393,-0.06528451,-0.11811588,-0.069056235,0.15478857,0.2540532,0.04292838,-0.028286146,-0.057585374,-0.24815978,0.101138346,-0.090495706,-0.29765806,0.0068031913,0.09997867,-0.058368806,0.064684294,-0.018388372,-0.17838126,-0.045276254,0.1941708,-0.13869582,0.13752587,-0.057951685,0.08978895,0.119685635,0.04685762,0.09443523,0.16408578,0.13076635,0.06054946,0.10434547,-0.046334065,0.009600314,0.09761798,0.011075212,-0.12602416,0.121341415,0.003820112,0.0023370371,0.13376346,0.045055024,-0.10784274,-0.032032557,-0.17032161,0.32579985,-0.030292135,-0.17691585,-0.151694,0.07409096,0.021841541,-0.116450645,0.07437395,0.084314235,0.14495528,0.048365735,0.07206081,0.08059411,0.15672608,0.15339492,0.045437295,0.11876583,0.08291109,0.115690425,-0.14327252,-0.054835297,-0.037963398,0.15446307,0.010906575,-0.021597099,0.029222814,-0.021765951,0.052354205,0.045437284,-0.09955349,0.0670112,0.03923413,-0.13959587,-0.040160008,0.13846058,-0.018364264,0.1424435,0.018601034,0.15754248,-0.20821814,-0.0177351,0.038784344,0.07473433,-0.0329372,-0.088903174,0.12712266,-0.021543527,-0.17386632,0.105704665,-0.27645692,-0.036070235,-0.05057355,0.10850233,-0.1317534,-0.019887531,-0.13527745,0.14292115,-0.11132248,0.12558934,0.1018202,-0.14500996,-0.00014365865,0.03947091,0.18633224,0.025031362,0.008521165,-0.13387507,-0.06821127,0.063005604,-0.07643852,-0.01526184,0.07090668,0.08166469,-0.13837197,-0.08696134,-0.13645051,0.05976244,0.052734323,-0.18883578,0.12908313,0.057556774,-0.019853037,0.07022461,-0.023665214,0.11128877,0.02645963,0.06650754,0.09169516,0.063543394,0.12838182,0.079412155,-0.13639817,-0.12750852,0.085466504,0.08332846,0.1840977,-0.056934,0.0016149228,-0.19992875,-0.026121065,-0.11829996,0.011286993,-0.04078487,-0.06967901,-0.138173,0.08218557,-0.07078298,0.037382804,0.05369297,0.12517624,-0.06266679,-0.30229613,-0.119390026,0.19115178,0.046262167,-0.0030124777,0.0034996935,-0.029887533,-0.033928026,0.13508178,0.01005803,0.038102347,-0.14494632,-0.084476255,-0.06398217,0.08113714,-0.02084493,-0.04859434,-0.07070428,-0.09343831,0.07108202,0.029625086,-0.10982562,-0.09795349,0.06452187,-0.0818295,-0.0061472217,-0.20248903,0.00025487822,-0.0881096,-0.07545948,-0.12826057,0.07821369,-0.25272575,0.057583977,0.007828297,0.116649255,0.041283105,-0.11539929,0.18014462,-0.020054363,-0.052555233,0.015731039,-0.0383693,0.088620536,0.007979916,-0.14642864,0.1149754,-0.037049633,0.21629806,0.08532061,-0.081798844,-0.30029202,0.14119066,0.05126311,0.051415313,0.087637305,0.084619865,-0.02882231,-0.1425346,0.14443031,-0.11206761,0.032029007,-0.007538387,-0.049147673,-0.11865855,-0.072623916,-0.011664123,0.06934638,-0.20963062,0.059263933,-0.26243675,0.07626733,0.0557263,-0.120476514,0.08247462,0.20661712,0.02868142,-0.07838022,-0.2775718,0.05697353,0.20301718,-0.18917184,-0.0026844507,0.06783232,-0.08440393,0.29168242,-0.08812228,-0.06974462,0.01906322,-0.06411671,0.023928571,0.11134938,0.029349538,0.14187147,0.2682112,0.19819194,0.15503614,0.07437159,-0.11818171,-0.05478637,0.19092548,0.022510739,-0.10488725,0.13265087,-0.3378395,0.086130336,0.020573104,-0.09881057,0.10795212,-0.09695661,-0.08236653,0.06065334,-0.1816407,0.022028519,-0.10566659,-0.1935758,-0.16540402,-0.0101785315,0.21382362,-0.0661736,-0.1554476,-0.032727815,0.31841305,-0.12207281,0.2480673,0.11323035,-0.058011718,-0.07897966,0.13137156,-0.13370132,-0.12291603,0.045717143,-0.038076427,-0.11154813,-0.10879282,0.13789435,-0.04209639,-0.03035976,0.08700761,-0.123315655,0.103260964,-0.1304961,-0.22025387,-0.13823155,0.12086509,-0.16768986,-0.042144272,0.18762614,-0.1610429,0.050020482,-0.052269217,0.08244203,0.038343154,0.020452775,-0.18665867,-0.10605001,0.16827847,0.009547913,0.03582563,0.209855,-0.15728274,0.1631355,0.11362753,0.06470846,-0.02397217,-0.12219874,0.03399481,0.0539312,-0.01842094,0.22456019,-0.16222417,0.008598583,0.3140696,-0.14742014,-0.105008386,0.06317122,0.14638814,0.13159639,0.41252828,0.20928939,0.021842971,0.023230389,0.13178512,0.09130887,0.03433688,-0.0664766,0.14706203,0.06275527,0.16503559,-0.21931578,0.018896556,-0.0025406957,-0.05502924,0.0313142,-0.053766053,-0.07423754,0.10543549,0.03547981,-0.07744028,0.021700617,-0.10859527,-0.13674515,-0.0018906674,-0.09378591,0.05694106,0.13677892,0.09891653,-0.07326233,-0.08655315,-0.13334599,-0.10920319,-0.14005613,0.109835394,-0.018797632,0.0490396,0.1350601,0.0539636,0.09361386,0.030877931,0.14503582,0.215972,0.15423349,0.007153306,-0.0024157476,-0.017151441,-0.024283057,-0.011325461,0.119361304,0.16250527,0.00051355595,0.19524394,-0.17539443,-0.04249008,-0.059222057,0.14512874,0.12638648,-0.033696167,0.06606473,-0.06971331,0.0037082292,0.039345607,0.11156025,0.078038275,-0.06951927,0.20930216,-0.070190795,0.05854714,0.093618646,0.19118798,0.093038395,-0.09897246,0.0013472752,-0.22435136,0.10990366,0.22421274,0.021991564,0.2420902,0.23350081,0.16926394,0.050369095,-0.118832536,0.0916074,0.042591337,-0.09689419,0.03652892,-0.018727228,-0.0048120734,0.02662265,0.04633845,0.16664019,-0.061138313,-0.050205223,-0.033489536,-0.053733427,-0.06875017,0.23213765,0.16287678,0.23973185,0.0649619,-0.058341704,0.03779832,0.04872914,-0.060924433,-0.06069362,-0.06649999,0.039578833,-0.053771023,-0.04084404,-0.16115415,-0.049775437,0.036630034,0.15281865,-0.07315356,-0.08642063,-0.23967327,-0.005842731,0.087736905,-0.07082274,-0.233898,0.10518977,0.021594953,0.09800994,0.026790187,-0.046454713,0.14676273,-0.10063423,0.1217848,-0.018507669,-0.05426769,-0.09397368,0.3339221,0.061060134,-0.105372384,0.10869933,0.10125489,-0.056927312,0.2326407,0.066276446,0.28363067,-0.06671394,-0.036531683,0.0057983426,0.034270898,-0.08254803,-0.015903702,-0.15242271,0.0041701146,0.10585353,-0.018770978,0.04253362,0.11746619,0.2056056,0.10706081,-0.05190129,-0.003417099,0.059500374,0.08225908,0.20693956,0.10602474,0.015679918,0.10800554,0.023356633,0.10299067,0.040547494,0.14730859,-0.019979313,-0.045845397,0.07434088,-0.037559677,0.14686549,-0.14368735,0.039008956,-0.056705475,0.031071484,-0.1303947,-0.020014131,-0.072850324,-0.02990333,0.034091674,0.0966097,-0.08798854,0.024611527,0.11517974,-0.0845009,0.022658998,-0.092955016,-0.010442481,-0.06647447,0.11226272,0.1145422,0.0816492,-0.10980648,0.12524073,-0.027055927,-0.06267374,-0.08817474,0.123432286,0.07445413,-0.10574217,-0.12155034,0.13463444,0.07750109,-0.14410871,0.078081094,-0.11917041,-0.06285259,-0.030114448,-0.11628632,0.014740147,0.13692784,-0.09095247,-0.12221467,-0.06338848,-0.09284083,0.10967862,-0.10612896,0.06994566,0.11634115,-0.0076163737,-0.08672514,-0.008145272,-0.03515641,0.07089052,-0.10696622,-0.02507583,-0.26235467,0.089793056,-0.04945781,-0.2452676,0.15717997,0.025361242,-0.0023491972,0.13665447,-0.055477444,-0.11131275,0.10043671,0.19138406,0.08028607,0.031087106,-0.33863026,-0.0612954,0.14955616,0.009808014,0.18531287,-0.052565318,-0.025941294,-0.011483669,0.14515427,0.0369217,-0.2020372,-0.040696263,0.10175383,0.06096826,-0.028464181,0.103167355,0.036463916,0.1713757,0.09622301,0.055278506,0.092640184,-0.14555855,-0.10957519,-0.015858779,0.01545732,-0.103643864,0.14879009,-0.010723372,0.12615165,-0.0036920905,-0.10908087,-0.15986167,0.1419237,-0.05644457,-0.062483132,0.09231534,0.04826477,-0.051379405,0.14713852,0.11223128,0.0655232,0.1487012,0.2452163,0.14632711,0.15963566,0.15988018,-0.17471509,-0.19806482,-0.3652163,0.16913535,0.35625213,-0.24657701,-0.07513329,0.2144866,0.2432519,0.21671525,-0.16947159,-0.34436068,-0.041865982,0.15862298,-0.06281903,-0.14401238,0.01520994,0.17548947,0.2023686,0.058731336,0.244741,0.024880834,0.05802985,-0.22300988,-0.2297932,0.038672846,-0.11443752,-0.13711223,0.23803617,0.06726528,-0.07643482,-0.007724083,0.09413331,0.015875623,-0.13061288,0.2130411,-0.05222577,-0.18342428,0.13110411,0.2591304,-0.0030184193,0.15823086,0.12166601,-0.15017895,-0.17679329,0.101000145,-0.09133628,-0.02267016,0.07205567,0.17713958,-0.21725076,-0.18435393,0.15451121,-0.23319438,-0.020133395,-0.117099896,0.17854513,0.17663854,-0.044419512,-0.09397854,0.09958016,-0.24527323,-0.40192094,-0.13987367,-0.078752,0.12732096,0.29842052,-0.13445313,-0.031085815,0.23676205,-0.1764275,0.2005221,-0.19756493,-0.15462452,-0.017374737,-0.100414455,-0.18219611,0.23286335,0.07514466,-0.051707666,0.03067535,0.09549895,-0.08235487,-0.1849063,-0.12398106,-0.11922127,0.12743333,0.14471923,0.21837156,0.21173543,0.12081793,-0.12997867,-0.1416218,-0.1255157,-0.09254499,0.2087555,-0.13757536,-0.2737233,0.006985684,0.06663516,-0.109697044,0.032674283,0.19355693,0.032824,0.15494403,-0.04147467,0.020478992,-0.072044045,-0.04280938,0.13730295,-0.06381632,-0.12491751,-0.1440604,0.04210232,-0.027221113,-0.024296112,-0.05308708,0.088680014,0.02360278,0.09511031,0.08436461,-0.056570165,0.007141427,0.1091092,-0.15808177,-0.070313245,0.2236624,-0.19842534,-0.15510762,0.10150512,0.15142354,0.015866283,-0.19209749,0.189382,-0.037605785,0.07074231,-0.110925436,0.16325985,-0.0017481779,0.23235114,0.078945376,-0.13563083,0.027914401,0.033222273,0.10184927,-0.10432721,0.08790996,-0.12927286,0.1380734,0.16627756,-0.052021146,-0.0012058754,0.007667128,-0.03970371,-0.13211475,-0.095668,-0.044565547,-0.16222532,-0.035325594,0.036039516,-0.010197171,0.063299626,-0.11465521,-0.22934473,0.1367629,-0.07811204,0.070301846,-0.032689784,0.022583688,-0.16786888,-0.044818826,0.07423843,0.0134948185,0.2059199,0.08653372,-0.16609497,0.09615986,-0.12979963,0.11635766,0.23908976,-0.16385615,0.0145053025,0.15408406,-0.08696394,0.1405728,-0.11133363,0.029315164,0.2103946,0.06568127,0.1632746,0.1934727,0.077242054,0.11898943,0.45660803,-0.14057373,0.066278875,-0.2280175,-0.046474684,-0.11232944,0.07357001,0.005817317,-0.1444061,-0.015643477,0.090492174,0.036894124,-0.07185458,-0.05825466,0.14761141,0.053860247,-0.029102547,-0.0637141,0.17413677,-0.100099854,-0.07484689,0.053352468,0.12472605,0.14592887,-0.0060206344,-0.08973073,0.28809604,0.051060297,0.03087363,0.07455956,-0.057089973,-0.0910398,-0.068294324,0.027987113,-0.049684532,0.026204823,-0.09541753,0.060698766,-0.13385226,0.02296495,-0.01781188,-0.1989179,-0.073278554,0.021293178,0.041274894,-0.093339,0.054281604,-0.0767451,-0.042207196,0.044546846,-0.09715514,0.017559044,0.18936756,-0.12424352,0.0928107,0.13242324,-0.18171252,-0.0123474235,-0.10252022,-0.152662,0.27249962,0.038437244,-0.071691625,0.07642725,0.12613623,0.011958408,-0.062308747,0.042981498,0.1962499,-0.08404377,-0.33542863,-0.014933004,0.020028304,-0.053843237,0.073810704,-0.094406545,-0.06463103,-0.22868012,0.16851877,-0.028725766,-0.3637951,-0.019070921,-0.14176752,-0.064859904,0.015174959,-0.18692659,-0.13465759,0.08552925,0.13712747,0.07236826,0.052391246,-0.024885762,-0.040955044,0.030868983,-0.06967779,-0.1154754,-0.10523367,0.054618236,0.039251335,0.12701094,-0.1222614,-0.15579706,0.029522194,-0.105373435,-0.047915526,0.08807678,0.15844437,-0.095208265,-0.079988904,0.08099986,0.01614381,0.25289467,0.056280516,0.025897805,0.08444492,0.017619178,0.15944281,-0.07887643,-0.119299755,-0.11382211,-0.05904933,0.011651409,-0.10148493,-0.13630535,-0.05691942,-0.11338669,-0.27127415,-0.14938939,-0.0039271447,0.009858833,-0.011052858,-0.19846669,-0.058480375,-0.1471605,-0.05725159,-0.09060725,-0.01901238,0.10244303,0.16974983,0.13985994,-0.21376084,0.059143014,-0.05440411,-0.004378598,-0.13104501,-0.019615639,-0.088228874,0.008007607,-0.07184099,0.0014513878,-0.04801835,0.10305937,-0.05704272,0.14125372,-0.05073128,-0.025787795,-0.022641065,0.11376116,-0.09421846,0.13131621,0.03437258,0.09106273,-0.017914584,0.08432708,-0.0022494611,-0.17047161,0.069330305,-0.09539046,-0.17526948,0.15053213,-0.08940845,-0.085307695,0.03880856,0.0513333,0.13608088,-0.054849137,0.017135171,-0.09784242,0.077598415,0.07005809,0.0985474,-0.13880901,-0.120136246,0.022474358,-0.08321349,0.1160138,-0.09035175,-0.120790005,-0.08505495,0.104349904,0.09184768,-0.047627117,0.04283145,0.0784392,-0.08678352,0.22060753,-0.029437033,-0.054373916,-0.036839105,-0.09140002,-0.0014247675,-0.0070241312,-0.08821752,0.059043173,0.26685548,-0.041632134,-0.1803627,0.0334982,0.08300488,-0.028064456,-0.04221681,0.118795544,-0.03389893,0.11171567,-0.202823,0.10197854,-0.1141588,-0.062105797,0.17142597,0.1448029,-0.1523868,0.11671614,0.07219298,0.0033256821,0.14465058,-0.06944204,-0.09240127,-0.052715246,-0.010309777,-0.030460546,-0.032323893,-0.019385383,0.025513882,0.08355548,-0.10420727,-0.31638855,-0.06300541,-0.19984232,-0.035421416,-0.21047893,-0.034235217,-0.22110307,-0.04649077,-0.034092642,-0.21746716,-0.075170696,0.025324056,-0.08842113,0.32802835,0.11463561,-0.11355047,0.08646327,-0.1894617,-0.033393085,0.02913547,-0.03922692,0.21573693,-0.090220846,0.1527465,0.17639853,-0.10445715,0.32314193,-0.07666951,0.09288189,-0.1863616,-0.07287954,0.06779392,-0.005241251,-0.12973876,0.025639322,-0.046614286,-0.100592755,-0.048578825,-0.08776461,-0.075354055,0.027033092,0.06599575,-0.12606701,-0.0678338,0.17157675,0.21343169,0.09849917,0.17310101,0.08711235,-0.020530814,-0.09184078,-0.13494141,-0.04370114,0.09179096,-0.022630535,-0.08811174,-0.013465901,0.19844012,-0.00723508,0.026392415,-0.27428156,0.12629434,-0.010941724,-0.030805439,0.20232926,0.12971264,0.016902167,0.2687224,0.11815476,0.17632058,-0.035945382,0.17599846,-0.057604495,-0.06301247,0.09129542,-0.018784609,-0.090874046,0.06860369,0.033574454,-0.020487763,-0.16022903,0.1493215,0.07128942,0.0912055,-0.005675109,0.05487779,-0.09515494,0.123616084,-0.009734131,0.0109897,-0.059207886,0.14593174,0.021408228,0.0541189,0.061141662,0.038223002,0.19675845,0.110916615,0.070748076,0.16061293,-0.15168287,-0.057696823,0.07117996,-0.02191304,-0.011849435,-0.124528654,0.09329261,0.020687569,0.022733083,-0.053107265,0.10307834,-0.1577857,0.027782794,0.12773938,0.10708367,-0.0050052167,0.020309422,0.21339573,-0.30941853,0.050383158,0.005621209,0.06151018,0.06684926,-0.037805554,0.0935868,-0.14639689,0.13432834,-0.07562264,0.008056644,0.091424495,0.15525545,-0.14707781,0.045137588,-0.050005846,0.15970263,0.12030375,-0.14133492,0.16058354,-0.0019160467,0.09205009,0.01071713,-0.13288163,-0.12661754,0.016904373,0.15329969,-0.088738255,0.17898612,0.16775243,0.13870044,0.15112023,0.008805657,0.05690613,-0.22801042,-0.13072798,-0.076264165,-0.18417613,-0.04382258,0.10284068,0.0024249626,-0.094401196,0.020269426,-0.15863791,-0.081208564,-0.08166437,-0.101154745,0.017726414,0.014757032,-0.0031024476,-0.04477605,-0.07281396,-0.075136416,-0.097842015,-0.06500103,-0.037921596,0.042982772,-0.0620354,0.23302795,-0.13832417,-0.03494077,0.04283399,-0.10966517,0.16478771,-0.08094925,0.087734975,0.09697493,-0.09047267,0.004311851,0.18464085,0.0074264235,-0.15173744,0.29218212,0.012428246,-0.064755745,-0.00025168716,0.048464067,-0.19903284,0.066508956,0.12578666,0.031285875,-0.016620724,-0.033150867,0.046743974,0.20947483,0.0407442,-0.06371885,0.15081681,0.09315986,0.021661714,0.086359456,-0.098104596,-0.14377816,0.24312514,0.099309355,-0.056820747,0.019626973,-0.018205348,-0.04432681,0.09941313,0.066308096,-0.20941484,0.06323729,-0.15292053,0.053804073,-0.08768619,0.073973045,0.087998316,-0.07472013,0.038483515,-0.17599846,-0.09386209,-0.045368675,-0.11595323,-0.027740173,0.05841387,-0.009940466,-0.11582938,-0.1280127,-0.08345489,-0.11489426,0.017307006,-0.0729386,0.035408545,-0.15626372,0.04882269,-0.133822,0.033553567,0.336684,0.18634976,0.00077785196,0.0058468026,0.21380018,0.013660503,-0.06373777,-0.016079856,-0.14898977,-0.088477805,0.1296315,0.054439865,-0.104484685,0.037985038,0.035347275,0.04227818,0.1464415,-0.14355743,0.06449356,0.0379144,-0.010977812,-0.12455672,-0.28662348,-0.1268468,-0.11459044,0.15286438,0.20597118,-0.16970246,0.027452702,-0.32617822,0.0151700135,-0.08557989,0.08220328,-0.123060204,-0.14548421,0.04936666,-0.03970258,-0.065387316,0.124242455,0.13568999,0.017602338,-0.013676089,-0.02062426,0.11945222,0.02976342,0.1442803,0.14830834,0.09560803,-0.066028334,-0.14612544,-0.10611901,0.03754589,-0.11528007,-0.038519852,0.13532786,-0.07742994,0.123414695,0.04352803,0.008343172,0.08108043,-0.14253263,-0.05019404,0.14215706,-0.106603,0.05862679,0.03988726,-0.10176939,0.1300989,0.09677853,0.046366446,0.038479507,-0.13251859,0.045813967,-0.05743668,0.027000649,0.138534,-0.029568568,0.041640107,-0.055404738,-0.09652879,0.001271322,-0.01625876,-0.015279944,-0.11051278,0.11613394,0.039897785,0.082858495,-0.060486495,0.09390511,-0.12012289,0.11002658,-0.086559646,-0.0413262,-0.08445112,0.030853232,-0.08242869,-0.22850303,-0.060322892,0.04175455,0.07664773,0.032525744,-0.028315967,0.046633568,-0.126137,0.032104176,0.02863489,-0.27675733,0.101120435,0.079742715,-0.024861537,-0.27979514,0.07132809,-0.11253801,-0.04572312,-0.096878976,-0.05013816,0.13968714,0.16539499,-0.13792534,-0.015233592,0.00990511,0.031100774,-0.2881765,0.028396722,0.086339846,-0.097177364,-0.1229171,0.0305684,0.0074152914,0.20251073,0.03811118,-0.088350326,-0.13151495,0.03600295,0.32949853,0.06848064,0.0859399,-0.16996092,0.11288837,0.118887834,-0.1113613,0.034207474,-0.11925412,0.018489894,-0.10066073,-0.2045716,0.13652216,0.09353786,0.20779955,-0.15541075,-0.10579613,-0.004195797,-0.19179657,0.022218393,0.07528357,-0.19077584,-0.08996442,0.042066887,0.22998106,0.18893063,0.09109413,-0.027937578,0.04566059,0.12342918,0.08980407,-0.1414257,0.11180562,0.1047499,0.19317235,-0.20026696,0.07311101,-0.010205729,-0.15155713,0.11407284,0.1112388,-0.10153524,0.04987771,-0.12618195,0.022889592,-0.14882997,-0.006283146,0.06394718,-0.13891648,0.022911388,0.12569124,-0.07620584,0.031940363,-0.10110052,0.14469378,0.14974688,0.075786754,0.11739524,-0.0510815,0.03953671,-0.0070629814,0.17293476,-0.045843545,-0.048143588,-0.020872384,0.20147985,0.014210094,0.085168526,-0.11065651,-0.0152533455,-0.018244104,-0.012582042,0.113897175,-0.119999915,-0.18121268,0.01715749,0.09213406,0.024906376,-0.2224504,0.052250404,0.11231285,0.22958775,0.12893902,-0.06490913,-0.0832768,-0.014618289,0.07504198,0.1278397,0.06220623,0.10758068,-0.1511701,-0.05002974,0.06503459,0.08193123,0.078427285,0.24005955,-0.25850305,0.11800185,-0.044370178,-0.0958836,-0.11440483,0.21045026,-0.23843116,0.046116926,-0.056321647,0.036389634,0.1557856,0.061569232,0.022277704,0.019784577,0.07662913,0.19760695,-0.12014979,0.0063244887,-0.04404096,-0.24268219,-0.09684034,-0.09918651,0.018185265,0.045978427,0.09573327,0.09111585,-0.06928715,-0.07562512,-0.10762574,0.04038521,0.07949745,-0.32264096,0.03640505,0.24235806,-0.03292944,-0.11760289,-0.08015889,0.040961117,-0.1969232,-0.0003967377,0.028055694,0.061206013,-0.11910355,-0.0221796,0.11570769,0.028365115,-0.17153227,0.014183421,-0.112730585,0.050603736,0.043561917,0.21631378,-0.122518286,-0.11574163,0.025941025,-0.25715056,-0.0024286855,-0.07159666,-0.17763905,-0.16344225,0.06867845,0.11145135,-0.1798672,0.06834998,-0.14377703,-0.12215289,-0.10360998,0.056624588,0.08540695,0.0652438,-0.22989309,-0.083495654,0.24536653,-0.12407355,0.1305039,0.040034547,0.14341056,-0.22537461,-0.055149037,0.08149199,0.1676711,0.13790403,-0.017149756,0.05512956,-0.21185727,-0.13577716,0.1065072,-0.12152938,-0.056391884,-0.057696085,-0.10419827,-0.11751836,0.13587849,-0.038774863,0.062536284,-0.09910283,-0.06923119,0.16804571,-0.2670551,0.16824386,-0.23407383,0.100173704,-0.19692127,-0.004407212,0.011472485,-0.1408141,-0.040487006,-0.08161208,-0.011557777,0.08856727,-0.06402682,-0.03375154,-0.2249981,-0.08925223,-0.03481418,-0.00014046032,0.07678543,0.06761783,0.00523265,-0.22206546,0.20011896,-0.25781733,0.11864887,-0.15977415,0.03048598,0.010748077,-0.13266976,-0.0792744,0.21830739,-0.0663229,-0.03258897,0.042597853,-0.04566496,0.08105234,0.060443092,0.20355263,-0.06608451,-0.19569577,0.284345,-0.02514234,0.047380507,0.3070763,-0.06191757,-0.16347702,-0.015919682,0.023985803,0.045730516,0.18812297,-0.009477525,0.009815649,-0.00482594,0.03775503,-0.037544336,-0.014737193,0.053861827,0.24282655,-0.010127991,-0.08451633,-0.055255964,0.05037594,0.038789384,0.026857372,0.13146172,-0.2814283,0.10969481,0.028823834,0.009766933,-0.109400734,0.0708051,0.08787664,-0.044448163,-0.3205855,-0.05287686,-0.15411505,-0.2301642,0.047013745,0.054019593,0.08580783,0.20099194,0.19996038,-0.031813823,-0.26103687,-0.12829511,-0.21742839,-0.11157187,-0.0048516914,0.08653623,0.11656297,0.12250558,-0.1680828,-0.1518256,-0.116717756,0.10528928,-0.055657562,-0.08966933,0.11942716,0.08460133,-0.038576245,0.18607244,0.042945318,0.027702084,-0.047651786,0.061513595,0.16733947,-0.09960245,-0.16477023,-0.27942544,-0.0008943409,-0.14951517,0.016711736,-0.094637334,-0.1675096,-0.1404073,-0.0595898,-0.017668245,-0.03768978,0.013307188,-0.070580356,0.18518595,0.1484011,0.12615056,0.18744408,-0.12688547,-0.040080234,-0.007357461,-0.01623904,-0.22292566,0.11083096,-0.060626347,-0.032997977,0.016760373,0.032999355,0.13122639,-0.019922923,0.2083081,0.30938023,-0.13545923,-0.02231358,-0.21541736,0.06062707,0.06940254,-0.12519678,-0.123798095,0.069796026,-0.12360522,-0.06307631,-0.14028102,-0.269724,-0.13614891,0.1094167,-0.1291132,0.15964219,-0.010147762,0.09788004,-0.028378967,-0.02762211,-0.032084692,-0.11264635,-0.04327796,0.06575983,0.087384336,-0.1707549,-0.037186723,-0.057996318,-0.099900514,-0.05381729,0.034646783,-0.017977731,-0.07486409,0.11024091,-0.028681962,0.18882982,-0.15267257,-0.02976939,-0.07050398,-0.13513498,0.16874902,0.15487324,0.098450266,-0.12834398,0.01564872,-0.0636822,0.13151757,0.15934621,-0.022397688,-0.0894443,-0.0010411083,-0.11445235,0.07657386,-0.1785059,0.13105735,0.007714156,0.12248918,-0.21433626,-0.010760485,-0.118917264,-0.21364087,0.20041147,0.018437307,0.0034492328,0.053820226,-0.013671835,-0.3565064,0.12972786,0.039823312,-0.0046208226,0.09956646,0.008274212,-0.015243521,-0.0934506,-0.020740952,0.16402523,-0.08838635,0.06272927,-0.13729428,-0.1873441,0.14399996,0.015864719,0.21765748,0.2883034,-0.09632728,0.22747077,-0.16277942,-0.20872366,-0.055338446,0.21971335,0.044568677,0.09661927,-0.12298161,0.1878594,0.27600467,0.14885715,-0.08223891,-0.107006796,-0.065462954,0.032541215,-0.006125196,0.12360496,0.058204502,-0.21951105,0.013035814,-0.08187984,0.11167988,0.10612726,-0.116308205,-0.047366064,-0.12540202,-0.309624,-0.17675512,0.1414687,-0.04830943,-0.069493786,0.21515536,0.053090848,-0.32052302,0.16860086,0.03481136,0.04598164,0.048764028,0.05724109,0.07663025,-0.1394135,0.07039159,0.045703452,-0.0020447152,-0.19716579,0.17247607,-0.040799566,0.035582315,0.20283699,-0.27883086,-0.015468001,0.27975187,-0.054048005,0.020587778,-0.097113654,0.033151213,-0.11690738,0.09576772,-0.16524981,-0.035665985,-0.11729086,-0.020371282,0.00887997,-0.09592085,0.056346826,0.14076328,0.07503123,0.083554305,0.12953363,0.14966056,0.063698046,-0.17376384,-0.18487233,0.055806186,0.030041266,0.07234087,0.18779403,0.024394222,-0.13229658,0.13464017,0.09566459,0.029263124,0.24955572,0.28532246,-0.15208969,-0.11752604,0.10412857,-0.04480203,0.04509257,0.050239265,0.1479002,0.081556164,-0.056129765,0.013478505,0.04161536,-0.17324097,-0.11766773,0.27000475,-0.23000163,0.16491762,-0.0477916,-0.10127364,-0.08081042,-0.10475479,-0.016319256,0.03360937,-0.13092728,0.109779954,-0.0795941,-0.25800416,0.0018446598,0.11719925,0.10031441,0.15492027,0.21667884,-0.07429363,-0.08805237,-0.01908215,0.10663531,-0.04563571,-0.07346806,0.09204509,0.06012483,0.0026972133,-0.05060215,0.14597398,-0.06537945,0.124457285,0.1286815,0.11959197,0.04006691,0.14280169,-0.13831832,-0.07800415,0.10438417,-0.058863834,0.15557227,-0.08368359,-0.03272011,-0.1023212,0.01594469,0.11228336,0.050581556,0.012440563,0.16665782,-0.098491125,0.06059685,-0.1891236,-0.024903653,-0.073495,0.14108697,0.09283414,0.12324149,-0.052358054,-0.05799696,0.009749127,0.16514678,-0.024045724,0.05685076,-0.06930834,-0.12450162,0.016254637,0.13185428,-0.060025115,-0.13076337,0.21924713,-0.060473565,0.054493677,0.22973272,-0.15332483,-0.10251662,-0.10916608,0.114085175,0.015682384,-0.075806804,-0.011201831,-0.23769075,-0.05161278,-0.046053212,-0.0015713832,0.055363994,0.06685026,0.013901031,0.0603047,-0.11614962,0.03575421,0.013549462,-0.05639365,0.10443153,-0.16592667,0.018157465,0.19246627,-0.22250465,-0.04153896,0.047402497,0.21771668,-0.056984045,0.04633729,0.010930132,0.11054115,-0.098987326,0.12075067,0.17238085,-0.14370175,0.19803788,0.08523677,-0.11639207,0.06733531,0.21865092,0.048612338,-0.060461883,-0.09347491,-0.1938152,0.06449478,0.113386385,0.04089319,0.046449825,-0.2460196,0.03304671,-0.027892323,0.008607018,0.13497308,-0.05561837,0.12057834,-0.09970916,0.08079459,0.17867759,-0.10216126,-0.056105554,0.055465415,0.07740469,0.15947144,0.15499127,-0.112125434,0.18925823,0.07690288,0.020298451,0.16827394,-0.103950836,-0.19338824,0.09791198,-0.013090693,0.03409514,-0.17748672,0.077647984,0.11076247,0.040171783,-0.1193221,-0.22136252,0.19133683,-0.024774786,-0.29960334,0.15342443,0.09124503,-0.09282567,-0.030835614,-0.12943096,-0.14114721,0.009594622,0.1273775,0.13666089,0.023628758,0.13635449,0.20078965,0.17054686,-0.21037629,-0.10608773,-0.08810755,0.1496017,0.23372011,-0.18648958,0.046597533,-0.084496856,0.034600418,-0.024852678,0.17633614,-0.11633732,0.00706712,0.11967723,0.10502132,0.0313532,-0.11900367,-0.03966224,-0.020683467,-0.19351865,0.08623382,-0.0056395456,0.009860767,0.0008923585,0.4662018,-0.0699453,-0.020053409,0.2121058,-0.14319122,-0.08669488,-0.34921837,-0.0860816,-0.060919102,0.051554456,0.053542864,0.13654102,-0.015286147,0.011343457,0.035232607,0.19137074,-0.12911424,0.077892326,0.13068277,0.023999343,-0.11513597,0.096553124,0.16348936,0.009536886,0.0028251798,-0.0991073,-0.08651994,-0.012464074,0.13239807,-0.05799674,0.073676996,-0.12595652,0.10588233,0.099670716,-0.11859291,0.103942,-0.071109325,0.05714899,-0.1491522,0.018565476,-0.050606072,-0.10798325,0.13825743,-0.039544687,-0.12631561,-0.046097342,0.017937778,-0.012639999,0.12711811,0.048623595,-0.03387066,0.10133028,0.10064752,-0.13146129,-0.016440036,-0.12528548,0.018783655,-0.0991791,0.05052138,-0.14748375,-0.0030774286,-0.11994723,-0.0076270043,-0.09565655,0.13352706,-0.0052059544,0.09052236,0.0017234506,-0.012633953,0.08238457,0.045447636,-0.13039331,0.093302,-0.021923352,0.06312109,0.13240123,-0.1444793,0.11239225,0.039291263,0.08194384,-0.110384464,-0.1171414,-0.052704666,0.093870655,0.080123626,0.068724945,-0.056500938,-0.11924695,-0.050121706,-0.0027385156,0.09604437,0.040847924,-0.029800722,-0.04402266,0.13447917,-0.22825342,0.079130016,-0.1157867,-0.13445354,0.048396237,-0.022226596,-0.09598964,-0.081732064,0.0404951,-0.07461627,0.038738895,-0.030326968,-0.10670722,-0.14521387,0.03985706,0.123338975,0.0004152542,0.02752525,0.20778517,0.16207804,0.029307805,-0.09901204,-0.0109408805,0.00080162403,-0.018011145,-0.096720375,0.18676455,-0.08767127,-0.08167089,0.041271567,0.28609172,-0.27110732,0.13609128,-0.25877574,-0.015044814,0.012932798,-0.2380253,0.08853999,-0.059562307,0.1651203,0.0035153436,-0.08788155,-0.14590673,-0.070112176,-0.0113800075,0.012857942,0.09425923,-0.26744065,0.018207313,-0.091202766,-0.05316147,0.07026826,0.01450219,-0.056836937,-0.07337794,0.03195127,-0.06452086,-0.06482029,-0.074114405,-0.2341413,-0.06993472,-0.06858019,-0.19808279,-0.036955394,-0.019728625,-0.099635296,0.20733951,-0.106970534,-0.20008107,-0.03075641,-0.018684182,-0.2850294,-0.23230736,-0.2145204,-0.07735423,0.05434103,-0.16739362,-0.03474132,0.17110924,0.097428955,0.04419385,0.13523711,-0.13686423,-0.044182427,0.057728745,-0.07080728,0.08672817,-0.045393053,-0.07534157,0.022478811,0.052157857,-0.14216635,-0.25917208,-0.084093995,0.24357623,0.007147681,-0.2859848,-0.054785676,0.06443248,0.15183023,0.09498857,0.026462315,0.048105337,-0.036265213,-0.047599122,0.105485044,-0.10611991,-0.06085088,0.2591561,0.053811423,0.12974568,-0.26782796,-0.2115853,-0.18671161,-0.11085949,-0.055246927,-0.0740391,0.18570451,0.1358075,0.26023152,0.111224696,0.19754925,0.053405702,0.019427158,-0.102194406,0.14197896,-0.116313785,0.17493263,0.035385653,-0.0727677,-0.005593248,0.025483238,0.15191627,-0.103158586,-0.17346413,-0.015726095,0.2506135,-0.13806137,0.30950123,-0.10868568,-0.012251639,-0.038125288,-0.19697979,0.00678163,-0.20488441,-0.113121204,-0.17756835,-0.11564434,-0.13589792,-0.09052672,0.0015534061,-0.14897484,-0.17105992,0.017564673,-0.15023245,-0.040414732,-0.061737817,-0.07346781,-0.05827051,0.082281545,0.10370227,0.13833702,-0.03742581,-0.10387122,-0.20183757,0.23270287,0.12376921,-0.054163247,-0.14172629,0.051096678,0.3170127,-0.08983482,-0.010221201,0.15997437,0.031205742,0.109476835,-0.01157004,-0.036594987,0.07631163,0.01960909,-0.014179961,-0.18124484,-0.069251224,-0.047851913,0.2205616,-0.047571644,0.08140016,0.08946078,-0.24549943,0.21727611,0.005564007,-0.09498431,-0.14930242,-0.24698411,0.15353914,0.0809867,0.050167616,0.062228043,-0.04777632,0.069365844,-0.2337217,0.021417163,0.08448741,-0.089625515,0.062413186,-0.13300195,0.15396495,0.053212434,-0.3116539,-0.09915974,-0.055507865,-0.11321848,0.13346554,-0.051860467,-0.079022735,0.08776529,-0.030862872,0.3321184,0.0694926,0.08702205,0.19272065,0.036754575,-0.2123572,0.091411844,0.012890958,-0.26491365,0.019032225,-0.119404875,-0.09001995,0.2780871,0.09843742,-0.008187396,0.018128544,-0.020475056,0.18240571,0.11508296,-0.0066207377,-0.20080455,-0.09236403,-0.0035863845,0.0063557923,-0.12414688,0.09560289,-0.077677585,0.2169242,0.15541273,-0.045234393,0.09862811,-0.04538416,-0.03523724,-0.14567545,0.32047373,-0.0951466,0.13608061,0.07503425,0.037856735,-0.0759331,0.069820784,0.24405731,0.031894814,-0.004139843,0.18963122,0.042379912,-0.096224174,-0.14253661,-0.03266052,0.2574066,-0.062185884,0.13409859,-0.28098556,-0.16878964,0.13433528,-0.21365908,-0.06703999,-0.0512667,0.0036849214,-0.072996356,0.06983918,-0.04285113,-0.12398658,0.12563802,0.18354079,0.18166767,0.052654848,-0.07659991,0.06630724,0.16733529,0.07401725,0.09438337,-0.03678672,-0.027302742,-0.09510073,0.02992302,0.25070626,0.1794888,0.12104369,0.10107596,0.06735464,0.19147822,0.02961698,0.048373487,-0.24571094,0.053381592,-0.023780392,-0.08689246,0.1982711,-0.14284605,-0.006448729,-0.083055854,-0.0027435673,-0.085864685,-0.20086834,0.0126997875,0.054579765,-0.003735865,0.2421179,-0.09727942,0.07389712,-0.13066418,-0.15443343,0.12995832,-0.11446085,0.031089798,0.02923131,0.2172735,0.077765144,-0.09404329,0.16969736,-0.13247384,-0.03399563,0.093873836,0.09553715,0.123916045,0.055115085,-0.080672435,0.06567069,-0.032043494,-0.08822823,-0.12140454,0.013825028,-0.05524101,-0.032047678,0.18488939,-0.073430255,-0.10792201,0.044854473,-0.1400618,-0.13251112,0.42422307,0.14703813,-0.019135252,0.07284487,0.33164063,-0.1934942,0.07911862,0.0052574314,-0.062989816,0.075186536,-0.05275655,0.0080102775,0.06966626,-0.034130737,-0.0025169882,-0.13568139,-0.15887634,-0.004204432,0.11143429,-0.028015736,0.07442674,0.06563115,-0.08261779,-0.08555764,-0.1091798,-0.06869161,-0.08528842,-0.036029246,0.05254604,-0.086931534,-0.089736894,0.121912785,-0.010490056,0.12254823,-0.08601586,0.15640776,-0.08002554,0.028991725,-0.064285025,-0.25050563,-0.051965676,-0.037053704,0.12646912,-0.069807805,0.23548853,-0.09451655,-0.1145543,-0.11898846,0.28322357,0.005995066,0.048766047,0.0490185,0.095629446,-0.15389682,0.12512097,0.101551,0.12095046,-0.107656404,0.023461273,-0.1252738,0.043926682,-0.13393629,-0.023289153,0.10184224,-0.13309671,0.039176952,0.12842557,-0.33290365,-0.18925525,0.15648569,-0.23704436,-0.053038076,-0.06550853,-0.17643651,0.012072485,0.0622233,-0.19232282,-0.0690811,0.1053768,0.11309105,0.17056432,-0.10267556,-0.1294156,-0.049444593,0.082651004,-0.07170712,0.24266917,0.27502358,0.0206531,-0.07418791,0.12105066,-0.19407898,0.11987118,-0.11741002,-0.17139718,0.025237653,-0.12512255,0.17671338,0.08531699,-0.008549437,0.07408354,0.056714825,0.17300357,-0.058589388,-0.22038038,0.1174341,-0.019985849,0.10220264,-0.09058484,-0.058778115,0.22898512,-0.0197621,-0.10942497,-0.20858382,-0.03389266,0.024108198,-0.0044144015,-0.06471066,-0.070522845,0.12712187,0.13809378,0.0049132695,-0.29515842,-0.12266465,-0.09442054,0.15081508,0.010144362,0.056719292,-0.1049597,-0.08134154,-0.031201357,-0.14281528,0.16854599,-0.035228886,-0.11074234,-0.030706603,-0.16618606,0.09920398,0.14004238,0.19968991,-0.047019444,0.21162942,0.15031855,-0.053540703,0.012027786,0.20898551,0.097011,-0.10006561,0.13006343,0.03494003,-0.011233753,0.10991976,-0.088220045,0.023194073,-0.0388977,-0.0761493,0.087803446,0.00010860374,-0.1957912,0.14613777,0.13533893,-0.2569442,0.005446228,0.19387063,0.020089993,0.21826491,0.18442927,0.1260278,-0.06646862,-0.02073421,0.29344302,-0.009785063,0.023181966,0.23501466,0.11874883,-0.026305621,-0.072836444,0.07396244,-0.031939287,0.014747987,0.11846155,0.0018416377,-0.050417643,0.0993183,0.0087414,-0.0994946,0.03250687,0.12938263,0.18961832,0.18431433,0.07727889,0.004113308,0.20566954,-0.030269163,0.0975504,-0.28559527,0.08155522,0.008346634,-0.05222027,-0.14789677,0.21593398,-0.050888233,-0.1291748,0.04264506,-0.058675487,0.012029321,-0.035150804,-0.14450955,0.14987499,-0.15694092,0.012030586,0.023531355,-0.19855943,-0.0106634265,0.11842408,-0.12264882,-0.22813286,0.17794639,0.10353825,-0.140202,-0.09528871,-0.08283233,0.0046651373,-0.06573816,0.041688915,0.0475343,-0.09416969,0.073692,-0.1385413,0.11025059,-0.009693364,0.10339364,0.002837948,0.0076854485,-0.037802655,0.071065225,0.0002868661,-0.076520994,0.13816677,-0.14512026,-0.03822089,0.075910605,0.019017331,-0.09735485,-0.2799315,-0.119033106,0.2050737,0.23223907,0.04166633,-0.14544393,-0.1831191,-0.1218541,0.023092676,0.1341527,0.084160045,-0.028059589,-0.049689602,0.14626686,-0.09084929,0.019177318,0.14420712,-0.038972955,-0.1609352,-0.016193083,-0.2352472,-0.02533211,-0.123898216,-0.114768885,0.24337187,-0.041413628,0.13343602,0.22601172,-0.07020021,-0.10195969,-0.13725835,-0.10542571,0.081823066,-0.09710811,0.14358035,-0.12316678,0.1220911,0.024005283,-0.1731905,0.1354869,0.15826349,0.042333532,0.030315451,0.13103972,-0.12086133,-0.053168252,-0.027616294,-0.027098581,0.06490983,-0.10295498,-0.033909123,0.015833393,0.118198164,-0.17579474,-0.0769558,0.007988202,-0.11954097,0.09782231,0.18042292,0.026485149,-0.021907248,-0.15484902,-0.057530686,0.13583288,-0.08023825,0.041326463,-0.10288182,0.13972846,-0.069212325,-0.0057654786,0.03285397,0.012969197,0.25431335,-0.08618416,-0.1078393,0.064310126,0.05877634,0.049385715,0.068060525,-0.18681715,0.18013807,-0.033840705,0.022018958,-0.01042172,0.059664145,-0.22274698,0.08017035,0.007880999,0.0001494319,-0.033503946,-0.018707138,0.041500807,-0.18734096,0.05589147,-0.13682309,-0.24455683,-0.028665967,-0.12126115,-0.07232655,-0.12376692,0.15480538,-0.02036744,0.102513544,-0.14554434,0.079664916,0.089475885,0.091354094,0.03136995,-0.056714043,-0.22734123,0.09591654,0.07497928,0.0039115516,0.11108239,0.10925558,0.058037598,0.13618623,0.08632246,-0.14201713,0.16313902,0.13747093,-0.036818974,0.0010912237,-0.079643495,0.12937224,0.01124701,0.014066839,0.13116652,-0.045469385,0.1140452,-0.04089582,-0.1175597,0.054691803,0.120139375,0.1710447,0.08414495,-0.28037515,0.07527967,-0.123494156,0.06554975,0.14779839,0.07706244,-0.15510511,-0.24100873,-0.018347757,0.17141865,0.13191415,0.016189778,0.21665858,-0.002406852,-0.057525244,0.10159465,-0.058833234,0.0678634,0.007586391,-0.18618836,0.03592696,-0.18074748,-0.05521367,-0.15415554,0.12355279,0.31483513,0.16775575,-0.08954661,0.16743815,-0.11841395,0.09259958,-0.24191397,-0.07153698,-0.115540564,-0.016381674,-0.07118246,-0.124986336,-0.046435066,-0.021960132,0.031104928,0.029310593,-0.053209662,0.14529663,0.13769452,-0.12501404,0.057437517,0.14804053,-0.08786532,-0.14529154,-0.10278963,0.0086454535,-0.061977513,-0.1298547,-0.03581277,-0.14753154,0.037551634,0.12254563,-0.10720037,-0.036441322,-0.11228571,-0.13142563,0.07939763,-0.0942717,0.062871054,0.008915681,-0.043335214,0.07599179,0.07916581,-0.14563772,-0.07241339,0.10784972,0.0798019,-0.05597534,0.021176666,-0.07013529,0.006193242,0.09444138,-0.045027435,0.1302883,0.10913055,0.005184229,0.101604074,0.09906359,0.12604162,-0.06945945,0.11798396,0.024573695,0.03784485,-0.030973185,0.10942375,-0.14922948,-0.07962928,0.07014417,0.13454026,0.0680968,-0.064934954,0.050432492,0.052462123,-0.26811197,0.20930447,-0.010102193,-0.01312463,0.020392915,-0.08958321,-0.022827018,-0.07861375,-0.1552321,0.01379471,0.18840928,0.048316233,-0.017633496,0.19924761,0.18429174,0.11187755,0.09786234,0.12547894,0.0003188343,-0.024456097,-0.1847535,0.040552314,-0.010729637,0.054969218,-0.0797133,0.021455884,-0.28384992,-0.05810979,-0.0019953097,-0.034624428,-0.0656678,-0.17394832,-0.107586205,-0.13494506,0.016690284,-0.25847805,-0.075073645,-0.17620598,0.12780683,-0.20279454,0.13133457,0.05126407,0.22820376,-0.16141549,0.042962022,0.14578381,0.013861541,0.07722893,0.017819373,-0.19379285,-0.2968064,0.05175873,-0.11085867,-0.032901645,0.30443406,0.028717399,0.070311286,0.06250379,-0.13654828,-0.12666292,0.12748595,-0.016992865,0.038168088,0.0021067637,0.053999383,0.1730955,0.09206739,0.005280336,0.14253777,-0.07782348,0.053057626,-0.018809386,0.095460355,-0.1003057,0.19233431,-0.09466244,-0.16029406,-0.034814537,-0.0027407405,0.017837359,-0.026325615,-0.017448718,-0.16244702,-0.07872041,-0.0011460048,-0.2870497,-0.16866189,-0.027235229,-0.16440853,-0.059531942,0.2590781,-0.13511296,-0.059289757,-0.05907262,-0.101877965,0.11869067,-0.025564857,-0.14424948,0.17750087,-0.03834359,-0.11080864,-0.07484481,0.24459496,-0.07440841,-0.038551938,-0.11183834,-0.24763502,0.11642282,0.15845625,-0.07801536,0.10864624,-0.09512587,-0.14082977,0.08549158,-0.11990423,0.09716209,0.08858185,-0.26019743,-0.043943055,0.16639146,-0.025124969,-0.015037495,-0.05147771,0.058409594,-0.20956582,-0.118965425,-0.23890154,0.081255674,-0.06555558,-0.13375959,-0.22347568,0.19317092,-0.0035875193,0.0446547,-0.037723105,-0.12457761,-0.013312873,-0.022311887,-0.029343972,0.1025063,-0.07488343,-0.17406255,-0.1938132,0.027884245,0.0070050517,0.14488313,0.059468172,-0.014327064,-0.2048856,0.049107257,0.14485893,0.048945855,0.045179266,-0.052799758,-0.1738349,0.019397564,0.016234519,-0.04921312,0.091934666,-0.017347313,-0.16836807,-0.10724685,-0.36128902,-0.1268262,-0.111466385,-0.03216674,-0.1847125,0.191004,-0.05700973,-0.023983868,-0.01295561,-0.0874256,0.056566555,-0.02097509,-0.2660687,-0.07935253,0.016689803,0.02444305,-0.0468111,0.013367629,-0.056354586,0.0013593311,-0.08991706,-0.18080588,0.024701457,-0.00084473495,-0.24076593,-0.0030268654,0.124849714,-0.09107175,-0.07206786,0.21508214,-0.093552545,-0.15783769,0.0999228,0.070403345,-0.09675354,0.07765374,-0.02716501,0.01669236,0.21588036,0.09581927,-0.12819888,0.018516585,-0.09681982,0.045630664,-0.18971127,0.0031323293,-0.030364564,0.06877775,-0.2188987,0.037287116,0.14899713,-0.1697133,0.09090264,0.021271344,0.1895352,-0.07818528,0.036853854,0.023916889,-0.086279504,0.12921359,-0.11490282,0.2237733,0.14277503,0.021808982,-0.025776854,0.0005953811,0.0040165093,-0.10145926,0.04833505,-0.11255199,-0.03977329,0.03729514,-0.080692634,0.2497578,0.03415144,0.013889017,0.05355087,-0.0028376773,0.15839131,-0.08232964,0.16942659,-0.064599395,-0.04197667,0.12345808,-0.22156706,-0.007043821,0.0017123941,0.048087172,-0.06743466,0.20456162,-0.09760508,0.22057465,-0.082688265,-0.006065429,0.055464383,-0.022422545,-0.20869157,0.039293688,-0.21853201,-0.09876891,0.13503493,-0.047667343,-0.056565367,0.06447929,-0.10136338,-0.1122703,0.010680338,0.028699832,-0.038013313,0.17807923,-0.06462844,0.12843083,0.07105177,-0.18439351,0.115197785,0.050738,-0.038374968,-0.11285089,-0.08873839,0.08212208,0.01564079,0.0034144383,-0.16364361,-0.07488956,-0.17915238,0.21038517,0.11787053,-0.034449216,-0.14206171,0.119570665,-0.11891643,-0.08003341,0.10579805,0.066523634,-0.10219697,0.121564716,0.058606196,0.017497161,0.18377101,-0.019648647,0.12898944,0.09780981,-0.08383278,-0.14876328,0.06263589,0.051674075,0.08406661,-0.03778068,-0.12199488,0.11777626,-0.006633153,-0.14963156,-0.15813236,-0.15287533,0.015979191,-0.2414256,-0.20428647,0.08243469,0.13130917,0.20213714,0.12938978,-0.25419378,-0.13477631,-0.095476024,-0.3050687,-0.01773694,0.045255907,-0.20946793,0.10940521,0.1496262,-0.0435324,-0.08153605,-0.10004665,0.2085004,-0.02809233,0.085525125,-0.0782698,0.12175596,-0.04591675,-0.0868277,0.021597002,-0.0076311016,-0.15213175,-0.014489478,-0.03737879,-0.062937796,-0.28020373,-0.00210334,-0.046823107,0.11081203,0.06601823,0.08267913,-0.04371196,0.08674731,0.09957429,-0.12744436,0.054948766,-0.03243547,-0.028608596,0.067539565,0.023135213,0.1408481,-0.03985406,0.010862308,0.06940272,0.11554705,-0.13905111,0.068381,0.11496602,0.20463812,-0.09954492,0.18982635,0.07334792,-0.20637225,0.12517595,0.091961704,-0.11862621,0.051507033,0.15759113,0.15784682,0.27695414,-0.11606071,0.10086646,0.13592368,0.18315828,-0.0850571,0.048279908,0.05203555,0.09054155,0.041792136,0.044483982,-0.24320747,0.15942672,0.12893201,-0.09057003,0.02693541,0.042411845,-0.09810769,0.0016746038,0.06114822,-0.04082109,-0.017370457,0.11064006,0.027818423,-0.004168328,-0.08910553,-0.11374745,0.057951413,-0.03958247,-0.049451213,0.029864112,-0.056092814,-0.038222697,0.032653324,-0.031558055,-0.04662262,0.16590628,0.11521894,0.026924908,-0.15380947,0.11075803,0.0516779,0.17865977,-0.19007486,-0.140814,-0.017344613,-0.009857834,0.07561768,0.06005667,-0.057088416,-0.08544141,-0.064045526,0.10787807,-0.013955401,0.14130458,0.06726907,-0.10945977,0.19292149,-0.08233315,-0.10930914,-0.060167074,0.003702543,0.116958424,0.16506085,-0.020273965,0.075297736,0.057862073,0.08933454,0.10743829,0.057685774,0.072044864,0.066137224,-0.095405735,0.20946197,0.0738677,-0.018500168,0.17591752,-0.014350593,-0.17700262,0.016550422,-0.1420926,-0.095010206,-0.04530789,-0.025492636,0.10253405,0.18323348,0.09729384,0.16088188,0.016531441,0.0065910676,0.21641408,-0.009942146,-0.049767923,-0.008760804,-0.07883735,-0.08831875,-0.2960068,0.061917618,0.08528965,-0.035439588,0.07258647,0.16395074,0.007109965,-0.18108945,0.20293368,0.09226742,0.048160974,-0.029938221,0.035918754,-0.018273888,0.021250695,0.19126868,-0.12800461,0.031659245,0.09673319,0.034642108,0.0022468085,0.04487078,-0.10088651,0.005776344,-0.068548165,0.14800078,-0.050759107,0.12907103,-0.027673503,-0.014564038,-0.010522482,-0.17406937,0.081458785,-0.16615035,-0.13817227,-0.012579774,-0.18715137,0.0344697,-0.08688383,-0.068095155,0.22867545,-0.0777639,-0.015264438,-0.029409377,0.07797257,-0.07184432,0.107474275,-0.0017230909,-0.13805096,0.021884698,0.04465295,0.07563058,0.16662687,0.18729834,0.09994826,-0.102949664,-0.04668927,-0.029447684,-0.026851252,-0.08861516,0.01900369,-0.14033268,0.09283308,-0.0181914,0.037418257,0.1019159,-0.020731203,-0.016364317,-0.0028328681,-0.18844132,-0.061185777,-0.110219166,-0.08597787,-0.17283954,-0.16774021,-0.04166386,0.113329455,0.0067035044,-0.025145374,0.019004466,0.09520268,0.050367,-0.11960003,0.08613013,-0.026590716,0.027786393,-0.0075350343,-0.1085557,0.27984044,-0.34143996,-0.11962593,0.24934502,0.0050342428,-0.14963609,0.045566224,-0.07105558,-0.15503061,-0.065413065,0.17909683,0.18237795,0.1288332,-0.082217626,0.08876704,0.06360011,0.11569162,-0.022797417,0.1444175,-0.035396207,-0.0304208,-0.076908834,-0.17079073,0.05785008,0.25438038,-0.11961464,0.031390168,0.11655005,-0.2296975,-0.08491257,0.05123694,0.037976116,0.0725818,-0.05556309,-0.3373833,0.005491456,0.10818364,-0.005036945,-0.08797372,0.09944744,0.040993,0.0103549715,-0.0012037051,0.08417359,0.0646211,-0.047488086,0.17100286,-0.062226363,0.029244969,-0.025131408,0.023362339,0.06064493,0.23324886,-0.09705976,0.1475803,0.15654574,-0.14452682,-0.1640153,0.05405488,0.09050004,0.0076206764,0.19206679,0.086783655,0.17829373,0.14855787,-0.098888025,0.16335417,-0.050457906,-0.011333554,0.037440628,-0.16008948,-0.12319052,0.14340879,-0.0016705629,0.0311337,0.0314447,0.2598943,0.0875676,0.11660149,-0.10370524,0.089541726,-0.119178884,0.034535073,-0.17169788,0.0034451445,-0.009703821,0.0637567,0.17936182,-0.009637088,-0.040020138,0.16717695,-0.13072346,-0.051843394,0.014114142,0.15105115,0.3002617,0.13192275,-0.054945752,0.0137889255,-0.025027268,0.16043429,-0.067574754,-0.13434312,0.03106945,-0.0045705833,-0.05692915,0.04436614,0.09881297,-0.084920324,-0.1391032,-0.010676037,-0.09237193,-0.055451393,-0.17526,0.07585123,0.1066673,-0.108583726,-0.05696691,0.061956596,0.100544766,-0.06572651,0.12503172,0.1291288,-0.09104615,0.0465887,0.15452111,-0.034297764,-0.028724128,-0.08057023,-0.15196016,-0.05219723,-0.03985764,0.1664605,0.15636092,0.08717503,0.17302254,0.004486677,-0.04613024,0.06460022,-0.23404998,-0.25482655,-0.20045847,0.02783019,0.083971575,-0.06279162,0.0038050064,0.12498695,-0.034387875,-0.17796646,-0.099727795,0.19029613,-0.03996331,0.03908606,-0.17598392,0.030198388,0.14254875,-0.12658964,-0.07348294,0.049047172,-0.2721898,-0.013348157,-0.14411855,-0.050608482,-0.032546237,0.022478318,-0.11986655,-0.22220422,-0.071862236,-0.2050714,0.017554957,-0.026028529,0.035105914,-0.12539083,-0.024222424,0.18940482,-0.12616165,-0.06632595,0.3213692,-0.08387316,0.1576336,0.25589016,0.15302387,0.0069491244,0.12388501,-0.20399745,-0.014639936,-0.034228127,0.113253586,0.07480174,0.12210741,0.12956749,0.041004788,-0.18345319,-0.19988862,0.07926611,0.044292957,-0.23293985,-0.06557694,0.1660233,-0.0642148,-0.0011238469,-0.071291335,-0.08093547,-0.0800564,0.08277868,-0.14738978,0.048230935,-0.1136508,-0.04821274,-0.1280771,-0.05418097,0.060071073,0.10395793,0.06570446,-0.056169495,-0.05615107,-0.081849985,-0.0474388,0.082207896,-0.09148622,-0.023758247,0.0629038,0.015253938,0.005975258,-0.07581667,0.123763174,-0.090119615,0.06447398,-0.038886826,0.11096646,0.042099405,0.015732143,-0.07551342,-0.068954565,-0.071596965,0.01705942,0.0996793,0.13941689,-0.1238039,0.06655688,0.0032522478,0.020216044,-0.13422273,0.06740702,-0.12728703,-0.050207935,-0.1342122,-0.12458128,-0.026983062,-0.00900986,-0.02498851,0.05045558,0.0007706771,-0.021859264,-0.1403964,-0.07242638,-0.06857318,-0.14211144,0.05873672,0.061381835,0.1002959,-0.041963186,0.12445615,-0.08714883,0.021142818,0.12153089,0.04090507,-0.30017018,-0.005890213,-0.004259337,-0.0966063,-0.22345121,-0.045042492,-0.15235196,-0.016770821,-0.0070273345,-0.036214545,-0.0035231938,0.08687699,-0.13434015,-0.06582912,0.009572573,-0.30355963,0.08375094,0.0110401325,0.10063825,0.19368024,-0.082686335,0.07642172,-0.041661922,0.0067382874,0.0060485266,-0.12030275,-0.10855743,0.102342725,-0.053752653,0.08543521,-0.17382665,-0.13539921,0.05404562,0.056920674,-0.06246051,0.0731764,0.074287206,-0.23781349,0.0072098,-0.061935235,-0.03068331,0.1477809,-0.21128246,-0.30068633,-0.052479174,-0.12742776,-0.040707454,0.016142562,-0.10036393,0.12996058,-0.0064668627,0.09865056,-0.13088828,-0.17129159,-0.024442088,-0.034515556,0.03931126,-0.205256,0.27607843,0.13525489,-0.13701509,0.060781658,-0.14585832,-0.08168131,0.06089173,-0.013365452,-0.10040494,-0.14675567,0.18814287,-0.14524351,0.11693697,0.26300055,0.0030980639,-0.02458009,0.018480232,0.080101654,0.027211837,-0.18880315,0.22135536,0.12958667,0.102735445,0.18337207,-0.07370674,0.21204312,0.06024369,0.059871614,0.11416468,-0.1612475,0.007890458,-0.20434761,-0.08452318,-0.15883501,0.057766624,0.11159995,-0.0122448,0.19790101,0.12764287,0.1431451,-0.09877416,-0.13568613,-0.12833104,-0.16836272,-0.12761265,0.015264192,0.17476231,0.29847175,-0.038320363,-0.12917642,0.1895903,0.07821724,0.23623118,0.040505707,-0.086633295,-0.0020285454,0.1144066,-0.10807013,-0.11894535,0.04750881,0.020753052,0.08666724,0.017450232,-0.16375795,-0.035897482,-0.18321173,0.15335225,0.31068316,-0.16538055,0.075724415,-0.0899718,-0.057736687,-0.16664496,0.23676379,-0.03309134,-0.032075975,0.18363105,-0.0837118,-0.031904873,-0.077907115,-0.14360192,-0.22947459,-0.037867915,-0.09469467,-0.0073780254,-0.19395855,0.008034292,-0.1315646,0.058689695,0.22134829,0.19356138,0.047229797,-0.10072068,0.049884412,-0.17553523,-0.17141016,-0.07739769,-0.21039906,0.065011956,-0.006017656,-0.1409473,-0.04377844,-0.10002888,-0.265869,-0.06841294,-0.07136639,-0.098780155,-0.038368855,0.09692495,-0.26230007,-0.032440927,0.004472028,-0.09216948,-0.17281745,-0.10736459,0.02286161,-0.18863651,-0.06574993,0.18431972,-0.03990049,-0.28016275,0.058519073,-0.067371264,0.06790366,0.15518162,-0.09588642,-0.118157335,0.055427276,-0.031684257,0.18046643,-0.093110934,-0.12406869,0.13679954,-0.15280896,0.028434621,0.028209552,0.07038175,-0.1495952,-0.15785727,-0.10706697,0.096489996,-0.0045917896,0.024613382,-0.06353442,-0.14208296,-0.052699868,-0.031019188,-0.19072886,0.0095275445,0.022875117,0.05409083,-0.15974742,-0.042179707,0.084613144,0.019447908,-0.13151385,-0.12744144,-0.063230805,0.35545397,-0.05835515,0.023562364,-0.066150114,0.04270504,0.08097095,-0.052820884,0.12508565,0.047470674,-0.11653754,-0.10397451,0.19032663,-0.034098186,0.16923107,0.156159,-0.07711899,-0.06707803,-0.049996898,0.019870069,0.15613323,-0.063172676,0.015654217,-0.27119613,-0.08248703,-0.061923016,-0.102526546,0.16763765,0.029187413,-0.2209319,0.31738368,0.09555708,0.02417968,0.028062178,-0.12754096,-0.26018855,0.0076442836,0.009445274,0.0031338683,0.12089856,0.017880535,-0.11922027,0.17426583,-0.067073114,0.043410733,0.041759178,0.05127982,0.032697156,-0.08809385,0.1187629,