{"model_state":[{"clause_net":{"weight":[-0.14767106,-0.2848495,-0.1184699,-0.008075297,0.08983345,-0.07673673,0.036987327,-0.028473452,-0.24735288,0.01271228,-0.10602412,0.21412508,-0.21523847,-0.26118425,0.2544853,-0.013487382,0.18716377,-0.22090921,-0.14220487,0.22170849,-0.19484855,0.1714882,0.0087423,-0.16008575,-0.12353955,-0.004132577,-0.076936856,0.24150828,0.06260939,0.2604773,-0.124545895,-0.049854234,-0.33226255,0.2768075,-0.34744057,-0.26703003,-0.2879888,-0.20791528,-0.31521744,-0.24750128,-0.24306776,-0.28620154,0.113378294,-0.27625895,0.08569043,0.16375154,-0.10387495,-0.15180156,-0.018810067,-0.25753447,-0.03446341,-0.2939179,-0.05841939,0.2136648,-0.040817108,-0.12212656,-0.3095171,0.13058774,0.19659063,0.06926243,0.30620855,0.101069435,-0.020224292,-0.27896532,0.0830929,0.15261558,-0.16647817,0.29971033,0.24176995,-0.040982082,0.3430808,-0.3032085,-0.37787104,0.08035451,0.06528978,-0.06842248,-0.09558565,-0.07479865,0.34534386,-0.13594288,0.3504749,-0.2533448,0.30854526,0.08730773,0.088169,-0.19063859,0.28446493,-0.26070634,0.10235805,0.19907409,0.02571024,-0.15431409,0.055655226,0.3180361,-0.16769575,0.37670526,-0.24206497,0.17023188,0.30073696,0.174877,0.36350092,0.28641602,-0.1756309,-0.24076402,0.23648955,-0.21694544,0.031007687,-0.20786223,0.25881603,-0.014399963,-0.25807324,0.18600143,0.32041484,0.23035194,-0.21405685,-0.08300374,0.12073979,-0.048700247,-0.23096758,0.05626435,0.2558232,-0.22307579,0.26526415,-0.12762864,0.03480402,-0.25592017,0.41050994,-0.22073336,0.10542488,-0.15548913,-0.038614612,0.19983375,0.03554751,-0.20699178,0.24826007,-0.16762733,-0.25833845,0.2531027,-0.03738798,0.11314987,0.42027315,-0.035621237,-0.23497137,0.073975034,0.09092312,-0.026106928,-0.24783973,0.11475546,0.14178514,0.023565803,0.2559303,0.26009902,-0.090241924,0.06064949,-0.1225556,-0.15756403,0.27404922,0.090707436,0.2605166,0.051124852,0.1167644,-0.3204636,-0.24139553,0.03511435,0.18127108,0.27732956,-0.016022334,-0.12256627,-0.021977581,-0.015066732,-0.18336695,-0.024500838,-0.22703175,0.15071458,-0.18302697,-0.18323226,0.08352689,-0.23578127,-0.2902265,-0.17233053,-0.21811529,-0.03854123,0.12872314,0.103467226,-0.060484283,-0.35205758,0.116104566,0.28706592,-0.017280646,-0.26133934,0.014631415,-0.14434552,-0.11682678,0.25128916,-0.29622674,-0.17802835,-0.07614294,-0.19957338,-0.070639625,-0.062697895,-0.1875276,0.02083433,-0.03941328,0.23453769,0.26738387,-0.23157042,-0.07779346,-0.14548384,0.113392375,-0.20827787,-0.13060363,-0.072229,-0.25047484,-0.15643795,0.15171361,0.28466126,-0.12786327,-0.29401,0.2381095,0.1387421,-0.28915474,-0.10605853,0.10087286,-0.048169147,-0.20353866,-0.34278542,-0.19271323,0.26874754,-0.14414273,0.09156545,0.4699606,-0.18106307,0.112338826,0.1344327,0.20095085,0.027813355,-0.20891942,0.04979922,0.27296147,0.19229615,0.011236115,-0.14246713,-0.18642062,-0.22708644,-0.22631748,0.2702062,0.09088705,0.20417441,-0.17255308,0.19967937,-0.19403031,-0.045150645,-0.12564002,-0.27559564,-0.10969921,0.3352787,-0.14609134,-0.16987845,0.17548846,0.2150218,-0.10719445,-0.24719685,-0.090450294,0.0293362,0.17052533,0.09983881,-0.06564491,-0.14431962,-0.065524586,0.12619662,0.12634428,0.23589753,0.15729213,-0.28324792,-0.19459751,-0.042019423,0.27780545,-0.08313989,0.26365006,0.044826645,-0.081909776,0.28082395,0.19301262,0.40375018,0.1143693,0.073790096,0.13742119,0.12740892,0.11249362,-0.15700622,-0.01998313,0.1269733,0.095937885,0.21421109,-0.05329118,-0.22531693,-0.23929448,0.24972789,-0.25842574,-0.07227359,0.17555358,-0.14630663,-0.29182187,0.31894276,-0.23453464,-0.07469629,-0.20405039,-0.16956726,-0.23638543,-0.057183143,0.27087137,-0.16810115,-0.06526175,0.28006792,-0.28700113,-0.08139456,0.07043913,0.27980977,0.2667988,-0.025039872,-0.08440043,0.05387298,-0.30339915,0.28920156,0.06575745,-0.22141169,-0.24170375,-0.08407698,-0.16915534,-0.012179981,0.018286547,-0.16889465,-0.09869578,-0.2687589,-0.009644208,0.13525797,-0.15218669,0.36994362,-0.07184832,-0.23435044,-0.18155105,0.25971308,0.18663524,0.06928606,-0.219162,-0.12639363,0.17036588,0.08560151,0.24215586,0.113513164,0.11128311,-0.20827945,0.17885025,0.2811602,-0.21057497,0.023277832,0.0771797,0.2956306,-0.084940724,-0.39738756,-0.22431171,-0.06986518,0.097896084,-0.16476925,-0.03436263,0.15254731,0.06695242,-0.032758407,0.067249835,-0.21676034,-0.2669391,-0.23275569,0.39977366,0.24727641,-0.002724465,0.005837245,-0.19328049,0.19877037,0.2106401,0.27989173,-0.16365546,0.008482959,-0.15736037,-0.0864481,-0.24652211,0.026471809,-0.063362315,-0.21124545,0.2030355,-0.19936828,0.14961293,-0.00297192,0.06342907,-0.07751684,0.028595142,0.08869777,-0.32054085,-0.107943036,-0.16862294,0.24371472,0.1348078,-0.36610368,-0.021189999,-0.17195418,0.07018136,0.12223953,-0.25956059,-0.1531843,0.06358756,0.12151133,0.0249579,0.27020052,-0.025340304,0.15881589,0.26339906,0.2449529,0.22348684,0.16773175,0.1330866,0.15346609,0.033205364,0.27211466,0.16344291,0.013488515,0.036506757,0.23121981,-0.11182973,-0.073297545,-0.21505518,-0.1394316,0.045612883,-0.16889007,-0.3025714,-0.0030808756,-0.22269115,-0.29118276,-0.13724196,-0.13860652,-0.15028802,0.15829611,0.1684043,-0.17723301,0.08108417,-0.20579395,0.09089953,-0.14288214,0.2809914,0.08751146,0.053563636,-0.24402775,-0.026820505,0.3385091,-0.26904327,-0.21002488,-0.030280115,-0.24099648,0.045754332,0.20073448,-0.09475818,-0.21102223,0.044010032,-0.1422622,-0.107826464,-0.34806305,0.29196152,0.16786876,0.030087344,-0.1567931,0.3326928,0.19870947,-0.29352602,-0.025143074,-0.23918521,0.18280362,-0.35877478,0.13973266,-0.104389675,-0.11352137,0.09190947,0.038242117,-0.23587961,-0.22472936,0.025319213,-0.18509337,0.04242157,-0.3163941,-0.34908196,-0.0063726623,0.19193637,0.021364775,-0.263481,-0.226241,-0.23764138,0.185451,-0.0574684,0.0065517756,-0.10529355,-0.07964325,-0.27616382,-0.16063441,-0.438229,-0.15710613,-0.23756607,-0.0249093,-0.020221373,0.16414127,-0.20746078,0.26630893,-0.105961114,-0.2550435,0.23874651,-0.24976411,-0.27195683,0.06455246,-0.17732616,-0.3380142,-0.17256132,0.14037985,-0.113883324,0.3744356,0.30808535,0.0999202,0.020677714,0.07178955,-0.26152262,0.3814462,-0.15746425,0.095969304,-0.23028566,0.20495512,0.15767467,0.33476898,-0.09479542,0.05044215,0.3353266,0.2551871,-0.16389903,0.08545682,-0.073887475,0.25019586,0.061044328,-0.22793433,0.2308082,-0.042613145,0.11117863,-0.010083351,0.069581635,-0.09336038,-0.18559997,0.06558728,0.2771421,0.11807725,-0.024460442,-0.00015243265,-0.31812727,0.32622328,-0.094276495,-0.014244138,-0.30162567,-0.31461957,0.304853,0.24041688,0.13004717,-0.03499785,-0.31521344,0.2608947,-0.18749285,0.2705183,0.0014775146,-0.13140333,-0.14348987,-0.13905962,0.3093845,0.2035802,0.020720415,0.29124895,0.26851916,0.1065055,-0.30730236,-0.1274446,-0.1864701,0.17652795,-0.17574292,-0.08531825,0.29162544,-0.19059406,0.10337929,-0.026982538,-0.18671197,0.13616489,0.27492,-0.29850978,-0.17499202,-0.19319627,-0.14214857,-0.23409136,-0.1870635,-0.043344755,0.083061256,-0.2293004,0.31286383,-0.069679454,-0.31426632,0.006831823,-0.18472075,0.006567936,-0.05126284,-0.049940404,0.18414335,-0.10358499,-0.2287287,0.1955657,0.16175315,-0.039921593,0.08075806,-0.27369344,0.01782061,0.13333131,0.03001181,-0.3445218,0.057159424,0.045693092,-0.2362756,-0.19428195,0.058917705,-0.10849878,0.06541182,0.17028861,0.13711944,0.3205495,-0.21546973,0.028382178,0.26514018,-0.026137853,0.05397059,-0.12658991,-0.20270947,-0.0065002614,0.27997354,-0.33361867,0.11016226,0.048725527,-0.03778943,0.054690078,-0.15571135,0.05470241,-0.19719103,-0.12017208,0.1501282,-0.08839267,-0.00043554182,-0.1292257,-0.09771464,-0.20318434,-0.17448865,-0.16012777,0.0063085956,-0.2006417,-0.012858203,-0.15081887,-0.17199484,-0.07304401,-0.20715652,-0.06489998,-0.0672507,0.04809307,0.115416,0.19415559,-0.022316337,-0.14451703,-0.011036792,-0.010162427,0.119947605,-0.072568126,-0.027019825,-0.0054684835,0.12802835,-0.15741785,0.04292978,-0.029363006,0.0125951925,-0.0036723518,-0.07497243,0.035017893,0.05692133,-0.08092826,-0.19685577,0.0982032,0.14249206,0.13313581,-0.10523511,-0.14308807,0.030796204,0.10046167,-0.1752191,-0.024157459,0.07131218,0.040330745,-0.08658752,0.054722518,0.009022492,-0.034196597,-0.19818197,-0.14896306,0.031171294,0.14454228,-0.20161635,0.039925903,-0.018762229,-0.13256015,-0.1811122,-0.050128944,0.19699645,-0.12400571,0.038628027,0.20440295,0.11363085,-0.09808704,-0.030087061,0.00089782965,0.066562034,-0.10488425,0.009305985,-0.08962396,0.13323337,-0.16327447,-0.1438166,0.13570814,0.017853213,0.07151628,0.14863071,0.042884067,0.14898342,-0.19105926,0.2035384,-0.0067126686,0.104377545,0.11929441,0.051649887,-0.116918296,0.05432272,-0.027212292,0.123428084,-0.0340571,0.058485795,0.18161829,-0.17867564,0.12411078,-0.13835233,-0.11420597,0.19162126,0.17539217,-0.08631524,-0.075122066,0.06803222,-0.06825633,0.022423519,-0.20570642,-0.105407886,-0.15326484,0.0059272666,-0.10297219,-0.19616365,-0.1477274,-0.13999832,0.052012995,0.03668089,-0.10431843,-0.034559134,0.17290486,-0.13669908,0.12424409,0.05056466,0.08086604,-0.06713792,-0.13928936,-0.02107342,-0.17053826,0.1369261,-0.18851818,-0.12929267,-0.19604881,0.089399375,-0.19214723,-0.118411474,-0.10396731,-0.015053089,-0.025069656,0.16230848,-0.009116699,0.16023487,-0.12791954,-0.16752149,-0.12569891,0.08472785,0.18268375,-0.041031163,-0.10235556,-0.105234586,0.04528315,-0.0822881,0.16738895,-0.2015381,-0.0010593992,-0.13235876,0.16195427,-0.03281955,-0.06897773,0.054489236,-0.06265439,-0.16957071,-0.15399091,0.09621493,-0.076503836,-0.1979109,0.14744133,-0.05008296,0.0050546913,0.09616022,0.06580589,0.038926657,-0.121648535,0.15301988,0.053654194,0.05911689,-0.017802555,-0.09079285,-0.16707835,0.019640496,-0.10889038,-0.12557529,-0.14914493,0.15004055,0.062897764,0.18786336,-0.05791906,0.08807346,-0.10447446,0.07139481,0.06951197,0.14986119,-0.00491251,-0.16035841,-0.050165188,0.012097011,0.13521808,-0.08583356,-0.060767952,-0.17318718,0.019572338,0.18761607,0.052261166,0.07132232,0.020132115,0.1540818,-0.054266617,0.023117796,0.17899103,0.06801042,-0.15709186,-0.073446296,-0.14865834,0.13382573,-0.14746569,0.20596035,-0.16886495,0.16607438,-0.0409161,0.039531946,-0.09102099,0.023729423,-0.05311684,-0.023881722,-0.1408519,-0.012977367,-0.015240932,0.20391816,0.19738655,0.20212296,0.013729858,-0.052194897,-0.017584188,0.031458538,-0.13397244,-0.088212356,-0.06219126,-0.11582755,0.20567796,0.08801092,-0.07770872,0.061460268,-0.114698954,-0.11939173,-0.0031344248,-0.17535526,0.10575389,-0.079660654,-0.104270905,-0.14453165,-0.13227874,-0.16368888,-0.13534851,0.13432752,0.02281156,0.055156965,0.11551033,-0.03978131,-0.09100577,0.083753906,-0.19498625,0.007368989,0.0661387,-0.012579285,0.16948938,-0.16448829,0.15665708,-0.076614,-0.178226,0.100816876,0.06694767,0.20408173,0.17998339,-0.014849312,-0.08995356,-0.15890859,0.07625514,0.015646024,-0.097996764,-0.18464439,0.021753304,-0.040484957,-0.19041699,-0.17053375,0.10953847,-0.049140114,-0.15889673,-0.06298034,0.12082791,0.0157584,-0.07262485,-0.06598956,-0.15675275,-0.028507857,-0.11872686,-0.03891075,0.04984421,0.093604684,-0.073531725,-0.10451502,-0.17521541,0.18296975,-0.18067718,-0.06813411,0.06114163,-0.12946604,0.008598111,-0.1367279,0.044233743,0.05912832,-0.027930804,0.120601416,-0.06161249,-0.035885345,0.10116825,0.042578403,0.16846213,0.08442109,-0.1528332,0.058137253,0.056404658,0.11039875,0.06929972,0.068640046,0.17813788,-0.04999708,-0.024964014,0.12691896,0.023440214,-0.11560432,-0.19452864,0.0495726,0.069667004,0.08944103,-0.021424571,-0.11313573,-0.076522455,0.032716,0.082282856,-0.055171557,-0.036284074,-0.0041322038,0.14657241,0.13205433,-0.030152336,0.0075600883,0.20460398,0.06541275,-0.20620286,-0.18789136,0.18946505,0.07222781,0.04145885,-0.15462127,0.07551637,0.13480589,0.18715937,0.13486345,0.072277226,0.18187888,-0.10851559,0.037174497,0.14516762,0.14955893,0.08892848,-0.1593579,-0.13515098,0.06922319,0.16233578,-0.18928337,-0.048084993,0.091630876,0.120045915,-0.07567695,-0.09826882,-0.104454674,-0.0873805,0.1924055,0.016854838,-0.20350803,-0.044532973,0.118139766,0.018315675,-0.11333349,-0.19883886,0.023365345,-0.20539774,-0.12879115,-0.082413524,-0.20416883,-0.19730015,0.05636138,-0.16613917,-0.117226325,0.063933104,-0.13629681,0.20006719,-0.14631665,0.12213404,0.12174441,0.1376431,0.037711702,-0.039018206,0.05876658,0.17230149,0.034249168,0.09239234,-0.048728686,-0.1835264,0.058014434,0.01613615,0.048430055,-0.20243455,-0.0032227412,0.18337569,-0.19818869,-0.13473125,0.080741756,-0.07063563,-0.18063565,0.1437319,-0.1822475,-0.2027785,-0.16573915,-0.1850445,-0.11237349,0.073568635,-0.14246084,-0.18372385,0.13347706,0.15037002,-0.06269779,0.1640466,0.090329096,-0.13687256,-0.14278743,-0.00698157,-0.11360568,-0.011196721,-0.059047982,-0.016659139,-0.01623563,-0.058131933,0.040050536,-0.13348769,-0.034366243,-0.0816673,-0.07605532,0.13123393,0.07495078,0.20323393,0.10923109,-0.09373546,-0.0009849778,-0.17050898,-0.17689873,0.06671896,0.061643112,0.14053813,0.0691088,0.022918444,-0.1576656,0.20012565,0.008701839,0.10025163,-0.042301,-0.060955998,0.118323185,0.18143983,-0.11497596,-0.11926486,0.0018764689,0.002884141,0.18722905,-0.14239812,0.05834513,-0.006658978,0.0029382792,0.20657106,-0.06080658,0.07156744,-0.11283658,0.04863617,0.1448063,-0.03519686,-0.009010337,-0.09535888,-0.07003961,-0.029272702,-0.12300577,-0.09077155,0.1843974,-0.17391232,0.16470572,-0.090453155,-0.0727034,0.19935901,-0.03250275,-0.10493128,-0.0031404153,0.06375276,0.20401809,0.19555075,-0.11546531,-0.15395005,0.07336605,-0.12598754,0.14798802,-0.026922187,-0.20428286,-0.044773113,0.18734209,0.15428755,0.120093964,-0.063199274,0.056480072,0.039379448,0.0099611115,-0.19174537,0.051079124,-0.16204672,-0.10869434,0.14548716,-0.095053114,0.15142103,-0.15578903,-0.093362056,-0.04727354,-0.0032280108,0.03886499,-0.18825842,0.11551332,-0.16771719,0.16999957,-0.025433386,-0.082907654,-0.15473288,0.15771258,-0.011601018,-0.1848067,0.09755742,-0.15422378,-0.15518361,-0.11233713,0.08367268,0.0834728,-0.14731605,-0.18725626,0.20418751,-0.038313016,0.16848193,0.17264552,0.011855801,-0.12505944,-0.10412803,0.058334418,-0.17375833,0.042842656,-0.13969697,-0.16117439,-0.110228546,0.14536376,0.10370467,-0.03495821,-0.09808418,-0.160447,0.16322754,0.14962892,0.14556828,-0.049612198,-0.04332677,-0.024732523,0.19758093,-0.12568206,-0.18242663,0.16011211,-0.074398935,-0.13838565,-0.17809968,-0.13520746,0.1692258,-0.19704892,0.067502916,-0.08105132,0.18086249,0.04733635,-0.19452551,0.03112307,0.11531245,-0.07879511,0.11322813,-0.008354812,0.07253688,-0.03484996,-0.09964269,-0.18979134,-0.013644003,0.14374675,-0.10189066,-0.19282636,0.19790547,0.17344975,-0.20326287,-0.16827857,-0.039560035,0.009032807,-0.19699709,0.15009102,0.15826945,-0.1965323,-0.17711176,0.04245792,-0.18959136,-0.035726808,0.012550798,0.0984371,0.16158488,-0.11725665,-0.15137692,-0.010529314,-0.0911883,-0.0137267765,-0.16108896,0.1421907,-0.18066892,-0.020328682,0.03594304,-0.10046736,0.12778641,0.18823284,-0.188904],"bias":[-0.009392746,0.027843123,-0.026814865,-0.0014882641,-0.04304012,-0.0132622635,-0.007277071,-0.020552438,-0.016733458,-0.014584396,-0.025030779,-0.013350934,-0.013398424,-0.014695848,-0.020772245,-0.014523196,-0.015979076,0.040135946,0.021886082,-0.022836719,-0.06487985,-0.014389021,-0.014267016,0.025514638,-0.036847807,-0.023530368,-0.043759946,-0.021275042,-0.013455787,-0.019028576,-0.04008838,-0.0043398803,-0.0092834765,-0.0034849516,0.018333739,-0.008544517,-0.012926985,-0.0098667,-0.013771702,0.020940494,-0.006970303,-0.021299465,-0.035902962,0.040914826,-0.02739953,-0.042467304,-0.020840924,-0.011554638,-0.009155106,-0.029578606,-0.05702995,0.016420295,-0.04208956,-0.010801849,-0.018105244,-0.037423227,-0.01734295,-0.05883357,-0.04591989,-0.0030902168,-0.013618812,-0.031689227,-0.014187629,-0.027152497,-0.03331383,-0.020659277,-0.010469684,-0.014724069,-0.018167112,-0.013936029,-0.020109374,-0.0014940366,-0.019741355,-0.03341738,-0.05919219,-0.012915184,-0.014547214,-0.06416429,-0.01158822,-0.010692256,-0.025054492,-0.0040445244,-0.022681206,-0.014802718,-0.0022839175,-0.017455678,-0.0046652723,-0.0035661575,-0.014163562,-0.0065824087,-0.009460436,-0.0140939085,-0.02085756,-0.012170271,-0.006554323,-0.014527237,-0.02172222,-0.030623412,-0.0015753118,-0.05373602,-0.0077224365,-0.0033993754,-0.0074135545,-0.01189778,-0.013397513,-0.029582996,-0.032816533,-0.005533741,-0.016124925,-0.00723238,-0.028255798,-0.021333624,-0.00564761,-0.0099144,-0.019761024,0.0031341442,-0.0127199935,-0.0016559014,-0.0019633698,-0.009289251,-0.010974026,-0.012833814,-0.0114276,-0.009128487,-0.04271489,-0.0071877483,-0.0043460936,0.02896935],"σ":[]},"aggregator":{"layers":[{"weight":[-0.16257319,-0.013299633,-0.13542323,-0.030140314,0.014117073,-0.04036133,-0.10710036,0.1369831,0.106598504,-0.22386305,-0.09589183,-0.09989796,-0.0044232267,0.039736435,0.1408965,0.23028988,-0.05456442,0.12815534,-0.04940549,0.17747928,-0.048078105,-0.012262257,-0.073681064,0.09811257,-0.14060389,-0.00039395632,0.011061613,0.104592435,0.10797621,0.17996766,0.06493147,-0.13524981,-0.0378146,0.08037477,-0.22948678,0.111351445,0.00022003525,0.14616168,-0.07719597,-0.087615855,0.17681374,0.017006803,0.043051552,0.21879192,-0.091901325,-0.054514345,0.114242405,-0.14700542,0.1763073,-0.036833093,-0.033279426,-0.26532325,0.11886086,0.067091614,0.030523049,-0.082648806,-0.07532066,0.16119936,-0.050639767,0.095802955,0.09677141,0.10699459,0.184148,0.11860422,-0.08087258,-0.10032768,-0.16601735,0.08759284,-0.06503273,-0.06608483,-0.09199698,-0.17600344,0.06051728,0.111200914,0.24490136,-0.020342873,0.17224899,0.059700802,0.05697764,0.121293165,0.09599888,-0.007944909,-0.18133739,0.028488617,-0.1323974,-0.04243624,-0.25028992,0.07952587,0.10486309,0.08369788,-0.12304615,0.13446969,0.071862854,0.095387116,0.13883278,0.1136828,-0.13168347,0.04533136,-0.12870514,-0.12344565,0.15292844,-0.060989887,-0.046022408,-0.23655365,0.2341867,0.12725867,-0.055981148,0.005332847,0.17401692,-0.020259779,-0.031655032,0.29803333,-0.12689719,-0.015527963,-0.00029751734,-0.194199,-0.15943104,-0.012400722,-0.044864286,0.10382379,0.04595029,-0.1383352,0.060984623,-0.024341635,-0.048480354,0.2631535,-0.2046649,0.11326271,0.102149054,-0.15039493,-0.039974008,-0.15793198,-0.12869954,-0.13702856,0.0774475,0.15993297,-0.056149103,-0.048723597,-0.017628856,-0.023609474,-0.014834998,-0.031878132,0.22322617,0.013240859,0.06837284,0.11152585,0.023834286,0.05439962,0.08964656,-0.10809319,0.07885967,0.036689404,-0.0830715,-0.03456817,-0.06657099,-0.072163194,-0.12933265,-0.11067637,-0.067017026,-0.014671627,0.115406595,0.08377339,-0.056285687,0.085048504,0.09176879,-0.0005684183,0.030422583,-0.071280666,0.022724953,0.030781481,0.016432952,-0.11900591,0.04836468,-0.17173912,0.0791473,-0.06959297,0.020491704,-0.089633845,0.017040312,0.19582467,0.26191792,0.044635653,-0.14931752,0.05142513,-0.13183846,-0.078796774,0.015825955,0.011441067,-0.07936524,-0.16194032,0.04876384,-0.120775454,0.12451772,-0.13356984,-0.05249966,0.08145846,0.14481483,0.16349538,0.05087201,-0.20167434,0.04812928,-0.13371788,-0.010742861,-0.021361357,0.038052507,-0.016107976,-0.14267725,0.12063525,-0.14255004,0.10935713,0.15133408,0.0676562,-0.13506547,0.106206976,0.19978762,0.12848516,-0.20068067,-0.009709835,-0.016829817,-0.16520023,-0.09741984,0.0062285936,-0.010169052,-0.11222521,-0.07020983,-0.103503324,-0.010018036,-0.09033634,-0.04846835,0.086225964,-0.11324471,-0.098988354,-0.07624157,-0.13812509,0.07005027,-0.18556614,-0.1269301,-0.09605059,0.05704055,-0.0046610706,0.033621594,0.007806568,0.18113035,0.14881955,-0.039415244,0.12811916,-0.073272616,-0.120428935,-0.11348897,-0.035200283,0.03734236,0.22188444,-0.016275425,0.23840784,-0.0004017075,-0.18139397,0.051710594,-0.06265516,-0.12486374,-0.05658873,-0.04024784,0.13276242,-0.095443815,-0.13248251,0.116182856,-0.0024485926,0.10448196,-0.0071911407,-0.08189476,0.01655185,-0.013026386,0.06935162,-0.077717304,-0.11526398,-0.093729556,0.095463954,0.012929784,0.08717849,-0.06843532,0.028270986,-0.1504465,0.086341076,0.10630277,-0.10952502,0.0024869074,-0.110359035,-0.11359197,0.073143296,0.11771152,0.13046712,-0.1790812,-0.010384824,-0.1590524,-0.08839508,0.12204161,0.15532987,0.031177206,0.010511979,-0.09542735,0.113602035,0.07960771,-0.07458471,0.08854007,-0.030063342,0.14071189,-0.1079398,-0.049896855,-0.11692294,0.045684237,0.11658779,0.0005136441,-0.15539631,0.1239295,0.14546019,-0.06780301,-0.13774851,0.087323144,0.030289413,0.06256296,0.08979735,-0.021897973,-0.01870126,0.034202006,0.20241778,0.14410825,-0.07408288,-0.07015247,0.08394511,-0.04552763,0.12036196,0.0730092,0.09864961,-0.21176286,0.050506297,-0.024274657,-0.017913053,0.2313398,-0.017451609,0.112414695,-0.011275493,-0.22851816,0.024765836,0.07281235,-0.037681017,0.030940723,0.09082697,-0.052979067,0.0635747,0.1768285,0.09281494,0.021726158,0.012513809,0.010427325,-0.007883599,-0.20174533,0.05500159,0.051212177,-0.08641745,-0.10416072,-0.029757971,-0.014310202,0.07902482,0.1355174,0.10987988,0.1515898,-0.0045304657,-0.048473455,-0.16262174,-0.12184656,-0.09107841,-0.13467683,-0.20671867,0.10401722,0.05531906,-0.03579412,-0.1016352,-0.13359275,-0.074490316,0.094966315,-0.06498245,-0.23116568,0.016912598,-0.11712487,0.037904557,0.04201568,0.124309875,-0.13382964,0.059215702,0.14698641,0.2357122,-0.05742358,-0.0024867197,-0.00081166823,0.10822473,-0.027404109,0.09729931,0.041384056,0.05588295,0.11431402,0.1500016,-0.0514591,-0.211257,-0.13208936,0.13898282,-0.15546972,0.060761496,0.019697426,0.0077375392,0.04510096,0.04041852,-0.0873965,-0.027290396,0.075188085,0.18269277,-0.009816038,0.078658044,-0.12877539,-0.016136931,-0.22218017,0.13901806,0.14340988,0.029532656,0.07895873,-0.04373366,0.024341034,-0.08858897,0.17436658,0.08507474,-0.1416563,-0.14502221,0.14181027,0.017944675,0.023299333,-0.052930914,-0.13440628,-0.17203183,-0.018395618,0.03384227,0.039001793,-0.03662423,0.084121495,0.06830303,-0.06185095,-0.097026475,-0.08095885,-0.16732068,0.004542236,-0.11701366,-0.11491509,-0.058850393,0.10815771,0.14265896,-0.13818479,-0.06071338,-0.1338902,-0.099177726,0.043788884,-0.09670007,0.22808784,-0.12803212,-0.010947936,-0.123742305,-0.015826998,0.11877706,0.156998,-0.09200088,0.021963086,-0.12435255,-0.105475575,0.06588988,-0.04804156,0.00093034917,-0.030276902,-0.07844369,-0.06531285,0.11259432,0.002871102,-0.07325596,0.17506853,0.055907913,0.022797989,-0.01699263,0.028034007,-0.19594729,0.120435044,-0.13402694,0.12391372,-0.17749104,-0.12307211,0.14970604,-0.09044105,0.15073921,0.13047786,-0.032819256,0.103667825,-0.054262687,0.032582693,-0.14247695,0.11194814,-0.21572241,0.11847137,0.13413247,0.10019348,-0.058176205,0.0126095135,-0.07323504,-0.12782471,-0.16922009,-0.0639784,0.11085161,-0.14643113,0.11656352,-0.005061456,-0.0018526914,-0.15250458,0.059356447,0.121194735,-0.121022135,0.04539466,0.12475229,0.09386274,0.05115487,-0.07121103,0.061974023,-0.037765644,-0.09164585,0.20193268,-0.09671424,0.064393826,0.11545337,-0.0068331524,0.11348634,-0.05985129,-0.08821793,-0.04152119,0.031272583,-0.12697147,-0.16642644,-0.15445708,-0.05071684,-0.053185757,0.06029974,0.06588291,0.2569286,-0.043461822,0.16946837,-0.04629236,-0.10424309,-0.058997855,0.08647336,-0.16122988,-0.0030850575,-0.066277,-0.06932131,-0.06032814,-0.07665226,-0.019230671,-0.15872204,0.058051236,0.13622749,-0.061102502,-0.09118988,0.052727118,-0.11308893,-0.019579437,0.051683743,-0.06133893,0.03897735,-0.15110035,0.10287602,-0.14367762,-0.12455275,-0.043131806,-0.023653258,0.21110652,0.042034995,-0.15230781,0.021340363,-0.24755912,-0.046053864,0.113873675,0.04124956,-0.02371667,0.12491242,-0.029047772,-0.12746508,-0.009291005,-0.057713345,0.1444452,-0.07294185,-0.06312161,0.120619945,0.03946616,-0.090169616,-0.0028694689,-0.004927492,0.12679847,-0.023868483,-0.14684819,-0.05463438,0.17410022,-0.011507194,-0.0015924089,0.0729929,0.14761858,-0.049089298,-0.14287603,-0.07550616,0.00857727,-0.110525735,0.17032129,-0.028047934,0.25573444,-0.048656773,-0.057404682,-0.22961096,0.23296651,-0.12828118,-0.13872872,0.22034372,0.05799649,0.039724402,-0.1209562,0.007598342,-0.011182982,-0.028143108,-0.17609121,0.029758891,0.025295451,0.05244685,0.1108645,-0.0045824777,0.1308218,0.093295194,-0.0039068684,0.06447823,-0.05983599,-0.03659352,-0.1514206,-0.17361085,0.0895288,0.020697648,-0.013590278,-0.14063478,-0.18715489,-0.05455665,-0.10571277,0.03277038,0.042131722,0.08293316,-0.11017825,-0.26036236,-0.098695494,-0.013211346,0.084463224,0.0975545,-0.125898,0.046506114,0.20365322,0.15811196,-0.028151926,-0.098252945,0.077712476,-0.12595868,0.081370614,0.079735965,0.053971536,0.02904595,-0.20862551,0.106634334,0.1277209,-0.07825464,0.012567387,0.055291086,-0.09100839,-0.09312947,0.12579165,-0.1206229,-0.018245883,-0.1549877,0.04334674,0.14155163,-0.044584755,-0.034982245,0.12761796,0.031937134,0.006831204,0.03854818,0.16463481,0.051620584,-0.13206337,0.036867123,-0.015839288,0.05496806,-0.061008036,0.09261992,-0.10393408,-0.019474637,0.12953599,-0.08537554,0.005446773,0.053680383,-0.22682337,0.06312261,-0.028213318,-0.024461458,0.04079008,-0.04819651,0.07795304,-0.15780267,0.19699949,-0.13558367,0.07183009,-0.022406602,-0.08027606,0.011984673,0.01875527,0.052608732,0.103877485,0.053953547,-0.002404228,0.12606414,-0.027586767,0.12309014,-0.09450915,0.05570401,0.1227634,0.0993019,0.013096853,-0.039032705,0.0057287463,0.10229699,0.01764733,0.109808646,0.11326599,5.8939804e-5,-0.1512655,0.14290543,0.14430925,0.20235613,-0.19546247,-0.04375899,-0.03042436,-0.027700763,0.13550998,-0.18951936,0.07811309,-0.060395587,-0.019659724,-0.09655467,-0.007062651,0.1988913,-0.11076904,-0.057126936,0.13921723,-0.057707503,-0.14146227,-0.011419011,-0.16177571,0.055679936,0.0837268,0.19873668,-0.036756217,-0.029112848,-0.05395329,0.13635151,0.16137883,-0.049708523,0.054280847,0.12785433,0.0046556788,0.09987851,-0.0822949,0.1567595,-0.074857265,0.09591768,0.04637488,-0.011629968,0.19424303,0.16099991,-0.07651348,-0.073051244,0.16854396,0.18978234,0.010353578,0.033586618,-0.10569652,-0.09360269,-0.14448291,0.045231722,-0.020937197,-0.1877509,-0.15249191,0.013065392,-0.15477696,0.091224924,0.1368141,0.09962338,-0.09863412,0.047233682,-0.12612836,0.14347564,-0.058408525,-0.030967873,-0.12667361,-0.09259473,-0.049756907,-0.0040445896,0.16631338,0.0012673875,-0.19741476,0.010489755,-0.041095648,0.05173855,0.10704858,0.003854838,-0.032741133,0.066438004,-0.15302736,0.05165202,0.042663153,0.061337244,-0.011584795,0.013467139,-0.18743362,0.17312342,0.09407643,-0.01861292,-0.11903398,-0.089782804,0.037285697,0.15118968,-0.06962654,0.009789986,0.065105945,-0.00247707,0.015890367,-0.040937766,-0.099541545,0.07674573,0.039104823,-0.06940667,0.0013349258,0.014015516,-0.13128169,0.03100871,0.12518708,0.027678372,0.18245652,0.09562219,0.098715276,0.15269406,0.03733073,0.16807313,0.041925065,0.087813295,0.041532192,0.0035509244,-0.0923143,0.09557947,-0.011709112,-0.053482186,0.033850208,-0.02622438,0.03357125,-0.10700256,0.15157636,-0.012558551,0.039238203,-0.17102724,-0.0788375,-0.044435244,0.17426394,-0.0028734382,-0.11714698,-0.03148517,0.013183208,-0.055918448,0.035537492,0.11975007,0.110201865,-0.07342748,-0.15877196,0.020037327,0.031536497,-0.042648736,-0.20031393,0.009316395,0.02472935,-0.17145336,-0.119357996,0.12742834,0.042702165,-0.114020064,-0.028642682,-0.15777129,-0.16578454,-0.07375729,-0.06194114,-0.15457134,-0.12036185,0.00490814,-0.08993772,-0.14965555,0.046585023,0.17607391,-0.109187946,0.10219145,-0.03677828,0.110797755,-0.051256213,-0.15674055,0.04735436,-0.09233369,0.14260255,-0.003524974,-0.110955946,-0.045014143,0.054132566,-0.11655958,0.041234598,-0.046022654,0.07224549,0.12568197,-0.04229639,-0.055474814,-0.004109763,0.12716563,-0.028967144,-0.2218413,0.09087105,0.070114434,-0.029600626,-0.034781463,0.16756392,0.046168707,-0.0057511223,0.06895279,0.002302076,-0.32030275,-0.024736818,0.07684853,-0.16306293,-0.056927856,-0.1257457,-0.15604764,-0.015285951,0.17080116,0.09080062,0.063801065,-0.16754119,0.11822821,0.03818348,-0.2299731,0.19424075,0.11464734,-0.09549831,-0.09008486,-0.13947,-0.095316805,-0.058479957,-0.05126757,0.23057544,-0.16775203,0.108157225,-0.0075940215,-0.030408556,-0.05383984,0.1007047,-0.14636955,-0.12897266,0.1885451,-0.14734545,-0.013068018,0.018647626,0.032393184,0.062069036,0.018082373,-0.046445016,-0.032579727,0.10654399,0.0725533,0.23824854,-0.1303809,0.022015443,-0.16410823,0.11299614,-0.1765785,0.002334718,0.104803555,-0.20089355,-0.11706131,0.092612855,-0.0028560562,-0.05938658,0.019096933,-0.16493607,-0.173951,-0.09520682,0.20712452,0.007990812,0.09600033,-0.07419929,0.09274586,-0.0018357653,0.116486095,-0.114857934,-0.16432841,-0.023242356,-0.09556082,0.042635012,0.17107634,0.08380019,-0.15200448,-0.12239464,-0.024962844,0.03744956,0.095300764,-0.030347032,-0.063166715,0.108113274,-0.1537138,0.25543568,-0.13362616,-0.15756978,-0.14453593,-0.022835815,-0.15937403,0.029500976,0.011208844,-0.10473743,-0.2580717,-0.08865623,0.1750031,0.025661418,0.062196318,0.07545112,-0.13441788,0.072098516,-0.069085,0.11049226,-0.10553635,0.1597474,-0.12025823,0.08192655,0.126563,0.120475516,-0.14333737,-0.0021625962,-0.13904922,0.09903448,-0.10834545,-0.17176184,-0.202906,-0.07487735,0.18360455,-0.10734078,-0.0688207,0.14029667,-0.059309356,-0.123640835,0.07732843,0.24761462,0.031198855,0.049780786,0.18716,0.1341056,-0.33662367,-0.0430167,-0.1517292,0.033234403,-0.1340124,-0.17118323,-0.038076755,0.049590003,0.2023555,0.0733944,0.10642814,-0.17412594,-0.12215084,0.16017914,-0.1505242,-0.045164105,-0.100796446,-0.14319275,-0.16625753,0.18200609,-0.13795611,0.12566188,0.13406794,0.10733633,-0.001957501,0.11187349,-0.10203161,-0.07445518,0.16083854,-0.116976686,-0.084709905,-0.15134737,0.011746243,-0.20136167,-0.08658427,0.09376507,-0.09047411,0.1453539,0.09265412,0.18672524,0.088557504,0.12811184,-0.07712002,-0.057580404,-0.097911194,0.067763895,0.090693235,0.04899086,-0.18321137,-0.15476026,0.060173374,-0.29503316,-0.12764822,0.10241805,-0.14698778,0.056791063,0.13745207,-0.0016934632,-0.16325194,0.023452897,0.22207886,-0.25389954,-0.03892715,0.17496733,0.023346854,0.029297883,-0.14726567,0.11959585,-0.28032693,-0.17755267,0.03420242,-0.09019945,-0.12695107,-0.15445277,0.03435408,-0.054271344,0.03964452,0.111048356,0.17373598,0.11325951,0.19267514,-0.07839518,-0.06448939,0.18931587,-0.1858426,-0.17305356,0.20320596,-0.04290728,0.052159682,0.12986395,0.22862889,-0.14044116,-0.0022131281,-0.0948746,0.098665126,0.1489708,0.06921578,0.119303025,-0.023971144,-0.033531375,0.08940012,0.08111236,0.007150624,-0.11943247,-0.16009286,0.03895903,-2.8141687e-5,0.11759814,0.07323033,0.022699762,-0.12296386,-0.18202357,0.12031377,0.046108827,0.023591371,-0.08887912,0.059045676,-0.03512086,0.08485269,0.05755764,-0.11662364,-0.04658365,0.1455661,0.04959931,0.10995456,0.117232285,-0.12427181,0.08091323,0.078323595,-0.08538524,0.11758756,-0.009018484,-0.13294312,0.19837902,0.1266675,-0.11696992,0.11018052,-0.07870074,-0.12709399,0.06057836,0.048154794,-0.064247765,0.062295604,0.025246069,-0.1691952,0.0023029216,0.064503394,0.13856834,-0.104832456,0.019045336,0.114003055,0.2906747,-0.021073285,-0.1825744,0.02036079,-0.062725164,-0.093490794,0.014869556,-0.018999059,-0.028933924,0.07101068,0.112160854,-0.01870915,-0.015227905,-0.107928835,0.03706932,0.12177857,0.04631859,0.08254848,0.15538117,-0.03150707,0.05870633,0.053044308,-0.118710995,-0.16588078,-0.078750044,0.10247195,-0.16883129,-0.124873444,0.025818586,-0.036196075,-0.005815266,0.13457352,0.13070269,-0.08344633,-0.11374976,-0.060388915,0.1352851,-0.048199616,0.13174966,0.20674166,-0.0048057097,-0.15095505,-0.07987199,-0.16821098,-0.13495934,0.024367055,-0.110453345,-0.11973245,-0.114757046,-0.09301686,-0.11586314,0.104578674,-0.12447694,0.008456449,-0.14163186,-0.21350236,0.030151049,-0.10181373,-0.07031412,-0.17756279,0.07181604,-0.04701915,-0.07786461,0.0012561704,0.004295412,0.09516774,-0.034485858,-0.04156028,-0.016237078,0.073335454,-0.06424947,-0.11614066,-0.053716354,-0.026614454,-0.071031034,-0.104094245,-0.05358174,-0.14679462,0.013563979,0.14521186,0.050390847,-0.074116156,-0.1344099,-0.12821336,0.17327379,0.05120682,0.03350885,-0.08855746,-0.0024659676,0.030976163,-0.1674933,-0.062954865,-0.071181245,0.004294403,0.054392356,-0.008077562,-0.022023471,-0.1608078,-0.10295032,0.014633988,-0.08337862,-0.23869883,0.12990361,0.103045784,0.12776718,-0.116357714,-0.033074893,-0.17281091,-0.1184257,-0.0061023673,-0.023092214,0.1556467,-0.05144749,0.06155081,-0.055048868,0.07267703,0.033025928,-0.10993318,0.115445174,-0.0086741345,-0.09838836,-0.07105533,-0.16990747,-0.13479283,0.112931505,0.039502114,0.041155268,-0.107421964,0.046481896,0.070478626,0.12844117,0.08700975,0.05667465,0.041268587,-0.07590121,0.024286974,-0.1531643,0.0011805163,0.037377905,0.01777799,-0.045978624,-0.108196095,0.10496812,0.17757033,0.15904264,0.09730821,0.12588674,-0.029218288,-0.089013144,0.041059896,-0.14277732,-0.12303026,0.043932747,-0.05459465,-0.015471277,-0.05250017,0.03606445,0.024523983,0.059575174,-0.12803294,0.092585325,0.15397128,0.15594679,0.07392605,0.044804405,-0.13692391,-0.031450417,-0.081574745,0.13173872,0.103034265,0.06069913,0.0015607844,0.08388124,0.16684294,-0.01199711,0.09204033,-0.08135286,-0.08676136,0.10792301,-0.06467079,0.015807817,-0.13926923,-0.0043220297,-0.125419,-0.057394695,0.17775667,-0.014185078,0.19752096,0.020341348,0.104787804,-0.111545905,0.18852182,-0.017093135,0.10226511,-0.10948612,0.14455259,-0.051273916,0.011166495,-0.02293803,0.17506123,0.19160773,-0.056896698,-0.09254877,0.06510373,0.140395,0.036190618,0.043351617,0.11799108,0.0561347,0.0048177294,-0.14644288,-0.11078648,-0.06594325,0.09000263,0.100938044,0.115876324,-0.07999923,0.087822825,-0.014404651,0.19314581,-0.0076426994,0.0069694286,-0.14855415,0.054869723,0.116337515,-0.11458299,0.07039207,0.098103255,0.098325446,-0.008104075,0.09973187,-0.058070015,0.06887032,-0.11221768,-0.07026078,-0.09846539,0.12119748,0.015099622,-0.12846722,-0.09822408,0.115179665,0.12712222,0.108183175,-0.08984698,0.110603236,-0.03140814,-0.21323927,0.15833014,0.14738064,0.0040694983,-0.0062865624,0.020575516,-0.16185798,0.043809216,-0.13853158,0.09311075,-0.04932925,0.0056545977,0.080798745,-0.02155872,0.20186046,-0.16808732,0.14610547,-0.018624648,0.04303843,0.11391879,0.12651274,-0.025122825,0.095047794,-0.15220946,-0.031482797,0.16136585,0.14195277,0.2032835,0.02979029,0.06677544,0.013451076,-0.041953236,0.14396593,0.014492989,0.1216423,0.13102946,-0.062167734,-0.124521665,-0.10545537,0.007199401,0.14083712,-0.0933286,-0.013178994,-0.0072219893,0.042598054,-0.05006549,0.08388978,-0.006031698,0.085578084,0.016120467,0.0006769956,0.107620165,0.10241937,-0.07054143,-0.030839147,0.1886301,-0.038572013,0.012829586,-0.23300065,-0.14310476,-0.12541966,0.08129245,0.028271217,-0.026556153,0.08028774,0.11060086,-0.13895859,-0.1014128,0.11738721,0.08011133,-0.029874247,0.046178922,-0.14328648,0.019386837,-0.16074856,-0.06994276,0.014529406,0.3512273,0.13476284,-0.06731702,-0.13402604,-0.24324417,0.10290021,0.058051225,0.060652174,0.13648172,0.036701635,0.16889897,0.09946546,0.08180212,-0.20621184,0.03173946,0.009717891,-0.10930304,-0.13074455,-0.0181707,-0.14705521,0.07330777,-0.08838654,-0.09831611,-0.062057238,0.14033237,0.030127238,0.020465465,0.14134681,0.08080434,-0.20227797,-0.012931804,0.10591433,-0.13953581,-0.23528306,0.078711025,0.07813213,0.07194968,0.039484426,0.4286876,0.051590674,-0.039385792,-0.17666131,0.08361387,0.21609801,-0.16014424,0.03408402,-0.25995553,-0.0486371,-0.2040881,-0.035552163,0.11572017,-0.23202758,0.2765035,-0.14112404,-0.031017965,-0.15448718,-0.1288179,0.034550577,-0.02850762,-0.09222013,-0.116196096,0.22182104,-0.057693116,-0.34190896,0.24000286,-0.2140487,-0.07419943,0.13251762,0.037069112,0.23686463,-0.2594422,0.18997556,0.037858963,0.08792346,0.0034440258,0.13120127,-0.18256643,-0.0677,-0.09476193,0.0011012532,-0.13210008,-0.16589423,-0.027195947,-0.017659208,0.10016514,-0.13751942,0.059557073,-0.0022380855,-0.12464834,0.29644975,-0.13556328,0.022691857,-0.033788797,0.0704697,-0.16122642,0.31893802,-0.093633175,0.036079586,-0.08024205,0.14512832,0.18528938,-0.03709967,0.15167883,-0.09773065,-0.017759472,0.08192056,0.22037618,0.08218714,0.024117503,0.044001546,0.013829153,-0.060033396,0.10883017,-0.19230223,0.023629509,0.014959856,-0.16014554,-0.046116382,0.032599542,-0.11228182,-0.025950935,-0.17968264,-0.18294159,-0.17045729,0.17329696,0.12267318,-0.03238056,-0.15984572,0.0407789,-0.054843567,-0.17097361,-0.14238077,0.14506008,-0.10943057,0.1210014,-0.05211948,0.08366836,-0.20497857,-0.08569689,0.09126822,0.15708844,0.075623,-0.071462095,0.08897336,0.07556341,0.062440977,-0.09896671,-0.029999321,-0.025939738,0.13276389,-0.021332065,-0.16064623,-0.12753852,0.08905961,-0.04244839,-0.05855051,-0.11642974,0.052074797,0.016667776,0.043701433,0.12338015,0.060124975,-0.033392,-0.29585445,0.24690588,0.07676436,-0.15143679,-0.07018484,-0.09375199,-0.14017855,-0.009526167,-0.0035810089,0.12188701,-0.17645817,0.048842918,0.10002457,-0.092516705,-0.08773943,-0.01613294,0.10415614,-0.3823596,0.1449099,-0.0846478,0.017382018,-0.017841518,0.10583355,0.03196078,-0.11297668,-0.20067318,0.1722165,-0.088371724,-0.15352769,0.14298363,0.06093256,-0.108606175,0.106583275,-0.12065064,0.106942296,-0.046290107,-0.13067058,0.053794496,-0.034319345,-0.07234796,-0.15176837,0.06219051,-0.072438985,-0.018665178,0.01046935,0.056648582,0.03756604,0.009518518,-0.24876873,-0.06462103,-0.05408139,0.042975128,-0.047659013,0.007774158,0.09327228,0.015482555,-0.003000169,-0.056457933,-0.2214195,-0.20212634,-0.18173273,-0.11661848,-0.081287414,0.34597582,-0.13176565,0.011339768,0.29668713,-0.032958467,-0.16967767,-0.043611266,-0.1044337,-0.011578383,-0.012501921,-0.22143717,0.032542106,0.09189834,0.06737552,-0.034929615,-0.060369752,-0.14325994,0.0787294,-0.07369911,-0.07823478,0.12610237,0.03977386,-0.16411239,0.06418095,-0.07200034,0.06771603,0.17923185,0.089815095,-0.035413653,-0.14958076,0.020104013,-0.07763154,0.047330383,-0.10007554,0.0128675895,0.09919468,0.03601207,-0.14865729,0.018789802,0.11224934,0.11127184,-0.03986487,-0.24214631,-0.05757828,0.1960629,0.034889422,0.051868197,-0.0924369,-0.118286096,-0.120164745,0.17801201,0.071292765,0.09293728,0.110434346,0.027400486,0.10497156,-0.07683995,0.054335758,-0.12648001,-0.090160355,-0.06497962,0.009114979,-0.13462925,0.13380733,0.16462128,0.028502453,-0.20081352,0.090324014,-0.08273018,0.13466495,-0.13711776,0.033174396,-0.09478224,0.07689273,-0.048533566,-0.14777629,-0.03897387,-0.06757481,-0.14482102,-0.094237044,-0.16299666,0.12010868,-0.0023572647,0.089103326,-0.14019018,0.24743786,0.100931786,0.13628884,-0.082814254,-0.039575733,-0.07401099,0.037804835,0.16613492,0.18298855,-0.01758473,-0.035385493,-0.04825337,0.0023470605,0.10558471,0.13160054,-0.08459574,-0.0012974842,-0.038441453,-0.030588003,-0.0027596806,0.007187604,-0.16385804,-0.17411883,-0.010950779,-0.14848463,-0.068818524,-0.048622128,-0.05830123,0.20415106,-0.11731546,-0.08238811,0.0037181294,-0.012249053,-0.0981614,0.07345616,0.06828621,0.04781282,0.099292435,-0.026097253,0.07517697,-0.0355191,0.10564675,0.1376052,0.02439662,0.15203252,-0.02065256,0.07866894,0.011072856,0.132781,-0.09111861,-0.056333467,-0.05132232,0.043703023,0.05960665,0.01941945,-0.1730137,-0.062273227,-0.062804684,-0.14776783,-0.13080053,0.0073009413,-0.0051903366,-0.0031632483,-0.24005927,-0.11055623,0.043034468,0.036698148,0.036931437,-0.12948254,-0.089209445,0.10997652,0.07192652,0.026352128,-0.092765585,-0.002608685,-0.032365844,0.12555102,0.13860439,0.051449396,0.115683414,0.0076144454,-0.15023184,-0.005275708,-0.03405947,0.039544944,-0.2336075,-0.10988049,-0.21692942,-0.14702341,0.056539588,0.2247047,-0.121009454,-0.12705688,-0.21636437,-0.11524085,-0.012877298,0.034703422,0.12093199,-0.046349354,0.1254828,-0.09682123,0.22358906,0.16269529,-0.09273956,-0.104164705,0.057280943,-0.0063209124,0.21303886,-0.07758492,0.07777608,-0.18103129,-0.26534984,-0.125404,-0.15776752,0.044318806,-0.078220986,-0.1205812,-0.036233425,0.07265051,-0.04768349,-0.0032898174,0.023226095,0.08421037,-0.09667267,-0.0062373187,0.0023854068,0.066909105,0.057415444,0.16202004,-0.07880751,0.16170171,-0.007053307,0.07542492,-0.04023834,0.10335514,0.15734453,0.18357791,0.024273956,0.001741965,-0.058009252,-0.093888655,0.019743178,-0.14495236,0.18481764,0.018449143,-0.06890049,0.12513058,-0.18953024,-0.038396087,0.14176051,0.06913395,0.1223376,-0.018775748,0.10187293,0.052735142,0.108742334,-0.013790345,-0.09392795,-0.12324727,0.10324393,0.0063342927,-0.08467552,-0.13865624,-0.04446726,0.05037368,0.13305168,0.04492623,-0.07356052,-0.04287244,0.10270975,0.06493043,0.107728936,0.005090945,-0.035103768,0.14444108,0.07717065,-0.059456926,-0.05392106,-0.15234517,0.031290658,0.111282416,0.1431443,-0.26383254,-0.07332179,-0.052313305,0.116573304,0.059127405,-0.062460676,-0.15892647,0.11598151,-0.06606176,-0.0438873,0.12095012,-0.20828639,0.056955934,0.045733355,0.050874654,-0.14365667,0.085383035,-0.078311175,-0.08647824,0.07564711,0.079663195,0.15600166,0.078856856,0.09897281,0.06092845,0.1266352,-0.12812842,-0.08719646,-0.026460588,-0.063797385,-0.023532081,-0.14323789,-0.09306209,-0.023183808,0.11693545,-0.12093547,0.03756904,-0.09526139,0.09490457,-0.007957571,-0.040574152,-0.051087312,0.11702807,0.06536688,-0.08522537,-0.0020866343,-0.12582222,0.21126476,0.1688099,0.04678166,-0.056047782,-0.045996074,0.05235403,0.035992872,0.099940486,0.06898183,-0.04575683,-0.1182783,0.017023362,0.06820261,-0.0428468,-0.042955164,-0.08092934,-0.14172931,0.08739563,-0.042717475,-0.07947419,0.13427368,0.029289918,0.08684969,0.14711486,0.0931031,-0.18156998,-0.12631997,0.13008125,0.058502946,0.09999649,0.014581902,-0.016674219,0.014988083,-0.028752439,0.007764683,-0.06888885,0.0334266,0.0660175,0.06269081,-0.0507689,0.0045028147,0.12031803,0.14105223,-0.043039914,-0.08957691,-0.10773232,0.15463182,0.18138833,-0.0068367207,-0.011045,0.11546483,-0.086312205,0.02319356,-0.10902885,0.005835833,0.15446913,0.09615217,-0.11600044,0.1409916,-0.032627005,-0.14607121,-0.07111806,0.11913794,-0.122150056,-0.14178136,0.1214869,-0.077585526,0.006922252,0.00656354,0.089949325,-0.084635116,-0.042445052,0.13210316,-0.17413893,0.13011633,0.22096801,-0.16671969,0.03058564,0.036018834,-0.13572337,0.14345165,-0.028307697,0.04522134,-0.09882944,-0.055101674,-0.1651491,-0.049710136,-0.066617616,-0.111760214,-0.009962572,-0.055379853,0.112207636,-0.1614325,-0.02765882,-0.0542513,0.018721243,-0.04599634,-0.10288534,-0.066690736,0.086515166,-0.15109128,0.030437933,0.19469929,-0.05702227,-0.19916876,0.096001506,-0.2096129,-0.09379305,-0.070982784,-0.048250455,0.21883506,0.13511422,0.18586312,0.15875062,0.0076711103,-0.052663717,-0.13068208,-0.07449501,-0.0032032176,0.073869474,-0.031210206,0.07749323,-0.12218191,-0.24100664,-0.113957115,-0.12498128,-0.18285583,-0.13847113,-0.086339995,0.15349655,-0.11615138,0.03755653,-0.05227508,-0.067543164,-0.16766794,0.075218365,0.16389221,-0.08329872,0.16794945,0.097494416,-0.13058494,-0.04340401,-0.13884468,0.2885559,0.024469776,-0.09110105,-0.051273443,0.2542584,0.06286988,-0.059288684,-0.14136705,-0.21849482,0.11424005,0.0049715154,0.110107675,0.071206704,-0.009225455,-0.035667747,-0.090474285,0.038039893,-0.14197776,0.06938272,-0.032630026,-0.1475171,0.16433297,0.14224258,-0.14630027,-0.12222127,0.07605723,-0.01949407,-0.015316113,-0.07533652,-0.08685921,-0.093321234,0.010834885,-0.21965285,-0.18076642,0.076331794,-0.08964321,0.18192361,0.16265063,0.04551782,0.10562164,-0.20018663,0.035989266,0.13661373,0.022348301,-0.1331321,0.07016994,0.3031743,0.049553294,-0.05288194,0.14560595,-0.06231773,-0.055467963,0.088735,-0.021927278,-0.0003807685,0.1258751,-0.013518276,-0.18280402,0.264433,-0.088438205,-0.19202194,-0.100592785,0.10952238,0.13024956,-0.0051373495,-0.1271981,0.21172187,0.14985281,-0.13509637,-0.0696724,-0.10763241,0.09370189,-0.0238847,-0.078380845,-0.111776814,0.22369759,0.12371012,0.008850009,-0.13495086,-0.13793002,0.10878977,-0.010949641,0.048936173,0.042413108,0.09644906,-0.25067118,-0.12430706,0.032352846,0.1122063,0.027249647,0.06973787,0.029204004,0.057047367,-0.06287747,0.18184063,-0.025387378,0.16184187,0.115364864,0.2168611,-0.19714469,-0.088743664,-0.09946984,0.06980445,-0.14692423,0.03010714,0.015384445,0.17474172,-0.14406906,-0.0018305111,0.07246643,-0.061397757,0.025525294,0.009083154,0.114595234,-0.018171491,-0.13542317,-0.09858386,0.039521076,0.05468063,-0.072773084,-0.10618586,0.23550266,0.09720037,0.0032397625,-0.11074007,0.118016936,0.1490392,0.060475275,0.13125601,0.103844985,-0.17127801,0.18527831,0.16621545,-0.027957039,-0.10591963,-0.006071488,0.10345123,0.068304166,0.17763725,-0.0013753368,0.056068927,-0.16845098,0.046065737,-0.048778232,-0.065478645,0.11684046,-0.12052473,-0.15881182,-0.030456588,-0.018184,0.15970859,-0.13997869,-0.08406716,-0.06998786,-0.089986034,0.09437718,0.11247031,0.10472376,0.008421562,0.11304698,-0.1611366,0.01895149,-0.0378896,-0.01407718,-0.018132897,0.010301699,0.21639033,0.023831176,-0.15469162,0.12748754,0.057991154,-0.05370128,-0.096283674,0.103556775,-0.028539484,0.115132764,-0.016652502,0.057421263,0.060634617,0.09968835,-0.0944153,-0.07928297,-0.20971127,0.16926135,0.039222315,-0.1105455,0.034865215,-0.12677498,-0.063293986,0.069012135,-0.022726329,-0.015584181,-0.085354924,-0.09919774,0.040988497,-0.00036710422,-0.061833642,-0.0895526,0.1268912,0.011100637,-0.09795895,0.031769894,-0.11801735,0.18723266,0.18679598,0.051290933,0.17787957,0.069763705,0.055427764,0.090116344,-0.1517871,0.07308248,-0.08997401,-0.01222905,0.10245787,0.20192766,0.118243285,-0.1486024,-0.07727197,-0.0007415169,-0.16942902,0.016651798,-0.058156658,0.097278856,-0.06574135,0.13615304,-0.09565604,0.089705124,0.033232037,-0.09510586,-0.08847342,-0.046608403,-0.062297806,-0.042886045,-0.074175246,0.10681248,-0.1211371,0.043030407,-0.13585633,-0.008566759,-0.07574191,-0.29763263,0.088293634,-0.016254047,0.051817853,-0.082682416,0.22021605,-0.18220201,-0.048218094,-0.09449717,-0.04147522,-0.08130974,0.079141706,0.061523452,-0.22735466,-0.08010254,-0.03182017,0.079824775,-0.09086624,0.16521654,-0.1350287,-0.13649565,0.011078783,-0.07539095,-0.14262988,0.016091779,0.16547202,-0.06374144,-0.14213392,-0.14239572,-0.26089033,0.002673807,-0.0055587874,0.016878499,0.2591666,-0.41813907,0.10197564,-0.08080897,-0.053596687,-0.013493332,0.095252894,0.17033592,-0.019831218,-0.097465485,-0.06583562,-0.10123313,0.033030733,-0.031199625,-0.16452801,0.0079743005,-0.04834201,-0.023055755,0.04810855,-0.17725812,0.12732138,-0.0024872909,0.030000769,0.057707425,0.13799761,-0.24653032,-0.082585745,0.037261967,-0.1370525,-0.1112259,0.030893357,-0.10636646,-0.029554399,0.015253358,-0.3180718,0.10029108,0.14382763,0.32846367,0.10687582,0.006460718,-0.07110429,-0.05632195,0.015245433,-0.052924372,-0.11589632,0.08567013,-0.046557613,-0.055297807,-0.007917599,0.1604096,-0.02131992,-0.0027065335,-0.100622624,0.06963297,-0.12807678,0.15387405,0.10108896,-0.0139002735,0.0887137,-0.22657281,-0.04342417,-0.044774264,-0.05485862,-0.17389393,-0.13636796,-0.013491215,0.06310461,-0.0011736122,-0.062037878,-0.20777464,0.04236389,0.105202,0.14458273,0.06882265,7.7169345e-5,-0.10487348,0.18804039,0.13437253,-0.23483537,-0.20984012,-0.11886284,-0.056205332,0.060061563,-0.13372028,0.027940433,-0.021105789,0.012313473,-0.09267488,-0.18010046,-0.029496841,0.186428,-0.027843427,-0.07699151,0.07997086,-0.005500284,0.0444191,0.05114679,-0.06814308,0.036806412,0.052521512,0.11888136,0.24058634,-0.024129605,-0.11511345,-0.13815504,-0.21905418,0.008329297,-0.026514577,-0.120630786,-0.15203728,-0.086004324,-0.09903358,0.10317035,0.21520677,0.006829741,0.025704736,0.05195237,0.12277647,0.16731115,-0.24663402,-0.15362798,0.023412583,-0.1769972,0.051832452,0.15234052,-0.08697683,0.095688924,-0.11794029,0.2001651,0.077596635,-0.20287892,0.17278929,-0.070438646,0.13810912,0.19809562,0.11757317,0.21701697,0.061491895,-0.286428,-0.09258458,0.08299744,0.07776411,0.24104363,-0.098944396,-0.04044863,0.024230033,0.03914178,-0.014343692,-0.084798984,0.019745318,0.106577694,-0.052905254,-0.17962387,0.05724501,-0.08337156,-0.0698357,-0.10209126,0.010764045,-0.0121066375,-0.15405144,0.014763628,-0.04601334,0.13449797,-0.0032488836,-0.053865194,0.018158847,-0.16505386,-0.022893485,-0.030912798,0.106204756,0.043897405,0.02102015,-0.07476009,-0.23291117,0.12351966,0.06117978,-0.053549092,0.011519656,0.11936367,0.13484219,-0.11739823,0.0070990054,-0.15507619,0.06596249,0.07251754,-0.03108534,-0.16928378,-0.047212347,-0.20670126,0.029264016,-0.07750445,0.21465938,-0.11100037,-0.058784623,0.05143827,-0.032650035,-0.16656256,0.1804917,0.011544842,-0.0070096888,-0.04745533,0.13620031,-0.111596435,-0.10022443,0.0013224417,0.057580188,-0.11733065,-0.13359472,-0.13776737,0.006443645,-0.13455172,-0.15046446,0.11799908,-0.09197482,0.061750088,-0.027232485,-0.19546269,-0.036354616,0.015386216,0.0024063897,-0.07851106,0.15883124,-0.15541004,0.13629502,0.05354593,0.035007875,0.08173222,-0.07059585,-0.16751322,-0.09456261,-0.005495564,-0.0019497471,-0.10527912,0.042163543,0.0026386564,-0.17225865,-0.005113994,-0.08852082,-0.19060661,0.030144744,-0.074708685,-0.0016943027,0.111897975,-0.0032698542,-0.100529104,-0.16676341,-0.13060088,0.23765023,0.10686212,0.09961608,0.051363714,-0.090857685,0.037508223,-0.119350284,0.091134995,0.18694864,0.02855549,0.06750968,-0.081620485,-0.23977984,0.15568744,0.0860225,-0.04672178,-0.097767234,-0.20971829,0.012217626,-0.0035058132,-0.019471109,0.102436334,0.012297971,-0.026211657,0.031712983,0.037807595,0.13630135,-0.0566502,0.024418676,0.12089053,-0.03895822,-0.016301285,0.02667843,0.07930776,0.09273882,-0.005794948,-0.0043619075,-0.23270854,0.08423196,0.10676498,-0.0775005,0.17649248,0.0066934424,0.040542893,0.102405444,-0.003379879,-0.14585017,0.08673426,0.17234497,-0.20105854,-0.032949943,0.19138546,-0.018875422,0.065974995,-0.055877317,0.11661332,0.058445953,0.014830019,0.09921769,0.11772084,-0.0569473,0.069290236,0.08076785,0.12508902,-0.0016929407,0.10699034,-0.1212562,0.08407174,-0.007506578,-0.005005904,0.082265675,-0.12576804,0.24214625,-0.06741342,0.059502214,0.005832975,0.016954625,-0.08521006,-0.06927403,0.124427445,-0.06367983,0.24342538,0.16919361,0.05351494,0.04124911,-0.08769813,0.17143117,-0.16052921,-0.012492709,-0.10648702,-0.17039537,-0.18572198,-0.09756597,-0.028519643,-0.0928432,-0.09287253,-0.038361367,0.062151194,-0.022600006,-0.041147035,0.22683387,-0.06929974,0.10975696,-0.013818587,-0.24069212,-0.040431283,-0.18125029,-0.050905555,0.10006261,0.020374145,0.26270476,-0.14868346,0.050244026,0.008508042,0.074706815,-0.024822101,0.10684655,0.06287801,0.06612838,-0.037328456,-0.12431496,0.076830685,0.26003945,-0.20044224,-0.14742853,-0.0047119968,-0.09450884,-0.15020545,-0.10265528,-0.0322789,-0.16773152,-0.14000137,-0.05133785,0.12916161,-0.11899762,0.12930994,0.06761331,0.24981788,-0.23043273,-0.11120998,0.048364185,0.011808794,0.14733103,0.2641058,0.040043026,-0.10309613,-0.069997266,0.09685827,0.06013813,-0.13787359,-0.14319472,0.116976395,0.037229985,0.026872264,-0.0019495493,0.12529881,-0.14910819,0.22762345,0.059400477,0.03167771,0.07207253,-0.09395659,-0.14874399,-0.23268586,0.07458693,-0.03590645,-0.039061498,-0.10441273,-0.011131774,-0.008900207,-0.06498967,0.017971558,0.023725906,0.13206305,0.12512372,-0.22309476,0.16130112,0.11593367,0.009919143,-0.19594026,0.11739253,-0.046941366,-0.088126525,-0.09841442,-0.19405897,0.12568977,0.10572029,-0.104696065,-0.097322695,-0.16232224,0.05463621,-0.10217471,-0.11097518,0.024254084,0.066454865,0.033650972,-0.10941373,0.006489027,-0.14522906,0.02054233,0.05897786,-0.008093475,-0.14644197,0.07769091,0.20760426,-0.04884208,0.12513873,-0.12009157,0.15069078,0.22549807,-0.041191254,-0.08109074,-0.09352325,0.09616722,0.22269647,-0.11605156,0.16812375,-0.2002619,0.06043064,-0.05325822,-0.06024124,0.07950958,0.010500811,-0.055147223,0.025530156,0.114370726,0.10644481,-0.20763254,0.16338742,0.08632807,0.10302895,0.10263409,-0.15384072,-0.121695116,-0.022526056,-0.08882978,0.08976284,0.025818618,-0.028765177,-0.07517886,-0.05011863,-0.15408185,0.10976035,-0.103068925,0.034590088,0.00068656506,-0.12021199,0.14503475,-0.1290431,-0.0796133,0.04780317,0.062128965,-0.023913382,0.060172293,-0.042159624,-0.13978493,-0.13622731,0.14471012,0.06811829,-0.13428386,-0.14178655,0.1251703,0.09441412,-0.115904264,-0.03722103,0.31417048,-0.09601189,-0.18278596,0.047083776,-0.08719603,0.07400337,0.2039929,0.100264855,0.00613532,-0.09481926,-0.011059275,-0.052687023,-0.13565238,0.0110170245,0.05231622,0.005335447,0.009171591,0.14397578,-0.034085818,-0.11301095,-0.062416818,-0.16145375,-0.1342053,0.11360747,-0.030100664,0.14601846,-0.22621852,-0.12396546,-0.004492695,0.10281476,-0.06680571,-0.103337675,0.009436195,-0.06497692,-0.13005185,0.061105404,0.10465359,0.017252162,0.08274086,0.020944592,0.036396883,-0.14863189,-0.013604639,0.042561755,-0.13973804,0.17735825,-0.08904969,-0.17925471,0.15194304,-0.090620816,-0.12315423,-0.13256505,-0.108615644,0.06079347,-0.037823487,-0.15024287,0.085640796,0.21140666,0.091796465,-0.12726709,-0.14018674,-0.07753758,-0.11218934,-0.19895607,-0.12878942,-0.16118863,-0.10956559,-0.25454614,-0.0497553,0.04430142,-0.11298838,-0.12087433,-0.034901366,-0.06980427,0.032384597,0.050979167,0.1412024,-0.09018356,0.11483324,-0.020360809,0.006364948,0.0049580447,0.0035846105,0.08203552,0.11262033,-0.060488656,0.06873557,-0.18810174,0.026731502,-0.08319748,-0.16954106,0.06240132,0.022575486,0.059435584,0.070619166,0.14676909,0.16195966,0.059316177,-0.0711454,-0.14166026,0.027290283,-0.013630822,0.095262066,-0.031256992,0.07315061,0.013644863,-0.0331976,0.12721674,0.0111732865,-0.014961143,-0.1423323,0.10558964,-0.14779781,0.018435013,-0.05216053,-0.08347623,0.028825393,0.056480415,-0.102307394,-0.022907943,-0.06163646,-0.039661188,0.13324521,-0.1641602,0.17700884,-0.051371902,-0.042978644,-0.1026391,-0.083117254,0.14897099,0.07907131,-0.062200986,-0.008176716,0.007496554,-0.14274703,-0.100098416,0.10944903,0.011441472,-0.10213234,0.05355779,-0.118133746,-0.029655298,-0.0933775,0.037913512,0.038943317,-0.07565878,0.099179275,0.01727798,0.12499086,-0.002169215,0.07090041,-0.0056952187,-0.060638744,-0.032938376,-0.14681418,-0.1334722,0.04683013,-0.0014476627,-0.005502106,0.10388207,-0.15124561,-0.01585467,-0.017346177,0.11775314,0.07511679,-0.12009694,0.16639209,-0.16591376,0.19272614,0.10149669,-0.020247415,-0.090516016,-0.025658827,-0.12835228,0.019367587,-0.060921628,0.082457796,-0.08352827,-0.03293029,0.016217912,-0.14055265,0.12344986,0.04672261,0.06949572,0.10616131,-0.058210608,0.07967062,0.13907972,-0.01779457,-0.11528195,-0.14456801,-0.14424755,-0.035460327,0.110994354,0.12924634,0.17535958,-0.08239753,-0.12574367,-0.056417685,0.16258225,0.15050799,0.09409232,-0.08950228,0.102873996,-0.041891675,0.03468621,-0.123951465,0.011932962,0.10931909,-0.15513429,0.096989475,-0.15241107,-0.007731643,0.08451256,0.09232545,-0.13773382,-0.02905331,-0.009224591,0.16740607,0.10509222,0.039031304,-0.017676905,-0.09412688,-0.05941532,0.054740787,0.009047688,-0.10919359,0.08803541,-0.01663381,0.20614341,-0.20514153,0.0345575,-0.16543396,-0.080432355,-0.034883928,0.108675644,0.04400776,0.005927001,-0.13158931,0.01340493,-0.16328095,0.11620833,0.0098835165,-0.11097182,0.093153946,0.07577659,0.15450172,-0.009785774,0.029334448,-0.104200184,0.046716582,0.007349393,0.09948851,-0.120621935,0.05051617,-0.017567007,0.036547486,-0.057294063,-0.08369423,0.1302288,-0.08452865,0.02564378,0.0019097119,0.06364309,-0.1816127,0.16910581,-0.021277301,-0.05501718,0.10121404,-0.17936154,0.10865424,0.1649778,-0.095760524,-0.025083596,-0.10374894,0.12973672,-0.007901363,0.0382629,-0.006506194,-0.12490171,-0.045162585,0.1206171,-0.08793925,-0.121278435,-0.26893666,-0.004186818,-0.03116736,-0.15726726,0.000569732,0.01010779,-0.09387858,-0.05038914,-0.03124545,-0.034905516,-0.1481995,0.10838797,0.07891627,0.12137821,0.1767322,0.05279212,0.062174056,-0.017682692,-0.0064867167,0.11802534,-0.2913944,0.07653889,-0.12137886,0.13560574,-0.10682015,-0.09452718,0.019226747,0.066895194,0.03932308,0.053307287,0.17079937,-0.006091353,0.052843906,-0.004014852,-0.12800775,0.09133003,0.006430792,-0.075735286,-0.10498236,0.07505236,0.020416373,-0.06816857,0.04508051,-0.06870002,0.0024753185,-0.055099186,-0.056720577,-0.11110221,0.16688928,0.05216598,-0.11353039,-0.20125866,0.13524167,-0.04373954,0.10153094,-0.09900076,0.013045455,0.08191784,0.024683291,-0.058254518,0.18603231,-0.13827693,0.05196014,0.06132482,-0.055195563,-0.14523561,0.0075626164,0.26790166,0.039300952,0.02135652,-0.065929644,-0.13090283,-0.02646238,0.045152776,0.019349955,0.12546039,0.14177072,-0.24389914,0.02965353,-0.074115254,-0.028161185,-0.022515487,-0.0904373,-0.03989094,0.044815198,0.20227705,0.16570765,0.07120478,-0.058066733,-0.15952383,0.14117795,-0.14734656,0.11143121,0.13175692,0.15552393,-0.15375413,0.08983626,-0.034312803,0.045002468,-0.021126486,-0.19569775,0.09485916,0.04625008,0.14175856,-0.12000034,-0.07659395,0.0005864012,0.03640487,0.12422846,-0.06231928,0.03508458,-0.0374331,-0.06131648,0.028636865,0.074109845,-0.015987033,-0.017748486,-0.09263578,-0.10043998,0.11517394,-0.107648216,0.07482353,0.15441541,0.008230684,-0.14037845,0.12303219,0.20245913,-0.020721493,-0.11488628,0.082684934,-0.1885898,-0.14680001,-0.055611484,-0.051872693,0.1375237,-0.14450039,0.099381186,0.124914825,0.04568997,-0.09025354,0.03131782,-0.040689502,0.17382541,0.07138066,-0.13752781,-0.09366697,0.04506903,-0.07059229,-0.0077647776,-0.1629805,0.09126339,-0.012252858,0.11500383,-0.057048604,-0.040528007,-0.019249415,-0.089179575,-0.02429157,-0.11552539,0.017668538,0.13881962,0.038708683,-0.012386027,0.14008832,0.0039047468,-0.05462088,-0.08202046,0.10578545,-0.17205845,0.09003038,-0.15653153,0.008175363,0.032567285,0.022902181,-0.025552114,-0.08614613,0.13350679,-0.058343828,-0.05172545,-0.21122038,0.19625337,-0.028925937,0.018339463,-0.036982756,-0.023376886,0.07610884,-0.18002494,-0.17794655,0.123065285,-0.055829197,0.17950106,0.1344729,-0.042120744,0.15559235,-0.02325886,0.1631678,0.07527216,-0.027919173,-0.081359684,-0.14393805,0.17325789,0.1491071,-0.022670371,-0.07235509,-0.13308458,-0.39030012,0.09859813,0.10267322,0.05892954,0.16995458,-0.17509574,-0.10439211,-0.0026073572,0.25394088,-0.09251034,-0.17383489,-0.056435127,-0.14480531,0.1298787,-0.15155245,0.11264936,0.029183893,0.10206184,0.12730137,0.06589001,-0.07139453,-0.048129894,0.015860226,0.049630426,0.09657448,0.0056723286,-0.0636439,-0.08822612,0.24719493,-0.067843385,-0.113048464,-0.15871717,0.04492029,-0.17040828,0.045946285,-0.011537895,-0.25870338,0.08182211,0.059348308,0.006658037,-0.053606633,0.026305662,-0.10508262,-0.11513294,0.035908654,0.2110135,0.01838931,-0.1617737,-0.04247618,0.24078363,-0.06497958,-0.27059126,-0.00020956072,0.0829663,-0.068154216,0.1356531,0.025404995,-0.1082908,0.0499562,0.031125702,0.023328867,0.034085248,0.13242394,0.0527413,0.18413484,0.38466996,-0.0851506,-0.15655008,-0.15497835,-0.034102023,0.2079771,-0.24386264,0.08144531,0.08237408,-0.12580581,0.051639985,-0.08909569,0.13600372,0.26650414,0.09008792,0.07732721,0.06724747,-0.29836276,0.22469455,-0.1787244,0.030475307,0.07994313,-0.05854054,-0.033455,0.050150402,0.18435344,-0.030193074,-0.06099968,-0.047708564,0.18538855,0.25733212,-0.0022725589,-0.12482781,0.06522205,-0.14635313,0.15910478,-0.12438506,-0.049951907,-0.182921,-0.1111538,-0.07587977,-0.027677476,0.11598982,0.09374458,-0.12481315,-0.043974698,-0.031901304,0.029068839,-0.03580071,0.059305184,-0.036092333,0.10404324,0.06915196,0.0014159081,0.12918192,0.043664027,-0.0063906866,-0.1344119,-0.0834089,-0.09112815,-0.11498019,0.06067835,-0.091509804,-0.037028357,0.037338074,0.011222937,0.0969178,-0.03608024,0.071898766,-0.13375746,0.033589967,0.10206556,-0.08632244,-0.1264097,-0.10708904,0.10936268,-0.06537892,0.08763053,0.091753624,-0.14068496,-0.090119995,0.033965897,0.081177264,0.011982117,0.13526562,0.108908124,0.21948443,-0.13742751,-0.20459256,0.1294984,0.13047324,0.07495535,0.25030947,0.05513222,0.10713857,-0.13036922,-0.04962757,-0.14338838,-0.14597084,0.11038778,0.09367573,-0.036840037,-0.08264781,0.1972666,0.10702637,-0.07648091,0.07125155,-0.07855467,-0.015576643,0.058296494,-0.10879625,-0.053721752,0.018907577,0.12508975,-0.12164024,-0.17202619,-0.14345,0.050398473,0.18173642,0.11031101,0.18646319,0.021461755,0.122383066,-0.09136793,-0.12277396,0.043681554,-0.055928998,0.1615243,0.12802301,0.014953273,-0.14385772,0.14029813,-0.056685783,0.16793771,-0.087117694,-0.09204258,-0.02341001,-0.05025073,-0.028160008,-0.021634059,0.052547842,0.046159845,-0.0446697,-0.061560705,-0.0040762764,-0.18311536,-0.014078225,-0.120372884,-0.05594827,-0.02180551,-0.029608453,-0.16148615,0.021048484,0.10498384,-0.024927314,0.01890546,-0.04919783,0.10156673,-0.049115818,0.23930916,-0.14945315,-0.12127962,0.1626881,0.10733514,0.048858993,0.019130196,0.027693389,0.13282369,-0.00022334828,-0.02682945,0.008369793,-0.17450692,-0.16817886,-0.070259765,-0.121382095,0.029160498,0.010107979,0.21092166,0.02560329,0.110610634,-0.09327579,0.12431304,0.1842087,-0.016816728,-0.006935901,-0.14072564,-0.09248791,-0.0728441,0.0049647023,-0.009663808,-0.11290996,-0.053890876,-0.14639063,-0.16910543,0.15273099,0.038139716,-0.23129514,0.04108931,-0.057028674,-0.12931998,0.083548024,-0.13472463,-0.14548032,-0.1297264,0.06584065,0.037727952,-0.11790346,-0.16666143,0.008452191,-0.10580332,0.015624499,0.06057436,-0.041819606,-0.042591233,0.050935134,-0.027182538,0.14308043,-0.011694976,0.092571974,0.109668374,0.011397695,-0.14270735,0.1615523,-0.0758118,0.12055632,-0.01823189,0.047664836,-0.09662918,0.12888673,0.065933496,-0.107792296,0.179012,0.0034166283,0.13432305,-0.17228472,-0.13730016,0.13208385,0.09940171,-0.17047481,-0.09485922,0.06280933,-0.14201055,0.03477919,-0.08144248,-0.14952111,0.10219842,0.24836935,0.0030094346,0.17592518,0.06697262,-0.05925701,-0.14505535,0.07694101,-0.0065816785,-0.15743259,0.1971413,0.07734963,-0.13095145,-0.060579907,0.08346115,0.11734011,-0.09533543,-0.19109392,-0.032373756,-0.03705306,0.0072916755,0.003468495,-0.120177194,-0.15078516,0.0011407207,-0.07858647,0.011709429,-0.060165785,-0.11200852,0.156694,-0.10410889,0.12422166,-0.060030222,0.06434932,-0.03756695,0.13618541,0.067486465,0.1168726,0.0052139545,-0.048255637,0.07312845,0.14188217,0.18061619,-0.06592912,0.07252319,-0.041275207,-0.07474839,-0.014654517,-0.22338387,0.017664732,-0.18124656,-0.041628588,-0.006366482,0.24937782,0.05462863,-0.015333997,-0.12435566,-0.1414803,0.053461056,-0.020965772,-0.07017808,0.046572093,0.18929517,0.10024695,-0.095567614,0.03365196,-0.052256417,-0.012500296,-0.13897839,0.14286983,-0.08024215,-0.06760792,-0.0051477975,-0.13207303,-0.30905604,0.010216715,-0.13245037,0.038582522,0.17893533,-0.006513039,-0.12674804,-0.025959628,0.23305869,0.13947076,0.07624751,-0.082968965,0.04462113,-0.15976553,0.013886212,0.08438648,0.12231897,-0.15490125,-0.062335514,0.024407363,0.0056407475,0.02115099,-0.042459697,0.26000854,0.043052506,-0.039983284,0.034366667,-0.056129463,0.108167276,0.15463015,-0.11664236,-0.09316216,-0.046925478,-0.033322476,0.07011631,-0.14945658,-0.055130683,0.17562836,0.16951682,0.21876746,-0.015394319,0.04985622,0.17917779,0.070946276,-0.13864677,-0.117946595,-0.050666686,-0.10419661,-0.08840765,0.056930304,-0.13652772,-0.043617234,0.1175028,0.14004447,0.1135236,-0.16539524,0.14165147,0.1377977,-0.13916111,0.24289303,0.12079305,-0.07586979,0.20386471,-0.076918945,-0.07065994,0.068062395,-0.12871462,-0.077312656,-0.08102303,-0.17243029,0.043868743,-0.22502953,0.08032773,-0.072435796,-0.14347848,-0.08711088,0.037147008,-0.057361834,0.0713401,-0.054595266,0.15074787,0.121770196,-0.071108125,-0.005890553,-0.010127552,-0.061909072,-0.1548471,-0.008274781,0.10494666,0.10148125,0.12786408,-0.17500031,0.028644342,0.09540329,0.06869999,0.10551695,0.008595705,-0.0064223143,0.12761575,0.037868146,0.12696159,0.06908405,-0.17499277,0.02685766,0.073221296,-0.0076497192,0.083297335,0.124418594,-0.073847875,0.11101803,-0.03913346,0.013887842,-0.05478991,0.04603103,-0.054341067,0.08887078,0.21490887,0.09274241,0.0500674,-0.09177185,-0.017377837,-0.017011287,0.053908978,-0.044175062,0.14770178,0.104784176,0.042590752,-0.15309438,-0.039675217,-0.01809369,-0.13600834,0.17576057,0.05371081,-0.04889911,-0.13330899,-0.002349565,0.067954,0.09383872,0.08504821,-0.11988314,-0.046672493,0.03925878,-0.09368016,-0.053303458,-0.071632616,0.00040077683,-0.14936344,0.19209087,-0.04988174,-0.052754827,-0.0499957,-0.13754094,0.07995803,0.10050351,-0.0607661,-0.15689011,0.09845163,-0.0016260042,-0.06460866,0.14326215,0.15876088,-0.14961858,-0.017753262,-0.07038973,0.102641225,0.1082291,0.14799362,0.059795182,0.13409053,-0.12650907,0.088658735,0.1456281,-0.05842611,-0.14759763,-0.024789955,-0.031663813,0.010709533,0.09469147,-0.064621665,-0.070219934,0.1094885,-0.024840778,-0.05465822,0.061073493,0.0898181,0.17536357,-0.1587306,0.108818345,-0.12266749,0.06386337,-0.062733196,-0.019527877,0.190543,0.06107796,-0.114203274,-0.090946555,-0.10548782,0.08143621,0.14068003,-0.13541022,0.05957179,-0.16130021,-0.046461537,-0.04664172,-0.03420173,-0.06340151,-0.12059005,-0.05528275,0.05477335,-0.15753613,0.06239394,0.063317634,-0.13761173,-0.064580925,-0.1325804,-0.14801393,-0.13213544,-0.11578585,0.054284044,0.09422339,-0.21245927,0.049293045,0.20361893,0.024635378,-0.025395907,-0.062478047,-0.026318626,0.113185,-0.091220796,-0.19114976,-0.03352233,0.09501845,-0.04160883,0.12441165,-0.033192005,0.22137587,-0.12637842,0.03296704,-0.09058699,-0.10819356,0.13203515,-0.106967956,-0.17689222,-0.095844395,0.09788726,0.09153275,0.23423918,-0.013739432,-0.046954326,-0.07488352,-0.071336806,0.17137632,0.10159117,-0.041953247,0.109296076,-0.02839674,-0.28396627,-0.0068270033,-0.12568906,-0.1514493,0.032941043,0.19323742,-0.08227945,-0.11652014,0.22995925,-0.08565212,0.0033394713,0.028606525,0.10374703,0.10352365,-0.18278396,0.109263524,0.040318087,-0.06310509,-0.1596838,0.21193017,0.03262565,-0.10393238,-0.088261396,0.070414074,-1.8857449e-5,0.13356817,0.22891079,-0.16564094,-0.07377274,-0.037985098,-0.14655145,0.15241541,0.028785812,-0.33097607,-0.13806744,-0.0779146,-0.16134885,0.13593058,0.08413664,-0.0019019863,0.18663621,0.014374161,0.24115634,0.15751751,0.078551754,-0.06942993,-0.09350118,-0.037641507,0.04090377,-0.12637414,-0.09688331,0.05539303,0.09461756,0.04035756,-0.048851706,-0.0102139795,0.11316476,0.12758854,0.070807755,-0.07920358,0.067277744,-0.101388656,-0.060952242,0.18679844,0.050787374,0.015541863,0.0320042,-0.025227988,-0.20205715,0.11507688,-0.04168718,0.058452677,0.032955423,-0.056069244,0.13220122,0.12864508,0.06433,-0.11325245,-0.2223806,0.13744372,0.09411786,0.017152973,-0.12323561,-0.025808115,0.032614984,-0.10581182,0.10942851,-0.12281614,0.039283033,-0.13397014,-0.228106,0.0055854786,0.08281348,0.024473473,0.049774624,-0.190457,-0.15012178,0.09925069,-0.08672286,0.06761404,-0.19657372,0.1565892,-0.0629308,0.19998161,0.07198457,0.093409285,-0.1257152,0.14000282,-0.09428663,-0.036833074,-0.0264674,-0.032395322,0.06715502,0.10325435,-0.07970804,-0.15103684,0.16664712,-0.025885269,-0.016899537,0.21440339,0.108854175,0.13884263,-0.0060616136,-0.117539816,0.036244135,0.25941595,-0.1406138,-0.032837167,-0.12609893,-0.119731486,-0.03655733,0.18276113,-0.08514396,-0.10135854,0.0813458,0.04065302,-0.11499931,-0.07482962,0.0101878345,-0.058397613,-0.053943235,-0.0668552,0.1282062,-0.034493968,0.06393329,0.100289084,-0.08804207,0.116769835,-0.10386473,-0.13786842,0.08615713,0.009513842,0.060419098,0.057864167,-0.24190341,0.12945126,0.063595295,-0.0027166447,-0.037632927,-0.26713148,0.09600206,0.13469565,-0.10700371,-0.098021254,-0.16834241,-0.13789503,0.18426104,0.09539023,0.11626518,0.13664928,0.1749532,0.014837869,0.005241374,0.01507335,0.100336775,0.09821494,-0.22304633,-0.018958773,-0.08343413,-0.04988966,0.051882032,-0.13123672,-0.0073042344,-0.03800432,0.19243547,0.0705399,-0.032496568,-0.19764136,-0.06298552,0.19164366,0.024979686,0.12284262,0.023749158,0.27908182,-0.010498692,0.081873655,-0.15348718,-0.16493593,-0.13936752,-0.06512691,0.113776185,-0.13257903,0.06904092,-0.12108431,0.13645272,-0.15006782,0.20830561,0.13271406,-0.011039406,0.070167825,0.022725279,0.020785866,0.07217676,0.066885635,-0.21683027,0.10888023,0.0822731,0.09814009,0.013831865,-0.00044584196,-0.067322634,-0.053857177,0.07361453,-0.0030211871,-0.15956147,0.06797308,0.06302738,-0.0064016613,0.048058677,0.17399763,0.13684368,0.121372804,-0.13140135,-0.021273859,0.07074211,-0.03715947,-0.11623379,0.101327464,-0.15365908,0.09300137,-0.01421441,0.045978386,-0.14917456,-0.080287196,-0.04168359,-0.07829085,0.09546836,-0.06212859,-0.06637196,0.1313857,-0.08420387,0.18497364,-0.14163008,-0.09845563,0.19406867,0.024936777,-0.17370288,0.12198827,-0.12047135,0.1583125,0.035101674,0.034448013,0.11366336,-0.118157595,-0.024527438,0.20582525,-0.00711862,0.04961449,0.0025272625,0.02402833,-0.15631628,-0.122148246,-0.06447252,-0.067791484,0.105031684,0.15363686,-0.07793548,0.10651832,0.09336839,-0.07160426,0.12070427,0.10521974,0.12383414,0.045553952,-0.08406853,-0.20758519,-0.0317301,0.08938252,-0.15382685,-0.1937421,0.0077287075,0.11277287,0.1297806,-0.060409352,0.07290199,0.053532794,-0.07890991,0.04374313,0.2541327,0.10609806,-0.018133672,-0.12582587,-0.13076624,-0.08392141,0.056503143,0.09159665,-0.075901434,0.039059643,-0.16209708,-0.049794815,0.13786933,0.067179345,0.18132804,0.006956219,-0.06218226,-0.042337228,0.02794837,-0.16907884,-0.22382265,0.20035869,-0.16076536,-0.03149342,-0.15359679,-0.16681202,-0.09927031,-0.105028376,-0.17432763,-0.045211527,-0.06269352,0.020808633,-0.15212175,-0.059895847,-0.09159079,0.04375342,-0.08133146,-0.11245791,0.027451616,0.016344037,0.12406689,0.10341738,-0.01777388,-0.1011595,0.06384347,-0.09273399,0.04299341,-0.015415702,0.07186284,0.10707494,-0.18149227,0.012601234,-0.009126708,0.13078512,0.057708334,0.066122964,0.038074195,0.17300606,0.0065879775,-0.16114138,0.033275235,0.11498488,0.040073276,-0.037923723,-0.013279172,-0.049804658,-0.017502094,0.014136096,-0.18948615,-0.07429898,-0.1405541,-0.04510538,-0.24750203,-0.071761586,-0.10226926,-0.10014084,0.063687734,-0.13900167,-0.16362792,0.13403925,-0.029346213,0.15637955,-0.04111105,-0.09682807,0.13614678,0.10732934,-0.026639841,-0.06738616,0.058934737,0.1441801,0.019461967,-0.036746215,0.07432422,0.008579611,0.00012474135,-0.05051385,-0.060804404,0.033298668,-0.00469034,0.08407191,-0.10596145,0.011842323,0.047202613,0.07109274,0.08829989,0.14096555,-0.08102236,0.016781455,0.020765401,0.11220498,0.115000166,-0.02487315,0.21273258,-0.013639348,0.0773903,-0.104261406,0.10097067,-0.039463915,-0.022353021,-0.117294915,-0.08791463,-0.025639497,-0.08375929,0.18308271,0.07130983,0.12587984,0.11446507,0.0723737,0.022175062,-0.06705875,0.009453634,-0.057785843,0.13014567,-0.12876663,-0.042015746,0.122240156,0.07078069,-0.076253705,-0.02804432,0.109518915,-0.013908039,0.06532262,0.009386924,0.06408697,-0.14987056,0.04488438,-0.024469454,-0.07802908,-0.16610472,0.030744247,0.2245826,-0.09936375,-0.08015901,0.10110416,-0.14688863,-0.15453994,0.0042464593,0.07369208,0.063939236,-0.042443104,0.060356233,-0.16277964,-0.14477995,-0.11126855,-0.10010776,0.048330054,0.054009065,-0.04573309,0.13049749,-0.0153536685,-0.075562894,-0.007768874,-0.123761885,-0.040419433,-0.1620769,-0.10983399,-0.045106843,-0.1188638,-0.14957528,-0.07749761,-0.023211576,0.13186742,0.20990548,0.03910554,0.054990157,0.16543876,0.023789812,-0.13394502,0.08719894,0.0030939707,-0.17831792,0.10654016,0.045463864,-0.055193722,0.034906797,0.031589653,-0.031064056,0.05669015,-0.11317531,-0.07969305,-0.0060228915,0.08951478,0.15677717,0.00018678259,0.2406972,-0.08139009,-0.020895924,-0.024530785,0.07267173,-0.15284333,0.056564443,-0.22306402,0.16090247,0.07347389,-0.08234035,-0.09353606,-0.16945368,0.13711646,-0.02383999,0.06269459,0.013606685,-0.026276153,-0.13972414,-0.0656476,0.015357167,-0.06345348,0.104603276,-0.02827519,-0.04813793,-0.04665244,-0.05685193,-0.14381509,0.04334969,0.06340791,-0.04026205,-0.12612449,-0.13511017,0.09509926,0.0024685275,-0.109852575,0.071127474,-0.2536864,-0.01774775,0.070216365,0.071545236,0.2454976,-0.11818563,-0.17562552,-0.06322362,-0.0068356246,-0.022603206,0.08726569,-0.020706836,0.14946899,-0.1183691,-0.20037343,0.11585616,-0.0884203,-0.14579082,-0.022058355,0.12057522,0.09313936,0.06853766,-0.03383409,0.04899171,-0.0730334,0.07143422,-0.12190702,-0.10063842,0.07145212,-0.01827271,0.015922297,0.0378766,0.081527054,-0.02410221,0.105296254,0.062222343,-0.071879305,0.1864515,-0.019264683,-0.100034684,0.018656759,0.07898816,0.022881726,0.080241986,0.006427401,-0.23561978,0.041159153,0.12083054,0.041243825,0.13081017,0.10608506,-0.15117611,0.121544704,-0.057522994,-0.24891195,0.07968602,-0.19379732,0.00034911858,-0.00084819354,-0.037932854,-0.14022504,-0.04723842,0.04585383,-0.020576973,0.04354646,-0.11568098,-0.11599498,0.19765739,-0.03720154,0.19298108,-0.15505986,0.05335803,0.14953561,0.13691682,-0.13751356,-0.21870762,-0.04165978,-0.13579404,0.12421225,-0.025689326,0.13238133,-0.14078215,0.0953353,-0.28560564,-0.117180705,0.07006955,-0.02885517,0.051474076,0.08337936,0.07873384,-0.13291574,-0.07428721,0.2161848,-0.01301689,0.088664435,-0.15192513,-0.07306339,0.12669934,-0.033661123,-0.041170474,-0.041781638,-0.09954083,-0.015951894,-0.008109666,0.16186355,0.03309092,-0.09528659,-0.15258054,-0.005786008,0.14115445,0.02651261,0.014764086,-0.032131854,0.124992445,-0.07197176,-0.09928014,-0.16895312,-0.09445892,-0.0085838195,-0.1764732,0.24738689,0.027382828,-0.076226495,-0.03906347,-0.032392398,0.09756668,-0.033820607,-0.008047988,-0.07771977,0.11536289,0.15862717,0.09856397,0.081855565,0.026917748,-0.17574294,-0.025936453,-0.08049632,-0.020191038,0.13307488,0.07077205,0.13274845,0.10735973,0.009873162,0.11237063,-0.011086628,0.100597486,0.10497691,-0.046377882,-0.084001996,-0.072535306,0.12201058,-0.13880362,0.008167282,-0.082091086,-0.07106272,-0.08215553,-0.16961262,-0.024786767,-0.035871297,-0.09427218,0.115139306,-0.005645559,-0.13943368,0.13853535,-0.08335959,0.154662,-0.13322736,0.088208936,-0.04304615,0.06404784,-0.12160179,0.0735454,-0.24848059,-0.058613658,0.1157964,0.106388554,0.025428591,-0.052967127,0.107072525,0.016709292,-0.09174,0.099848606,-0.08790529,-0.16204421,-0.05385957,-0.032590926,0.07606499,-0.04812936,-0.15176867,0.05862419,-0.055083703,0.03262591,-0.05673764,-0.0789225,0.059195273,0.09140387,0.09319815,-0.06830541,0.0014984857,-0.096496455,-0.05969696,-0.030022247,0.05934223,-0.009645342,0.07588572,-0.20378536,0.14535677,-0.10263498,0.21987344,0.048185557,-0.011046418,-0.31642973,0.056237996,0.04663138,-0.15730864,-0.07565836,-0.039563864,0.039795227,-0.012947931,0.13952717,0.07025025,-0.044731334,0.037948985,-0.12710936,0.06321897,-0.0930755,-0.09987893,0.22258964,-0.04479045,-0.039793525,0.13393936,0.07433822,-0.12278968,-0.12863523,-0.049815193,0.06215483,-0.013879405,0.08598542,0.17283663,0.10541823,-0.06857064,-0.07113772,0.01674091,-0.23276287,0.028841862,-0.097899504,-0.046000645,0.06764891,-0.032359805,0.12524162,-0.019434182,-0.12513837,0.036085628,-0.13986355,-0.06836057,0.1820476,-0.0753888,-0.063984096,0.16014534,0.0365662,-0.093767,-0.049610436,-0.2542679,-0.03229954,-0.092108466,-0.14211802,-0.014332434,0.067146346,0.30240077,0.23145604,0.049779408,0.19418839,0.3134108,-0.16380094,-0.1359232,0.001437369,0.09141528,0.0013222618,0.004670176,-0.12088314,-0.12564214,-0.0029855617,-0.052124437,0.07162195,-0.10924158,0.08861378,-0.046866413,0.022696536,-0.055209875,0.15578602,-0.18996198,-0.16553022,0.23203966,0.079891324,-0.18454883,-0.15840884,-0.0058625047,0.009617961,-0.17187709,-0.06292198,0.051515315,0.0091822,-0.12170934,-0.103581026,0.07956523,-0.06709763,0.06358548,-0.18245041,0.11647485,0.29548725,0.024862772,-0.06740308,-0.114738315,-0.1103993,0.004756036,-0.16699444,-0.11016891,-0.14781559,0.10358007,-0.15719011,-0.02020884,0.110099755,-0.123942524,0.09823279,-0.029057326,0.009704168,-0.08835295,-0.12649684,0.1244149,0.057514135,0.011726259,0.1879038,-0.01980408,-0.02946704,-0.12642607,0.13002282,0.16680475,-0.16286781,-0.052957144,-0.06796222,0.025395365,-0.1437627,0.037446074,0.06677934,0.048072252,0.02644948,-0.10752636,-0.03862531,0.05344462,-0.16504134,-0.039232355,0.023775438,0.112853445,-0.18277602,-0.13865685,0.16307975,-0.11061819,0.08078883,0.009180616,-0.07742846,-0.1316328,-0.12486521,0.01049254,0.010944775,0.03488623,0.18857172,0.19546479,0.15293667,0.0457588,0.032579195,-0.16286494,0.08730782,0.1627413,-0.047808554,-0.12819748,-0.0073223067,-0.016058816,-0.018352177,0.07448339,-0.12149695,-0.08787963,-0.17023697,0.13034756,0.055267084,-0.02641697,-0.016386919,-0.0013128866,-0.12994489,-0.07265878,-0.113850616,-0.07401435,-0.13675502,0.123087175,0.15820435,-0.08931461,-0.018965147,0.09313343,0.14557153,0.17438233,0.15801376,0.10578213,-0.011740225,-0.1350604,-0.09202444,0.016716728,-0.083235316,0.095887706,-0.011837418,0.10541081,-0.12914807,0.033855133,-0.1406202,-0.039840054,-0.07277543,-0.033245344,0.112236165,-0.18097585,-0.003870864,0.13239427,0.079559654,0.24679588,0.03738384,0.03729714,-0.17537187,-0.1336941,0.077827685,0.037325684,-0.06659541,0.139516,0.1704163,0.04300864,0.019895338,0.0010735287,-0.027168628,-0.1396624,-0.1430348,0.11395627,0.10044303,0.07185036,0.077569336,0.024052585,-0.042643253,-0.14585876,-0.1442627,-0.14771599,0.03121192,0.05006397,0.053946376,-0.024882704,-0.013852067,-0.0048869443,0.020583086,-0.18512942,0.0877608,-0.049176574,0.069985695,-0.012767846,-0.09802161,-0.02720969,0.24471256,0.20697019,-0.06084143,-0.07051575,0.10954544,-0.107600346,0.0130451955,0.074728265,0.07129028,-0.10811905,-0.05461725,-0.09391971,-0.109055854,-0.042759042,0.036298,-0.07982714,0.16492827,-0.09435503,-0.12158202,-0.064975895,-0.009472232,0.009014422,-0.24030867,0.13143897,0.17596987,0.056995157,0.19288425,-0.16262366,0.04655934,0.0725534,0.08729057,0.15431012,0.07316895,0.1182378,-0.016961467,0.19981952,0.007863415,0.023120103,-0.08460007,-0.16750124,-0.014697588,-9.8656776e-5,0.11412229,0.08356315,-0.1702522,-0.06546046,0.04696636,-0.038836185,-0.18687761,0.06613856,0.09442515,0.049276013,0.14531645,-0.011822441,-0.07310396,0.014047068,-0.049590576,-0.10260557,-0.06551594,-0.052182354,0.13307996,0.08465579,-0.12981944,0.1717789,0.05915726,0.031444926,0.008406467,0.033610974,0.15682554,0.04911747,-0.11005648,-0.14600872,0.0064183534,-0.057229977,-0.05598669,0.03490882,0.041913263,0.008530338,0.04087004,0.0972057,0.09483922,0.12119883,0.16207819,-0.029159684,0.089006044,0.026235979,0.07914235,0.015209948,-0.12466887,-0.013761707,-0.042360496,0.05718114,-0.10897018,0.13149431,0.06390448,-0.013795445,0.09774157,0.123931766,0.13970134,-0.0027523884,0.014801824,-0.048622217,-0.08470099,-0.10680485,-0.14901151,0.023880126,0.023415023,0.09411251,0.095916905,-0.061261453,-0.16553211,-0.15592554,-0.228162,-0.13362494,0.12132004,0.016884357,0.016664963,0.053144496,-0.12966563,0.08800691,-0.041023258,0.092301175,-0.043930594,-0.11013871,0.096981175,0.062905,-0.034700394,-0.1928056,-0.097474635,0.010723585,-0.029216338,0.022949258,-0.13691655,0.098980665,-0.06501417,-0.07673462,-0.332628,0.009731907,0.11835826,0.05007716,-0.12568747,-0.18072215,0.16399899,0.043265987,0.17282367,0.09965955,-0.058282644,0.058424022,-0.059006073,0.05811824,0.15101185,0.016735332,-0.07241272,0.026985368,-0.14373867,0.11175086,-0.12490849,0.08509419,0.08315134,0.002411244,-0.12706517,-0.10430803,0.22846574,0.06068724,0.029528886,-0.06491576,-0.008793263,-0.067251615,-0.15764464,-0.100349806,-0.016104564,-0.015483521,-0.12636082,0.09393192,-0.14138888,0.117256925,0.048043407,0.03959467,-0.046469487,0.0037332876,-0.004059291,-0.19289315,0.06853642,0.08372922,-0.054555304,0.019201458,0.17114872,-0.3099978,-0.086039945,0.054044574,-0.18506454,0.065576226,0.11625628,0.04256051,-0.08984838,-0.18917984,0.17288603,0.11753613,-0.120792754,-0.057088874,0.101929665,-0.070339106,-0.15117256,0.18092182,-0.10114046,-0.0947689,0.1334433,0.086083725,0.095377475,-0.112381995,-0.07777583,0.011155536,-0.13839605,-0.104874894,-0.08163963,-0.18962054,0.04094936,0.21191537,0.024237761,-0.119085066,0.053615354,0.0062017553,-0.25157458,-0.02139822,0.03522713,-0.23770674,-0.07879288,-0.034757525,0.12536879,0.122377425,0.12653261,-0.05102657,0.0057412847,-0.062826335,0.09670312,0.077758424,0.044062525,-0.08802198,0.10840123,0.10005336,-0.14103396,0.011583255,0.04418635,-0.0074701034,-0.274749,-0.09636101,0.14220476,0.13289781,-0.18005638,-0.18411094,0.069699235,0.013391338,0.117036894,0.006008572,-0.11736389,0.11144198,0.04630236,0.19466998,0.17501539,-0.07664546,0.047011454,-0.06606491,-0.17447415,-0.15183146,0.22911513,-0.0028473055,-0.05763472,0.14615066,0.09390448,-0.04369076,0.08385749,-0.06387414,-0.07444388,-0.04198256,-0.16192451,-0.044298105,-0.1043982,-0.14581911,0.0014780769,0.26675048,-0.23691122,-0.08657976,0.027754994,0.04722774,-0.1082085,0.12171181,-0.020930683,-0.15979455,-0.04119577,-0.04323003,-0.11260395,-0.015748674,0.071218856,0.06322451,0.0061852364,0.10289576,0.24848889,-0.11215876,0.12384615,0.21982011,-0.012652681,0.045964003,0.12806557,0.115842305,0.060438227,-0.33325064,-0.06499359,0.07043802,-0.2566224,0.11767465,0.017786639,-0.22511388,0.12700534,0.028195625,-0.1813278,-0.006722367,0.05911665,0.027213078,0.051654737,-0.031263277,0.0796155,0.039842475,-0.15345578,-0.10321928,-0.06978408,-0.09505889,0.07167573,0.028069865,-0.008169961,0.011597122,-0.090011604,-0.061226644,-0.10376514,-0.14665054,-0.09891149,-0.11893122,0.033819135,0.057520807,0.11983488,-0.05124952,0.0849707,-0.15735018,-0.14841762,0.2024744,-0.09226063,-0.058223873,0.123680286,0.08829272,0.06504931,-0.102635324,0.051381417,0.14186555,0.06840774,0.036997695,-0.039235685,-0.056920856,0.01178919,-0.17302243,-0.056121953,0.010885952,-0.018363114,-0.08404419,-0.084194966,0.0539229,0.22804388,-0.061783567,-0.064364955,-0.015234645,-0.10320413,-0.04999915,-0.028254896,-0.086361915,-0.027775478,-0.04070837,0.08754185,-0.118092075,0.04611734,-0.062162876,-0.05350731,-0.14797588,-0.07496325,0.047204394,-0.10378606,-0.042987548,0.07741015,0.13766472,-0.22969575,-0.11464604,-0.03774078,0.15832579,0.024310475,-0.1231056,-0.1186611,0.0585416,-0.03606797,-0.023214867,-0.025916584,-0.09355789,-0.08029853,0.043976944,-0.098557904,0.011416373,-0.10258754,-0.06561798,-0.15309118,0.18871157,-0.00045222713,-0.20473047,0.20009467,-0.053964924,0.18757989,0.11492917,0.057411894,0.06616887,-0.12892273,0.0017776628,0.06393884,0.07582651,0.26704004,0.06576999,0.12410765,0.05760943,-0.046065252,-0.17650814,-0.03987358,0.03030311,0.038511604,-0.25563377,-0.17430933,-0.032298893,-0.08839908,-0.061382357,-0.16809943,0.098519474,0.06932079,-0.14454073,0.05558356,-0.11452939,-0.028891807,0.1360519,0.006015637,0.0005726208,-0.04793632,-0.089354984,0.06543808,-0.13150497,0.10740469,-0.12857608,0.093951985,0.16971262,0.13911343,0.060367867,0.06678751,0.23135072,0.030147154,-0.13532926,-0.15420759,0.0740956,0.033140827,-0.119603775,-0.14587875,0.14410695,-0.120743,0.12243664,0.055567488,-0.08044083,0.069843166,0.021746172,-0.0845727,-0.027753344,0.24230394,-0.17765418,0.11301283,0.20488182,-0.22936068,-0.20474035,-0.108204775,-0.10509457,0.13521619,-0.011169993,-0.19629897,0.20255159,0.17535801,-0.138591,0.09796789,-0.18589537,0.024941893,0.052461192,0.042900335,0.045197543,0.16464807,0.12985057,-0.0042125857,-0.012107441,0.075702965,0.034749314,0.05132738,-0.0016792575,-0.016642852,0.06351265,0.09845876,0.06722947,-0.111439735,0.0663573,-0.23194486,0.08609727,-0.066595666,-0.11926966,0.13501458,-0.12233591,-0.0986307,-0.16837768,-0.13942961,0.02370439,0.2169486,-0.1496181,-0.14295313,-0.16462769,-0.07742783,-0.012047371,-0.04369695,0.11364634,-0.14959021,0.09412837,-0.17779021,-0.028404398,-0.0143038565,0.054302774,-0.14264674,-0.27534175,0.13307321,0.10895064,-0.08707288,0.06598224,0.2321619,-0.047963258,-0.19836307,0.16639419,-0.15136534,-0.00062998454,-0.007329739,0.036422513,0.084709816,-0.036199346,0.14173758,-0.07579673,0.00022132488,-0.10467986,-0.021246487,-0.05266376,-0.12125011,0.17683846,0.091729306,0.21959466,-0.06668081,0.0567978,0.028967883,-0.09462453,-0.10019912,0.0072834496,0.1577553,0.064907916,0.04039788,0.21377808,-0.008263387,-0.21723863,0.094665304,-0.03898585,-0.06849438,-0.020240925,-0.13084985,0.07310172,-0.08813774,-0.12612118,0.007375772,-0.123042025,-0.047132224,-0.1764224,-0.3006029,-0.2107069,-0.008651893,-0.07249428,0.0018097323,0.009418809,0.07178933,-0.16631043,-0.07891946,-0.037312552,-0.0896021,0.13514043,-0.08130419,-0.13386981,-0.12508774,-0.12211461,0.088103764,0.0039979666,0.12364482,-0.24225487,0.25149125,-0.18343931,-0.021521987,0.113829836,0.07699617,0.13710314,-0.104677975,-0.030510249,-0.13476773,-0.0043357997,-0.25825843,0.15124725,-0.2336422,0.08265722,-0.000152973,-0.069276184,0.08170627,-0.094939716,0.29616144,-0.095151,0.00652719,-0.23109782,-0.07279339,-0.04653404,-0.08550119,-0.058280848,-0.01943019,0.085753955,-0.10895149,-0.045659937,0.1790107,-0.09702929,0.24874507,-0.013197737,-0.052106686,0.089217566,-0.038937394,-0.14631903,0.055188227,-0.035974454,0.17014538,-0.16943797,-0.102094896,0.065757714,0.049212378,-0.15379064,-0.035885543,-0.22882822,0.031526122,0.10981916,0.10864034,0.0029391607,0.103595,0.22965237,0.0952122,0.08056239,-0.096795596,-0.010530915,-0.0102455765,-0.048596162,0.11028664,0.0556762,-0.09613361,0.06300488,-0.18339464,0.23100676,0.046097964,-0.07505526,0.12940742,-0.018139368,-0.05934634,-0.06033039,0.036390908,-0.14063588,-0.13810006,-0.13971937,-0.18861952,-0.15452912,-0.223227,-0.006285325,0.011112808,-0.04436694,0.07264345,0.14778666,-0.12461772,0.13536838,-0.026846204,-0.052329335,0.1171927,0.08737276,0.044244085,-0.0426914,0.059627652,-0.08725897,-0.035257682,-0.0144982105,0.02440801,0.16340412,-0.08780015,-0.114573225,-0.08712987,0.068112284,-0.039148446,-0.13048115,-0.052734796,-0.117388204,-0.11520104,0.07711257,0.09192115,-0.008129844,-0.2356941,-0.0315453,0.026227055,0.011935734,0.07233647,-0.100085035,0.0606005,-0.093873456,-0.014371362,-0.12932253,-0.11853324,-0.054572027,0.027374865,0.10924918,-0.058547158,0.0382962,-0.121402696,0.022250926,0.033128932,0.2448667,0.03628985,-0.108332425,-0.08922144,0.15813895,-0.043211196,-0.067879744,0.12672742,0.10859251,-0.12495289,0.04736589,-0.16625804,0.07986828,-0.026386973,0.076678246,-0.12667398,-0.13761027,-0.10783098,0.10567595,-0.103769824,-0.06375224,-0.09902254,0.15498696,-0.13852699,-0.13519968,-0.13428396,-0.08478477,-0.043993115,-0.08555457,-0.08723302,-0.15135193,0.23425512,0.0032732084,-0.015154661,-0.12657821,-0.07011882,-0.1168803,-0.15503201,0.023387026,-0.14261228,0.04262809,0.19322896,0.05371743,0.16237886,0.05118677,-0.033478003,-0.08612294,-0.0026657293,-0.043239634,0.075076394,-0.18347916,0.1061798,-0.06281041,0.07683922,0.053474437,-0.04978098,-0.11952365,0.146617,0.043699,-0.08359954,-0.14898804,0.03713082,0.021566804,-0.0022229382,0.10907815,-0.03809083,0.014184243,-0.046147093,0.025106829,-0.17069887,0.15451524,-0.1214193,-0.16892298,0.0043764994,-0.07416362,-0.19188794,0.13433899,0.04171009,-0.030591074,0.032709576,0.0824369,-0.028871838,-0.17459185,0.11459618,-0.08490373,-0.14683366,0.15675445,-0.12271386,-0.0039586034,0.14536639,-0.30629638,0.17335291,-0.0328534,-0.108113006,-0.061438546,-0.18936238,-0.07725842,0.09876048,-0.019926725,-0.03590187,0.16289592,0.047820903,-0.07692144,-0.116886325,0.11467569,0.15158166,0.08744806,0.07093425,0.09858242,0.14860119,-0.15197283,-0.10513016,0.17074342,-0.15362844,-0.028194064,0.05854223,-0.04441358,0.018496443,-0.15952642,0.022833914,-0.0073534693,0.075849846,0.044905096,-0.01276182,-0.024418775,-0.07997584,-0.15596987,-0.23230605,0.11742196,-0.07598058,-0.08308296,-0.011917814,0.17435329,0.117076315,-0.061261978,0.19126655,0.051091947,0.06515497,-0.05054637,0.017968055,-0.13790236,-0.027748274,0.109658845,-0.1361786,-0.14978367,0.15797602,0.039468627,0.0103444215,-0.08922033,0.039446726,0.081813976,0.07196366,-0.10527545,-0.11804331,-0.16132474,0.04557215,-0.06795356,-0.007171429,-0.17699178,-0.09416697,0.04250347,-0.0089700185,-0.07973925,0.13016546,0.0107087735,0.09261241,-0.08417199,0.033724885,0.11337938,-0.15324523,0.068524525,0.13872942,0.05242937,-0.03477725,0.04504257,-0.17160669,-0.03992959,0.1092543,0.030795027,-0.044304084,0.150389,-0.16946883,-0.1559283,-0.16755699,-0.06824248,0.14903536,-0.1537087,0.10177613,0.14008494,-0.14371012,0.18115242,0.27683014,0.03683164,-0.070628,0.25737226,-0.086698614,-0.13531105,-0.16995049,-0.1266348,-0.11588208,-0.08127402,0.009272193,0.10016034,-0.14323008,0.083233885,-0.06300544,-0.070628114,-0.08754927,0.07994488,-0.036407404,-0.03786893,-0.12645096,0.0755936,0.07619345,0.23309362,0.048863076,-0.06977234,-0.058536235,0.03646376,0.26056418,0.11912556,0.13259487,-0.08280663,-0.036081683,-0.09135735,0.010761096,0.22418012,0.12993766,-0.028114865,-0.09444498,0.04178246,-0.045371115,0.09238578,-0.0047395593,-0.24569793,-0.2249255,-0.34537265,0.19802688,-0.15947552,-0.0874546,-0.06253067,-0.15567549,0.07765724,-0.10686317,0.014484354,0.02407479,-0.00083957514,-0.06386864,-0.18454364,-0.11977395,-0.2720409,-0.0870516,0.13789734,-0.15091321,-0.046269003,-0.11206395,-0.08155951,0.13575055,-0.021329548,0.013545263,0.07416561,-0.1601175,0.054968003,-0.30073187,-0.14279237,-0.2095036,0.023878988,-0.14041741,-0.019778969,-0.14037943,-0.19253193,-0.063876376,0.04854517,0.098600544,-0.08442473,-0.09184756,-0.11001291,0.23512137,-0.09910447,-0.022675538,-0.0056227697,0.17925222,-0.15718502,-0.047264576,-0.017599082,-0.04432736,-0.09850348,0.20780273,0.14036366,0.0361014,-0.06440452,-0.04486366,-0.14192957,0.018168516,0.09405345,0.047101382,-0.17190409,0.19525248,-0.12552135,0.02976374,0.0046190103,-0.010550687,-0.03352782,-0.013366817,-0.047445565,0.20008515,0.11923883,0.030528279,-0.09936618,0.13467054,0.039294012,-0.13084176,0.0081982,-0.23523904,0.123995654,-0.083940916,-0.09137649,0.06859299,-0.05161627,-0.24568456,-0.036508307,0.042908784,-0.13600397,0.17526431,-0.0740687,-0.020693922,-0.19047776,-0.004556801,0.025708439,0.04867507,-0.037700206,0.1761248,0.14012606,0.036232665,-0.07858526,-0.020756619,-0.18426998,-0.032942984,-0.047649793,0.030213697,-0.045818713,-0.002399624,-0.14664999,0.040707663,0.140255,-0.08723496,0.13956837,-0.26995632,0.11562715,0.21238844,-0.09542474,-0.18378574,0.055678133,0.0373381,0.013132163,0.058872335,-0.037522968,0.070971236,-0.035869345,0.15905462,0.0088656135,-0.18973501,0.20196319,0.09712577,0.10219708,-0.03614935,-0.033734597,0.021920644,-0.030406607,-0.13255078,0.16748111,-0.02223313,-0.128541,0.015556697,0.056813423,0.086685635,-0.056469228,0.1013298,-0.04311673,-0.012552094,-0.1387099,0.028890057,0.13944267,-0.0024588723,-0.038732845,-0.010067675,0.13130623,-0.12796918,0.0053999606,-0.16999799,-0.019324536,0.24814683,0.041740432,-0.27626476,0.14327255,0.22179976,-0.17171872,0.12997672,-0.19482195,-0.11799731,-0.1588,0.006966001,-0.006459931,0.0835067,0.004227448,-0.01594184,0.11630127,-0.034989685,-0.08343402,-0.049653534,-0.15695833,-0.022978993,-0.13145472,-0.12674154,0.07334197,0.006713312,-0.0051256716,0.036377672,-0.12008445,-0.008877633,-0.013669668,0.07470954,-0.01214037,-0.256824,0.0069903177,0.06438921,0.120791204,-0.04547573,-0.020526296,-0.13417162,0.12019616,0.11789201,0.0623793,-0.16988951,0.116184525,0.1399754,-0.08178529,0.00892895,-0.15248083,-0.08765824,-0.070905626,-0.1029362,0.053791016,0.07140244,-0.07641067,-0.084534526,0.15523015,0.06727407,-0.15893994,0.17992638,-0.04917409,-0.14585687,0.06320363,-0.056085706,-0.1106969,-0.05679162,0.14611565,0.14167055,-0.06362906,0.056314867,0.25969392,0.024708476,-0.13675557,-0.040485974,0.02327365,-0.025799608,0.19026959,-0.05436554,-0.13311443,-0.13561599,0.1195695,0.010935564,-0.088405654,-0.0417684,0.008887428,-0.1411815,0.19893067,-0.049438857,-0.026572822,-0.16750015,-0.21666409,-0.15563494,-0.14319155,0.14621545,-0.18279442,-0.031588677,0.09651781,-0.08594632,-0.068774074,0.04040703,0.05136933,-0.05168839,-0.12671812,0.2545748,0.13104597,-0.14989908,-0.085507296,-0.12750064,0.16908005,-0.05111316,-0.021400575,0.0842967,-0.20434457,-0.054653265,0.05656874,-0.09707553,-0.13300921,0.12460479,-0.068126835,0.016609296,-0.11533266,-0.0070329946,-0.12913917,-0.18050565,0.19655034,0.08451516,-0.053634666,0.0043789423,0.1217007,-0.051543783,0.03614517,-0.055707976,-0.05096221,0.0731815,0.04694873,0.012022677,-0.06816903,-0.025234845,0.101992965,-0.019154932,-0.14682044,0.25568217,0.14765428,0.10467604,-0.052692946,0.039722096,0.0010020761,-0.036840588,0.057771973,0.12135497,-0.033356983,-0.053155653,-0.15169264,-0.04408949,0.12531805,-0.06099704,-0.19188845,-0.15247625,0.09358339,0.0025459111,-0.06643626,-0.1281161,-0.10571379,0.014418928,0.09055131,-0.08643893,-0.12291344,-0.0020614972,-0.15868334,0.041896187,-0.06349891,0.05588344,0.2803851,0.1350767,-0.1271743,-0.1350918,-0.10233794,-0.0654533,-0.07153962,-0.1394322,-0.033089563,-0.17981969,-0.14983901,0.043271624,0.01187065,-0.027585367,0.010526013,0.10183917,0.033619538,0.078451395,0.02983616,-0.15121512,-0.1707158,-0.174964,0.07125811,-0.15145116,0.06010079,0.068185784,0.05705368,-0.070834175,0.111160174,0.043275118,0.029627182,0.038941666,0.18315884,0.04096968,-0.07373665,0.0040980694,-0.29295352,-0.04933068,0.0556685,0.20254397,0.042370107,-0.23937279,0.13281739,0.045885447,0.030110152,-0.25266963,-0.24553156,-0.096101984,0.029387027,-0.04771708,0.18199885,-0.080927044,-0.12994209,-0.07634592,-0.22779936,0.058526278,0.15046512,0.047397964,-0.006163805,0.0012780402,0.07132823,0.010982335,-0.11229419,-0.13925299,-0.07651605,-0.13848276,0.026490152,-0.041643005,0.10517432,-0.09509727,0.010299222,-0.013539386,-0.092628404,-0.0019499229,-0.00917813,-0.10245862,-0.0632266,0.070546396,0.059770405,-0.10858401,0.062059734,-0.2849068,-0.15536086,0.11354035,-0.11627509,-0.115867995,-0.076497264,-0.11875929,0.23062995,0.13831764,-0.009683543,-0.14869665,0.009079363,-0.14061573,0.096368015,0.14074339,-0.11341238,0.016808433,0.1646259,0.105183035,-0.05794032,0.009371767,0.020986982,0.08658578,-0.119051956,-0.06482758,-0.13853395,0.009677444,-0.06253864,-0.03958231,0.020871243,-0.06589928,-0.22409034,-0.12407512,-0.02771512,-0.012378139,0.004310265,-0.14370899,0.13750575,0.14226137,0.17601962,0.15332557,-0.038857583,0.08188324,-0.015387146,-0.026196491,0.091642424,0.17463169,0.052263852,-0.052554205,-0.24059895,-0.04450461,0.11726305,-0.2373033,0.14824177,-0.08444742,-0.13104282,-0.061803892,0.06736615,-0.110423565,-0.10881805,-0.2016179,0.15202363,0.044567257,0.11898824,0.2179296,0.053491984,-0.021094827,-0.0055116615,0.056874808,0.08860528,-0.088935524,-0.06144108,-0.15977806,0.19003452,0.012346729,0.03855325,-0.15682189,-0.07759726,0.038957972,-0.11189639,-0.057729363,-0.01826375,-0.11910607,-0.07453492,0.12113439,-0.07336657,0.03177253,-0.0024371513,-0.10915782,-0.096864946,0.13572866,0.01739047,-0.06664647,-0.17035604,0.06450095,0.10807758,-0.12295156,0.05596976,-0.028179629,0.008994128,0.15228269,-0.16246174,0.078097604,0.018600734,-0.04920793,0.096251644,0.18729343,0.09392272,-0.13016571,-0.021019312,-0.0038025647,-0.076943405,0.08254048,-0.014741911,-0.070318595,0.15432411,-0.1594535,-0.04231769,-0.05821618,-0.006048062,-0.088631496,0.1320222,0.12824917,-0.1574726,-0.15179835,-0.033795323,-0.25490993,0.18732357,-0.037871588,-0.110757604,-0.02866752,-0.11942421,0.0947429,0.065636165,-0.054997373,0.29331172,-0.13010752,-0.10957934,0.0057249414,0.06628544,-0.10271973,-0.05524682,-0.009233019,0.04049298,0.13664934,-0.12446346,0.23641653,-0.11092866,-0.08750397,0.04253957,0.028511861,-0.057881474,0.06479938,-0.017036129,-0.09568876,0.032620613,0.24879922,-0.029260233,-0.018996447,-0.29479554,-0.055972397,0.033102483,0.05309861,0.12842345,-0.22500375,0.15344839,-0.041997597,0.18804725,-0.012127797,0.07966591,-0.058715913,0.04240986,-0.09267374,0.10850646,0.19981475,0.102465816,0.123369515,0.045127403,-0.090491824,0.010665791,-0.07821489,-0.06507153,0.14739247,-0.16581255,0.08091119,-0.0819878,-0.08459997,-0.01604243,-0.24853122,0.019560618,-0.13752761,-0.13439292,-0.009449729,-0.09123459,-0.123460524,0.04286124,0.046789758,0.00087367254,0.11299229,0.047550857,-0.19164649,0.0985164,-0.032476783,-0.07268174,0.0105337305,0.05663503,0.24053204,-0.13695666,0.020047724,0.08899123,-0.10125528,-0.061372645,0.14418526,0.09475158,-0.028772114,-0.18299955,0.17869695,0.14664938,-0.19489542,0.04928696,-0.11997893,-0.24514264,0.09889615,-0.08450539,-0.23973611,0.12241253,-0.036374334,0.06830504,-0.07069629,-0.025691265,-0.1262163,-0.019104354,-0.1139486,0.09339478,0.12429865,-0.16758978,0.00333966,0.024694499,0.12891118,-0.047937647,-0.031128332,-0.08084659,-0.04603873,0.08254707,-0.07386386,0.08742689,0.12165441,-0.005923919,0.031156821,0.20265022,-0.098719016,-0.024343848,-0.07952433,0.16687112,-0.13676122,-0.042817328,-0.0276311,0.19696167,-0.13224746,0.06513736,0.16257197,-0.13025853,0.112964675,-0.014660562,-0.1744298,-0.04456375,0.027808404,-0.1592688,-0.025056195,-0.043746132,0.21891612,-0.15624408,-0.16996828,0.10437967,0.10245499,0.030280102,-0.0033040817,0.037630387,0.2010965,0.08602173,0.040230256,-0.16748425,-0.059865415,0.0645063,-0.076448135,0.023267964,0.13874257,-0.10954669,-0.02407942,-0.09502415,-0.15194234,-0.14918995,0.10970666,0.09752868,0.11901031,-0.06413081,0.12647825,-0.0029843852,-0.14436561,-0.08570119,0.087930135,-0.1436287,0.045643494,0.16835773,0.09681313,-0.03208813,0.0030446942,-0.011633108,0.1337452,0.12134161,-0.15870735,0.22392255,0.00640746,0.11822382,0.06955625,0.1064224,0.124607824,0.043407816,0.14267224,-0.061363023,-0.12811843,0.1144223,-0.13969257,0.0937972,-0.12322069,-0.0071992646,-0.12529708,0.052816384,0.099863954,-0.10630533,0.10949645,0.11397841,-0.008795386,-0.15480073,0.07576444,0.23517945,-0.17072503,-0.042803057,0.008792613,-0.22420731,0.10259049,-0.11057552,0.12744209,-0.071072794,-0.2812611,0.15633844,-0.06335934,-0.076726824,0.098243825,0.12962997,-0.055091493,-0.2516072,0.1382763,0.106798165,-0.14418879,-0.109950274,-0.12080715,-0.19787963,0.099744596,-0.0105299475,0.18164217,0.060662575,-0.02640086,0.08180654,-0.12943995,0.05967426,-0.04001895,-0.108143665,-0.17329453,-0.14995015,-0.07765,0.09716985,-0.12718886,-0.018817777,-0.06444491,-0.021166375,0.043881577,-0.13510017,-0.14842986,0.089240745,0.04179236,0.1559467,0.2078416,0.10156717,0.12181614,0.0107310265,-0.08250412,0.053419974,-0.04382606,0.10301121,-0.16302794,-0.0028899328,0.03599197,0.0899511,-0.14626904,-0.11451594,-0.078720294,0.04387235,0.18239468,0.0405935,-0.0022340512,-0.0801492,0.019198509,0.09873135,-0.15698765,0.10972134,0.11405685,0.0036992824,-0.17779848,0.043271538,0.10082806,-0.17073634,-0.120039836,-0.010975531,0.17020877,0.10702314,0.1526136,-0.116836816,-0.07744388,-0.083312616,0.12623797,-0.23986697,0.002426143,-0.23006693,-0.12207667,0.016284706,-0.0010514625,-0.033565667,0.032046374,0.010029707,-0.17150758,-0.013041605,0.039351534,0.23222195,-0.042613093,-0.015392722,0.009607658,0.114313975,-0.05327546,-0.07975007,0.09131878,0.026646256,-0.0972832,0.08975482,0.22125375,0.023714732,-0.08994163,0.1348049,-0.07186603,-0.049176566,0.002425663,0.020710541,-0.047281932,-0.08089411,-0.010439603,-0.10242556,-0.1347999,-0.19332393,-0.13108607,-0.15705796,-0.0041598026,0.09418668,-0.007878146,-0.27670753,-0.09653879,0.058684085,-0.03610226,0.17919563,-0.09835021,0.05619029,-0.2134073,-0.08663375,0.024530351,-0.16933835,0.16885501,-0.21538967,0.13309912,0.067492224,0.08823623,0.009459289,-0.006060502,-0.21030796,-0.009735254,0.009700707,-0.029226447,0.09694272,-0.10707455,0.06763124,0.11115394,0.044666015,-0.06977625,-0.063203245,0.06092219,0.10618684,0.0780054,-0.0912596,0.051523946,-0.008603886,0.101362295,-0.05363937,0.038273055,-0.009173511,0.009342228,-0.005790984,-0.21038333,0.03838941,0.10720667,0.17148438,-0.12202567,-0.123008564,-0.0041070976,-0.17040117,-0.018311886,-0.10729238,-0.05518888,-0.12588416,-0.020723755,-0.004464679,0.09975342,-0.02488373,